1500 128
692 0.087190546 0.0671233 -0.081276245 0.094036765 0.38230038 -0.08139054 -0.4008692 0.241565 -0.120591745 0.050147492 -0.10640561 -0.2913722 0.16911958 -0.06821535 0.24145283 -0.08185724 -0.4895173 0.3597801 0.07743922 0.21778855 0.09420045 0.00651489 0.25693032 -0.5130966 -0.39594877 -0.38622633 0.06432952 0.09932032 0.344148 0.19560318 -0.26141804 -0.0014533564 0.24731596 0.10950891 0.08936902 0.19097997 -0.37669504 -0.3976949 0.4421788 0.033985883 -0.3783297 -0.09183225 -0.086980894 -0.043346033 0.14606573 -0.043782283 -0.16525921 -0.03561615 0.23236711 -0.33889675 -0.20269252 0.3225073 0.14691396 -0.026398556 -0.2980513 -0.220595 -0.038179338 0.34028417 0.06825435 0.22768581 -0.24916147 -0.085420966 -0.041812632 -0.09699715 -0.017250415 0.0626178 0.24903229 0.13850594 0.26497754 0.28510967 0.33457816 0.102935754 0.0799392 0.29491746 -0.12869903 -0.15223089 -0.1854981 0.23474245 -0.10665686 0.113607034 -0.15327604 0.30583355 0.005455127 0.39595476 0.07009441 0.17111637 -0.18371537 -0.26280797 0.022051603 -0.45371267 0.10112498 0.31429842 0.2572233 0.15923376 0.1362301 -0.21488912 -0.055046972 -0.062260002 0.14090993 -0.08688428 -0.21810547 0.0731872 -0.24576122 0.06616879 -0.032555036 0.04274911 0.48740336 0.27407148 -0.05811267 -0.21374358 0.024885945 -0.08480235 -0.2579046 0.04768722 0.015158978 0.2783883 0.24965651 0.08443491 0.017407432 -0.10706933 -0.08750394 0.08044159 0.26315412 -0.25509828 0.27809536 0.15141667 0.15934184 -0.48744676
399 0.22043408 0.40674552 0.082088605 0.11996468 0.22265327 -0.08030499 0.117101714 -0.059184372 0.13273486 0.25861126 -0.034818847 0.16140969 0.24710715 0.3987785 0.0053299624 0.0397077 -0.3596795 -0.45914146 0.19095494 0.46798256 -0.22049384 0.13303892 0.20738725 -0.49005482 -0.106796175 -0.0562135 0.09882227 0.12022596 0.08827005 0.17500058 -0.055484638 -0.2274923 0.10773125 -0.48091367 0.205437 -0.3345387 0.11943327 -0.2333197 0.28048205 -0.020994414 0.23018607 -0.10398156 0.03955319 0.3903499 0.40267238 0.23385663 -0.07079765 0.16661412 -0.21424891 -0.13405764 -0.06782501 0.18346141 -0.25218558 0.01109017 -0.017494226 0.15527993 0.2013643 -0.12463728 -0.15414178 -0.3040378 -0.3670209 0.23632768 0.21636659 -0.1810233 -0.2754118 0.22569214 0.22426976 0.16353106 0.035445265 -0.17353898 -0.16811608 -0.1724788 -0.31768897 -0.42297295 0.1431348 0.046786673 -0.12207893 -0.07191973 0.29113153 0.13770626 0.03425834 0.04086403 -0.079595715 0.24453358 0.10866724 -0.07392659 -0.041136 0.2541523 0.42156675 0.11877714 -0.32075855 0.33201152 -0.010545743 0.36024025 -0.17660788 -0.026255602 -0.3022303 -0.08389344 0.10293372 0.11170392 0.10336215 -0.08902148 -0.069832005 -0.4457964 0.11300468 -0.20836677 0.15689014 0.13629593 -0.028894696 0.029742727 -0.03985685 -0.2715864 -0.29406303 0.2269418 -0.1884411 0.29770076 0.25799942 0.3569125 -0.14199346 -0.19274117 0.11968006 0.036851663 0.34565768 -0.18633632 -0.07052663 0.1950012 0.05893653 -0.0861999
458 -0.22247185 0.14655128 -0.031303555 0.18399541 0.12242518 -0.074293904 0.19450791 -0.13727367 0.3120588 0.14086986 0.38425234 -0.40355256 -0.10274737 -0.31536987 0.35114893 0.21192877 -0.19942774 0.093531795 0.12904459 -0.09112001 0.069453016 -0.13959512 0.12417364 -0.0058328817 0.016335037 0.3615709 0.05832591 0.449962 0.26707488 -0.4091216 -0.3787748 -0.32124057 0.07133313 0.27027357 0.17707731 -0.26908022 0.15537836 -0.031445667 0.14277416 -0.020197159 0.014514237 0.07096157 0.3390743 -0.12280847 0.1126997 -0.1438386 -0.58414024 -0.10011615 0.057159446 -0.122226775 0.29831716 0.20828961 0.0030910037 0.12889698 0.056554478 -0.20218316 0.0032341005 0.04549497 0.11434244 0.23674825 0.22167553 0.3510834 0.34351167 0.14443354 0.11519609 0.07308518 0.18475299 -0.30589327 0.07005111 0.30387288 0.18220682 -0.1346241 -0.08617961 -0.11281408 0.1368888 -0.23541264 0.1829656 0.40130794 -0.20843756 0.4758817 0.06860362 -0.3445871 -0.021242572 -0.20749411 0.20304292 0.5326647 0.5636821 0.18841289 0.15036412 -0.009901777 -0.0591337 -0.2612807 -0.5482841 -0.0730431 -0.17229652 0.11927347 -0.061425816 -0.0445351 0.15581666 0.025532972 -0.038875427 -0.011318022 -0.07254252 -0.4501281 0.481496 -0.13459188 -0.20849971 0.20361051 0.0624655 0.14808021 0.17013253 -0.026664894 0.036270898 0.12895177 -0.23352857 0.30479312 0.1389039 -0.064299695 0.053329244 0.08351542 0.13028535 0.09188681 0.14853501 -0.09102502 0.09245231 0.044857413 0.2112048 -0.06782365
1488 0.13234074 0.19112918 0.009065905 -0.39345205 0.74430925 0.13515896 -0.14470066 0.0663684 0.08903656 0.11504619 0.08718351 0.009529305 -0.18211022 -0.038875308 -0.040870577 -0.06994885 0.050132465 -0.060073547 -0.061944406 -0.50364476 0.2411549 -0.12519011 -0.14156172 -0.19655918 0.07292858 -0.012780785 0.019505922 0.14355108 0.22963619 0.027364343 0.28948078 0.14412263 -0.3335345 -0.10542464 0.14820527 -0.13761146 0.14823765 -0.06493164 -0.1862566 0.077854455 -0.061870497 -0.32517758 -0.09816409 -0.1961597 -0.0767511 0.09721773 -0.18033953 0.47606283 0.068957284 0.12768503 0.08663739 0.14655344 -0.06396495 0.16030554 -0.34282425 -0.261959 -0.005883807 -0.41037035 0.1605765 -0.28897315 -0.14209022 0.0014081079 0.20035532 0.05369253 -0.16694388 0.27371153 0.07964394 -0.031796657 -0.113272615 -0.4866417 -0.1632663 -0.0878175 0.20359126 0.045484137 -0.08084106 -0.24714135 -0.057024974 -0.21536048 -0.19041109 0.5534957 -0.017149612 -0.043052275 0.054268524 0.027194588 0.074899726 0.014557058 0.066498004 0.14883065 0.052451827 0.26664934 -0.27258763 -0.07595151 0.24894339 0.13295078 0.51875854 -0.3230813 -0.20280275 -0.22652966 0.20702378 -0.5618699 0.08712011 -0.14020206 -0.3346744 0.4853024 -0.02492451 -0.07502871 -0.08345902 0.46684712 0.23429091 0.35846776 0.08418448 -0.28600544 0.10388435 0.12189596 0.073039986 -0.08003876 0.21550182 0.37832552 0.002383393 -0.00081232644 -0.14088786 0.32371646 0.30615106 -0.4209999 -0.048951272 -0.19123659 0.14102569 -0.019446235
1413 0.22391525 -0.17205188 0.059351455 0.35692003 0.17119375 0.24400684 -0.07148373 -0.12546836 -0.2144727 0.06475861 -0.47602654 0.06639427 -0.0758212 -0.37217307 0.06675224 -0.032181777 -0.08553255 -0.015992109 -0.10498679 0.086556114 -0.19535987 0.22076443 -0.20907842 0.08088675 -0.21622793 0.3429326 -0.039001383 0.020666642 -0.011727816 0.083004765 -0.14099911 0.061475627 -0.17077182 -0.46182883 0.019366417 -0.25159496 0.3347076 0.32954684 -0.26164332 -0.13779296 0.4469585 0.06747361 -0.14990954 -0.33797804 0.11244969 0.046529315 -0.19995333 0.31987232 0.29008377 -0.21130456 -0.23075864 0.2941259 0.0852574 -0.16040927 -0.11477527 -0.24154864 0.09829958 0.07362733 0.014600616 -0.10321158 -0.16792424 0.054288696 0.09219001 -0.21097983 0.25430065 -0.2854694 0.27903336 0.27429536 -0.110086896 -0.04102947 0.104369156 0.15907666 -0.10187104 0.19389012 0.16598684 0.25705758 0.013675432 -0.23367631 0.010652279 0.4156266 0.054567326 0.15148981 -0.15884835 0.025237214 0.2003846 0.015771132 -0.044592027 0.057638258 0.16736199 -0.008528852 -0.12844615 -0.23187497 -0.0361168 -0.17192438 0.21449858 -0.12294439 -0.21856613 -0.21896026 0.20910314 -0.30349654 0.10461055 0.12140678 -0.1271536 -0.21474443 0.2139283 -0.067153506 0.27848417 0.10155371 -0.079248816 -0.4530646 -0.027516443 -0.050133623 -0.47876143 0.047393452 -0.29169777 0.054317035 0.09877998 -0.42283908 0.38406557 -0.37436125 0.19423038 0.139951 -0.2931492 0.57943904 -0.24143407 -0.11901026 -0.1231519 0.32935444
330 0.27318868 0.019279402 -0.11265071 0.1458473 0.37538332 0.050069354 0.5765896 0.106085785 -0.26797566 0.030712727 -0.07678839 -0.032228418 -0.0032996915 -0.12941629 -0.04693719 -0.24457271 -0.17736055 -0.3814388 -0.16218928 0.33873874 0.1785787 -0.113701396 -0.04079691 0.29800257 -0.45192865 0.10395668 -0.040418744 0.096298896 -0.30643323 0.10007149 -0.24275681 0.32043898 -0.11953462 -0.32474038 0.007692234 -0.31273863 0.2946646 0.28734055 -0.10638881 0.044357236 0.33726048 0.2518238 -0.44063056 -0.07365174 0.2502928 -0.34867567 -0.252215 0.2301537 0.15325285 -0.26254204 0.005283702 0.44100478 0.08820526 -0.4076222 -0.12746984 -0.061361454 -0.000723605 -0.18823794 0.11570984 0.19778092 -0.17874108 0.34325427 0.35547805 -0.40461475 0.43185103 -0.1455448 0.25448444 0.086121336 0.16638722 -0.015286651 0.10534636 0.0798117 -0.1347283 0.14345838 -0.108890235 0.17070666 -0.17475487 -0.23853981 0.050676588 0.046095304 -0.05791771 0.281733 0.06600684 -0.30758482 0.040893544 0.056362584 -0.6001693 0.023063982 -0.17677194 0.26999363 -0.020301463 -0.052595627 -0.25791842 -0.2678298 0.055788394 0.073036976 0.1444842 0.06816392 -0.18869737 0.2055561 0.08155548 0.08936349 -0.32118094 -0.4444353 -0.070021845 -0.3271093 0.13639303 0.09597787 0.1919658 -0.5242112 0.19075817 -0.104282014 -0.1626772 0.4110455 -0.14268877 0.07091656 0.3470029 -0.09969194 0.26278153 -0.028630756 -0.16906823 0.25300178 -0.148046 0.59174913 0.0022601828 -0.20098682 0.015882833 0.380646
150 0.096703306 -0.16184817 -0.14196669 0.2308801 0.004388152 -0.22214569 -0.06918064 0.0094332425 -0.10995994 0.16350006 -0.20649576 0.13941638 0.19727717 -0.048970077 -0.05794793 0.13541156 -0.11250538 0.3774346 -0.18284601 0.06628384 0.00038512275 -0.26803157 0.065982744 0.6237556 -0.29626298 -0.14966771 0.09420979 0.08131543 0.10553517 -0.07416794 -0.23511997 0.05909516 -0.35581878 0.18932186 -0.00044174126 0.50234455 0.36827686 0.039954178 0.12968232 0.4015973 -0.17469156 -0.47204813 0.43625855 0.0066957567 0.10936305 0.04703835 -0.15515187 -0.062247995 0.15413286 0.22826758 0.038034055 -0.0645422 0.3335437 -0.027826978 -0.36667138 -0.10188364 0.030467125 -0.41727737 -0.009657294 -0.3604271 -0.1590681 0.049656585 -0.26620057 0.18417461 0.33576542 0.19025433 0.66657835 0.28333902 0.4713101 -0.057291042 0.35153204 -0.3502901 -0.16662511 0.00484566 -0.13814615 -0.23435439 0.10146666 -0.14701019 -0.15083815 -0.19191289 0.21283963 0.11160706 0.15384485 0.17090955 0.025635997 -0.19794977 -0.112617746 0.13229942 0.044651806 -0.0073130163 0.037371736 -0.34474495 0.17887147 0.4010295 0.25738865 -0.2066403 -0.30727357 -0.012201943 0.2991153 0.28466082 0.061975587 -0.3093616 0.19376776 -0.20667486 0.35256577 -0.039929792 -0.21650478 -0.06665192 0.37912956 0.121990286 -0.34069714 -0.22921166 -0.017192356 0.2210785 -0.20257436 0.0631592 0.0652768 0.10448973 0.20437935 -0.12641132 0.33593026 -0.091879725 0.11712654 0.0142228175 -0.18934058 0.08195532 0.17135662 -0.21102747
1032 0.112945646 0.150785 -0.11597597 0.17763485 -0.19480015 -0.14037311 -0.08545812 0.015858833 -0.24940579 0.2228342 0.14214307 -0.32747602 0.11186188 -0.149658 0.19285877 0.15817213 -0.023370977 0.03892677 0.20077252 -0.38580066 0.292794 -0.14370388 -0.19108546 -0.30713457 -0.36108673 -0.11258784 -0.08541203 0.09148453 -0.045573007 0.06885476 0.38882077 -0.27837715 0.12456198 -0.23752777 0.30828282 0.15738288 -0.47990102 -0.140501 -0.23850945 0.078507386 0.067219526 0.3305297 0.060058475 -0.0032333422 0.11780019 0.16048619 0.008344718 0.005274265 -0.2126652 0.5058073 0.1666015 -0.17037159 0.3438054 -0.11694885 -0.13853239 0.00626427 -0.114588484 0.1327305 -0.18863648 -0.58723134 -0.06029048 0.23058884 0.24215646 0.005338111 0.28114098 0.119384386 0.3276406 0.047135662 -0.34762517 -0.07334909 0.08393543 0.03712762 -0.26676765 -0.21608312 -0.25259158 0.11328149 0.038050726 -0.2030574 0.10311377 -0.16599347 0.110466175 0.56373435 0.42271233 -0.15269606 0.15279503 0.30645695 -0.23296681 0.1075822 -0.02093102 -0.15970369 0.08654008 0.1486406 -0.12713201 0.23376538 0.11800553 0.07269293 -0.017363928 -0.14884058 0.23270208 -0.09009496 0.34447002 0.007877199 0.1472105 -0.52602017 -0.12745976 0.12515202 -0.28722286 0.034225337 -0.10404093 0.024362432 -0.61124665 -0.1550871 0.31737906 0.08026844 -0.10476052 -0.022051629 0.6233121 -0.13143703 0.107107975 0.19002889 -0.027435776 0.050264657 0.1377337 0.24824987 -0.08766728 0.228306 0.17856683 0.45420069
613 -0.07651178 0.07629665 -0.025345333 -0.038426608 0.20647496 -0.046191584 0.25224382 -0.0640739 0.46443132 0.08543028 0.33197543 -0.33549666 0.026516242 -0.2068414 -0.05787991 0.088570125 0.108575836 -0.29842383 0.32135293 -0.37724406 -0.0043656547 -0.1451701 0.111208916 -0.07747812 -0.015847009 0.3182548 -0.2972271 -0.108023494 0.06529445 -0.5440728 -0.14707997 -0.070513405 -0.31703714 0.0898951 -0.2218116 -0.5021155 -0.023976246 -0.26382414 -0.0089998385 0.075324334 0.27604985 9.903713e-05 -0.12076956 0.17706206 0.21021338 0.026562393 0.052204244 0.22244969 0.0787421 -0.40594715 0.19304584 0.23547213 -0.014180736 0.09123159 0.003956207 0.03518901 -0.22972466 -0.35360312 0.13935001 0.33141357 -0.035021037 0.039446037 0.18381754 0.079201154 0.45511416 0.15577966 0.28362572 -0.1404968 -0.14841563 0.27530617 0.2872129 -0.59820765 -0.10080447 -0.2607271 -0.107265614 -0.13289826 -0.1299295 0.04742667 -0.15424591 0.3860587 -0.30184472 0.020219581 0.2849103 -0.062293477 0.25150943 -0.0015660016 0.4937774 0.16267458 0.39802524 -0.015566935 0.25620127 -0.25638247 -0.51700956 -0.08055824 -0.22092906 -0.075568646 -0.19651489 0.39899227 0.06514035 -0.15083309 -0.28333107 -0.08947185 -0.040919818 -0.47693965 0.23738676 -0.19365317 -0.24857484 0.10243336 0.1666207 -0.045916557 0.15220937 0.08673476 -0.17494616 0.22164145 0.0848018 0.42937872 0.2849065 0.13987738 0.3132245 -0.09691728 -0.27430445 -0.0406379 -0.0030636657 0.308872 -0.15004687 0.18015091 0.04018159 -0.37312955
871 0.4278963 0.0025600595 0.1538896 -0.02459876 0.08317292 -0.13282594 0.18079473 0.22007392 -0.34095445 0.46343535 -0.2763902 -0.17883165 0.15664731 0.17107558 0.033769213 0.0847807 -0.005841175 -0.20371765 0.1199632 -0.0070807366 0.3185572 -0.019156951 0.18409951 0.18239842 -0.43619725 -0.023589978 -0.11857562 0.096158035 0.12827739 0.09982201 -0.054294337 -0.16865136 -0.031985007 0.05882481 -0.2869701 -0.092473745 -0.011130873 -0.24461336 0.040663216 0.4957097 0.039865553 0.23491418 -0.27780557 0.01464379 -0.013052158 -0.07642825 0.06379457 0.16979009 0.04884225 0.1163769 -0.12999396 -0.1889919 -0.3249233 -0.019509098 -0.35589272 0.044806432 0.31112957 0.07831338 -0.4075158 -0.11245195 0.17083345 -0.18104771 0.14639397 -0.24650274 -0.027023805 -0.09182854 0.33236018 -0.004131251 0.1498521 -0.06814378 -0.003965997 -0.007685639 0.13282183 0.07572257 -0.13515005 0.15756254 -0.012435691 0.2715113 0.39381203 -0.06699108 -0.19758925 -0.12998028 -0.085397035 -0.44093254 0.22814843 0.20899247 -0.21796106 0.04152804 0.1195185 -0.2705865 -0.2528154 0.39868683 -0.014413934 0.05129516 -0.23575558 -0.048009593 0.044765167 0.3329938 0.39437285 -0.024838265 -0.40061095 -0.05670908 -0.6574675 -0.5314124 -0.14883831 0.05470244 0.1832172 -0.04510125 -0.08678772 -0.080053225 0.05283424 -0.32023674 0.11593096 0.4063496 -0.2412367 0.3665653 -0.08517541 0.11381349 0.21736024 -0.32985544 -0.09600761 0.3040394 -0.2031137 0.25888994 0.31466293 0.2637354 0.4545675 0.10988849
331 -0.34277096 0.049013056 -0.20474729 -0.082716875 0.07805125 -0.0389981 -0.10371195 -0.01387765 -0.04607733 -0.17722878 0.01705424 -0.13728532 0.14391655 -0.036198933 -0.035054017 0.13803948 0.17072226 -0.33869097 -0.101066865 0.20455088 -0.19667727 -0.034214094 -0.07845984 -0.09665344 -0.40021703 0.063884966 -0.12294929 -0.2242469 -0.22714047 -0.040568523 0.16470091 0.1291241 -0.3906768 -0.17243594 0.04363453 0.5347689 0.058814168 -0.023137914 -0.08541364 -0.15494981 -0.29501703 0.024462856 -0.18454504 -0.045716714 -0.017192865 0.13859446 -0.4300515 -0.25941297 -0.0049072984 -0.07168963 0.6041891 0.10185162 -0.03868374 0.4449906 0.04013935 -0.28157 -0.2683198 -0.10049157 -0.39684597 -0.48886248 -0.39588815 0.1552912 -0.083866164 0.17840597 0.5084355 0.23072651 0.07585493 -0.37018436 0.1291223 -0.07894017 0.47248328 0.170516 -0.091989204 0.0028237079 -0.020876918 -0.006834513 -0.1590818 0.1698074 -0.011830496 0.13674524 -0.09647777 0.31447062 -0.12905268 0.1442234 0.66471595 0.027887288 -0.10384165 -0.31991553 -0.15442379 -0.3865117 -0.28789368 0.11938836 -0.07144129 0.24160393 0.07772899 0.59418553 -0.28860083 -0.050842002 -0.1136801 -0.15894032 -0.40189442 0.025213722 -0.21443468 -0.041075733 0.31884187 -0.15235677 0.27571264 -0.36088935 0.05528004 0.18728931 0.13101612 -0.100786455 0.30829325 0.22152396 -0.13158165 0.04250627 0.2693775 -0.14127705 0.18584435 0.007224402 0.40962476 0.08179368 -0.09702181 0.0015605942 -0.16820082 0.354083 -0.22158225 -0.21780808
415 0.46127412 -0.011283957 0.52635115 0.07057711 0.37432942 -0.13200615 0.22341411 0.14686322 0.053655665 0.03739605 -0.4169694 -0.1607335 0.34290138 0.29875377 0.1757956 0.17620017 -0.17338504 -0.20247382 0.17363228 0.21666768 0.029923387 0.13961405 0.34645155 0.07470364 -0.51524377 -0.040482007 -0.028450659 0.03551029 -0.22931144 0.25366718 -0.07480201 0.008835966 0.089830406 -0.087027 -0.10930865 0.0859416 0.39089066 -0.14545918 -0.043113723 0.23148574 0.11422378 0.3958433 -0.2578843 0.083022036 0.11253484 -0.044284865 -0.20132314 0.1306907 0.028973425 -0.35203272 -0.0029820185 0.28621262 -0.119727656 0.25586948 -0.405032 0.13364547 0.1275676 -0.08895699 -0.16510588 -0.10622894 0.121913806 0.035474446 -0.11102971 -0.17125176 -0.110122725 -0.11838404 0.47782117 0.43543917 0.13114831 0.07851641 -0.015919005 -0.3771651 0.016716452 -0.32496148 -0.26658532 0.3536557 -0.16068977 0.20801057 0.17792243 -0.029765066 -0.008538202 0.12141982 -0.125908 -0.5676218 0.25562045 0.25792181 -0.5041613 0.1581096 -0.030095547 0.30706584 -0.07003472 0.40334222 0.0024400824 0.13730049 -0.47394976 0.26449573 0.097546674 0.08499645 0.29996246 0.039245673 -0.2533097 -0.10008538 -0.55604035 -0.5816005 0.0525595 -0.22007506 0.35449868 -0.16449368 -0.16498493 -0.040962353 0.23665652 -0.4199176 -0.20001912 0.5305271 -0.10447908 0.09324312 0.123198144 0.08851014 0.03013326 -0.24026635 -0.17835546 0.5424964 -0.17701101 0.05740672 0.0385907 -0.10372046 0.20996247 0.019185333
592 -0.03246672 -0.07976269 -0.16599518 -0.28307667 -0.09705321 -0.21587734 -0.03106988 -0.12336199 -0.2924346 0.33016443 -0.17458053 -0.09327918 -0.064690724 0.104321204 0.4157965 0.18401638 -0.034391817 0.29428342 0.27012667 0.116673194 0.38396445 0.12732634 0.014552297 -0.20733704 -0.14811426 0.23665428 -0.014498867 0.0077125942 0.25711542 -0.046820298 -0.10203114 0.7077404 0.08534269 -0.0492815 0.090779476 -0.20673175 -0.024710039 0.07217984 0.13500102 0.35358557 -0.2009858 -0.0488859 -0.18350044 -0.17460641 0.26987943 -0.018674098 0.133252 0.262475 -0.05858153 -0.1869823 -0.029181566 -0.04504306 0.09137439 0.078424655 -0.31534407 0.013344351 -0.16324493 0.25924233 -0.060727596 0.07784848 -0.23247434 0.29295287 0.10006032 -0.25387198 -0.26869676 0.43368444 0.25368994 -0.100210026 -0.20106281 0.37165827 0.17890894 -0.4243546 0.021378603 -0.08164834 0.11584579 -0.38019344 -0.123081304 0.13365129 0.005950616 0.26582527 -0.43206516 0.23053353 0.15747379 -0.11714341 0.572235 -0.085392915 0.10502668 -0.101914994 -0.1591612 -0.10707106 0.11737887 -0.11660598 0.21032467 0.46592987 -0.11424445 0.27813405 0.22857676 0.39997697 -0.3848238 0.22388206 -0.33844918 -0.27417782 0.32343626 -0.01623195 -0.08333102 -0.1118937 0.12391229 -0.10766112 -0.17432648 -0.04722799 -0.3359474 -0.6718963 0.04917356 -0.1096221 -0.30250967 0.21121266 -0.034454066 -0.18931241 0.30237082 -0.20093365 0.01578456 -0.001118258 -0.06826721 -0.25232118 0.37203762 0.041586235 -0.21589594 -0.024072185
1360 -0.049737893 0.049405478 0.17231539 0.25241607 0.06700527 -0.655717 0.26217076 0.040315203 -0.18154381 0.18738095 -0.024744734 -0.40539712 0.08668539 -0.27604538 0.25724384 0.0026129447 0.25902584 -0.093481295 -0.26552513 0.08084891 -0.15668494 0.11305047 -0.038615778 -0.004777802 -0.024806045 0.11515518 0.18282504 0.21664177 0.31627455 -0.09280033 -0.14677256 0.11794868 0.02909673 -0.26550347 0.19671533 0.10967439 0.1614895 -0.09126882 0.12566577 0.09960001 -0.23990208 0.19860405 -0.05963098 0.2078939 0.21107759 0.2019054 -0.4295957 0.46479374 0.43717396 0.20746092 0.40393284 0.13561364 -0.18043323 0.2932948 0.16217755 -0.4871761 0.2578154 -0.024915112 -0.20194082 0.6757428 0.07864754 0.59846926 0.2631573 -0.25387013 0.13114412 0.042667568 0.15257528 -0.12243654 -0.3316809 -0.40946788 0.25445414 0.18706824 -0.19500625 -0.37466323 0.05408248 0.08998962 -0.19720833 0.141178 -0.103744134 0.36583263 0.021911008 0.106184795 -0.23336108 -0.086724006 0.19828403 0.15786585 -0.059370823 -0.26449916 -0.29407474 -0.11252783 -0.02071203 0.048785932 -0.43428 -0.3093012 -0.24275772 0.016620105 -0.13138483 -0.09417995 0.04868126 -0.011026271 -0.13283445 0.027091047 0.036758203 0.06195118 0.003701263 -0.44996464 0.19086342 0.046534676 0.39520785 0.02932465 0.11571376 -0.085417576 0.21111287 -0.0879356 0.24256347 -0.009020321 0.02322439 -0.02036387 -0.082281716 -0.3000571 0.24641174 -0.044199772 -0.17127816 -0.38394368 0.22443452 0.06523708 0.0211714 -0.1835219
425 0.14027765 -0.27130064 0.25511402 0.10725012 0.35289553 0.19210522 -0.20473254 -0.0026293576 -0.34936827 -0.18183295 -0.23947981 0.40825987 -0.06336934 0.5684191 -0.15170959 0.111396685 0.085226536 0.010284694 -0.085581586 0.2730153 0.122889936 0.14299999 0.08318822 -0.045259338 -0.041649926 -0.029370038 -0.084543124 0.27854255 0.28850865 -0.06137151 0.11840059 -0.022035506 0.010113572 -0.37550166 0.15626545 -0.3372577 -0.33554342 -0.24753444 0.031629726 -0.00031575476 0.3961532 -0.08193137 0.24086134 0.40578914 0.09442114 -0.23964404 -0.3712816 0.19703993 0.1712185 0.036510892 0.20418203 -0.03133071 -0.45601192 -0.20415844 -0.07120938 0.20202343 0.021781476 0.19572432 -0.2888554 -0.2217621 -0.11570841 -0.18226722 -0.003589673 0.35740626 0.40427524 0.35759258 0.051184967 -0.096227586 0.0560444 -0.28724018 0.13840877 -0.10287601 -0.7124398 0.097789265 0.3186712 0.2797997 -0.19094539 -0.08884771 0.18664537 -0.019469498 0.09257759 0.013175103 0.16968787 0.12686014 0.012021688 0.0737915 0.007897365 0.38992497 0.34448633 -0.26122227 -0.2608403 0.27654248 -0.15605289 0.24904518 -0.21404138 0.15749805 -0.25645137 0.08072607 -0.35846078 -0.04093815 0.10791961 -0.25286633 -0.19018185 -0.36077195 -0.10672796 -0.099752136 0.2899989 0.23877642 0.10963485 -0.21445769 -0.011768036 0.19814102 -0.51215774 -0.07777747 -0.19616546 0.3158889 -0.020921702 0.094854794 0.105137564 -0.16277336 0.27408966 0.057201654 0.059752602 0.058799375 0.05374296 0.57448673 -0.036370564 -0.08991425
340 -0.24398291 0.1811322 0.38841867 -0.37486434 0.26986057 0.049339 -0.029121391 -0.11731566 0.17106815 -0.056019478 0.0036717001 -0.3063729 0.13433425 0.04456432 0.47568268 -0.08458412 -0.6576211 0.15253186 0.12967631 0.016328117 -0.037839584 0.1802707 0.33996767 -0.18750426 -0.123474866 0.032112554 0.32700083 0.16953482 0.19756967 0.026246298 -0.16125233 -0.11782577 0.08847485 -0.087503456 0.4068902 0.014046932 -0.1263507 -0.096096635 0.5627563 0.114321515 -0.22286792 0.1256727 0.26160756 0.05055851 0.054289456 -0.13589971 -0.37254936 -0.07336578 0.0079662055 -0.0814033 -0.20416096 0.10717798 -0.06130008 -0.25682402 -0.6984737 -0.39581087 -0.27295306 0.07994498 -0.047625806 0.109646544 -0.06800435 -0.16426452 -0.047741577 -0.13303491 0.35613388 -0.027124135 0.10332976 0.08883777 -0.09145415 0.014046047 0.27992085 0.054953225 0.020268736 0.41518188 0.3216378 0.2110357 0.14692296 0.03993353 0.18997389 0.31447744 -0.27805623 0.25465298 -0.15993842 0.20298265 -0.086644135 0.34581414 0.14744005 -0.37271252 0.07701264 -0.23455937 -0.10846837 -0.3027598 -0.1678406 0.14201784 0.16237144 -0.3670172 -0.26590005 -0.20603587 0.38991144 0.20109852 -0.2712131 0.14540806 0.07702248 0.19749124 -0.0810076 -0.22282761 0.2111352 0.16069104 0.15512544 -0.33274022 0.28078765 -0.26782456 0.37239718 0.06772975 0.056783732 0.0052321306 -0.0056493315 0.21854196 -0.20183218 0.10677997 -0.04388229 -0.19398575 0.05734372 0.19385351 0.1822574 0.032979872 -0.06285226 -0.13840173
78 -0.08244331 -0.26621667 -0.18543656 0.23806748 0.3689094 0.31060758 -0.11914034 0.5834892 -0.14554907 -0.22316027 0.085695595 -0.07158944 0.040226366 0.053877875 0.1654384 0.15481202 -0.08482636 0.032850426 0.1393093 0.20915702 0.17187804 0.19520141 -0.13921374 -0.146422 -0.5427627 0.23703715 -0.00027380532 -0.11469177 0.19622707 0.03779985 0.043435544 -0.16858405 0.05110573 0.40188003 0.009493187 -0.05517073 0.08014274 -0.23909327 -0.08573869 0.18619369 0.20480426 0.27737597 -0.0036399015 0.14410506 0.3596163 -0.19095951 0.038091112 0.19027865 0.056429405 0.07785278 0.34585166 0.31751114 -0.38286963 -0.024485232 -0.051950917 -0.051961657 -0.106615596 0.14144288 -0.019500155 -0.35901833 0.0096338615 -0.015069912 0.13507059 0.022760846 0.31986502 -0.119058564 -0.07126894 0.038874425 -0.3840995 -0.13109283 0.22079583 -0.2800035 -0.3547543 -0.11783348 -0.5366773 -0.020587176 0.22905974 -0.4743138 -0.2330615 0.050478745 -0.48505637 0.39307773 0.13592687 -0.08914376 0.12850761 -0.1006039 -0.028987622 -0.31593424 0.3702054 -0.22942372 -0.4255964 -0.10058009 -0.09195971 -0.19864541 -0.24280578 -0.06255317 0.18256705 0.08622972 -0.07860612 0.18446524 -0.061546456 -0.10822195 0.112481296 0.16953506 0.14515877 0.10305257 -0.41515008 0.34381863 -0.2951779 0.0025677942 -0.0988772 0.052607246 -0.39696315 -0.12871413 0.14846782 -0.16585842 0.20597471 -0.010980262 -0.016725728 0.30896637 -0.13954896 0.17875384 -0.16971904 -0.014934223 0.19629255 0.07255973 0.24121734 0.35978732
634 -0.11960046 0.34129217 0.3458683 0.60080844 0.16281462 -0.10209666 0.195346 -0.019996267 0.017260734 -0.12243395 -0.05940498 -0.4703809 -0.23652159 -0.34171832 0.1578848 -0.42975232 0.027412785 -0.015058992 -0.072358765 -0.030207258 -0.16362244 -0.0018503556 -0.19295707 0.11492796 -0.2462707 -0.2673875 -0.08551193 0.0129715325 0.21849404 0.39244363 -0.5146592 -0.35520598 0.22678863 -0.2799257 -0.0054611866 -0.2022019 0.20329496 0.2926221 -0.122424155 0.07818126 -0.4891615 -0.32925704 -0.12920417 0.033083335 -0.32524502 -0.1733681 0.016075663 0.13124232 0.43350556 0.107661106 -0.15486152 0.14861919 0.09573375 -0.36160445 -0.076082185 -0.062227163 -0.3448435 -0.15466543 -0.024082039 0.20490222 -0.14236021 -0.1389266 -0.04357344 -0.22294293 -0.0540171 0.13296019 0.12844902 -0.23574777 -0.2770799 -0.045288794 0.24121402 -0.068770856 -0.16948676 -0.12048527 -0.024888558 -0.41245627 -0.20895268 -0.08110911 -0.20390253 0.24657245 -0.13791025 -0.14336851 0.2645225 -0.080402456 -0.3147775 0.37119004 -0.10940062 -0.05995377 0.41671953 -0.29462856 0.25506 0.06507382 -0.14809737 -0.00023556978 -0.22847523 0.34262303 -0.08405072 -0.34284103 -0.32631776 0.28391522 0.14730738 -0.54850215 -0.24563333 -0.22513615 -0.28687918 -0.3057535 -0.10894409 0.3114052 -0.038660243 0.011161792 0.37136927 0.22827967 0.016599204 -0.16007869 0.005669929 -0.04820443 0.5783317 0.08045749 -0.02138608 -0.2819265 0.023172254 -0.31148338 -0.09958216 0.026060699 0.10947704 -0.011696287 -0.051514957 0.0105076805
705 0.1324833 -0.09175098 -0.35927352 0.06815451 -0.075211614 -0.106530845 -0.17048974 -0.07323997 0.64427197 -0.008474646 0.2519076 0.026048604 0.3684584 -0.19739074 0.15417314 -0.14821419 0.1270478 0.18594126 0.114018224 -0.0908725 -0.21543387 0.30447024 0.43309876 -0.054820232 -0.14333867 -0.12335205 -0.022266133 -0.45318282 0.038220633 0.0622036 -0.26502222 -0.06479611 0.019833937 0.08229657 -0.18728122 -0.2634455 0.0121317655 0.11627834 0.39866385 0.16698866 0.040338583 0.24125412 0.06746971 0.47525784 0.33854428 0.013241282 -0.07744775 -0.11687006 0.020090718 -0.1477359 0.037278842 -0.039288063 0.12423626 -0.24844907 -0.044586632 -0.11060111 -0.433799 0.40438995 -0.09831887 -0.25682065 -0.24206334 -0.03816645 0.26923355 0.08750628 0.14754929 -0.22775343 0.2812665 -0.48476532 -0.2899181 0.05210009 0.09637911 0.1350197 0.03125302 0.11925652 -0.059723835 -0.20013021 -0.28184423 -0.059873257 0.112398714 0.14156552 -0.17452346 0.18146077 0.09299477 -0.28561947 0.2941034 0.061262053 -0.118570454 0.0903027 -0.37943947 0.040819712 -0.13176025 -0.13810089 0.13173471 0.28086787 0.031702053 0.31830218 0.1501389 -0.20379913 0.1836455 -0.17613433 0.3071428 -0.078216426 -0.112358086 0.0041321837 0.05977081 -0.28515115 0.066121325 0.36436635 0.038927115 0.1936399 0.28405732 -0.42204654 0.11215137 0.23281835 -0.35048044 0.294029 -0.22747615 -0.22754405 0.31379837 -0.53120816 -0.18001556 0.15867656 -0.098043926 -0.07119165 0.09899359 0.084477656 -0.033738043 0.33018374
1382 -0.27681637 -0.39642063 -0.1424237 -0.3463625 0.07642706 0.16841102 0.14304842 -0.11513023 0.19778939 -0.1072838 0.012284341 -0.3612131 -0.010350132 -0.15260446 0.24758312 0.12647043 -0.09809292 0.08825433 -0.3210989 -0.16769359 -0.09518023 -0.12807558 0.027994161 -0.11672931 -0.4105873 0.36071476 -0.017046113 -0.119348556 -0.025091216 0.16658285 0.28397048 -0.09736417 0.3130829 0.18396491 0.13491021 0.031780344 0.11822014 -0.19011031 -0.22239439 0.21023351 0.30944183 -0.16123037 -0.1078184 0.064608045 -0.32814103 0.062842645 -0.16028656 0.431705 -0.11563322 0.25106463 0.032951675 -0.34119838 0.115313455 0.11255476 0.08323774 -0.104615234 -0.11167805 -0.31884247 -0.18323417 0.04158914 -0.42805475 0.072429836 -0.17132363 0.357856 0.010474835 0.012038378 0.1810645 0.09816764 0.23849659 -0.17431466 -0.039529633 -0.17223415 0.07484701 0.11214034 0.39598286 -0.3347481 -0.18080892 0.1252956 0.1646412 -0.12768947 0.134221 0.17304356 0.03330612 0.16810173 0.66160005 -0.11218776 -0.2978109 0.14414223 0.20654742 0.085793406 0.0022909036 0.0009696362 0.30425733 -0.18677701 -0.3429687 0.15332536 -0.16965093 -0.47015607 0.03833209 0.19079489 0.13501099 -0.02190407 -0.14234914 -0.24576654 0.30357662 0.17406818 0.27102414 0.40669143 -0.044930514 0.072654784 0.4607536 -0.096546225 0.18972096 0.05533158 -0.007376922 0.16431215 0.096011676 -0.14920704 0.49412423 -0.11674767 -0.10495048 -0.17199785 -0.02497808 -0.31307524 -0.2124982 0.10113785 0.39482304 0.52965987
919 -0.21610105 0.18018979 0.16396973 0.37667105 0.03924881 0.2570063 -0.001113515 -0.10346808 0.15566632 -0.3169607 -0.16316865 -0.34357253 -0.38196844 -0.37898898 -0.12798977 -0.068582654 0.12060584 -0.16398424 0.006865626 -0.18266438 -0.2189329 0.0631463 -0.14980564 -0.02051156 0.107378475 -0.045897707 0.08158434 0.077866614 0.117811345 0.39526626 0.006531429 0.017950589 0.16585307 -0.37948915 0.22307847 0.011602863 0.08374793 0.034806285 0.25027865 -0.050172795 -0.5131096 -0.12894724 0.0006012678 0.30344427 -0.32583687 -0.14404534 0.10344576 -0.12796488 0.38105944 -0.0139240185 -0.029782578 -0.10179498 0.42515972 -0.5037328 -0.50811785 -0.14623676 -0.18491518 -0.02104674 0.065911315 -0.39185855 0.13163517 -0.10035485 0.22742221 0.055593163 0.08636311 0.080250725 0.07484146 -0.07850509 -0.06140922 -0.36878347 0.3574648 -0.14125602 -0.40461096 0.032144643 0.01744025 -0.2949105 -0.4837621 0.15867083 -0.34267616 0.4141294 0.10042104 -0.35165057 0.41213727 -0.06364333 -0.20953424 0.17314562 -0.19409925 -0.22248125 0.3348743 -0.4204198 0.36946884 0.29171118 0.12137635 0.11985749 -0.27766213 0.061588757 -0.24208462 -0.21500142 -0.0033371823 -0.07763797 0.10856999 -0.6027374 0.063053384 -0.33259684 -0.39134935 -0.24431272 -0.05926911 -0.018949108 -0.07224553 0.09737047 0.014693428 0.1923208 -0.2989198 -0.009142364 -0.29785386 0.0773523 0.086633466 -0.25379854 -0.12088868 -0.22918808 0.12112917 0.087520964 -0.12622982 0.09926784 0.0971493 -0.3492226 -0.053965967 0.08901526
1316 -0.16517583 0.14054243 -0.20525639 0.25459304 0.2599834 0.019565025 0.2877325 -0.01847961 0.15407325 0.17933433 0.28051463 0.23126064 -0.066461146 -0.17741512 -0.18856463 -0.044139963 0.35171172 -0.19522034 -0.07362945 -0.093671575 0.26566556 -0.23186965 0.22227058 -0.2495574 -0.041196793 0.22122137 0.088052616 0.30405635 -0.06560994 0.40907416 0.24865626 0.30587882 0.06958766 0.15806389 0.09604037 -0.040554617 0.16052799 0.119520165 -0.21892196 0.031414688 0.13347293 -0.01991807 0.02515094 0.050519746 0.0980543 -0.12264957 0.08329296 -0.026159761 -0.1990355 0.1773113 0.2687276 -0.30537227 0.60279876 0.056115184 -0.5141484 0.044415176 0.113070235 -0.29077423 0.20957722 0.1818974 0.089943856 -0.06984139 -0.013406879 -0.34877324 0.1463317 0.15984185 -0.15313223 -0.2044328 -0.24756819 -0.16211924 0.23033427 -0.034610923 -0.30291197 -0.16351905 0.2715634 0.21479541 -0.050336316 -0.077687256 0.15395932 0.3223316 0.032689426 0.26662153 -0.07967129 0.06839054 0.21106577 0.12559207 -0.052572224 0.17969315 -0.018111914 0.019432176 -0.099103756 -0.2989949 0.4953969 0.14068641 -0.04397497 0.11900714 -0.14828838 0.17515926 -0.22864081 0.2757063 -0.3148785 0.17901167 -0.21568021 -0.10497016 -0.27524257 0.026451787 0.16591802 0.1492273 0.042935323 -0.31094244 -0.119874656 0.19943337 -0.07127135 -0.020397507 -0.32993734 -0.26536903 0.3342032 0.029351167 0.23092028 -0.42131415 -0.18010296 -0.40683004 -0.7361052 -0.03979162 0.11804284 0.15404812 0.25434065 -0.46566117
769 -0.0010409876 -0.0903484 -0.09556483 0.4715919 0.25391328 -0.087133564 -0.34252086 -0.041009903 0.19809452 0.23921274 -0.44069603 0.25882545 -0.14996935 -0.26687574 0.22500952 0.30635267 0.0028090517 -0.120190024 -0.05885155 -0.11485093 0.060359854 0.079947986 -0.1416449 -0.035895362 -0.35287023 -0.012943901 -0.3389916 -0.30096042 -0.24330686 0.12265723 0.3777738 0.07128083 -0.27056685 -0.35294703 0.2605693 0.22099985 0.22142369 0.3385665 0.33122241 0.19605432 0.056890532 -0.3617325 0.38020897 -0.0219965 0.030912284 0.053603623 0.29322904 0.17194094 0.27346578 0.1266382 -0.15963356 0.22422147 0.3700639 0.072067216 -0.41835463 -0.35118243 -0.042256046 0.20906061 0.022604924 -0.138356 -0.27817413 -0.16228873 0.019537281 -0.40195078 -0.050740473 -0.010925629 0.51560926 0.27533457 -0.008883933 -0.35171962 0.15245833 0.12740676 0.18490763 0.067164205 0.29568315 -0.010966969 -0.17991482 -0.26604965 -0.17841527 0.61177236 0.12871467 0.29157314 0.19431016 -0.053169157 0.27025035 0.04927783 0.0041376175 0.037363146 -0.27204305 -0.2924779 -0.18482655 -0.009368306 0.106600575 -0.25588924 0.31550863 -0.6226227 -0.27611795 -0.26664418 -0.026814854 -0.1144512 0.3689554 -0.18224266 -0.13832209 -0.28153008 0.18358572 -0.16068603 0.012141722 -0.16057655 0.05868509 0.14998433 -0.44543588 -0.17741391 -0.3319579 0.0048728804 -0.2545863 -0.11214242 -0.052516993 0.053156618 0.24530366 -0.20322731 -0.0062465547 0.19429351 -0.19079123 0.24149282 -0.018011482 -0.025632545 -0.016057406 0.034578286
1256 0.06838961 0.12515777 -0.21178146 0.47024247 0.39505172 0.13478404 0.340112 -0.121309444 -0.28001395 0.11511101 -0.6537719 -0.1729412 0.3874575 -0.15657398 0.46846232 0.24413009 0.1693917 0.02499487 -0.1205479 0.40523386 -0.48117676 -0.46575797 -0.23425317 -0.47560874 -0.09829396 0.11927184 -0.070905566 0.56096494 -0.035407797 -0.14827572 -0.03848301 0.035034686 -0.48854268 -0.20346053 0.32258692 0.17934485 0.050029542 0.11580397 0.14945811 0.07743271 -0.24107343 0.058615927 -0.044936027 0.009432758 -0.25427452 0.40900716 -0.18920298 -0.0158216 0.03008719 -0.1802124 -0.39481288 0.0025822849 0.28556135 -0.26812854 -0.22041604 0.014342639 0.0431145 -0.122631416 0.052497093 -0.18436901 -0.2707118 -0.48913008 -0.1560275 0.02074778 -0.22057025 0.07700115 -0.14962894 -0.4293324 -0.20253853 0.31122917 -0.15218501 -0.25624397 -0.38470593 -0.053898893 0.053135183 -0.022649156 0.002714912 0.017203443 -0.10956486 -0.054685865 -0.22280242 0.2003311 0.012422215 -0.06720581 -0.11396638 -0.093817145 -0.12132464 0.15691192 -0.18482515 -0.19694246 -0.028908147 -0.06104061 0.13934028 0.1186284 0.018445922 0.037926238 0.27405176 -0.1784535 -0.23584841 0.006569718 -0.43931693 -0.25196466 -0.32555008 -0.20045596 0.11438817 -0.046076663 -0.19881494 0.6085809 0.24113326 -0.15057454 -0.058057383 -0.16210486 0.21585354 -0.052828632 0.19036248 0.41067928 -0.022276994 -0.053921502 0.085875586 -0.05816868 -0.0866949 -0.5019746 -0.0518905 -0.016370855 0.29661632 -0.013867835 -0.016204463 -0.26984742
1219 -0.020214016 -0.10503385 -0.03425349 0.1886939 0.21948737 0.4980411 -0.16565333 0.3798845 -0.2318496 0.5484217 0.380778 0.021479983 0.37215984 -0.17027017 0.15793075 -0.027657565 0.37689704 -0.27209696 0.23787113 -0.14436767 -0.3346722 -0.27625763 0.15767872 0.15729886 0.10598832 0.14807542 0.08100409 0.25710416 0.06743419 0.119024575 -0.025119772 0.57386243 0.25802362 0.23965311 -0.10553664 0.0036883352 0.04157978 0.16552582 -0.15744898 0.08849147 0.17778271 -0.04229607 0.08270365 0.014345175 0.029843876 0.15619744 0.09861836 0.39247048 0.29043332 0.017058698 0.11878032 0.06612648 0.22052258 -0.00867269 -0.25849977 -0.123940594 0.1884389 -0.12685865 -0.05494432 -0.38935104 0.3933048 -0.17131263 0.10671254 -0.32292604 0.08178062 0.13744947 0.3831998 -0.09112067 -0.24580075 0.12830931 0.16597062 -0.20439857 -0.03067126 -0.36694247 0.30945715 0.24929298 0.14312698 0.3337885 -0.33153132 0.17148528 0.31732213 0.32290065 -0.16574049 0.3382928 -0.16462019 0.01125437 -0.0726447 -0.057645373 -0.0118712215 0.022235028 -0.26824126 -0.114596546 0.42115352 -0.037166476 -0.05183849 0.2567603 -0.018819148 0.025942693 0.018322082 0.25042632 -0.1605045 -0.0069204643 -0.09813173 0.16642302 -0.116124675 0.057465494 0.29825306 0.21490212 0.21158782 -0.39137986 -0.10393755 0.062592305 0.022178033 -0.03974905 0.03721028 -0.297447 0.5693893 0.32505617 0.02158483 -0.49333152 -0.31000888 -0.11605607 0.030753098 -0.008605754 -0.07705253 -0.20488921 0.3515889 -0.3034478
693 0.21614094 0.008847374 0.23106414 -0.4290477 -0.051906288 0.16797148 0.29949197 -0.11401623 0.07577745 0.16238756 -0.18803386 -0.4125215 -0.0026422436 0.104894094 0.054924503 -0.37113017 0.123886146 0.13182127 -0.16255355 -0.23921865 0.1338274 0.041404955 -0.084945366 -0.06017773 -0.33552808 0.40878555 -0.10156653 -0.21214034 0.14952962 -0.20409615 0.14697477 -0.22778863 0.0138008995 0.17138134 0.09546205 -0.38522917 -0.24201447 -0.067652576 -0.058171194 0.036183886 0.06151912 -0.4392356 -0.4154834 -0.24361245 -0.18073803 -0.06929177 0.31744385 0.29668525 -0.040141683 0.13395774 0.069100924 -0.13080218 0.0008319507 0.34858933 0.03777736 -0.108869895 -0.36224627 -0.48817822 0.03724938 0.27653316 -0.23182707 -0.17628208 0.19198337 -0.19714174 0.3494734 0.16087246 0.5281251 -0.013999277 -0.23229511 0.01287562 0.26654062 -0.39891857 0.10687704 0.20590962 0.06659358 -0.13060413 -0.37759796 0.25827593 0.17288168 0.34004965 -0.29193947 0.22402872 -0.017291356 -0.16186458 0.39425033 0.19023873 0.61201376 -0.075161956 0.28996527 0.14877354 0.05443954 -0.26360238 -0.028295895 -0.28906628 0.14339283 0.6381817 -0.15380965 -0.076370105 -0.2055015 -0.20916334 -0.13740501 -0.3278904 0.113966465 -0.44213176 0.4601778 0.23178428 -0.1555715 0.45770478 0.28884903 -0.19520563 -0.38542154 -0.1608262 -0.08262911 0.16404784 -0.011150375 0.37188828 -0.045009337 -0.06552342 0.056419443 -0.020410122 -0.15407833 -0.012612012 0.08119913 0.21290658 0.07001921 -0.28270376 -0.2173713 -0.110814594
1210 -0.19353487 0.025202919 0.048988674 -0.2213753 0.21593349 0.13750012 0.35181808 -0.3350193 0.23683457 -0.26464266 0.25379696 -0.18778236 0.14445968 -0.12548691 0.5013737 -0.39065063 0.47267777 -0.118728235 -0.18786176 -0.15228106 0.14354786 0.15411101 0.08461701 -0.08100136 -0.32533294 0.30073318 0.01853114 0.14430317 0.14222619 -0.03233659 0.18108463 0.0869696 0.22917113 0.09307267 -0.06150024 0.0283882 -0.42125455 0.005910204 0.16390759 0.026478605 0.1791684 -0.100109436 0.03656756 -0.17140023 -0.2262607 0.010789337 0.23657255 0.28201875 -0.00198773 0.050416727 0.14199597 -0.45888472 0.058841787 0.0050154557 0.23219258 -0.027790291 -0.05167752 -0.5362169 0.1562026 0.19107716 -0.13155963 -0.11789077 0.031144353 0.20682743 0.21257757 0.23841797 0.43856987 0.0243173 0.09775766 -0.17248261 0.15486357 -0.26860315 0.21393234 0.23704413 0.19798175 -0.12934968 -0.3394164 0.17874676 0.4074917 0.19362244 0.0013284928 0.08576793 0.100117266 0.20579216 0.40052906 -0.009672372 0.14827034 -0.11768124 0.17699617 -0.14810553 -0.06370001 -0.11241834 0.2400195 -0.16363248 -0.102168016 0.7127892 -0.11474356 -0.3009689 0.107763454 0.08439609 0.026335165 -0.23292054 0.074439496 -0.12773614 0.22039369 0.033786297 -0.03765549 0.31993783 0.16243787 -0.09182101 -0.32313475 -0.33546615 -0.042458232 0.3052008 0.30563363 0.19839054 0.2383298 -0.21790826 0.29372537 0.048851483 -0.19592267 -0.19303209 0.09740342 -0.036315884 -0.18799052 -0.36362115 0.2893542 0.32994217
308 -0.033554867 -0.048889752 0.31010428 -0.3981437 -0.021334331 0.6308985 -0.15009001 0.14155567 0.028857902 0.13217364 -0.28823185 -0.134762 -0.26179755 -0.08171802 -0.19955999 -0.16029544 -0.035696555 0.41746038 0.5523336 0.4288357 -0.11213873 0.049026657 0.20147988 -0.24644981 -0.11023487 0.26493356 0.06048274 0.12032188 -0.13240024 -0.24211566 0.200999 0.08856144 -0.024054669 -0.43599537 0.039179698 -0.009984938 -0.34987745 0.16149928 -0.10848716 -0.23501238 0.009076403 0.19107717 0.14897 0.1523288 0.09330078 -0.025913643 -0.27902028 0.052891623 0.49139643 0.0054142093 -0.0017273199 -0.14986964 -0.0034302622 0.10095119 -0.3990036 0.04161526 0.17078502 0.099365145 -0.1623355 0.10923172 -0.12163848 -0.374376 0.32751265 0.090797 0.5346552 0.25693905 0.029801328 -0.019871121 -0.0011636943 0.08293561 0.026596086 -0.16651307 -0.02894424 -0.11378797 0.15835223 -0.24796432 -0.17024396 -0.39529383 -0.1884229 0.06307041 -0.1117659 0.54030544 0.16849527 -0.39373577 -0.13496648 -0.1824829 -0.083366476 0.19858705 0.3258557 -0.3715689 -0.61781347 -0.10220584 -0.045812804 -0.10521488 -0.460829 0.08858026 0.08320807 0.22302794 0.22755748 0.023011142 0.245053 -0.4450346 0.16138664 -0.2632154 -0.08937102 0.07967161 -0.14819409 0.15794738 -0.09991945 -0.031677 -0.14053935 0.40775645 -0.2115468 0.2619881 0.23227043 0.10272632 0.1419023 0.123497844 0.20753324 -0.14120899 0.21289429 -0.14691386 -0.11163885 -0.551588 -0.06354781 0.39478216 0.09619536 0.17694971
1143 -0.33673283 0.23233557 -0.16900665 0.32609752 0.2985547 0.18308446 0.2880557 -0.0027747771 0.055902842 0.15688707 0.11305011 -0.12421103 -0.30087617 0.16786388 -0.08686686 -0.35722417 0.15144257 -0.10511554 0.0034412832 -0.29722524 0.262057 -0.06125306 0.09108867 -0.19152409 -0.20806685 0.10412036 -0.031633515 0.13455302 -0.1967564 0.13228278 0.1357725 -0.22101225 0.080660805 -0.011034285 -0.06693159 -0.17201321 0.010608029 -0.10173373 -0.15414125 -0.016296087 0.12758169 -0.11106911 0.37638122 -0.052270427 0.12975463 0.24912132 0.21277167 0.17657912 -0.35486248 0.08981756 -0.43842617 -0.05557943 0.62306106 0.29827237 -0.33891657 -0.11098473 0.43318042 -0.33153537 -0.18068425 -0.048354592 0.13208538 -0.3825941 -0.058317993 -0.1487971 0.30659932 -0.09485204 0.017394876 0.08663624 -0.23164472 -0.11569715 0.08495729 0.33352685 -0.12197732 -0.046768498 0.1540981 -0.107209474 0.11336332 -0.29440647 -0.051528774 0.22886539 -0.12734614 0.05857973 -0.09690424 -0.020253045 0.43763322 0.21902366 -0.40093088 -0.026747014 -0.2650293 -0.060586527 -0.02922424 0.0071514603 0.25834686 -0.067468174 -0.1687878 -0.14300138 -0.24970298 -0.11273679 -0.2423694 0.27880606 -0.17031191 -0.021142501 -0.49542907 -0.0063362727 0.036215045 0.07663221 -0.095570564 0.16683611 -0.1043817 -0.060044352 0.07856258 0.2180966 -0.10649199 0.10111215 -0.39856488 -0.12549534 0.28488645 -0.023303352 0.18459743 -0.22922349 -0.040649764 -0.30716982 -0.5888122 0.24159832 0.17052 0.23183355 0.061595708 -0.57266873
1161 -0.29305375 0.10292687 0.00030279905 -0.25432783 -0.059436176 0.33172864 -0.51544756 0.21030676 -0.11894695 0.11361988 -0.28679815 -0.020104768 -0.13621531 0.11769181 -0.018327786 0.08611171 -0.21158326 0.37600777 -0.07109273 0.38653323 -0.0726207 0.001663172 0.36418092 0.054730956 -0.6225384 0.13112658 -0.029626956 0.10099055 0.009206109 -0.10744017 0.31497508 0.19506142 -0.1804262 -0.45929244 -0.4984788 -0.29925963 0.018964985 -0.0256994 0.0027886757 -0.10279864 0.47080353 0.15302461 -0.03131054 0.09278688 -0.060738873 -0.061720707 0.11471329 0.21254307 0.33669567 -0.34246773 0.0029252295 0.144297 -0.103680596 0.10123494 -0.2616145 -0.042751133 0.017039599 0.20350046 -0.19596171 0.19796446 0.08942765 -0.28223288 0.106763534 0.0531474 0.1285964 0.007909811 0.081511505 0.27599153 0.051753122 -0.11266647 0.36740565 0.03103926 0.036223054 -0.04763242 0.39820492 -0.42106387 -0.2528795 -0.24276298 -0.23015864 0.31992927 0.1381286 0.2972821 0.14938956 -0.14655119 0.059849497 0.42488584 0.04905822 0.13979647 -0.13408764 -0.00046937724 -0.30043438 -0.22233333 0.29170123 0.34012872 0.060811028 0.11977855 0.019776382 0.038931917 0.43242827 0.14425531 0.12491368 0.15404925 0.03588536 -0.27370617 0.01556854 0.33374313 0.17193836 0.0792011 -0.13768972 0.053006355 -0.34452805 0.45756492 -0.17649303 -0.091130264 0.035354394 0.20330913 0.10908736 0.058099236 0.12476092 0.25125405 -0.19731706 0.03691418 -0.08814793 -0.5130439 0.104303524 0.32416138 0.35157987 0.007464305
754 -0.05816734 0.05953814 -0.25660634 0.07362789 0.23018539 0.19587964 -0.14110522 0.030290194 -0.06119099 -0.20619771 -0.0022492441 -0.017356519 -0.12757449 -0.23654282 -0.19159573 0.124739446 -0.060685705 -0.5271647 0.33143607 0.17394304 -0.10334114 -0.11690512 0.12174537 -0.11214293 -0.2607438 -0.040593315 -0.012931068 0.04146405 -0.10516277 -0.07186631 0.17569369 0.022711353 -0.29609075 0.1387893 -0.3578073 0.6241602 -0.07786904 0.35331082 -0.25468916 -0.28588533 -0.44664165 0.083299786 -0.22105151 0.18427135 -0.1691735 -0.108991586 -0.41155025 -0.07097191 0.13420679 -0.115070984 0.11117086 -0.21246438 -0.3557685 0.4122257 -0.09173482 -0.09751006 -0.059692055 -0.10830723 -0.15979502 -0.38105497 -0.2210257 0.06546954 -0.20195942 0.10039929 0.4741052 0.016815068 0.20307446 -0.47065195 -0.13985154 -0.09583485 0.46937266 -0.0365201 0.025684832 0.003906724 0.18444861 0.10663873 0.030823534 0.08703332 -0.37238118 0.027337369 -0.13602296 -0.182517 -0.24941856 0.056266103 0.59310263 -0.2227135 0.17188337 -0.28013662 -0.037070375 -0.19818805 -0.12343265 -0.10146602 -0.019558657 0.13571447 0.10992934 0.7774767 -0.14195506 -0.16302687 -0.083432585 0.002995932 -0.24183044 0.114034235 -0.39200526 0.34048253 0.25942296 -0.25069138 0.49041376 -0.03299794 0.104519725 0.22390033 0.4469294 -0.31410205 0.090120114 0.17235257 -0.34627998 0.2537427 0.129787 -0.09298922 0.60923976 0.21246988 0.16788308 0.3970655 -0.47967446 0.09465587 -0.2511333 0.31409407 -0.23974428 0.1764467
965 0.19068074 -0.008112247 -0.19823934 0.23055923 0.029794889 0.25972298 0.002266088 -0.16294414 -0.3484836 0.24334571 -0.31946132 -0.43141022 0.072023146 -0.16926734 0.37233227 0.31662208 -0.08251064 0.07710607 0.045252558 0.31704423 0.043209415 -0.16874267 0.004358193 -0.59353566 -0.1958131 -0.117077634 0.14916125 -0.022492247 0.07708753 -0.022919592 -0.12370473 0.3685603 -0.2347213 0.012798192 0.33467528 0.17472275 -0.26779488 -0.24383667 0.12119677 -0.06121316 -0.070664205 -0.11133329 -0.17132223 -0.022733353 -0.12446875 0.18702991 0.117782615 0.0034362357 0.3767306 -0.4130042 -0.11418635 0.10306786 0.44600776 0.10334295 -0.539011 -0.1284379 -0.32102016 0.20395318 0.07331812 0.13283111 -0.38288268 -0.14051603 -0.009423261 0.017529191 -0.20276555 0.38906 0.12649295 0.23668998 -0.29663768 0.3943548 0.103917986 -0.1494311 -0.15410244 0.17026123 -0.08683259 -0.18743798 -0.084572904 0.36802715 -0.059472542 -0.066392146 -0.082749076 0.25617573 0.46025005 -0.0042712167 0.12326277 -0.027989957 -0.103819706 -0.025350938 -0.038887482 -0.3614443 -0.18748945 0.28578362 0.0061530643 0.3552285 -0.083800234 0.04806386 0.26027256 0.18577541 -0.2570077 0.2725816 -0.55611575 0.03969049 -0.17477301 0.32148352 0.06549884 -0.005039558 -0.1738923 0.3942028 -0.108572155 -0.010176103 0.07252304 -0.11264209 -0.15979002 -0.15813458 -0.12125571 0.2459761 0.011832048 -0.49031517 0.3409276 -0.28436682 -0.17763804 -0.11271151 0.27493885 -0.0004890487 0.29991367 -0.007292796 -0.094544224 -0.42920825
577 0.021356665 -0.0006175077 -0.43003145 -0.22147246 0.13264115 -0.1967762 -0.2900332 -0.34298074 -0.3732194 0.1603312 -0.12195951 -0.19745518 -0.036673438 0.06399435 0.22157875 0.17837381 0.09143441 0.071619175 -0.18380883 0.2539117 -0.05309847 -0.20744261 0.14498852 0.06799259 -0.17669421 -0.39363173 0.13648199 -0.30422223 0.29588175 -0.18607938 -0.3015691 -0.12702519 0.3320636 -0.47449252 -0.10408826 0.06757064 0.06443037 -0.0012896577 -0.2442186 0.17526604 0.027419953 -0.45037887 -0.13175449 0.18063906 0.29156938 0.058075212 0.43089715 0.36367825 -0.08272971 -0.2742553 0.087220736 0.2583006 0.04002535 -0.108853 0.08817366 -0.2802698 0.07255127 -0.29381463 -0.035584737 0.11968937 0.22693695 0.17158034 0.29214138 0.38306555 0.26694712 -0.059628252 -0.26632062 0.012483817 -0.21740685 -0.51825315 0.121274784 -0.38225168 -0.1938172 -0.14562325 -0.07976965 -0.0022368678 -0.07572815 0.31686622 0.4248048 0.45174637 -0.31548548 0.070668854 0.05115351 0.27112862 0.3248514 -0.025784979 0.068416774 0.09329815 -0.012389953 -0.37794974 -0.06142848 -0.208881 0.02097268 0.0020351626 -0.023125242 -0.3159625 -0.032518666 -0.29858217 0.5175755 0.13611318 0.057620857 0.03909864 -0.35933128 0.10736717 0.34781098 -0.023686036 -0.1318569 0.5321427 -0.08811608 0.21691254 -0.08612943 0.09318948 0.3358949 0.085989825 0.074236766 -0.13255358 -0.019388681 0.09297045 -0.01149414 0.27794564 0.027561639 0.23361044 -0.01198261 -0.1230943 0.09666354 0.14508738 0.008362428 0.19434598
154 -0.14985582 -0.04511749 -0.07160497 0.2061623 0.33079374 0.32996124 -0.1258725 0.07004974 0.07091918 -0.3180429 0.024769988 -0.36005318 -0.29493958 -0.15310179 0.10863141 -0.31817433 0.24275342 -0.123853296 -0.1208213 -0.08357635 -0.22499053 -0.10403808 0.013369108 -0.023027036 0.011154287 0.059660785 0.022288064 0.67537576 0.13693476 -0.009057961 0.22036877 -0.07123792 -0.16747913 -0.013817227 0.17847233 0.28602436 0.34477058 0.001577976 -0.013449515 -0.09048984 -0.06238779 -0.23656975 -0.523101 0.063468166 -0.048553143 0.2076364 -0.19518836 -0.23109531 0.6436033 0.124397665 0.3009217 -0.39523315 0.12745498 -0.33878645 -0.6083357 0.36445582 -0.06328229 0.36709428 -0.18606037 -0.02804794 -0.20571166 -0.24704099 0.23401144 -0.19489083 -0.08536337 -0.11318333 -0.21542709 0.20104232 -0.1664779 -0.14839955 0.30341724 -0.24340938 -0.22903602 0.21691594 0.091933146 0.023396716 -0.09529938 -0.17886083 -0.05921408 0.24176618 0.07842194 0.036266614 0.2398004 0.2613294 0.32345164 0.01167379 -0.06467421 -0.09172159 0.08070183 -0.15431552 0.2820981 -0.021210954 0.18120857 0.31705868 -0.07899261 -0.10957444 0.024208462 -0.24329141 0.08118693 0.2494904 -0.2658561 -0.10240507 -0.18339759 -0.1526047 -0.20762733 -0.40791512 -0.2312198 0.038600493 -0.05459304 -0.2045556 -0.1375026 0.12839557 0.006076214 -0.07555791 -0.24132061 0.31415778 0.006865912 -0.12452737 -0.27033985 -3.3445875e-05 0.24680646 -0.20350206 0.21083228 0.16945778 0.19147347 -0.41825062 -0.012837379 0.007968076
1187 0.04570531 -0.2178541 -0.3311476 0.17430916 0.1225651 0.15229538 -0.31346944 0.44002163 -0.038104445 -0.14429909 0.4153348 -0.28555468 -0.17833993 0.13925816 0.30565315 -0.12538567 0.19273707 -0.20521164 -0.21671048 0.43113327 0.125533 0.07229493 0.017596269 0.044260368 -0.15806955 -0.06847131 -0.15430085 0.6606273 0.030775253 0.19592406 0.24843013 0.04406304 0.16048224 0.035455544 -0.34742624 0.31498513 0.36659148 0.16523632 -0.034635596 0.37100494 -0.057333164 -0.21890612 -0.19367276 -0.013825857 -0.26634356 0.33154607 0.10355407 -0.059915688 0.5185072 0.07345918 0.4020771 -0.18044455 -0.047236186 -0.2953037 -0.2332457 0.01873756 -0.12954234 0.20703198 -0.14838201 -0.23925734 -0.25171584 0.14913036 0.3342834 0.055355757 -0.05220996 -0.17833461 -0.27986422 0.3196627 -0.08139661 0.2635547 -0.0029321932 -0.085626915 0.25835758 0.29957858 0.21588708 0.20952141 0.12800045 -0.21762288 -0.33007297 0.22873987 -0.016648423 0.16078141 -0.24612182 0.3460959 0.48236838 0.042471103 0.03680964 0.107172824 0.30231974 0.008391133 -0.042649187 -0.094107926 0.10724307 -0.04543192 -0.21946946 0.0027319472 0.12112388 -0.08245308 0.286284 0.17522009 -0.5072925 -0.07618364 -0.16028893 -0.33603865 -0.021559108 -0.15603217 -0.31977165 0.1273081 0.5108533 0.36448318 -0.3167252 0.2205364 -0.29927638 0.472666 0.20759308 0.017144052 0.1083622 0.08477223 -0.13013658 -0.13967659 0.1551242 0.060961127 0.19270939 0.112235345 0.11392736 -0.25731853 0.08530808 -0.07095737
993 0.018684462 0.3347137 -0.105496675 0.19876638 0.34786025 0.018001815 -0.19148383 0.025379783 0.107568406 -0.29355717 -0.14434136 -0.008311371 -0.38314125 0.063663356 0.2334029 0.23311836 0.021365665 -0.035672277 -0.21441965 -0.17881519 0.034857783 0.11452491 0.13441989 0.44164908 -0.16900387 -0.08988459 -0.007900014 0.13091496 0.1939006 0.0009771236 0.018845791 -0.0014404424 -0.040194657 -0.15257908 0.26903966 -0.3418442 0.082918845 -0.046235073 -0.16758446 0.34305748 -0.26164475 -0.43571272 -0.018551596 0.5175902 -0.40467098 -0.08864111 0.08218276 -0.31102663 0.26375052 -0.20479164 0.015981423 -0.42301106 0.7183496 -0.02160389 -0.46291056 -0.15407759 0.11826164 -0.06610958 0.027363231 -0.5382787 0.12674427 0.28759146 0.42636114 -0.035840508 0.22094196 0.40845987 -0.36215225 0.040257227 -0.01697633 -0.03846428 0.22069691 -0.13328041 -0.14935638 -0.09506759 -0.11717975 -0.14771782 -0.16627277 0.28034574 -0.058368973 0.12994534 -0.09966743 -0.054956574 0.30410424 -0.15391958 0.1316737 0.4120839 -0.1527871 0.19366318 0.1356503 -0.026779473 0.06843967 0.10409121 -0.18739702 0.21581148 0.2828325 0.11242894 -0.40184298 0.06927387 -0.031448077 -0.19951287 0.12868026 -0.5397489 0.08845045 0.18169436 -0.22181675 0.0413056 0.08832204 0.03525272 0.07406339 0.041382592 0.16463222 0.010326851 -0.20708095 -0.0057411846 -0.2290592 0.08406043 0.09658277 -0.021229621 0.26978168 -0.50246066 -0.05689628 0.020115014 -0.41492754 0.30349883 0.1898854 -0.2651446 0.45301905 0.10350218
781 -0.22075924 -0.0074197403 0.1802214 -0.152168 0.29977772 -0.025856612 0.002066758 0.32063964 0.2648223 0.37676823 -0.26676214 -0.3454314 -0.2471706 0.09362427 -0.25691167 -0.22752292 -0.015198153 -0.27608424 0.031464677 0.4094076 -0.18163556 0.054162193 0.52877194 0.35035565 0.08145244 -0.40070394 0.18052869 -0.014973286 -0.11850761 0.13434319 0.33510524 -0.068481706 -0.22861682 -0.010449401 0.3474922 -0.53967345 0.31258443 -0.26780045 -0.39424306 0.09530798 0.23764393 0.11009952 0.1160241 0.13286673 -0.36681148 -0.09058183 -0.0067747845 0.23850048 0.4077747 -0.04980424 -0.13493858 -0.267349 0.10042658 -0.05497619 0.04795892 -0.08995532 -0.09276552 -0.31498826 -0.4880445 0.5351505 0.05460613 -0.16212066 0.46797135 -0.17748508 0.19257544 0.21753791 0.34564987 0.081884764 -0.19878286 -0.17487702 -0.22473003 0.030867925 0.123738445 -0.35996848 0.06322269 -0.36421537 0.12767178 -0.07169375 -0.25319204 -0.0037510628 -0.047505714 0.36043823 0.26420107 0.22108582 0.19972092 0.2617359 0.12372095 -0.3833556 0.024081009 0.075688064 0.03552966 0.10734527 0.3755628 0.05685103 0.23987047 0.6831371 0.3394652 0.16536209 0.20818833 0.20798717 0.049321778 0.18730736 -0.10796944 -0.24753855 0.071696855 0.11223191 -0.08584295 0.011520165 -0.08719372 0.1571751 -0.20828064 0.09463699 0.012302208 -0.1289098 -0.2726931 0.067014 0.029370068 -0.35049683 0.1393697 0.26929423 0.024622932 -0.00018674853 0.20496786 -0.030752722 -0.0037454502 0.36363193 -0.14203422 0.26117316
74 -0.17135715 0.15830758 -0.109714285 0.08379281 0.14105739 -0.11025813 -0.010987937 -0.12929168 0.14639689 -0.27254078 -0.09961477 0.0187619 -0.05156426 -0.47603497 0.17107798 0.1807013 -0.23563853 -0.038092658 -0.0675862 0.12602822 0.09737205 0.09692334 0.05504072 -0.07912232 0.15599072 0.048224065 -0.18991901 0.05375667 -0.28264597 0.5033395 -0.020521905 -0.08714239 0.08892007 0.06895646 -0.20867619 0.04776256 0.10274726 -0.69508827 0.30396163 0.008930656 0.00091463747 0.08345081 0.10851379 0.32672653 -0.088430874 -0.18657042 -0.114944324 0.10507263 -0.032827046 -0.10750578 -0.07880949 -0.36620697 -0.025026768 0.21464492 -0.1369985 -0.0114692105 -0.07096068 -0.43663692 -0.075988635 0.07845591 0.07401979 -0.12562044 0.014819204 -0.21105407 0.22731173 0.074460715 0.11217086 0.3252548 -0.10002204 0.011624451 -0.112448536 -0.23653612 -0.20996055 0.19306125 -0.029909702 0.45871648 -0.038327653 -0.1735608 -0.1089382 0.15813878 0.114638194 0.11004512 0.106004626 -0.28319532 0.07063002 -0.0054282625 0.64746606 -0.32198524 -0.051810376 -0.5815043 0.0916819 -0.46908024 0.37237027 -0.3747841 0.09166407 -0.035787553 0.06749424 -0.28244063 -0.030961184 -0.16204393 0.1810317 -0.3757785 0.17638585 -0.03805892 0.38583946 0.3072112 0.38251904 0.7571591 0.14579538 0.045755524 -0.041923407 0.030804444 0.3735423 0.5610506 0.035909545 0.39841115 -0.022055956 -0.21231896 0.06235889 0.06742029 -0.26525274 -0.27201882 0.31681496 -0.06723172 0.52645457 -0.03322701 0.22184911 0.1076139
1060 0.20973653 0.2615317 -0.014479433 0.39204916 -0.11492043 0.012908704 0.08640339 0.49389443 -0.028712207 -0.42816445 0.17538428 -0.19524303 -0.4229379 0.37995216 -0.13975456 0.31445277 -0.07430935 0.07341667 0.02023634 -0.013379052 -0.09030609 -0.2747693 0.27070096 -0.36195365 0.0135165015 0.5884381 -0.2993806 0.08042136 0.33539844 0.22103027 0.13984849 -0.038542517 0.098376386 -0.15224919 0.09384872 -0.1749391 -0.14424671 0.005261885 0.22411533 -0.06547495 -0.65884185 0.28241628 0.13683274 -0.036661968 0.032081112 0.13925645 -0.056032512 0.4262016 0.19078521 -0.45367888 0.08572435 -0.1336282 -0.0647365 0.08072701 0.12793705 -0.06907026 0.26940617 0.12164661 -0.015482424 0.30366567 -0.20509355 -0.22501044 -0.2976092 -0.17715202 0.17028019 -0.27117816 -0.13454597 0.26793262 -0.21608347 -0.16133003 0.23002616 -0.36250317 -0.32721022 -0.43878958 0.24058382 -0.0001305062 -0.27272862 0.13050742 0.109855674 0.3668016 0.008566945 0.31446412 -0.002559465 0.15111147 0.6066365 -0.26389104 -0.4201293 -0.19616872 0.115056224 0.27075443 0.05290954 -0.12956817 0.21454735 0.075595446 -0.040837355 -0.21973087 0.060333285 -0.114446834 0.21784237 0.5441375 0.12701596 0.08249936 -0.045862414 0.018879421 0.121753864 -0.011847312 0.10103994 0.19027275 -0.040316008 0.06592239 -0.049385175 -0.16535771 0.032549206 0.21969439 -0.033676352 -0.15658689 -0.04932941 0.08763278 0.086684346 -0.18481317 -0.14264332 -0.14467779 0.16828333 0.27868855 0.2549307 0.0892114 0.17674513 0.18622318
387 0.07003971 -0.03162246 0.16441743 0.05633751 0.07746459 0.2541299 -0.21441141 -0.07494723 -0.01337723 0.10071549 -0.10105646 0.5206433 0.10970566 0.15271616 0.041930307 -0.029074179 -0.27636418 0.20865509 0.012370719 0.069192365 0.30184042 -0.3292346 0.15965864 -0.09199432 -0.18611686 0.14520624 -0.32360062 0.35958275 -0.23206085 -0.114974976 -0.1818304 0.034715213 0.17856959 0.12402038 0.016511243 -0.36562932 -0.20578782 -0.059491705 -0.32174668 -0.12929592 -0.0930076 0.43756136 0.0565197 0.23918886 -0.33552957 -0.15630327 -0.25976956 -0.04351256 -0.026710335 -0.19147657 0.33872214 0.060160667 -0.42326796 0.18844788 0.020912189 -0.14374213 0.09582042 -0.010131489 -0.3480947 -0.23791781 -0.32501632 0.035598893 0.45616084 -0.052745864 0.20101675 0.05600386 0.3394566 -0.13660344 -0.30636892 -0.34278977 0.044885628 0.0746046 0.15011357 -0.49597257 0.5170246 0.31100363 0.6036156 0.307055 -0.27660134 0.264299 -0.020172784 0.25566113 -0.12925503 0.109420806 0.33932173 -0.16222823 -0.020334648 -0.0029503494 0.14273977 -0.41202053 0.1849911 0.03855483 -0.47799212 0.070149645 0.012565021 -0.06983704 -0.3366987 0.16351321 -0.24704196 0.046567474 0.42847565 -0.4424955 -0.36123404 0.22781648 0.27505437 -0.38241163 -0.056135897 -0.0012817492 0.37302303 0.047989655 -0.060097102 -0.027463011 0.008425877 -0.23765612 -0.105973236 0.16349718 -0.007020706 -0.14897469 0.029491978 0.23170659 -0.02363479 -0.25507182 -0.23062332 0.34069368 -0.1413519 0.06088826 0.04878856 -0.36274862
1470 -0.068367355 -0.037338823 0.08549416 -0.3519551 0.78060144 -0.44737026 -0.4369712 0.073834404 0.19622956 0.10365414 0.04111001 -0.38488653 0.44029713 -0.12800139 0.18845937 -0.3524538 0.26707023 0.2324891 0.017722927 -0.18246982 0.024394177 -0.3148632 0.23967996 -0.36932415 0.014862339 -0.39702398 0.13855672 -0.22823411 0.29410917 0.37533477 0.011783564 0.13282007 -0.14524795 -0.30045915 0.011488185 0.24228108 0.11797443 -0.2748242 0.17704411 0.4406624 -0.1409176 0.2422297 -0.05923092 -0.34789723 0.13861892 0.3170075 -0.45858613 -0.18472667 0.19686653 0.19208528 -0.2647778 0.2116416 -0.013379664 0.2876447 0.036417656 -0.07610172 -0.15821038 -0.19496223 0.12200132 -0.11380811 -0.3886257 -0.27683488 0.20251624 -0.22011109 0.6366055 0.6018468 0.23122577 0.18738449 0.055387434 -0.17112894 -0.64456594 -0.3522673 -0.115275495 0.18599117 0.40746108 0.13708021 0.36439314 -0.0950385 -0.4845836 0.7143022 0.30205208 0.10622084 -0.14709263 0.30755302 0.22494248 0.18504801 -0.07812166 0.20365089 0.23518081 0.21590993 -0.39612854 0.023393273 -0.11174421 -0.08541592 -0.025202412 -0.30783334 0.027290069 -0.1814832 -0.031784058 -0.12763888 0.06293221 0.064234264 -0.19976412 0.09176291 -0.41147572 0.11068729 0.104262635 0.024224829 0.07987081 0.36548665 0.059088767 -0.03775384 0.08184352 0.017025208 -0.26796505 0.14266267 0.08804201 0.097271636 0.36367536 0.3295687 -0.2359758 0.10940962 0.45380172 -0.16132918 0.12648591 0.11471175 -0.093948185 0.08527307
273 -0.11474109 0.105180755 0.026469262 0.34794414 0.39389524 -0.14316303 0.46554404 -0.0297682 -0.1128965 -0.32755557 0.11225708 -0.013932457 0.102495626 -0.2041774 -0.074632555 0.24829184 0.13582829 0.29524258 0.10146425 0.35669747 0.1605892 -0.29186258 0.16729645 -0.19608189 -0.044963874 -0.16062759 -0.045790248 -0.09135938 0.006060946 -0.28445634 -0.55868137 -0.17483312 0.16583529 -0.2996687 0.25226006 0.073459424 -0.069153555 0.0059663495 0.10169457 -0.0032605897 0.08581572 -0.1789742 -0.15393281 0.04528739 -0.12006517 -0.1107076 0.55470335 0.5065622 0.33472222 -0.24156024 0.43614936 -0.21516222 -0.21511613 0.25595927 -0.27910268 -0.21960486 -0.2530076 -0.29769838 -0.015947394 -0.14962968 -0.054128725 -0.6289914 0.0005607847 -0.35291126 0.018043472 0.13299966 0.011905153 -0.21567246 -0.102776475 0.280542 0.050794356 -0.024847971 -0.029634826 0.1787819 -0.022906797 -0.16195558 -0.022192629 -0.015768534 -0.3551524 -0.08634153 -0.00038118844 -0.18167731 0.32626104 -0.1756803 0.268714 0.15340823 0.052477907 -0.30145726 0.27469707 0.29618576 -0.065205604 -0.09776334 0.033149507 -0.08215084 0.06861438 -0.06645066 -0.27915847 0.25485834 -0.017991258 0.38168225 0.12759249 -0.19056901 -0.2406455 0.2701618 -0.31481865 0.047812764 -0.2208397 -0.13323458 0.113950334 -0.05044676 -0.29835382 -0.17954609 0.28782973 0.10128697 -0.7818229 -0.14925556 -0.27014056 0.12063218 -0.3216013 -0.02449386 0.1743621 -0.07769438 0.2769079 0.08140108 -0.2988703 0.23184413 0.108809836 0.10009801
479 -0.0829108 0.115550354 0.34302887 0.020162199 0.26721933 -0.027088169 0.42155668 0.10620914 0.01837184 -0.0812814 0.11255444 -0.22773102 0.055336963 -0.13517746 0.045772683 0.02676358 0.20119403 0.37859464 -0.25286105 -0.16955642 -0.061150208 -0.077935934 0.4811461 -0.023922315 -0.011484188 0.30763236 -0.26009318 0.05343881 -0.33255264 0.054368857 0.24213618 -0.18459061 -0.1720507 -0.25316426 -0.32105282 0.31358677 0.041347045 -0.47378615 0.11037771 0.1550147 -0.13574009 -0.4585658 -0.23803975 -0.10875337 0.10024496 0.25495228 0.2785279 0.4785718 -0.035158 -0.075101174 0.34419128 0.22351192 -0.0764097 0.32910007 -0.18888876 -0.17918986 -0.33500051 -0.11443301 0.13991557 -0.23368587 -0.0069409474 0.0993693 0.35056138 -0.09292597 -0.056302827 -0.1804022 0.21774584 0.017119424 -0.051305573 -0.3807444 -0.021261543 0.14350446 0.14143021 0.48824385 -0.019699696 0.12431725 0.24978434 0.1808626 -0.27479094 -0.41243562 -0.3753827 -0.16791156 0.17799693 -0.17996275 0.0014436817 0.2758777 -0.14983101 0.07839469 0.15034015 0.10193802 -0.39188197 -0.38946214 0.16246298 -0.13449177 -0.062889494 0.13006341 -0.34920463 0.11564271 0.11410926 0.49664453 0.46224332 -0.33755326 -0.16438672 -0.20669773 -0.12801392 0.10887414 -0.07049784 -0.14481904 -0.19782893 -0.10210335 -0.08258331 0.05308456 -0.09060283 -0.111148894 -0.61813617 0.09828107 0.009735323 0.11495974 -0.1910681 -0.09865209 0.03397911 0.111326106 0.16599038 0.34758922 0.18261349 0.041484065 0.07815694 0.18271385
854 -0.10349787 0.18110286 -0.24343577 0.39495736 -0.5669724 0.0014319764 -0.38122377 -0.06891952 -0.057670172 0.076978564 0.27371925 -0.13267511 0.08721519 -0.080959134 -0.38238925 0.051075067 -0.52483505 0.24001926 -0.1036645 0.35143775 -0.058191102 0.056306582 0.047450427 0.08904295 -0.006150231 -0.13571104 -0.21082242 0.28392968 0.17545705 -0.059215873 -0.03187978 -0.14245217 -0.31829268 -0.32330567 0.14437203 0.11905526 -0.22976215 -0.1396035 0.24632598 0.44100836 -0.32377753 -0.14581203 -0.32225966 0.0127571635 -0.09012784 0.034879066 -0.23068196 0.5285346 0.06488441 -0.1632905 0.27866727 0.04846971 -0.19617376 -0.087270945 0.046113554 0.046824913 0.12765263 -0.06444606 -0.09405909 -0.41036972 0.0046519097 -0.23035409 0.1400525 -0.60997117 -0.05749531 -0.2475089 -0.08222727 -0.18976012 0.1634861 -0.1307469 0.15038157 0.123673245 -0.20157903 -0.28500336 0.008665336 0.1547397 -0.1582927 -0.13655357 -0.05261585 0.21177931 0.14787088 0.099033624 0.2744274 0.49878776 0.38565642 0.06314573 -0.14197972 0.19336073 -0.27637044 0.21048602 -0.37729648 0.018036466 0.11020942 -0.015616663 -0.03348946 0.10671322 0.45471027 0.42899638 0.12928799 0.06905671 -0.259372 -0.12541026 0.20030259 0.15725467 0.21818765 0.08685768 0.14918208 0.40512145 -0.07838975 0.11560521 -0.50011367 -0.27867004 -0.55083406 0.17164327 -0.3828348 0.11924683 0.25659546 0.13225909 0.1558699 0.027262527 -0.15620375 0.2926951 -0.0701123 -0.10562825 0.22460565 0.27000132 -0.1521586 0.16379684
1390 -0.15129566 0.07444913 0.30165318 0.27048072 0.23750448 -0.06973497 0.30507463 -0.06640863 0.12622298 0.20081322 -0.354288 -0.019528672 0.42449653 0.089910604 0.07438144 0.26264423 -0.2992811 -0.23879169 0.10071133 0.31109184 -0.0148137715 -0.07394668 0.055557646 -0.45965034 -0.13594994 0.20992972 0.15324098 -0.02177016 -0.12392578 0.019709 -0.20207456 -0.17003731 0.4426984 -0.05150031 0.08783923 -0.4223878 0.30566597 0.013211801 0.30161405 -0.16947725 0.32082424 -0.27078828 -0.033994995 0.27893496 0.23263511 -0.064548925 0.071837686 -0.120082565 0.19179444 -0.21701808 0.12507778 0.01708019 -0.15362673 0.16211471 0.105424985 0.27363375 0.26535022 0.07863938 -0.23601305 -0.29207122 -0.020977456 -0.14020422 0.47048226 -0.1579326 -0.06101892 0.1396792 0.39569566 0.5875985 -0.30905062 -0.16387133 -0.26512325 0.117578365 -0.25666794 -0.14830662 -0.05021 0.119507045 0.060569473 0.20476119 -0.21489035 0.21345554 -0.2968995 0.049722914 -0.113062724 -0.13464525 0.24530949 -0.3062877 -0.29406548 0.16944003 0.18699153 0.38979825 -0.29925147 0.15293613 -0.19975422 0.42964438 -0.02348622 -0.0050978293 -0.4040466 -0.50500983 0.019811677 -0.16281779 0.14768307 0.080211945 -0.3033154 -0.2284311 0.30475622 -0.1501979 0.29236513 0.24648961 0.22680044 0.19974123 -0.20302717 -0.22809745 -0.15659294 0.24161242 0.004302887 0.25620848 0.21080606 0.20002283 -0.25857902 -0.37717265 -0.04651493 0.04535973 0.092302784 -0.25393257 -0.34067628 0.13890159 -0.18836229 -0.120810494
89 -0.14290532 -0.098017775 0.31217256 0.16915357 -0.1304676 -0.2832557 0.2912428 -0.051490758 0.13407914 -0.048560433 0.08137991 -0.35795793 0.14701787 0.57330245 0.08688073 -0.06937585 -0.19141528 0.0540259 -0.140088 0.20435424 0.533642 -0.56323504 0.052461892 -0.38654834 -0.088173315 0.121624894 -0.059669204 0.1895064 0.26552922 -0.11892124 -0.042997714 -0.22881174 0.6708398 0.21932274 0.050897196 0.072591335 0.14018357 -0.116110526 0.5102614 -0.06709988 -0.026772385 0.36158103 -0.121443145 -0.29505682 -0.167304 0.062109362 -0.57021135 0.25934887 0.2993027 -0.1926565 -0.046740517 -0.15123542 0.04834368 -0.19746724 -0.1713466 -0.26607695 -0.013299435 -0.18790211 -0.11863715 -0.11970497 -0.015028758 0.2367122 0.14660524 -0.2973926 -0.0021026449 0.12805253 0.21053483 0.115284264 0.035689805 0.097994365 0.3294948 -0.2656309 0.14291471 -0.15608837 -0.0034798319 -0.105226085 -0.030198151 -0.033214673 0.06548762 0.30691397 0.09674432 0.18802996 0.20870264 0.09778641 -0.12451454 0.47072524 0.105911665 -0.08784699 0.27208206 0.07390828 0.22170438 -0.38360044 -0.3042194 -0.10325974 -0.11248951 -0.1543867 -0.1971104 -0.07243201 0.051883847 -0.35192493 -0.050222024 0.032662142 -0.25225854 -0.06808756 -0.051906813 -0.2188784 0.17326896 0.34092364 -0.23097058 0.09987163 0.38242257 -0.033628765 0.18229716 -0.109308876 -0.03556407 -0.007570113 -0.21078935 0.089888625 -0.0120119965 -0.3145276 0.32354474 0.04058813 -0.019938283 -0.021216543 0.29271963 0.013521139 0.14565702 0.086496845
969 0.25105596 0.20646892 -0.04500136 0.030781629 0.1500832 0.19056408 0.111246705 -0.5410056 0.0353008 0.10032874 -0.11209284 -0.36654747 0.34770298 -0.30457953 0.32459038 0.027883964 0.29612425 0.22568297 -0.11709615 0.21343932 -0.40373945 0.07161563 -0.12772672 -0.40857986 -0.039933465 0.50374156 0.2934528 0.24950208 -0.35097712 0.21220419 -0.18984836 -0.09544625 -0.016230734 0.026680965 -0.14598596 0.20883557 -0.10605693 -0.2557106 -0.00050461985 0.24413022 0.0001698788 -0.3138725 -0.02448595 -0.010341924 -0.24943683 -0.40784752 0.044465046 0.031642035 0.17816317 0.22236295 -0.16480662 0.26640034 -0.055438854 -0.20878331 0.11087245 -0.32786036 -0.08814115 -0.26749334 -0.113022074 -0.03384987 0.27861974 0.060995802 -0.3289255 0.043890905 -0.04618843 0.5180758 0.119193316 0.5303423 -0.34055194 -0.4044003 0.44485247 0.053771436 -0.14823268 -0.33951274 -0.12553307 -0.015594336 -0.024027556 -0.03281352 -0.2166576 0.30074018 0.19104327 0.51689655 -0.07406457 -0.4036884 -0.07395242 -0.23306635 -0.17886885 -0.009089778 -0.08757511 -0.36876866 0.24400276 -0.59553605 0.15892664 0.38942418 0.003165932 -0.09816698 0.094691224 0.15301393 0.18589653 -0.09042307 -0.060172614 0.24871622 0.1302291 -0.029626438 0.28776413 0.44689086 0.105365984 -0.26392806 0.5036475 -0.17792127 -0.4151631 -0.23836827 -0.42653018 0.31630892 0.123075545 0.20656581 -0.16122052 -0.14310144 0.170959 -0.10708658 0.46037206 -0.03218963 -0.1540089 -0.027068876 0.17807037 0.5012456 -0.1500306 -0.067231975
955 -0.18542723 0.029400686 -0.048034504 -0.009686673 0.12849228 -0.009014938 -0.18292093 -0.06450902 -0.26378864 -0.20144634 0.16409484 -0.3426542 -0.43383473 0.15561855 -0.053123243 0.2624927 -0.04651971 -0.15925413 -0.109654985 -0.033014894 -0.049764983 -0.06040558 0.015117621 -0.12939312 -0.34445125 0.14870076 0.54991835 0.5300557 0.08034444 -0.40760502 0.20808667 0.13104904 0.15360656 0.52636707 -0.03386203 0.10879602 0.31981015 0.1582849 0.20416766 0.048314136 0.086624414 -0.05537166 0.065744 0.4159651 -0.00688701 0.35292915 0.13489576 0.019734943 -0.10689244 -0.31730422 0.26414248 0.21848519 0.18677837 0.2079157 -0.08891192 -0.12704675 0.10261716 -0.12761648 -0.20872816 0.07375032 -0.1142055 0.09092066 0.09879033 -0.16637771 0.08527515 -0.42899626 0.023603076 0.025554638 -0.33618498 0.07359862 0.121933684 0.19518395 0.050792262 0.14120173 0.12871005 0.21005769 -0.19102828 -0.096261874 -0.54729307 0.13550109 -0.09241465 0.15588015 -0.29952592 -0.46374306 -0.11363017 0.063513756 0.019608881 0.10857443 0.19910485 0.16119912 -0.1709688 -0.25366038 0.14778508 0.17385623 0.06920599 0.28733572 0.16433363 -0.042246237 0.4421273 0.056387253 -0.17838632 -0.50615394 -0.3686793 -0.14109375 -0.36877024 0.26647156 0.03222279 0.12602413 0.29499245 0.7018717 -0.19952838 0.061805397 -0.46176556 0.41583872 0.070239075 -0.15234989 0.019753613 0.30237988 -0.08438589 -0.3843857 -0.116333984 0.107805215 -0.085312136 0.13441703 0.018788071 -0.03336684 -0.29835996 0.07707057
472 -0.1226901 -0.28832573 0.23351422 0.05224608 0.41817313 0.35023257 -0.36494026 0.21025991 -0.2430537 -0.3272098 -0.061234362 -0.015235271 -0.03598747 -0.14310527 0.41130778 0.16184153 -0.28029907 -0.1588207 0.16110761 -0.15688993 0.19572662 0.25991225 0.09786536 -0.14890432 0.11042206 0.30954045 0.0138520785 -0.020806205 0.37989682 0.17322232 -0.6630744 -0.23584802 0.38099545 0.1399241 -0.07765491 0.28793186 0.18874785 -0.35921305 -0.36090016 0.23410411 0.3043454 -0.03362665 0.022888107 0.07086745 0.26839003 -0.02619695 0.22015153 0.32854262 -0.18493558 -0.18734111 0.18044978 0.28820762 -0.40999663 0.119817786 -0.09329253 0.053962734 -0.027029512 -0.21391393 -0.07823992 -0.26787624 0.08929772 0.040349822 0.097598664 0.07688449 0.21816225 0.0503997 -0.06497357 0.012312616 -0.16738164 -0.4855278 -0.1485168 -0.07471812 -0.21488264 -0.022083638 -0.5723837 0.0009008449 0.07145525 0.07781275 -0.11161388 0.30078 -0.63355225 0.23899539 0.10608483 -0.07220593 0.25910124 -0.20150444 -0.20947467 -0.22961657 0.025000121 -0.62472194 0.17210442 -0.44630808 -0.1420745 0.23314817 0.010283433 0.11954505 0.5675529 0.16853632 -0.15248759 0.04405954 -0.10718827 -0.19928765 -0.015992679 -0.30865508 0.2108324 -0.17996836 -0.13597736 0.36688364 0.11629043 -0.041207377 0.15337907 0.5146072 -0.28541967 0.2103435 0.09553651 -0.0972337 0.070629746 0.07991811 -0.082819164 0.020760616 -0.19238178 0.004879088 -0.11161398 -0.08793276 0.10343165 0.028974654 0.20400923 0.2686587
1339 -0.20445135 0.43469197 -0.14024992 0.09423252 0.04498638 -0.07687223 0.40238333 0.3087761 -0.07747604 -0.05048841 0.106665514 -0.26812533 0.3404393 -0.026532335 0.58897865 -0.1020915 -0.17160651 -0.26094446 -0.1790087 0.010989893 -0.1927607 0.6452671 -0.21264973 -0.18771058 0.2475542 -0.38920194 -0.0033294263 0.48246127 0.1546779 -0.24196433 0.532231 0.5636057 0.3146418 0.33837968 0.3174479 -0.29668334 -0.23777409 -0.054763112 -0.09998374 0.31534302 0.30691972 0.28720215 0.22589618 -0.116650596 -0.055637162 -0.2963369 0.3192545 0.42000937 0.23336262 0.03163646 0.07481588 -0.21932809 -0.25798678 0.088149704 -0.10615905 0.3918307 -0.06432954 -0.24538772 -0.0006928192 -0.22711492 -0.24754271 -0.14905384 -0.18284018 -0.0004139403 0.17662445 0.2465859 0.38205793 -0.07391036 -0.043052178 0.1691541 0.08507194 -0.14134689 -0.08534836 -0.09723959 0.3129079 0.48069575 0.009686455 -0.092565365 0.028899342 -0.0540326 -0.15558626 0.16466613 0.3471925 0.25847703 -0.13913815 0.3837367 0.0057307985 -0.056472763 0.114891455 -0.3044559 -0.07182614 -0.42477098 0.32270792 0.14917 -0.12885113 0.1622727 0.021763336 0.15923822 0.5469465 -0.05701138 0.42527455 0.23532106 0.022453073 -0.09149337 0.1993236 0.011288151 0.28391668 0.18237598 0.09537216 0.11811843 -0.16350213 -0.13478552 0.08255297 0.16479035 0.09155427 0.23402026 0.16564624 -0.08109829 -0.152834 0.20490624 -0.02046689 -0.021253321 -0.32994667 0.07689376 -0.11301867 -0.27934477 -0.22024044 0.022459181
1291 0.117287286 -0.4516608 -0.1046597 0.2614848 0.21224363 -0.082409754 -0.046446107 0.28388432 -0.21928029 -0.45730746 0.13457868 -0.07080777 -0.0809536 -0.03979008 0.016414668 0.28490207 -0.18919842 -0.232111 -0.061055094 -0.13233663 0.024273112 0.34419724 0.2532696 0.21484648 0.31322977 0.11458398 0.043083183 0.37586445 0.016838573 0.3177053 -0.49261624 0.32736954 0.010537973 -0.22198841 0.15509583 -0.16883223 -0.14169088 -0.19036768 -0.26762414 0.08149927 0.23750876 -0.081624486 0.011918783 0.118086524 0.061105423 0.098591104 0.27008054 0.16689102 0.41772828 0.0889143 0.00069732 0.27058017 -0.050138645 -0.15943578 -0.28870723 -0.29818973 0.38323995 -0.16044064 -0.009529899 -0.14116333 -0.11415056 -0.077201225 0.3674169 -0.34043497 -0.048650775 0.2877026 0.10635422 -0.1189441 0.2457325 -0.25629017 -0.03150655 0.04891718 -0.35813195 0.23279145 -0.31668293 0.3280912 -0.09164725 -0.044540495 -0.16678452 0.232921 -0.17602354 -0.026085453 -0.1427405 0.16992593 0.33197916 0.023241287 -0.07441641 0.24605724 0.20417644 -0.28727868 0.30569953 -0.4143651 -0.22395 0.94080794 -0.10833928 0.4948136 0.07899374 -0.4510533 0.02295047 -0.23883766 0.27563876 -0.01373554 0.28963095 -0.26949868 0.14339247 0.03093668 -0.01755523 0.24702704 0.09582808 -0.31584182 0.37511805 0.3027308 -0.32642174 -0.1969005 -0.33273348 -0.11898287 -0.09350525 0.27638268 0.09378397 0.015195823 -0.0779951 -0.09317802 -0.09395052 0.030271802 0.039019026 0.24369773 -0.35473475 0.28507775
1362 -0.12287633 -0.3892499 -0.09210949 -0.4512664 0.55231 0.35400912 0.31417328 -0.14287113 0.2069624 0.09423415 0.011436734 -0.30232918 0.46456748 0.31921616 -0.2412007 0.13156281 -0.15577914 -0.15302232 -0.42387322 -0.0019978853 0.17557466 -0.03594159 -0.06571957 -0.020932447 -0.38692927 -0.018347615 0.37128922 -0.25369015 0.040840153 -0.10893636 -0.43069586 0.2958696 0.1367257 0.19008686 0.046975303 0.14228979 0.2960823 -0.15981708 0.018189378 0.11044829 -0.29539222 -0.22209735 -0.041212477 0.17363746 -0.17833532 0.2621801 0.0106438855 0.33332217 -0.09245439 -0.056512523 0.07603775 -0.16384186 -0.09949343 -0.20327505 -0.14944883 -0.44701335 0.09558707 -0.19072378 -0.043330006 -0.11037346 -0.3423968 0.09335127 -0.18527883 0.26809245 -0.3338589 -0.27284878 0.0041642506 0.12901776 -0.49981168 -0.5064278 -0.4272764 -0.19835052 0.038947403 -0.09052721 0.21285687 0.09105144 0.050692115 -0.014210021 -0.11631853 0.23458119 -0.33014914 0.13969867 -0.22713305 0.07376879 0.40695024 0.4327672 0.31020376 0.23032038 0.26573476 -0.03833012 -0.2208232 0.112255715 0.1744398 -0.044745967 0.004044181 -0.26892763 -0.23719099 -0.35204685 0.18183547 -0.04715091 0.16287717 -0.32321802 -0.381164 0.09555581 -0.0077116936 -0.14695784 0.14313115 0.21315816 -0.08792109 -0.08343127 0.004803325 -0.04885485 -0.20298032 0.4004569 0.23401605 0.23394816 -0.046560038 0.03025988 0.26204073 0.35609752 0.16448937 0.37366042 -0.12561332 -0.48784974 0.024264138 -0.16943824 0.11980482 0.23143318
409 -0.22063583 0.21276233 -0.013459305 0.15006708 0.43856233 0.14011379 0.013759862 -0.03568207 -0.13772884 -0.005665581 0.07161126 -0.2157867 0.053074915 0.3455344 -0.21002546 -0.20064722 0.13041234 0.19936767 -0.09120307 0.14985079 0.030627677 -0.2261527 0.03528084 -0.1208307 -0.08346338 0.4101553 -0.1892972 0.06981157 0.22770408 0.114751704 0.09057591 0.10200474 -0.2191052 -0.37296304 0.049317803 -0.27716416 -0.30846754 -0.14895718 -0.3525927 0.0999358 0.25208563 -0.08567247 0.1753756 0.51663256 -0.20188388 0.30692127 -0.1299354 0.29982105 -0.4194447 0.3460239 -0.055926453 -0.0158335 -0.11171322 0.27014443 -0.08705495 0.085557394 -0.049425907 -0.15051459 0.13674927 -0.050776526 -0.15964738 0.08992788 0.020571003 0.3719023 0.29954 -0.018276246 0.360076 0.056806523 0.015783263 -0.40498522 0.23994198 0.40977708 -0.21361238 -0.047222573 -0.0027617773 0.124879144 0.36545447 -0.51267946 -0.31025842 0.04015835 0.10066054 -0.07400981 0.3233734 -0.12543952 -0.04994069 0.3358926 -0.056633286 -0.3914293 -0.12065135 0.052394986 0.47292897 0.009583533 0.45986912 -0.12924355 -0.69747883 -0.3255326 0.1456918 0.26052043 0.1625454 0.3202987 -0.13129237 -0.08855849 0.120721206 0.02145227 0.15212114 0.1339465 0.03409778 0.50496703 -0.055588786 -0.3476853 0.21213728 0.43461424 -0.1734329 -0.04162188 -0.15350145 0.32751375 0.07667543 0.21592285 0.17272507 0.017474249 0.30118486 0.05044285 0.08039808 0.09676773 0.029488994 0.23329712 0.2709046 -0.10590121
311 -0.18462461 0.23918349 0.25144464 -0.09374502 0.13174012 0.0045441817 -0.22119191 0.024649624 -0.08870009 0.06084261 0.14514026 -0.07825244 0.15294617 -0.058706056 -0.029980928 0.08854943 -0.01887517 0.022462709 0.3443503 -0.3502916 0.20162262 -0.0895104 -0.14840229 -0.08220338 -0.2515183 0.1416862 -0.32217416 -0.19393873 -0.15697797 -0.32901412 -0.25291622 -0.14783399 -0.26271296 -0.172795 -0.26748958 -0.26420274 -0.052541398 -0.24807046 -0.3648773 -0.20477045 0.23755005 0.36076114 0.21173331 0.5111817 0.08231167 0.0096963225 -0.05872819 0.16819245 0.22807808 -0.4318795 -0.08087055 0.16760685 -0.39356992 0.17174883 0.038356043 -0.11928939 -0.18516788 -0.4626591 0.04753151 -0.038528495 -0.2952316 0.014033789 0.017025515 0.30073607 0.39927882 0.078471795 0.054294366 0.12031098 0.06389977 0.0616294 0.053199746 -0.40611708 -0.03141678 0.023093902 -0.2251494 -0.18363868 0.13276774 -0.21816467 -0.2603644 0.11490597 -0.54668766 0.10659585 -0.08434977 -0.022829993 0.3269194 0.23614042 -0.024364104 -0.33730468 0.099294566 -0.2613173 0.33524042 -0.26172543 -0.23140708 0.16101432 -0.2778958 -0.11638878 0.094514996 0.24923341 0.2145103 -0.10833067 0.010840439 -0.35230857 -0.034168966 -0.07804957 -0.13715781 -0.24615476 -0.53474003 0.49219048 -0.067378834 -0.3361158 0.16615213 0.36598706 -0.27477083 0.3201843 0.22285849 0.33889756 0.23634796 -0.21406218 0.21308684 -0.44951352 0.004116583 -0.26825213 -0.050237417 -0.10121347 -0.14045028 0.17013983 0.26409385 -0.112809904
64 -0.07493761 -0.51691544 0.41116282 -0.09532559 -0.019442216 0.3059224 -0.1552553 -0.09917471 -0.23191956 -0.11670055 0.24320152 -0.2895755 0.03199932 0.13835537 0.34845433 0.23097731 0.04235949 0.09016881 0.07916374 0.0017159067 0.102959074 -0.04034034 -0.19361682 -0.44249967 -0.14330767 -0.009680417 -0.11876903 0.25376302 -0.31891048 -0.21293119 -0.52979195 0.2725864 -0.043658394 -0.08142294 0.10649828 -0.1825405 0.13079385 0.07532498 -0.38395604 0.0526967 -0.22033493 0.23081584 0.01538771 0.5804608 0.24362315 -0.3510581 0.09084067 0.4004703 0.2930252 0.22276114 0.27624813 -0.05624875 -0.2249159 0.067048356 0.118419185 0.0735623 -0.18961054 -0.31606933 0.047992505 0.012452857 -0.3618112 -0.5833171 0.054957666 -0.16321285 -0.17509218 0.33481452 0.38445315 0.07760278 -0.053089477 0.27983806 0.16244364 0.0032884667 0.16318154 -0.24573173 -0.14380802 -0.084396474 0.045568272 0.3224003 -0.17961334 0.14258543 0.17611858 -0.08672934 0.1254354 0.005487632 0.41628975 -0.12544054 0.036565434 -0.07024028 0.313529 -0.65158814 -0.3816625 0.40434086 0.11898567 -0.051500704 0.056260496 -0.25925645 0.13536882 0.06321599 -0.04242098 0.14734659 -0.11359796 0.023961563 -0.17210273 0.0928707 0.025516419 0.17880332 -0.1563924 -0.24741432 0.28007087 -0.037507113 0.038399264 -0.31044367 0.08606918 -0.049778607 -0.29147506 0.3014035 -0.18613951 -0.236407 0.15537356 -0.34582472 0.039434176 -0.28930008 0.03458845 0.28645608 -0.002247548 -0.04417331 -0.09042405 0.19175225
1039 0.20744537 0.5765106 -0.09203194 0.27971005 -0.22189638 -0.030969197 0.1461597 -0.10724517 -0.44584036 0.5204145 0.45122775 -0.33766812 0.12380308 0.18567728 0.1084718 0.43288997 0.28939086 -0.10840997 0.22743729 0.12172805 0.06085381 -0.046473753 0.2746485 -0.14408265 0.14130892 0.136917 0.3018738 0.10747111 0.1650155 0.092827536 -0.35895202 0.416878 0.29507938 0.19788499 -0.04753321 0.1848591 -0.21574867 0.2713892 -0.08132082 -0.45417446 -0.13927114 0.0038941237 0.12761544 0.005300982 -0.013278616 0.16673048 0.19441722 0.061215933 0.07235541 -0.45831275 0.20875613 0.01242561 0.05755396 -0.1735501 -0.32549784 -0.031053346 -0.41144478 -0.1914638 0.26498583 -0.23964405 0.065097734 -0.47334874 -0.14179024 -0.43353438 0.12973528 0.21612848 0.5452289 0.11162821 0.029397234 -0.23646902 -0.15977694 -0.2420793 -0.005757301 -0.017580822 0.1450138 -0.13034637 0.029547518 0.48645598 -0.5293834 -0.22440793 0.14702068 0.33679754 0.46994823 0.026950482 -0.13720566 0.10286665 0.10388765 -0.16237478 -0.17582372 0.048993085 -0.22397172 0.0037924147 0.18478845 0.08985257 0.032150924 0.09686451 0.116762824 -0.029677799 0.1959157 0.19290885 -0.22614227 -0.16804764 -0.70412886 0.17180222 0.08536906 -0.26779988 0.08626403 0.19632226 0.020435 -0.3487361 0.05549341 0.35248455 -0.48361906 -0.18699688 -0.16646723 0.016098464 0.16588391 -0.1791451 0.4226757 0.09762416 0.29379562 -0.046862375 0.3912169 0.4042912 0.39167082 -0.12896985 0.28933278 0.22733666
612 0.3951035 -0.042158782 0.07087506 0.102188244 0.11249924 -0.39649487 0.14825532 0.14477222 -0.16295664 0.061574508 0.30120748 -0.25404426 -0.110940956 -0.45022503 0.02695715 -0.012021816 0.20605116 0.28063816 -0.018432342 0.32182324 -0.15720752 0.013601434 0.13883899 -0.6076038 0.22047563 -0.09615451 0.05603458 0.23999478 0.19532827 -0.14084429 -0.1505216 0.026039425 0.15122692 0.22003265 -0.27131692 -0.11691808 0.48393413 -0.08896602 0.3674396 -0.24962106 0.04801445 0.36036235 -0.18194802 0.1395375 -0.3248938 -0.2503408 -0.11684979 -0.15168783 0.06278938 0.14658162 0.37593445 0.46119705 0.10151146 -0.09891078 -0.15536787 0.1302731 0.064401865 -0.51213235 -0.088247165 -0.32733646 -0.27220955 -0.06859033 0.32129145 0.030706944 0.29215914 -0.0906471 0.047204975 0.04351119 -0.25781658 0.04352473 0.28665653 0.35190415 0.12649533 -0.07543491 0.26639014 -0.3992488 -0.5253583 0.0054245302 0.03227474 -0.27013218 -0.112182625 0.59926033 -0.28202558 -0.28995687 -0.29417282 0.023043115 0.13141322 -0.1128708 -0.104154035 0.014039737 -0.0035708037 -0.08030307 -0.24356443 -0.20192163 -0.2985613 -0.013113251 -0.7105587 -0.17663987 0.20042533 0.32181492 0.34919843 -0.26642853 -0.25499824 -0.17744803 0.39122722 -0.041969534 0.1772107 0.43380886 -0.10862325 0.13131355 -0.4092482 0.009595054 -0.048264515 -0.035408396 0.17529026 -0.027657919 -0.110039234 0.07041147 -0.063275166 -0.04829452 -0.16673996 -0.01296628 0.061591055 -0.2051005 0.1777816 0.065567054 -0.2826371 0.2805025
521 0.01647977 -0.08509967 -0.11676727 -0.082491696 -0.044438597 -0.29476678 -0.3621147 -0.06846236 -0.48265418 0.4877045 -0.19819467 -4.9338487e-06 -0.15645802 -0.3059222 0.070932984 0.0024904956 -0.0038000834 -0.1039042 0.26714274 -0.20742528 -0.04383307 -0.21273616 0.45206892 -0.24762857 -0.22310962 -0.35122916 -0.13077572 -0.05488367 0.25967398 0.5298554 -0.0610851 -0.45847905 0.10950235 -0.21582958 -0.0575695 0.4898844 -0.13981396 -0.39474806 -0.0734541 -0.04238466 0.46756294 0.053464424 -0.022169683 0.167042 0.043415476 0.047477975 0.24970363 0.42862856 -0.056348655 0.05451483 0.07390209 -0.021327129 -0.11318047 -0.0014270619 -0.33263698 -0.049342234 0.23749624 0.12953544 -0.359454 -0.46286452 0.016468208 0.022866614 0.21357122 -0.12081979 0.008507057 0.11419999 -0.123575345 -0.19715491 0.17295003 0.07013495 -0.170886 -0.35992274 0.29399532 -0.6775179 -0.08312335 -0.007958347 -0.21640894 0.065539956 0.023180066 0.2060057 0.21905409 -0.026292132 0.061051477 -0.32954916 0.48543513 0.21556272 -0.19443394 -0.13594644 -0.08792949 -0.101910055 0.18075362 0.20676942 -0.17999774 0.100999035 0.099975705 0.028465964 0.29652432 -0.16706993 0.34425858 0.22963595 -0.080644526 0.15696707 -0.6602053 -0.35309085 0.22713201 0.089769475 -0.35006946 0.14676572 -0.14807574 0.144958 -0.22888212 -0.15463345 0.18814452 0.24760625 0.09210685 0.13484739 -0.09316146 0.1592875 -0.06553453 0.19422838 -0.10167555 0.30199423 -0.17438512 0.3695717 0.01652797 0.6948768 0.14964263 0.18258826
1035 0.05186786 0.32556456 0.24598764 -0.2701999 0.10029605 0.1667243 0.2704073 -0.02726532 -0.035871103 0.047925048 0.021970587 -0.028706297 0.049339425 -0.14581661 0.14625007 0.41680288 -0.025254613 0.015254425 -0.024561962 -0.034549944 -0.16019781 -0.48964372 0.1266926 -0.1639866 -0.10620041 -0.24134056 0.35574052 0.53038555 -0.1108634 0.4026666 0.061108418 0.20169659 0.27268127 -0.1493493 0.13996075 -0.32790622 -0.3337173 -0.35898447 -0.015606012 0.1790387 -0.17257787 -0.07170795 0.22310573 -0.29700476 -0.17534876 0.26333088 0.14338543 0.031828012 -0.10973974 0.04772741 0.3342513 0.24298017 0.120644204 -0.03837842 -0.16426271 -0.06354987 -0.48631427 0.104363516 -0.11011006 -0.39911783 -0.114840135 0.09522443 -0.053774465 0.15583496 0.16086634 -0.09744334 0.10708797 -0.20117995 -0.26064703 -0.26423436 -0.24707167 0.17046472 0.03217325 -0.2581154 -0.54004174 -0.20090522 -0.35450453 -0.78256613 -0.16090009 0.30537772 -0.26460648 0.18422931 0.37469953 -0.01179498 0.380875 0.1912369 -0.08590022 0.10878329 0.057537924 -0.13158385 -0.23409092 0.113015346 -0.11970496 -0.23023842 -0.3564175 0.118582234 0.14292328 0.06325951 0.40327007 -0.21148963 0.5117263 -0.16571379 0.054604296 0.09295431 -0.11478661 0.11423975 0.13842238 -0.37227747 -0.08165074 -0.38278845 -0.3853519 -0.014736158 0.4505085 -0.12044856 0.07051071 -0.08710266 0.18727338 -0.053910915 0.3934638 -0.13110434 -0.1557576 -0.23396344 0.10517749 0.091344185 0.042500418 0.3479526 -0.09861762 0.582877
551 0.17563364 -0.114305474 0.024649952 -0.017931065 -0.5107749 -0.2905928 0.022471562 -0.080574684 0.21917102 0.24377045 0.19583915 -0.4354094 0.19433616 0.66614836 -0.02448306 -0.05691236 -0.1746563 -0.078581594 -0.08933393 -0.0073662903 0.45707798 -0.26600382 -0.35857323 -0.038561642 0.20041557 0.16891995 -0.07256908 0.14975637 0.6431385 0.11304085 -0.024448315 0.2463048 0.4941323 -0.01191981 -0.2600473 0.14761709 -0.116660476 0.15503071 0.033741664 -0.27535114 -0.32947826 -0.11689222 0.26810652 0.29817897 0.39427188 0.10544728 -0.12450243 0.1513436 0.057997826 -0.11992351 -0.3867004 0.0080343615 -0.10487347 -0.19530633 -0.4566876 -0.51868546 -0.19645223 -0.0063629765 -0.10490806 -0.45711216 -0.15005367 -0.50913143 0.23457372 0.00083046715 0.06740829 0.123515114 -0.072367944 0.2642142 -0.2534423 -0.1882877 0.1164565 -0.5083256 -0.09447218 -0.052523237 0.12203016 0.024756514 -0.60566443 0.16140784 -0.4002306 0.02937651 -0.21944194 0.03909128 0.24423344 -0.068321444 0.34519744 0.2435341 0.41520405 -0.13884777 -0.5006037 0.35926685 0.06085641 -0.09997494 0.17019697 0.2670767 -0.016565489 -0.03997763 -0.46280304 0.062653236 0.23640305 0.42962846 -0.048986953 0.12060579 -0.17123654 -0.02277689 -0.38522795 0.34234196 -0.07778831 0.38675797 0.46014822 -0.18437874 -0.19933903 0.02239375 0.061972454 0.016617874 -0.21160577 0.026085002 0.22239906 -0.028903848 0.1265453 0.031188818 -0.023316693 0.20891073 -0.031748116 0.09730237 -0.051340576 -0.00790936 -0.17259514 0.3086414
580 0.13613823 0.10173637 -0.11661488 -0.15233734 0.41222343 -0.132902 0.21871714 0.076827355 0.04194169 -0.123716146 0.16381153 0.061742205 -0.00498013 -0.067933746 -0.102120556 -0.20195678 0.20987107 0.5031342 0.022160506 -0.021950074 0.3680225 -0.15878762 0.14523645 -0.13277675 0.17413586 0.0063824053 0.2235492 -0.00992352 -0.3089722 0.046900872 -0.17950955 -0.01673197 0.13870594 -0.20049754 -0.04565238 0.33865854 -0.05231293 -0.18184966 -0.15323266 -0.36289024 0.18032263 -0.2570683 -0.20269817 0.1375586 -0.10290624 0.3914269 0.65538776 0.6193491 0.10977633 -0.11752505 0.3772174 -0.025675772 -0.14180431 0.30524307 -0.540963 -0.16105644 -0.2790206 -0.58119714 -0.027201401 -0.3310617 0.18441747 -0.23055218 -0.024598371 -0.056490514 -0.027110979 -0.106220484 0.2226631 -0.05874758 -0.21290796 0.026187938 0.11099609 0.39352393 -0.3392891 0.0014074371 0.21545494 0.037535027 0.19576383 0.1648206 -0.74980366 0.27165323 0.034595326 -0.2358561 0.31197128 -0.042599175 0.10221902 0.16713828 -0.070963204 -0.13449308 0.09504821 0.058018398 0.04743216 -0.41488767 0.079374954 -0.27651194 -0.08046417 0.1294345 -0.21892387 0.40038827 0.01404269 0.16949841 0.076320276 -0.036788274 -0.011635632 -0.015514521 -0.048865467 -0.039226223 -0.16134726 0.122124195 -0.13136445 -0.22138856 -0.025691245 -0.07436506 -0.009302361 0.100118026 -0.61339706 -0.017452287 -0.27086216 0.20584278 -0.5905863 -0.07998884 0.0067970674 0.13321382 0.44087967 0.31840312 -0.020526573 0.61227703 0.39214748 0.12838487
582 -0.11186651 0.2451402 0.11986329 -0.068061866 0.088813454 0.023925401 -0.5598846 0.096951425 -0.2298661 -0.08277711 -0.11455156 -0.04984705 0.29599747 0.18803336 0.388799 -0.028009463 -0.09077321 -0.0108795045 0.035302397 0.37626314 0.36512485 -0.085705325 0.17282002 0.036206923 -0.5184027 0.07822057 -0.10314686 -0.032832664 0.2987115 -0.10053479 0.15676081 -0.058709882 0.19233502 -0.49211514 -0.38126844 -0.06850403 -0.16286163 0.08845125 -0.11864378 -0.079985686 0.48213154 -0.10971698 -0.25902894 0.015110631 0.034913234 0.03282277 -0.18258347 0.06726911 -0.109086305 -0.043738015 0.15991673 -0.05701439 -0.061432675 0.13845873 0.15470806 -0.08816902 0.28026348 0.31892493 -0.14111102 0.19301638 0.17794447 -0.15893385 0.1483041 0.04698868 0.3324169 0.005541658 -0.032774072 0.30068603 -0.45797378 -0.35056525 0.36149696 0.1691935 -0.16844158 -0.24587828 0.12389407 -0.3464397 -0.055848457 -0.3334659 -0.021237055 0.17766072 0.008529423 0.2513472 0.40923804 -0.00038525753 0.053098705 0.17556186 0.30917418 -0.20419723 -0.27116194 -0.02984016 -0.32073298 -0.47027045 0.4798492 0.48565397 -0.32576415 -0.20974192 0.17623553 -0.20244363 0.2991363 0.13407901 0.0668154 -0.28031334 0.16090594 -0.09623588 0.37067917 0.20072405 -0.27521333 -0.15026094 0.16157655 0.20427996 -0.25266492 0.103343144 0.32876933 0.09129838 -0.1926124 0.37501046 0.12528102 0.25895816 0.2850607 0.44151035 0.07314067 0.054708116 -0.07371208 -0.20594637 -0.07866928 -0.06798713 0.3367698 0.20038547
668 0.14304255 0.014934819 0.22551566 0.06788092 0.54454994 -0.03955403 0.5209608 -0.086881965 -0.06402551 -0.0377327 -0.3059817 -0.14859508 -0.33345708 -0.012243102 -0.32079363 -0.12247517 -0.051578 -0.40891665 -0.065648854 -0.08206056 -0.09306339 -0.0787382 -0.010426378 0.15127711 -0.061148465 -0.04909355 -0.22569217 -0.24023151 -0.1695504 -0.12504311 -0.2911154 -0.21946485 -0.15458342 -0.072347715 0.121623345 -0.1970198 0.6136736 -0.039405566 0.1799036 -0.095787786 0.31296092 0.35070112 -0.3279399 -0.15786494 0.27161562 -0.22183144 0.09417187 0.15633489 0.10274288 -0.21718617 0.8669044 -0.090928525 0.17746626 -0.24522023 -0.28493208 0.06281838 -0.24018027 0.014061361 -0.0651587 0.010368493 -0.23042467 -0.08042215 0.15744889 -0.07978243 0.3485818 0.22456247 0.1518167 -0.1640021 0.024994753 0.017206563 0.2684003 -0.120440215 -0.121257864 -0.059146557 0.0450953 -0.20147419 0.3624997 -0.031635653 -0.06494521 -0.12801394 0.26920658 0.2904956 0.45688593 0.08291949 0.5038279 0.38832757 -0.043764617 0.057134956 -0.24040946 0.084338605 0.12262798 -0.2042845 -0.014018898 0.28446946 0.23757355 0.027960261 0.12863667 0.19345395 0.21452864 0.28911382 -0.017474368 0.44192046 0.37893498 0.10626363 -0.18250057 0.12463814 0.16634367 0.09917521 0.13420139 0.18504208 -0.03693884 0.101541296 -0.060710926 0.20406404 0.12496663 -0.019175619 0.342965 0.055615116 0.09698303 -0.059645783 -0.03515918 -0.3336528 0.030947978 -0.07408428 0.24794611 0.13228564 -0.14481983 -0.20939235
139 0.015616448 0.36128926 -0.3418455 0.06383794 0.029024903 0.019969039 0.38464257 0.5236566 -0.30714622 -0.41477525 0.22590405 -0.21159576 -0.12226922 0.46333104 0.13201162 0.19758976 0.033676047 -0.017393542 0.11238733 0.22975102 -0.087276414 0.08986112 0.30511543 -0.5621649 -0.03868739 0.02646219 -0.26019123 -0.10070405 0.19301565 0.2234306 0.33551386 -0.29120243 0.16478515 0.05650885 -0.15408331 -0.3794951 -0.39616576 0.23846667 0.29427668 -0.09138057 -0.64746684 0.117780216 0.19181494 0.09607007 -0.14325456 0.09243699 -0.15860231 0.037572894 0.1360662 -0.5533597 0.13751213 0.081480175 -0.27445376 -0.06787815 -0.27061886 -0.29747957 0.16375247 0.07908617 -0.20294406 0.14678162 -0.21187592 -0.28312963 -0.49923083 -0.30142644 -0.0058942586 -0.18709369 0.34940726 -0.09802935 0.14350924 -0.16093773 0.100483604 -0.3475743 0.0652275 -0.092475206 -0.17071405 0.10610993 0.07262088 0.29811576 -0.40510866 0.13545273 -0.31199616 0.33707255 0.1131508 0.19114108 0.2720014 0.16574241 -0.45216605 0.025676461 0.28574115 -0.050849944 -0.13589007 -0.23726834 -0.014960613 -0.12468534 -0.08848737 -0.2999727 0.06475132 -0.17946379 0.15161641 0.25320652 0.12328567 0.04168376 -0.042173438 0.11941611 0.24006 0.23666899 0.17324026 0.2346898 0.28952828 -0.10040662 0.12088968 -0.23608263 0.16077974 -0.22586226 -0.09589143 0.25086033 -0.088775784 -0.17547934 0.27566028 -0.10997076 -0.11816248 -0.010975262 -0.06264909 0.32612196 0.14097734 0.03880843 0.1261844 0.059559863
516 0.047650635 0.03202532 -0.056975063 -0.29062358 0.20235106 0.1303551 0.03923182 -0.22145179 -0.056767605 0.06160988 0.40709978 -0.4454282 -0.17854434 -0.16533549 0.06865396 0.2746118 -0.3256607 0.19032024 -0.30615285 0.4363739 -0.14081077 -0.2588396 0.34745675 0.37878522 0.006204082 0.12568924 -0.10311529 0.093996726 0.008023032 0.12051474 0.16076244 0.11872729 0.37451032 0.06340799 0.04829703 -0.002731991 0.36809993 0.15815666 0.036078025 -0.046150714 -0.1846795 -0.203596 0.50688523 -0.057440672 0.040628966 -0.23718964 -0.12395171 -0.24164794 0.043736935 -0.059717357 0.2946208 0.4763016 0.23024109 -0.09926367 -0.14875032 0.054759063 0.17019287 -0.5640799 0.13557921 -0.14135972 -0.2496014 0.55023724 0.09743936 0.043657254 0.5505489 -0.1464911 0.084995516 -0.1209212 0.2772763 -0.13772038 0.14719442 -0.062179536 -0.32163277 0.0500661 -0.08267668 -0.21234891 -0.028535703 0.15604198 0.07040504 0.055055328 -0.11465044 -0.4769069 0.2042235 0.049012803 0.19074355 -0.009049823 0.47120222 -0.07541426 -0.15604933 -0.48150787 -0.5571147 -0.30795664 -0.097350396 0.18817152 -0.19066928 -0.05103942 -0.03303702 -0.24555351 0.23852019 -0.11221212 -0.22185168 0.15472259 -0.36299396 -0.0760206 0.21379545 -0.08162665 -0.20139115 0.1000251 -0.51309216 0.49151707 -0.22309825 -0.30593857 0.1860658 0.2218039 -0.045646746 0.097003 0.18533908 -0.10368001 0.013588409 -0.030883694 -0.2465062 -0.32129818 0.1600721 0.1123566 -0.012583669 0.28817827 0.12849611 -0.1323742
709 0.47138152 -0.42869145 -0.35179773 -0.34726036 0.1033517 0.3276806 -0.19708847 0.08931738 0.46363097 0.036174875 -0.05876175 0.26393652 0.4371836 -0.13655537 0.11353819 -0.02417521 -0.09437228 0.30510738 0.2607806 -0.024718763 -0.22851706 0.12983751 0.20562176 0.16163264 0.19484533 -0.17445442 -0.20428531 -0.019145383 0.3150039 -0.1785345 -0.46858886 -0.26505157 0.017253531 0.41796756 -0.015894132 -0.19601566 -0.2957532 0.08806757 0.34975153 0.16560222 -0.17657918 -0.021776946 0.12009003 0.5558734 -0.068032324 0.015438201 0.12915559 0.17032577 -0.04617046 -0.012113798 0.5248116 -0.103517324 -0.03784451 -0.3804212 -0.123336956 0.026499104 -0.019231293 0.12834068 0.16807613 -0.09136939 -0.2832832 0.100026265 0.13123143 -0.21887422 -0.068562746 -0.14114636 -0.0585783 -0.46991548 0.01642539 -0.33468065 -0.028695738 0.2778269 -0.16735226 0.055061754 0.082889535 -0.15907712 -0.102221414 -0.32247332 -0.22820781 0.3890557 0.056864657 0.35300696 -0.078065775 -0.30637038 0.21862896 0.17921107 -0.22429404 -0.4055949 -0.1460958 0.26312336 0.104873054 -0.5281789 -0.0049693803 0.56782466 -0.03272655 0.3310699 -0.0042089447 -0.39981434 0.41695356 0.4877273 -0.037616175 -0.15407483 -0.09274669 -0.13865069 0.23036204 -0.28073636 0.30534917 0.5016733 -0.32740024 0.061624393 -0.12446105 0.05317149 -0.27954775 -0.10185874 -0.01606071 0.14007112 -0.1350033 -0.20068042 9.7291995e-05 -0.058068592 -0.049981818 0.28044686 -0.11076948 -0.0630058 0.35938165 0.16703743 -0.062507294 -0.42298305
34 0.5947823 -0.250159 0.2776507 0.20875591 0.30643645 -0.3426974 0.11839809 0.3794455 -0.24785814 -0.20548907 -0.02119559 -0.42865798 0.09607796 0.058136586 0.4590789 0.04784594 -0.0628972 0.3387095 0.3666827 0.44826588 0.09616271 -0.57571316 -0.043385793 -0.03208049 0.24514063 -0.040653553 -0.273008 0.4676042 -0.17472503 -0.030409053 0.19485246 -0.091387056 0.528391 -0.20275027 0.26506922 0.05876421 0.2768547 -0.2744639 0.044698134 -0.011778103 0.079383746 -0.12477885 0.05930474 0.10877314 -0.14109279 0.08561059 -0.5050531 0.1413355 0.24699685 -0.55159944 0.057400383 0.053809863 0.30374825 -0.14140494 -0.042264637 0.27847213 0.22673483 -0.045157462 0.23205791 -0.39632156 -0.105042055 0.15524396 0.05749099 0.21432064 0.22463758 -0.18830483 -0.05608004 -0.025028944 -0.15829693 -0.22543181 0.25372982 -0.06144144 0.3562951 0.0008556091 0.38006398 0.22896293 -0.30330327 -0.6448718 0.20232801 0.24609353 -0.008712396 -0.029822785 0.22312014 0.18780972 0.2563765 0.26187164 -0.0034479403 -0.083678365 0.35856852 0.26421878 0.36374316 0.054638907 0.13132589 -0.09581992 0.10360007 0.105058305 0.06822198 -0.1147707 -0.24199088 -0.4363789 0.11705596 0.13525073 0.0018974971 0.015610396 -0.10209752 0.34216273 -0.18314408 0.14904064 0.40816015 -0.06082422 0.0958918 0.16976282 -0.41769293 -0.15820944 -0.042902324 0.41865084 -0.015098374 -0.25235093 0.1680944 -0.17300868 0.06350072 0.057604276 -0.094474256 -0.115793124 -0.20327601 0.17710306 -0.07334598 -0.015009061
