497 128
301 0.10360887 -0.2416331 0.033392012 0.2866026 0.32545254 -0.1811565 -0.12992753 0.051914893 0.09862356 0.017134007 0.16217247 -0.08360018 -0.12372458 0.05950686 0.15528646 -0.35583988 0.035060607 -0.3287296 -0.383566 0.2673826 0.1747352 0.106241114 -0.39538556 -0.3423904 -0.15886831 0.30206227 0.0058456543 -0.119512774 0.11269614 -0.23304044 -0.24398883 0.40954316 0.26544693 -0.35251254 -0.3256814 -0.26205537 0.3137555 0.260083 -0.020854985 0.09794445 -0.022314273 0.1327157 -0.25232267 -0.09230644 0.3288066 -0.04286156 -0.09609643 -0.1222008 0.048049673 -0.07477626 0.11074895 0.25887302 -0.24949929 0.049256645 -0.17714672 0.0018531753 -0.24516334 -0.41004062 -0.38488016 0.0036613103 -0.23205 -0.0525033 -0.1889207 -0.18582048 -0.19710563 0.13475879 0.0294466 -0.10838764 -0.12892653 0.16659668 -0.08879387 -0.3210382 -0.163852 0.32682395 -0.04830992 -0.120152995 -0.1002352 -0.13794656 0.34143052 -0.24832302 0.028684122 0.022589946 -0.08438864 0.022749148 0.01675755 0.06302864 0.06910494 -0.029567838 0.052237242 0.23794039 -0.2181263 0.00049901294 0.1603564 0.17651586 -0.11048316 0.088800855 0.097037524 0.15410861 0.3960754 -0.0502154 -0.31969196 0.064527266 -0.05676291 0.3295282 0.043305445 0.06369485 0.21093142 -0.0075096847 -0.0075475294 -0.012893008 -0.2332761 -0.020813243 -0.16916868 0.033693936 0.063961044 -0.048234355 0.21383542 0.18868333 -0.05160042 -0.094245344 0.23251879 0.15515247 0.13964607 -0.16173369 -0.43718067 -0.0479243 0.3081286 -0.12798451
233 0.005382864 -0.045452155 -0.22118464 -0.03581215 0.20967776 0.11887595 -0.0059153885 -0.04642454 -0.10409215 0.21276943 -0.1649806 0.029996049 -0.10236376 -0.20201758 0.18820116 0.12985183 -0.06352896 0.07689526 -0.13159457 0.06463203 0.1054512 0.059059862 0.12049703 -0.3783806 -0.21560003 0.030306255 0.037201773 0.43573934 -0.12762332 0.016014915 0.3611658 -0.40297762 0.032733396 0.102966905 -0.09957447 -0.066418074 0.2906705 -0.014854547 -0.09094542 -0.031921487 -0.5783727 -0.0896044 0.3119242 -0.15449934 0.104937434 -0.23084147 -0.44687372 -0.11623561 -0.0063083177 -0.10765301 0.09135428 -0.31725243 0.19703875 -0.35991004 0.122637406 0.10199523 0.003829814 -0.15833919 -0.20684648 0.20194589 -0.22571474 -0.2125797 0.10926817 -0.020817352 -0.17251886 0.0787058 0.09372054 -0.21218407 -0.09451864 -0.15148264 0.050863095 -0.2159269 -0.059247985 0.35364607 -0.02651261 0.14989777 -0.021083781 -0.12861791 0.014920904 0.26538444 0.11989936 0.3977381 -0.14524734 -0.039099164 0.26931414 0.107281946 0.09287047 -0.19375536 0.027748259 0.087740295 0.24533695 -0.1595023 0.1000373 0.32823443 -0.25433013 -0.15502732 0.19016686 -0.43641284 -0.21422419 -0.058174387 -0.42490563 -0.039577935 0.2879416 -0.03234991 0.19946294 -0.046931334 0.11543646 0.33787957 -0.15022807 0.039323345 -0.42854974 -0.1969319 -0.30593055 0.23245889 0.21846405 -0.29948926 0.106672995 -0.107380845 -0.029826159 0.20325091 0.3053272 -0.084365755 0.036201235 -0.13653488 -0.0668729 -0.032148868 0.35117558 -0.30886427
196 0.3984873 -0.0046556224 0.034149516 0.013797333 0.15880132 -0.22225645 -0.012825491 -0.08441579 -0.052556347 0.21822606 0.04403945 -0.20572798 -0.18777892 -0.13658215 -0.13734488 0.11353853 -0.40511656 -0.20160103 0.16649577 -0.013631099 0.09192661 0.073957525 0.06085133 -0.35458905 0.040600695 -0.017200388 0.1815736 0.076430954 -0.20259826 -0.094480686 -0.41623062 -0.126098 0.011245445 -0.3208888 -0.18589072 0.033922512 -0.29702586 0.05338332 -0.324254 -0.13884874 0.20526674 -0.16965768 -0.052846976 0.21077374 0.063262954 -0.08163082 -0.34866723 0.124764524 -0.18471621 -0.012638671 -0.21517855 0.07169755 -0.04013347 0.13031153 0.013755563 -0.17708005 0.22720444 -0.027154885 -0.022078443 -0.06470202 0.28102872 -0.1394629 -0.021993175 0.13053505 -0.06308566 -0.06865313 0.049102575 -0.2979821 0.28837785 0.03090059 -0.19992132 -0.41994888 -0.06776637 -0.012550019 0.10052853 -0.27988967 -0.15033899 0.2503656 -0.19231041 0.1904563 -0.33142063 0.049930077 -0.080014795 -0.0025263515 -0.6642757 0.19250503 -0.24249536 -0.17234468 0.081269346 -0.028688332 -0.3504212 -0.0039195474 0.16357039 -0.38022128 -0.1657764 0.21315536 -0.095938474 -0.16400336 0.30641404 0.10216955 -0.08972583 0.3159339 0.31178832 -0.24819416 0.074880235 -0.089632295 0.17365448 0.027569251 -0.3732645 0.1609824 0.022009717 -0.35098323 -0.006328268 -0.26707152 0.08073455 -0.39023578 -0.0039145253 0.14407273 -0.02683165 -0.14159402 0.06246429 -0.09641657 0.024566023 -0.23776768 -0.093972385 0.30076507 0.00315887 0.09791425
141 0.013827306 -0.24333571 0.34206033 0.18808918 0.13088895 -0.17533782 -0.08079532 -0.20684953 0.04409122 0.27172574 0.039917875 0.31521064 -0.1323537 -0.40419838 0.041347027 -0.14588977 -0.058646854 -0.49426538 -0.13122866 0.07672121 -0.1057013 0.031695846 0.33315706 -0.19620636 -0.18636133 0.2070213 0.0017211464 0.034925666 -0.5423826 0.10305999 -0.05395178 -0.0007049698 -0.29014534 0.093498565 0.29372257 0.2395388 0.11952544 0.16575567 -0.294225 0.2705131 -0.17090861 0.050029304 0.1202935 -0.31391162 0.45203543 -0.023534667 0.27789074 0.21289179 -0.0012584663 0.2214611 0.27051803 -0.019038685 -0.34663397 -0.10405703 0.0031122665 -0.053648904 0.19955447 -0.26697809 -0.1504391 0.18422112 -0.31960556 0.08471492 -0.0029285725 0.34156033 0.3704519 0.034821983 0.096887395 -0.31291723 -0.05993797 -0.05074203 -0.040772356 0.22778767 -0.39488837 -0.14479215 0.09116928 -0.032544613 -0.055594485 0.19362196 -0.32249874 -0.21073656 -0.05371127 0.075697616 0.22511972 -0.08268372 -0.35291392 0.026814273 0.2167798 0.08728214 -0.051476352 0.0753461 0.05678062 0.04426971 -0.07212299 0.051076002 -0.027749848 -0.12705703 0.06614539 -0.01286436 -0.08027855 0.0361131 -0.15372406 -0.22291319 0.09351115 -0.11543058 0.29847956 0.16032691 0.22034866 0.048838966 -0.14743333 -0.02082692 -0.096566714 0.036132436 0.0065821433 0.096564986 0.009681979 0.21380463 -0.09991553 -0.20260349 -0.3660913 -0.19908895 0.16918588 -0.45707235 -0.43774348 0.03084321 -0.3927105 -0.08304668 -0.016097859 -0.063717835
206 0.3137094 -0.2298478 -0.14092977 0.005228337 -0.021073341 -0.24842118 -0.18101335 0.029358618 -0.017713334 0.47654685 -0.15637861 -0.12967733 -0.2289384 -0.20492443 0.016992934 -0.3075265 -0.19237566 -0.035364732 -0.22171143 0.08383045 0.13197967 0.102540635 0.09628282 -0.0843766 0.054612808 0.44837815 -0.037278857 -0.017762156 -0.16212149 -0.0012572702 0.07764797 0.22793609 0.11826272 0.0038879588 0.3186492 0.016304614 0.010680099 0.054385815 -0.24901335 -0.34427276 0.032247916 0.41658938 0.216277 -0.18883198 0.010252325 0.05010129 -0.4471908 -0.14999485 -0.11735446 -0.27819815 0.15192015 0.30305076 -0.1639069 0.13712443 0.08350034 -0.068107 -0.34656554 -0.31868964 0.35400152 -0.054086737 -0.12461245 -0.025573308 0.10878706 -0.25222692 -0.407427 -0.19220059 -0.20319863 -0.009224208 -0.1007072 0.090138264 -0.22821492 0.16342458 -0.14669381 -0.28552747 0.06468927 0.19962686 -0.097017035 -0.26176405 -0.39153692 0.31940472 -0.14183602 -0.20738015 -0.19307663 -0.18608645 0.08773379 -0.015354154 0.320646 0.097312495 0.35398987 0.22119793 -0.01955327 -0.3058355 -0.07197917 0.038080517 -0.3711272 -0.07767596 0.07651595 -0.23341107 -0.17241576 0.1549363 -0.2573942 -0.11630469 0.22817217 -0.17804581 0.3599895 0.17369957 -0.058791913 -0.08240785 0.11080978 -0.02952813 -0.15570667 0.14158963 -0.3010148 -0.33407286 0.17269959 -0.37489972 -0.1024114 -0.037917174 -0.18776572 0.12999672 0.24326213 0.10757964 -0.109070994 -0.2219142 0.097762704 0.3752367 -0.20225741 -0.10039368
105 -0.007939778 -0.2749216 -0.08793 -0.247861 -0.06656326 0.13402742 0.11060703 -0.18651131 0.26595843 -0.12711689 -0.2933951 0.16248792 0.15964258 -0.18081951 0.059025574 -0.10058465 -0.02904831 0.5007678 -0.21787623 0.015026549 0.27773318 -0.082885884 0.06725656 -0.10229036 -0.23512301 0.43664306 0.24590553 0.3082941 -0.013779416 -0.36772123 0.20370163 0.012965302 -0.036290582 0.34734604 -0.09300144 0.2631954 0.20813191 0.15497968 -0.17626718 0.22744213 0.047812812 0.0087650195 -0.040743828 -0.24259456 0.10818412 -0.18880886 -0.089758605 -0.09750208 -0.03041585 -0.24304706 0.16928375 0.08990955 -0.02657894 -0.49384153 -0.15673156 0.0995435 -0.10856358 -0.18911928 -0.12693769 -0.16011783 0.048156958 0.18944164 -0.1662786 -0.3770697 -0.21166003 -0.21342532 0.24974594 -0.25527102 0.12036509 0.13287823 -0.02747724 -0.24063502 -0.15044828 -0.13064398 0.19855806 -0.115042455 -0.1203535 0.1301792 0.08133496 0.027367344 0.03590627 0.04520964 0.35353622 0.3457441 -0.35723168 0.16513763 -0.33595717 0.07437445 0.051864285 0.37513018 -0.0929814 -0.14646778 0.00018164061 0.097556025 -0.37144458 -0.03662227 0.10100619 -0.111021265 -0.11710629 0.0035366921 -0.20543346 -0.0069445707 0.29606387 0.061817072 0.068593085 -0.15626287 0.16376276 0.13600433 -0.34433886 -0.19469775 -0.5573603 -0.131825 0.073365174 -0.12773208 0.1918159 0.22829336 0.008623217 0.17192121 -0.2592243 0.12874265 -0.04448311 -0.23488401 -0.22337145 0.22071925 -0.09363798 0.15428945 -0.28313676 -0.05160737
250 0.10417488 -0.22140257 0.015780626 0.05549185 0.168081 0.025270155 0.029007949 -0.00215706 0.39606538 0.15437767 0.053232532 -0.09268046 -0.19386257 0.004767965 0.053654008 0.15530534 -0.042626847 -0.2026245 0.039858904 -0.024686044 -0.059878647 0.1070517 -0.04132309 -0.1943355 -0.048184086 0.28234673 -0.037590712 0.033042066 0.12715392 -0.41429242 0.13809612 0.001740128 -0.14687362 0.16093732 -0.075202174 0.105358034 -0.121038266 0.18535623 0.06659202 0.14678085 0.054098994 -0.1047948 0.10865884 -0.3637886 0.24205704 0.19737819 -0.3120199 -0.04429072 -0.06279331 -0.4173288 -0.03610155 -0.07579358 0.061226483 -0.013526608 0.0742843 -0.36599725 0.289143 0.28508168 -0.065402664 0.12491555 -0.109225094 0.2762633 0.059376534 -0.2075605 0.10403638 -0.03510586 0.011158991 -0.27553448 -0.08768008 -0.26972547 0.09112792 0.102882326 -0.1412706 -0.13629809 0.05444964 -0.35215473 0.15464582 -0.29304978 -0.2821772 0.06668318 0.1137038 0.015644092 -0.15786707 0.35542205 -0.022799209 -0.020538883 0.1820963 0.12321269 0.12927398 0.010332617 -0.017862167 0.23975828 0.043601055 -0.46831262 -0.37223253 -0.14059076 -0.18096127 -0.57210517 0.36579108 -0.30499482 0.016341345 0.48378235 0.4111336 0.1405231 -0.104792975 0.31578848 -0.35025778 -0.07097462 -0.23419172 -0.3422804 0.039737932 -0.0753083 0.24139164 -0.43743995 0.09334212 0.08755037 -0.1013686 0.4378896 0.043848194 0.2989167 0.08172666 0.089824244 0.12185481 -0.010768212 0.37296948 0.005241033 0.024917934 -0.037807398
72 -0.00077278964 0.0006941747 -0.08506012 0.2568758 0.039986882 -0.009225368 0.100972496 -0.30080682 -0.12666889 -0.34267163 0.07621382 0.112708166 0.41361758 -0.064991236 -0.14964782 -0.31842366 0.11536438 -0.16760272 -0.1600084 0.13351011 0.0764277 -0.24902111 -0.028391412 -0.42257932 -0.12319596 0.23963732 0.28802747 0.19578744 -0.22136544 -0.049934734 0.13297977 0.09082692 -0.043256953 0.047418673 -0.091849394 0.026920235 -0.14766158 0.010260419 -0.071244456 -0.039695837 0.1706688 0.26539275 0.035072427 0.29099613 0.16284272 0.004478326 -0.2205175 -0.12538898 -0.044519402 -0.14124887 -0.20830853 -0.051739965 0.17088245 0.49234152 0.057614714 0.06989115 -0.17244403 0.042928144 -0.34736753 0.12379967 0.3685608 0.06053176 -0.06722141 -0.014743501 -0.094888285 0.024513328 0.26360226 -0.22750644 -0.32445166 -0.3030533 -0.61557436 -0.09870975 0.13673235 -0.25447646 0.019406332 -0.012071948 0.025986105 0.11906423 0.19736779 -0.22297534 0.0024706596 -0.03141193 -0.13212793 0.15345219 -0.37596866 0.15478441 -0.19611475 -0.19069572 0.37120658 -0.019670336 -0.03761205 0.20730771 0.11145837 -0.2297242 -0.11372756 -0.057003822 0.102529705 -0.2926281 0.35868272 -0.35846546 -0.10256375 -0.21821865 0.07287757 0.4229042 0.088446274 -0.06679842 -0.015407308 0.19738683 0.03403572 0.086449176 -0.07379357 -0.054335352 0.16396333 -0.008910331 -0.03997907 -0.64327335 -0.16474818 0.06577174 -0.25098842 0.13189635 -0.14896756 0.263453 0.23582578 0.14714134 -0.04860635 0.081489064 0.029827025 0.17215312
102 0.005070359 -0.10452709 0.22117634 0.08612701 0.16455883 -0.037801217 -0.3448582 -0.31057268 0.012255585 -0.02696983 0.26395887 0.15729864 -0.17039494 -0.054993518 -0.077347435 0.021449134 -0.094508745 -0.36502376 -0.19755258 -0.040612217 0.014363245 -0.042779762 -0.088382505 -0.18894237 -0.10544908 0.3127464 0.03228983 0.5063492 0.06416444 -0.05302873 -0.17949522 -0.011514761 0.039911766 -0.24526547 0.26285616 0.35500553 0.15983245 -0.20335154 0.0075375624 0.20475495 -0.10204394 0.06251294 0.04386675 -0.23343009 -0.26389638 0.2080588 -0.119689874 -0.052755598 -0.509988 -0.1348248 -0.04319391 0.20481558 -0.099939354 -0.18925498 -0.2173851 -0.11632037 0.31244984 -0.17181116 0.066122085 -0.2431111 0.016340949 0.27786052 -0.13729873 -0.21394393 -0.086480215 0.3253807 -0.019821277 0.03439571 -0.713326 -0.02155457 -0.15161493 0.0074372278 -0.04923365 -0.24934588 -0.05311514 -0.1928174 0.19222762 0.15446374 -0.20795426 -0.1800569 -0.25915337 0.16339093 -0.23669946 0.032782253 0.15832348 -0.012335551 0.038470715 -0.2639586 -0.060808882 0.17246406 0.09306442 -0.016370848 0.46522358 -0.020893894 0.06846795 0.22333679 -0.025702957 -0.25416908 0.35291174 -0.17700383 -0.19776231 0.029339515 0.14735422 0.062211532 0.117366545 0.58632594 0.2551089 -0.12824081 -0.31128815 0.3271273 0.073860124 -0.13877423 0.1680319 -0.20403013 0.08448077 -0.34727636 -0.2529362 0.15363368 -0.1267091 0.049120273 0.37278244 -0.02595763 -0.3706984 0.14749858 -0.3947003 -0.010313678 0.013690426 0.0686885
139 0.23126929 -0.156565 0.0027737445 -0.18363339 -0.094694346 -0.04794099 -0.16205668 0.0050330427 -0.41420466 -0.0058207307 -0.24994361 0.04476612 0.26288778 0.065001 0.03185323 -0.15340178 0.026233383 -0.45845276 0.13690445 0.19945799 -0.083355255 0.0021569475 -0.41502872 -0.17047341 0.08666161 -0.07852888 0.19669876 0.2904907 -0.3360513 -0.27685323 0.09629819 -0.35772204 0.11665793 -0.03247939 -0.26097766 0.114116654 0.009386568 0.05231258 -0.18631224 -0.3815081 -0.19122256 -0.15168618 0.15810302 -0.44847068 0.35655513 0.20684184 -0.29579297 0.2300098 -0.18800932 0.13071056 0.015212851 -0.120476626 -0.004622759 -0.028596139 -0.32147494 0.34541193 0.26582754 -0.43304682 -0.16661155 -0.1442943 -0.039854765 -0.04815368 0.28677383 -0.23082964 -0.04306399 0.113399446 -0.29662576 -0.23313312 0.04987545 0.0032831512 0.18063939 -0.35120842 -0.41146997 -0.06857329 -0.38794717 -0.25305033 -0.24290267 -0.027225835 0.019630877 -0.1229204 -0.07868666 -0.09193424 0.081483826 0.07227262 -0.43807203 -0.022711154 0.0852733 0.22606249 -0.20531929 0.16357902 -0.13259313 -0.24881242 0.20054813 -0.36660218 0.095369175 0.12650852 0.023882719 -0.21014173 -0.13182892 0.09858237 -0.1493436 -0.24257511 -0.36405638 0.105679974 0.17008099 -0.033075087 0.18380056 -0.10179941 -0.21464773 -0.13224299 -0.044339858 0.05037861 -0.014858395 -0.23288968 -0.09839883 -0.1989667 -0.21470255 -0.09915871 0.0033013497 -0.17120093 -0.09282583 -0.1439097 -0.15899079 -0.038636718 -0.13794912 0.14920415 -0.045427166 0.12061371
18 -0.24272268 -0.2626089 0.025701232 -0.030331813 0.10701799 -0.1527759 0.059055477 -0.26774982 -0.2766546 0.28519654 -0.24962269 -0.13440374 0.10870804 -0.10064542 0.04887624 0.15789571 -0.22023076 -0.21229944 -0.31235304 0.12672034 0.2551067 0.23698427 -0.15359849 -0.21013092 0.05286506 0.23645985 -0.31863797 -0.0038812237 -0.28356567 -0.04095204 0.17488918 0.060831014 0.121629074 0.16057245 0.35743007 -0.23475978 0.28723976 -0.2872134 0.040212344 0.048365157 0.2139835 0.3820345 -0.15720092 0.12516823 0.11162042 0.18370375 0.015394569 0.060798228 -0.2405852 0.20945294 0.0045637265 -0.16054238 0.116560854 0.21179777 -0.19499159 -0.106294595 -0.11759325 -0.014465634 -0.10978987 0.012585131 0.20522837 0.044988886 0.56256014 0.21175846 -0.0037069249 -0.09254635 -0.0065870374 0.19866484 -0.012807162 0.47544768 0.41081896 -0.34981337 -0.09346365 -0.08920315 -0.04480414 -0.13418557 -0.25487185 0.07087643 -0.18296796 0.20338656 0.17730878 -0.0704189 -0.15096575 0.17049147 0.21315645 0.021852667 -0.20259626 0.029789923 -0.3149661 0.052910652 0.25418195 -0.0749 0.059959818 -0.2168005 0.10908287 0.24467942 -0.0052461103 -0.1114483 0.07758139 0.20924367 0.101647116 0.07967813 0.10842784 -0.050592825 0.3976022 -0.2841306 0.008344785 0.19680147 -0.22977698 0.0773026 -0.07895926 0.32167447 -0.24971771 -0.22720397 0.21451609 -0.06332969 0.31158304 0.14193022 0.11458246 0.17878738 0.1990995 -0.17001486 -0.006513496 -0.45325953 -0.08786947 -0.055686105 -0.10446512 0.10225346
173 -0.101955146 -0.18602954 -0.16532336 -0.2375919 0.11141787 0.124776885 0.018923575 -0.21627846 0.18086454 0.27192903 0.16428314 0.12976357 0.2239517 0.093196765 0.49911886 -0.10013305 -0.25032744 -0.050819788 -0.122880585 -0.034924652 -0.01988302 0.22151099 0.07268355 -0.064837575 -0.057857964 0.31135896 0.047780376 0.091505185 -0.08818924 -0.10231237 0.19239466 0.092530996 -0.2542136 0.25702798 0.06822445 -0.13951434 0.20801073 0.4565623 0.17590001 -0.3500022 -0.025315942 0.39949915 0.06350922 -0.07471032 0.31097168 0.24343035 -0.17233744 -0.03889443 -0.24620484 0.0033375258 -0.06433847 0.19062096 -0.32208127 -0.3920411 -0.27921546 -0.021087594 0.19455753 0.25934124 0.042244725 -0.05461829 0.048051428 -0.31262633 0.48260927 0.18204492 -0.29668167 0.2135193 0.31872833 -0.34297904 -0.1156205 -0.19711408 0.10575218 0.033047825 -0.14135534 0.109669 0.19051324 0.06886116 -0.38570914 0.19229367 -0.18398312 -0.20952621 -0.016157867 -0.15721025 -0.08577898 0.45358962 -0.46269587 0.41486752 -0.124128826 0.27350983 -0.26434687 0.03382449 -0.13958646 -0.0044035045 0.0464003 -0.20456742 0.014496907 0.07696501 -0.015071413 -0.21843088 0.24083242 -0.06971128 -0.16070059 0.16220166 -0.38802674 -0.13590612 0.10298252 0.18384412 0.28021973 0.11929941 0.030889774 0.27378523 -0.22342433 0.0022782788 0.19821659 0.022928033 0.13616253 0.2532948 0.07874016 -0.1875985 -0.02572705 -0.079142526 0.12781928 -0.035275202 0.066102326 0.040276356 -0.038306683 0.031956397 -0.18980254 -0.40688607
261 -0.056514893 -0.3174561 0.10165274 -0.12260258 0.18481651 -0.084584154 -0.1484914 -0.28673208 -0.2435716 -0.04859342 -0.06483227 -0.10350672 0.17062983 -0.30523184 0.13467866 -0.019492924 0.3133199 -0.38469622 -0.062106602 0.3422896 0.12896243 0.1446621 0.23139955 -0.36302534 0.026209619 0.36808893 -0.118795335 0.5693069 0.13154525 -0.28642815 -0.21206935 0.12961012 -0.15090498 0.17928743 -0.22144844 0.63358295 0.25900573 -0.23702064 0.05769168 0.1389835 0.105909206 0.08006225 0.14881569 -0.09357308 -0.0061405348 -0.002221844 0.011674007 -0.15912169 -0.17371304 -0.33103883 -0.08807019 0.12425832 0.007479952 0.20560776 -0.14759746 0.22005759 -0.04882506 0.014704165 -0.079830974 -0.39323664 -0.16756696 0.084244244 0.4201391 0.030641615 0.28570768 -0.18632767 0.24629487 0.023501111 -0.2281864 -0.19621125 -0.06574455 -0.26340476 -0.002068876 -0.27055332 -0.07786829 0.027514393 -0.25021958 0.018852174 0.054246467 -0.12058443 -0.123469524 0.07416954 0.14667486 -0.23015577 -0.35330814 0.19558808 0.0764338 0.21211421 -0.1257976 -0.036486797 -0.18056656 -0.22114651 -0.015624758 0.06819228 -0.0032554888 -0.02200237 0.14220731 -0.07489143 0.26073238 -0.18040524 -0.045173842 0.03550778 0.35113046 0.046232708 0.0014878217 -0.29278243 -0.030304356 0.2784049 0.218408 -0.12365917 -0.1719109 0.27711666 0.35435334 0.069243886 -0.09574399 -0.011853207 0.059015337 0.23891766 -0.18161118 0.14126445 0.0952922 0.2851561 -0.21919064 -0.061832447 0.09241076 0.21751277 0.104035094 -0.25325274
348 0.06140664 0.18009375 -0.1303036 -0.28047487 0.07669989 -0.12726542 0.12211526 -0.09334194 0.1381871 -0.010343041 0.18420412 0.20422518 -0.13644071 0.16931272 -0.54103947 0.11303053 -0.081292644 -0.16733369 0.09598837 0.2538893 0.11889163 0.04294994 0.05621021 -0.2295072 -0.09105404 0.09358597 -0.33502108 0.25752857 0.24378648 -0.08647428 -0.062009472 0.12251125 -0.12734976 0.18761086 -0.04212573 0.12731121 0.20749827 0.042864066 -0.59969276 -0.09159717 -0.113475405 0.11463065 -0.38729623 -0.51426053 0.2760547 -0.29130977 -0.22290866 -0.28892508 0.18316767 -0.040940996 -0.09962561 -0.16975293 -0.17083535 0.19345923 -0.052647483 -0.0793337 0.4915929 0.121022634 0.2301442 -0.17666815 -0.10418511 0.13579012 -0.10923898 -0.10822712 -0.07713331 -0.14618677 0.18392104 -0.060930744 -0.19130416 -0.3126949 -0.25664496 -0.20151259 -0.27794322 -0.1862199 0.012258799 0.13648827 0.40269464 0.030766496 0.06346332 0.063600324 0.07337006 0.25614664 0.13084579 -0.059242427 -0.06446717 0.35859945 0.39280027 -0.28209648 0.19806708 0.012656007 0.077025026 -0.23434518 0.045744948 -0.047861047 0.16856164 0.22264652 0.047557227 -0.17514575 0.3586441 -0.07426648 -0.30065152 -0.019682832 -0.37317535 0.3582911 0.20729752 0.092232615 -0.18711486 0.2724184 0.049316734 0.22764644 -0.23511295 0.11924709 -0.12712565 -0.38930473 0.095718816 0.030568337 0.011054605 -0.31702134 -0.19467682 0.03761634 0.21703644 0.23183274 0.17902894 -0.08041945 -0.1899582 0.23050559 0.12338369 0.16630103
259 0.03796419 0.11145739 -0.095385395 -0.22607446 0.2333225 -0.18751165 0.15287332 -0.34987235 -0.2915634 -0.087501116 0.08816061 0.12095848 0.0677356 -0.26777864 0.08024673 -0.18494612 -0.17077467 0.22055764 -0.1698237 0.4426837 0.2612398 0.05960145 0.17071623 -0.060188573 0.08631322 0.4006166 0.32767564 0.3911274 -0.24190341 -0.4104747 0.07787683 0.28994772 -0.29596215 0.100574575 -0.20320025 -0.048024077 0.04521696 0.26212248 -0.081919275 -0.031613257 0.032333646 -0.055622526 -0.03582524 0.23302756 0.49051133 0.32549554 -0.07865996 0.10075341 -0.02736858 -0.0003585939 -0.08200571 0.4867474 -0.16794474 -0.16543566 0.0047282227 0.051405445 0.045334555 0.17442691 -0.06951917 -0.27126306 0.04323358 0.022573998 -0.0847279 -0.17835484 -0.07561483 0.16910607 0.2884672 -0.0413076 -0.24231398 0.18824339 -0.21539557 -0.19365576 -0.23894666 -0.06981079 0.31580245 -0.22666441 -0.23222582 0.20093639 -0.22092736 0.012301473 0.021382397 0.2667025 0.20672502 0.11027611 -0.030915504 0.2738846 -0.05298737 0.18168478 -0.29312935 -0.018568013 -0.23903798 -0.1182555 0.11189149 0.017680258 -0.35112774 -0.0662029 -0.0035389608 -0.13675395 0.017585766 -0.5869315 -0.27033553 0.038049188 0.12291211 0.1669516 0.0017511966 -0.31723338 0.022168463 -0.07645531 -0.13954231 0.106878884 -0.29751086 -0.4222906 0.13840403 0.41018465 0.14289112 -0.042402543 -0.1124032 -0.017348131 0.0624316 -0.12240379 -0.2453473 0.018702075 0.084535986 0.06916322 -0.24601628 -0.021562707 -0.051541913 0.10016416
262 0.09875695 -0.30113325 0.06822955 0.2755952 -0.11427028 0.50488424 -0.39383212 -0.34555805 -0.21822155 0.43599707 -0.0069585885 -0.016057856 -0.08077607 -0.060082637 0.0899244 -0.1379475 0.16472131 0.18659517 0.14282621 -0.05777057 -0.107369974 -0.18937345 -0.07707383 -0.014430306 0.20308198 -0.14344203 0.28643623 -0.008764003 -0.16668232 -0.19087955 -0.035813183 -0.17613627 0.050998233 -0.014469431 0.21419242 0.07638693 0.039372113 -0.026934892 -0.35938066 -0.084438354 -0.24962145 0.08088664 0.029833365 0.023117233 0.21119551 0.27843994 -0.18238395 -0.10301237 0.1810943 0.020608513 0.22129539 -0.30578965 0.18305145 0.050159235 -0.19193533 -0.25283495 -0.037418008 -0.28877002 -0.12747128 -0.19794188 -0.26794434 0.03897548 0.41219237 0.15208353 -0.32697767 -0.29132998 0.2835396 -0.28642642 -0.002756472 0.12732938 0.3728955 -0.23462005 0.12708063 -0.20179123 -0.132195 -0.0075587817 -0.13647154 0.28404963 0.03266641 -0.27408797 -0.15196477 0.11771841 -0.13942234 0.21834269 -0.16358256 0.21027948 0.089140356 0.06203466 0.22740264 0.25611147 -0.09047995 -0.1426237 0.24599934 -0.080907516 -0.05345564 0.108814865 0.03239539 -0.33824584 -0.120982476 -0.30153084 0.17321883 -0.13835374 0.07378928 0.3512714 -0.1923312 0.0656349 -0.21243402 0.17640485 0.13044389 0.2900241 -0.19455038 0.066659786 0.055356145 -0.23514767 0.17220701 -0.0073769414 -0.14507577 0.2672394 0.095817976 0.30567127 0.1596732 -0.24538851 -0.21626757 -0.14453612 0.03788394 -0.119154744 -0.40693027 -0.020900251
98 0.0072239866 -0.16570003 0.5496927 -0.309239 0.20301571 0.048496313 -0.54234004 -0.21665795 -0.0071121417 0.12838212 0.3148474 -0.13419414 0.11005196 -0.03003311 0.09470637 -0.22700086 0.12359432 -0.18534505 -0.20548734 0.48945647 0.2249505 0.19009793 0.07151855 -0.370499 0.16512626 0.10330761 0.32627407 0.12947781 0.009754104 -0.19331455 0.084713146 -0.012303906 0.03462909 0.18491006 0.076414235 0.261802 0.021794716 -0.010474745 0.18834615 -0.2568261 0.10426549 0.09168553 0.31317827 -0.0018596887 0.09295442 -0.11332748 -0.16908059 -0.098644495 -0.14001946 -0.2513413 0.11055902 0.1913659 -0.060511246 0.13192764 0.13979585 -0.032213002 -0.1113293 -0.2759735 0.008516769 -0.10700662 0.18353091 0.05079425 0.41018352 -0.31233808 -0.020872548 -0.05433913 0.123667836 -0.34304583 -0.27654186 -0.29384866 -0.14284348 -0.07429216 0.1573593 0.004652587 -0.19540502 0.17536119 -0.11056809 0.26710075 -0.2903463 -0.09100011 -0.03705709 0.0027533395 0.27426323 0.09019289 0.062835425 -0.019384097 0.17773603 -0.013824808 0.30450872 0.30923876 0.22512765 -0.123713374 -0.3356167 -0.134261 -0.10634897 -0.25504324 0.069424085 -0.18736416 0.41283327 -0.02244692 -0.16246127 -0.192503 0.14197347 -0.230338 -0.35540166 -0.1058058 -0.10802262 0.14530268 0.38223904 -0.018416073 -0.27294803 0.26128024 0.30451405 0.014546336 -0.33702946 -0.026520867 -0.008746525 -0.09094568 0.04974168 0.00986418 0.17609833 -0.16162837 0.13924438 -0.08117051 0.062374715 0.16540688 -0.15405382 -0.022832494
138 -0.10543148 -0.23913825 0.11723178 -0.015061487 0.12549429 0.12152016 -0.06998639 -0.10268132 0.020854149 0.11300857 0.19364801 0.010945134 -0.060456805 -0.32717118 0.14659628 -0.024734648 0.011144197 -0.016159855 -0.26202765 0.14697713 0.059034124 -0.06401927 0.13787985 -0.48435843 0.14071628 0.50085706 0.28419715 -0.1779074 -0.38709965 -0.44499958 0.31093597 0.19464964 -0.17580643 0.1742632 -0.055567063 0.094662234 0.19382611 0.20029521 -0.03335311 -0.2814581 -0.015231098 0.1561068 0.18616688 0.0031294995 0.14847542 -0.05710586 -0.004223379 0.19110452 -0.29508892 -0.25888658 0.046136495 -0.034968216 -0.00031759348 0.21930858 -0.17030995 0.064941116 0.21256489 -0.1958332 -0.17919894 0.03801506 -0.0772907 0.12714021 0.12574969 0.3994325 0.25685945 -0.0028762268 0.22708313 0.10854079 -0.10174431 -0.14368458 -0.4087728 0.13294835 0.031184169 0.09840265 0.114986815 -0.314347 -0.3040676 0.43776402 0.09336782 -0.02376458 0.099577665 0.20943458 0.23238164 0.051482707 0.07283701 -0.068070054 -0.06392365 0.029003842 0.04065875 -0.026101204 -0.14465451 -0.34003714 -0.11518137 -0.050304666 0.1354886 0.29971668 -0.26111075 -0.1050398 0.2092067 0.010725564 0.17090826 0.04806425 -0.17429565 -0.12005335 0.052888505 0.099191144 0.10615063 0.0069264336 -0.27578178 0.030882886 -0.14357755 0.20746902 0.23661715 0.43059877 0.026969984 0.18323307 -0.19770934 -0.064117275 -0.30801046 0.010156829 0.19886418 -0.21709353 0.12224291 0.2192758 -0.14769948 -0.05935637 0.5526217 -0.02015377
328 0.051137406 -0.0582978 0.14595915 0.21457277 0.44535217 0.08567478 0.03260886 0.07583364 -0.30505383 0.06370438 -0.0924611 0.0021600034 -0.09203952 -0.16730279 0.36043867 -0.11668647 0.03299529 -0.31126803 0.08513785 -0.005007008 -0.05581633 0.2745032 -0.24765567 -0.44701824 0.17280243 0.009139424 -0.36024386 -0.23449238 0.298615 0.055912457 0.32209036 -0.22650123 0.08851035 0.26775244 -0.30723712 -0.078018375 -0.060479257 -0.07030574 0.015771477 0.0042893807 -0.11695858 -0.18518029 -0.118410595 0.18070367 0.5598636 0.06138211 -0.49174306 0.2759026 0.18723023 0.30295703 -0.09267197 0.32808155 0.046066888 0.0819078 -0.41415 -0.12216375 0.35805872 -0.0061287587 0.18176956 0.09928139 0.09375811 0.15848924 0.04462553 -0.1566843 0.07990069 0.21492812 -0.21720983 -0.30677035 -0.16182418 -0.103132464 0.0877949 0.024295144 -0.042058792 0.075565636 0.09436231 0.17551152 0.2635762 -0.2027235 -0.09870706 0.2070362 -0.20912695 -0.008268698 0.055302627 0.088904314 0.19788364 0.3392804 0.21726516 0.05943123 0.13425355 0.23311862 -0.03340425 0.22356322 0.42460492 -0.21865569 -0.1671882 0.14433365 -0.12905839 -0.08099051 -0.026067501 0.017588628 -0.33624622 0.041748315 0.34313333 0.056142658 -0.16291974 0.172781 0.059948 0.1687688 0.09708724 0.04092717 -0.3744955 0.049168732 0.071956225 0.20305127 0.11993734 0.27319646 -0.13632342 0.17053574 -0.40509295 -0.047884595 0.34927964 -0.04165804 0.0043723485 -0.21291079 0.09612873 0.053866908 -0.19721372 -0.08518382
39 -0.0071406504 0.16111378 -0.2649989 -0.009424457 0.23409823 -0.4344347 0.14092447 -0.1432702 -0.031951766 0.03526923 -0.0716474 -0.014058317 0.094731085 -0.050774105 0.075023666 -0.110467866 -0.09604136 -0.07086966 -0.29852974 0.19146246 0.07579538 0.01175225 -0.059391975 -0.16976267 -0.2937249 0.012582401 -0.13027884 0.117111035 0.3635025 -0.15770178 0.36172026 -0.11395774 -0.18279171 -0.27811137 -0.19948794 0.13906893 0.050426923 -0.045650624 0.21944223 0.21928254 -0.15708943 0.046940982 0.13205746 -0.14510995 0.64401984 0.082448214 -0.034884248 0.34276035 0.017497275 -0.08012941 -0.015092494 0.03338643 -0.2976596 -0.078461595 -0.071182415 0.118528455 0.021378743 -0.54706675 -0.11140921 -0.22276884 0.06498424 -0.052747723 0.1372012 -0.16698332 -0.07553226 -0.20532826 0.00041117857 -0.17444025 -0.030379772 0.08758778 -0.1835108 0.24021819 0.0657843 0.22398143 0.49599966 0.2682419 -0.014420049 -0.03231328 0.1825858 0.19417831 -0.100359574 -0.008108694 0.11955332 0.11835265 0.33503622 0.18652116 -0.081701584 -0.10635821 -0.093421645 0.35211778 -0.058458608 0.28538567 0.36132836 0.40199348 0.1442135 0.1730496 0.13142511 -0.1057651 0.44489723 -0.22514756 -0.32861808 -0.029081088 0.370448 -0.08429603 -0.10583205 0.043793436 -0.2754787 0.37275353 0.17670603 -0.04909978 -0.3396496 -0.066693135 -0.15242346 -0.113606185 0.25392944 0.07150403 0.04707342 -0.11961793 -0.10740999 -0.14232561 0.07928154 0.17674226 0.32072437 -0.21022691 -0.45033827 0.056681424 -0.04218508 0.021008674
318 -0.16151766 -0.16913384 -0.016026609 0.013199764 0.22459412 -0.041156765 0.0017404318 -0.27413136 0.021531807 -0.16081658 -0.5302777 -0.07355405 0.04860539 -0.10558356 0.056294374 -0.06510708 -0.20126453 -0.033209205 -0.11018332 0.08810743 0.16611563 0.4114648 0.2542977 -0.21438822 -0.12426572 0.17795123 -0.0690296 -0.056979615 -0.36316296 0.20775002 0.11330106 0.115352094 0.14834672 0.22876745 0.43757883 -0.29556686 0.1479576 0.03607795 0.030152101 -0.15724745 0.026287371 -0.20728026 0.121424556 -0.09476246 -0.029127419 -0.25233635 -0.065766916 0.22289428 -0.23249063 0.16363098 0.06096472 0.13514861 -0.05393998 0.23266509 -0.26576233 -0.009948543 0.035366356 -0.08086918 -0.48360577 -0.1085365 0.47596952 -0.39144093 0.3088998 -0.044583037 -0.072283074 0.08437197 0.1649415 0.03964354 0.14637263 -0.20817636 0.16678666 -0.030422257 -0.044707503 -0.04992697 -0.08083636 -0.045545112 0.026333027 0.056593083 -0.36327305 0.1750502 0.22672579 -0.10439041 0.01921382 -0.12361884 -0.03321952 0.12746282 0.0947774 -0.4086414 -0.0516224 0.2123607 0.04640207 0.06534317 0.34772632 -0.026875328 -0.018269438 0.36665002 0.11119319 0.1096875 0.13025825 -0.04136427 -0.188608 -0.06265389 -0.13986869 -0.22201273 -0.124778844 0.27251837 -0.0983622 0.20936534 0.038768563 -0.034272835 -0.29169914 0.035628684 -0.26436484 -0.4318401 -0.15183124 -0.050254837 0.23033775 0.16955915 0.024067206 0.3197605 -0.0047188797 0.21930456 0.052080084 -0.3308262 -0.1440794 -0.1262812 0.16846961 0.20212041
225 0.31812158 -0.26532945 0.09318069 -0.44187433 -0.12626244 0.01619434 -0.2069244 -0.5662833 -0.09450516 0.184542 0.65597004 -0.33574143 -0.12607501 -0.14795361 0.4585504 -0.075164594 -0.037642974 -0.10165167 0.36773944 -0.08265553 0.07673328 -0.045874834 -0.09175831 -0.1908828 -0.272176 0.041563384 0.013991797 -0.16700332 -0.060977973 -0.3773942 -0.25989768 -0.37501818 -0.12148805 0.14528921 0.23610508 0.06981757 -0.14205615 -0.16484064 0.2140236 0.18097323 0.044201396 -0.032173578 -0.0029134685 0.27900943 0.24651681 0.012456146 -0.08433411 0.01573762 -0.111840576 -0.08530798 0.03922242 -0.15382306 -0.27338472 -0.22500743 -0.0034698108 -0.13245544 -0.14763775 -0.060824156 -0.15891118 -0.037958164 -0.20843916 0.016361602 0.07469038 0.0013984664 0.061982494 0.5014965 -0.023954373 -0.30234486 0.022042979 0.048657626 -0.2120714 -0.036679573 -0.0870811 -0.1648634 -0.3674576 -0.13221538 0.13061813 -0.10280631 -0.409279 0.017163407 0.22113776 0.15390158 0.13674304 0.30583626 -0.010217893 0.2814027 0.07853107 -0.19823962 0.15926765 0.14567186 -0.30416703 -0.3579449 0.06394533 -0.025118744 -0.19834842 -0.004645469 0.07165973 -0.4173131 0.21760127 -0.1321057 -0.079385795 -0.03157704 0.17732958 0.031666875 -0.37072775 -0.33784688 -0.09314077 0.2355983 -0.016616866 -0.2587179 -0.24379528 0.11981919 0.07944005 -0.30864275 -0.052141603 -0.07561046 -0.10581991 0.10200617 0.13225204 -0.04649155 0.2363578 0.1084359 -0.07766894 -0.15665454 -0.106610976 -0.17406741 -0.41208348 -0.03631087
340 -0.12034752 -0.0031455085 -0.0026465987 0.40036792 0.27837828 -0.3828691 -0.022620728 -0.19291832 0.016961776 0.10742815 0.26451614 0.198992 -0.16484375 -0.30474868 0.16886094 -0.022579256 -0.15876473 -0.29255536 -0.28530636 0.16811171 -0.07371556 0.04689866 -0.022404548 0.17262872 -0.035602134 0.0984971 0.10620581 0.11052223 0.1592174 0.053189468 -0.061492108 0.012978246 -0.33512026 0.295077 0.10109906 -0.17675333 -0.45503527 0.2859824 -0.2499047 0.063072175 0.2178412 0.1281981 -0.10400597 -0.25292125 0.44573814 -0.14152361 -0.15472496 -0.14054534 0.21639954 -0.014386051 -0.03815982 0.1293512 -0.5616947 -0.083223425 -0.13676295 0.17851765 0.10944784 0.11926017 -0.12383636 0.28749287 -0.15748075 0.097961046 -0.05201425 -0.034853738 -0.031703804 -0.038054276 0.20340279 -0.18085742 -0.415832 -0.05291613 0.022657152 0.15265316 -0.257754 -0.2974965 -0.22176881 -0.07618375 -0.11908072 -0.14499368 0.12692818 -0.07073073 0.05673265 -0.08715282 0.42534044 0.22292666 0.019741045 0.11938554 0.25444794 -0.013248032 -0.2489605 0.32126474 0.07996358 0.043060184 0.035207275 0.31682602 -0.35298207 -0.035628308 -0.298775 -0.16898085 0.54330313 0.11808864 -0.34110188 0.13191198 -0.28201059 0.22938243 -0.06627251 0.12895235 0.08978954 0.044389248 0.32150346 0.018649235 0.10413277 0.07355631 -0.24228054 -0.17501667 0.021602541 -0.33559674 0.07443319 0.01019111 -0.18487659 0.03169921 0.11604987 -0.4700462 0.11191847 0.31256583 -0.028411143 -0.10893394 0.3385522 0.0993328
227 0.1257894 0.43623477 -0.10057656 0.30286527 -0.11362851 0.2937642 -0.15888529 -0.086697064 0.028685067 0.15314193 -0.19724134 -0.13794753 0.041011866 -0.34951878 0.22942254 0.17651142 0.061941992 0.28263426 0.17786978 -0.039697506 0.2798931 0.48308614 0.087471984 -0.2919505 -0.038984783 0.1619293 -0.29715112 0.03714229 -0.10777627 -0.472194 0.20394702 0.24651802 0.3075504 0.20929769 -0.04623274 -0.18277755 0.1362039 0.12169437 -0.1968609 0.24625951 -0.37284732 0.26549515 0.043534275 0.1697372 -0.27079505 -0.3142361 -0.42505684 -0.08807031 0.06850893 -0.16530132 -0.18664601 -0.19745596 -0.14256746 0.09001652 -0.25064957 -0.09591891 0.16502982 -0.18917722 -0.10056954 -0.20160648 -0.10823364 0.18096288 0.22035263 -0.49174973 -0.019603373 0.24988785 -0.09705788 -0.25091314 -0.23228943 0.12603411 -0.18577111 0.07165437 0.24691513 -0.14451657 -0.006533369 0.14153564 0.034375448 -0.0058200657 0.08910308 0.25890437 -0.21673304 0.04211591 0.15883213 0.21287318 -0.31040788 0.18902613 0.076246195 -0.2068724 0.03215565 -0.052613456 -0.18671918 0.17754583 -0.19980119 0.059231795 -0.010724349 -0.036703695 -0.3106644 -0.51485234 0.06308276 0.04132384 -0.37690145 -0.40389994 0.09053882 0.028256666 -0.14852065 0.12696423 0.04385785 -0.02792934 -0.06264627 -0.016478391 -0.24668947 -0.027590347 0.30304563 0.21855311 -0.08308024 0.083211385 0.18113625 -0.41667825 -0.09775722 0.1641351 0.08335257 -0.14821163 0.15317701 0.015143598 -0.30151454 0.07146281 -0.06049371 -0.09405708
185 -0.13089687 0.23403056 0.049049377 0.0019154846 -0.24860622 -0.08036545 -0.08485986 -0.3553485 0.08787091 0.30035567 -0.21098226 -0.09137928 -0.37169206 -0.021297688 -0.15191217 0.08502342 -0.16512984 0.151292 0.03104044 0.16166835 0.23614965 0.17189212 -0.26520967 -0.34612286 -0.16128027 0.04769394 -0.10948735 -0.031337492 -0.24560447 0.11604956 0.22368316 -0.045946103 -0.18360981 -0.091629006 0.26023537 0.0761013 -0.19374213 0.12828554 -0.113424875 0.05723908 -0.0674569 0.12359937 0.13420276 -0.101351045 0.34323716 -0.1950548 -0.23281367 0.116082564 0.014396489 -0.0042159613 0.17654477 0.56433165 0.1735502 0.13271917 0.13568445 -0.12588942 -0.22326079 -0.22016841 -0.06509026 -0.3830764 0.12243347 -0.13461897 -0.07218867 -0.43802625 -0.0034392066 -0.0132553 -0.020554902 -0.25631803 -0.22200783 -0.06814132 0.024872806 -0.09531041 -0.17907242 -0.0068409764 -0.12884827 0.095354505 0.00036276245 -0.07434186 -0.13724774 0.5409198 0.0045782574 0.122367404 -0.036492467 -0.35090205 -0.03174026 0.52163607 0.21143618 0.05440744 -0.011870908 0.448843 0.008204332 -0.28560895 0.20050904 -0.041991368 -0.13114102 -0.073624216 -0.14004342 -0.02070111 0.049762256 -0.19315077 -0.27046028 -0.24148569 0.24912106 -0.38947192 0.086449884 0.2525049 0.2223829 0.02871292 0.24596652 0.056261852 -0.10877254 0.18408422 0.17236996 0.12606683 0.14659941 -0.34247893 0.14062563 -0.066613615 0.037323885 0.0131838955 -0.068439014 0.15562075 -0.0686186 0.1680397 -0.069776244 -0.19084363 -0.017605932 -0.34933352
63 -0.009455357 -0.37008184 0.121611334 -0.014066792 0.042769462 -0.30143365 -0.009446754 -0.23881985 0.0100040445 -0.21509977 0.2006914 -0.0550992 0.31025633 0.059730876 -0.054487586 0.12924406 -0.2730246 -0.29918733 0.1293071 0.19801503 -0.3288065 -0.014354988 -0.10214014 -0.10278718 0.11120184 0.1913912 -0.3077237 -0.21421124 -0.06805663 -0.26246464 0.14782454 0.18046363 -0.18889268 0.17686372 0.15177754 0.14764531 -0.06574146 -0.53746414 -0.28752536 -0.15921211 -0.14596455 -0.031381615 0.23184699 -0.11185163 -0.02001224 0.25740537 -0.14649779 -0.09506686 0.18419689 -0.29432547 -0.06508495 -0.16134286 -0.026239915 0.088617615 0.023676824 -0.07471385 0.2874729 0.0917713 -0.06622132 -0.66409045 0.21681508 -0.14406645 0.29058573 -0.23060307 -0.2504467 -0.050925244 0.10675225 -0.30678466 0.052111056 0.13907126 0.08062095 0.3003592 0.21260244 0.035876244 -0.31840828 -0.012144672 -0.43050656 -0.10568604 0.16475931 0.101305336 -0.55728966 0.051146016 0.215601 0.11393306 0.15282458 0.049290318 0.03552254 -0.13090149 -0.012847145 0.16203606 -0.12099647 -0.021962235 -0.22434819 -0.13163061 -0.05260392 0.39260823 0.34727177 -0.56530833 0.13829209 0.0070306812 0.0027670537 0.17597172 -0.11935231 0.22552411 -0.28319445 -0.06829576 -0.1125747 0.15635616 -0.15410176 -0.25147054 -0.19444132 0.06802602 -0.40366596 0.17356417 0.38875318 -0.19005257 -0.2013825 0.1551072 0.18196875 0.40589857 -0.10711487 -0.13394703 -0.25194284 -0.24614136 -0.23467697 -0.1206226 0.047200955 -0.20275612
342 0.059776913 -0.038041446 0.23377876 0.22654724 0.09276785 -0.04308644 -0.28763813 -0.3797171 -0.00499855 0.02597099 0.1821647 -0.11629636 -0.15834837 0.027432032 -0.09741179 -0.054948043 0.14841335 -0.07168215 0.10394622 -0.0014580813 -0.21361627 0.15829302 -0.37170005 -0.38021484 0.14346603 0.17814137 -0.06453553 0.083664194 -0.28031301 -0.1319971 -0.014865039 -0.027222466 0.03419503 -0.22110648 0.15535551 -0.030942403 -0.16739468 -0.17794082 -0.2780547 -0.23700199 -0.09167229 0.2810042 0.2596377 -0.113866195 -0.038583636 -0.21348844 0.17538008 -0.019069066 0.02198652 -0.04818963 0.07395582 0.3264161 -0.36930892 0.2013713 0.020609982 0.09479778 0.3363165 0.16064027 -0.3171042 -0.061908424 -0.30916953 -0.27204973 -0.10619931 -0.1384435 -0.16062593 0.08736327 0.28048223 -0.19907425 0.5106115 -0.1423332 0.0538248 0.096879214 -0.3231787 -0.11985872 -0.1688293 -0.17051078 -0.31859967 -0.062999316 -0.1415747 -0.14554086 0.39310375 -0.07372069 -0.12442264 0.35279128 0.19853434 0.052499644 -0.32929072 0.07317756 0.18603702 0.39259207 -0.20877847 0.17712188 -0.0886468 0.2610615 -0.19505295 0.12678938 -0.11373637 -0.32709795 0.12867318 -0.02030975 -0.43247333 -0.05071989 0.044221856 0.38722393 -0.012055602 -0.06661135 -0.32526556 -0.38519487 -0.090246074 -0.03630891 -0.33776096 0.27078927 -0.007969154 0.00836052 -0.06788847 0.416295 -0.0039894194 0.30934995 0.2813223 -0.07909894 0.1811235 0.096345805 -0.043423507 0.031030823 0.0559785 0.24133968 -0.10142559 0.029954057
337 0.33595446 0.025842736 0.12254453 -0.08226897 0.50239056 -0.3377724 -0.09702513 -0.08905678 -0.20566659 0.2501561 -0.13110992 0.012458063 -0.120417744 -0.18213132 0.16401497 -0.16273381 -0.046250448 -0.3890367 0.004852518 -0.14985739 0.05361751 -0.026072502 -0.13620223 -0.26090738 0.13906479 0.16971798 -0.16797607 0.22551043 0.21568309 0.0027764493 0.01590555 0.09614141 -0.05321802 0.22673295 0.25846142 0.13901097 0.21287918 -0.18251821 -0.24042222 0.10625053 -0.34181094 -0.00393696 -0.4872403 -0.49593922 0.3260914 0.13621756 0.0792765 0.03156452 0.11481432 -0.09490221 0.18218538 -0.013788629 -0.05520282 -0.08628769 -0.05289337 0.004744591 -0.120381445 0.11277959 -0.031631548 -0.016830174 0.20760942 0.12668328 0.09243076 -0.1098223 0.010348272 -0.26610482 0.21660785 -0.12294819 -0.3064535 -0.11307773 0.038786802 0.19549754 -0.384861 0.04747492 -0.0055727907 0.06788976 -0.065039806 0.13963379 -0.22120863 -0.27292556 0.05650084 -0.14487426 -0.028659841 0.10516797 0.13714395 0.06653468 -0.47084162 -0.115283474 0.17727411 0.044822324 0.092329726 0.038610175 0.30134404 0.31027296 -0.27646396 -0.46574098 -0.4578647 -0.3046294 -0.101437025 0.037343606 -0.4990433 -0.098385416 -0.09815286 0.011717107 -0.23665982 0.23304775 0.02323069 0.05701705 -0.4595753 0.20381889 0.12867673 -0.030595405 -0.22734065 -0.13470653 -0.43167195 -0.039611876 0.054770686 -0.06690126 -0.0928937 0.235678 0.24825509 -0.39290956 -0.1274595 0.052974895 -0.0067744395 -0.18553637 -0.1605161 0.09877005
313 0.047480565 -0.15061095 0.028661065 -0.12593807 0.049092896 0.21606138 -0.037110597 -0.20165925 -0.1221605 0.30742067 -0.10373367 -0.047510076 0.057878844 0.043735694 -0.19802058 -0.032122634 -0.0412632 -0.15685256 0.15921333 -0.27428132 0.25686783 0.5093624 -0.16171326 -0.13351981 0.07625197 -0.18382742 -0.05454455 -0.334636 -0.23833355 -0.00035300705 0.060917974 0.26736107 0.47749862 0.121036835 0.2899647 0.23309563 -0.08970296 -0.30733603 -0.38106903 0.18224552 0.0064875623 -0.023462921 0.012703498 -0.2196572 0.14394106 -0.18768512 -0.4253783 -0.14134802 -0.103457555 -0.17187509 -0.5189536 0.5196281 0.08703643 0.31771544 -0.04866515 0.016080871 -0.30517474 -0.009850645 0.05565613 0.097689465 0.28856704 0.05168279 0.28714916 -0.29424214 0.07183319 0.3403802 0.08299041 0.05453939 -0.17171603 0.1772322 -0.15023376 0.0333635 -0.4295078 -0.14787109 -0.036241155 0.12567918 0.087579735 0.1096918 -0.0063118576 0.32094476 -0.04877595 0.25377876 -0.3092758 0.12924337 -0.18366498 0.2460887 0.05930378 -0.3858102 -0.069393985 0.39145297 -0.16050614 -0.067867965 0.22049098 -0.18541123 -0.0064442162 0.31593418 -0.21150623 -0.1568269 0.12601937 -0.17246515 -0.3090781 -0.2678918 0.114798985 -0.03420469 0.04579878 0.12976526 -0.08887126 -0.03435956 -0.24494705 -0.27472553 -0.29223976 -0.017681751 0.22479133 0.057338003 -0.13053173 0.06621167 0.15589054 0.0130707 -0.15886505 -0.2979544 -0.12440356 -0.009087715 0.13551623 0.07265826 -0.21925044 0.031385366 -0.061319135 -0.17538662
115 -0.106935434 -0.22494468 0.16468601 -0.17078088 0.44518545 -0.07478691 -0.15105839 0.05430573 -0.04718979 0.17583872 -0.26794544 0.03415203 0.17873803 0.30437556 0.03170613 -0.088631 0.0016902209 -0.092770845 0.06620376 -0.0010882119 -0.25447917 -0.46650815 -0.22174732 -0.53530014 -0.04040625 0.27766672 0.001856136 0.099778034 -0.23065944 -0.4257298 0.14660886 0.15011056 -0.023659766 0.049223382 0.08605988 -0.2014287 0.139345 -0.18182789 0.06358128 -0.18710908 0.15469022 0.31968418 0.29974356 -0.19573088 0.030825494 -0.15923941 -0.26174358 -0.1428394 -0.04056881 -0.4707656 0.15273745 -0.10907671 -0.01444791 -0.17304227 -0.31717587 -0.17484264 0.07367004 -0.06712446 -0.1272549 -0.3555995 -0.19394737 0.2118878 0.015247533 -0.11976248 -0.047610603 0.09809616 0.08416526 0.0074806726 -0.25072995 0.012810963 -0.05017136 -0.019612037 0.1774876 -0.36744463 -0.11351111 -0.015415581 -0.1651109 0.07087343 0.093516156 0.151969 -0.2333722 0.31551513 0.015583237 0.49534106 0.038786046 -0.08186388 0.2299175 -0.056088537 0.024431912 0.01313077 0.038877834 0.3676294 0.21141537 -0.2944683 0.060389552 0.0085854465 -0.2292444 -0.28015813 0.09589794 -0.26543775 -0.19768013 -0.010784754 -0.07688205 0.1242527 0.117390096 0.09717749 0.23059735 0.22782855 -0.11036725 0.4649805 -0.030573232 -0.2626755 0.20233616 -0.051762268 -0.092187256 -0.22615881 -0.095789626 -0.06281914 0.028260956 0.14889616 -0.07280159 -0.5156006 -0.29389548 0.19220705 -0.24714091 0.12929091 0.40330973 0.12483009
345 -0.05290976 -0.031535372 0.45855927 -0.11114778 -0.22922644 -0.016128657 0.12097853 -0.09446027 0.14961325 -0.101506725 0.13428006 -0.0053607407 -0.2864842 0.28846276 0.24603789 0.009967597 -0.024374308 0.06726146 0.28370222 -0.08381682 0.35885462 0.11133664 0.23233074 -0.16291156 -0.18043336 0.38858214 0.14639372 -0.12914112 -0.063063994 -0.13996139 0.34621692 0.14851946 0.17966233 -0.23962623 0.04328749 0.36464444 0.20800908 0.23245345 -0.17617804 0.25837776 -0.063631885 0.04546223 0.13344759 -0.0778257 0.22523507 0.1773508 0.1337762 -0.0779183 -0.15145086 -0.23236325 0.13666753 0.19383597 0.055239834 0.54871726 -0.15615518 0.07159872 -0.13135919 0.10252448 0.017680066 -0.005701696 0.15531349 -0.26946408 0.014243524 -0.25339347 -0.021055477 0.03803831 0.41421044 -0.38576895 0.2839154 0.40423113 0.023269754 0.09621069 -0.50630796 -0.3431635 -0.017096858 -0.15268297 0.24560377 -0.16030504 0.08430552 0.00025862042 0.35498047 0.1207406 -0.049469687 -0.11755222 -0.30274448 -0.26252216 0.08814916 0.2500235 0.3230796 0.27108276 0.06551157 0.03656828 0.20735642 0.17075355 -0.04079869 0.31954578 -0.20422752 -0.2722229 -0.07096396 0.2670696 -0.1700548 0.040336184 0.12074798 0.10753057 -0.03370356 -0.1788693 0.26096484 0.11822643 -0.30173412 0.056090597 -0.58410084 -0.045310378 0.13554928 -0.16905281 0.059436977 0.06557028 0.3073503 0.020787802 -0.08845957 -0.10564775 0.15024535 -0.016897177 -0.34959033 -0.015527297 0.15184288 -0.006763735 -0.11165043 -0.2424659
24 0.47269943 0.22296989 0.020938786 -0.050079484 0.17519233 -0.11688709 -0.1297529 -0.22391728 -0.24459608 0.3913607 -0.36218905 -0.16474679 -0.20749773 -0.0747514 0.46728224 0.0033865494 -0.29578263 -0.27992567 -0.19598271 0.14594366 -0.21060006 0.16598989 -0.0074901166 -0.16175774 -0.18791988 0.20923755 0.086913176 -0.035244606 0.30416405 -0.35268423 0.034163825 -0.19772992 -0.036454495 0.054155935 0.02128184 0.16687727 0.48229158 -0.14585762 0.049051948 -0.027982734 -0.3270022 0.106912054 0.06280994 0.06447176 0.106797695 0.08547138 -0.24753441 -0.23211223 -0.31249845 0.29760236 -0.08615378 0.28495485 0.2818039 0.13438997 -0.39534363 -0.22481486 -0.32447028 0.14786468 -0.06197333 0.04654725 -0.037759576 0.14060679 0.1640961 -0.22315685 0.1344787 -0.1577178 0.26966506 -0.035267774 -0.20268212 -0.012105909 0.16554488 0.33639345 -0.114437304 0.15542296 0.049994145 -0.23617236 -0.35419545 0.17681333 -0.10920302 0.047022074 -0.049165253 -0.2994552 0.24401098 -0.089020476 -0.28219905 0.21719196 -0.2518409 0.20437773 0.01993753 0.22736758 0.18040316 0.0066638105 0.08741058 -0.065742284 0.015294121 -0.26342505 0.3179968 -0.45059913 0.23512872 0.09470661 -0.016927568 -0.09819436 -0.25547186 0.17395741 0.5160213 -0.18562797 0.2714354 0.12908687 0.11673718 0.32414013 -0.23302871 0.3582402 -0.20395413 0.19840746 0.010346547 0.1496119 -0.2351062 -0.0997922 -0.0050594723 0.20215157 0.08316531 0.30878377 0.20786338 0.028656913 0.052962393 0.1664351 -0.17309037 0.045530446
299 0.17319971 -0.33705375 -0.0925196 -0.14534819 0.05881933 -0.1305045 -0.10135622 -0.45568538 0.13735785 -0.1954247 -0.0792691 -0.24598159 0.18726517 0.17683135 0.05979468 -0.11204654 -0.18818066 -0.007343535 -0.1094516 -0.032966174 -0.082551494 0.06175712 0.123767875 -0.35630143 0.055101622 -0.108700454 0.0031475963 -0.07069601 -0.32161602 -0.13866259 0.2510134 0.48491123 -0.31622145 -0.022234859 -0.07081117 -0.11470416 -0.1632488 -0.20858692 -0.085460976 0.25031075 0.13374273 0.0023831218 0.13492224 -0.043859314 0.16078572 -0.34731346 -0.36484593 0.060091548 -0.3038641 0.11605641 -0.001734753 0.016510502 -0.26604232 0.11125626 0.11050461 -0.04497887 0.08749991 0.31705713 -0.12076272 0.02263234 0.052140903 0.06293576 0.3266685 0.29725093 -0.31230837 0.090055265 0.34117085 -0.30695447 0.06661156 -0.042753052 0.031411342 0.21613753 -0.12838264 -0.20630646 -0.18135563 -0.046049576 0.031614956 -0.01691418 0.3035781 -0.20158756 -0.42408493 -0.049358435 -0.23779805 -0.20003387 -0.54515564 -0.018322479 -0.08923047 0.14510812 -0.011510237 0.036802195 -0.22836073 0.13859566 0.15865502 0.13455021 0.14478692 0.35130975 -0.33651718 -0.003694881 -0.20553583 -0.2415261 -0.16671897 -0.13992466 0.04075385 0.3382766 -0.029259628 0.08939206 0.04532228 -0.29263937 0.0037720075 0.28048795 -0.25330475 0.06625645 -0.005296228 -0.37746662 0.33678022 0.038269024 -0.65272087 0.35886925 -0.22429053 0.19681442 0.32037917 0.113711454 0.3314221 -0.17959696 0.094593935 -0.049541954 -0.43793398 -0.17399323
217 0.09281355 0.15430044 0.35292068 0.10017615 0.15247579 0.009690175 0.14518236 -0.36536983 -0.13517208 0.1838959 -0.015523628 -0.14644395 -0.12746815 -0.4490452 -0.093522616 -0.20626387 0.10192647 -0.10063522 0.20799513 0.030615907 0.5670883 -0.040195215 0.10699906 -0.12373623 0.1594841 0.2316906 -0.108438626 0.18860964 -0.3468626 -0.101650216 0.10596231 -0.05280376 -0.15658997 -0.35039237 -0.25414643 0.32403272 0.14828695 -0.0144312205 -0.039849956 0.5272899 0.08190033 -0.11552455 -0.10396246 -0.25918284 0.28090143 0.10493516 0.026447548 -0.13530962 -0.37456045 -0.04329177 -0.044471428 0.1663512 0.0020781045 0.50015676 0.04583816 0.18151885 -0.04833247 -0.13307033 -0.3479503 -0.10041566 0.09819871 0.007020809 0.04150703 -0.012726764 0.0043109655 0.04341178 0.44507197 0.040679526 0.5068642 0.2282416 0.1388375 0.006892161 -0.2752668 -0.15037934 -0.6383233 0.31492063 -0.015026938 -0.056572925 -0.09532301 -0.034160357 0.43067622 -0.166707 -0.38036507 0.29217893 -0.06745479 -0.08941761 -0.2663878 -0.07296344 -0.101677746 0.048684858 -0.36926895 -0.020261355 -0.09747074 -0.1340307 0.34785983 -0.07816948 0.09352707 -0.22520241 0.16789056 -0.10328706 -0.11035191 -0.031467225 0.35385033 0.24725503 -0.0923753 -0.18407488 0.100809224 0.4999311 0.086146675 -0.05318277 -0.30159742 -0.16244887 0.17039612 -0.041765086 -0.18830149 0.09049845 0.028567947 0.2244266 0.03947933 -0.042852473 -0.01291279 0.13475664 -0.35735285 0.06307717 0.2507638 0.09590178 0.07705643 0.20537664
211 -0.1555406 0.34354135 -0.2700945 0.24823014 0.09162996 0.16848002 0.1331564 -0.08039811 0.030672811 0.33984128 -0.00295646 0.13071522 0.07337021 -0.21775036 -0.09749139 0.049256783 -0.10487235 -0.17082468 0.1701851 -0.16733834 0.110838056 0.0048649684 -0.21791935 0.035143655 -0.19625878 0.26376003 0.0392583 0.5755371 0.12955353 0.14266233 0.33061498 -0.03008559 -0.35547656 -0.14188789 0.09233535 0.09342504 0.30514792 0.03644346 0.014988471 0.24282274 0.06563081 0.1455528 -0.21451078 -0.15467721 0.12649979 -0.09073376 -0.13763168 -0.08263003 0.07863829 0.4611282 0.32100874 -0.027370907 -0.42616543 0.17033795 -0.040022653 -0.2717079 -0.17820534 -0.34865198 -0.44924745 0.14787783 -0.011288878 -0.05310979 0.28963107 0.31022426 0.21819285 0.25901097 0.37886348 -0.06571519 0.08822325 0.19125658 -0.14787534 0.26945478 -0.047792457 0.3468861 -0.015676772 -0.12869295 -0.33187917 0.26470107 -0.07397862 -0.17441235 -0.08819826 0.094477035 0.024089787 0.22344247 -0.44738376 0.060533293 0.15746216 -0.050206978 -0.00810566 0.04039513 0.09812352 -0.109485306 0.27673194 -0.5712166 0.02551189 0.20650572 -0.12394638 -0.30158696 -0.21403615 0.22184375 -0.1380939 -0.1875914 0.15650909 -0.052014206 0.09172868 0.0803869 -0.2972814 0.13356815 0.33305323 0.20092851 -0.043064926 -0.13923302 -0.021870378 -0.26937717 -0.15703936 0.00072634395 -0.09368858 0.02725075 0.43572724 0.1783095 -0.005891756 -0.69220036 -0.16505127 -0.0714062 -0.042120274 0.07877985 0.21078032 -0.17635395
329 0.07518389 0.17536986 0.21939403 0.22271612 -0.07206739 -0.25078985 -0.09303852 -0.11244769 -0.04023021 0.17415829 -0.010070022 -0.04037236 0.37788424 -0.5488578 0.3435252 -0.21143967 -0.12869588 -0.32172465 0.14149512 0.107844226 0.09126144 0.18304048 -0.31518966 -0.20943344 -0.056903638 0.08348332 0.50369126 0.21005431 0.23135212 0.21946353 -0.11413598 0.32354924 0.3269088 0.17902115 0.01342397 0.31709948 0.14308633 -0.310505 -0.19697982 -0.1117256 0.111305915 -0.10444881 0.09690629 -0.1254185 0.5296822 -0.0017692997 -0.36049885 0.1888783 0.22743967 0.02622716 -0.054823305 0.105109975 0.17078115 -0.0640561 -0.055572394 -0.094916016 0.26853713 -0.003271044 0.04877824 -0.22515199 -0.37099573 0.0793416 0.2805718 -0.2338805 -0.107291885 0.031631388 0.026325252 -0.29645112 -0.38261324 -0.44728678 -0.2707956 -0.10791062 -0.21413606 -0.19952063 0.092229664 -0.1772678 -0.29258156 0.15141882 0.03408739 0.067011274 -0.015096719 0.059668943 0.08304802 -0.10281804 0.26843718 -0.15324746 -0.021689055 -0.22293569 0.06347855 0.38803807 0.3287042 -0.04961697 0.3047742 0.09547273 -0.02686921 0.095710054 0.19916527 -0.05832243 0.12786326 0.3293493 -0.07096525 -0.117069155 0.15683773 -0.1306641 0.19175191 0.20761505 -0.07579862 0.21096267 0.18265072 0.07983628 -0.00048995006 -0.17572418 0.061544567 0.2256456 -0.4389057 0.26340485 -0.13143194 0.3152944 -0.06894174 -0.47059026 0.07392626 0.31602812 -0.111816265 -0.15812793 -0.047509674 0.2517809 -0.20439178 0.4320093
321 -0.036387786 -0.1920748 -0.017648911 0.112394765 -0.2191463 -0.033865344 -0.15051912 -0.18668172 -0.0963521 -0.014018335 0.044799265 0.28217322 -0.43803778 0.09698357 0.10879602 0.20261608 -0.058002423 -0.42405838 0.11594301 0.21771003 -0.18649907 -0.011767451 -0.08518819 -0.3230742 -0.24456649 0.13056122 -0.08416354 0.33948565 -0.18440789 -0.14143704 -0.15125096 0.24437824 -0.21036597 -0.43805268 0.01938366 0.20430689 -0.20971061 -0.14444125 -0.13232441 -0.07759938 -0.17824106 0.18364447 -0.0069056633 -0.04385841 -0.21276158 -0.37217787 -0.21201536 0.13408628 -0.14140187 0.020624954 -0.0026040256 0.06614361 -0.35414705 0.15535156 -0.0570223 0.42130882 0.2146474 -0.2884961 -0.12126034 -0.016933126 -0.38014358 0.04457797 0.1108457 0.4111191 -0.19575712 0.012381179 0.23406678 -0.17126791 0.2241078 -0.101876155 -0.1299237 0.0019569483 0.02730566 0.10257464 -0.072351806 -0.24082541 -0.36316568 0.15267192 0.28360146 0.022085322 0.0617512 -0.28521645 0.05674811 0.22530659 -0.14923054 0.2640019 -0.21597514 0.09215598 -0.06191856 0.4525836 0.05681992 0.17443678 0.21328722 -0.14870591 0.10613624 0.26701605 -0.26180983 -0.23456809 0.13082008 -0.14690433 -0.4916243 0.13787898 -0.14447047 0.2688529 0.1633704 -0.07375095 -0.04768433 -0.07451651 -0.23657352 0.10043574 -0.025002789 -0.039287657 0.14969793 0.014137646 0.1127049 -0.21086545 0.26316363 -0.19285515 0.1459778 0.26445696 0.2211756 -0.15260628 0.055999316 0.025593234 -0.031846628 0.51351637 0.091115974 0.32638434
163 -0.26337254 -0.089833 -0.08661674 0.30109116 0.12794131 -0.26468205 0.01329425 -0.16669528 0.10650308 0.023678465 -0.14885291 -0.13930112 -0.5393218 -0.155385 0.004018816 0.14207332 0.09617236 -0.09422741 0.13865873 -0.03422518 -0.19714531 0.352271 0.26343885 -0.02662964 -0.40153846 0.21208835 -0.18628347 -0.09502868 -0.2296973 -0.48473758 0.025153011 -0.01721723 0.02416786 0.24945994 -0.18161395 0.29478836 0.27163944 -0.10797142 -0.21815996 -0.06095181 -0.49090734 -0.071931355 -0.21134329 0.037750274 0.0010507198 -0.080747955 -0.047112793 0.15066865 -0.13496755 -0.39384502 0.21525063 0.26695904 0.043806273 -0.07981205 -0.06174646 -0.0745351 0.32982212 0.03566253 0.14571401 -0.30578056 0.15673298 0.45625523 -0.023097275 -0.31918362 0.08758367 0.06872908 0.15773517 -0.23192902 -0.22216985 -0.17236276 -0.16156183 -0.033636604 -0.016693465 0.15466696 -0.09937659 0.0637898 0.1123846 -0.026388627 -0.031770058 0.17776677 0.42572296 0.25951847 0.12617812 -0.2425961 -0.29175696 0.021491028 0.16248184 -0.12628415 -0.15826331 -0.09012423 -0.011597218 -0.01482445 0.259813 -0.20780464 -0.15913689 0.36091465 0.066900164 0.014728832 0.4525306 -0.055341274 -0.16552526 0.049177356 -0.16596103 0.11547909 0.013832099 0.1534796 0.08611062 -0.04369849 -0.09312293 0.18520777 -0.30655897 0.18160686 0.0010745763 -0.4095194 -0.08332937 0.048218183 -0.2886258 0.30511862 0.27839723 0.1839799 0.25939158 0.11113716 0.20317908 0.38556385 -0.17922814 0.41283977 0.19595163 0.22780645
260 -0.18521038 -0.061831735 0.3209585 0.49054027 -0.30181262 -0.2602717 -0.29457697 0.008696505 -0.087497465 0.36820942 -0.018031208 -0.694203 -0.05161171 0.010539758 -0.091699466 -0.04138449 -4.5859953e-05 0.18675148 0.04220551 -0.21831153 0.059598498 0.07626737 -0.19122817 -0.15436569 -0.21520755 0.23554817 -0.012871547 0.20878398 -0.3242863 -0.013400847 -0.5243025 -0.30154696 -0.18299097 -0.009266811 -0.20974162 0.15172131 0.26012224 0.17334868 -0.07022144 -0.021964846 -0.06728239 -0.026000356 -0.39775842 -0.044775445 0.4854548 0.17474613 -0.11268839 0.01900888 0.045595065 0.28585356 0.071233094 0.09008801 -0.15891393 0.2447852 -0.4085061 0.07371749 0.004698268 0.34329545 0.10103675 -0.29632488 0.22562607 0.30769598 -0.06919501 -0.15028957 0.30008218 -0.111932494 -0.22356275 -0.2517403 -0.48958695 -0.006580987 0.14274928 -0.29616207 -0.14531435 -0.059087474 -0.12880391 0.1654856 0.037176207 0.3426028 0.068438664 0.22624482 -0.014057861 -0.33692273 -0.14406802 -0.012518959 -0.30971912 0.25334486 -0.091723666 0.14874633 -0.21532139 0.4105732 -0.095397525 -0.107617244 0.05830169 -0.10751348 0.07737181 0.05527378 0.21549802 0.23669855 0.42508128 -0.26484796 -0.12203325 -0.05556391 0.10932948 -0.07675373 0.1197895 0.36782926 -0.01504525 -0.17762466 -0.19599627 0.18830946 -0.15075207 0.2178592 -0.08319392 -0.050526638 0.37330863 -0.11250325 -0.17967647 -0.0756607 -0.07251178 -0.11815755 0.22789003 0.23693107 0.027521482 0.22536246 0.15653642 0.2967057 0.25816333 -0.2720482
375 0.13877524 -0.08918334 -0.13824613 0.11663597 -0.01855599 -0.16503565 0.18482326 -0.39777964 -0.15322179 -0.19071734 0.017942926 0.114056595 0.618727 0.21774028 -0.28827316 0.32432392 -0.2533294 -0.12785472 0.32550925 0.21538363 0.410376 -0.08773032 0.79252803 -0.36973292 -0.16627704 0.24649513 0.2373412 -0.0001438418 0.056706876 -0.19707663 -0.14313324 -0.38364288 0.008066841 -0.3176513 0.06493591 -0.06257691 0.22113194 -0.24609008 -0.07000803 -0.046100765 0.09003296 0.23673132 -0.3004144 -0.10256456 -0.052726664 -0.21557896 -0.11572143 0.2703859 0.4341525 -0.4583965 -0.49817207 0.057656754 -0.0780341 0.13281448 -0.16006826 -0.1710382 -0.0019915032 -0.23017012 0.19529212 0.35519263 0.1323901 -0.31936067 0.17978968 0.23818402 0.119867615 0.29174933 0.28008258 0.08231907 -0.30750793 0.20554106 -0.024070663 -0.023707988 -0.23617694 -0.2116518 -0.22156617 -0.09237494 -0.22298345 -0.06779286 0.67669916 0.5642248 0.32487184 -0.055546433 0.11308494 -0.25912893 0.07328806 0.07128225 -0.12334847 0.17601012 -0.18155757 0.17169856 0.29398632 -0.12843771 -0.22540669 -0.53678894 -0.6490426 -0.049221314 -0.06050167 -0.06471523 -0.004107718 0.38432592 -0.1492452 0.4600492 -0.062376007 -0.11682473 -0.028225144 0.3640519 -0.009048149 0.018615965 -0.10204314 0.25069392 -0.042051204 -0.063161545 0.0910502 -0.03664962 0.18437132 0.19116886 -0.29710442 -0.0046104747 0.066340044 -0.2972648 0.16294646 -0.43785024 0.3253536 -0.059739172 0.04248626 -0.08580916 -0.26087266 -0.13709643
110 0.4119608 -0.073834054 -0.18066104 0.27532515 0.15652771 -0.31818154 -0.3235213 -0.30955383 0.13529727 -0.0716275 -0.07528872 -0.3196914 -0.016743287 0.11884467 -0.13680191 -0.07790958 -0.14758724 0.016205613 0.102454744 0.30503678 0.03142124 -0.17866679 -0.23928152 -0.008145913 -0.40679646 -0.064150035 0.093543716 0.017460486 0.08426562 -0.29157165 -0.19220829 -0.0018246366 -0.1911102 0.03219924 -0.18772365 -0.05719878 0.29507828 0.18496169 -0.2764088 0.025939122 -0.1274681 0.07267551 -0.13854858 -0.033692993 0.095739774 0.053056426 -0.48089898 -0.09011939 -0.37623894 0.079688154 -0.19481471 -0.07589353 -0.19025582 0.1738896 -0.18212686 0.17305551 0.16443674 0.14844859 -0.2327036 0.08990949 0.17693025 0.2510342 0.121203534 -0.11236655 0.20171233 0.083622456 0.18860202 -0.00880619 0.009471256 -0.20190395 0.013808435 -0.19262804 0.11379989 0.012684537 0.32673565 0.018959656 -0.15569317 0.0069443537 -0.010482814 0.021368995 0.02956324 0.06419784 0.093486995 0.03158428 -0.115373366 0.007981116 0.010749009 -0.22281209 -0.008654864 0.19704203 -0.48539457 0.124561034 0.13492556 -0.12355653 -0.27205732 -0.16721497 0.12296222 -0.056622606 0.18558745 -0.32406327 -0.31757796 0.12333188 -0.049019717 -0.09553604 -0.11604899 -0.12423467 -0.21082577 0.19017397 -0.17633013 0.28207988 -0.2393919 -0.44199365 -0.3717381 -0.1796858 -0.017101174 0.13374364 0.43737996 0.017437981 -0.18945864 0.1388112 -0.062735826 -0.14739431 0.051225007 -0.35301661 0.13068934 0.4489438 0.004436885 -0.196467
2 -0.18905726 -0.0013540607 0.2628088 0.40388095 -0.19683786 -0.24824306 0.33654535 0.12591073 -0.1158564 0.34323606 -0.08530792 -0.43530527 0.2167774 -0.13402073 -0.2479533 0.21148312 0.020612827 -0.10940296 0.23729202 -0.14559579 0.13744722 0.12738845 -0.20689242 -0.47573707 -0.37720767 0.035538513 -0.070431165 0.13721633 -0.23837939 -0.19097441 0.06366226 0.04699149 0.08153104 -0.09936872 0.15857267 -0.025235927 -0.13907367 -0.09161395 -0.09371883 -0.06170359 0.21284515 0.25550267 0.019203564 0.08463516 0.10628212 0.15961994 -0.3447265 0.14643772 0.31317997 -0.13059779 0.22751963 0.5268884 0.009224662 0.09457113 0.10082064 -0.0652497 0.1653399 -0.07182986 -0.23087476 0.068308495 0.24989788 -0.10435087 -0.010397491 -0.054846972 -0.015012458 0.0951412 0.25356263 -0.43729457 -0.076975726 0.09312111 0.37372538 -0.004220451 -0.2158907 -0.06112881 -0.10501304 -0.036989626 0.3519169 0.21990035 0.18616354 -0.1165139 -0.094777755 0.25746986 -0.112779684 -0.043852404 -0.0027229523 0.3591095 0.061220653 -0.09143737 -0.28142735 -0.04212438 -0.21677049 -0.28624326 0.18226227 0.045515843 -0.033816528 -0.3306338 0.14448321 0.25412244 0.15017015 0.03588041 -0.4955595 -0.07990012 0.19717252 0.18044521 0.13356341 -0.0134177655 -0.16916868 0.10531686 -0.23327707 -0.37808934 0.19064589 0.09787314 0.17698027 -0.08349661 0.2975989 -0.3107583 0.19709027 -0.13648574 -0.12267977 0.0103680715 0.07834649 0.29699862 0.21798404 0.19291237 0.008020817 0.4002038 0.08399556 -0.029331822
308 -0.39038467 -0.04140318 0.26804972 -0.06537703 0.15226455 -0.24401288 0.060000632 -0.15028435 -0.012093445 -0.059119795 -0.09784686 -0.1576974 0.05838493 -0.376298 -0.2516239 0.060263865 0.10780592 -0.2812466 -0.011030818 0.17888236 -0.053350154 0.00273021 -0.02596105 -0.43211928 -0.13568048 0.024519352 -0.3354062 0.37955254 0.17007603 -0.14200246 -0.4123368 0.12399061 0.11473812 0.37084395 0.15223818 0.40662655 0.1681445 -0.10066421 -0.04388776 -0.09372888 0.2321587 0.3302019 0.13036501 -0.37258124 0.3730344 -0.31850407 -0.024722997 -0.1039617 -0.09894114 0.029402275 -0.35132656 0.06306419 0.096907735 -0.05805129 0.09969694 0.53790855 0.17878385 0.083532214 -0.23740076 -0.048901897 -0.2849536 0.19887751 0.19034268 0.16701472 -0.029920207 -0.2192087 0.44380656 0.048652194 -0.25295368 -0.0041358382 -0.103247836 -0.13898912 0.2478038 0.0022025092 -0.039748587 -0.28726488 0.086783394 0.14967635 -0.1725902 -0.06965092 -0.007816777 0.06793693 0.11831706 -0.08093939 -0.2055146 0.21477127 0.13094777 -0.14033404 -0.08958241 0.16049306 0.109848216 -0.22283177 0.2548451 0.00047671582 -0.05078935 -0.10422152 0.41048092 -0.22690779 0.1363002 -0.15503083 -0.08976906 -0.23072371 -0.12977202 0.13701807 -0.17806962 0.22035323 0.32319584 0.052536476 0.009113817 -0.046821345 0.17301695 0.0069129895 -0.092323214 -0.2814555 -0.087791264 -0.05841628 0.1766389 0.04207399 0.15736717 0.00036986035 0.46409485 0.036913183 -0.32039243 -0.008979949 0.0034660248 -0.11634117 0.36502025 0.25290897
246 0.1279644 -0.119093545 0.036630392 0.17543402 -0.19143498 -0.23791347 0.24806507 0.04841341 -0.4768618 0.2922811 -0.01019736 0.2996415 0.060603417 -0.31330475 -0.0004929742 -0.14492632 0.37830037 0.28783506 0.09345834 -0.086493514 -0.3168971 0.22946149 0.1952069 -0.3557929 -0.003534351 -0.018690698 0.2452829 -0.12432124 -0.1141477 -0.25609833 0.08631552 -0.12173495 0.3136503 0.35700503 0.26234326 -0.22431199 0.14466307 -0.03514435 0.13012497 -0.16067667 -0.10295605 0.11006554 0.10777933 0.02597182 0.4625839 -0.16066714 -0.15297721 -0.36177608 0.25759116 0.009352114 0.17108898 0.015336611 -0.03927074 -0.12549867 -0.17789462 0.019086096 0.30336234 0.10389294 -0.10175823 0.036645465 0.31757733 0.34798825 0.09585833 -0.30161336 0.36055174 0.08726488 0.5230472 -0.049351912 0.2015382 0.2848185 -0.3936069 -0.5117253 0.32936487 -0.08674921 -0.045735873 0.14112936 -0.022025647 0.15817994 0.29181984 -0.083960935 -0.063277915 -0.32863292 0.20333654 0.25752842 -0.13494217 -0.2745617 0.14503776 0.08419975 0.31187907 0.008922607 0.003602932 -0.16774061 0.35173184 -0.1986344 -0.24911387 0.018872114 -0.16671261 -0.07293331 -0.2303101 -0.14930598 0.030998776 -0.037187804 0.14206816 -0.0012804044 -0.07668489 0.15381014 0.010249422 -0.30577734 -0.1918692 0.3671616 0.1856966 -0.14504947 -0.24061762 -0.3690979 0.27654925 -0.36996427 -0.09953738 0.09570297 0.097872205 0.17793661 -0.16956584 0.41451347 -0.14327735 -0.10875612 -0.039828792 0.34282148 -0.08930752 -0.17930856
34 -0.062104598 -0.22942461 0.19946335 0.056172565 -0.29639482 -0.38821435 0.19668517 -0.2409597 -0.1855113 0.06715321 0.015271229 -0.26897633 -0.04340913 -0.16817285 -0.20481223 0.15896024 0.07917354 -0.002612906 -0.06472548 -0.19205706 -0.036098637 0.22110446 0.14331493 -0.2807432 -0.24832544 0.43644673 -0.1392307 0.12886748 0.123075955 -0.06983303 0.18532348 -0.07219995 0.17198616 0.13332513 -0.11674433 -0.056114834 0.20755127 -0.22397615 -0.21746898 -0.07852602 0.01626319 0.13864727 0.23224498 -0.048941217 0.18022859 0.11224025 0.12935117 -0.09027596 0.07246808 0.40836146 -0.5449619 -0.012367087 0.087177016 0.0064839767 -0.24630283 0.2862565 -0.065531865 -0.41124526 -0.17492788 -0.6110071 0.03431087 0.34577498 0.07196071 0.3692236 -0.13799407 -0.35078967 0.33275634 0.058341045 -0.14293103 0.012793083 -0.06301004 0.0810996 0.263144 -0.11912285 -0.056568842 -0.29038996 -0.07194648 -0.2519448 0.094011694 0.17039333 0.17608136 -0.29692665 0.035920948 0.117151044 0.13405354 0.08685578 0.15413243 0.19912603 -0.09392525 -0.21591733 0.071783856 -0.1604059 0.26833567 0.09554605 -0.28735495 0.07435875 0.105853364 -0.44607636 0.3177111 -0.044790164 -0.15350513 -0.06963395 -0.49101043 -0.06463872 0.017578978 0.109954245 0.43590033 -0.14856756 0.11665493 -0.083194524 0.108667195 -0.5599633 0.20817976 0.08674897 0.12469953 0.09873536 0.07663278 -0.16564356 -0.33054712 0.13410886 0.13043416 -0.30050546 -0.19302833 -0.2022667 0.033611592 -0.08530662 0.3458742 0.14299637
82 0.0260863 -0.36366776 -0.0032572644 0.23053472 0.34341666 -0.06567275 -0.21550417 0.008281315 -0.09068198 0.2995034 -0.4346173 0.050528035 0.028502151 -0.041845467 0.14963111 0.14582308 -0.023853742 -0.10922569 -0.12857638 -0.27604786 0.15483475 0.10295109 0.13183862 -0.23896666 -0.23935246 -0.09239641 0.27973488 0.16710304 -0.25086144 0.12487014 0.08914961 0.20109543 -0.2801258 0.0030561185 0.046399433 -0.13566315 0.4346867 0.36858 -0.32621738 0.027445804 0.2631371 0.40658087 -0.21427709 -0.04384447 0.27082396 0.13538049 0.13753903 -0.10930763 -0.23468812 -0.094661966 -0.2593755 0.23566377 -0.0760141 0.17630328 -0.041699164 -0.29379606 0.028394 0.15069747 -0.26155582 -0.414997 -0.13550384 0.61175746 -0.0016988649 -0.020522367 0.22383602 0.12581757 -0.014302372 -0.3007109 -0.033661403 0.09671191 0.12145575 -0.2535114 0.034317788 -0.06846043 0.08785663 -0.03733057 -0.047007408 0.04615185 0.397393 0.2679066 -0.0144879855 0.21080106 -0.026065638 0.2527098 -0.1747858 -0.24401943 -0.1102243 -0.39469436 0.01905331 -0.02055628 0.12703164 -0.1513987 0.18982771 -0.21958138 0.18812263 0.37176958 0.015100594 -0.49310863 0.05162235 -0.26107433 -0.19122346 -0.330988 0.15520763 -0.029424079 0.26038533 -0.044352822 -0.23463859 0.14629361 0.16499889 0.20389248 0.09840053 -0.18347296 0.22484215 0.14260451 -0.3980755 0.06887299 -0.011044874 -0.111794665 0.4312106 0.098665394 -0.016352251 -0.3165951 0.12727901 -0.10877832 -0.07533239 0.039255198 -0.35321796 -0.32694304
310 -0.06741341 -0.12652415 0.07159918 0.4396021 0.27309638 0.05361964 -0.057107724 -0.3329631 0.171873 0.24403511 -0.13426514 0.11306275 0.099473804 -0.16284153 -0.07490517 0.02272509 0.25575206 0.29228595 -0.13922872 0.0782064 -0.0018233509 0.0021766457 0.0772248 -0.3522976 -0.15605448 -0.021478554 0.33912882 0.053881 0.22339232 -0.40389892 0.008176179 0.05926342 -0.11072268 -0.13068922 0.2120889 -0.4772662 0.24121392 -0.024864651 0.1403347 0.19583023 0.24145025 0.21787174 0.24951614 -0.016727002 -0.13025871 0.22081353 -0.222312 -0.16352923 0.1544681 -0.15391093 -0.1610846 -0.010345337 0.0196041 -0.2656569 -0.20875008 -0.017783882 0.022193136 0.058785364 -0.4434674 -0.5694317 0.0931892 0.05576404 0.07542529 -0.30361393 0.050535373 -0.0321303 0.15425028 -0.097629696 0.12548646 0.22971274 -0.25011164 -0.11839604 0.2613281 -0.3470572 -0.030405322 0.0263083 0.010818037 0.0753142 0.17362748 0.083648376 -0.48807296 0.14483304 0.049817707 0.6223924 -0.10469744 -0.271889 0.057295557 0.14683639 0.32127973 0.062612414 0.24774228 -0.031026473 0.1289178 0.13557537 -0.063126385 -0.04776011 -0.041117266 -0.2430198 -0.052050255 0.012111556 -0.103396066 -0.21352653 0.0050471504 0.2539568 0.25056532 -0.13072442 -0.026038462 -0.09434448 -0.005926328 0.44553176 -0.17742082 -0.073515676 -0.22289139 -0.09362425 0.09441419 -0.02095684 -0.19242105 0.25430703 0.20543581 0.03945064 0.067024976 -0.24705356 -0.025027545 0.11300106 0.06583443 -0.28659493 -0.21974763 0.060452435
124 -0.26474825 -0.24192506 0.19520779 -0.21650615 0.11973992 -0.08372193 0.049844854 -0.16907687 0.051443696 -0.19103199 -0.19252667 -0.031493567 -0.19149606 0.08925483 0.31256 0.23406507 -0.13877885 -0.22618103 -0.122292444 0.23334213 -0.07741312 0.035865024 -0.09237231 -0.0934116 -0.21337724 0.14895703 -0.20131055 0.23676042 0.13807218 0.15262178 -0.08090065 0.51928747 -0.09546682 0.011540728 -0.13619731 -0.052719917 0.4381259 -0.0007060633 -0.04693337 0.03389693 -0.09154379 0.5268533 -0.36760378 -0.27050698 0.22357216 -0.27244034 0.09066818 0.10219108 -0.013653154 0.13448235 -0.12153114 0.09067956 0.1381323 -0.0160058 -0.46282735 0.16612841 -0.029303052 -0.28725925 -0.09810929 -0.15459017 -0.086357005 -0.07854161 -0.00479086 -0.27444717 0.06656793 -0.09944643 0.29950666 -0.07009362 0.071915425 0.46256244 -0.024989301 -0.11279549 -0.30913126 0.07957653 0.15147237 -0.08696473 -0.06337268 0.06401057 -0.043704722 -0.04221483 0.123760596 -0.050092384 0.23741528 -0.12126693 0.04773182 -0.02407536 -0.22213037 0.17968021 -0.23215593 0.53781825 0.11559377 0.25101277 0.23668006 0.24233618 -0.4168111 -0.03744876 0.091638 -0.28966418 0.02522252 0.18234476 -0.1406201 -0.013409199 0.3138015 -0.16935553 0.015151617 -0.15022139 0.14536573 0.19507362 -0.590587 -0.20367542 -0.5046971 0.07044374 -0.12670313 0.18858406 0.13450365 -0.022475122 0.3023986 -0.09482699 -0.10979939 -0.018219026 -0.07470986 -0.022673188 -0.07058546 -0.21533602 -0.38723984 -0.030418271 -0.18966313 -0.064893536
83 0.082153015 -0.27102602 0.01447391 -0.12207216 0.13486987 -0.2679363 0.011641687 -0.00977279 0.032191124 0.08960535 -0.14481625 -0.08155702 0.257428 0.09976136 0.0030185264 0.43987092 -0.050073657 0.025907723 0.07146442 -0.18769425 -0.48926094 -0.1503887 -0.03419522 -0.104583055 0.35973653 0.090929724 -0.18575536 0.44515145 0.052638274 -0.32792377 -0.12709375 -0.31357756 0.14501521 0.04688128 0.37222975 -0.13560356 0.007485462 -0.10005266 0.31161344 -0.31118602 0.042130757 0.07948621 0.11801296 0.010707492 0.2689844 -0.13517585 -0.22715971 0.0010849378 0.08960397 0.15167393 -0.00803626 -0.019095428 0.15377381 0.08390843 -0.17508821 0.11044421 0.14637108 -0.1429815 -0.061176002 -0.38108742 0.111834966 0.36108145 0.33544764 -0.2370126 0.031383622 0.26590666 0.48543793 -0.06717312 0.036877155 -0.17720805 -0.19831069 -0.22180682 -0.040106572 -0.4196418 -0.035694126 -0.17217259 0.07119851 0.1334665 -0.014400688 0.22008003 -0.03471525 0.31882524 0.24087243 0.49303797 0.09020889 -0.13238882 0.19436102 0.112380974 -0.20198804 0.071186304 -0.1847161 -0.06866161 0.403552 -0.2011459 0.06675598 -0.12911412 -0.10274812 -0.2414341 0.007907369 0.05656287 -0.23190999 -0.18413875 -0.21808298 -0.17562783 0.12739898 0.3243545 0.21230564 0.06429902 0.1171079 0.09820681 -0.061967418 -0.2534762 -0.14291766 0.040496886 0.26460108 0.014161871 0.015998567 -0.13153148 -0.37635463 -0.080781244 -0.068198234 -0.1508375 -0.14660935 -0.27868643 -0.012610852 -0.11355311 0.1959069 -0.21151102
276 0.17936197 -0.13220401 -0.111702494 0.098435745 0.101121336 -0.14058632 -0.06280759 -0.3945339 -0.09015896 0.14512809 0.21711813 -0.09143199 -0.080316275 0.14796889 0.17396887 0.21302348 0.13838895 -0.271915 0.0770597 -0.04521957 0.33437222 0.1595782 -0.064422704 -0.1902199 -0.04523319 -0.097170234 0.06305549 0.23603807 -0.0708672 -0.20584075 -0.1691155 0.24969676 -0.29713255 0.18236288 -0.091133095 0.22165762 -0.07748883 0.1593479 -0.16434397 -0.016565321 -0.23136106 -0.25944877 -0.044817764 0.034237098 0.20522301 -0.31691426 -0.3761395 0.12677294 -0.6202866 -0.081770495 -0.24260578 0.10912728 -0.15082775 0.2845713 0.15927558 0.2286211 0.34618074 0.20264447 0.18569699 -0.059702847 0.2511579 0.14165786 0.18423127 -0.040984247 -0.2541502 -0.18822415 0.44537675 -0.016903192 0.07745537 -0.07879768 -0.28828865 -0.28915212 -0.12472801 0.07334365 -0.19101596 0.06529347 -0.36368436 -0.029469779 0.29832456 -0.08371631 -0.21414354 0.15694708 0.061766878 -0.10427992 -0.19772975 0.23990235 0.05176276 0.21493599 -0.3138644 -0.08303677 -0.4798472 0.10262663 0.10554828 -0.12321757 -0.013428886 0.148796 0.10109182 -0.07268072 0.27341035 -0.098185584 -0.52308273 0.04688803 0.18425564 0.02977159 0.32578 -0.28364813 0.069700696 0.026479533 -0.09650002 0.18914814 -0.27400437 -0.13271955 -0.01411889 -0.2539345 -0.11017275 0.31277177 -0.08663631 0.1644358 -0.032365512 -0.06339652 0.050080337 0.028957075 -0.08810623 -0.10236962 0.09706837 0.040060878 -0.17789748 -0.041948654
271 0.13434662 -0.36350316 0.0075305854 0.42001444 -0.0921555 -0.07679202 0.1951545 -0.07057594 0.34637275 0.04858781 0.10773252 -0.10031313 0.028969763 0.09189252 0.012545905 0.27192855 -0.07211683 0.30262476 0.4654756 0.16474575 0.14901645 0.23183778 -0.0297707 -0.3716473 0.14082079 -0.09352403 -0.5035719 -0.0061685513 0.17245513 -0.1408811 -0.00209873 -0.055968065 0.00083931437 -0.033763163 0.26110741 0.19023454 0.4953669 -0.006317184 -0.09659724 -0.018810079 -0.60654056 0.20562008 -0.2524948 -0.16641441 -0.1937704 -0.15264557 0.14477299 0.1155647 -0.25336745 -0.13019057 0.040594667 0.2438648 -0.13252825 0.13652255 -0.14556056 -0.0066810413 0.07412503 -0.4777967 -0.18199621 -0.32228875 0.2471229 0.22814937 0.22183624 0.0117377015 0.05112414 0.44053137 -0.24142084 0.10535754 -0.2915772 -0.4731856 -0.0730326 -0.080946304 0.019087909 0.17937653 -0.021011103 -0.40169623 -0.29323196 0.06255279 -0.08635962 -0.011821115 0.1606543 -0.033317376 0.2981946 0.31668332 -0.27730376 0.18268576 0.13940983 -0.053121667 -0.09943937 -0.25896665 0.13134529 -0.2748661 -0.19668436 0.012941423 0.11199158 0.028848005 -0.08255978 -0.13429362 0.30399355 0.08157773 -0.14414291 -0.0067838365 0.16576374 0.44052297 -0.25386345 0.063665606 -0.08592443 0.17969662 -0.22760081 0.006658645 -0.37446347 -0.07280487 -0.44129527 -0.10860715 0.17902514 -0.10451428 -0.29086718 -0.07940857 0.020523554 0.16866653 -0.028961293 0.33781236 -0.29040104 0.2313486 -0.24324858 0.4162154 0.255134 0.14275883
214 0.33030447 -0.20020953 -0.22070742 0.28799814 0.24757527 -0.17621897 0.3554713 -0.052466415 0.1637741 -0.057249837 0.13374117 -0.14814155 0.1456905 0.012770349 0.23886767 -0.22926952 -0.23436636 0.01792509 -0.40998223 0.04756523 0.2784595 0.4236088 0.040798225 0.11045114 0.22953598 0.20912282 0.09826128 -0.014119557 0.13551484 -0.20476684 -0.38443756 -0.2551925 0.38255894 -0.17692804 0.106437065 0.17772156 0.03493338 -0.28044936 0.11504937 -0.12338564 -0.20596522 0.0182816 0.095609196 -0.1378924 0.0858492 -0.028067192 -0.11637104 -0.1627806 0.12172178 -0.07657583 0.18144311 0.2370239 0.0041771317 0.04179922 0.22187395 0.068670385 -0.040050935 -0.04882555 -0.44860587 -0.3119196 0.29087335 0.46424675 0.34887195 0.18846384 0.19162121 -0.03824586 0.11281114 -0.21494977 -0.21682093 -0.24740048 0.018656934 -0.3015862 -0.181936 -0.1497264 -0.11023626 0.045605727 -0.041684277 -0.025578722 0.027301015 -0.021770582 -0.18303555 0.04637326 -0.293536 -0.26380667 -0.06730879 0.16310227 -0.020465402 -0.023159968 -0.38819465 0.3380059 -0.09040232 -0.34224585 0.16822177 -0.02761476 -0.06684932 -0.13845618 -0.2276717 0.06445398 0.4691778 -0.2246046 -0.02684215 -0.47255248 0.03268809 0.18414934 -0.08850541 -0.21256085 -0.005904612 0.39730978 -0.16056094 -0.08641689 -0.4760686 -0.013449421 -0.112004876 -0.009219781 0.2934225 0.1990453 0.04705021 -0.19188066 -0.0645659 -0.23535301 -0.12831008 0.3207079 -0.386265 0.28150424 0.13761452 0.27991045 -0.13811758 0.2474517
134 0.26462367 -0.123478055 -0.12842454 -0.08678875 0.0021502862 0.33941764 -0.022679398 -0.21930146 -0.2395522 0.24476138 -0.04643502 -0.3545221 -0.1275172 -0.06380944 0.08825292 0.06524876 0.051329866 -0.05480811 0.029664453 0.20499822 -0.008945526 0.63210076 -0.10730376 -0.28025025 -0.17719758 0.11101967 -0.182595 0.09709741 -0.26080525 0.13919795 -0.10385816 0.193413 0.16762781 0.19157249 -0.30210325 -0.0055146175 0.066916935 -0.12758191 -0.3203274 0.044465665 -0.15612133 -0.17924806 -0.39644808 -0.37964505 0.00969179 0.14462265 -0.4166374 -0.2117118 -0.17468072 -0.32607967 -0.14314237 0.33471087 -0.10457354 0.055801887 -0.22629006 -0.23997568 -0.10807422 0.20227884 -0.0799845 -0.087921485 0.6293915 0.1947483 0.13957696 -0.4053778 -0.06977616 -0.18553106 0.38122556 -0.019745251 -0.155108 0.018552145 -0.15105295 0.12721692 -0.07794751 -0.08954266 0.110917956 -0.39168534 0.044419046 0.24442945 0.26933765 0.21221931 0.14083171 -0.095046565 -0.08269214 0.18945839 -0.08512442 0.14708185 0.18575183 0.30559167 -0.025694598 -0.025569871 -0.062855676 0.1647451 -0.03010385 0.41136235 0.23885132 0.22845621 0.18300241 -0.19841494 -0.12547292 0.021793751 -0.54903686 -0.25240847 -0.061665848 -0.0016710192 0.2003042 0.08723778 -0.0920487 -0.04725682 -0.306928 0.14856221 -0.14636956 -0.13022971 0.23937935 0.12528254 -0.3530725 0.28876558 -0.07843011 0.015047885 0.17728989 -0.3729526 0.22949132 0.14158376 0.038127717 -0.20592186 -0.31328252 0.2635282 0.16481856 0.22478898
114 0.3200191 -0.08541087 -0.0058937627 0.53648144 0.24145299 0.2842631 -0.25438547 -0.22746526 -0.062695004 -0.02899608 0.10335035 -0.0113229295 -0.23469752 0.18031542 0.16593383 0.42487198 0.48883274 -0.08286927 0.23364837 0.16558968 -0.035660475 0.10224206 0.07038904 0.057531573 -0.25771594 0.018459555 -0.17021999 -0.2542365 -0.05181225 -0.10560138 0.24387431 0.19736545 -0.14466557 0.13841175 0.016245559 0.19732524 -0.16588378 -0.42369998 0.14748219 0.31889743 -0.20460771 0.1016679 -0.07480528 -0.11711339 0.17195204 0.02957352 -0.0992331 -0.1720558 -0.10745299 -0.05139471 0.29883993 -0.08687362 -0.20497577 -0.11699259 -0.113692544 -0.25181785 -0.15425968 -0.12527402 -0.013340735 -0.37912625 -0.10948638 0.10327208 0.0373206 0.081688106 0.10769249 -0.17684008 0.11296136 0.05750471 0.19549581 -0.09172853 -0.08868167 0.054239385 -0.27236953 -0.26670393 -0.489274 0.0036840383 0.02834105 0.040212616 -0.10889304 -0.095280156 0.17898194 0.15146172 -0.09013247 0.01748618 0.102912016 0.16256869 -0.22589144 0.32156646 0.099393114 0.07517881 -0.19746663 -0.5726505 0.09549936 -0.19892786 -0.00062678073 -0.05504214 0.06710362 -0.31917915 0.4644475 -0.112858266 -0.3524132 0.11884224 0.17578284 0.289476 -0.17354608 0.22206286 -0.2362805 -0.1265631 -0.15324792 -0.059621744 -0.53502256 -0.21628387 0.1069797 -0.25581467 0.20446119 0.018363586 0.19658107 0.11977875 0.27041227 -0.052249234 0.14166053 0.2260972 -0.04623345 -0.29474682 0.16756733 0.017272726 0.07962001 -0.076208554
347 0.5126596 0.14205278 0.059011582 0.11166592 -0.17020896 -0.090007596 0.42876816 -0.0105578 0.2506086 0.35552716 -0.005343694 -0.01537244 0.14365456 -0.26986298 0.16822122 0.27517802 0.097537465 0.1555911 -0.16123219 -0.19519371 -0.20224075 -0.22696193 -0.5793105 -0.08349659 -0.020342529 0.3169015 0.02740027 0.1278788 0.06293481 -0.08253717 0.06439171 -0.009467957 -0.0838094 0.22995739 0.21907876 -0.04296891 0.157873 -0.09829706 -0.19302672 -0.102603294 0.29418647 0.24068081 0.041150928 0.1166512 0.26310167 -0.1319456 0.1637322 0.22074328 -0.09691414 -0.18243285 0.22047086 0.23347993 -0.004260572 -0.07822222 0.14594151 0.06650796 -0.09963659 -0.31373486 -0.13225926 0.11490166 0.09531568 0.017909814 0.17714627 0.0134185385 0.026811015 -0.08965561 0.49384978 -0.17502129 -0.27260986 0.16348383 0.5252565 -0.32849315 -0.22780941 -0.3901947 -0.21249811 -0.023776904 -0.15455788 0.15972649 -0.044795863 -0.07810431 -0.064617015 -0.011647167 -0.20353965 0.037880275 0.3757385 -0.07672296 0.2332411 0.14981708 -0.04171464 -0.019054165 -0.1020418 -0.12616856 0.30249816 -0.23919469 -0.24104454 0.15822431 -0.14735769 -0.059593957 0.4062678 -0.20005429 -0.34397936 -0.04966948 0.023284022 -0.28923294 -0.22161485 0.20094875 0.09593556 -0.055469904 0.17651431 -0.19188099 -0.05114108 -0.01572714 -0.0025437365 -0.063547336 0.0345892 0.13354316 -0.16718973 -0.10117187 -0.16579735 -0.22827707 0.11947729 0.32043082 0.1678321 -0.44043997 0.25261942 -0.023497343 0.6468663 0.03935536
146 0.11764131 0.011804788 0.19991338 -0.43599528 0.1897501 -0.5373854 -0.028751979 -0.007624943 0.17119676 0.30405512 -0.055960987 -0.20567931 0.20145784 0.24938221 0.06738934 0.41252106 0.05292526 0.0224541 0.14788498 0.007843538 -0.06973644 -0.06515102 0.13949354 -0.30666915 0.2061318 0.010406628 0.07183835 -0.054526255 0.2980067 -0.13160299 0.16161795 -0.0889298 -0.07210335 0.068753324 0.24839586 0.24397299 0.1124695 -0.022066234 -0.20999724 -0.10241025 -0.24483877 0.15109263 0.030995684 -0.032917574 0.24109001 -0.014849066 -0.5021603 0.43571323 -0.055799972 -0.21701321 0.066293776 -0.19050084 -0.04911265 0.22116552 0.14657429 0.06885766 0.3646877 -0.12171735 -0.014828837 -0.5450544 0.22122975 0.27538428 0.087894455 -0.33481562 0.05834442 -0.11168043 0.31769028 -0.14797883 0.276945 -0.09854748 -0.23074128 -0.22567667 -0.09575415 0.1296311 -0.007342029 -0.009616245 0.32970184 0.022955593 0.28747743 -0.28378844 0.18540357 0.2976234 0.003090889 0.105118394 0.12963839 0.39162898 0.27948388 -0.054363284 0.17215987 0.28035477 -0.054271594 0.14948161 0.376105 -0.18049507 0.33269638 -0.088892944 -0.13752824 -0.15938582 0.012950568 -0.20851636 -0.47074807 0.22080104 -0.17430604 0.13225567 0.09084983 -0.018685427 0.2264111 -0.008440472 0.2522589 0.047884215 -0.4539517 0.28506956 0.19107307 -0.11135549 -0.12240065 0.10743601 -0.079169765 0.14644007 -0.2552123 -0.057991657 0.15154554 -0.12645005 0.26227143 -0.32500312 -0.2077205 0.11185137 -0.16926679 -0.14566599
322 -0.004490858 -0.20971741 0.016869724 -0.1509647 0.10510369 0.020012895 -0.13193162 -0.26145124 -0.5294165 -0.1906667 0.22593038 -0.25536346 -0.06691135 -0.30184644 0.15001349 -0.10814317 -0.21873127 0.037845686 -0.1878098 -0.22189714 -0.11417589 -0.11004505 0.008740018 -0.29837447 -0.18065397 0.22731432 0.37213975 0.006978168 -0.26330307 -0.60102564 0.10518414 -0.035567235 -0.19162391 0.026897702 0.13057207 -0.103944 0.32568902 -0.26607454 0.25372827 0.1971312 0.08469491 0.093852185 0.24569315 -0.042368162 0.23604807 -0.23423927 0.08602241 -0.058584057 0.059791315 -0.06629881 -0.3507366 -0.39331818 0.11086444 0.1549168 -0.22395256 -0.03080803 0.09217863 -0.10418558 -0.17332862 -0.33631235 0.15716814 -0.058369417 -0.027876208 0.67047954 -0.08649799 -0.017006211 0.10200552 0.12989384 -0.17930529 -0.24384104 0.1703327 -0.03376737 -0.25356027 -0.0033055816 -0.038750086 -0.010794179 -0.083028995 -0.006948216 -0.065881364 0.27944148 0.19287425 0.06932462 -0.099986136 0.023507848 0.48703605 0.08969391 0.18005732 0.07482328 0.227934 -0.2297185 -0.25267342 -0.13355985 0.23424491 -0.3292737 0.3495283 -0.08212172 -0.12741485 -0.19570976 -0.050912917 0.30570802 -0.18129584 -0.20453992 0.42094818 -0.38243985 0.39340553 0.32368574 -0.2783371 -0.018518804 -0.30812758 -0.119234696 -0.5320001 -0.043413967 -0.0801567 -0.22352368 0.03513362 0.06507226 0.015446911 -0.030557726 -0.27082115 0.13127606 -0.0914469 -0.04589491 0.319884 -0.04995194 0.1253113 -0.088193946 0.41855675 0.21172671
52 -0.20352481 0.09620579 -0.12220954 -0.2032341 0.4720646 -0.016477393 -0.092446506 -0.20089218 -0.14619249 -0.015780473 -0.32901233 -0.3064098 0.027182745 -0.12066762 0.13753334 0.047330044 0.07774832 -0.28534466 -0.022083724 0.12227336 -0.012717932 4.2189367e-06 -0.08311056 -0.20027243 -0.18864238 -0.14541861 0.017725691 0.021598758 -0.21929437 0.32716808 0.3061561 0.306687 0.41172057 0.21910074 0.41805318 0.25782317 0.47317752 0.10287371 -0.12853488 0.42436248 0.14791237 -0.10596115 0.24366665 0.2508167 0.19570442 0.036094584 -0.0010904075 0.1665106 -0.11004775 0.15221591 -0.20572203 -0.07060084 -0.103950016 0.034910567 -0.45285633 -0.15378639 -0.09901052 -0.11551236 -0.22299843 0.2523206 0.23027681 0.053539157 0.24888091 0.13547207 -0.18284947 0.10541838 0.0025400475 -0.20367825 0.0032187784 -0.2409245 0.15391527 -0.011078995 -0.73123103 -0.22306998 -0.119211756 -0.059128176 0.21479435 0.102534786 -0.09389611 -0.108053386 -0.16503282 -0.2941097 -0.28983578 -0.021727234 -0.052577395 0.032169543 -0.027581794 -0.4534651 -0.24056877 0.19509426 -0.07456228 -0.10895884 0.288298 -0.11471603 -0.12164248 0.06495909 -0.15314779 -0.39689627 0.22433734 0.1350579 -0.19765729 0.2529985 -0.05348006 0.15311377 -0.16473244 0.51842886 0.14330375 -0.003091273 -0.33605215 0.055204526 -0.015073728 0.21479 0.044884104 -0.15709788 -0.18857735 0.0052336357 0.1547877 -0.115853354 0.118245676 -0.06573639 0.08191995 0.08027659 -0.30763763 0.013771969 0.016717631 -0.13525397 -0.03313324 -0.053402696
203 -0.14803332 0.03557153 0.07777256 0.03853079 0.41159064 0.036995627 -0.03415068 -0.29283893 -0.100173965 0.11907477 -0.20862167 0.009251757 0.18310513 0.04093454 -0.19353749 0.02529689 -0.09073787 -0.19394489 -0.35953078 -0.25482908 -0.038280413 0.021617971 0.2166676 -0.26202315 -0.105907984 -0.05661946 0.24050534 0.083356194 -0.0287535 -0.10313352 0.36003098 0.19100735 -0.34133393 0.1253164 -0.010754798 -0.23841684 -0.46447593 -0.17679426 -0.2558977 -0.12709647 0.27887464 0.21723463 -0.19563389 -0.10727628 -0.058086883 -0.19466007 -0.2696043 0.18615091 -0.102657266 -0.37117043 -0.040340006 0.25242516 -0.1910093 -0.08378231 -0.022083392 0.22912805 0.34877607 -0.022242941 0.035835877 0.24098404 -0.068335585 -0.24001268 0.1013705 0.37900776 0.012215595 0.10213132 0.29301408 -0.13001229 -0.21156633 -0.05417242 -0.19221118 0.026146099 -0.4494222 0.18013194 -0.30849 -0.04926868 -0.13797157 0.15691668 0.21244684 0.27780184 -0.37664306 -0.09708136 0.019621437 0.16893609 -0.07160933 0.074394375 0.006377235 -0.017083522 -0.16124874 -0.04024149 -0.27072802 0.073713355 -0.0077289552 0.17978898 -0.09675414 -0.062374253 -0.17462799 -0.32884645 0.16689056 -0.14264993 -0.4785037 -0.046309184 -0.14902951 0.21062492 -0.16607678 -0.19917613 -0.16688477 -0.11449054 0.25750646 0.22631362 -0.2543534 -0.36983773 0.22489867 -0.1753111 -0.260626 -0.53756076 -0.023305574 -0.17640126 -0.08421231 0.18458407 0.09319702 -0.18534626 -0.11123842 0.16496453 -0.09236312 0.25124165 -0.079861216 0.008727881
291 -0.03991735 0.20269784 -0.13620739 0.035998084 -0.04054359 -0.18888117 -0.045819856 -0.23675646 0.08675272 -0.0040057437 0.010277611 -0.052396353 0.15134995 -0.016731173 0.0949766 -0.03385255 -0.26831988 -0.07430684 0.2695211 -0.07614222 -0.004916398 -0.0143518215 0.28159496 -0.26766658 -0.21313238 0.35310656 -0.12764694 0.33079913 -0.2211853 -0.27720502 -0.22783042 -0.3813029 0.26772818 -0.22386558 0.43929482 -0.4144651 -0.06476322 -0.34737352 -0.123409376 -0.047060784 0.14019132 0.24238124 -0.5096612 -0.22205687 0.16477828 0.19161782 -0.30792838 0.2699994 0.3549566 -0.22549364 -0.07183042 0.31905252 0.05512437 0.12560672 -0.22959764 0.19209234 -0.04656404 -0.15450291 -0.16553137 -0.17945112 -0.108090416 0.50191903 0.33568242 0.20542154 -0.20160599 -0.39866313 0.21499734 -0.2054044 -0.12424124 0.20482054 -0.12941924 0.097606786 -0.36443734 0.22920899 -0.016728615 0.22074592 0.11285106 0.022420203 0.4716147 0.19157676 0.03990788 -0.28794664 0.013625236 -0.29449064 0.07294306 -0.014296547 -0.0691507 -0.07938181 -0.2819885 0.15267332 -0.16110568 0.03260104 -0.116680294 -0.25216484 -0.58205163 0.12977092 0.09981925 -0.33340585 -0.003963758 0.5688094 -0.14407922 0.33150133 -0.013548628 0.17463207 -0.047684375 0.0013661956 -0.13267995 0.33116823 0.14475279 -0.091709435 0.093924955 -0.12787586 0.18743841 -0.29856774 0.015754165 -0.33960038 -0.047535438 -0.031141493 -0.37581366 0.004519476 -0.00693971 0.1221314 0.34697053 0.058144175 -0.057704106 -0.059836105 -0.17043513 -0.3628051
127 -0.05918747 -0.052592166 0.014710692 0.0104079 -0.12214945 -0.32926536 0.04319439 -0.033833396 -0.3184397 0.29150757 -0.0040919594 0.05926985 -0.22249974 -0.26412752 0.00544502 0.1568144 -0.3073515 -0.2806398 -0.1567567 0.19975969 0.29344577 0.22229888 -0.0041561737 -0.30319342 -0.28945872 0.23870902 0.08012291 -0.1603927 -0.21173176 -0.253178 -0.16478546 0.012056014 0.06878021 0.13118921 0.13248733 0.0023241471 0.21913868 0.06443625 -0.19135499 -0.10520448 0.03678508 0.101557404 -0.10855603 0.46646136 0.019461224 0.017349022 -0.030746369 0.31217343 0.013514486 0.039022096 -0.19011141 0.06703614 0.14227998 -0.098642625 -0.12837498 -0.19150876 -0.1866667 -0.18824475 -0.019825725 0.3602789 0.1292437 0.1467122 0.09998732 -0.09350896 0.044188365 0.33328456 0.05150182 -0.3029587 0.11927772 0.16762619 -0.09277349 -0.15199311 -0.45013225 -0.046848334 0.030628417 -0.08117971 -0.068255134 -0.033678874 -0.0149353 0.39934823 -0.09879376 -0.31845346 -0.5160163 0.09045553 0.39089298 0.32606122 0.03369975 0.1055558 0.26838306 0.02752562 -0.016856391 -0.3174296 -0.15017124 -0.22041102 0.056908555 -0.09118667 0.18987021 -0.1826738 -0.30297923 -0.19901675 -0.17184806 -0.32118657 0.25618994 -0.2385795 0.3349302 0.21257368 0.09037449 -0.15033953 0.006811959 -0.07557277 0.17706975 -0.29718974 -0.15804882 -0.48491642 0.33915627 0.04385908 0.036063682 0.12600303 -0.18948041 -0.033949602 -0.0963837 -0.08736118 0.03955632 -0.05717079 0.06771047 -0.22337939 0.38592207 0.09312514
254 0.33019164 -0.1466008 0.07861835 -0.25992784 -0.1286634 0.07602244 0.21691796 -0.66384953 -0.1242384 0.011044484 0.27843094 -0.10346159 -0.61185527 -0.21511753 -0.102471985 0.32828563 -0.20862448 0.10675796 -0.10128385 0.22283061 0.11867361 -0.2216074 0.09376835 0.022557084 0.16852258 0.046462357 0.08135832 -0.20079304 0.110247985 -0.08570769 0.17254198 -0.16892198 -0.17738315 0.12152153 0.0021346326 0.20643394 0.23748134 -0.12544154 -0.3507595 0.068091154 0.053097207 0.28992826 -0.19255197 0.0055806376 0.65973455 -0.113924496 -0.45287332 -0.10721437 -0.16901195 0.1299616 0.45218968 -0.24066573 0.1138951 0.061013527 0.1250782 -0.25449786 -0.25969464 -0.20174474 -0.26569638 -0.1722564 0.09642906 0.022073573 0.012170652 -0.30201888 -0.10128636 0.059820194 -0.3223374 -0.13256633 -0.2468289 -0.3229224 0.13327892 0.33594647 -0.21716054 -0.08701046 0.013526273 0.21790299 0.0857488 -0.11725175 0.36271092 0.09856127 -0.17184378 -0.40470117 -0.12759443 0.3856059 0.2593149 0.23851599 -0.08709125 0.09191634 0.15263964 -0.19312541 -0.017538933 0.16356502 -0.18048954 -0.18086207 -0.5489562 0.24590576 0.3912252 -0.018772285 -0.025594035 -0.2879404 -0.10446472 0.020149212 0.12582883 -0.0669116 -0.030824307 0.11173023 0.17679833 0.3286544 0.1289874 -0.26720184 0.0974573 0.22433548 -0.08288222 -0.039486572 0.20797917 -0.14913924 0.08023008 -0.0114415 -0.018029636 -0.13269353 0.27597722 -0.13656975 -0.23626806 -0.31593293 0.021957565 -0.28380105 -0.10565517 0.08764744
314 0.10943859 0.10006059 -0.1638437 -0.05058188 -0.038785603 -0.101687044 -0.35688785 -0.11583136 0.14143626 -0.12162205 -0.05252603 0.053370945 -0.24425723 0.02761675 0.0869048 -0.07947924 -0.41562787 -0.41176 0.11739293 0.33599147 0.3128605 0.14708148 0.24973398 -0.089551225 -0.14257014 0.008227357 0.00968629 0.12529656 -0.5271182 -0.11020482 -0.24104707 0.010597036 0.2083309 0.2751309 0.4503502 0.19651984 0.038555875 0.05673035 -0.36652687 0.05965304 -0.24488625 0.0858316 0.10777082 -0.26169947 0.099535525 -0.072938845 -0.21041982 0.24695605 -0.19165292 -0.043053612 0.09344351 0.25675648 -0.12969112 0.18121462 -0.0725228 -0.048815895 -0.18947293 -0.033243272 -0.30986091 -0.1806524 0.20536025 0.10381036 0.19540112 0.14804229 -0.012467379 0.107502006 -0.18562625 -0.24553397 -0.027000943 0.19056268 -0.08290941 0.025165994 -0.15012139 0.15179633 0.13636473 0.19106011 0.16655664 0.17032936 -0.11636635 0.029334053 -0.25043166 0.05865813 -0.1374611 0.3528844 0.114874706 0.0375506 -0.025183126 -0.36471322 0.15289432 0.36817297 -0.27270257 0.0058069252 0.14638947 -0.619331 -0.14462297 -0.21583457 -0.42751777 0.014729578 0.17671525 0.008335451 -0.069259375 0.14648825 0.14414422 -0.06886123 0.15862776 0.26760557 0.2814756 -0.3756277 -0.26794663 0.06906755 -0.084026255 -0.16686635 0.33017868 -0.2950254 -0.10412481 -0.08568161 0.10898039 -0.03093046 -0.01655781 0.03827011 -0.061998136 -0.2993608 -0.11242939 -0.067278475 0.247417 -0.09097001 0.28928602 -0.39882874
213 -0.06794218 0.19135351 0.009443982 0.058805395 -0.3979803 -0.094702765 0.044156346 -0.018001068 -0.43993273 0.025903488 0.07752865 0.013315355 0.17344628 -0.113379866 -0.08821393 0.21842197 -0.09392743 -0.35773206 -0.19487189 0.4196718 -0.13408135 -0.076174326 0.045817066 -0.48718208 0.0056248265 0.013071902 0.15218611 -0.014817095 -0.54006135 -0.28123224 -0.07703185 -0.46948183 -0.67001295 0.2727215 -0.23425958 0.055344455 0.29458794 0.15616678 -0.26752183 -0.2807496 0.2400138 0.22319098 -0.24170916 0.32074666 -0.18732251 0.14074507 -0.15730634 0.07540611 0.0046468405 -0.37881276 -0.08151701 0.2214698 -0.09089428 -0.035364915 0.22714655 0.29176894 0.058167614 -0.04228757 0.16064857 0.043426935 -0.029026236 0.23950502 0.14689666 0.17858194 -0.06966276 0.23892602 0.26506194 -0.19700637 -0.29808864 -0.086557165 -0.06840525 -0.046327 -0.38893855 0.17045678 0.046703182 0.006729285 -0.12106952 -0.09963709 0.15033986 0.44723365 0.19318059 0.24592632 -0.0676057 -0.0936969 -0.15096554 0.10872829 -0.11898017 0.24466279 -0.08237046 0.0016950415 -0.0351848 0.19580989 0.07579285 -0.436988 -0.15814716 0.4571972 0.05049426 -0.20379542 0.08030067 0.06609664 -0.3157938 -0.04405258 0.02018753 0.03046841 0.14563546 0.15911871 -0.1778264 0.051723007 0.112778954 0.38631532 -0.12821792 -0.44928426 -0.050689686 -0.21470915 0.08441006 -0.08541626 0.18895012 -0.057759825 -0.050930534 -0.023060909 -0.15858597 -0.46677443 0.09984128 -0.07357662 0.14562711 0.0065575675 -0.24466467 0.18447739
309 0.03283197 0.095263116 0.0013102925 0.37886795 -0.1739811 -0.38916966 -0.1021531 -0.1167005 0.066654794 0.077652596 -0.17094268 0.111067094 0.1713697 -0.25921473 0.069657534 0.16722436 -0.059964664 -0.20105195 -0.32077938 -0.15520498 -0.16515176 0.3675404 0.027334165 -0.4130312 -0.11361324 -0.011247277 0.14223239 -0.01808834 -0.12599933 -0.14928319 -0.3867809 0.0032826036 -0.15853587 -0.22765599 0.0026095523 -0.03752706 0.26816633 0.2999375 -0.32041842 0.009747357 0.08862589 -0.1890677 0.1855803 -0.39768383 0.40660965 0.1562994 -0.18915536 -0.36863366 -0.02480056 0.09716674 0.0033572067 -0.13296713 -0.2070718 0.24334994 0.2748723 0.19187187 0.018242316 -0.18935242 -0.23072708 -0.1694473 -0.013775032 -0.055890407 -0.25142413 -0.24550632 0.35520175 0.07119226 -0.04076958 0.19311862 0.09775897 0.009054118 -0.108377844 0.3372496 -0.49888518 -0.009888778 -0.053868 0.24063088 0.31378406 0.054654688 0.09769857 0.019771423 0.0767444 -0.21084674 0.09866639 0.00054482324 0.0844599 0.15481167 0.093564734 -0.45063862 -0.21706066 -0.3060497 -0.09005888 -0.1415966 0.07865923 -0.24134372 0.16738345 0.003363686 -0.097985595 -0.16571951 0.03222772 -0.23775312 -0.020821817 -0.3437673 0.303034 0.13648559 0.31847173 -0.010730457 0.30985025 0.021450935 0.016517485 -0.08540268 -0.5383144 -0.1531782 0.3034234 -0.06883698 0.0103063015 0.27578896 0.10270137 0.12113686 0.46631926 0.18639064 0.2810399 -0.2869683 -0.08630191 -0.08352569 -0.28715944 0.15067574 0.048537035 0.096293055
270 0.1683568 -0.20768763 0.2763059 0.27149293 -0.30417293 -0.22280118 -0.20258598 0.14886928 -0.406287 0.12521128 -0.058966246 -0.22146805 0.012003088 -0.46500346 0.29372784 -0.03165671 -0.36342797 0.11740402 0.116977274 0.12357618 0.06587081 0.13914436 -0.05198698 -0.29249477 0.030598957 0.008764488 -0.3895063 -0.041799694 -0.04832939 -0.26998076 -0.14121296 -0.29596284 0.105471045 0.26426333 0.018868497 0.15389982 -0.1286043 -0.026727723 -0.111444846 -0.27892935 0.41474283 -0.057113536 -0.105504476 0.27269238 0.072549194 -0.23186891 -0.46420497 -0.037855487 0.16417609 -0.18850577 -0.2132959 0.39354 -0.2774391 0.0070228777 0.16589023 -0.20811974 0.031049702 -0.23667036 0.117080584 0.25403175 0.100401014 -0.1960874 0.24000612 -0.32016078 0.028544672 -0.025882965 -0.14594637 -0.490483 -0.10935792 0.022570008 -0.1951475 -0.13448192 -0.26831046 0.05638095 0.1581772 0.17237987 0.13728175 0.060263272 0.276391 0.075692326 0.10060544 0.16348372 -0.32155183 0.1979296 -0.023406817 0.1782741 0.17906564 -0.21941121 0.16534165 0.0683392 -0.0049447357 -0.15323852 0.28190786 -0.36884764 -0.0815425 0.32296002 -0.10387288 -0.106598794 0.114447854 -0.024025306 -0.08811642 -0.21675065 0.16494367 -0.033355188 0.020160692 0.10988754 0.029267782 -0.04383181 -0.1407037 -0.0045372387 -0.1716604 0.053755105 0.44139633 -0.16271645 0.054326754 -0.15024075 0.15018502 -0.120359026 -0.15635952 -0.070802584 -0.18671036 0.30462274 -0.1342079 -0.11110796 -0.06694485 0.43663108 -0.10426322 0.21978177
90 -0.15411675 -0.08960756 -0.016879264 0.16161276 0.049587153 0.07991945 -0.09469 -0.36653554 -0.5882132 -0.33342758 0.00069693895 -0.08825837 -0.09645769 -0.20352986 -0.031608414 -0.33300054 -0.17695452 -0.14409275 0.19972421 0.25496775 -0.09863152 -0.10498198 0.11548442 -0.17334686 0.4002245 0.49752998 -0.022930318 -0.041806884 0.14044899 -0.13797307 0.0035817984 0.33949086 0.036719743 0.08662308 0.14741941 -0.055930838 0.10786951 -0.18785185 0.24794799 0.09915189 0.14714679 0.07203638 0.03433638 -0.05650987 0.078190036 0.2896502 -0.21654242 0.28601927 0.029954443 0.028305925 0.32379875 -0.59982413 0.19089526 0.118912585 -0.38392067 0.021518705 0.034650307 -0.19070676 -0.01569141 -0.35172886 -0.046189155 0.08440023 0.43122503 0.19437848 0.23994285 0.10985961 0.16558827 0.11301329 0.26208267 0.06348032 0.16354142 -0.19746347 -0.13968588 -0.22237098 -0.20606564 -0.11918282 -0.24182472 -0.10705973 -0.06854282 0.2392048 -0.122273766 -0.065587796 -0.17713243 0.17488624 -0.03163045 0.4895074 0.105153926 0.28935415 0.20266162 0.04563719 0.18644209 -0.16832614 0.019831246 -0.24158432 -0.018635591 0.30022436 0.09073441 -0.22151095 0.27129263 -0.19936706 0.069086835 -0.39708382 0.551289 -0.058631014 0.1001477 -0.05380809 -0.1007372 -0.058598787 0.107083954 -0.03895595 -0.23855413 -0.09312419 -0.270954 -0.06264337 -0.24755429 -0.069185205 -0.046975516 0.2904945 0.08092289 -0.0029430285 0.2483403 0.21036598 0.00719232 0.0055942996 -0.17016949 -0.18940233 -0.18587062 -0.15548398
