486 128
269 0.2600215 0.21588124 0.12446554 0.4870545 -0.15379453 0.31120765 -0.18764436 0.1328637 -0.07271472 0.07393055 -0.40481335 -0.13062741 -0.02627154 -0.13647777 -0.06640372 -0.3869549 0.00092582393 -0.14623895 -0.3167746 0.06882697 0.105463035 0.30323383 -0.24924283 -0.032561447 -0.30429408 0.088089846 0.2880676 -0.19062918 0.04213454 -0.1352586 0.1765193 -0.031996876 -0.11298563 0.2569666 0.17943579 0.018266115 0.28003538 -0.33342987 -0.11500225 -0.15911713 -0.17780596 -0.090906814 -0.03319447 -0.07683394 -0.094970696 0.34549552 0.09181112 0.015961265 0.017182304 0.18687244 0.15860711 -0.09744261 -0.13674517 0.33318514 0.0997883 0.13732749 0.035555188 -0.36257496 -0.36303234 0.058992524 -0.13210846 0.014598089 -0.04334348 0.008204944 0.17195173 -0.23498958 0.31994605 -0.43744686 0.04587253 0.04624594 -0.07044899 -0.023415018 -0.025545454 -0.19760272 0.06917834 -0.16049781 -0.23092785 -0.11125223 -0.70487714 -0.03338521 0.05295006 0.32646078 -0.14497072 0.09131056 0.061832435 0.2829636 -0.102867395 -0.11740747 -0.08937692 0.24152626 -0.17239375 -0.11646489 0.23784833 -0.25212684 0.13028398 -0.036880445 -0.3464586 -0.22814189 0.10658805 0.21270642 0.24154231 0.07748606 0.08350184 -0.35231838 0.10352056 0.04835163 -0.043983504 0.24131764 0.37885362 0.075414516 0.05802919 -0.09385212 -0.08754917 -0.21923779 -0.30309713 0.0094725005 0.17830749 0.16223815 -0.2620407 0.36000463 0.049107417 0.25245 0.31529436 0.100939356 -0.09134068 -0.030547308 -0.28534165 0.115748875
169 -0.11496568 -0.070202895 -0.079169914 0.109482236 -0.015017919 0.21962747 -0.08796558 -0.18505596 0.5480174 -0.092108615 -0.4175708 0.29908776 0.21102712 -0.5163553 -0.25699642 0.093310654 -0.042012483 0.11045311 0.11138656 -0.056879602 -0.11458248 0.19619308 -0.060793217 -0.21544555 0.018287208 0.07991806 0.12929478 0.04127604 0.32615408 -0.0545676 -0.17080392 0.08017361 0.045578036 0.27979168 -0.023860872 -0.06919229 -0.14666672 0.014871244 -0.15097709 -0.18587811 -0.11233732 -0.16222386 0.26947066 -0.012001744 -0.10638208 -0.07033139 -0.02167285 -0.0529077 0.42526257 -0.0795411 -0.10724363 0.050384693 -0.26052582 0.07802377 0.26761222 -0.28308532 -0.044737305 -0.4385277 -0.056904193 -0.32550538 -0.14177187 -0.08978642 -0.05705423 -0.10176756 -0.25680932 0.1951755 -0.13558593 -0.16171516 -0.0048487983 -0.08082583 0.18097493 -0.30385077 -0.18780209 -0.18560863 0.04360984 0.28815892 -0.0471627 0.16035265 -0.19650051 0.32294863 0.08840188 -0.19561508 0.14068533 0.21727629 -0.3154657 0.14979559 0.3080693 -0.057765275 -0.19748826 -0.020214614 -0.08250192 0.036753748 -0.045670096 0.22806166 -0.23158404 -0.056339793 0.113644555 0.15811487 -0.1272584 0.043791335 0.17485651 -0.058671873 -0.093944125 -0.03849869 0.025594266 0.14681819 -0.25558606 0.10493304 0.8269057 -0.0041488083 0.002168232 0.15538944 0.15829283 0.17679688 0.29955265 -0.060494535 0.12490324 0.2002094 -0.39142346 -0.2025154 0.03048801 0.108940125 -0.14620717 0.17928292 -0.3040411 -0.2642714 0.1990503 0.14183842
291 -0.026211066 -0.20104046 0.15997657 0.21111777 0.3141733 0.05228721 -0.09585155 -0.023181269 0.043445762 0.13961624 -0.4104924 0.13015047 0.13518792 -0.008743631 0.021858258 0.3731759 -0.010924122 -0.31677988 -0.24693626 0.16150825 0.13007605 0.016186828 0.023177542 0.036307216 0.100631505 -0.028180256 0.022317236 -0.14018233 0.12187416 -0.21530713 0.04220805 0.2844587 -0.033470854 0.24129212 -0.04770954 -0.1095127 0.015885348 -0.40926918 -0.24871254 0.21112171 0.1269487 -0.28454095 -0.0059728264 0.049171098 0.37972963 -0.099145286 0.059465535 -0.18347152 0.0014027895 -0.17087582 0.08288504 0.3934721 0.38968974 -0.022876535 0.051486276 0.035095595 0.29761916 -0.11418292 0.067545675 -0.39706138 -0.004980912 0.08618138 0.06427415 0.18186012 0.21965778 0.13460901 0.25900874 0.120535865 -0.1700528 -0.36506006 0.0555523 -0.23573305 -0.16304077 0.13529602 -0.056215793 0.09082978 -0.10224829 0.19407181 -0.5852194 0.06444564 0.26724136 0.06558912 -0.06445624 0.064723015 -0.29619685 0.10258206 0.2110744 -0.029726563 0.010214397 -0.028163683 -0.028762555 0.25335547 0.4820272 -0.029131513 0.08228832 -0.024858996 -0.27296844 0.020525375 -0.05924439 0.04000946 0.030924179 -0.01874215 0.18222609 -0.1303566 0.10323883 -0.049300313 0.0055649653 -0.016937489 -0.074122265 -0.36247864 0.3039076 -0.0388847 0.3143744 0.018586611 -0.2469193 0.32897747 -0.090923004 0.18165928 0.070942454 -0.08075135 -0.041214883 0.21727815 0.054333396 0.200409 -0.053561047 0.008303952 0.1714665 -0.06251096
9 -0.05536757 -0.099666655 0.0052508083 0.011913281 -0.10524903 0.23968136 -0.0057609235 -0.2059217 -0.11428788 -0.2775566 -0.32595754 0.29190135 0.21893509 0.13359027 0.62096345 0.11247442 -0.20873149 0.051321466 0.10965569 -0.068824135 -0.0060050176 -0.21141024 -0.24602237 -0.15354212 -0.23838288 0.122072086 0.030645797 -0.57940173 0.2266903 -0.18223418 -0.023145935 -0.03749548 0.14655887 -0.054686233 0.19653475 0.11683232 0.13939537 -0.08550649 0.049435064 0.06859955 0.07131257 -0.24225628 0.19667807 0.2273438 0.04016144 -0.11386646 -0.31991324 -0.098443896 0.15998554 0.20777373 0.07113484 -0.13827534 0.10575632 0.20101832 -0.006355843 -0.0051629297 0.10559057 -0.080359556 -0.1507101 -0.15230834 -0.2045335 0.28050846 -0.18053325 0.0050649513 -0.24402815 0.2301264 0.14059754 -0.20291424 0.2571806 0.16281465 -0.17061979 -0.17591704 -0.23196352 -0.24854377 0.21950336 -0.0100720925 0.14024223 0.2234751 -0.31304538 -0.114909984 -0.052415438 0.08352033 0.35237476 -0.09295205 0.27573016 0.18793674 -0.039855767 0.08361102 0.3152897 0.024633119 -0.29413173 0.24786173 -0.06444922 0.28677726 0.009466263 -0.26208153 0.4584562 -0.015630193 -0.019255448 -0.2369007 0.028698215 0.20465504 -0.18360308 -0.11597523 -0.043223318 0.12130827 0.37776244 -0.2979208 0.2698872 -0.31637254 0.26609102 -0.29432312 0.04617036 0.10333767 -0.27886146 -0.093179956 -0.0027375333 0.2386277 -0.058645926 -0.21474202 0.31195256 0.052773375 0.08734536 -0.007998144 -0.3774837 0.017314835 0.06923608 0.033367846
203 0.026027342 -0.09376137 -0.08969434 0.15032329 0.34859923 -0.21061738 -0.12966572 0.08094326 -0.02088208 -0.052347906 -0.45318893 -0.109728836 0.0765162 -0.16092654 -0.12381627 0.0704271 0.19709602 -0.16790497 0.27137184 0.0950784 -0.04854322 0.012947777 -0.02255115 0.15385406 -0.22870398 0.37536803 0.14433317 -0.13507642 -0.031775355 -0.4238475 0.14074202 0.1132212 0.108298756 0.32197002 -0.21032308 0.29491735 0.060138546 0.044033907 -0.20967712 0.17475514 -0.2599797 0.09654368 -0.24756703 0.08970931 0.11389571 0.05066405 -0.32944795 -0.090388164 0.34357172 -0.03233037 0.06568788 -0.1378718 0.06028372 0.35151652 -0.3077026 0.1656502 0.21901087 -0.1250489 -0.10594899 0.07423985 0.13542075 -0.049401533 0.18901744 0.28484938 -0.16351669 -0.010673067 -0.023002742 -0.12271721 -0.14162795 -0.30263066 0.028676955 -0.029559866 -0.3904677 -0.19631703 0.1383773 0.29518303 -0.17868796 0.22923516 -0.34487277 0.30540192 0.00989109 0.50002223 0.05211003 0.23280421 -0.07966627 0.15829813 0.099579185 -0.15412009 0.10566526 0.170711 0.26931748 0.12230265 0.38507506 -0.12259671 -0.29324293 0.08667501 -0.16319402 0.011296824 -0.051698722 -0.0018595497 -0.23658897 -0.09677091 -0.39162827 -0.15118809 -0.31684327 0.14518137 0.17629805 -0.093294434 -0.22562894 0.02091761 0.16271321 0.28121462 -0.22648574 -0.14619766 -0.035200935 -0.18315996 -0.2023696 -0.24601857 -0.21503206 -0.29282138 -0.016339988 0.09882342 -0.2632567 0.21379663 -0.20897041 0.04958021 0.027160732 -0.119320214
292 -0.11891053 -0.20480745 -0.22311714 -0.07553898 0.04932677 -0.06797494 0.2691237 0.10460212 -0.036401775 -0.039235923 -0.3324476 -0.07159923 -0.097048044 -0.044544395 0.40378803 0.1426506 0.11366292 -0.33714685 -0.052574772 -0.1897899 -0.034618407 0.29634982 -0.08621554 0.04056253 -0.081316166 0.023132576 -0.15087955 0.17255381 0.20485003 0.11806211 0.099527776 -0.11633117 0.25131628 0.008835704 -0.00072119304 0.060662154 0.31284052 -0.5010728 -0.25921708 -0.13932595 0.18795104 -0.16298173 -0.040584452 -0.008387384 0.12440404 -0.026602877 0.029202357 -0.25451216 0.09321683 -0.031017192 -0.20709208 0.18200076 0.20612149 -0.3986133 -0.27007863 -0.15291981 0.031435713 0.004636376 -0.15940589 0.01448312 0.18901333 0.032554913 0.026022779 0.22252056 -0.05088568 0.27048388 0.25860944 0.10198602 -0.123069994 -0.35974124 0.23670231 -0.21864116 -0.35794544 -0.019013852 0.10308906 0.11115732 -0.10878469 -0.09088183 -0.004306251 0.38598204 0.07076598 0.025561031 -0.24888036 0.060827438 -0.15511937 0.29583287 0.3288268 0.103377044 0.23689298 0.12237765 -0.022347491 0.02332092 0.35639527 -0.16726409 -0.23254482 -0.19045371 -0.10399456 -0.47917423 -0.05138014 -0.2624524 -0.2450322 -0.05828752 0.2867025 0.021685798 0.16202652 -0.24026778 -0.1753791 -0.2015754 0.14449127 -0.15822603 -0.20655248 -0.044045966 0.19224489 -0.024485148 -0.3906476 -0.15938945 -0.009986369 0.1839657 -0.25715938 0.14482929 0.14860173 0.22167608 -0.0067499974 0.14152418 -0.24415873 0.17981078 0.029465524 0.062269572
209 0.014406318 0.103273325 0.1587795 0.29862195 -0.14005879 -0.008925406 -0.43434966 -0.100883745 0.11139015 0.15008427 -0.05355367 -0.09624341 -0.12048496 -0.47659406 0.3647442 0.17522104 -0.28362176 -0.312982 -0.27889383 -0.021876588 -0.24002352 -0.07679789 0.08308463 -0.03243415 0.12740621 -0.19430736 -0.51540077 -0.02254291 0.07776172 -0.11916987 0.14123003 -0.6018129 -0.16045217 0.07799447 -0.12996839 0.31222308 0.13932857 -0.26862162 -0.23706593 0.24590874 -0.051894605 -0.020369733 -0.04702844 0.02670147 0.048711814 0.04386739 -0.03284035 -0.10549422 0.17683646 -0.31780264 0.18367814 -0.13280678 -0.19849454 0.3549812 0.44272512 -0.033402473 0.130045 0.05496655 0.063638866 0.06474448 0.09817624 0.05072038 0.22289397 -0.04874211 -0.36059803 -0.20783333 -0.044850893 -0.0960152 0.10143844 0.1403814 0.05772626 -0.15494795 -0.11110953 -0.2977448 0.30895075 -0.11810561 -0.2576843 0.16664752 -0.28903723 0.13894138 -0.17877121 0.38831207 0.03960135 0.42446956 -0.2983289 0.07150068 -0.39504263 0.30181286 0.17039613 0.16036703 0.19067368 0.09241581 0.15646401 0.10175773 0.29111877 0.16261524 -0.1615894 -0.08557038 -0.070746355 -0.061169345 -0.29510432 0.0038378602 0.15067078 0.08814721 0.22076862 -0.3340976 -0.06261851 0.0055492735 0.15149619 0.03951277 0.12808993 -0.20871547 -0.088521875 0.10069823 0.022022005 -0.22488014 -0.009625042 -0.09623779 -0.005061932 -0.21595064 -0.110092044 -0.023741856 -0.25861755 -0.27860892 0.23405892 -0.2588049 0.020136094 -0.23783524
178 -0.007337568 0.012379756 -0.09020593 0.5362708 -0.09119108 -0.31274006 -0.13703926 -0.25324595 0.09877013 0.26279548 -0.26975507 0.015323355 0.20174733 0.025392907 0.057301477 -0.038493138 -0.02916965 0.2559556 -0.18114683 0.18120736 -0.3765246 0.02804316 -0.30158558 0.04402452 -0.24963073 -0.09774899 -0.047932744 -0.16757335 0.06354232 -0.19371083 0.124082096 0.16741809 -0.029511558 0.094559275 -0.0072785136 0.042027075 0.11843875 -0.18518287 -0.06729032 0.03227807 -0.012830163 -0.43574154 0.013518312 0.23793513 0.2800339 0.34000283 0.19276345 -0.014586667 0.035738923 0.5087767 -0.0056267045 0.15637499 0.12238285 -0.012518925 0.07339647 0.316595 -0.063490234 -0.26282346 0.045806557 0.112553045 -0.06782961 0.1438869 -0.15998836 -0.2064882 -0.044182584 0.29353163 0.22254851 -0.09404855 -0.19635794 -0.25256822 -0.3670818 0.032942664 0.06800616 -0.21666694 0.45845082 0.21126236 -0.6431247 0.008007956 -0.10559003 0.32871073 0.2072521 0.06776404 -0.07552554 -0.11989757 -0.22204937 0.0762844 0.17754738 0.033932604 0.06751736 -0.1500099 -0.104736716 0.36899522 0.31735098 -0.037652586 -0.029343005 -0.071046315 0.014083076 -0.1705174 -0.049526975 -0.14874601 -0.14860702 -0.04483171 0.01515447 -0.22900155 0.21181048 0.04340042 -0.06783274 0.17343034 -0.11180074 -0.21381225 0.15885009 -0.2373774 -0.07203651 0.1505562 0.21445653 0.069258764 0.15471499 0.2566661 0.030494515 -0.03635406 -0.12205772 -0.2544255 0.2935249 -0.20889609 -0.077804536 -0.02274089 -0.02985041 0.15694691
251 -0.14390601 0.46953952 -0.16189471 -0.08645709 -0.024091844 -0.17983438 0.1284287 -0.07492855 0.07206889 -0.022827597 -0.32600793 0.15002754 -0.019777186 -0.21403672 -0.033705555 -0.026687091 -0.38783738 -0.4651165 -0.06276602 -0.005724806 -0.0901688 0.13524264 -0.11066478 0.20221236 -0.2225194 -0.25080594 -0.14116456 0.053595595 -0.0073256367 0.119537696 0.27809146 0.1204651 -0.055356022 -0.10172195 0.12485311 -0.026083075 0.252962 -0.080781385 -0.12041408 -0.12570798 -0.15253997 -0.17264359 0.114252895 0.366923 0.11976736 0.058603894 0.012767425 0.027538642 0.37357593 0.005682925 -0.1477147 0.22519986 -0.00832 0.108097695 0.10614389 -0.108265124 0.07845015 -0.1516149 0.03632718 0.41156876 -0.12844099 0.012111654 0.2210651 0.049295716 -0.11554272 0.33293012 -0.1353096 -0.026915573 0.11815779 0.022125497 0.1131463 0.3748984 0.16604209 0.3821326 0.36325184 0.03740668 -0.376861 -0.17622487 -0.15695266 0.5539025 0.1809806 -0.24256115 -0.10827522 0.021565897 -0.31961438 0.13327764 -0.020022133 -0.40621522 0.19511765 0.0844482 0.27181002 0.03002444 0.32672653 -0.1795534 -0.044498924 0.057328925 -0.3856852 -0.32744154 0.07473046 0.296864 -0.0073905378 0.17906426 0.022154229 -0.0058301883 0.32055843 -0.08737866 0.2739296 0.50752085 0.26223132 -0.2231389 -0.05824586 -0.14440721 -0.06063671 0.061937094 -0.0349626 -0.098125815 -0.049164627 -0.09675608 0.14584176 -0.20142202 0.14698681 0.43102357 0.012422668 0.18082489 -0.2630143 -0.067048125 -0.029862797 0.3347454
201 0.032956544 -0.12602374 0.12747873 0.116174474 -0.078567125 -0.11888708 -0.22101456 -0.32747695 -0.15339014 0.11706478 -0.09731611 -0.028084872 -0.15203448 0.2683068 -0.058008056 -0.040072896 -0.4044157 -0.4190923 -0.18587877 -0.1096092 -0.14258596 0.30944568 -0.24856764 -0.10824283 -0.232643 -0.08048438 0.16592549 -0.30960545 0.06269076 -0.03394624 -0.15911518 -0.12825386 -0.3636125 0.053323038 -0.012118213 0.18893081 0.3836821 -0.27822116 0.08787386 -0.022246392 -0.38153544 0.04551863 -0.17564912 0.32493314 -0.02162739 0.13934042 -0.06819756 0.10506566 0.19346052 0.2361564 0.4061774 0.1971762 -0.3281142 0.060200967 0.10695586 -0.18773124 0.42870858 -0.10618872 0.055457592 -0.047268294 -0.16216588 0.0043177917 0.43238378 -0.30015862 -0.2833349 0.14265375 0.25605887 -0.08515112 -0.1396014 -0.2140833 -0.15023462 0.09173363 0.20439757 -0.12975076 0.27731073 -0.16269809 -0.5179532 0.13955005 0.024554111 0.2366092 0.023962038 0.046025023 0.25041637 -0.044963792 -0.108842395 0.17858443 0.021498272 0.21784152 -0.020617563 0.14157599 0.0378952 0.30263308 0.0387277 -0.19974509 -0.20410948 -0.017500015 -0.26342425 0.043248635 -0.215276 -0.009254642 -0.16236979 -0.030912144 -0.3444969 0.0009764608 0.2781035 0.09311379 -0.19282459 0.31287527 -0.11446188 -0.11510638 0.17243432 -0.09277303 0.008585575 0.017701102 -0.2706702 0.039884627 0.21986905 0.13651337 0.013704772 -0.008169033 -0.058975756 -0.2553529 -0.17109904 -0.08534035 0.00702988 0.13097118 -0.25320563 0.10757779
7 0.08401894 -0.41267526 0.11207647 0.18301581 -0.43954518 -0.061237648 -0.12308063 0.015349506 -0.06880613 0.25057045 -0.43404153 -0.048355304 0.19269006 -0.20772544 0.075516716 0.09876596 -0.25532833 0.31719524 -0.18336585 0.07831771 -0.07575783 0.21133393 0.17439713 -0.14898403 -0.26696754 0.06405656 -0.1387228 -0.31665704 0.24335119 -0.08175396 0.03463833 0.25091526 -0.13613628 0.28553745 -0.030106837 0.096524775 0.08265165 -0.19612102 -0.29741216 0.30454046 -0.07296882 -0.17166029 0.019987024 -0.021064082 -0.04278797 -0.028513664 -0.46395445 -0.13834508 0.013107755 0.13369712 0.21641344 -0.023490157 -0.2051316 -0.11104422 0.14862566 -0.18045314 -0.15772778 0.012652749 -0.054270133 -0.4491806 0.020732157 0.19643717 0.058025878 0.13510768 0.16941705 0.050900698 -0.13146095 -0.6241732 -0.15164569 -0.02366452 0.002003509 0.007278525 -0.2525572 -0.041633986 0.22252198 0.09488764 0.024605768 -0.020345427 0.028740844 0.27116644 -0.028529048 -0.022265386 -0.18566857 0.2702289 -0.09392461 0.3253438 0.18485941 -0.006956204 0.046836093 -0.021207847 -0.22295672 -0.056350842 -0.16765426 0.10950861 -0.08699964 0.12759158 0.10946927 0.40183762 0.10886882 -0.33331853 0.37495512 -0.06212074 0.2850599 -0.48775983 -0.22985852 0.189533 0.07404033 0.056153502 0.07694705 -0.16354106 -0.03844196 0.18725216 -0.17302763 -0.12435319 -0.02326089 -0.37307504 0.14443077 0.06603439 -0.056196354 -0.24056214 0.23752573 0.43616053 -0.071522504 0.0107946955 -0.24839292 0.12161534 0.53447133 0.11301764
127 0.29117075 0.11894565 -0.030205926 0.09559264 0.22197585 0.001348825 -0.08041914 -0.3363041 -0.009933499 0.0840293 0.21026054 -0.17564471 0.09063511 -0.011570626 0.10648335 0.08994584 -0.1166074 -0.15469234 -0.49782628 0.16613328 -0.09812954 0.25063896 -0.15190616 0.009337503 -0.3901297 -0.057433758 0.03693402 -0.10801102 0.066119805 0.15360878 -0.08189843 -0.006906689 -0.23577642 -0.091051154 -0.006666445 0.2061855 -0.3393902 -0.15964982 -0.29646313 0.2451046 -0.23472181 0.22258085 -0.13497089 0.335181 -0.03281178 0.27271023 -0.26370656 0.24815707 0.14308624 -0.120642945 0.21518563 0.12821682 -0.12232149 0.34517854 -0.014605774 -0.1764766 0.47005948 -0.14520644 -0.0105653005 -0.41158423 -0.046274967 -0.033466406 0.0689745 -0.108123966 0.2794848 -0.108441524 0.02884871 0.17867862 0.11832465 -0.41263628 -0.32961124 0.3877689 -0.024533806 0.19540411 0.08429252 -0.06118035 -0.3196229 0.008693841 -0.016235573 0.48871145 0.17005154 0.02456241 0.15730797 0.033641674 -0.072677895 -0.16165861 0.09177038 0.42251834 0.29947317 0.67656124 0.034542244 0.4460911 -0.17291074 -0.14523348 -0.23197635 -0.046776555 -0.11702122 -0.16288039 0.07643057 -0.09403318 -0.205605 -0.2985297 -0.19616374 0.22829087 -0.16621393 0.003628384 -0.31374523 0.23704043 0.46269456 -0.13832377 -0.042174857 0.035143558 0.048804913 -0.14777043 -0.13847104 0.010599388 -0.036256384 0.114998735 -0.02337487 -0.2598186 -0.10150853 0.08089464 0.05521283 0.06518363 -0.40846282 0.2858405 0.23854712 0.11717206
78 -0.12700185 -0.18352467 -0.18359622 0.25185463 0.19197233 -0.2000312 -0.08488342 0.22847596 0.067905575 -0.13156323 -0.19548684 -0.07739871 9.298494e-05 -0.2094657 -0.02205499 0.071455374 0.14213163 0.26363787 -0.4100316 0.10807787 0.18451428 0.34685218 -0.02502528 -0.24582884 0.08070943 0.09451522 -0.017323412 -0.052360244 0.19179864 -0.35246867 0.28825274 -0.028176798 -0.3069039 0.55719703 -0.28444242 0.112007804 -0.040765252 -0.4330341 0.2431945 0.31111172 0.15057425 0.0168092 -0.12024359 0.16606462 0.0053900285 -0.041157357 0.13015796 0.238632 0.25626385 -0.05580568 -0.07522047 0.083046384 0.05581489 -0.02692112 -0.17927866 0.16873054 0.20781484 0.05366828 -0.04894621 -0.17727081 0.04975481 0.11339713 0.15850322 0.14296877 -0.008304233 0.3099416 0.022545686 0.3041895 -0.25288814 8.9442285e-05 -0.11065036 0.28453282 -0.21897545 -0.038757343 0.44551328 0.4494369 0.09715365 -0.10870149 -0.324699 0.29194987 0.29931217 0.36029798 0.2932045 0.09830086 -0.0701944 0.16155156 0.2832976 0.0768926 -0.1827903 -0.0076562446 0.18628617 -0.018634813 0.25434518 0.018082786 -0.105667025 0.44235048 0.12380989 -0.27681053 -0.008982724 0.13396826 -0.3546806 -0.0086642625 0.1427733 0.0009823396 0.139724 0.07120426 0.17176628 -0.03066544 0.112050995 -0.18354566 -0.029887332 -0.018089479 0.14665022 0.20347917 -0.16367175 0.046645276 -0.049270067 -0.18698992 -0.02809353 -0.25101924 -0.20727174 0.107407294 -0.19899699 0.23609242 -0.02926652 0.19194838 0.19529639 -0.08651523
167 -0.13660006 -0.2925564 -0.114308685 0.23549013 0.20998257 -0.11000762 0.19738369 -0.05004653 -0.050433468 -0.2042156 -0.10096944 -0.026019167 0.14856978 -0.12592708 0.3343969 0.27759284 -0.2651927 -0.4317155 0.017984267 0.14699998 0.03444933 0.11416013 -0.04140765 -0.39216396 0.028961442 -0.07107207 0.108723454 0.17941886 0.1424287 -0.043052018 0.10094035 0.03454833 0.21068777 -0.057802003 0.11565711 0.13583717 -0.0102383 0.06248153 -0.027236763 -0.07680162 0.08742902 -0.31309435 -0.07044724 0.056403402 -0.09139835 -0.042164247 -0.22083484 0.05976971 0.48721042 -0.540877 0.18496014 0.053086337 0.08376611 0.04021716 0.054424085 -0.20208557 -0.13100092 -0.09993559 -0.015726496 -0.11872023 0.2879123 -0.118651904 -0.22400229 0.16489352 0.009507202 0.5421099 -0.07305086 -0.18018338 0.03720605 -0.5560303 0.23203625 0.019006003 -0.11905581 0.13377951 0.17364992 0.24966136 -0.19952987 -0.548743 -0.40088063 -0.013872789 -0.16076307 -0.06745664 -0.274854 0.13377272 -0.2522188 0.42867076 0.57923377 0.35357404 0.1348749 0.09527745 0.1694016 0.23270781 0.36052328 0.1465394 0.29422283 -0.19572821 -0.21591668 -0.33060852 -0.008169429 -0.079618745 -0.007298543 -0.3641085 0.024787577 -0.108712606 0.046239406 0.008604325 0.054320086 -0.2710798 0.054316353 -0.0014116894 -0.24301851 -0.2514302 0.19375409 0.12411388 -0.08709413 0.2597619 -0.10341793 -0.025464157 0.0038177313 -0.00053448806 -0.16731778 -0.18368948 -0.18937118 0.20350376 -0.25760937 0.11671798 0.18112752 0.0028550636
265 -0.2241705 -0.10170041 0.003611962 -0.1629212 -0.11889291 0.032078654 0.12313499 -0.20195039 0.14262195 0.12959443 -0.2993466 0.30389306 0.19906457 -0.18491499 0.23855545 0.08838109 0.0034450926 -0.042892266 0.060343627 0.09251295 0.024107907 0.2171604 -0.11560155 -0.3812317 0.05211812 0.10122467 -0.12421382 0.13546626 0.13527271 -0.31145734 0.119434856 -0.07146276 -0.18964326 0.0562202 0.16954783 0.011458076 0.060809575 -0.3709662 -0.16930827 -0.07112866 -0.23404637 -0.1406062 0.12572525 -0.29279625 -0.24168001 0.207553 -0.26834488 -0.2440227 -0.3414165 -0.22713445 0.109623425 0.20752616 0.061981283 0.027806457 -0.104232654 -0.057739083 -0.12689093 -0.33115047 0.03365565 -0.38312623 -0.22137691 -0.0009539815 0.18626614 -0.070496775 0.1317867 0.2148738 0.25935888 0.04906879 0.16578412 -0.06452396 0.19600935 -0.2601289 -0.26397762 0.1706147 0.084708 0.13979188 -0.25342914 -0.17024453 -0.3054391 0.0744871 0.35435095 -0.27261025 -0.4328263 0.20692925 0.07405432 0.3410274 -0.019104332 -0.016455045 -0.02858975 -0.025738804 0.17101221 0.026642403 0.20439154 -0.27966493 -0.2223896 -0.07597452 0.302879 -0.08808429 0.082064554 -0.4177953 -0.08794287 -0.11584988 0.12324226 0.20431855 -0.030227516 0.08873611 -0.12891689 0.078642435 0.17477447 -0.21111791 0.24035956 0.009930585 -0.20197104 0.0677587 0.22274624 -0.20226839 0.019401873 0.09606533 -0.05430983 -0.055012975 -0.042613126 0.2647435 0.06772436 -0.25779304 0.023268308 -0.053666014 0.14845936 -0.14163609
73 -0.031858616 -0.0070659015 -0.030060904 0.3253753 0.0093682995 0.094032235 0.15445037 0.13155921 0.27643883 0.29788357 0.27141798 0.07515834 -0.030300401 0.021398123 0.039274007 0.01655043 -0.3097703 -0.32378218 -0.15079461 -0.14071131 -0.2678964 0.09883328 -0.07181946 -0.22928575 -0.26403403 -0.1228872 -0.013977323 0.066635475 0.33539766 0.14715347 -0.08759862 -0.112564735 -0.15942428 0.34163076 0.5168224 0.14333063 0.20591095 -0.26042137 -0.4347662 -0.16262016 -0.058365434 -0.1208962 -0.037660386 -0.09513884 0.13165712 0.13624363 -0.067571096 0.018009093 0.08378584 0.038244676 0.08347448 0.027320517 0.15564428 0.21696569 -0.24524441 -0.1525559 0.12875286 0.18462476 -0.00034575563 0.095048316 -0.30068037 0.23090237 -0.072500594 -0.06598016 0.37052852 0.04142643 0.33339283 0.037257288 -0.19283833 -0.008893226 -0.12412088 -0.4866669 -0.26606032 0.2524862 0.021934036 -0.1286713 -0.25651437 0.021099683 -0.033447057 0.06332571 0.03702085 0.020307032 -0.20894179 0.100734435 -0.20138997 0.49652958 -0.17786825 -0.2693757 -0.24409775 0.43550605 0.23003945 0.07783961 0.018469399 -0.03855755 -0.015608294 0.32083187 0.030686306 -0.09252136 -0.07296125 0.20592473 -0.09499563 0.35036486 -0.112307504 -0.1895567 -0.08406649 0.10120167 0.030430982 0.07494471 0.071341336 -0.11329834 0.21058427 -0.41538975 0.39387515 0.030015789 -0.20355047 -0.058567867 -0.08656176 0.40550867 -0.13182175 -0.22311345 -0.23044759 0.1173967 -0.037617087 -0.40755102 -0.022121094 0.30255744 0.05260292 0.07390661
264 0.2749464 0.25102612 -0.19417626 0.069533885 -0.11564998 -0.14025478 -0.20931777 0.07311809 -0.14084427 0.23806207 -0.1687544 0.13382447 -0.013560787 0.051297426 0.45910847 0.15886645 -0.06941511 -0.017891705 -0.3740136 -0.1774015 -0.13366689 0.19473322 0.05922696 -0.23371899 -0.01863082 0.13851146 -0.16045173 -0.50898343 -0.0820267 0.01921012 0.019873053 -0.016320514 -0.03041212 -0.011697474 0.025202924 0.0010967522 0.34525758 0.13987212 0.10754349 -0.08558702 0.09371166 -0.18241262 0.32129192 0.18169728 0.17451178 0.39170453 -0.15301101 0.027379474 -0.006430828 0.09528769 0.1767765 -0.10317972 -0.089530624 -0.36979857 -0.001070106 0.0010687658 -0.037146464 0.1358318 -0.22194093 -0.20670477 -0.23873983 0.14027594 -0.14682592 0.08397727 0.0028982707 0.24483384 0.123822026 0.22062314 0.10646789 0.05022035 -0.10896681 -0.007514012 -0.095712185 0.16888341 0.05772155 0.29566038 -0.34137052 0.17509195 -0.27595758 -0.19818115 0.22553846 0.045105007 0.13925847 -0.02913156 -0.025621148 -0.12389126 0.47371727 0.006005031 -0.12227743 0.3684807 -0.15312801 -0.28945193 0.2818602 0.015338846 -0.22114342 0.35641378 0.058752466 -0.26275423 -0.23835464 -0.20765182 -0.30118954 0.006129398 0.43363777 0.003093283 0.0529364 -0.11587011 -0.16324945 -0.008694869 0.16853027 -0.32360786 -0.24857473 -0.2899578 0.19469151 -0.11440559 -0.26383817 -0.2355387 0.1443668 0.0034067864 -0.105948694 -0.2674027 0.038546037 -0.14365618 -0.009663516 0.27110922 0.030653816 -0.14718007 0.033143893 -0.18997289
248 0.12431113 0.13067767 -0.011328507 0.5153697 -0.17510991 0.06327314 -0.14713667 -0.004382921 -0.1841149 0.21599267 -0.21435536 -0.06268406 0.040591333 0.1317422 0.10356779 -0.09457552 -0.11466232 -0.228446 -0.050879877 -0.27044597 0.15873472 0.5139068 -0.3811543 0.02850398 -0.020012697 0.08682377 0.25364956 0.07862658 0.30973938 -0.08855352 -0.4742464 0.11053113 -0.14680117 -0.109529644 0.016415067 0.14305338 0.26705402 -0.0067345067 0.15909104 0.20813979 -0.047682635 -0.038767435 -0.030670036 0.26539457 0.10096672 0.01659736 -0.30016875 0.3297523 -0.07503072 0.10491044 0.18137379 -0.20921768 -0.3092544 0.13969588 0.16048026 -0.09102056 0.10077949 -0.39975592 0.04351215 -0.07383546 -0.17715515 0.43964127 -0.00023900741 -0.18921387 -0.108407885 0.0066836644 0.106724404 -0.30339894 0.023049392 -0.093763344 -0.056720264 0.15164427 0.29026648 -0.023275748 0.38323778 0.21870974 -0.48403352 0.15822062 0.066339456 0.28989702 0.15913245 0.20351198 0.25865227 0.17156565 -0.04813336 -0.18008173 0.34794715 0.17961332 -0.11130736 0.09855119 0.024557885 0.10389069 -0.005296091 -0.19361807 0.30213973 -0.36464548 -0.112194 -0.33904818 -0.07019114 0.058809374 -0.3201338 -0.20472382 -0.0055992953 0.088006616 0.06336029 0.2692666 -0.0919701 0.20393693 -0.042936444 -0.13726036 0.07971081 -0.26496875 -0.038893625 0.060845375 -0.16205224 0.014611521 0.040585257 0.14201456 0.05115823 -0.08377013 -0.23854482 -0.044106722 0.06230584 -0.48233202 -0.22473703 -0.13952883 0.04844004 0.028490657
235 0.08063955 0.27775365 0.03161837 0.21218948 -0.028275168 0.1419708 -0.090564564 -0.051379982 -0.17082947 0.01773206 -0.060303673 -0.14627455 -0.09568241 -0.4175858 0.15943098 -0.19111237 -0.024930434 -0.074760586 -0.32769185 0.25838518 -0.01891074 0.20743035 -0.07766218 -0.26470047 -0.6033825 -0.3699154 -0.0975893 -0.08971657 0.15442431 -0.46057084 0.3016827 -0.03853227 0.41157687 0.22771354 0.13364597 0.28910944 -0.23751497 -0.1549196 0.1260482 -0.068189815 0.055922586 -0.26092818 0.029371299 0.39239097 -0.25695497 -0.16702764 -0.0726732 -0.17731223 0.34026337 -0.35759196 -0.12621874 -0.0848083 0.11928614 -0.2729746 -0.33047366 0.12019896 -0.042320352 -0.17177717 0.29168627 -0.06554713 0.13816427 0.108285934 -0.38603115 -0.09158272 0.3782482 0.16550711 -0.052426927 -0.030133668 -0.28254917 -0.42369294 0.12842083 -0.20768563 -0.07948252 0.26553175 0.43757662 -0.16667561 -0.42910928 0.07859293 -0.07680969 0.27850473 0.22733788 -0.18712138 -0.0323843 -0.041558187 -0.03770265 0.5647088 0.18323585 -0.07959984 0.07387983 -0.073303476 -0.20252283 0.29105866 -0.011918143 -0.1847153 0.15730725 -0.075932235 -0.6859469 0.3270768 0.06397212 -0.13398556 -0.016309476 0.22042131 -0.15682478 0.08250081 -0.093547955 -0.044246532 0.017453676 -0.29031295 -0.018174453 0.2155205 0.011811307 -0.20716877 0.055647086 0.06058076 0.2248847 0.09500218 0.11390219 -0.12817259 -0.2932282 0.15800323 -0.01830944 -0.052817505 -0.010569343 0.10415184 -0.098593846 0.007705917 -0.14065233 0.01241259
55 0.07592174 -0.064224415 -0.2179603 0.19761778 -0.12276303 -0.25217733 -0.074646346 -0.046417423 -0.20419149 0.09035138 -0.41547942 0.10067147 -0.236505 -0.11057933 0.18053918 0.1521366 0.19530791 -0.3251385 -0.4483269 0.0486915 0.42489755 -0.17171344 -0.0701782 -0.008526897 0.098166324 0.2509424 -0.21624212 -0.030947512 0.07992161 -0.14645736 0.10442615 -0.07907427 0.52649295 0.35935354 -0.17182277 -0.12860262 0.25426275 -0.05768716 -0.26777044 0.047401976 0.014636103 -0.42782182 -0.24561468 -0.082228854 0.109177336 0.10552362 0.039458163 -0.19161811 -0.18807936 -0.13949981 0.42808464 0.12108315 0.15845329 0.009268295 0.012045757 0.20154396 0.2569712 -0.12952648 0.21043995 0.2977766 -0.09174545 -0.046835147 0.19683735 -0.038609542 0.10529863 0.12304734 0.34425223 0.2236653 -0.008652001 -0.10706537 -0.2720397 0.035379115 0.053419597 0.080114275 0.061113264 -0.017523061 -0.3043724 -0.052330017 -0.23798491 0.08210856 0.09845514 0.04704625 0.06376754 -0.08538344 -0.19110866 0.101274095 0.20783639 -0.02486701 0.16975635 0.04917365 -0.28500718 0.15606178 0.30737722 0.046357494 -0.047779217 -0.33511955 0.058619555 -0.17638376 -0.42256665 -0.2767864 -0.15961012 0.030142073 0.044863842 -0.030482758 0.2277693 0.041929983 -0.09870127 -0.033037037 -0.092813 -0.20955688 0.10889545 -0.3027791 0.23756522 0.12516566 -0.5279268 0.33210462 0.025967352 0.17265098 -0.13597609 -0.19075646 -0.3030283 0.070489034 0.15497543 -0.09956634 -0.36639568 -0.20348723 0.13422672 -0.028007915
277 0.2923379 0.4035791 0.019166877 0.1687948 0.15890464 -0.08227955 0.08597642 -0.05383669 -0.2781337 -0.08278886 -0.07787489 0.2781304 0.25203177 -0.15314296 -0.088075615 -0.17478025 -0.37036583 -0.27322802 -0.3113713 -0.0028157693 0.32244262 -0.06870968 0.095834196 -0.2655011 0.28394333 0.44546074 0.1888321 -0.1957171 -0.04709283 -0.015651252 0.27561182 0.11076634 0.03961605 0.035023794 -0.051295742 0.11444055 0.00062529807 -0.12080159 0.04195083 -0.1338045 0.08291937 -0.054227658 0.10898244 0.029040223 -0.0026016005 -0.09701795 -0.046803724 -0.16792667 0.17898892 -0.16727024 0.33161756 0.41594532 -0.041039966 0.15133895 0.1166377 -0.28988028 -0.07052906 0.04192459 0.6206941 0.11568867 0.13703686 -0.022178493 -0.22160989 0.10726415 -0.26497853 -0.11495613 -0.17238465 -0.4111626 -0.28392613 0.019867148 -0.039938707 -0.16508128 -0.044255886 0.32193032 0.16838463 -0.021901056 -0.17703128 0.07153422 -0.2650015 0.2861306 0.30009422 0.2214336 0.037488487 0.28492475 0.070147626 -0.047017705 0.42384356 0.21578443 0.07720788 0.42776045 0.12567957 -0.012260339 0.1451092 -0.054898612 0.31696227 -0.026192674 -0.21288714 -0.15036313 0.27783337 -0.13293432 -0.061409008 -0.28840646 0.0723746 0.35209498 -0.1085975 0.42661613 -0.041756693 -0.14863059 0.20087454 -0.22213145 0.13581678 -0.03540448 -0.055011895 0.1131234 -0.20264977 -0.41035178 -0.0342006 0.36096352 -0.15808567 0.004601527 -0.21863727 -0.16226329 0.33724886 -0.26399738 -0.15913449 0.036060072 -0.15116999 0.057234384
170 0.082778305 -0.0060618063 -0.21226656 0.08084715 -0.2549856 -0.19878277 -0.37319842 -0.3076061 0.13923499 0.014701163 -0.023574041 -0.10379516 0.3355593 -0.56706524 0.11554295 0.0022518071 -0.2044952 0.043110564 0.015671048 0.5475481 -0.15447019 0.45278177 -0.38161224 -0.092451766 -0.6027222 0.028567735 0.00061469217 -0.14644186 0.084471874 -0.24631411 0.21130951 0.03939028 0.07549992 0.47440436 -0.118756264 -0.051042553 -0.26722333 -0.18582042 0.05184802 0.17722747 0.013013025 0.039701987 -0.2446331 0.045473944 0.021772666 -0.068516135 -0.3425163 0.21380019 -0.0012215452 0.13666171 -0.082492895 0.10489318 -0.024025332 0.023423992 -0.35250863 -0.04681903 -0.11527478 0.02018746 -0.14752433 0.0032347082 0.029606702 0.25663576 -0.0061006974 -0.48794788 0.17694725 0.20187232 -0.029414378 -0.005684709 -0.10863577 -0.135038 0.09171112 -0.081939936 -0.08898915 0.5141217 0.19540001 -0.22256126 -0.12521833 0.19200246 -0.44799653 0.13703904 0.17492527 0.2824648 0.027587393 0.05702032 -0.35737854 0.09298552 0.30552977 -0.141102 -0.0686776 -0.33454305 -0.29714495 0.3444341 0.16623794 -0.03532574 -0.20388024 0.17369401 -0.28653476 0.073263004 0.02996771 0.14401884 0.0008214518 0.2579285 -0.03467301 -0.0033777892 -0.04636787 -0.042036135 0.0332523 -0.122374706 0.13797839 0.36246628 0.111184984 -0.40131062 0.050251134 -0.08558573 -0.028964182 0.22461675 0.22968382 0.16401543 0.29964486 0.27487034 0.22134234 -0.13214602 0.083563685 -0.09731315 -0.33903062 -0.0513353 0.14313158 0.015681347
290 -0.065903835 -0.23162858 -0.32515162 0.024109377 0.020699363 -0.057206314 -0.0046890923 0.18163848 -0.08727911 0.052621692 -0.39679977 -0.18828863 0.15933304 -0.1869626 0.22436257 -0.0069134845 -0.18047632 -0.32726246 -0.18128556 -0.07266266 -0.17182928 0.1580689 -0.27582434 0.03787808 0.22689398 0.3613945 -0.1917922 -0.5840063 -0.004817616 -0.004650213 0.047413107 -0.23154278 -0.046777822 -0.06967474 0.022726718 -0.115001075 0.5114205 -0.30756423 0.11334159 -0.028971437 0.04928121 -0.09722549 -0.19582242 0.03210881 -0.11261767 0.09887519 -0.2508355 -0.028995259 0.071408555 -0.0067082727 0.059894975 -0.06668355 -0.14542094 -0.084223546 0.09968399 0.13740878 0.16038804 -0.13811596 0.0135735 -0.31740835 -0.18605751 0.27605823 -0.10989627 0.213737 -0.012982424 0.07028079 0.040577527 -0.067357875 -0.16551937 0.009510376 -0.2023933 -0.106043726 0.19120352 -0.19972701 0.1463606 -0.09293961 -0.011285442 -0.071360946 -0.39378327 -0.31214088 0.19849506 0.08536278 -0.28236356 -0.13158323 -0.027610753 -0.28470176 0.23101905 0.28764188 -0.14802939 0.12349973 -0.06906404 0.17670722 0.29238325 0.22505538 -0.20176436 -0.24858357 0.2734906 -0.21990375 0.08342519 -0.24689445 -0.21501821 0.008997795 -0.0424953 -0.16427363 0.2955843 -0.035033878 0.02899454 0.25061232 0.11521318 -0.52081907 0.12665887 -0.55308855 0.036774404 0.006216999 -0.068819106 0.22087228 0.17154218 0.33298847 -0.21147434 -0.029967725 -0.062491078 0.039216444 -0.32725084 0.07137655 -0.1721325 -0.104545884 0.10221202 -0.26829198
212 0.13329746 -0.015287506 -0.17116387 -0.15012251 -0.2515663 0.26965854 0.34267515 -0.124659516 0.27066708 0.09268877 -0.29970452 -0.2814341 0.12906489 -0.06419482 -0.055258818 -0.035119664 -0.015704881 -0.25475752 0.08402471 -0.29673535 0.18680663 0.0050458363 -0.03661296 -0.25983453 -0.12293681 0.032595407 -0.13787349 0.024026748 -0.078113526 0.17837587 0.3105365 -0.14602296 -0.38199458 -0.13485794 0.19353944 0.5033598 -0.24098246 -0.35761493 -0.5281213 0.24029511 0.08194968 -0.024681333 0.31727576 -0.3502427 0.055936903 0.14874136 -0.30982497 -0.014214544 0.18707727 0.0009460995 0.40791744 0.121161446 0.292378 -0.099202916 -0.20274918 0.115902394 -0.13910128 0.07680453 0.037021257 0.2777969 -0.42653972 0.32463318 -0.036750346 -0.0039351946 0.019327018 0.09771178 0.011739096 -0.078271 0.020222876 0.11318701 -0.18968914 -0.071690604 -0.2884276 0.1631335 0.30878392 0.30224785 -0.20021166 -0.048168946 0.030508755 0.02365862 0.04316814 -0.27735767 0.07771544 0.08662653 -0.08935219 0.20184807 0.35180563 -0.0059675667 0.19801553 0.362892 0.30034673 -0.26991653 0.14745492 0.12416674 -0.23431177 0.2214296 -0.117916554 -0.1208942 0.16204973 0.4516379 -0.23128137 0.026204718 0.11068373 0.030929012 0.19500029 0.251008 -0.040593766 0.28048965 0.1519295 0.29797626 0.03624527 -0.1333728 -0.025114855 -0.3810138 -0.119570926 -0.00394307 -0.03545794 0.3031449 -0.05137555 -0.12030309 -0.18557319 0.05968945 0.05725688 -0.040332273 -0.27525625 0.12512682 0.010421869 0.050479665
11 0.035108253 -0.011407282 0.06480708 0.13056643 -0.13843797 0.009465352 0.35272092 0.07645672 0.18111512 0.28573504 -0.27515063 0.13327758 0.18636213 -0.13321112 -0.046873454 0.22144417 -0.046888832 -0.38942757 -0.34112734 0.093649335 0.4068201 0.3181039 0.11969411 -0.24366839 -0.4717724 -0.0016657173 0.09162755 -0.40822867 0.012471476 -0.17214848 -0.16502124 0.06253793 -0.13270403 0.3897937 -0.41530183 0.1546841 0.06242855 0.07332307 -0.27106008 0.13652542 0.069570094 -0.19416188 0.122543424 0.22241667 0.10331915 0.14528842 0.069285914 0.12200511 0.20528558 0.17063504 -0.015241799 0.14093658 -0.053956967 0.17096913 -0.21108986 -0.09685239 0.1981386 0.20074765 0.14044157 -0.008803742 -0.32477686 0.28623638 0.13902695 0.10662557 -0.053312894 0.14393559 0.12522916 0.35917994 0.07319847 -0.35256258 0.044179004 -0.033192664 -0.22477224 0.13699427 -0.20585285 -0.24669877 -0.18698545 -0.11554509 -0.07914136 -0.00882801 0.11639277 0.033066265 -0.25756988 0.3144867 -0.2903429 0.3477939 0.32057557 -0.15644436 0.29996184 -0.12466421 0.0066748927 0.17372924 0.061763644 -0.3052569 0.16721572 -0.21912476 -0.11627011 0.10379906 0.06652094 -0.16600364 -0.11606411 0.0058060647 0.22530483 0.043486983 -0.010414377 0.099628456 0.15322533 0.08774519 0.61159784 -0.47911227 0.11751294 -0.017092781 -0.25005206 -0.101120315 -0.15322517 0.27238998 0.16294487 -0.09964878 0.08708375 0.10230175 0.11989113 0.22726758 -0.37957484 0.15938298 0.16714467 0.09344073 -0.01656431 -0.049542546
158 0.32451347 -0.18183188 0.18622437 0.18371402 -0.3230703 -0.046668533 0.232814 0.09505451 -0.029412072 -0.0006152993 -0.19924293 0.19995095 -0.014369105 -0.17872961 0.14444745 0.17482746 -0.2468465 -0.049833223 -0.2331941 0.27633134 -0.38698924 0.12995496 -0.1844601 -0.013027362 0.09857765 -0.37853643 -0.033546448 -0.10343596 0.23505226 -0.08142495 0.08428378 0.16761547 0.16455849 0.29537368 0.27160606 -0.21231022 -0.18859302 -0.2263136 -0.16097213 -0.0066113644 0.05739545 0.07850061 -0.05763218 -0.44753644 0.23406714 0.09881867 -0.18186162 -0.545185 -0.0333094 -0.31446728 -0.027410375 0.12432155 0.04397509 0.055728108 0.032939516 -0.01716357 0.29607224 0.1397181 -0.20986187 0.07273541 -0.39714685 0.39388174 0.43573502 0.13520633 0.32956764 -0.12275305 0.29783764 -0.00833462 -0.15989694 -0.23941857 -0.028588772 -0.18935047 -0.11725474 0.042915378 -0.07599993 -0.046306986 -0.12354822 -0.2344523 -0.3134214 0.096429706 0.31957573 -0.16102958 0.14723484 0.05253148 -0.36339 0.1847423 0.3139381 -0.08923362 0.06008114 0.1444736 -0.07906985 -0.04495868 -0.05210578 -0.12861374 0.021826549 0.1541649 0.009930787 -0.0036535228 -0.1980618 -0.1633796 -0.3254536 0.2732216 -0.05028562 -0.009502633 0.16679075 -0.10127495 0.10024127 -0.1166763 0.154274 -0.18097447 0.2487849 -0.19181204 0.052441 0.17141812 -0.021383079 0.028936446 -0.19372481 0.25924906 -0.46906862 -0.0789262 -0.32167158 0.008552077 0.0915409 -0.15477227 -0.115179926 -0.021591661 -0.010053541 -0.030495265
28 0.37997115 0.32419872 -0.007625336 0.097563386 -0.19802666 -0.22184937 0.046225555 0.008790094 -0.45024583 0.24388984 -0.3563125 0.026843257 -0.06390781 -0.12484882 -0.09128329 0.08727699 0.18975641 -0.1369853 -0.37469423 -0.2902357 -0.025215616 0.119947456 0.029572923 0.020013802 -0.06993068 -0.13267015 0.053782564 -0.09561051 0.043267902 0.011788397 -0.1682115 0.049080864 -0.07130106 -0.15880586 0.21566346 0.54688513 0.07161887 -0.15029731 0.02664265 -0.027709633 -0.38517407 0.16859151 0.29795757 0.13041441 0.11320315 -0.10012954 0.04412766 0.3222635 -0.05827671 -0.0450073 -0.09738212 -0.022903113 0.0048432713 0.37660864 0.17913406 -0.2313934 0.363746 -0.24733351 0.060461096 -0.12730668 0.1573452 -0.055175934 -0.015510682 -0.030560443 -0.09137123 -0.20416188 -0.063057944 -0.3453781 0.0316982 -0.36327213 -0.16808943 0.2187195 -0.18651804 0.18036056 -0.08014482 -0.03658389 -0.18567693 0.12501374 -0.20512849 0.7316049 -0.04387921 0.27039483 -0.13037805 0.16376336 -0.28523493 -0.23027392 0.06428009 0.032986443 0.17165752 0.119657174 -0.11679215 0.38807672 0.26262856 0.1659672 -0.08267582 -0.40656102 -0.2282514 -0.3648373 -0.17656267 0.14238861 -0.25186744 -0.3248323 -0.09781643 0.13837524 -0.11584696 0.28088954 -0.2818427 0.43691128 0.026555931 0.050012495 0.40444592 -0.122229464 0.1296249 0.10680586 -0.03201835 -0.052074615 0.18691811 0.055024788 -0.040093265 0.07856436 -0.28871644 0.1988433 -0.11284389 -0.2078005 -0.24846113 -0.03942529 0.120786525 -0.021090014
65 -0.20518142 0.44932038 0.13799725 0.17884417 0.17777255 0.03368237 -0.21823691 0.025707545 0.12904209 0.011576872 -0.13709678 0.24292988 0.03199132 -0.18254912 -0.20470582 -0.019775163 -0.2785782 -0.36443782 0.06968707 0.41729188 -0.02305565 0.09509423 0.2515262 -0.41916534 0.31907263 -0.23198706 -0.21930961 -0.14067918 -0.14998336 0.006255915 -0.044798385 0.2051827 -0.23430434 0.29930288 -0.21524183 0.5330608 0.29507187 -0.26270735 -0.57442963 0.086073786 -0.16739565 0.09834394 -0.51071554 -0.031389095 0.1777513 0.08203437 -0.33686906 0.17887597 0.11958344 0.09519621 -0.06219461 -0.10155424 0.032613855 0.053988453 0.29875547 0.010608679 0.122253835 0.16036887 0.045371443 0.012090825 -0.08481133 0.10015676 0.029837051 0.13209155 -0.09864694 0.23242252 -0.15852633 -0.1748955 -0.13224627 0.099682316 -0.031239409 -0.018795477 -0.23153767 -0.23022759 0.05141864 0.2586466 -0.23586805 0.007820015 -0.3228355 0.41069663 0.19152297 0.16941412 0.14216697 -0.30360258 -0.13112587 0.31832036 0.0019236559 -0.1744493 0.3892041 -0.15090045 -0.1310833 -0.012822329 0.60199285 0.34317306 0.15011662 0.20244887 -0.30011708 -0.057316832 0.09597525 -0.079729415 0.036813222 -0.037915252 -0.2002143 0.10793709 0.07915877 -0.08835315 -0.09127724 -0.110486716 -0.1436435 -0.37381625 0.26567337 -0.007833744 0.3471691 -0.03908204 0.018334765 -0.08553559 -0.23838355 0.27325535 -0.03651901 -0.29107392 0.09982098 0.03766004 -0.22921629 -0.053671643 0.015415809 0.0027109613 0.21367906 0.047068615
222 0.29180777 0.13396579 -0.20865852 0.07238275 -0.20174122 0.1370024 -0.022670662 -0.19778062 0.06841718 0.25720942 -0.33929318 0.20468985 0.059968837 -0.10360486 -0.17978816 0.15447924 -0.14480618 -0.1172448 -0.12445425 0.045597654 -0.1031649 -0.33133444 -0.020864204 -0.2984148 0.0402463 0.15433502 0.1650968 -0.3742152 0.32555103 -0.2598642 0.049118627 -0.01352034 -0.023318397 -0.13024685 -0.020536585 0.60933906 0.08655496 -0.3181964 -0.36395124 0.32266247 0.09166218 0.10567956 -0.24750757 -0.38624468 0.18789841 -0.2767859 -0.100546926 -0.07846618 0.2528699 0.13995484 0.19552524 0.14654332 -0.045980252 0.15761147 0.18359797 0.38728103 -0.19467573 -0.15562564 0.06198574 0.30231437 -0.08671383 -0.20504221 0.17887205 -0.027981019 0.13655068 -0.07961835 0.3260721 -0.20732026 0.16788423 0.1467894 -0.24148536 -0.07726342 -0.28401342 0.09218321 0.03353072 0.2382065 -0.28650263 0.056898803 -0.37619266 -0.0158217 0.27721995 -0.1528162 0.115214065 0.11246285 0.30753765 0.16626012 0.032366853 0.18052354 -0.18960704 0.26799965 0.17425583 -0.10050787 -0.0071323114 -0.19339593 0.22956418 -0.06602087 -0.34602746 -0.23241532 0.1261004 0.34655857 -0.2456018 -0.22039928 0.4567895 -0.00023884 -0.07159438 -0.35245958 -0.20280188 -0.096972756 -0.05658881 0.18674912 -0.07709626 -0.20151761 -0.14534487 -0.07326388 -0.15629719 0.30796108 -0.16914803 0.29605693 -0.14684463 0.0870325 -0.08118075 -0.001520968 -0.11258683 -0.0028111173 -0.07117298 -0.09758889 -0.31190872 -0.11403908
121 -0.035445645 0.17613883 -0.34411943 0.10800291 -0.015898755 -0.32672098 0.19439843 0.24668136 -0.11034383 -0.069144346 -0.5421948 -0.2202766 0.18803783 -0.36305732 -0.20661303 0.065214165 0.07329242 -0.05608466 -0.051630504 0.018197436 0.06463019 0.22666685 0.01464439 0.08174929 -0.12765376 0.19967504 -0.27665582 -0.1340937 0.009151041 -0.009983921 -0.16153698 0.30813113 -0.06258256 0.1511247 -0.01434252 0.21615002 0.1427776 0.39187172 -0.088358715 0.15699263 -0.017925708 -0.023029849 0.18222643 0.0073588933 0.012304251 0.11022633 -0.09040211 0.08616549 0.10577958 0.025007509 0.6060084 -0.11095479 0.0020717802 0.27399606 0.066282 0.12615357 -0.2632341 -0.24228252 -0.09053398 0.087732464 -0.23961733 0.053219598 0.18203866 0.23147035 0.001760614 0.21759741 0.0761442 0.037751738 0.10078722 0.10712363 -0.41851833 0.0113753695 -0.38189644 -0.012582153 0.29934755 -0.2155339 -0.2202996 -0.29208657 -0.3459286 0.10510623 0.039456196 0.13697079 0.23497695 0.09048643 -0.032942828 -0.019770244 0.3869634 -0.07014611 -0.03214587 -0.055550996 -0.4278877 0.35359225 0.24201116 -0.15738976 -0.068475835 0.051046066 -0.13325702 -0.06839299 -0.2808526 0.21201952 -0.11131415 0.0368934 -0.2126141 0.5116288 -0.04556759 -0.045926247 -0.34742925 -0.056203436 -0.1901211 -0.05555486 -0.052492566 -0.08979058 0.0042096623 0.02310188 0.08996962 -0.3844974 -0.28470668 -0.31544232 0.054426108 -0.19615693 -0.12622382 -0.07721364 -0.04959465 0.33167154 -0.10730424 0.13404547 -0.093512736 0.025457432
287 -0.08753643 -0.2575391 0.21633284 -0.044308767 -0.26608938 0.11115188 0.05166436 0.18552646 -0.077977635 0.0122937225 -0.63493985 0.30885422 -0.005476339 -0.21652785 -0.0012288983 0.0722698 -0.25235853 -0.113075785 -0.27819976 0.20908958 0.109720476 0.14042212 -0.099223174 -0.33009794 -0.14042266 0.036075957 -0.2488278 0.12114371 -0.16365358 0.28201106 0.117000245 -0.07133808 0.39861202 -0.18130592 0.056625918 0.3819626 -0.0914242 -0.10650468 0.10032328 -0.39518788 -0.040558584 -0.07532595 -0.14161015 0.013689542 0.25330618 0.020312374 -0.115688205 0.100381464 0.11963495 0.24778691 0.46023032 0.026300061 0.0481023 -0.1707493 0.056222998 -0.09593192 -0.22267537 -0.061071593 0.16465941 -0.23504189 -0.1503211 0.14269625 0.16210692 -0.20932901 0.13267674 0.22003652 0.053170457 -0.39877626 0.070345506 -0.102370314 -0.1373722 0.26166055 -0.25974485 0.12467137 0.25003627 0.20043239 0.16328405 -0.073000744 -0.0703449 -0.024246732 0.10308097 -0.0050813444 0.13562463 0.29883292 -0.2050079 -0.009581138 -0.30161908 -0.16449828 0.08417086 0.27147412 -0.15824868 -0.14791504 0.15288204 -0.41814995 0.26559943 -0.07990774 0.18634531 -0.101114646 0.094992 -0.08109713 0.0018918844 -0.0095585035 0.2664911 -0.17677471 -0.018612249 0.23739928 -0.24895012 -0.025983214 -0.55243963 -0.2489279 -0.11605943 -0.4059504 -0.071440704 0.34377295 0.006599197 -0.39505896 0.0051322994 -0.08569686 -0.20512013 0.23848765 -0.13661167 -0.057522416 -0.11541859 -0.11894732 -0.4069557 -0.12712108 0.20179237 -0.5848049
94 0.1460491 -0.19872425 0.14922577 0.07689064 -0.40797654 0.050016083 0.18468714 -0.019789958 0.017965555 0.30116457 -0.16279227 -0.1691447 -0.011493445 -0.36341453 0.101033926 0.045903824 0.045423783 -0.19288605 -0.39991567 0.11498913 0.07763571 0.20982914 0.14029728 -0.30265313 -0.10963151 0.0421063 0.07959816 -0.108522154 -0.03926778 -0.13249688 -0.12697154 -0.04097144 -0.15652196 0.28279042 -0.045895692 0.04763759 0.064417556 -0.053544875 -0.14884205 0.03143535 -0.0013423822 -0.40112785 0.40164706 0.30247244 -0.04534863 -0.10059262 -0.55150205 -0.20557256 0.017026588 -0.32834774 0.29767537 0.53124726 -0.095514074 0.14918794 0.30028486 -0.23928495 0.08739592 -0.08960278 -0.113849066 -0.18440546 -0.11564613 -0.065730296 0.32337287 0.18372367 -0.25328898 0.20249066 -0.31254053 0.06467893 -0.1802784 -0.13423738 0.12259359 -0.34528753 -0.3887675 -0.11584689 -0.2410616 0.28358448 0.030432774 -0.13865134 -0.13515292 0.10116745 0.045985963 -0.37892097 -0.060157206 0.16052239 -0.037919268 0.10218328 0.04202538 0.16989353 0.097678065 -0.057295505 0.08351077 0.1332147 -0.029455228 0.116868444 -0.3446952 -0.15227117 -0.11411597 -0.052810486 -0.08748978 -0.04133282 -0.44511732 0.3352158 -0.16190448 -0.13818036 -0.015651066 -0.11228201 -0.14164153 -0.21509953 0.12380369 -0.03394586 -0.108701274 0.06166531 -0.5040021 -0.16952793 -0.085344285 -0.26427612 0.10008041 0.0036365138 0.05915559 0.12357425 0.051685777 0.42014876 -0.11650057 0.04300947 0.1237001 -0.26396835 0.38701817 0.14611526
134 -0.076176725 -0.16408312 0.07296083 0.37372807 0.037336152 0.14335065 -0.06766481 0.06766671 0.078998744 0.19229385 -0.06542814 -0.23638496 -0.11065954 -0.3904459 -0.05989737 0.025247267 -0.23011106 -0.07781473 -0.10830725 0.6847658 0.0040494516 0.10877476 -0.098812975 -0.25958273 -0.015257041 -0.14688121 0.1763374 0.034625098 0.18442066 0.030440975 0.046334837 0.094345 -0.10399939 0.30657008 -0.47575012 -0.11673363 0.03796039 -0.35816437 -0.024592383 -0.054652754 -0.17518991 -0.23086771 0.3512947 -0.33454445 0.2999958 0.23627812 -0.31606975 -0.042277936 -0.03314959 0.18130668 0.2906021 0.27742803 -0.22090131 -0.02664885 -0.16014352 -0.1480412 0.16577032 -0.30542746 0.010236864 0.05296205 0.020303812 -0.015533615 0.10995166 -0.40580916 -0.23078921 0.2783522 0.25634685 -0.27050155 0.10106798 -0.09015146 -0.3945062 -0.2324741 -0.11655655 -0.11141285 0.26314476 -0.082954854 -0.28502914 -0.012260966 -0.18191937 0.124437906 0.07559421 -0.1042813 -0.04132099 0.16903432 -0.05408564 0.1359848 0.17935827 -0.032330737 0.43831262 0.39203852 -0.18132 0.24836926 0.116973996 -0.18898055 -0.08489958 -0.008609451 -0.093676694 0.07062697 0.094866194 -0.10672339 0.10944382 -0.30439624 0.47036394 -0.06526728 0.072971664 -0.12122583 -0.038271848 0.15464236 0.29748535 -0.26565927 0.29541984 -0.093461774 -0.13539498 -0.038174797 0.006782879 -0.027892577 -0.4163788 0.07753831 -0.013721381 0.14816646 -0.056972966 0.11369477 -0.08863237 0.23023255 0.15530299 -0.13247769 -0.14218664 -0.1230113
56 0.048435714 0.37484303 -0.0885691 -0.02536609 0.06080876 0.0034552938 0.17616685 -0.040293876 -0.14038005 -0.19610296 -0.18690568 -0.17201091 0.42069128 -0.3807847 -0.036121603 -0.1569339 -0.29027542 -0.057353783 -0.077002764 0.19705264 0.24285653 0.07954638 -0.10039682 -0.4497217 0.17200062 -0.025081242 -0.07210648 0.076586984 0.036958035 -0.13515651 0.15523112 0.35040942 0.13027366 0.32205743 0.030547159 0.13475281 0.39798623 -0.017838925 0.1492798 -0.10755934 -0.049026374 -0.21265464 0.29872587 -0.013253966 -0.07538241 -0.40293074 0.11319337 0.22257091 0.37320888 -0.20813903 0.28194663 -0.28271 0.103222564 0.298516 0.04194535 0.10938799 0.12741363 -0.03381091 0.27094528 0.27754486 -0.03801086 0.42160404 -0.17222142 0.06716775 -0.031930733 -0.09133812 -0.04579163 -0.13431585 -0.033409677 -0.38840607 -0.3108856 -0.28965184 -0.0076981317 -0.251387 0.25374457 -0.22231439 -0.7915031 -0.021296652 -0.3562415 0.29166955 0.090650804 0.31807718 -0.16494069 0.16678675 0.17531009 -0.041940104 0.3129351 0.19215626 0.028155737 0.14686501 0.058956012 0.17222254 -0.05480077 -0.096530885 0.0048392233 0.16282699 -0.20239587 -0.08449789 0.075109124 -0.06966806 -0.033062976 -0.079378 0.0016545726 0.09887992 0.008255059 0.29046932 -0.20820308 -0.20483725 -0.083022125 -0.32737285 -0.17944309 -0.13786505 -0.04584382 0.103260905 0.17659983 -0.06823617 -0.11912869 0.074962966 -0.4016742 0.17121175 -0.122548155 -0.014060188 0.093865015 -0.0054675597 -0.18991548 0.014233935 -0.047195505 -0.05386684
29 -0.016564474 0.19081205 -0.21811602 0.28972173 -0.05243271 -0.086548775 0.09692616 -0.075118035 0.02120405 -0.040804707 -0.43844897 0.010935342 -0.19550829 0.13260742 0.23470484 0.32653725 -0.32430443 -0.13578206 -0.43875247 0.031259988 0.14903879 -0.07850027 -0.30549166 -0.048444644 -0.030109875 -0.2052817 0.0429584 -0.2347878 0.03904949 0.10710273 0.11088249 0.27355152 0.14203914 0.24348931 0.29471073 0.23033012 0.18180558 0.0151424445 -0.42915484 -0.07095511 -0.12320852 -0.35233513 -0.25268123 0.3331856 0.036593433 -0.111980334 0.18546797 -0.2689502 0.18642744 -0.043069694 0.19888791 -0.056721494 0.014687279 0.17952715 0.11467891 -0.19595763 0.20316699 -0.056562986 -0.037056126 -0.27704424 -0.0025081877 0.050383396 0.18879773 0.21055414 -0.23104799 0.16398649 0.10738219 0.005042104 -0.08718395 0.44288304 0.14518529 -0.06796225 0.309963 -0.029359927 0.2114714 0.029829517 -0.12440366 -0.1180951 -0.23515935 0.1861971 0.026152851 0.2242956 -0.1403096 0.010467453 0.18811747 0.21544641 -0.0026517762 -0.46148723 0.3027065 -0.018833159 -0.016171621 -0.054141343 0.002286801 -0.055581246 -0.121177115 -0.29566777 -0.077657126 -0.16349752 0.0031303645 -0.18927899 -0.065163426 0.019483455 0.068644024 -0.08026866 0.30343434 -0.08775831 -0.029607296 -0.34293252 -0.024008099 0.047458902 -0.18058327 0.16188124 -0.28770196 -0.06268473 -0.26366484 0.061392043 -0.030247696 0.1227793 -0.18352836 0.11720989 0.46316895 0.159904 -0.52422565 0.13388716 -0.22317861 -0.07686095 0.32911202 0.25662246
182 0.3030111 0.12454399 -0.3185993 -0.17568868 -0.024017802 -0.11885119 -0.25587356 -0.070714116 -0.10674325 0.0008861982 -0.015001433 0.20567526 -0.21811517 -0.05504282 0.21615739 0.18400829 -0.5948167 -0.034381375 -0.10438673 0.106733404 0.09905004 -0.112875834 -0.12628466 -0.37189332 -0.21829101 0.30427393 0.098934874 0.16094843 0.11674435 0.048406277 0.087023646 -0.0069699823 0.08269336 0.13944547 0.1128549 0.0725398 0.32614094 -0.24734332 -0.032520913 0.25232467 0.23418634 0.13631384 -0.22997798 -0.062446512 0.31975785 -0.37588665 0.2389766 -0.16372393 0.017037641 -0.1654209 -0.073113285 0.12926741 -0.1602832 -0.023636706 0.13963899 -0.078834966 -0.42483756 -0.11074094 -0.0547629 -0.10909229 -0.60573554 -0.035837345 0.3736225 0.2191484 0.20427896 0.06995642 0.07608113 -0.56220907 -0.11116402 -0.08198653 -0.38234833 -0.20247012 0.024976404 -0.5116979 0.052168585 0.15827821 -0.14560929 -0.19331267 -0.60758734 0.19582579 0.30048233 -0.2572083 0.1296929 0.16041668 -0.04870951 0.16174558 0.2539168 0.17102744 -0.18805324 0.27871132 0.16040207 -0.00813654 0.1073612 0.08284839 0.050734438 -0.0018687813 0.24258113 -0.40635735 -0.15514368 -0.020111041 -0.09086317 -0.013155189 0.014217783 0.051740143 -0.088090025 0.035634868 0.21467991 -0.08840081 0.2051931 -0.08697291 0.04007487 -0.23345435 -0.034077547 0.24554983 0.22971494 -0.13874406 0.002070363 0.3439202 -0.2906654 -0.11502331 -0.32622993 0.104433365 -0.21599835 -0.119850114 0.0012439722 0.054712623 -0.054908678 -0.48625213
116 0.13600458 -0.09739589 -0.067053236 -0.07965948 0.19176133 0.23786904 -0.09625651 0.008060271 0.08904719 0.1444048 0.07989578 -0.09393301 -0.33155507 -0.08957905 0.09313267 0.23404239 -0.096919686 -0.19961618 -0.0097692115 0.19088462 -0.1085134 0.1867135 0.14856964 -0.04071025 -0.055041663 -0.22310595 0.09778632 -0.57298845 0.14434896 0.12675461 0.26220962 -0.18152599 -0.18137065 -0.14990743 0.2410165 0.30329213 0.47546548 0.1611322 -0.067423694 0.12384867 0.17370126 -0.3382273 0.060351126 0.124213055 -0.17775251 -0.09886716 -0.39161217 -0.09812464 -0.24604177 0.08005183 0.034144957 0.0575869 0.12645303 0.21892472 -0.12275493 -0.15447316 0.07616388 0.056898706 0.13213085 -0.03985674 -0.18777284 0.3215902 -0.07751946 -0.3245388 0.00056235713 0.008192401 0.05934367 -0.2276104 -0.120545395 -0.23554833 -0.030015698 -0.35853133 0.33123797 0.07158188 -0.027477212 0.22853619 -0.013991275 0.12399693 -0.14630736 -0.00041064888 0.3599153 0.52065194 -0.041001268 0.13277714 0.2768116 0.027274774 -0.06916281 -0.21583225 -0.36912224 0.23540749 -0.22572072 -0.062223554 0.26009485 0.26739544 -0.27215797 -0.106378414 -0.021165328 -0.0131224645 -0.35813382 -0.3507621 0.0030082103 -0.027784867 -0.039867222 0.006057534 0.37589246 0.042475518 -0.025603086 0.11746335 0.054532178 -0.44872704 -0.20315017 -0.19718584 -0.03417823 0.12796791 -0.4378053 -0.11431087 0.023785053 0.12112873 -0.05956164 -0.10882139 -0.2779261 -0.17161883 -0.18282188 0.09875041 0.19240507 -0.278795 -0.406163 -0.030633628
166 0.053168938 0.08315599 0.51560426 0.30477193 0.09755456 0.001896732 0.04038186 0.062614575 0.006211032 0.17268431 -0.29425222 0.24665986 0.06336251 0.23823868 0.21717918 -0.019557435 -0.51800644 -0.055407703 -0.03697081 0.1643186 -0.13899013 -0.025189755 -0.11302771 -0.45239753 0.2013597 0.22406614 0.34067467 -0.32670093 0.3257946 0.060608905 -0.14385204 -0.0056419102 0.013392256 -0.12653378 0.097907126 -0.0355077 -0.15622039 -0.21691999 -0.10556784 -0.07787065 -0.23216665 0.013973491 -0.14679627 -0.012971304 0.120522596 -0.1149315 0.22636129 -0.12061871 0.4228284 -0.16443594 0.049447604 0.104816735 -0.06540745 0.10145903 -0.09002466 0.22663379 0.21880707 -0.14594366 0.295564 -0.23945643 -0.07634453 0.4780216 -0.15836038 -0.10373125 0.05402827 -0.0312585 0.13894817 0.16441329 -0.34338114 0.04826014 0.27780893 -0.4147059 -0.018231397 0.19940199 0.12741572 -0.01018656 0.19614509 -0.12126187 -0.079324044 0.005720449 0.12992862 0.12875628 0.061804347 0.1997867 0.051040526 0.42579296 0.34615564 0.20441052 -0.12059396 0.1568594 0.036910478 0.22333343 0.13750787 -0.08026058 0.38113013 -0.21959807 0.24876662 -0.30416813 -0.111350246 0.13788874 -0.1588628 0.15265326 -0.3988463 -0.21045996 -0.15334627 0.042535923 0.16810203 -0.062499456 0.17891759 -0.11438246 0.10533113 -0.3119946 0.07074897 0.14841083 -0.11866923 -0.022013161 0.038704656 0.27360162 -0.36344373 -0.37607583 -0.05175875 0.044623725 -0.42376402 -0.2566 -0.19102123 0.16055517 -0.08494834 -0.08623594
180 0.36216336 0.2560765 -0.09149251 0.112288795 -0.038222067 0.15549089 -0.025332503 0.021135557 0.123510994 0.10818265 -0.24139197 0.13777567 0.21486586 0.24187131 -0.17864151 0.16969314 -0.521877 -0.16585568 0.20568202 -0.009567289 -0.22850582 0.020179817 0.014056025 -0.09954078 -0.13068311 0.08095766 0.33879074 -0.18868947 0.12543017 -0.34206274 -0.056631792 -0.13435997 0.0012162691 0.02689846 0.15993108 0.2675886 -0.056815594 -0.26338136 -0.4575298 0.15743525 0.100128666 0.25283733 -0.09413108 -0.07045695 0.1890131 -0.27219588 -0.20291902 0.15038316 -0.008217345 0.19787635 0.09277889 0.2708077 0.070148185 0.060034443 0.114475824 0.18903838 0.17672278 0.025914662 -0.2448403 -0.03178904 0.14315464 0.095717974 0.21216169 -0.6233672 0.47709417 0.2732736 -0.014460367 0.22794175 0.11957896 -0.008977936 -0.32165164 -0.07456241 -0.22540021 0.14443636 0.14079544 0.026645366 0.2513967 0.5215826 -0.06518211 -0.09974391 0.5589831 0.17323552 -0.081779756 0.5492213 0.15245667 0.26199007 0.04256368 0.19060563 0.02417731 0.12384957 -0.07402633 0.10794575 -0.10930842 -0.036722794 0.14576152 -0.040021747 -0.13224751 -0.29278782 0.28779653 -0.18850075 -0.41100696 0.17367253 0.15967016 0.22300008 -0.060480576 -0.08447789 -0.24759 0.06885837 0.11371166 0.111724295 -0.16644035 -0.27166307 0.07517793 -0.2552763 -0.19536117 0.33830565 0.40361258 0.026109843 -0.0018212316 0.10607669 0.16860998 -0.11706326 0.2078194 0.03316734 -0.09132047 0.08206539 0.02822733 0.061554767
81 0.038957484 -0.122349694 0.13977908 0.5882498 0.14701597 0.059519432 -0.15961866 -0.22844474 0.11554995 -0.2600759 -0.1938446 -0.30814487 -0.21818855 0.10390314 0.22613782 0.058886938 0.0112401685 -0.46892086 0.051979557 -0.2859465 0.007855556 0.05650369 0.18770154 -0.44252425 -0.08984076 0.17563143 -0.16989776 0.14692906 0.24843001 -0.08456743 0.2749017 0.3778538 -0.027178472 0.054207448 0.4298861 0.103569984 -0.027846858 0.34013182 -0.31275335 0.22623818 -0.12063522 -0.4902815 0.09263174 0.117873944 0.070221715 -0.3001372 -0.2798885 -0.20617448 0.24435005 -0.35917893 0.18650529 0.37554374 -0.018848196 0.11553559 -0.09670342 -0.025337657 -0.060233578 -0.2718903 -0.093621045 0.09642536 0.017140416 -0.07755666 0.07928815 0.16186112 -0.1479454 -0.033152282 0.030104456 -0.14540225 0.036758754 -0.15141316 -0.085417084 0.19698246 -0.02924707 0.011761798 0.46041456 -0.1531755 -0.107067466 -0.15153342 -0.12030842 0.09377488 0.2501306 0.25002098 -0.061221424 0.18283628 -0.11296354 0.031423062 0.3880286 -0.21581261 0.22214049 0.010344198 -0.21649043 0.4076895 -0.09896345 -0.015097269 0.27552274 -0.16377293 0.16802579 -0.14322484 -0.049306355 -0.14278635 -0.4149033 -0.17918515 -0.11413752 0.048051186 0.37549 -0.052349813 0.10093069 0.11683229 0.30578035 0.026501821 -0.023106402 0.01587188 0.023183402 0.15501246 -0.17845647 -0.17654279 -0.0708619 0.007602763 -0.083261125 -0.17622855 -0.011250129 0.23759647 -0.086534254 -0.042905293 0.068415426 -0.08659167 -0.43485042 -0.010765101
137 -0.005362627 0.21505977 -0.12623645 0.24818386 0.18365996 -0.05397238 -0.33550632 -0.029777635 -0.05146692 0.41548342 -0.50796014 -0.07773926 0.024955392 -0.44270298 0.08315674 -0.12792428 -0.07905118 -0.4827143 -0.14557357 0.07467154 -0.18926144 0.15916887 -0.04321351 0.1013498 0.14466771 0.02884867 0.04073954 -0.64760286 0.11517516 0.2922317 -0.081069306 -0.06356591 -0.22247188 0.2445033 0.0057271924 0.3854164 -0.036706857 -0.14050665 -0.23673092 -0.07232171 -0.055070672 0.31283975 -0.06716793 -0.096721984 -0.08864593 -0.06281517 0.10205223 0.33157524 -0.04755085 -0.31628844 -0.12983531 -0.009906534 -0.02315439 0.04872399 0.12955809 -0.20956463 0.15953743 -0.15660144 -0.07395752 -0.19504341 -0.23775311 0.27541003 0.07627517 0.012820133 0.059765402 -0.6124371 -0.08175915 0.0076298276 -0.069317736 0.010468014 -0.18466827 -0.117395245 0.20055972 0.3286436 -0.01307382 0.1953736 -0.18581782 0.13991018 -0.18450831 0.020746214 -0.2468395 0.07483761 -0.15537542 0.08794108 -0.09491993 0.112086385 -0.12812786 0.16634218 -0.03728912 -0.09604877 -0.32766956 0.43463272 0.2881021 0.21630616 0.25979882 -0.11999195 -0.16421397 -0.3622877 0.21961816 -0.03531502 0.33711302 -0.040654074 0.19198135 -0.20767578 -0.006126296 -0.17966087 -0.08999553 -0.018458275 0.30270997 0.07342144 -0.09140082 -0.111037605 0.104205616 0.06685248 -0.33635578 -0.19161755 0.093900494 0.115993276 0.24334462 -0.14147118 -0.3016753 0.4193321 0.10502868 -0.20308448 -0.27907926 -0.14036211 -0.041271903 -0.27392668
174 -0.15131402 -0.25255397 0.0046757036 0.2771675 0.10711069 -0.066288725 -0.00413198 -0.07053211 0.07527851 -0.023932423 -0.19755666 0.024238136 0.1665081 -0.106978744 -0.1385402 -0.03455363 -0.03283519 -0.2837742 -0.075643905 -0.021868818 0.11261114 0.039880086 -0.0740881 0.06279784 -0.18641746 -0.045886412 0.004940474 -0.20096338 0.3365171 -0.10184245 0.3583157 -0.10993835 0.017293036 -0.19550797 0.2705737 -0.053266786 0.29968098 -0.055906408 -0.4696541 0.34245935 0.09688018 -0.07935809 -0.045732714 -0.061830487 0.050778363 -0.23879501 -0.039718498 0.17406465 0.098526455 -0.31768405 0.042195026 0.33992115 -0.23251928 -0.050635662 -0.19856012 -0.023661554 -0.023360802 -0.009135495 -0.23093353 -0.08387375 -0.07779532 -0.042484216 0.054726046 0.40568787 -0.18258193 0.13825539 -0.30199587 0.011829366 0.14535448 -0.053864095 0.043824844 0.40454438 -0.36557367 0.34676298 -0.2750244 0.011277801 -0.2226125 -0.06862957 -0.34013423 0.41296583 -0.0534823 0.15980323 0.022502298 0.15064429 -0.17882034 0.5034417 0.21508023 -0.44206348 0.19106059 0.045389943 0.37160158 -0.03753642 0.31423053 0.20745783 -0.08218031 -0.06883896 -0.4610027 -0.060341217 0.064977966 -0.15359558 -0.12777539 0.22127903 0.11298822 -0.34921697 0.07566686 0.15047799 -0.0988998 -0.07569862 0.2288574 -0.26932067 0.09154853 0.16393289 0.04989726 0.011437436 -0.6620839 -0.401387 0.03355922 -0.04302791 -0.16720486 -0.1449121 -0.3050245 0.2061073 -0.20796272 0.111735344 -0.31432474 -0.023615573 0.045271084 -0.04499291
79 0.37915173 0.30917144 0.16206639 -0.056982417 0.10195763 0.06972674 0.41119793 -0.09792351 -0.25181845 0.010363982 -0.18140158 0.03790395 0.123350225 0.17032447 0.19039902 0.076353714 -0.64392745 -0.021963285 -0.13456725 0.19273132 -0.22497518 0.035398446 0.2955241 -0.1744193 -0.117311716 -0.22275335 0.08738735 0.03159536 0.4055977 -0.32335636 0.28146726 -0.057594232 -0.06547647 0.32542926 -0.21176381 0.13509068 0.02421968 0.06984242 -0.39968142 -0.01483199 -0.22002934 -0.09256996 -0.1505927 -0.16287206 0.19459015 -0.029108007 -0.0052256216 -0.17982453 -0.15991175 -0.07738787 0.16984572 0.26238906 -0.052704863 0.09910515 -0.057861544 -0.025376499 -0.034331597 0.68772966 -0.12753856 -0.04428668 0.14450605 0.05715493 0.10052791 -0.2116157 0.09917803 -0.18463774 0.078697205 -0.028763823 0.050208032 -0.21942322 -0.4454175 0.008077335 -0.29496193 -0.07633034 0.2417656 0.20566824 0.12700306 0.4302673 -0.096390806 0.2560891 0.5419762 0.023194792 0.13615958 0.28778416 -0.026255399 0.26633036 0.3611091 -0.1830508 -0.3305937 0.26992604 -0.123373 -0.08581427 -0.052033905 -0.2593966 -0.117897674 -0.12956038 -0.20244884 -0.22785409 0.13833773 0.14152461 0.14457735 0.14461623 0.07655299 -0.068204135 -0.36650503 0.2398359 -0.23960422 0.0646222 -0.002023751 -0.22891173 -0.19569828 -0.057437748 0.11825718 0.13118292 -0.11259634 0.3620741 0.2839984 -0.2733324 -0.009615261 -0.10104583 -0.14606988 0.17792319 -0.17740558 0.20319939 -0.34908748 -0.19880196 0.099672385 -0.14222224
254 0.17310703 0.27485636 0.08458419 0.11483391 -0.083010204 0.34071204 0.06238437 0.015122215 0.0042949207 0.058506653 -0.26902562 -0.22323449 0.13255593 -0.009883391 0.3696265 -0.16164534 -0.047764942 -0.12578239 -0.09517881 0.36536267 -0.019135924 -0.09288797 -0.07852454 -0.58823127 -0.1125647 -0.104976505 -0.12599236 0.17924982 0.14114727 0.3726697 0.5274009 0.25508288 -0.20051607 0.10664194 -0.29662386 -0.16215709 0.20653476 0.17218983 -0.33616677 -0.13325483 0.12260251 0.017306475 0.25961846 -0.06979756 0.22173347 0.20272055 -0.2192886 -0.21946077 0.41679525 0.19139361 0.33187494 0.2715532 -0.12941432 -0.013305988 0.07464721 0.14822778 0.44736978 -0.0045983414 0.4977165 -0.008145846 0.1684211 0.38463593 -0.05138864 0.20268685 -0.14542738 0.2614207 -0.1896733 -0.28758183 0.036832724 -0.123054534 0.17423016 -0.23696402 0.10920211 0.09284801 0.22530374 -0.3418072 -0.11798959 0.40712935 -0.12319164 0.16605164 0.13548142 -0.11127547 -0.046276905 0.35946742 0.20381948 -0.18692337 0.07344894 -0.4249787 -0.072375484 0.2997358 0.082077965 0.07629092 0.4823698 0.018082445 -0.21070334 0.070060864 0.08579747 -0.13664971 -0.017183185 0.056706294 -0.08499387 -0.23991105 -0.0010058087 0.09004544 0.48847723 0.11143766 0.13587338 0.098024465 0.065685585 -0.31465238 0.19252737 0.06815758 -0.18016881 0.16586035 -0.101767875 0.06814347 -0.22300726 0.1204263 -0.14270695 0.14006366 -0.037840664 -0.054682706 0.17143342 -0.13607681 -0.056089893 -0.30900255 0.004246065 0.060142405
236 0.24015702 -0.1259417 0.038089123 -0.10897041 -0.10847368 0.03191946 0.19665231 0.098208636 0.3458157 -0.34722298 -0.45067555 -0.11726133 0.19933143 -0.06365964 0.20707928 0.19958332 0.06959726 -0.21002993 -0.15180258 0.060136124 0.19400388 0.02841662 0.07456721 -0.36487538 0.15281084 0.13319278 0.15184654 -0.065000445 0.023705931 0.32723808 0.08116742 -0.054622445 -0.029924745 0.16712518 0.18032102 0.35302436 -0.22754663 -0.16696128 -0.1693002 -0.32339168 0.20301381 0.13208643 -0.025593925 -0.04297911 0.20426737 -0.18108837 -0.21949367 0.094099 0.21120039 0.39765984 0.32259795 -0.13131104 0.068993665 -0.1424564 -0.27044362 0.19948626 -0.22706537 -0.021697221 -0.07336706 -0.042329732 -0.35260403 0.03879102 -0.04542879 -0.32140937 0.08963897 0.14965792 0.20662668 -0.18549077 -0.2876965 -0.13418095 -0.17851567 -0.20751984 -0.43319613 -0.01857033 0.26073217 0.36670277 -0.14105134 -0.009677996 -0.3056527 0.080495976 0.21043065 -0.004099225 0.30963084 -0.15482691 -0.17554702 0.33394256 -0.06306886 -0.38215974 0.023245392 0.11984838 0.050368316 0.2585365 -0.2047446 -0.14628479 -0.1916057 0.29856694 -0.24482952 0.2349783 -0.027421614 0.20762658 -0.3314125 0.059161082 0.3804319 0.11036807 0.26532447 0.085505664 -0.0073241745 0.1783259 0.009381662 0.065621555 -0.096577175 0.029436303 -0.13235793 0.030274117 -0.3385424 -0.056701384 -0.14616507 0.04141446 -0.03714882 -0.36724386 -0.25363722 0.017638331 -0.57774675 -0.13722618 -0.20961721 0.083672985 0.3159366 -0.20304936
96 0.1579452 0.4462519 -0.17397414 -0.10375253 -0.03875259 -0.2807982 0.041441925 0.087436035 -0.060067717 0.15693039 -0.1418771 0.4011442 -0.119940564 0.040563677 0.26788694 -0.28341994 -0.2363087 -0.72298074 -0.1503481 0.23481917 0.25119016 0.1540818 -0.2809474 -0.24886803 -0.06618604 -0.03327204 0.27005658 -0.10995984 -0.22766854 -0.2827788 -0.21063776 0.19837834 -0.21730554 0.5582601 -0.09962055 0.25450963 0.14818539 0.18821026 -0.06212482 0.20543328 -0.08432652 -0.22567566 0.037301715 0.053878404 0.22303848 0.004232101 0.07837161 -0.19206376 0.28409556 0.028770588 -0.18315266 -0.026105933 -0.24067432 -0.20602496 -0.1585886 -0.26747543 0.2185119 -0.0127161015 -0.034400877 0.01299108 -0.062226336 0.33498615 0.004745678 0.11626941 -0.115822196 0.25202417 0.16852973 -0.17975552 0.31205434 -0.31590745 0.12117863 0.07417243 -0.039934345 0.21338455 0.27888474 0.26932102 -0.17626289 -0.012646785 -0.05158219 0.27410024 -0.048951596 -0.059074108 -0.034307107 -0.011033949 -0.2640234 0.11446148 -0.36335245 -0.015385395 -0.093976416 0.15610456 0.02690843 -0.16550139 0.5929827 -0.04607338 0.010733697 -0.03053353 -0.23015362 0.24217756 -0.032540016 -0.0009953482 0.011714755 0.25952384 -0.0643503 0.16631004 0.5343057 0.060947284 0.119820885 0.21057208 -0.10212088 -0.0598758 0.30457708 0.29753265 -0.23401932 0.13048275 0.15872894 0.1599228 -0.36775255 0.029606182 0.043685216 -0.023572661 0.19622715 0.19455759 -0.28570622 -0.14787169 -0.057675708 -0.040532764 0.23778322 -0.016517268
207 0.067564934 -0.15148287 0.24026228 0.32463732 -0.45237523 0.04212466 0.12292682 -0.12717107 -0.081223294 0.1434259 -0.146518 0.5667728 0.02965468 -0.20144208 -0.03295922 -0.33491868 -0.090689905 -0.12558353 -0.10149486 0.26843756 -0.047079287 0.19336821 -0.38570812 -0.24899279 0.079106 -0.24284844 0.039506488 -0.21506271 0.118806526 -0.095797606 -0.026584232 -0.09613085 -0.30565792 0.21950251 0.09002415 -0.01302624 0.03996476 0.34035474 -0.2017318 0.09571973 -0.041194376 -0.37237403 0.30007088 -0.036821052 -0.042804442 0.06814865 0.08999937 -0.33834514 -0.0123697845 -0.20062344 -0.06447399 -0.07880033 -0.05739734 0.49203256 -0.23372453 -0.095821284 0.056389343 -0.38259658 0.032944575 0.2463162 -0.32903534 0.20848267 0.01582271 0.17225692 0.13248064 0.13546875 0.22256464 -0.27153364 -0.051973257 0.40698314 0.26607716 -0.16882443 0.24227029 -0.32903332 0.22076268 -0.019066757 -0.05878357 -0.104777895 -0.28210074 0.14109455 0.10811469 0.14354853 0.028507965 0.17831849 0.2845889 0.035557482 0.31408465 -0.17900176 0.0051096575 0.02785573 -0.15265378 0.21931925 0.16470873 0.030060492 -0.11194599 -0.22303505 -0.21041667 -0.2993467 -0.21895942 0.09662411 -0.3160789 -0.053387668 0.159071 0.060997672 0.062602155 0.10692841 -0.36683318 0.1628823 -0.17259255 0.2539517 0.19751365 -0.0020958658 -0.00042725296 0.23383501 0.17082807 0.022669762 -0.21836554 0.099505305 -0.36756873 -0.084779814 0.10812913 0.2759952 -0.28043014 -0.3347772 -0.25849617 0.30150005 0.2372258 0.12107432
54 0.11976183 -0.011502009 -0.03697127 0.23502402 -0.2673847 -0.016209388 -0.047868196 -0.13762243 -0.25814193 -0.17497635 -0.15848728 -0.37068444 -0.35706592 -0.0999145 0.25777704 0.17896852 -0.20569098 -0.42570594 -0.31722283 0.10925262 -0.11138334 -0.019203383 0.10836614 0.13912025 0.09925491 -0.16470143 -0.13410513 -0.15182915 0.19620278 -0.01697586 0.12319583 0.047060758 -0.056819357 -0.0024028732 0.18794562 -0.114815965 0.04688804 -0.06997567 -0.012736107 0.049984083 -0.33421436 -0.15262613 -0.25574884 0.4663108 -0.25910553 -0.11936532 -0.019464634 -0.0056779105 0.15838772 -0.02242605 0.2689235 0.33717588 -0.17639537 0.12305725 0.15189913 -0.2355807 -0.024187833 0.07891283 0.25227755 -0.038675874 0.106193766 0.2976227 0.07424081 -0.12533192 -0.12582958 -0.28463507 -0.03120042 -0.08246577 0.10592009 -0.0110221235 0.15875758 0.14742278 -0.24792802 0.05987308 0.45088825 0.028320659 -0.094412215 0.3540806 0.0855581 0.11107349 0.45871118 0.2964655 -0.16137701 0.09945883 0.11406271 0.0877444 -0.03406988 -0.08773287 -0.020546108 0.27986082 -0.17251128 0.273252 0.09183628 0.26559663 0.028613366 0.148008 0.20854889 -0.14062513 0.01730712 0.05086308 0.06555074 -0.13319597 -0.23867626 0.030910341 0.25460178 0.09483233 -0.4734954 -0.3923381 0.14500241 -0.21111995 0.16926736 -0.43487963 -0.49466357 0.31153423 -0.31249648 0.04760213 0.13274387 -0.023591112 0.24113443 -0.30020687 0.047516193 -0.08557388 -0.37816185 -0.0044317353 0.39996213 -0.27656394 0.06709845 0.2622196
216 0.2332622 0.21368472 0.06853402 0.043007266 -0.13352753 0.30225283 0.015353131 -0.03111399 0.05645873 0.20724072 -0.4500273 -0.12640388 0.2221085 -0.15171728 -0.10176431 0.091570064 -0.31644416 -0.06462223 -0.586081 -0.014450622 0.29533982 0.1604069 -0.27742943 -0.00028647252 -0.13581887 -0.11052257 0.0040152436 0.13415784 0.009067725 0.27854422 0.27822953 0.23565775 0.035920285 0.29137948 -0.17357719 0.25067964 0.24643001 0.027405849 -0.26455587 -0.0117751965 -0.062744156 -0.16867247 0.43259752 0.17668268 -0.40341654 0.020782314 0.06917154 0.17693177 0.3846787 0.09826972 -0.10063455 -0.20939429 0.17978694 0.1323243 -0.05390042 0.099827446 0.11117628 -0.24398583 0.45296887 -0.037177157 -0.013531875 0.40018466 0.16531627 -0.0764921 -0.02364983 -0.14842281 0.22586578 -0.15061238 0.11523988 -0.03226779 0.42723635 -0.09452655 -0.22575831 0.13558178 0.13429679 -0.21577679 -0.29490298 -0.114568606 -0.40198037 0.064617924 0.39794818 -0.14892043 -0.2196013 -0.06998741 -0.09572444 0.27342883 0.11053065 -0.21870327 0.1471055 0.17505136 -0.11308116 0.037465435 -0.045947384 -0.1926794 0.034689598 -0.008351569 -0.15888803 -0.17617297 -0.15160795 -0.019664576 -0.36453736 -0.103558 -0.0053495094 -0.18347032 -0.22701095 0.1665678 0.38789135 0.0830106 0.447517 -0.59913987 -0.17427322 0.08550873 -0.37864974 0.07284121 0.07724561 -0.10166798 0.032905348 0.026439916 0.15698163 -0.0062422687 -0.03060348 -0.0347791 0.06364119 -0.0542786 -0.06518095 0.18587627 0.031074721 0.08555073
177 -0.24855554 0.17243144 -0.047937397 0.47409013 -0.39606383 -0.08223685 0.3040119 0.14612947 -0.18507469 -0.15771027 -0.35001412 0.29678392 0.10640723 -0.2133226 -0.46845597 0.114939235 0.04938649 -0.48586625 -0.04362403 0.13714884 0.13911898 0.14776807 -0.3719694 -0.09016217 0.12641713 0.09212873 -0.21969469 -0.2410352 0.26865774 -0.036364343 0.22393611 0.1810258 -0.08081053 0.0015114323 0.058876783 -0.13356975 0.20421813 -0.13607784 -0.30740276 0.13556829 0.15376383 0.033832636 0.011925322 -0.06965368 0.120469145 0.072827235 -0.28469017 -0.3569965 -0.15182085 -0.112928696 0.21457808 -0.2937132 -0.035447594 -0.09485894 -0.10122585 -0.10722731 -0.007817808 -0.13033886 -0.010799308 -0.09439283 -0.37320063 0.03151479 0.31632376 0.23170456 -0.16331871 -0.035812043 0.09732585 -0.25160947 -0.062209457 0.026785333 0.20672303 -0.04315822 -0.015294058 -0.33289954 0.05282714 0.20661567 -0.13024317 0.085280225 -0.6101246 -0.13604853 0.22915322 0.0664688 0.14821048 0.061547678 -0.025597533 -0.122798465 0.10067312 -0.07642735 -0.19728173 0.14369768 0.1611616 0.21619457 0.213772 -0.15402718 -0.43718442 0.03748198 -0.28794953 0.08971658 -0.09255349 -0.07626 -0.0748918 0.0072849966 -0.1269035 0.08790114 -0.05073098 -0.16330168 -0.2606146 -0.11563043 -0.22427018 0.14680023 0.5033374 0.13243563 -0.001212608 0.04947955 0.16095637 -0.27154002 -0.2711363 0.09736699 -0.0064030937 -0.335646 -0.20480628 -0.19418678 0.06439206 0.35367036 -0.1829059 0.43968984 -0.11635037 -0.05425815
22 0.17198823 -0.027493417 0.008671751 0.2775024 -0.26154652 -0.17260401 -0.015801057 0.1407102 -0.14680572 0.18129702 -0.12722503 0.29759437 0.013393175 0.06738052 -0.045198433 -0.03215846 -0.049090218 -0.30452144 -0.21741253 0.2803424 -0.07872978 0.07828681 -0.30775332 -0.18458897 0.121007964 0.021473058 -0.02840326 0.09540889 0.069558576 0.08735557 0.027638594 -0.028576186 -0.18913881 0.002778629 -0.12639146 0.15228802 0.19518447 -0.021233853 -0.20369448 0.09284445 -0.07688851 -0.040687364 -0.18338624 -0.23171014 0.40798774 -0.14582798 -0.102683134 0.0938591 -0.38918352 0.3440736 0.049462825 0.19928356 0.21580823 -0.06249824 -0.04428106 0.12308957 -0.100352205 -0.120868854 -0.04362113 -0.056509644 -0.21319743 -0.16163169 0.11604791 -0.07536429 -0.43523705 0.3855575 0.20739907 -0.3580334 -0.13025446 -0.3094144 -0.44812113 -0.587638 -0.2397997 -0.42710695 0.16890934 0.30073455 -0.47337663 0.22627902 -0.21218595 0.12071424 -0.019963797 0.2128383 0.19783558 -0.24187759 -0.08323178 0.2269457 0.2807665 0.2650651 0.32072574 0.17426428 -0.17694664 0.009885251 -0.015349094 -0.0669774 0.07634007 0.11248936 -0.28005192 0.003097263 -0.24046941 0.13454355 -0.057947654 -0.1728327 -0.069784865 0.13521728 0.4956531 -0.0968375 -0.29593372 0.11005585 0.06464347 -0.23325312 0.008518979 -0.19460155 0.12037975 0.07621877 -0.031742413 0.23408467 -0.17944369 0.3175304 -0.026913445 -0.37480992 0.09165316 -0.30289522 -0.2217472 -0.071060196 0.07264626 0.28689337 0.2825343 0.18283188
34 0.36238453 0.111389436 0.059763126 0.5258614 0.18249743 0.07361535 0.41601247 0.018447448 -0.11587279 0.07452938 -0.3935918 0.17117949 -0.31082213 -0.14590332 -0.15700328 -0.10276382 0.12715313 0.052019294 -0.13936593 -0.22149159 -0.032822184 0.005405039 0.09442779 -0.040219504 -0.083124906 0.09452739 0.40798125 -0.031397615 -0.22832768 -0.05522569 -0.17050724 -0.24104956 0.257244 0.092173666 -0.15217608 0.40912196 -0.0817116 0.45018813 -0.20874076 0.024640245 -0.07381629 0.31514314 -0.05647445 -0.3638199 -0.14468785 0.015951457 0.17560674 -0.37473208 0.28316665 -0.04976704 0.22533548 -0.5038756 -0.07103202 0.3352128 -0.13059166 -0.06404318 -0.08825087 -0.36455238 -0.09066073 -0.20092915 -0.24821259 0.2234168 0.27136946 0.12016463 0.44913647 0.4671279 -0.17564741 0.078669414 -0.23178467 -0.29053548 -0.37839645 -0.24398021 0.2669591 -0.04017204 0.20029221 -0.31574923 -0.219016 0.039260447 0.0023569975 -0.015196412 0.17483065 -0.049039114 0.34557107 0.08100432 0.14503573 -0.23926876 0.07859097 -0.21189922 -0.01665317 0.09037941 -0.05120713 0.07167743 0.5093884 0.591266 -0.0013895914 0.24016072 0.22821212 -0.23740149 0.11915652 0.08367281 0.09951833 -0.09012108 -0.03167979 0.20914231 0.26988378 0.19241966 0.021284742 -0.21193135 -0.020948747 -0.025419462 0.15683073 -0.2747616 -0.24328563 -0.07819323 -0.17277575 -0.03643051 -0.2321195 -0.022639008 0.04115844 0.19460714 0.31115392 -0.14752994 -0.089292124 0.16066544 -0.48836327 0.30171493 -0.2306882 0.14583492
133 0.11092311 0.024768155 0.077858336 0.14705867 -0.008977678 0.21663551 0.07572569 -0.026266249 0.02652764 -0.22592887 0.014465484 0.10946518 0.09519659 0.10303183 0.007135319 0.33148843 -0.28051215 0.03951899 -0.16800402 0.119579405 -0.064622 0.100854255 0.30294532 -0.15320362 -0.059945147 0.09743807 0.049145605 0.2340247 0.106537975 -0.5202814 0.112637214 -0.03147949 -0.4683297 0.31570813 -0.15434086 0.37658682 0.32510155 -0.2057662 -0.3088362 -0.11726697 0.010772165 0.29444954 -0.13940631 0.3292343 0.05962916 -0.08568184 -0.40878105 -0.24956928 0.11719661 -0.06873266 0.38522846 -0.14591725 0.03206948 0.26568818 -0.07716968 -0.1346631 -0.18221 -0.04622575 0.15308847 -0.30823147 0.12480958 0.2025839 -0.17509824 -0.10518102 0.24685356 0.25636378 0.20236187 0.088897556 -0.03383915 -0.15510443 -0.13500358 -0.012996027 -0.13672443 -0.00380795 -0.010228103 0.21696465 0.11635376 0.28371623 0.103457116 -0.17656623 0.16607668 0.22899246 -0.0123732835 -0.08740914 -0.16264148 -0.11735982 0.22376406 0.34342268 0.07527529 0.50242686 -0.035161395 0.32965088 0.50552255 -0.12808798 -0.2455227 0.12096145 -0.16268378 0.041655578 -0.10101868 0.28184867 -0.015767379 0.05379154 0.17939694 -0.24439505 0.07612044 -0.069981016 0.023760661 -0.1139951 0.37582222 -0.08705298 -0.04311517 -0.00037952935 -0.2663754 0.29770374 -0.14948016 0.27472788 0.34624463 -0.20555376 -0.14802974 -0.12960462 -0.20409037 0.2892836 0.17374472 0.19971062 -0.11550639 -0.13330378 0.25881457 -0.13558394
118 0.2089359 -0.24939862 0.023710592 0.41165546 -0.32953027 0.16394334 0.3580954 -0.05597302 0.06304462 0.09603904 -0.37531218 0.17355317 -0.02357225 -0.30499125 0.41940522 -0.056278564 -0.36196592 -0.15548572 -0.12159638 0.11973854 0.032765493 0.047305286 -0.1503916 -0.2680573 0.2586219 0.115518354 0.21002723 0.31497073 0.2488538 -0.18745959 -0.068984605 0.11066478 -0.17375779 0.13697314 -0.0022900053 0.039646313 0.13985193 0.21328731 -0.10908914 0.30289 -0.03072326 -0.31106538 0.0063667106 0.023668779 -0.004723843 0.1958541 0.06921278 -0.2768132 0.07004479 -0.5216353 0.36570635 0.1540719 -0.1563048 -0.16107154 -0.19014898 -0.012572451 0.5593926 0.12327608 0.25908107 0.17726603 0.007218668 0.0017213166 0.07712113 0.19458899 -0.09471202 0.32634133 -0.03658823 -0.29103804 -0.021802528 -0.072352655 -0.09519496 0.03083985 0.2284171 0.07027762 -0.08228107 -0.052711915 0.11750338 -0.33314303 -0.39199638 0.29668704 0.2192261 -0.0057353317 0.13354741 0.39482427 0.056344867 -0.0024122687 0.029812023 0.037164733 -0.1305713 0.12909123 0.13612996 0.256881 0.42018393 -0.02054211 0.25247332 0.0853256 0.05986541 -0.04284632 -0.23193245 0.024813384 -0.31403625 -0.11642173 -0.19303405 0.17813317 0.1766881 -0.13192506 0.096750624 0.046737775 0.0958713 0.27720913 0.021724552 0.03138266 -0.12690206 0.12285104 -0.14446755 -0.13364327 -0.10240574 0.102655254 -0.117743954 -0.20260999 -0.40034372 -0.07560085 0.32798672 -0.069953255 0.0304221 -0.20172851 -0.121684134 0.24294677
69 0.11490247 -0.007667067 -0.2928817 0.12818213 -0.1786267 -0.24888656 0.071922444 -0.13766126 0.21022262 0.13022713 -0.24697082 0.120185226 -0.10369961 -0.12351664 0.057886194 -0.034708597 -0.3255555 -0.31423587 -0.02809174 0.26740146 -0.080127575 -0.19654956 -0.6601451 -0.42288777 -0.07517461 0.23983571 0.118830234 -0.28119984 0.25071228 -0.031524356 0.16581558 0.40671572 -0.14837779 0.168828 0.3109288 0.14421973 0.055653874 0.12570964 -0.10644944 0.19255427 0.020239757 0.0076700686 0.07553383 -0.03802841 0.32168573 -0.0349935 -0.014351142 -0.19678183 0.075581536 -0.11474783 0.26921552 0.17686796 -0.10107461 -0.032454755 -0.3628107 -0.21058069 0.054556772 0.11062673 -0.130696 0.3077952 0.109248675 0.04035632 -0.0137130525 -0.037094813 0.023301577 -0.02434915 0.44739172 -0.017332878 -0.028975222 0.43586263 -0.18055248 0.1361664 -0.17734171 -0.31093457 0.29832926 0.17957354 -0.24159005 0.15168321 -0.11880444 0.09039377 0.44134736 -0.1526795 0.11564408 0.4298529 -0.13465874 0.14934307 -0.14924523 -0.03168055 0.20865019 0.12916899 -0.23816444 0.31623477 -0.067778185 0.13030083 0.23213142 -0.2648675 -0.115474194 0.0718236 -0.056764398 0.10095863 -0.2810451 -0.17514293 -0.059307188 -0.23885189 -0.0009794041 -0.049575347 -0.3764572 -0.022307234 -0.091290005 0.2373337 -0.09249042 -0.08973317 -0.10554905 -0.026055466 -0.14186938 0.09891673 -0.16064334 0.023643339 -0.3389007 0.6310765 0.1298389 0.046915084 -0.0960678 -0.18838878 -0.2965631 0.5118075 -0.052952576 0.3531274
173 -0.16631162 -0.4405983 0.027353743 0.20082428 -0.13242362 -0.0083381925 -0.007453719 -0.17367429 -0.42647958 -0.080134265 -0.08183028 -0.030450914 0.3052377 -0.25838155 -0.070058696 -0.26743463 0.17705822 -0.35981166 -0.20772184 -0.18871875 0.117803104 0.5062784 -0.20687936 -0.09295822 -0.07727186 -0.028385788 0.08226326 -0.05418922 0.11286376 0.2037391 0.5796519 -0.056110993 -0.43565205 0.29767263 -0.04579117 -0.011068096 -0.18036771 0.09839307 -0.4397673 0.10276106 -0.4503238 0.3413457 0.3505387 -0.20098805 0.13102755 0.21062413 -0.066369735 0.24683353 0.016609069 0.16389632 0.476196 -0.1545848 0.30459243 0.12089605 -0.22911175 0.28059343 -0.09537502 -0.11589954 0.22328344 0.0004636781 -0.19315311 -0.0690982 0.31711116 0.34296578 -0.07050226 0.03692744 -0.038858734 -0.15810904 0.059420172 -0.23882718 0.19782557 -0.38844696 -0.23103641 -0.17773508 -0.014500852 0.13783854 0.2092826 0.22441809 0.08233816 -0.07250579 0.22034356 -0.06577304 0.15557697 -0.057567682 -0.099386595 0.12734483 0.01334118 -0.037689384 0.16866751 -0.020276891 0.27063325 -0.036573283 0.011330065 -0.0179398 -0.12775716 0.00870112 -0.22798637 -0.28253776 0.12851161 -0.112905666 -0.15018952 0.35321233 0.146015 0.19279604 0.2601741 0.14603436 -0.017605267 -0.1581531 0.03598233 -0.1394087 -0.3215257 -0.19459969 -0.5266177 0.26954642 -0.16746162 -0.11299034 0.23360671 -0.047249433 -0.035099804 -0.22758262 0.2523738 0.14262854 0.28348765 0.12360308 -0.42772967 0.050209887 -0.2849641 -0.62360924
51 0.14271358 0.050787117 -0.16553882 0.27155125 -0.028522626 0.051980082 0.1902779 -0.28232893 -0.11862359 0.26310351 -0.005519405 0.07104113 0.099381745 0.027018005 0.14993638 -0.13579239 0.28318053 -0.027014636 -0.12666443 -0.21209137 -0.026578648 0.084681615 -0.16017926 -0.23697317 0.06416742 0.016494423 0.43443784 -0.10395675 0.028383326 0.010709871 0.111096874 -0.197311 -0.06734558 0.41672978 -0.33355585 0.20333187 0.066918224 0.087007426 -0.11418286 0.29506174 0.45988417 -0.12006907 0.20308378 -0.42126417 -0.5271258 -0.15236092 0.19199765 -0.1734464 -0.19742821 -0.09557935 0.21492615 -0.27749905 0.037747543 0.17819527 0.35045707 -0.2310375 0.6061028 -0.54545105 -0.05099083 -0.16866164 -0.3642709 0.33543906 -0.020644648 -0.16067633 0.23386084 0.083359025 -0.09950859 -0.003002932 -0.49723297 0.10430203 -0.18580647 -0.08325892 -0.3081537 0.18187276 0.5582507 -0.27050936 0.36174488 0.20948333 0.31410143 -0.043073494 0.19752246 0.044212703 -0.0806674 -0.04207478 0.025726367 0.5488643 0.07053257 -0.13567889 0.07469952 0.20480482 -0.10502771 -0.13115534 0.20350073 -0.031527206 0.10059397 -0.04293932 0.13470094 -0.44837612 -0.10412999 0.20613512 0.121671624 -0.17210902 0.10689128 -0.021180553 0.3483637 -0.11550363 -0.022879088 0.23168164 -0.034610834 -0.03681805 0.13677415 -0.26221848 -0.26059848 0.11610111 -0.18831518 -0.015833214 -0.21687463 0.113805234 0.13542463 -0.038187392 0.27888483 -0.040121768 0.08974416 0.09425846 -0.0063174227 0.48020548 -0.0043429937 -0.102865174
13 -0.015855797 -0.3807676 -0.056564234 0.25704077 0.07800859 -0.09541158 0.066259176 0.0010890276 -0.026582744 0.31983343 -0.037478942 -0.11420532 0.528661 0.042312287 0.25374565 -0.1293078 -0.1705394 -0.13793331 0.36243266 -0.18335132 0.18639342 -0.02331398 -0.13471986 -0.2040456 -0.051550847 0.23802397 -0.17209673 -0.037924092 -0.20007345 -0.2860609 0.050250575 -0.2237931 -0.41432738 0.43516713 0.3636177 0.40698344 0.14486398 0.32299945 -0.42948103 0.0017084448 -0.20585331 0.3082163 0.14523007 0.17075822 -0.21421537 0.031774636 -0.16616762 -0.18523066 -0.25527698 -0.21074294 0.09137439 0.11394485 0.09176782 -0.25669137 0.21122126 0.21474746 -0.25971636 -0.20972647 0.19007008 -0.2619327 0.19448566 0.11286335 -0.23163408 0.14155826 0.2838674 0.38267022 0.12698773 0.18902569 0.12734465 -0.041784998 -0.008895854 -0.21781139 0.06664048 0.068574786 0.10968876 0.15812273 0.10389297 -0.3590138 0.015758986 -0.05982104 0.039437663 -0.030533683 0.19504425 0.035398945 -0.12277365 -0.18594347 -0.029024018 -0.18266855 0.16739902 0.43252176 -0.059987884 -0.054203972 0.09011571 0.17513607 -0.49741307 -0.16736992 0.029116586 -0.44023198 -0.19740663 0.24709651 0.048732705 0.29116073 0.30172017 -0.083293416 -0.3908027 -0.04912429 -0.099652104 0.15622912 0.053736422 -0.08191585 -0.0016516844 0.11849718 -0.24637187 0.15234418 0.019789321 0.18807684 0.2782432 0.18243784 -0.16603741 -0.17073755 -0.1164506 -0.1234557 -0.10794597 0.28212973 -0.24372727 -0.22577806 -0.20217648 -0.053956747
63 -0.3837793 -0.10701431 0.06412407 0.4541639 -0.12312753 0.24491401 0.20281585 0.0024359305 -0.21908161 0.33362553 -0.18121141 0.102978915 0.20152007 0.07165637 0.39867395 0.2766772 -0.2636155 -0.16404645 0.25790715 0.09765921 -0.19635788 0.16625176 -0.17978048 -0.082094714 -0.25617874 0.07951916 0.39253998 -0.16175674 0.1571943 0.015647225 0.016831301 0.0049686288 -0.19809219 -0.15469459 -0.06500653 0.09407476 0.060717694 -0.014547556 -0.03755073 0.05182642 -0.48463067 -0.267795 0.16873111 -0.10959368 0.44832855 -0.02898176 -0.12349451 0.24283627 0.0568022 0.07769776 0.31473508 0.1903075 -0.027777113 0.30516776 -0.3350337 -0.13778149 -0.015529053 -0.23260921 0.0349301 -0.27080593 -0.5203014 0.12260868 0.032920845 0.040948726 0.18243723 0.3170747 0.32522044 -0.23277797 -0.053275876 0.316261 -0.12602447 -0.12910146 0.28758016 -0.31587067 0.21043922 -0.055493403 0.23256662 -0.2364522 -0.013972362 0.20325145 -0.22619064 -0.15076312 0.042539943 0.11674689 0.13697039 0.27411014 0.24562164 0.014979309 -0.022609765 0.025621768 -0.13146792 0.19810562 0.20410421 -0.06567918 0.043498117 -0.27458832 0.34123582 -0.11074109 -0.49339736 -0.18275279 -0.3938038 0.09187438 -0.14023796 0.18051887 -0.18908642 0.06716152 0.010471986 -0.03332275 0.15915509 -0.2059165 0.04917272 -0.266186 -0.15556878 0.15953688 0.08042411 -0.06259218 0.10098336 0.34959128 -0.091341324 -0.36312833 0.08808004 0.10026069 -0.08535357 -0.31784573 -0.08550322 0.22616425 -0.10797933 0.10267265
2 0.31124464 0.10877947 0.17566071 -0.17524466 0.010288776 -0.047232144 -0.03512009 -0.026016137 0.016064275 0.07724088 -0.36832604 -0.10295444 0.11030211 -0.14344232 0.5516244 0.21635392 0.026914721 0.049808744 0.10571979 -0.22205943 0.038082268 0.13902408 0.035788365 -0.3901295 -0.0198667 0.086571775 -0.19235857 -0.067707635 0.3693871 -0.01801691 0.17231178 0.02874813 -0.13041936 0.09189522 -0.20346904 0.42488733 0.12163525 -0.05074689 -0.08817893 0.022427628 0.005330578 -0.33746633 0.07135982 0.15113942 0.40548354 0.15078194 -0.1117395 -0.3496927 0.090721264 0.23610254 0.18444037 -0.1461636 0.101291016 -0.22484103 -0.2121903 -0.13943979 0.1985677 0.16569419 -0.14637633 -0.25774598 0.2109426 0.376199 -0.22409536 0.100671016 -0.26993784 0.15188622 0.25078374 -0.17064127 0.11183398 -0.05507214 0.17421016 -0.27879676 0.08522308 0.022457197 0.31676763 -0.19297427 0.17694694 0.22167371 -0.43739614 0.33340687 -0.28552565 -0.29057056 0.013229689 0.08454923 0.18676014 0.033866167 0.09730577 0.2989224 -0.047183704 0.0846182 0.111627154 -0.16275041 0.056797624 0.28984362 -0.10868465 0.1864825 0.1778749 -0.2901813 -0.39060676 -0.120595865 -0.2318993 -0.34184355 0.1158884 0.18990834 0.2006445 0.20695382 0.26106405 0.1837849 0.21789643 -0.22349928 -0.09087735 -0.34525645 -0.19063376 -0.1445856 -0.18800387 -0.34052283 -0.15036182 0.044165432 -0.20025523 -0.08294678 0.034705803 -0.4458317 -0.054176636 0.21705966 -0.0022983716 -0.14566661 -0.2288128 -0.16090377
293 0.17423008 -0.01519511 0.20674767 0.26114658 0.0531899 -0.055076685 0.056358404 0.0062033455 0.059754808 0.1296527 -0.094550125 -0.037900116 0.24756826 -0.19353046 -0.21035784 0.12090983 -0.3472968 -0.044632595 -0.0049823592 0.13350697 0.01507341 -0.18428327 -0.17216472 -0.025804674 0.24915384 -0.14898257 0.27021977 -0.065235406 -0.19202402 -0.15458989 0.56550896 0.12029394 0.055882636 0.121675834 -0.1099983 -0.16244678 0.095893174 0.02372676 -0.42236727 -0.3205103 -0.018897666 -0.19411236 0.16805342 -0.23703447 -0.13165104 0.07882719 -0.34387445 -0.41125232 0.08922505 0.10670556 0.11725994 0.2754017 -0.27787226 0.1080019 0.020789785 -0.03185309 0.30681792 0.1902318 0.27870786 -0.07498946 -0.27434805 0.392257 -0.12932424 0.13433231 -0.39514998 0.21156019 -0.41686538 -0.4263107 0.091149695 0.186209 -0.25455362 -0.095363185 -0.4413043 0.122600034 0.41039112 0.012743178 0.013590305 0.37042585 -0.21609896 -0.08594485 0.05795977 -0.16183494 0.3210668 0.1531021 -0.20685847 -0.09775186 0.10622572 -0.028621182 -0.017972963 0.10919612 0.049509224 0.096537195 0.08330037 -0.12502886 -0.1849586 -0.21725082 -0.10876919 0.19856502 0.40743008 0.09512762 0.020746088 -0.29899257 0.628042 0.02766694 -0.08756788 -0.011364494 -0.04292211 -0.11660432 0.043604583 -0.1398754 0.13609117 0.016759511 -0.13007967 0.081658885 0.1023034 -0.43326727 -0.28423822 0.23821491 -0.044074733 -0.20745254 -0.25244212 0.080793835 0.073013306 -0.11451945 -0.32548115 -0.0558858 -0.035984755 0.37497708
267 0.3001576 -0.03311035 -0.25771382 0.2588291 -0.010833362 -0.20050372 -0.09280041 0.24674657 0.15117039 -0.23305283 -0.32332572 0.14936922 0.22569548 -0.35313547 0.03653473 0.11546041 -0.13722438 -0.11307512 -0.18920733 0.12239916 0.10414526 0.4958972 -0.10021251 -0.07325665 -0.16879609 0.22437537 -0.044663828 0.2036329 -0.08499842 -0.2635836 0.12915939 0.103620954 -0.160422 -0.08674842 -0.12928876 0.1440714 0.17090227 -0.067225434 -0.0036771707 0.05476075 0.24949355 -0.23011617 0.37011564 0.20695311 -0.18490206 -0.0036604826 0.055833608 0.46370974 0.023445701 0.14057967 -0.07445121 -0.2915083 -0.19211496 0.026925493 0.23143387 0.07982817 0.15462604 -0.2807422 -0.02508136 -0.106400475 -0.5554522 0.24187069 0.11716692 -0.23158032 -0.18528554 0.18068677 0.093996085 -0.09657369 0.010659328 0.09640888 -0.06085807 0.21998349 0.117439196 0.15383197 0.50650233 0.100679375 -0.45896995 0.45342168 -0.15887858 0.019460123 -0.12276805 0.2528129 0.077314734 -0.037164457 0.18556155 -0.092040665 0.4474571 -0.034324706 0.15205172 -0.18117534 -0.041946203 0.4166948 0.022638427 -0.085831754 -0.17331176 -0.19582713 0.0901536 -0.35939658 -0.054152086 0.31748202 -0.10193055 -0.07608192 -0.1929837 -0.18796268 0.015947891 -0.09700966 0.0061493074 0.14741877 0.32526806 -0.17311324 0.3736547 -0.067545176 -0.04969381 0.025527844 0.00350847 -0.18233754 0.14794843 0.08651366 -0.12439156 0.04770673 -0.26321068 0.16207986 -0.025387466 -0.24147384 -0.5045791 0.14958794 0.041488513 0.418064
132 -0.021110112 -0.028418507 0.016362866 0.3091565 0.41991842 -0.24422845 0.050149035 0.08572237 -0.11016483 -0.2493598 -0.07479653 0.16568658 0.42462343 -0.5787944 0.30889124 0.06844273 0.075898275 0.08061911 0.23768643 -0.19061774 0.13907993 -0.18463495 -0.08274745 -0.51837724 -0.2792341 0.15449706 0.068980105 -0.2793237 0.38115567 -0.1743755 0.16844656 -0.21361957 -0.21201676 0.044078186 0.06565003 0.29805222 0.0792486 0.30499363 -0.32341793 0.38375273 -0.017954718 -0.11263175 0.12543227 0.1155883 0.18905136 0.15543216 -0.27803972 0.075387135 -0.24993157 -0.1258787 -0.025006268 0.22750862 0.015252356 0.038929433 0.044149246 0.034300167 -0.003454704 -0.16257806 -0.27371064 0.033680998 0.31142205 0.013915817 0.07639742 0.040535316 -0.08180008 -0.09220741 0.0035107606 -0.04354327 -0.06113542 -0.06958564 0.027352069 0.02797871 -0.10209885 -0.030491944 0.33418995 0.4083642 -0.101632796 0.09923942 -0.17013332 -0.15303335 0.11562924 0.2856234 0.28887263 0.0031142824 0.33573243 -0.2237941 0.20002604 0.06295487 0.15377024 0.06521453 0.26070803 0.4961442 0.16976653 0.017950453 -0.020690637 -0.19931959 0.33556467 -0.056700356 -0.27778322 -0.082058646 0.08221234 -0.07541127 0.05169015 -0.60742253 -0.08203562 0.31979302 0.43155894 0.3015722 0.107940145 -0.1525217 0.0078107496 -0.01503894 -0.46707746 -0.12705207 0.114460975 0.11426494 -0.2204509 0.031248922 -0.367669 -0.36494216 0.20375144 -0.31415984 -0.14167199 0.13898164 -0.043959416 0.17048319 0.13125089 -0.3232635
104 -0.034870874 0.1771696 0.12663081 -0.22573122 -0.037964124 0.020098848 0.19662613 -0.1644425 0.11354136 -0.19580884 -0.18147089 0.30623934 0.16927855 -0.64962953 0.098919496 -0.11889574 0.06821553 -0.31025735 -0.056688454 0.08500593 -0.08014019 0.13920131 -0.26183274 -0.21614122 0.18189381 0.14690849 0.31262565 0.072276734 -0.04901613 -0.04780032 0.07169122 0.101094484 -0.31772986 0.32025456 0.12676316 0.0665796 -0.13120706 0.023973668 -0.14022242 -0.09579628 -0.19871038 -0.2683513 0.23119408 0.14686786 0.06654124 -0.0931277 0.20349532 -0.4642832 0.2873649 -0.25649118 -0.26030737 -0.04800149 0.063536026 0.37217796 -0.08941067 0.10191645 0.1165118 -0.43531898 0.042722773 -0.553389 -0.5030946 0.16884516 0.021848228 -0.28673664 0.32209864 0.24149884 -0.09503964 -0.35847557 0.27358717 0.011414722 0.028009282 -0.090159796 -0.2860804 -0.20215018 0.20169973 -0.06011226 -0.25571987 -0.22308913 -0.26671073 0.22072686 0.092523105 -0.21709858 -0.0668951 0.12590696 0.0974896 0.1688301 0.41013104 0.2874565 0.014999064 0.117308125 -0.28790337 -0.108080044 0.08679934 0.20930605 0.033246335 -0.1399253 -0.10021856 0.05507301 0.19146454 0.028527696 -0.2137524 0.055956267 -0.13835964 -0.05972495 -0.20499545 0.42693582 0.02190526 -0.012817266 0.017425163 0.05472215 -0.20448326 -0.05024958 -0.012285147 0.0906195 0.2898903 0.24925725 -0.040308446 0.26997834 -0.12014756 0.0033398848 -0.23463267 0.19575386 -0.04735353 -0.033634983 -0.556913 0.041483454 0.21750602 -0.013235062
260 0.22108755 0.23479977 0.08970686 -0.17335454 0.029118875 -0.17740168 0.28487453 -0.15283424 0.141095 0.19742878 -0.23202345 -0.07657813 0.033536494 0.08548237 -0.15484622 -0.010110867 0.0696501 0.09823671 -0.6018084 -0.032190703 0.11303248 0.12640929 -0.12003522 -0.07080893 0.010834669 0.06699488 0.09578632 -0.24763322 -0.05813244 -0.13696976 0.15792602 0.09983453 -0.13915345 0.34935397 -0.10355917 0.23535867 0.06713426 -0.034061573 -0.33464774 0.53828984 -0.18415551 -0.097217575 -0.08760462 0.46124983 -0.11879457 0.20993413 0.030392101 0.23424864 0.2627772 -0.46362028 0.3682257 -0.077382915 -0.006012656 0.004599668 0.11089684 -0.14458114 0.24457404 -0.20787764 0.44952008 -0.12012109 -0.009637682 0.2999994 0.18304993 -0.006240342 -0.4922588 -0.000653349 -0.038028378 -0.05481116 -0.20369191 -0.089614354 0.044789553 -0.0526239 -0.05571631 -0.25007313 -0.02814463 0.16221265 -0.17747183 -0.10492956 -0.21105488 0.4776866 0.38324812 0.28256613 -0.070072554 -0.1264314 0.5232022 0.17044967 0.20183249 -0.13386561 0.12071732 0.41423523 0.20673536 0.049238387 -0.043784462 -0.06686157 -0.1092649 0.08940863 0.053131126 -0.15505646 0.114154644 -0.11849603 -0.37123397 -0.20507573 0.10594792 -0.24850483 0.0056146597 0.24234194 0.11226913 -0.36665553 0.19074129 0.19609979 -0.17365044 0.13392326 0.03875247 0.054713447 -0.02622405 -0.15537325 -0.010606726 0.3554932 -0.039158832 -0.09136976 0.12924898 0.14118603 -0.082818694 0.1566805 -0.26278818 0.22265804 -0.029676206 -0.18440737
183 -0.06575332 0.16025025 0.3224927 0.45182127 0.018226292 0.008126727 0.08063722 -0.2817271 -0.28306922 0.3454297 -0.0785304 0.06869533 0.2947939 -0.010953942 0.5071405 0.07270624 -0.55002666 -0.1368584 0.18914613 0.012129011 -0.083906434 0.2523814 0.03939501 -0.4976259 -0.14932361 0.21988927 -0.18651986 -0.12480033 0.104702406 -0.21384643 0.06297927 -0.056835618 -0.27100843 -0.15320067 0.02965586 -0.10640194 0.32887888 0.042785432 0.26013246 -0.24658124 -0.077809826 -0.38183624 0.17880146 -0.15024123 -0.005120935 -0.008443263 -0.30129477 -0.27272967 0.023943463 -0.51650906 0.30833897 -0.14913416 0.1619553 -0.1768208 -0.03361735 0.05434522 0.316038 -0.09038059 -0.19462757 0.17773716 0.083350375 -0.1301677 0.12013404 -0.121015 0.03243954 0.37999502 0.09205886 -0.13796043 0.16589786 -0.02066685 -0.13484979 -0.2332814 0.0098639 0.04125295 0.1316374 0.06371152 -0.11327356 -0.18991484 -0.31475824 0.16608778 0.012524528 0.039735716 -0.15516488 0.18649562 -0.19731908 -0.2347569 0.19197853 0.033717383 0.30055302 -0.08285786 -0.093599685 -0.22786371 0.28504765 0.2693206 -0.2587944 0.20080005 -0.08897748 -0.4854833 -0.032852907 0.24862789 -0.20747529 -0.102636956 -0.03700352 0.35928124 -0.22461642 -0.02092704 0.0686459 0.15879394 0.08703756 0.067561306 0.043354664 -0.040204573 -0.18011865 0.06399033 0.0340882 -0.03338201 0.36385152 0.22607197 -0.20199287 -0.23614901 0.06283774 -0.35906893 -0.23780924 0.04192193 0.1458509 0.32669058 -0.04190533 -0.19835016
108 0.1993447 0.10598802 0.26038152 -0.19331953 -0.07777594 0.39492562 0.25305113 0.10663724 -0.22153386 -0.04157841 -0.0777218 -0.19016205 0.13660055 -0.2642021 -0.1205932 0.073409 0.010331152 -0.14186436 0.11898956 -0.2900558 -0.22037621 -0.22714609 -0.007265698 -0.16809869 -0.18378618 -0.63623625 -0.039006926 0.07571 0.097822115 0.023842435 0.23935913 -0.00092544215 0.25720185 0.095574535 0.09081789 0.14363965 0.25997278 -0.06413144 -0.31492242 0.13864988 -0.011788401 -0.03527119 -0.255665 0.13822262 0.046586875 -0.08993599 0.19910283 0.09145062 -0.13226111 0.11451936 -0.03278307 0.015880855 0.14401767 -0.5808067 -0.39020956 0.055570815 0.085730165 -0.107724145 -0.24407598 0.24416345 -0.20031552 0.15766568 0.13601902 0.21450937 0.15390563 0.19701433 0.28150576 -0.10175644 -0.20254721 0.048692387 -0.1757122 -0.4338265 -0.10053756 0.36109954 0.1353394 0.19573526 -0.21227197 0.03415954 0.13584284 -0.13486755 0.31465465 -0.25308353 -0.13322054 0.37751168 -0.38678032 0.2919773 0.19468288 0.23115626 -0.11401874 0.45400742 0.12694532 -0.15767673 0.0849965 0.040779486 -0.22363865 0.1748311 0.09272147 -0.3485997 0.044027206 0.18390553 -0.116241835 -0.111616604 -0.004967814 -0.12027787 0.524927 -0.20261824 -0.0031336192 -0.013338574 0.13560778 0.20805655 0.18091233 0.17968154 0.21420667 -0.21768205 -0.093558595 -0.07968671 0.16405854 0.20657192 -0.012688878 -0.08619328 0.06286386 0.13145697 -0.22270615 -0.2009085 -0.456656 0.22044797 0.18193792 0.03649933
