1500 128
1484 -0.063188545 -0.22695188 -0.12751214 0.03305068 0.03663109 0.16384311 0.20779264 0.018203367 -0.05573722 -0.022457918 0.109168075 -0.14343667 -0.39225426 -0.025471836 0.10882726 -0.07468926 -0.19329013 -0.0967324 -0.07167039 -0.13142069 0.31809703 0.3783231 -0.02272537 0.06562341 -0.30078176 0.18283328 0.0018543773 -0.20104311 0.4114967 -0.19704287 -0.34600452 -0.059235133 0.24921548 -0.10885066 0.22610612 -0.12525782 0.22423743 0.017093092 0.30889115 -0.10828005 0.02359222 0.18550345 -0.32669047 0.028484356 0.057745226 0.016862407 -0.12606862 -0.09740454 -0.15041725 0.26880142 -0.19787525 -0.22918369 -0.21778233 0.34135127 -0.38692906 -0.1646671 -0.32311255 -0.03416171 -0.21362256 0.34891188 -0.08516941 -0.051580835 0.16872056 -0.014023561 -0.1404493 0.44986144 0.56569356 0.42230147 -0.6647336 -0.0051319823 -0.022117421 -0.21432148 -0.033780303 -0.16764677 0.018393693 -0.010535321 -0.31539673 0.2674342 -0.10981205 0.508041 -0.3614119 -0.42923662 -0.002800584 0.42243862 -0.13647889 0.025322981 0.19368525 -0.08964004 0.3242848 -0.04327385 0.039676417 -0.033880435 0.15939474 0.13035014 0.53978676 0.09237419 -0.20762974 0.022264214 -0.008384951 0.16592883 0.27057233 0.055086512 -0.4097475 0.12659992 0.2940147 0.023779644 -0.4522401 0.33215982 0.16483104 -0.08255361 -0.15119345 -0.2219875 0.080002174 -0.0012036414 0.16441996 -0.0781452 0.08530798 -0.0022558905 -0.24447508 -0.03666521 -0.0067027053 0.14342923 0.17021334 -0.019726956 -0.08873643 -0.18947062 -0.36477503 -0.26147902
1023 0.5411214 -0.0019041043 -0.29258645 -0.29598194 0.2534469 0.105981216 0.13613366 -0.1431022 0.493537 -0.10531668 0.14433597 0.061333824 -0.39328387 -0.121682175 0.2751261 0.23676798 -0.23852801 -0.09759144 -0.14370236 0.22063847 -0.091571525 0.11224173 -0.35330722 0.07078411 -0.06947026 -0.3129046 -0.12648956 0.37376615 -0.027740989 0.122133076 0.2713619 0.27028266 0.2781211 0.18407448 0.20767033 0.24679329 -0.021104256 -0.09841238 -0.037730046 -0.19508511 0.1655423 0.3029412 0.16550358 0.25726643 -0.082705215 -0.06718546 -0.1325774 -0.005119945 -0.116773576 -0.1630545 0.18447554 0.02442728 0.3450523 0.27546364 -0.15221733 0.1660603 0.14419311 -0.28903574 -0.12543619 0.2958883 -0.09280899 -0.011951499 0.12496466 -0.102827996 -0.13496324 0.018604964 0.1968636 0.25476512 -0.35420427 -0.15452948 -0.27668554 -0.6111795 -0.055976853 -0.42538714 -0.27308574 -0.025364168 -0.23925208 -0.054117635 -0.02747915 -0.33504757 -0.43455055 0.62482554 0.09226558 0.57582444 0.11413174 -0.08838886 -0.0028504771 -0.47492778 0.25282612 0.030664114 0.20481932 0.04184126 -0.04487638 -0.28110313 0.057684213 -0.37951607 -0.12886524 -0.11099358 0.20332323 0.20523086 -0.4019 -0.062093265 0.121845454 0.27459928 -0.19530627 -0.032630242 -0.1217542 0.3371274 0.40658173 -0.10953453 -0.06369231 -0.10860073 0.2465011 -0.21237709 0.25767636 0.16623639 -0.078078195 0.030949624 0.15983668 0.25593585 -0.06444105 -0.19787978 0.023362579 0.2468736 -0.20668563 0.053092662 0.48132715 0.1306967
1139 0.21190713 -0.4558779 -0.12809649 -0.075390995 0.44001636 -0.08561577 0.21430326 -0.1989417 0.5206477 0.113279074 0.17478774 -0.046310157 0.035939515 -0.041474774 0.24227935 -0.23458572 0.52439994 -0.012704948 -0.23758607 0.6774785 0.37575155 -0.18166803 0.18550678 -0.010504653 0.080284126 -0.09285677 0.061315354 0.16772576 0.19501041 -0.10739605 0.6439024 -0.18008877 0.2227951 -0.38359404 -0.22121803 0.21147771 0.009455383 0.091275126 0.53988796 -0.2307182 -0.08004684 0.24038665 -0.46873295 -0.17750503 -0.16264059 -0.3559683 -0.041612186 0.06490698 0.05498621 0.2163173 0.42514825 0.1591907 0.2517229 0.2160383 -0.051328663 -0.083982326 -0.3872528 0.15233076 -0.107873335 0.35389543 -0.11233265 0.20581706 0.064846456 -0.09912619 -0.45376813 0.06524891 0.19597091 0.055973273 0.0039248844 0.06056779 0.36752564 -0.077366024 -0.13704048 0.025972532 -0.18581092 -0.09090112 0.011245119 -0.17439899 0.10588336 -0.34698153 0.06537355 -0.010646629 0.040196054 -0.24973348 0.07668426 0.34203672 0.056393564 -0.18753746 -0.1341109 -0.25510636 -0.101637885 -0.032552496 0.22892673 -0.18865588 -0.05765293 -0.0047867633 -0.08560168 -0.015883824 -0.3887965 -0.11983083 -0.010527711 -0.3369681 -0.08089848 -0.01082293 0.08867969 -0.010164919 0.23275143 0.19104178 -0.21210784 0.32119375 0.022822486 0.07640422 -0.09567098 -0.10644812 0.35930938 0.14002353 -0.107996345 0.45525143 0.012390403 -0.13855426 0.078901194 0.1684696 -0.11780059 -0.14228274 0.26117623 0.031657655 0.023047963 0.20619051
1286 0.35385028 0.038853534 -0.20557407 -0.3502703 0.010344856 0.33327967 0.18542725 -0.28446543 0.3280498 0.06895938 0.036219675 -0.31895545 -0.20322514 0.061369106 0.03146593 0.3188746 -0.18563317 -0.31963593 0.21782759 0.45815453 -0.13479733 0.15787256 -0.61364603 -0.13636823 0.00853806 -0.4061894 -0.09658787 0.07862368 0.0038183667 0.07978344 -0.07577654 0.37009194 0.30564797 0.045489747 0.12711358 0.06820415 -0.250395 0.10140832 0.36394507 -0.082545854 0.02411034 0.56427276 0.09344272 0.5716382 0.008222436 -0.3622059 -0.045819763 0.0068533933 -0.04423621 0.014024878 0.1980659 -0.041464344 0.1553604 -0.016256647 -0.092912264 0.3215931 0.30850664 -0.23311736 -0.21302974 0.13713063 -0.22320148 -0.22277768 0.13573375 -0.31459188 0.0072706137 0.05293938 0.14580975 -0.15415111 -0.40111876 -0.107837126 0.10004356 -0.24091081 -0.12161314 -0.25805473 -0.08024982 -0.5779747 -0.15057659 -0.007962462 0.13703217 -0.42256346 -0.4378063 0.27193806 0.2927759 0.52616763 0.23449849 0.12451275 0.01140968 -0.2313724 0.08603205 0.18865943 -0.0640666 -0.0029916365 -0.25471368 -0.11773967 -0.10090539 -0.21526293 0.0029076082 -0.08188837 0.39381707 0.068345085 -0.1596788 -0.04987846 0.20692128 -0.08559627 -0.23214136 -0.23207875 -0.14003593 0.1403242 0.08200482 -0.2119875 0.4488705 -0.11492123 -0.0784481 0.2097975 -0.06132428 0.015811853 -0.35619897 0.03634364 -0.18818665 -0.014788556 -0.07197355 -0.021555591 -0.07828812 0.12718298 -0.20525257 -0.04476932 0.22868738 0.2523412
842 -0.052965954 -0.4364505 0.09436735 0.59380925 -0.043972835 0.09129471 -0.022407439 -0.17446181 0.061773643 0.034488216 -0.46068862 -0.1514253 0.017758064 -0.04333121 0.14890936 0.21687147 -0.10435301 -0.11074069 0.01615858 0.15841363 0.3887166 0.16506946 -0.24674699 0.3761455 -0.3879747 0.09186813 -0.24580581 -0.37354448 -0.15319222 -0.12038998 -0.33400756 -0.25339848 0.20935883 -0.03118728 0.17494151 0.100701235 0.26681593 0.13563214 0.024029149 0.025219489 0.09173406 0.29927564 -0.19549814 -0.023947006 -0.2967709 0.18498912 -0.2907099 0.105798356 0.119316235 0.13882925 0.03314932 -0.07614341 -0.21398428 0.23418601 -0.07372128 -0.0899414 0.01709792 -0.22953244 -0.35308307 0.43901175 0.096574806 -0.011963704 0.31796756 0.08016732 0.015139534 0.47380126 0.5329851 0.028367136 -0.3700843 -0.054413766 0.2426527 -0.07064334 -0.012453292 -0.16097873 -0.07976913 0.10016658 -0.19290228 0.22467712 -0.018578066 0.8579315 -0.51773053 -0.21636274 0.068147115 0.14662959 0.056195915 0.33563152 -0.15390575 0.13210543 0.35032028 0.03438442 -0.36370566 0.0028059112 -0.1070495 0.20810643 0.2932769 0.12794338 0.047717724 0.067789815 -0.016355159 -0.02927684 0.1763338 -0.23157328 -0.060079895 0.13412975 0.32376766 0.039789356 -0.28972268 0.0211802 0.06975321 0.23634164 -0.013047352 -0.06886817 -0.068871565 0.009497469 0.22006418 0.016908828 -0.098635234 -0.0113631645 -0.30763823 -0.028337553 0.3581782 0.22992325 0.048204742 0.06776024 -0.069871716 0.19103163 -0.02551257 -0.2688157
1274 -0.09892468 -0.17076546 -0.028591285 -0.06423321 0.5432999 -0.14625135 0.036725193 -0.09486558 0.95349956 0.37891924 0.30731654 -0.14156477 -0.22705306 -0.3476873 0.5035737 0.014399127 0.23017626 -0.14017092 0.012398202 0.5035293 0.06692688 0.18299098 0.3912135 -0.056240387 0.09382729 0.24767429 0.09240683 0.14947443 -0.06475503 -0.013675033 0.35943684 -0.20119105 0.09230787 -0.2831554 0.23686753 0.038856138 0.13813722 0.4032894 0.16768174 -0.14840566 0.12954399 0.08759194 -0.34921175 -0.31784615 -0.13820781 -0.43043065 0.09674444 0.34312007 -0.11771541 0.14210956 0.45295045 0.03701425 0.5206917 -0.19354935 -0.3953349 0.022442486 -0.06798831 0.056249205 0.24212731 0.3688527 -0.01663951 -0.07583892 0.20978166 -0.09238455 -0.13192837 -0.19556946 0.16712232 0.04463133 -0.37861994 -0.008403443 0.1625853 -0.209163 -0.17500034 0.38383615 0.0697131 0.16474526 0.1335775 0.069174096 0.19761936 -0.19711256 0.10609537 0.3050217 -0.33440125 -0.20269908 -0.065634735 0.19915605 0.09535746 0.088815525 -0.15628457 -0.3102641 0.06719754 0.10729883 0.042511687 -0.23916452 -0.15025915 -0.17847045 -0.50326234 0.23308074 -0.0788526 -0.22219984 0.09365543 -0.17876622 -0.18039826 0.06919451 -0.20243339 0.1967083 0.20346864 0.2093425 -0.14419699 0.10676947 -0.4267485 0.025191987 0.07682127 0.24333212 0.18161236 0.0011630977 -0.16041753 -0.006294839 0.05932924 -0.1918203 -0.18327227 0.088599265 -0.15447944 0.09095717 0.25642684 -0.007341693 -0.17821121 -0.0021365292
1391 0.08341613 -0.14425655 0.27764264 -0.27889 0.32893026 0.318955 -0.09336342 0.17827387 0.1640844 -0.02735925 -0.24350332 0.0015117133 0.0043344935 -0.52509624 -0.13314573 0.069456585 0.06620584 -0.38797048 -0.05631343 0.3629515 0.25205272 -0.415968 0.106229916 -0.1605002 0.069158666 -0.15020692 -0.017150389 0.36073455 0.086065024 -0.4163575 0.3336974 0.101215914 0.17072965 -0.117646165 0.002172016 0.09514205 -0.3245943 -0.07992436 0.25938308 -0.6255994 0.03434264 -0.0019295996 0.12597571 0.113656856 -0.038374163 -0.27766335 -0.024768194 -0.23957142 0.26278624 0.124406494 -0.28432322 -0.00030693065 0.15512916 -0.1207117 -0.020394893 0.05355746 -0.16043185 -0.059260093 -0.14234705 -0.054709397 -0.38283858 0.26503026 0.056158535 0.19171312 0.058478054 -0.2647166 0.13840008 -0.063888304 -0.17061442 -0.10563771 0.34469303 0.062344987 -0.31857753 0.10350171 -0.23960921 -0.023981627 0.005966347 0.24855083 0.30337968 -0.19312772 -0.05021857 -0.16737649 0.37124637 0.3841898 0.00024196098 0.1260959 -0.19828728 0.13731587 0.23820117 -0.6741467 0.10990216 -0.1043824 -0.056018468 -0.27413163 0.3201954 0.17571697 0.13407317 -0.15105791 -0.47424427 0.27031565 -0.30723375 -0.30741927 0.02923875 0.024663378 0.52018523 -0.023756767 -0.27635497 0.15304884 -0.20397666 -0.15659009 -0.29140514 -0.16257186 -0.04787107 0.32877365 0.112491995 0.1988602 0.23922616 0.36682108 -0.2373467 0.27516383 0.21797936 0.13879971 -0.43859535 -0.05895986 0.10414472 0.02654279 0.24784167 0.04285404
1363 0.32418248 0.08268644 0.024551647 0.0039526178 0.22634469 0.20986015 -0.25031286 -0.093177244 0.10897641 -0.19523852 0.14332965 -0.03831862 -0.22507842 -0.39773813 0.16876136 0.3023629 0.020621166 -0.18934982 -0.18056843 0.096657075 -0.3243603 -0.19996092 -0.17962515 0.10367673 0.04827361 -0.3927591 0.036438853 0.20438817 0.086489275 -0.291154 0.33571237 0.27267694 -0.12671761 -0.14739917 0.1945479 0.3373122 -0.23600319 0.07233773 -0.34957883 0.008989842 -0.18299852 -0.34915766 -0.26844132 0.013244574 0.19935468 -0.20631403 0.26493356 0.24138892 0.2818403 0.40805247 0.029055068 -0.20619155 -0.1852483 -0.3340414 -0.20777121 0.44291 -0.120209575 0.15668635 -0.12136753 0.16561197 -0.023495723 0.088953055 0.18538463 -0.14538889 0.06266437 -0.03595882 0.0028792534 0.11778662 -0.31294337 -0.27604908 -0.102133125 0.055333253 0.36872137 -0.43497023 -0.07684626 0.12335741 -0.43225583 -0.10658772 0.31072065 -0.004815778 -0.024940012 0.18709302 0.12959798 -0.14591911 0.16960664 -0.030933673 0.15491861 -0.29483587 -0.26308846 -0.22092523 0.10583987 -0.050237447 0.12481962 0.10079005 0.03262513 0.29296485 -0.14065263 0.45047876 -0.08964852 -0.09793797 0.23327464 -0.054811474 0.115588985 0.4680126 0.36463138 0.112626016 0.032371026 0.018653298 0.2924065 -0.104172185 0.11023608 -0.2049096 0.042922482 0.24679548 0.52227134 0.26669574 0.45404363 0.16379763 -0.58915293 -0.109074034 0.3994777 0.019697366 -0.32811138 -0.048460077 0.26408 -0.15505825 -0.09873704 0.09243267
1332 0.23123117 -0.27290854 -0.61154884 0.3302407 -0.07965204 -0.2116181 0.058886394 -0.11657406 0.24787961 -0.46067762 0.17824076 0.115264595 0.07993526 -0.029880546 -0.29661846 0.23076817 0.04703418 -0.19311203 0.0065289456 -0.14457445 0.11477972 0.467795 0.18625706 0.04728719 -0.06359344 -0.34165657 0.025920182 0.4723291 -0.08661943 0.06584281 0.09493182 0.06919788 -0.14861645 -0.07221568 0.28652337 0.11055617 -0.45194462 0.31387687 0.12512761 0.3662582 0.2012419 0.38285 0.010513043 0.22958721 0.08499569 0.17533194 -0.16301046 0.2040295 0.12813823 -0.2681145 -0.4432469 0.12345025 0.12004806 -0.21459971 0.06508547 -0.20381723 -0.19546375 0.23308621 0.055981793 0.5588285 -0.03725947 -0.21158445 0.118161 -0.26936832 0.44256097 -0.21051556 -0.2736555 -0.062925726 0.026102541 0.26807967 -0.16838898 -0.1624368 0.25046945 -0.18029238 0.10361415 0.039595664 -0.22207893 -0.35263994 0.0288439 0.047285028 -0.0070933425 -0.24987923 0.016195824 0.120102845 0.34922996 -0.07604791 -0.08764161 -0.13130312 -0.1578147 0.22198734 -0.21591285 -0.058906227 -0.028506499 -0.00979097 0.06591806 0.019007118 -0.2981223 -0.114100456 0.12850247 0.15321833 -0.2274421 -0.25935033 -0.31175572 -0.12010193 0.025651708 -0.08589403 0.08703248 0.45449927 -0.09963135 -0.060878627 0.041600935 -0.4381569 0.407162 0.10372023 0.2733279 0.26516303 0.40368232 0.16484165 0.49998814 0.2931556 0.33957246 -0.40414485 0.078604184 -0.040734187 0.05155886 -0.095594876 -0.051792115 0.18148915
804 -0.057127703 -0.06193829 -0.19616763 0.039174154 0.4432682 -0.23220396 -0.069306925 -0.32455915 -0.3881721 -0.24617945 0.13062578 -0.29862484 -0.08356043 0.42306903 0.24945198 -0.037274584 -0.3370489 0.08497424 -0.045608517 0.14694646 0.036138628 -0.02223212 -0.27412668 -0.23326546 -0.09883764 0.28667265 -0.041588306 0.38252175 -0.18469487 -0.43177292 0.123192996 -0.08451967 0.14507358 -0.18132286 -0.19523531 -0.24378087 -0.07057375 -0.16608886 -0.05142044 0.426735 -0.08139671 0.42141685 -0.17354228 -0.17474873 -0.34512204 -0.41529283 0.35059124 -0.22814797 0.21317127 -0.20890523 0.04757571 -0.066251025 0.18596996 -0.20487225 -0.2967143 0.26563713 -0.0049846307 -0.18346669 0.0106525645 0.30466464 -0.48806047 0.34168407 -0.10128066 0.0057985648 0.1862648 0.08803707 -0.312671 -0.12182461 0.036117326 0.105493635 0.46207887 -0.087632604 0.24707171 -0.06407673 -0.19583467 0.015420592 0.23157725 0.049246203 0.24831042 0.1466398 0.31542373 0.037769467 -0.02457698 0.14521454 0.06397898 0.29220858 -0.36249995 -0.2711575 0.23176661 0.24704765 -0.47420803 -0.35032845 0.23289111 -0.40124464 -0.1497458 0.26068172 -0.56956226 0.1929228 -0.12159731 -0.1466559 0.31101137 0.044805203 -0.029339219 -0.039572738 0.158264 0.29813054 -0.19215043 0.6430315 0.18710397 0.05656608 0.31858456 -0.032254 0.04680462 -0.050602224 0.16389455 0.09983761 0.19771211 0.27897575 0.14986138 -0.128435 0.4853862 -0.13900474 0.058667436 0.0015655113 -0.13664071 0.21290039 -0.2278044 0.3133175
1030 0.60244644 0.093478404 -0.298629 0.1948614 0.10384803 0.30178216 0.30561486 0.13425575 0.06416494 -0.32464987 0.20607698 -0.024866097 -0.0042885356 -0.043721303 0.346599 -0.14464557 0.41868043 0.11472582 -0.16558433 -0.11511076 -0.10695057 0.0065829232 -0.21416803 0.18997772 0.06094462 0.3242454 0.02143839 0.14889686 0.006280512 -0.34682336 0.0732224 -0.36269423 0.18063065 -0.10102472 -0.15323858 0.15140016 -0.08378748 -0.11121825 0.15637104 -0.20482637 0.16309857 0.3252432 0.055573802 0.15243833 0.46864027 -0.2596916 0.2619397 -0.057847034 0.20887394 -0.22753897 0.096747756 -0.13387764 -0.18436791 -0.02532164 -0.067845516 -0.56107837 0.25931826 -0.47001994 -0.01646416 -0.058939412 -0.03032309 -0.005301381 0.34797293 -0.11852024 0.55814856 0.011618122 0.054029774 -0.028131953 -0.15519297 0.3666879 -0.06854696 -0.017935554 0.06947617 0.24390319 -0.123455904 -0.09966481 0.09161773 -0.37480995 -0.5233057 0.38655648 0.28875986 -0.19889353 0.47995502 0.043142583 0.22491004 0.04962259 -0.15044877 0.087520204 0.23550093 0.46632203 -0.073450014 0.055522665 -0.09385566 0.22295898 -0.16704775 0.019723866 -0.25029373 0.15749939 -0.036490105 -0.16170055 -0.23541872 -0.069621325 -0.1779823 -0.57979745 0.08620535 0.24832216 -0.23226774 0.13838737 -0.05653212 0.010906555 0.091310605 0.059480473 -0.2428357 0.49293604 -0.016824141 -0.28766242 0.23257458 0.14634266 0.33486068 0.32187364 -0.15092032 0.25449565 -0.2976681 0.07606876 0.07123675 -0.37442267 -0.58425206 0.4419756
1259 0.3322407 0.38047677 -0.062012475 -0.39706492 0.060847547 0.26349825 0.32307994 -0.3913386 -0.20613107 -0.17098299 -0.14420994 0.04912645 -0.18802188 -0.30856138 0.5482486 0.42614433 -0.2859963 -0.17608604 -0.27991185 0.2582843 0.28122303 -0.21300928 -0.017257385 -0.13222998 0.14201453 -0.06463246 0.009084844 0.030851586 -0.038166925 -0.08609851 -0.32915485 0.11205455 0.22523023 -0.37610582 0.25597546 0.2544146 -0.09531657 -0.17541099 -0.13061136 -0.12821665 0.109913535 0.065636046 0.16561347 -0.2500232 -0.3082855 -0.18482116 0.250392 -0.3328248 0.23500015 -0.38025755 0.09121965 0.29727054 -0.072891645 0.2393744 0.026662992 0.23518819 0.19821575 -0.18861994 -0.059142727 0.3075226 -0.097810104 -0.059665937 0.38809854 -0.11256342 0.54768354 -0.18930641 -0.04406092 -0.00039157624 -0.32265612 0.0012958578 0.029782897 -0.077799715 0.09787638 0.3252642 -0.18693161 -0.41059235 0.25106734 -0.21261844 0.35640764 0.16101083 -0.25253665 -0.49802917 0.3680128 -0.0020818817 -0.09731676 -0.2930333 -0.06655091 0.12596494 -0.23271127 -0.1183964 -0.059735056 0.15017015 -0.34928703 0.024820311 0.18229017 0.16510409 0.2564485 0.39906272 -0.113468125 0.011095947 0.17227276 0.086612046 -0.01368841 0.36624297 0.15898035 0.47895485 -0.29129258 0.23265645 0.24871168 -0.17857675 -0.13085936 0.01473678 -0.338226 0.09656231 -0.06479719 -0.011607861 -0.120063394 -0.111731656 0.029734317 -0.217573 0.095493145 -0.22348683 0.038860124 -0.46003193 -0.31506234 0.241943 -0.23519862 0.14417753
1055 -0.14802235 -0.12628566 0.07276721 0.23196055 -0.26434007 0.3521771 0.27368212 0.14824827 0.28567073 -0.3390649 0.028671382 0.11943752 0.23787758 -0.37172368 -0.045820598 0.24514277 0.2542059 0.0025195542 0.23437546 0.0060956627 0.37129188 -0.029769432 -0.27520657 -0.37152237 0.040209506 -0.65924895 -0.13946864 0.3528399 0.12033675 -0.26085022 0.17214693 0.2520192 -0.1606952 0.17564145 0.19371706 0.11865273 0.23345011 0.108339235 0.04923169 0.036977146 -0.13653438 0.17424485 -0.22792196 -0.052383717 0.0016097752 -0.11023238 -0.20501725 -0.41418535 -0.37860656 0.11499618 0.07938878 -0.12537259 0.12049113 -0.37641335 0.18182072 -0.1371436 -0.07197105 -0.22101004 -0.38084313 -0.13951351 0.0062867724 0.14971213 0.6080239 0.0047943993 0.056078594 -0.071657054 -0.4264016 -0.076587796 0.10795928 -0.13340417 0.014948381 -0.06285041 0.16690455 0.0009890839 0.12278982 -0.1198644 0.17096774 0.23610975 -0.28395402 -0.047629416 0.3289048 0.26103783 0.16692086 0.3217061 0.23569287 0.08315595 -0.15816943 0.06958091 0.20198509 0.05126028 -0.49306402 0.04325892 -0.01674532 -0.3106314 0.54885566 0.13339889 0.20085964 -0.47534478 -0.16210893 -0.004475915 -0.01525638 0.12284552 -0.2638567 0.23242219 0.31450337 -0.08557263 -0.015146462 0.50767255 -0.016140165 0.1971379 -0.092065446 -0.09034587 -0.024713553 0.043900743 0.05448676 -0.0027275642 0.3666899 0.07090554 0.5892726 0.16925293 -0.09672846 0.28252533 -0.29671058 -0.27012095 0.09212267 -0.17793018 -0.21688986 0.0021306868
1242 0.54947376 -0.101124115 0.16596307 0.0072931573 0.2338435 -0.10269503 0.14825776 0.025524167 0.098119624 -0.17653239 0.17393333 -0.433013 0.05441451 0.018472778 0.3136027 0.6215533 -0.09364738 -0.26532623 -0.30299565 -0.13682489 0.11940409 -0.17029412 0.037185818 0.07483096 -0.119712636 -0.34180936 -0.016510257 -0.38212556 0.17148909 0.10639085 -0.10144375 0.08484881 0.06300547 0.56964433 0.007655971 -0.0584515 -0.11634125 0.090241395 0.16824313 -0.5780166 0.14723897 -0.12889184 -0.30193746 0.10671893 0.20723489 0.20439765 0.31262493 -0.036142692 0.12863538 -0.05796871 -0.06385829 0.3487399 0.20683281 -0.31431395 -0.26576543 -0.08749912 -0.13223532 0.036730196 -0.21641257 0.11614616 -0.039192006 0.23421992 -0.24225773 -0.12749657 -0.18086979 0.39772648 0.036317896 0.08068153 -0.059964504 -0.042427704 -0.037479118 -0.010329781 0.36745477 0.10335776 -0.17177851 -0.13287966 -0.05476426 0.29356658 0.20850599 -0.080689065 -0.22388 0.39491206 0.069791555 0.06823619 0.6125754 0.07145824 -0.09876304 0.07727177 -0.024192201 0.16548787 0.19947259 -0.11629158 0.036080208 -0.40777224 0.114574574 0.33889532 -0.066837035 0.015120452 -0.3871455 -0.2033249 0.4826771 0.067883186 -0.24936831 0.114575 0.346396 -0.123834446 0.16233775 0.560049 0.15214573 0.20592539 0.046960007 -0.2462216 -0.22172059 0.2730223 -0.05651959 0.090378344 -0.07546126 -0.18883891 0.03403493 -0.23360962 0.36747944 0.36961666 -0.14221008 0.15537411 -0.03492518 0.062447216 -0.24017255 -0.0581819
1000 -0.15475765 -0.19827779 -0.1329493 -0.25510246 0.45506176 -0.23364633 -0.2072317 0.14436062 0.068405755 -0.021760581 -0.13426481 -0.05358936 0.12149052 -0.5524844 -0.15531799 -0.29719 0.01671353 -0.5711228 -0.10515529 0.17213225 -0.009036504 -0.29674008 0.1561162 -0.13141832 0.07101601 0.21594839 -0.1576872 0.08595591 0.20458765 -0.54807127 0.1493052 0.0079759555 0.16470437 0.354137 -0.030320525 -0.16434136 -0.21069796 0.34940803 0.13680108 -0.48816583 -0.22206973 0.2854809 0.20972182 0.5194584 -0.021113541 0.040809583 0.23245879 -0.38273647 0.185034 0.09300229 -0.0554842 -0.14410254 0.26998627 -0.0524312 0.13335797 -0.0129287 0.0033867438 -0.11870933 -0.061020564 0.039434873 -0.20084481 0.11160433 -0.028520143 0.42052686 0.26065016 -0.26480255 0.28378394 -0.16941737 -0.074071646 -0.16486885 -0.067651056 -0.32167846 -0.059347898 0.009850447 0.108743116 -0.008792467 0.2127174 -0.04456656 0.06618406 0.030915696 -0.41678715 0.20259102 0.39696363 0.51968014 0.013052012 0.018145012 0.06753928 -0.038856775 0.16677578 -0.34025827 0.15106757 0.093303874 0.13736224 -0.07867021 0.5070279 0.06621168 -0.107244164 -0.18780056 -0.43028262 0.14645049 -0.20391451 -0.48613772 -0.031461604 0.30959082 0.51870644 0.07406258 -0.5391903 0.09251542 -0.0024367622 -0.18839423 -0.4716268 -0.3734541 0.005503046 0.33007035 0.04843977 0.2174686 0.28246737 0.24983388 -0.060047474 0.106243536 -0.10504673 -0.12847154 0.04909045 0.2014174 0.3203748 0.17704125 -0.0401529 -0.026990768
460 0.1809508 0.22580789 -0.043036964 -0.013268509 -0.11712502 0.04446554 0.10166903 0.6893578 0.05559467 -0.24952906 -0.1511736 -0.2664596 -0.3798993 -0.52704835 0.05223105 0.12576512 0.029419266 -0.0373035 -0.57156324 -0.30462658 0.35740653 -0.15876992 -0.44213715 -0.48641765 0.11801984 -0.39783424 0.24853736 0.060349375 -0.049161367 -0.16633137 -0.43657616 -0.36553255 -0.014708439 -0.45148644 0.10963558 0.106369145 -0.1504266 0.20874187 0.31017283 -0.008205452 0.1042461 0.022340978 -0.15854299 -0.25365782 -0.12274652 0.21963646 0.07024386 -0.48290625 -0.11980129 -0.35730594 0.27797776 0.08205559 0.023170555 -0.22245096 -0.04008893 0.079210974 -0.6112346 -0.21509324 0.39534578 0.22370628 -0.06758908 -0.055573426 0.23484626 -0.13039245 0.07563531 -0.10790284 0.18026024 -0.5552191 -0.4014255 0.010564761 -0.016927153 -0.2700503 -0.0798625 -0.19628629 -0.21008188 0.1771684 0.117198266 0.24951151 -0.23247178 -0.40816206 0.059819896 -0.03067015 0.06559649 -0.25400457 0.13569964 0.07703178 -0.04064129 -0.25945386 -0.07687226 -0.031825718 -0.23396009 -0.067349635 0.00018163012 0.006722057 -0.49670097 -0.047522496 -0.06520064 0.030385002 -0.13689113 0.12894364 0.047793657 0.24692248 -0.05218085 -0.12970018 -0.091517314 -0.22831926 0.32232577 -0.021865867 -0.3324336 -0.29568857 0.056717336 -0.18574107 -0.26943156 -0.3004075 0.23604628 0.33841705 -0.08738419 0.110863 0.26099694 -0.44622537 0.040042188 -0.090204686 0.018385142 -0.09039506 0.19176342 -0.06522506 0.10214435 -0.19813798
583 -0.39997348 -0.03853455 0.06320839 -0.23983487 0.06180865 0.41789645 -0.15050489 0.44907162 0.047673564 -0.043401085 0.1680339 -0.35043192 0.24529971 0.04650489 0.09841873 0.22756378 -0.035455987 -0.13637997 0.17730634 0.16197789 -0.14460638 0.36601874 0.0134929875 -0.35257065 -0.1635788 -0.16278307 -0.20540431 0.016727924 0.37531203 -0.1685493 0.17655405 0.12622006 -0.051227093 -0.20818524 0.17792095 0.09066718 0.19791055 0.22242494 0.18023837 0.27396312 0.15421578 0.055273596 -0.3672784 -0.20076984 -0.24332279 0.17063989 0.29876027 -0.0952386 -0.22095378 0.36317226 0.23235153 -0.2612871 0.17141648 0.050473597 -0.05678276 -0.29164705 -0.10299472 -0.13350679 0.09031072 0.13197011 -0.060952324 0.45482683 0.053287227 0.24110417 -0.01934926 -0.09530114 0.08344523 -0.12628822 0.31869838 0.2603212 0.001927233 -0.23517673 0.0877022 0.12594871 -0.014818903 -0.037982304 0.027015243 0.0008785303 0.2807974 0.26059958 -0.18988971 0.16966948 -0.0443113 0.26987007 0.2442241 0.12941287 -0.08604958 0.0777046 -0.30931678 0.14860466 -0.11959719 0.081506446 0.08324793 -0.04911832 -0.041747347 -0.2810681 -0.1012283 0.108127154 -0.054173812 0.25322655 -0.0014099224 -0.29913425 0.22200489 -0.015149614 0.08271085 0.43744898 0.014142946 0.027134623 -0.6189432 -0.086161286 -0.22663935 -0.46495557 -0.09857854 -0.015690835 -0.04863294 -0.36569783 0.7429183 -0.1647081 0.3170243 0.12863958 0.3483732 0.23275162 -0.24680817 -0.21755855 0.3076291 -0.05031178 0.052122038 0.3426704
932 0.24629326 0.17631279 -0.3899887 -0.43070838 0.048078965 -0.21465231 -0.17946517 0.23063682 0.023415497 0.022508256 -0.026834197 -0.48981142 0.3726325 -0.071013436 0.13457064 -0.058471728 -0.22683068 0.08623778 -0.02239052 0.2158549 0.34668687 0.12572527 0.03417302 0.067140006 -0.15376559 -0.12673809 0.39193693 -0.019626243 0.033238504 -0.23413795 -0.18216385 0.32404724 0.25828993 0.15286356 0.048104536 0.14804904 -0.17524743 -0.25777096 -0.05969995 0.48115638 -0.2418856 0.236552 0.21145965 0.35935616 0.42073312 -0.17715304 -0.12676418 -0.18479168 0.03441224 -0.070185795 -0.33029264 0.018791137 0.1968845 -0.28211394 -0.4412294 -0.33554775 -0.3049604 0.020187356 -0.19765832 0.12372502 0.02803343 0.07809927 0.2901584 0.19964874 -0.1622732 -0.698918 -0.010133702 0.43304336 -0.068124264 -0.22238591 0.39473876 0.09194568 0.02380688 -0.045387227 -0.012945465 -0.06976386 -0.05215609 0.037325867 0.14130914 0.13683267 -0.23037614 0.051769573 -0.12680183 0.4187559 0.0027271216 0.04270187 0.074731775 0.031866524 0.20065612 -0.057714052 -0.10016632 0.233411 -0.10294646 0.3039579 -0.45099863 -0.3021617 -0.037302896 0.12356773 -0.13443561 0.2516673 0.18562008 0.29143327 -0.29598972 -0.13887359 -0.027610617 0.5859059 0.0657353 -0.31504527 -0.19953924 -0.31454685 -0.17150421 -0.39397776 -0.44406006 0.10055784 0.41211355 0.28205138 -0.25577262 0.09165727 0.030613963 -0.40677172 -0.071448505 0.4102408 -0.10118236 0.11529442 -0.29938927 0.14972465 0.035957742 0.039302472
1457 0.35784236 -0.34250134 0.11944831 -0.030082574 0.006540892 0.07236465 -0.13237247 0.131997 -0.047398422 -0.42285073 0.11312242 -0.42939195 0.53911275 0.20002764 0.06372305 -0.34297413 0.061960466 -0.15357102 -0.21344286 0.07027748 0.0021134391 0.020557085 -0.4260192 -0.046278402 0.47446898 0.2320578 0.21214198 0.30249858 0.09669606 -0.2564453 0.0388083 0.0013737045 -0.048398104 -0.23882458 -0.43851325 -0.18469751 -0.13832317 -0.55908906 0.0896428 -0.07044421 -0.12881047 -0.00041578675 -0.23992576 0.05976459 0.10527647 0.14308085 0.18679976 -0.24964201 -0.41429362 -0.1559678 0.2081503 0.13509475 0.09261549 -0.28967324 -0.34485993 0.027705748 -0.031072404 0.14406997 -0.40971482 0.38204074 -0.2847528 -0.12876438 0.63537955 0.056757264 -0.030094277 -0.3413186 -0.2768821 0.07176753 -0.4525428 -0.31331623 -0.0009116765 -0.44112116 0.27512014 0.29616463 -0.2084859 0.0581823 -0.11016703 0.021678278 0.037127078 0.28789666 -0.18352658 -0.27693418 -0.17476389 -0.41055825 0.17457588 0.10328974 0.23142655 -0.1766053 -0.37213665 -0.044089347 -0.37741306 -0.15553264 -0.23736762 -0.2164679 0.52269745 0.28151268 0.079307534 0.10658044 -0.18635048 0.22554879 -0.4598502 -0.18366075 0.06778881 0.24646686 -0.17789869 -0.11714514 0.031011233 -0.3170587 -0.14688255 0.2476655 0.001995635 0.14884263 -0.27995884 0.2328155 0.13748425 0.046571452 0.16739371 0.1716855 0.17659211 0.17586693 0.46823105 0.09772952 0.027123598 0.0028775916 -0.15004198 0.38518903 0.16899464 0.06825529
714 -0.058781393 0.15882371 0.055047605 0.18673465 0.33740953 -0.3235818 -0.092129156 -0.038356688 0.18510118 -0.45156488 0.21506718 -0.33921477 -0.49247184 -0.50263596 -0.11853292 0.13829947 -0.21292838 0.14460388 0.10176097 -0.07053853 0.4134992 -0.14919285 0.15790871 0.25858843 0.33057848 0.37629992 0.04913258 0.20612457 -0.13120465 -0.007969168 0.26352715 0.025265105 0.18155435 0.056332808 0.109655835 0.19191898 0.15613921 0.1979578 0.3971664 -0.32383096 0.0784501 -0.053240616 0.19928506 0.1298484 0.34941822 -0.01796494 -0.013924665 -0.45948035 0.010130811 0.11836081 0.25547275 -0.04897476 0.37072068 -0.18951362 -0.30695546 0.041086223 -0.045870703 0.23488787 -0.39709646 0.048635677 0.21255405 -0.12869607 0.18600021 -0.18432909 0.16882654 0.23151614 0.25302327 0.028649677 0.5066799 -0.25308362 -0.06960691 -0.38404948 0.5227839 0.018758602 -0.11375128 -0.10009969 -0.17534007 0.35960653 -0.16049951 0.3912682 -0.36366564 -0.3498284 -0.064199194 0.12592062 -0.27922747 0.38626683 0.0797111 -0.14989768 0.1555319 -0.25209293 -0.33862966 -0.42979282 0.042300764 0.2637339 0.120629326 -0.28778905 0.05692645 -0.07181112 -0.08458156 -0.3296146 0.039602548 0.47388515 -0.5489133 0.31163865 0.37542227 0.09452641 0.021786226 0.10566487 -0.2738071 -0.12596822 0.2562791 -0.16090612 0.3254395 -0.08314181 -0.048507657 0.10767212 0.047462273 -0.07432398 -0.028651174 0.011223905 0.25423253 0.19207019 -0.018570248 0.057291992 0.10516234 -0.16610754 0.2307617 0.13714167
463 0.36644727 0.19315058 -0.014716786 0.005305481 -0.046627745 -0.024027336 0.081792824 0.031700622 0.058316253 -0.48775554 0.09428369 -0.29303432 -0.31561399 -0.3094536 -0.05933207 0.54225314 -0.14681971 0.074649535 -0.32052672 0.052183762 -0.0713415 -0.35375893 0.1087349 0.2928185 -0.13930318 -0.3208692 0.030422604 -0.027552607 -0.095666 0.10274004 -0.04856286 -0.0948621 0.21367979 0.1458681 0.0926918 0.36844125 -0.108506456 0.24081834 -0.18603645 -0.3181714 -0.054417618 -0.43731728 -0.13736545 0.11694125 0.2333793 0.043838043 0.23596959 0.18907322 0.016623888 0.27031183 0.16087405 0.1477796 -0.1701961 -0.6169124 -0.2527636 0.2748208 -0.12142843 0.121103026 -0.23398298 0.11479436 0.1295382 -0.18984155 -0.12818664 0.13849454 0.094517656 0.09927237 0.21957988 0.10703363 0.03611072 -0.17520668 -0.11176162 0.15441217 0.3454048 -0.09762958 -0.13122898 -0.0008691751 -0.04487549 0.3512633 0.16499469 -0.075346075 -0.081319235 0.16947444 0.061058447 0.059302986 0.5278664 -0.022930143 0.047091935 -0.13552342 -0.06047849 -0.101329744 0.21995752 0.16875392 -0.0052302815 -0.04014459 -0.05263622 0.28161165 -0.1382143 -0.11565802 -0.088680096 -0.087561004 0.40476647 -0.13982289 0.16898106 0.2377899 0.35026702 0.16751598 0.096797734 0.1593174 0.098062836 0.33754507 0.19877982 -0.14359476 -0.13159776 0.32859713 0.59911335 -0.20302425 0.20831856 0.30051225 -0.18022642 -0.0046105133 0.81764126 -0.0078075095 -0.47625232 0.37222475 0.3448577 -0.1217071 -0.13687496 0.16901761
1109 -0.060921684 0.13038276 0.2120589 -0.0012463767 -0.26871583 0.2629805 0.13230373 -0.039020855 0.0050941673 -0.20055242 -0.14625466 0.20552577 0.18113358 -0.50456804 0.12153674 0.34214467 -0.07372672 -0.023112271 0.018660381 0.025158158 -0.037700877 0.4336714 -0.1922866 -0.33937755 0.12508212 -0.75490814 -0.08798855 0.5412425 0.114961796 -0.43449447 -0.27800015 0.119636156 0.10006141 0.11827752 0.064583145 -0.11775461 0.090544865 0.22653331 -0.064918995 0.15968017 -0.075703554 0.08218505 -0.1322568 0.19315495 -0.30257168 -0.039610773 -0.029651247 -0.3998232 -0.25821146 0.13071251 0.1669451 -0.051059708 0.20919271 -0.34170452 -0.15983771 -0.2416479 0.03342232 -0.18043092 -0.13148026 -0.15530504 -0.061500397 0.20117402 0.7125546 -0.44886905 -0.033755362 0.19258574 -0.13966003 0.16587225 0.31931978 -0.22769721 0.10599185 -0.44982752 0.3578228 -0.14183795 0.24215113 0.04184396 0.16863465 0.3399045 -0.42130673 0.21122508 0.20012164 0.46672764 -0.058002125 0.3387948 0.19937974 0.3766833 0.0032877096 -0.060591776 0.2837204 0.19165756 -0.33753526 -0.15316463 -0.02266482 -0.53952885 0.3538151 -0.15863073 0.22459559 -0.37689793 -0.02850477 -0.13166314 -0.13758953 0.13391547 -0.20132191 0.1971417 0.17536743 0.08131126 0.05173797 0.18652655 0.080265835 0.11937022 -0.13645229 -0.12957972 -0.013214805 0.2008285 -0.06337646 -0.104169264 0.10307804 0.15865687 0.6224335 0.020652978 -0.14959027 0.4695443 -0.18434343 -0.0036718966 0.16264571 -0.03416842 -0.16761449 -0.2538845
636 0.13356589 -0.41485214 0.32879108 -0.17404126 -0.14503418 0.18008621 -0.09351355 0.018741142 -0.088888064 -0.15360087 0.012344843 -0.1950183 0.34442723 0.24371213 0.06652804 -0.42670208 0.35502604 0.06911068 -0.056047715 0.15255883 0.06434814 -0.16251656 -0.24826384 -0.039953984 0.103836775 -0.18892075 -0.07013483 -0.08951878 -0.08992854 -0.071465015 0.32908282 0.08598894 -0.2862261 -0.28787637 -0.40076637 0.026050167 -0.10413699 -0.23088874 0.2608079 -0.2458624 -0.2026321 -0.15374959 -0.25711557 -0.099951446 0.58307594 -0.14319743 0.17261693 -0.028797535 -0.22171755 -0.087718084 0.1353882 0.035735887 0.17283414 -0.0455249 -0.50532126 -0.10357977 0.33231166 -0.050324745 -0.21875107 0.52322423 -0.29731083 0.028043643 0.30971858 -0.18479533 -0.0048040007 -0.12516996 -0.072083965 0.11929541 0.06848489 -0.3295351 0.3172503 -0.40172344 0.2981874 0.21039769 0.048259962 -0.3150904 -0.38926 0.4002919 -0.07388313 0.1132644 -0.21287584 -0.09897449 -0.2704855 -0.24400528 0.48310328 0.29087213 0.03539358 -0.19177668 -0.43186897 -0.57486516 0.015417962 -0.06502743 -0.19748762 -0.119917504 0.03466681 -0.1467571 -0.03588226 -0.04162212 0.04773473 0.21353628 -0.21764064 -0.21094312 0.081972815 0.2199271 -0.06160168 0.037177566 -0.44204453 -0.20041327 -0.18527113 -0.020202694 -0.11850998 -0.47466463 -0.30149272 0.037876405 0.2666007 -0.106625915 0.21696998 0.04758547 0.23497288 -0.081009276 0.34420907 -0.037652634 0.10305737 -0.077887245 0.043170366 0.23790638 0.2369458 0.45084786
410 0.45427302 -0.34252843 -0.25565162 0.09492519 -0.15757614 -0.23348728 0.16262151 -0.027100185 0.34018198 -0.1656019 0.01721005 -0.4099413 -0.08802317 -0.04183648 0.16263112 -0.069874816 0.24421266 -0.15690489 0.0039406223 0.40123063 -0.1268293 0.4038643 -0.08133862 -0.10545934 -0.17959878 -0.2562257 -0.084599555 0.263703 -0.056319777 0.0077830767 -0.07313449 -0.43515542 -0.11477847 -0.60894316 0.24201293 0.097618856 -0.07263873 -0.07609621 -0.16707517 0.2534527 0.31717646 0.10987286 0.011556641 0.257924 -0.10545252 0.1421041 0.04196756 -0.09347665 0.3962744 -0.08485729 -0.56167716 0.5908664 0.23551339 0.06590165 0.14187258 0.0514796 0.044892643 0.37646183 0.23109186 0.49922737 -0.005977208 -0.18153049 0.116754055 -0.19615912 0.12243905 0.09588418 -0.22621803 -0.14960833 0.27759758 0.37747127 -0.22175173 -0.38266742 0.06570014 -0.12663847 0.14228247 -0.04396407 -0.1673736 -0.034617305 0.28740814 -0.21173899 -0.00096531765 -0.4084279 -0.07935447 -0.018947 0.2834182 0.2620804 -0.15725091 0.023491178 0.053269852 0.207826 -0.2964 0.39203447 0.23939228 0.09192835 0.1785505 0.25011194 -0.32464802 -0.02890358 -0.08013777 0.017340515 0.30441952 -0.093945235 -0.15922666 -0.308122 0.26571995 0.0078389915 -0.14355512 0.17063427 -0.11404521 -0.041257568 0.004376247 -0.5415581 0.3291015 0.11213827 0.30035418 0.1356826 0.04046759 0.20705158 0.16897295 0.066215634 -0.17799978 -0.2915699 0.39937967 -0.21182594 -0.19388776 -0.072335586 0.38812557 -0.20421469
1202 0.26051837 -0.17765452 0.10659563 -0.39534515 0.29406208 -0.22657692 -0.009388706 0.19494298 0.13179743 0.009820136 -0.059843894 -0.20368613 -0.078980595 0.16170181 -0.15566581 0.28173396 -0.16504239 0.024051048 0.24186736 0.051006358 0.09988675 -0.29115662 -0.1271142 -0.072930254 0.18631297 -0.120662235 0.29529294 0.10208054 -0.11294459 0.1481979 -0.058537003 0.00568008 0.025264457 -0.12983593 0.14045838 -0.4453446 -0.16185108 -0.10653313 0.059913766 0.08435938 0.035980586 -0.45255676 -0.02452482 -0.2794262 0.27214366 -0.15314698 0.3584209 -0.32609442 0.21756487 0.2752796 0.25979793 0.011374939 -0.15395786 -0.043821905 -0.22539973 0.19868992 -0.1643594 0.18144776 -0.14566013 0.1995309 0.0365578 -0.11870091 -0.12232452 0.18548362 -0.07248394 0.14500141 0.31267965 0.12975389 -0.24670382 -0.08088709 0.28950465 0.26927492 -0.233525 -0.15093116 -0.18392907 -0.111026816 -0.35548764 -0.088568054 0.32663608 0.466287 -0.30890024 0.1316494 -0.16030747 0.43097773 0.16787007 -0.20778352 -0.3268436 -0.16918583 0.017192418 0.37840506 -0.48456043 0.041640766 0.01556397 0.6021783 0.1404571 0.36437547 0.04505702 0.41878274 -0.121091895 -0.41445357 0.030846626 0.05047627 0.16796446 0.15322478 -0.1593152 0.039773196 -0.21282145 0.107425384 0.066023655 0.03523266 0.060719352 -0.24432094 0.12027834 0.075441785 -0.28015077 -0.033776093 0.09545818 -0.0057530967 0.9744747 -0.4704295 -0.30871594 0.08534383 -0.36065137 0.21579973 0.22370611 0.09743055 0.034424767 -0.16161133
1004 -0.35620618 -0.14090802 -0.19559085 0.37543374 0.42585877 0.18414485 -0.39571202 0.17239472 0.66167116 -0.49511877 0.028195674 -0.13539341 0.3651838 0.121763945 0.20459977 0.08014118 -0.5233003 -0.32706398 -0.121214844 -0.02908977 0.56186265 0.03625955 -0.33621466 0.061119847 0.047170345 -0.065523684 -0.035136525 -0.18054295 -0.082348436 0.038737517 0.15996006 -0.0003738181 0.253793 0.117235616 0.1715551 -0.4242982 -0.06238915 -0.27283245 -0.21079636 0.039401066 0.20350023 0.13950485 -0.01461103 -0.046159305 -0.01868555 0.10041935 -0.123874016 0.01339646 -0.2758541 -0.045537606 -0.024869405 -0.22564185 0.048335537 0.08971453 0.36490858 -0.44538063 0.027976245 -0.08877347 -0.3946761 0.17032418 -0.05265162 -0.18903488 0.64766914 0.18030596 -0.027674735 -0.12914197 0.14519756 0.22519821 -0.17720099 -0.17654775 0.1681711 -0.09858009 -0.10268056 -0.120155856 -0.523349 0.27108404 -0.38922182 -0.19232051 -0.10006417 0.030745102 -0.45029902 0.028744534 -0.2333383 -0.04062372 -0.04115765 -0.10064105 -0.05153644 -0.2021559 -0.19133386 0.44532955 -0.11201409 0.51136094 -0.28088897 0.19100137 0.4816544 0.2613004 0.12324365 0.13898356 -0.3864139 -0.12986477 0.08769773 -0.16199245 -0.016687354 -0.18776356 0.100556605 0.09239202 0.07658445 -0.069879085 0.1333735 0.19205114 -0.22222318 0.31690422 -0.111695506 0.12565823 0.24772498 -0.13962413 0.2199948 0.24916121 0.37571266 -0.03700825 0.109779805 0.27917776 0.06194504 -0.4318419 -0.18698056 0.21303993 0.07004205 0.27405792
1085 0.042472485 0.22563595 -0.041123975 -0.261815 -0.07558525 -0.20334901 -0.221243 0.14839427 -0.17984536 -0.14496107 0.33975205 0.02059467 -0.4497343 -0.018556293 0.012275242 0.337262 0.30785686 0.095886186 -0.045294877 -0.41854846 0.17919502 0.018207792 -0.10706886 0.14526205 0.010162564 0.083910935 -0.18609051 0.08361655 -0.18610722 0.2510041 0.71978784 0.43135494 0.18297511 -0.07212098 0.18077058 0.2528203 -0.10798996 0.09304384 0.56011355 0.28416607 -0.263314 0.2190145 -0.4531524 0.17157249 0.0516048 -0.11496918 -0.24825187 -0.28172997 0.28578225 0.07817249 0.55523914 0.2639644 0.19357303 -0.22939199 0.13647349 -0.20259643 0.13752146 -0.2569066 -0.51494926 -0.08338655 -0.039170444 -0.036426663 0.085646585 -0.07641611 0.45586416 -0.23210065 -0.38267556 -0.018321417 -0.1439677 -0.36481398 0.31983984 -0.34028986 0.08777872 0.14339215 -0.24510008 -0.57034165 -0.23386131 0.14401309 -0.017831832 0.26749927 -0.14507864 0.016723426 -0.01624256 0.060627613 0.19279735 0.1263769 -0.32346705 0.13496913 0.15689197 -0.17565997 -0.03587931 0.20743766 0.32869956 0.21229658 0.2528838 -0.30464458 -0.0304031 -0.0020945575 -0.21894315 -0.106891155 -0.34854075 -0.123248026 -0.24467722 -0.2650771 -0.17726922 -0.4449662 -0.038936894 -0.047967512 0.14930509 0.047679316 -0.22139011 -0.24902858 -0.082076326 0.38844502 0.48151854 -0.21736923 -0.058465574 -0.16170165 -0.13226561 0.117686324 0.20778614 -0.27607903 0.19495957 0.060385525 0.18698306 0.6727406 -0.2125977 -0.45416906
595 -0.23975126 0.078084536 -0.5506916 -0.0062812166 -0.044254754 0.45172718 0.32078308 -0.05880106 0.050422363 -0.27555656 0.19138274 -0.21534431 -0.29720095 0.23741452 0.038743805 0.005675644 -0.13167961 -0.18223988 0.18216054 0.2588216 0.15045163 0.27903354 0.032236125 -0.2938293 -0.16351077 -0.29926205 -0.08178649 0.43298775 -0.18971156 -0.15146682 0.040594053 0.13764088 0.56390136 0.38306504 -0.1962247 0.56753623 -0.030099863 -0.25800502 0.045699473 0.15134865 0.011239709 -0.06494199 0.10509768 0.06684034 0.26171285 -0.20208475 0.32420897 0.121311724 0.4677141 0.10487385 -0.12116047 0.16126455 0.08767852 0.15846783 -0.09364594 -0.16310295 -0.05187627 0.19095813 0.11932222 0.28189862 0.0023570193 -0.056344997 0.23516499 0.23043855 -0.18766496 0.32786795 0.2350669 -0.14860815 0.07275821 -0.16575746 -0.0600218 0.023030179 -0.36853516 0.12415021 -0.19220656 -0.26775283 -0.11389724 -0.43366486 0.021658842 0.106770046 -0.26440057 0.2867533 0.20397331 0.11169578 0.1672644 0.29657206 0.10776225 0.22011925 -0.57923925 -0.11465077 0.08456969 -0.027509276 -0.14685951 -0.02784923 0.08154684 -0.0293453 -0.15753262 0.13170739 -0.0435123 -0.054001987 0.026505109 0.15509585 -0.1602367 0.2979514 -0.19531843 0.17436686 0.14519188 0.1149977 -0.29316545 -0.14157012 0.5241601 -0.3935241 -0.3853969 0.2019227 0.32739055 0.1352965 0.41000712 -0.036135152 0.31217265 0.0414339 -0.13201728 0.23099025 0.18504141 -0.17243087 0.10362604 0.5200884 0.100264624 -0.06883927
690 0.05769051 0.008662319 0.22308347 0.06328831 0.11210883 -0.18858366 -0.3827704 0.11021021 -0.12106131 0.06266261 0.177043 -0.32590905 0.16816333 0.41073078 0.23850212 -0.19200058 0.13045684 0.0056958115 -0.24635333 0.28629306 0.13291377 0.11465539 -0.2290123 -0.2674926 -0.26643932 -0.08940558 -0.34388146 0.0015705877 -0.29043922 -0.0116152475 0.26301992 -0.23597768 0.54752094 -0.47324288 -0.07226593 0.0035937617 0.4043077 0.119034305 -0.026835604 0.053022224 -0.27255768 0.02377048 -0.36889613 -0.3116351 0.06294939 0.0172884 0.01114362 -0.29642832 -0.030867642 -0.21486022 -0.3074073 0.032941483 0.42828935 -0.45437708 -0.2825816 -0.04749455 0.030916447 -0.100187495 0.0961844 0.37943333 0.08891421 0.12262191 0.3117146 0.097553834 0.14146487 -0.15619957 0.08671963 0.21623991 -0.030213816 0.04646357 0.12962717 -0.22760926 0.023064645 0.2157982 0.064580925 -0.4817278 -0.033965386 -0.14084311 0.08627002 -0.2512675 0.053451512 0.10778575 0.17258061 0.25190312 0.37079346 0.026759995 0.15324558 0.0057658358 -0.17259845 0.016958488 -0.14486083 -0.23359974 0.1975339 -0.14524834 -0.1592336 -0.38595545 -0.16348507 0.11166582 0.61504674 -0.12671664 0.04748034 0.10471168 0.094385915 -0.0333401 0.2511335 0.44023013 0.08828903 0.42729098 -0.10452653 0.32127944 -0.20083041 -0.14593881 0.25196925 0.1646891 0.2315858 -0.061119296 0.13240133 0.28924236 -0.20780605 -0.48969775 -0.12121377 -0.017338093 -0.23224647 -0.250287 0.517014 -0.2283876 0.26110134 0.21257555
1026 -0.47902986 0.026116995 -0.19412754 0.18549617 -0.21919845 -0.48840892 0.014513861 0.23049687 0.6556916 -0.2462307 0.0548487 -0.3165404 0.09105833 -0.2368064 0.0389506 0.07282579 -0.0038390122 0.3660512 0.48494795 0.12588876 0.47530258 -0.065871745 -0.49155557 0.22203368 -0.40799534 -0.055015203 -0.45025402 0.08435099 0.14860103 -0.25442392 0.17338647 -0.009846405 0.19106843 -0.05756441 0.54621786 -0.027674444 0.19059645 0.06671643 0.12503652 -0.08729543 0.080955274 0.082112074 0.22759314 0.13858174 0.1314885 -0.07565566 0.0104852095 0.017923765 -0.07734353 0.07720996 -0.03192944 0.2517168 -0.45549002 -0.62311274 0.23715152 -0.049016505 0.42446452 -0.15937948 0.026384637 0.099279515 0.23143615 0.086780325 0.6635681 -0.028166741 0.11686037 -0.15650049 -0.2187107 0.021712942 -0.30396762 -0.31057823 0.44759017 -0.28122735 0.30513763 -0.06706253 -0.2706802 -0.10820171 0.19837506 0.10996765 -0.10384458 0.091064334 -0.1988622 -0.15454914 0.17603514 -0.2272901 0.35013786 -0.12438019 -0.1917208 0.2276133 0.09442864 -0.016489895 0.110863514 -0.1003344 0.06316882 0.21723467 -0.03888579 -0.14618395 -0.18110174 0.20851068 -0.42219773 -0.39018035 -0.17579582 0.3065349 0.15454617 0.19888045 0.15689376 0.16919018 0.18246941 0.49346814 -0.024357991 -0.035994668 -0.3704218 0.18611616 -0.29468572 -0.133565 0.15162246 -0.077039905 0.18828762 0.16500819 0.33917904 -0.038667597 -0.043019764 -0.0021703409 -0.10655973 -0.5018646 0.3308773 0.18863949 0.13419078 -0.39758414
566 0.16687582 -0.15932217 -0.040318366 0.22560005 0.15304673 0.23972899 0.2274262 0.19478936 -0.3163204 -0.32380354 0.04252612 -0.5140246 -0.0029468453 -0.2601553 0.2976239 0.06616259 0.10894898 -0.17675236 -0.10279084 0.067284696 0.06622458 0.21392834 -0.16918449 -0.22159599 -0.073584065 -0.18461491 0.50688183 0.21182635 0.032592352 -0.03654524 0.08252704 -0.018060671 0.20486043 0.36023906 0.3840568 0.54756504 -0.15765648 -0.056226067 0.20594218 0.55758435 -0.16820946 0.082573466 -0.38079545 -0.16705239 0.08448639 -0.2303019 0.14939304 0.07352731 -0.18257135 -0.087172955 -0.270389 -0.01409452 0.29365566 0.036621716 0.18040624 0.1738462 0.13581602 0.15792206 0.14170611 0.19533838 0.020958614 0.25065154 0.12022433 0.070534505 -0.2403567 -0.19178118 0.37435883 -0.44790703 -0.27628288 -0.4672178 0.15889248 -0.1438817 -0.097582735 0.086411044 0.22201449 0.26532164 -0.24097876 -0.3756941 -0.07299031 -0.08172583 -0.23640718 0.14299037 0.5836678 -0.12718555 -0.05812045 0.012831117 0.059000388 -0.2783233 -0.28291127 0.10759436 -0.1273244 -0.025614012 0.037225015 0.19592187 0.016863633 -0.03720831 0.107668586 0.11135818 0.115375005 -0.60792446 -0.17275211 0.524172 -0.105987795 0.0051674866 0.10956017 0.19049674 0.2582462 0.21913464 -0.012426705 -0.7204946 0.17509751 0.063843966 -0.27544507 -0.055312216 0.17563356 -0.0026123265 -0.03574038 -0.030529443 0.23735352 0.026379786 0.51506346 0.23171826 -0.27146262 0.07596456 0.237298 -0.057412613 0.190305 0.15644678
1209 0.27455854 -0.10748702 -0.09185967 0.071290426 -0.07259306 0.21120717 0.024681693 -0.2727645 0.38286853 -0.04921932 -0.20149544 -0.12085717 -0.26859072 -0.44406405 0.29813144 0.33744922 0.034856196 -0.06082425 -0.21944039 0.03467075 -0.29352698 -0.23990777 0.06714303 -0.042651236 -0.05560612 -0.028313866 0.07052778 -0.03468301 0.33419353 -0.20134453 0.23458384 0.1723618 -0.1268601 -0.23805559 0.30755517 0.20270304 -0.047956917 0.10962595 0.09523252 0.052485812 -0.023454567 -0.08912444 -0.27598217 0.016847843 -0.10873952 -0.02653386 0.2127476 0.09614155 -0.030376524 0.27968162 -0.2331252 -0.38467923 -0.13242371 -0.18231457 -0.14618306 0.45426965 0.33181846 0.23593031 0.21234414 -0.07638853 -0.0026731521 -0.09235228 0.39673692 -0.2442213 0.12284807 0.06314555 -0.20762129 -0.010203162 -0.23192492 -0.032283578 -0.1620283 -0.10993401 0.16186994 -0.24769738 -0.037368186 -0.44429785 -0.38504267 -0.3106245 0.31374586 0.60712105 -0.0685379 0.4887673 -0.12111917 0.04952265 -0.044935603 -0.05336154 0.1270603 -0.20868918 -0.37011418 -0.13004847 0.08560712 0.13916464 0.499211 -0.07463602 -0.020936307 0.18617964 -0.16914675 0.22469153 -0.2504923 0.088997334 0.23634633 0.14028543 -0.20265079 0.42982003 -0.046626538 0.025579063 -0.070421234 -0.21487081 0.095656864 -0.1072648 0.19417995 -0.19186564 0.10436207 0.20977607 0.45766756 0.18481074 0.15432334 0.49493575 -0.7253183 -0.29207075 0.12700129 -0.16832495 -0.13444053 -0.3415248 0.36807385 -0.4891199 -1.6390135e-05 0.36376208
1248 0.05949217 -0.18182571 0.12815702 0.24247919 0.40656292 -0.1367036 0.048808243 0.16996351 -0.00041295233 -0.08154236 0.36763018 0.03601015 0.48127872 -0.08034628 0.3138871 0.50480694 -0.098044224 0.02984968 0.25899124 -0.2575992 0.15100986 0.16849709 0.05148662 0.120231435 0.37181643 -0.09949681 0.26060668 -0.0812196 -0.040815197 -0.23312631 -0.25454134 0.1929621 0.18099743 -0.267086 0.2440109 0.030310776 0.3119473 0.0302971 -0.15300912 0.20870401 0.4012713 -0.42422664 -0.03873311 0.4294994 0.17356008 0.26843965 0.24957058 0.034422126 0.13058737 -0.29480842 0.27869433 0.22736154 -0.09731935 0.24064201 0.32019606 -0.19177473 0.038807694 -0.18841831 -0.17551398 -0.44296178 -0.23703463 -0.1520618 -0.06666764 0.19836698 0.118645385 0.35170928 0.34969416 -0.012079974 -0.3717837 -0.111627236 0.20666057 0.090496995 0.028218925 -0.28833565 0.11640283 -0.63111305 -0.17630838 0.043270342 -0.23756893 -0.18808492 -0.3425546 -0.16569531 -0.25504744 -0.018573634 0.37851733 -0.028593708 -0.35908628 -0.25479403 0.0885977 -0.0072248275 -0.15343867 -0.48078337 0.046437558 0.11632413 -0.4630231 0.13737759 -0.24469799 0.21633023 -0.3511653 -0.030934928 -0.09715127 0.06265707 -0.34167418 -0.010483015 0.019797996 0.5424469 -0.1812427 -0.31207424 -0.23011935 0.112693384 -0.010111357 -0.20333315 0.03396232 0.47528544 0.1454996 0.060550004 0.19713219 -0.17846191 0.17552936 -0.11350938 0.4354907 0.3280346 -0.3660409 -0.44315177 -0.28087962 0.26392642 -0.17193152 -0.06660076
762 -0.06331462 -0.2321715 -0.08672501 -0.09431815 0.17931233 -0.23636362 0.11418854 0.05423587 0.17592995 0.058658507 -0.094055265 -0.46909148 0.10282748 0.032697342 0.48901525 -0.14051752 -0.73881394 0.020260993 -0.2293539 0.025985226 0.26287317 -0.06846291 -0.04525952 0.28851974 0.20300075 -0.122735634 0.1598007 -0.111215025 -0.2682385 -0.044956148 0.04130292 0.20650892 -0.07891595 -0.26396614 0.09219811 -0.19998796 -0.2505483 0.30391163 0.16583887 0.14275867 -0.13619943 -0.15436226 -0.258046 0.13322575 -0.24343137 -0.098756626 0.23056085 0.11765507 -0.057772823 0.22454983 -0.10276357 -0.30546674 -0.14193831 0.29676783 -0.3325146 -0.32684097 0.25011754 0.12761956 -0.2565918 0.079076864 -0.08046074 -0.20984484 0.21135145 0.035009567 -0.03977325 0.43766648 0.39387113 -0.15026303 -0.3739134 0.28638235 -0.0729169 0.2818993 -0.11191773 0.279791 -0.2327506 -0.09226409 -0.34130552 0.20460065 -0.36929023 -0.0034284315 -0.37065914 0.03365756 0.22846286 -0.45911148 -0.19234736 -0.2964885 -0.21303754 0.36096352 -0.16323866 0.16780315 -0.03134421 0.044666745 0.057867717 -0.41436207 -0.013317354 -0.24057221 -0.057302862 0.06515836 -0.038844027 -0.031043187 -0.22263926 -0.010626512 -0.3408388 -0.49844 0.37368968 0.20848607 -0.019047074 -0.0065996754 0.053201213 0.2734201 -0.16284123 -0.55035603 0.18764137 0.17358662 0.22988248 -0.12947445 0.22496799 0.074353516 -0.1636572 -0.008831867 0.28979975 0.025503771 0.1414776 -0.062673286 -0.3749838 0.17346595 -0.36971235 -0.4959446
513 -0.048483975 0.14176044 0.07893038 0.15947424 0.31479234 0.15737566 -0.25046897 0.5081067 0.4484678 0.15087733 0.17217915 -0.3357198 -0.3357063 -0.2640042 0.4086861 0.53861296 -0.06177489 -0.1538582 -0.4581677 -0.3030838 0.1794706 0.15853183 -0.16358295 -0.54152954 0.40947384 -0.29139826 0.3430019 -0.043246746 -0.3765121 0.28341562 0.45590046 -0.19754902 0.09843487 -0.21159846 0.24474417 -0.046745665 0.20023984 -0.026829777 0.05012905 -0.1739071 -0.17038454 0.12187598 -0.16576372 -0.11472471 -0.30653647 0.74035424 0.09803688 -0.08574444 -0.26920462 -0.2035985 0.008292957 0.1735965 -0.1826405 -0.021388875 0.37930638 -0.15546039 -0.025284836 -0.2885375 -0.09304341 -0.055931237 -0.15662298 -0.39103222 -0.20529006 -0.074279875 0.021656122 0.09001676 -0.16376597 -0.21771058 -0.27331588 -0.25742504 -0.17769489 -0.08722222 -0.08273922 -0.10554672 0.013230962 -0.3307807 -0.25027514 0.17058527 -0.20696786 -0.03252233 -0.34769306 0.3423886 -0.34609354 0.18765484 0.14232442 0.11714744 -0.46595034 -0.4465837 -0.14908887 -0.059724927 0.06175355 -0.26599258 0.43956465 -0.02348816 -0.023040233 -0.21346119 -0.3388188 0.071467035 -0.050329972 -0.40302044 -0.57115906 -0.0013216675 -0.2823827 -0.008896869 -0.07852631 0.26807755 -0.110652044 -0.24483903 -0.08188515 0.019174717 -0.1755407 0.12352167 -0.06141161 0.13933225 0.049095415 0.3485848 0.101433635 0.103600904 0.047366727 0.12260831 -0.050631847 0.07450771 0.16602138 -0.13720232 -0.25455764 0.40476623 -0.18028972 0.12320489
1207 0.064902835 0.14400263 -0.19136758 0.07270767 0.55999017 -0.051868256 0.1951783 0.06994762 0.40611118 -0.0476164 -0.49794254 0.010745916 0.52151763 -0.21461609 0.18245189 0.19156861 -0.267713 0.002802903 -0.6028716 -0.0217723 0.06494875 0.3142275 0.10149818 -0.2924494 0.5310618 0.13557276 -0.16915748 0.21713865 0.0893238 0.13023366 0.10838612 0.2952625 -0.12648703 -0.15945597 0.17027561 0.32398427 -0.19434473 0.047611922 0.22060713 0.23884058 0.02636766 -0.2012863 -0.088013686 -0.016366707 0.38557902 0.062425952 -0.23489662 -0.32872954 0.15363744 0.05458204 -0.29816136 -0.36312792 -0.10272423 0.18635768 -0.27309728 0.18784603 0.10655681 0.23134205 0.18259956 0.243649 0.31023222 -0.3102211 0.019347254 0.33311573 0.025599133 0.19323044 0.13552403 -0.20801282 0.153186 -0.3248077 0.25852647 -0.04288747 0.024006177 0.20839316 0.19252983 -0.57177734 0.15074499 0.093631476 0.31267285 0.46175796 0.060896315 0.5175358 0.12894905 -0.10011588 0.06758373 0.35160136 0.048532184 0.14845125 0.0272224 0.3384834 -0.26525888 0.21460475 -0.14296477 -0.13436686 0.06381143 0.4901096 -0.36741504 0.1409675 0.0013741887 -0.11509938 -0.013581752 -0.012370355 0.0075993123 0.019475723 -0.083791174 -0.2282637 -0.24153331 0.04371445 0.5028992 -0.18329327 -0.057682104 -0.36125618 0.24261416 0.08796444 0.42037794 -0.12500584 0.14363486 -0.08379345 -0.33859465 -0.45151696 -0.028889146 0.011738315 0.17788278 -0.050702143 0.10593936 0.23069818 0.17540188 0.43069008
1096 0.14545183 0.16523574 0.20760979 -0.1649655 0.31302 -0.6058553 0.058659952 0.02371422 0.036115423 -0.046480063 -0.13450897 -0.30538103 -0.0038026297 -0.036222454 -0.08324881 0.2894989 -0.14372489 -0.063780725 0.21872358 -0.35985023 0.1735252 -0.50429183 -0.11781569 -0.36621755 -0.4792195 0.1785982 -0.020818796 0.0293806 0.077183194 -0.5477539 0.011052781 0.3483613 0.29450426 -0.41414228 -0.075816445 0.3210008 -0.06032118 -0.38855892 0.020495916 0.04493344 -0.08157479 0.27274466 0.028562158 0.19048764 -0.058642045 -0.032586444 -0.011258578 0.14885193 0.2994699 0.35343784 0.1866477 0.030173961 0.08078548 -0.36211422 0.1920934 -0.121187784 -0.127368 0.15504026 -0.028609911 -0.044343576 0.24301334 0.07389301 0.42008358 -0.33699706 0.13436209 -0.09774337 -0.07624217 -0.22703676 -0.426202 -0.1822141 -0.11155931 -0.18146731 0.0873445 0.25139746 -0.29968837 -0.34986198 0.05637094 0.59789175 0.2479747 0.114499845 0.2152901 0.28607127 -0.26262742 -0.42784306 0.41744 -0.12487197 -0.37448645 0.11730917 0.20979695 0.052372772 0.10403685 0.4134812 0.10322964 -0.1450178 0.2676943 -0.667315 -0.04575107 0.14041753 -0.36614603 -0.276744 -0.08129479 0.20280361 -0.19289938 -0.051212966 -0.35945815 0.14061797 -0.3003018 0.26243994 0.013287933 -0.35426486 -0.045106653 -0.20013098 -0.06853623 -0.17957085 0.59773064 -0.21793033 0.11392852 0.051394593 0.41654775 0.30075532 -0.13133456 -0.10790474 0.14137483 0.012684315 0.0035730437 0.11598697 0.1797512 -0.0543989
988 -0.27640617 -0.015205888 -0.41612175 -0.09754948 -0.09123961 -0.0032974095 -0.16071418 0.1336512 -0.22590397 -0.22141309 0.114498615 -0.24133302 -0.56917715 0.1461414 0.22675881 -0.11698169 -0.00050197035 -0.0578853 0.19524032 -0.5056589 -0.007917752 -0.014155004 -0.38114572 -0.18169554 0.17512168 0.16816413 0.12188414 -0.0647513 0.011948191 -0.09823536 0.5891983 -0.15891033 -0.11506485 -0.20129041 0.094923094 0.22812645 0.045283023 -0.06718929 -0.21245083 -0.13196924 -0.24453683 0.40159762 -0.37856776 0.42532137 -0.12983744 -0.14264347 -0.16123505 -0.12516807 0.10695728 -0.20201851 0.40714648 0.22628975 0.32793686 -0.34611785 0.12966204 0.14192915 0.16210803 0.114497125 -0.29855108 0.35723466 -0.21212372 0.33757454 -0.28897995 0.34727526 0.25662643 0.09639503 -0.38134187 0.33303106 0.01966682 -0.0471488 0.47747865 -0.13650048 -0.23259254 -0.20386526 -0.46135652 0.0027519856 0.33686912 -0.2663762 -0.2450946 0.31037426 0.416128 0.06768913 0.35583362 -0.027796863 0.13453099 0.25515974 0.14440176 -0.07776061 0.007867093 -0.124463215 -0.2615915 0.05977029 0.09824945 -0.104890995 -0.10923056 0.33225706 -0.26064122 -0.048547875 -0.023762487 0.05213744 0.004673287 0.011250828 -0.407524 -0.27397892 -0.27298015 -0.037563864 -0.17410545 0.29535756 -0.041062385 -0.009855032 0.18501176 -0.34943262 -0.22656052 0.03390817 0.5935305 -0.2466004 -0.07409792 -0.13283154 -0.048760958 -0.17850599 0.17299016 -0.07244469 0.03633507 -0.055239167 -0.058759436 0.1077459 -0.37847167 -0.24943902
975 0.3833421 -0.19799544 -0.0780402 -0.36182874 0.0018694041 0.27548993 -0.5058491 0.29368633 -0.13949794 -0.3892578 -0.1416611 -0.029114703 -0.23502512 -0.12671418 0.28587127 0.18600926 0.11673899 -0.008243737 0.049978502 0.035147995 0.1703223 -0.5560142 -0.13592735 -0.15202992 0.18701148 -0.14655252 -0.042083535 0.58741564 -0.19083978 -0.11049221 0.2034602 0.17667471 0.069963336 0.066260815 0.663328 0.23472854 -0.17452693 0.054426126 -0.2472344 -0.31842658 0.12573728 0.15402016 -0.015297116 -0.1819892 -0.12603313 0.033006694 -0.08932804 -0.24989599 -0.05076355 0.0077579245 0.44409996 -0.09292992 0.12579311 -0.1964496 -0.22303256 -0.16959408 0.25452852 0.325134 -0.0024421178 0.0067195985 -0.16144636 -0.042553745 0.111763954 -0.3327263 0.13635632 0.04413437 0.1575689 -0.045201726 -0.40199035 -0.14768408 0.29154417 0.20583062 0.47028553 0.047833256 0.11573898 -0.016693644 0.4361952 -0.23910232 0.14250597 0.2601192 -0.2973179 0.004016265 -0.08370833 -0.40013012 -0.061523505 0.010636262 -0.21401282 0.5026714 -0.13511024 0.12104014 0.37609038 -0.12320164 -0.22318517 0.35167962 0.40595198 -0.059933532 -0.06274141 0.026592363 0.5557129 -0.03480403 0.124920435 0.059299666 -0.48800188 0.6664886 0.17943527 0.4689008 0.028635055 -0.0031412384 -0.50197846 0.06839227 -0.34918323 -0.15032549 0.26864135 -0.1290593 0.065489344 0.32996422 -0.07976448 -0.32359585 0.03841915 0.13987418 0.13574603 -0.12877525 -0.16222279 -0.530475 -0.31779352 -0.0155783165 0.17302425 0.105078705
426 0.04646895 0.21138665 -0.11207469 0.38903075 -0.036570176 0.04297504 -0.16127607 -0.09115892 0.056401186 -0.45060864 -0.19787477 -0.5483393 0.2932024 0.13968079 0.45308435 -0.02554334 -0.18042046 -0.11274597 0.31643966 0.44032913 0.448328 -0.08299026 0.35127586 -0.10771354 -0.17605585 -0.031704444 0.27646917 -0.20646964 -0.10634928 -0.19185923 -0.26648355 0.10079071 0.05930695 -0.3173174 0.026096769 0.12435524 -0.20666574 0.09575761 -0.43182233 0.06533144 0.34897956 0.2262457 -0.091987096 0.016545475 -0.339154 0.13225271 0.19041078 -0.21909516 0.04872462 -0.12168117 -0.17597216 0.29311812 0.22938582 -0.18896255 -0.51470804 -0.119374774 0.011914276 -0.16782132 -0.33525807 0.34425834 0.34420106 -0.17989643 0.25985304 -0.056763284 0.20204224 -0.024849776 0.12001992 0.03267742 -0.020309035 -0.49252945 0.1458997 -0.050871395 -0.34881335 0.006689849 0.029721059 -0.021876013 -0.12057847 -0.37744585 0.2638566 0.27626324 -0.08219598 -0.19006398 -0.24411197 0.21640435 -0.5087575 0.06635036 0.11323853 0.0850216 0.03788368 -0.041283086 -0.22267275 0.4891851 0.10529208 0.07540945 -0.06379943 0.1744827 0.32306507 -0.28381902 -0.20818436 -0.020364601 -0.004443846 0.092012264 -0.22882599 0.05895211 0.079610184 0.06032839 -0.2759269 -0.08415695 0.078846246 -0.09819541 -0.2921508 -0.029091382 -0.14523298 0.21308033 0.0098409895 0.02945487 -0.12539092 0.3447952 0.16960979 0.23513994 0.023348706 -0.061960883 0.0023781247 -0.3564757 -0.103568316 0.1920253 -0.35882887 0.030052172
1005 0.002150891 -0.20116927 0.5162825 0.23074257 -0.11837324 -0.5410316 0.07241987 -0.09538158 -0.19630907 -0.19478081 -0.1928843 0.07042637 0.11527571 -0.5732498 0.31691477 -0.21180162 -0.030800529 -0.016558724 -0.12832248 0.052226447 -0.021332007 -0.08815191 -0.001909698 0.53057575 -0.3027151 -0.33600238 0.23816781 0.17293704 0.2503336 0.16649817 0.22934055 -0.0046242606 0.35640565 -0.3357441 -0.027414953 0.35953715 0.0040015783 0.00026896986 -0.004102411 -0.1629786 0.038985506 0.6067417 -0.2503016 -0.1947181 -0.23833297 0.012356003 -0.2310396 0.1072129 0.07274677 0.090106934 0.12425128 0.52266973 -0.10425681 0.48153 0.025204811 -0.061844192 0.0683137 -0.05011777 0.07319084 0.4222583 -0.12838052 0.04670306 0.32119527 0.07567675 0.09139539 -0.04830565 0.15652251 -0.07367634 -0.34061873 -0.067794554 -0.010267348 -0.2801449 -0.05595044 -0.05723306 0.26102212 -0.26806593 0.09670743 -0.028076535 0.02573906 0.27617332 0.08184739 -0.15608478 0.30200672 0.28266168 0.2286997 0.2034909 0.03630958 -0.0847613 0.35595962 0.035079412 0.060789008 -0.098753825 0.0758873 0.47733068 0.1300764 -0.075405754 -0.5264167 0.16743773 0.2916069 -0.07151006 0.13717082 -0.39347744 0.19914013 -0.06996558 0.16502123 -0.22551432 -0.21292134 0.16311267 -0.06253725 0.104689404 0.18609604 -0.26300144 -0.7791768 0.26573962 -0.013199792 -0.08919161 -0.2127 0.047364872 0.066649504 0.27773035 -0.08780035 0.08631622 -0.25606087 -0.051723838 -0.08449989 -0.050478518 -0.21108519 0.056428608
917 0.18776576 -0.048478916 0.0013439547 -0.11425894 -0.3809655 -0.30512258 -0.08830472 -0.046191767 -0.19653592 0.0048781545 0.16350365 -0.23856197 -0.011660814 -0.12841962 0.3944005 -0.14075293 -0.30602074 0.089534014 0.020197775 -0.28509408 0.035160683 0.4338186 0.015305078 0.08238274 -0.38625723 -0.098200694 0.29335603 -0.031890757 0.4749628 -0.35351825 0.045042366 -0.17573757 -0.19803275 0.0139119085 0.20913239 -0.28879794 -0.036536984 0.03350916 0.28625423 -0.25467962 -0.077279374 0.05091429 -0.16675258 -0.03479354 0.10571223 -0.040230505 -0.31937942 0.0650736 -0.005422386 0.3229021 -0.11186328 0.0039275223 -0.34890062 0.13754322 -0.30962706 -0.26194626 -0.25196266 -0.19437763 -0.15486774 0.32240602 -0.02793324 0.12105407 0.014154991 0.04274108 0.4300688 0.48089093 0.3057644 0.3602669 -0.69318414 -0.23825599 0.002014483 -0.46031857 -0.1379582 -0.60032135 -0.11350909 -0.55678123 0.12041166 -0.23803124 0.02872566 0.08236655 -0.35417363 -0.35397843 0.29785493 0.15416823 0.029253075 0.09588876 0.05537289 -0.041941576 0.064358786 -0.49790472 0.12132959 0.15238689 0.045746256 -0.08348801 0.5818828 0.36319765 -0.32330564 -0.365768 -0.19035004 0.044838436 0.25817925 -0.02122872 -0.25910598 0.103903174 -0.056569833 -0.17256866 -0.2927738 0.3127564 0.047591735 -0.13547492 -0.08125621 -0.14786349 0.06385053 -0.02281833 0.06966665 -0.17893389 0.10536805 -0.052541245 0.12875797 -0.20855667 -0.20540123 0.3269535 0.317838 0.39348835 -0.283204 -0.0039339657 -0.078346625 -0.41390237
562 -0.1350451 0.22753668 0.012142175 -0.17842756 -0.028522514 0.2341206 0.07644411 0.38807562 -0.16376042 -0.37993142 -0.055276655 -0.024698429 0.0674762 -0.14431614 0.20412031 0.041768473 -0.17819364 -0.1776044 -0.029744556 0.24980806 0.14483412 0.6356151 0.09808177 -0.37143287 0.47344613 -0.6734794 -0.44315764 0.2034101 -0.0012897457 -0.27348807 -0.35544685 -0.26146117 0.43315324 -0.015563018 -0.10576655 -0.12901065 -0.25887236 -0.12808026 -0.04402773 0.28754863 0.06190324 0.0073950617 -0.09928838 0.034823712 -0.1292431 -0.01597678 0.09673469 0.021265436 -0.025964087 0.20140126 0.082392454 0.056743912 -0.20138572 -0.20289664 -0.11262599 -0.10078832 0.06442724 -0.042865932 0.028778667 -0.26619512 -0.20334473 0.23005553 0.38890478 -0.20693399 -0.00017844905 -0.06276067 -0.008158182 -0.03417227 0.07654066 -0.14177291 0.1259211 -0.4018843 0.21070701 -0.34748465 0.3254956 0.18644162 0.054872543 0.36315614 -0.6296696 0.33897462 0.22671412 0.2098506 -0.0019019733 0.40523875 0.0031013081 0.45633155 0.17898703 0.08634662 0.0939249 0.23427214 -0.17861645 -0.15382116 -0.06441621 -0.31945923 0.33008903 -0.15349627 -0.012963326 -0.06534822 0.0397987 -0.16308087 -0.095677994 0.21827771 -0.4715575 0.22178297 0.07332066 0.09241755 0.22505386 0.061673198 -0.38477024 -0.1665632 0.030861327 -0.067907795 -0.07753208 0.18416135 0.013620215 -0.12392158 -0.069350034 0.21409003 0.40110922 -0.16659923 -0.13391192 0.3585833 -0.029386021 0.09772687 0.21196496 -0.05990082 -0.10030332 -0.28021494
1238 0.35926417 0.17759968 0.2760885 -0.35293883 -0.31867737 0.074143 0.3094249 -0.25118327 0.2197174 -0.1256575 -0.6771494 -0.024555646 0.2552583 -0.10495987 -0.042421628 0.3251824 -0.19013998 0.07906856 -0.061104685 0.017074477 0.27794716 0.26001734 0.25094584 -0.3509266 0.12339017 -0.31833202 0.19171186 -0.032481268 0.01960743 -0.23280413 -0.13407291 -0.101648636 -0.008779132 0.14703593 -0.0074587082 -0.024430707 0.06839608 0.28935075 -0.18688957 -0.07809469 -0.0767771 0.059729945 -0.4419111 0.23864347 -0.17603126 -0.14455734 -0.19776398 -0.27241993 0.3339895 -0.118847676 0.3445236 0.2656293 0.36927375 -0.15507497 -0.24512212 0.13564938 0.3724162 0.12747148 0.110910006 0.31781462 0.24178919 -0.34238636 0.27386588 -0.32773155 -0.109863825 0.111888975 -0.08780394 0.2651682 0.04957672 0.30285886 0.08487294 0.05580869 -0.21315117 -0.18538052 0.2762143 -0.45477712 -0.11730786 -0.011191909 -0.021271294 0.3659949 -0.5694046 -0.02281102 0.10707272 -0.08815589 0.19990999 -0.28539604 -0.25471386 0.22597474 0.1296874 0.13214338 -0.08962257 -0.019245548 0.19567846 -0.42410362 0.23292471 0.54069346 0.25567296 0.0023426185 0.32638302 -0.2394706 -0.20101164 -0.102914505 -0.19293365 0.14855598 -0.0026271562 -0.0044388864 0.068028845 0.19492318 0.051469088 -0.012594323 -0.08166396 -0.0032552008 -0.23043694 0.15387423 0.2667016 -0.32305995 0.1034727 0.71333534 -0.012545264 -0.107634716 -0.0032642176 0.24546038 -0.17838323 -0.087700956 0.15086126 -0.06372568 -0.1924122 0.39913115
644 -0.045699127 0.21366307 -0.05162883 0.21855143 0.041743144 -0.13735516 -0.029138988 0.09569115 -0.11899326 -0.125472 -0.015377411 -0.12008831 -0.062666744 -0.18872023 -0.044171173 0.11707661 -0.01090358 0.33894673 0.29282862 0.17330034 0.10187895 0.37221867 0.24598889 -0.44114816 -0.13673745 -0.0863393 -0.122082375 0.31184807 0.011011695 -0.3513193 0.44150627 -0.42334777 -0.3238134 -0.13428317 -0.28346342 0.24700952 -0.52190167 -0.105461635 0.2410219 0.26796064 0.11883077 0.11674586 0.063249305 -0.0969864 0.26481926 0.20484751 0.15542665 0.17268531 0.02850958 0.35412845 0.26649594 0.29903206 0.0025590432 0.28623384 -0.038164023 0.061047908 0.0031060579 -0.38084102 0.05091977 0.3292926 -0.47424096 -0.3222735 -0.010895502 -0.3061577 -0.22745356 -0.20051093 -0.07463114 0.0739759 -0.25234976 0.115320146 -0.012487604 -0.6909108 -0.015130136 0.42367992 -0.34552404 -0.18801062 0.51391584 0.18954122 0.1279752 0.022966255 -0.11812082 0.19733529 0.110745244 -0.0916302 0.10278662 0.02597622 0.08557554 -0.22490786 0.19558555 -0.17308146 -0.08998262 -0.19825862 -0.17900494 0.15510203 0.36106735 -0.19583671 0.0074034147 0.5431299 0.28482747 0.051701862 0.27804294 -0.096815996 -0.604822 0.09771526 0.11978174 0.30365902 -0.30308086 0.2648427 0.06891909 -0.14039828 -0.1934473 0.26260653 0.08208319 0.57470167 -0.20398837 -0.029133542 -0.30479085 0.05909911 -0.13283047 -0.092877105 -0.032963376 0.26013583 -0.3334128 0.09734148 0.105266556 -0.11138983 -0.3632602 0.13557301
1264 0.0003726913 -0.25120273 -0.10080392 0.31063068 0.29222488 -0.16976862 -0.079929285 0.12093121 0.26110992 -0.046064544 -0.45111147 -0.2029085 0.12145864 -0.07184012 0.07169262 0.23983324 -0.13032377 -0.04685639 0.08580475 -0.011969415 0.024744127 -0.29124272 0.19046138 -0.18284343 0.36365166 0.015819302 -0.006478829 -0.02042411 0.19073811 0.15695687 -0.02726268 -0.08159054 0.10703031 0.16251656 0.012930183 0.1985237 0.18877447 -0.19809996 0.2856384 0.09112509 -0.042768076 0.11129718 -0.27605984 0.37343168 0.0962601 0.2640292 -0.2426238 0.22575411 0.18178211 0.5386491 0.11821998 0.07121314 0.32364258 -0.1665376 0.021225955 -0.02027383 -0.48834658 -0.09711214 -0.25438526 -0.028898442 0.34387338 0.4595078 0.19738285 -0.40835762 0.06999743 -0.6946976 0.31128705 -0.4320602 -0.44297144 -0.30224493 0.089773335 -0.35923868 0.0007025538 -0.006221904 0.0310519 -0.34713525 0.2739715 0.5331716 0.27817434 0.28699496 0.44965997 0.19734283 0.101009965 -0.23436742 0.3185058 -0.08645244 -0.53606254 0.13019258 -0.2947564 0.2620603 -0.14018686 0.36167333 0.040781356 -0.10389022 0.18012792 -0.08400791 -0.12543754 0.027591415 -0.1144548 -0.13357526 -0.01009152 0.21041228 0.21978354 0.021603541 -0.10640493 0.3037344 -0.29969227 0.11231306 -0.15434185 -0.3327026 0.28717667 -0.30959785 0.10910442 -0.21267733 0.14398417 -0.011561414 -0.023575036 0.10447058 -0.010593289 0.16693246 -0.38722175 -0.3126982 0.15800203 -0.21292807 -0.23930584 0.57199126 -0.18418173 0.38118118
556 0.060924403 -0.014770428 0.15251058 0.11301558 -0.013185032 -0.0765689 -0.07097511 -0.43797636 -0.03996317 -0.39654467 0.023004303 -0.6022273 0.14921662 -0.023877738 -0.35702592 0.23966688 0.07066808 0.17815125 -0.090941995 -0.06832186 -0.13941476 0.2507026 0.25595045 -0.17828287 0.061896756 -0.49167994 0.36563018 0.47783092 0.21301097 0.026910152 0.27826717 -0.2507077 0.09239753 -0.6770163 0.1571596 -0.20916164 0.005233986 0.060560983 0.45622155 -0.0035257402 0.20796348 -0.1323346 -0.08996298 0.16978733 0.19271217 -0.13152224 0.2739466 -0.25123826 -0.42748728 0.1392306 0.4753481 -0.21966688 -0.044500425 -0.024285162 -0.32307547 0.3080641 0.06639672 0.13812101 -0.5768067 0.3813798 -0.078385346 -0.2307913 0.046301212 0.44144872 -0.2331373 -0.052087374 0.042603992 -0.28122887 -0.09228291 -0.43278322 -0.05609438 0.29675764 0.051399797 0.35982436 -0.051143423 0.18050827 -0.06151617 -0.025952002 0.11949887 0.023541009 0.09454798 -0.1164361 -0.09997127 0.32894993 0.24891402 0.027169868 -0.21469 -0.35574338 0.12261932 0.19294791 0.13292569 0.20557879 0.15245281 0.07284877 0.30169913 0.07511652 0.057624783 0.25896648 0.10896208 -0.06703016 0.17862855 -0.1242786 0.029615195 0.12808558 -0.2598678 0.15573834 -0.3555941 0.034638975 0.22227207 -0.10274425 0.11540581 -0.18881018 -0.06561051 0.2013034 -0.14889005 -0.14287727 0.036528133 -0.104819305 0.583004 -0.32017362 -0.2997434 -0.553003 0.014799028 -0.07248613 -0.32863063 0.020833097 -0.20569412 -0.20799364
477 -0.019130932 -0.019580955 -0.065505 -0.038262114 0.06513443 0.040314984 -0.32354578 -0.11683601 -0.05851607 -0.0094925165 -0.14746536 -0.2784009 0.14306498 -0.23468629 0.6903655 -0.26306796 -0.3461836 0.10359939 -0.2717095 0.050738383 0.34585512 0.015596608 -0.2753289 -0.14204524 0.11276308 -0.4256327 0.1822764 0.1863028 -0.045307424 0.26816064 -0.26095143 -0.0599118 0.19842266 0.07551073 0.30437806 0.30523503 0.114461936 0.12536605 0.18766552 -0.035700396 0.103540175 -0.114024274 0.0888063 -0.012859177 0.3496877 0.3701152 0.3204487 0.12681144 -0.014093792 -0.5296678 0.3065122 0.1783283 0.072794266 0.005403768 -0.6081931 -0.0293193 0.26310307 -0.16921692 -0.25974873 0.074145734 -0.16771412 -0.06314509 -0.13578022 -0.18966414 0.070692435 -0.29667923 -0.17268735 0.31297842 0.052319393 0.20984182 0.07683324 0.6085605 -0.33766687 0.19145034 0.30502367 -0.13691857 0.0448133 0.4921683 -0.04565763 0.24491122 -0.014029389 0.124910645 0.12378864 -0.031325456 0.07475004 0.19059995 -0.025722494 0.18380806 -0.078735165 -0.15018894 -0.34481034 0.20834626 0.1110131 -0.11357413 -0.06108965 0.40062112 0.12785017 0.24942885 -0.20808479 0.2803959 -0.25360096 -0.41248497 -0.22309655 -0.025896994 -0.052301895 -0.09935622 -0.22521497 -0.0540515 0.5321817 -0.23543122 -0.11012182 -0.2754821 0.035514895 0.06570676 0.058930818 -0.117331035 -0.14943464 0.27465388 0.38080424 0.33543378 0.029068237 -0.11973748 0.08341118 -0.29366323 0.30622724 -0.09778691 -0.063003615 -0.18096638
1022 0.32049176 0.3612877 -0.044118334 -0.0042587295 0.4231405 0.03898164 0.06389512 -0.36576182 -0.058554173 0.076186545 -0.1040338 -0.047949873 0.20352487 -0.07208432 0.91211987 0.0020101287 -0.25238138 -0.089695506 0.023263868 0.03939984 0.24962963 0.21402317 0.2286071 -0.36301747 -0.014356796 -0.39230147 0.084266506 -0.14450547 -0.112448804 0.10811241 -0.3249162 -0.15344554 0.14917491 0.05002407 0.36136195 0.36396635 -0.16968144 -0.057894353 -0.1319832 0.12811632 0.14775285 -0.2657752 0.1685255 -0.033827625 0.13856815 0.48121384 0.42287135 0.109716155 0.14121653 -0.40759662 0.5604613 0.14419138 -0.027512511 0.2987843 -0.22959414 -0.016625054 0.32483545 -0.2044189 -0.37044835 0.19553663 -0.1530245 -0.24177194 -0.253631 0.035803534 0.15306947 -0.3734642 -0.20990928 0.2267613 0.02924145 -0.24283205 -0.029133823 0.12693289 -0.5428599 -0.09521027 0.2778223 -0.35447413 0.21636632 0.0996608 -0.1175923 0.1751429 -0.07715746 -0.23621775 0.07581797 0.050121855 -0.018478265 -0.08808604 -0.32046032 -0.0076176343 -0.014620538 -0.24005103 -0.088239096 0.18952733 0.05996071 0.050570566 -0.059143987 0.34330672 0.12547748 -0.079946205 -0.4620149 0.26410687 -0.24617389 0.014632887 -0.26413935 0.053272706 -0.4500688 0.23147084 -0.32382497 0.0808477 0.08873727 -0.045900535 -0.11786435 -0.063791156 -0.25349224 -0.13916448 0.058923766 0.113495424 -0.026945783 0.5783653 0.5315172 0.24307285 0.078037575 0.02922197 -0.083576605 -0.082702756 0.51018125 -0.24683635 -0.23901032 -0.20531905
1399 -0.007085074 -0.36060113 -0.35273796 0.15143107 -0.14751333 0.2436608 0.080771886 -0.17729306 0.05219779 -0.44957808 -0.32082877 -0.37837943 0.28494447 0.17967781 0.2541713 0.067933366 0.07029044 -0.32476687 0.17017172 0.33563486 0.18526316 0.10183709 0.08991873 -0.2206863 0.10746707 0.07433938 0.23908661 0.2051731 0.31456038 0.013577013 0.18841167 0.39095458 0.38723773 -0.37113607 -0.07829264 0.08151334 0.050775904 0.01672062 -0.22372396 -0.13530377 0.42626348 0.036954753 0.12836432 0.38141558 0.12978747 -0.22597915 -0.14680548 -0.023831379 -0.30678305 -0.1454486 -0.14013417 0.41433746 -0.029028617 -0.17004187 0.056107707 0.07168333 0.20252194 -0.46766484 -0.18827176 -0.32266805 -0.010288873 0.059456225 -0.37810004 0.07495474 -0.1271366 -0.07413154 -0.36710665 0.00032434196 -0.09340343 -0.389708 -0.008777744 -0.16024537 -0.18694843 0.12512363 -0.33247018 -0.06631698 -0.12706688 0.43801966 0.115547776 0.11856434 0.06833584 -0.10774872 0.0126779 -0.4920001 -0.11890619 -0.016440812 -0.056870427 0.24511884 -0.06739445 -0.47278452 0.20930031 -0.23070082 0.13261461 -0.0345036 -0.08204564 -0.18377005 -0.44162315 0.43516225 0.003868972 -0.49747828 0.01747951 0.10296685 -0.3954742 0.068936646 0.044473104 -0.1272834 -0.52460533 -0.14946416 0.09162978 -0.09796581 -0.2567425 -0.38920382 0.27286765 -0.13869181 0.6417641 -0.13030997 0.39338493 -0.017056577 -0.031073075 -0.03143135 0.3072974 0.773912 -0.33966914 -0.052352134 0.11920696 0.2210865 0.1968048 0.0010221165
1185 0.07237259 -0.416244 -0.08663181 -0.15774365 0.0172809 -0.16846766 -0.29579833 -0.3912209 -0.3898951 -0.23006311 0.15905783 0.3591528 0.0030765168 0.07204287 0.2599194 0.17493722 -0.18695137 0.06630838 -0.14748748 -0.08799639 0.54306495 0.1242834 -0.18908143 -0.20465252 -0.12796105 -0.114914194 0.15356268 -0.23405004 0.08357544 -0.11084272 -0.097174324 -0.17181922 0.510365 -0.21695575 0.15032773 0.4855072 0.41095892 0.025265688 0.2762611 0.10832811 -0.40573356 -0.22458948 -0.13964595 -0.014245393 0.06722312 0.53292567 0.5155286 0.11211469 -0.031210162 -0.17425123 0.15655766 0.34652412 -0.30985528 0.018310064 -0.6503028 -0.16196217 -0.015830478 -0.43372923 -0.12661895 0.042571 -0.22373112 -0.34647143 0.1096814 -0.19364007 0.10810138 -0.23795621 -0.10429687 0.2802603 0.3382791 0.010925766 0.42604625 0.3543151 -0.102065906 0.2017804 0.12414319 -0.52553546 0.040252127 0.016048409 0.090111844 0.052765805 -0.53927135 0.24379045 0.3352128 0.18772987 -0.1071381 0.42595762 -0.068371125 -0.13945538 0.034550205 -0.57158273 -0.80510944 0.14108498 0.2304685 0.014316702 0.17443316 -0.13834794 0.3793425 0.2518847 0.020559967 0.027616482 -0.08970956 -0.13836086 -0.1679658 -0.13029145 0.118201375 0.15721928 0.14464746 0.11523294 0.40523335 -0.5632488 -0.48012856 -0.49953735 -0.017510733 0.25885758 0.21935536 -0.1733232 -0.10699387 -0.120499834 0.11888949 0.34584448 -0.031114923 0.01877545 -0.03573184 -0.047178656 0.07382802 -0.29548606 0.26598382 0.0056935702
592 0.39988685 -0.20222488 -0.2601967 -0.27701768 -0.042017628 0.43825993 0.11068849 -0.0937653 0.1997043 -0.18441746 -0.1052866 -0.47603303 0.13644849 -0.021101205 -0.052608617 0.56657034 -0.04825694 -0.33752182 0.0820918 0.65473354 0.30131721 -0.06281977 -0.22657923 -0.071024515 -0.31419536 -0.2362761 0.026003381 -0.41162837 0.022624196 0.23505712 0.103704624 0.12608993 0.24513295 0.000113378075 0.17452444 -0.04090555 -0.15440896 0.26181364 0.11126787 0.06253753 -0.011074105 0.41828203 0.016710082 0.83522856 0.18666321 -0.07532849 0.044523817 -0.2671074 0.0266623 0.05398795 0.48230913 0.17703569 0.2557768 -0.05343863 -0.056086056 0.0042195003 0.1797346 -0.29160178 -0.21493386 0.19988984 0.058816105 -0.07721764 0.15874973 -0.5072061 -0.17878827 0.38463596 -0.019918328 -0.36442512 -0.15133654 0.17578591 -0.07204938 -0.18977475 0.2934785 0.016011642 0.18580607 -0.2457844 -0.245456 0.01746751 0.022323623 0.15693225 -0.42505395 0.16632643 0.23916622 0.1366166 0.10118684 0.34529427 0.20623358 -0.038783327 0.12384729 -0.062961705 -0.2439874 -0.32852805 -0.14464957 -0.10281935 -0.19243059 0.19107245 0.24836268 -0.26660746 -0.053755626 0.22276314 -0.026963148 -0.06122426 0.1411437 0.014325148 0.12281949 -0.23963769 0.10286947 0.44556144 0.31690422 -0.07142502 0.26091805 -0.043686118 -0.035480395 0.0065177404 -0.43463913 0.22941236 -0.32536682 -0.020099133 -0.15411685 0.11625903 -0.055944093 0.13939738 -0.1716428 0.3951409 -0.17989317 -0.033978425 0.084882975 0.09879968
1098 -0.28829494 -0.060416017 0.107163124 0.33267152 0.33376268 0.32291266 -0.18540052 -0.26495495 0.11878307 -0.18434182 0.15241273 -0.7703389 -0.013758208 -0.20165125 -0.13051996 0.05188568 -0.053947717 0.46085364 -0.22105041 -0.164581 0.14960389 0.21655478 0.09994872 -0.024383215 -0.09130403 -0.40248057 0.6148077 0.25204208 -0.048440464 0.20646097 0.36581847 -0.5328761 0.12552424 -0.37750718 0.28340057 -0.12733696 0.23574616 -0.3771387 0.21134949 -0.07802075 -0.034798577 0.061584733 0.0262074 0.22541091 -0.035057977 -0.0905208 0.35897538 0.098186634 -0.5172009 0.09052224 0.2707442 -0.21294273 -0.31626326 0.08148896 0.15051253 0.09044652 0.12485972 -0.20268403 -0.4485238 0.6317203 -0.18537953 -0.059674624 0.15230075 0.26278993 -0.20854239 -0.1747057 0.1319433 -0.1420858 -0.10322407 -0.039195653 -0.36941347 0.16851649 0.1699765 0.21370898 0.13694687 0.123527676 -0.057229765 -0.31444308 0.026735406 0.020493086 0.1483971 -0.18450019 0.03585805 0.11033481 0.17677946 -0.26369172 -0.10232425 -0.46094427 0.12653255 -0.28151277 -0.15157135 -0.03773128 0.04894714 0.10124246 0.2335382 -0.010823052 -0.05607351 -0.07101189 -0.26802623 -0.017048804 -0.14752594 0.11346499 -0.48008457 0.2883488 -0.22725183 -0.2522103 -0.290243 0.339628 0.343197 -0.12859881 -0.114918865 -0.37138784 0.29847717 0.4334438 0.22908479 0.058891144 0.06561699 -0.0758722 0.5481002 -0.30131575 -0.47383478 -0.106770575 0.44987735 0.17139952 -0.1360127 0.016049726 -0.10943975 0.02351442
565 0.2427375 0.06460867 -0.07412899 0.015917439 0.0732061 -0.21526487 -0.2894081 -0.23441578 -0.34214184 -0.27663407 -0.25820145 -0.7410793 0.3750686 0.0012924462 0.328221 -0.17427637 -0.14609948 -0.16444294 0.19244924 0.550112 0.40855664 0.24220379 0.17725478 -0.11471762 -0.079413086 -0.0821802 0.29947832 -0.045026634 0.11790314 -0.29211274 -0.17259227 0.33752358 0.29661667 0.19453967 -0.011272484 -0.05323429 -0.052748993 -0.3194362 -0.12717886 0.13477443 -0.1487153 0.15412205 0.088870674 0.21949416 -0.045787618 -0.026054671 -0.106031865 -0.44457433 0.0072756647 -0.279682 -0.3029714 0.11125188 -0.016269 -0.03062609 -0.74432087 -0.14861368 0.0020919587 0.009222097 -0.38682625 0.32068446 -0.076435536 0.14580266 0.33322594 0.02960643 0.0039705057 -0.15002488 -0.07343332 -0.10430658 0.05286716 -0.5039703 0.4438058 -0.140101 0.044482436 0.12148831 0.062259063 -0.12488963 0.23155758 -0.35156977 0.11624107 0.23490249 0.09221067 -0.0148336515 -0.3089576 -0.115679346 -0.39510456 -0.05263137 0.17976713 0.04792118 -0.1551773 -0.06503341 -0.007994661 0.5855733 0.16236961 0.38751018 -0.13427202 0.013759246 -0.022361746 -0.037985977 0.045175433 0.17794608 0.05968929 -0.036446374 -0.23514271 0.09893037 -0.01863629 0.15293737 -0.23924856 -0.19766489 0.05858718 -0.258811 -0.05783718 0.05496774 -0.059352342 0.36686963 0.105796136 0.29921573 -0.04256914 0.113992155 -0.13089436 0.18097323 0.168899 0.3019723 -0.05127905 -0.116669774 -0.19978514 0.2503125 -0.21852922 0.24121822
504 -0.07429268 -0.09241043 -0.07787885 0.036355015 -0.11189897 0.21436915 -0.100248985 0.040838417 -0.57852656 0.45622078 0.18953116 -0.40494448 -0.22096226 -0.17824408 0.0378675 0.14608847 -0.11278624 0.20213035 0.4762913 0.06980961 -0.07501313 -0.37105313 0.3180829 0.0030338075 -0.10441078 -0.11556754 0.028282933 0.35622874 -0.052726865 0.3885958 -0.107898094 -0.27347296 0.20055172 -0.40024853 0.017484464 0.41976652 -0.21134469 -0.19241196 -0.13436727 -0.2762316 0.36756966 0.096040376 -0.35351694 0.13882436 0.32587025 0.43910006 -0.2246888 -0.10588134 -0.17068207 -0.0030410786 -0.056477163 0.04056807 0.06558077 -0.03681075 -0.4885137 0.0505173 -0.2650212 -0.30270606 0.20220444 0.2337771 0.093089186 -0.15510239 0.39640784 0.27971277 0.12631723 0.09179341 0.043551575 -0.39595565 -0.16157746 -0.13685139 -0.20784804 0.051314227 0.09830043 -0.5808628 0.10016781 -0.415064 0.1927989 -0.3119018 -0.062157847 0.2446596 -0.2567951 0.60275793 0.2532432 0.09405476 -7.715172e-05 -0.1840653 -0.2581737 -0.0060723335 0.14455111 -0.24157171 0.08041471 0.28817028 0.112170614 0.21294808 0.07412654 -0.38110662 -0.25949758 0.01865439 0.07009706 0.03529627 0.03234632 0.08529832 -0.1994031 -0.007511383 0.20219298 -0.46840766 0.27271903 0.096868865 -0.24580336 -0.26213348 0.33806348 -0.15510309 -0.2672353 -0.011158521 -0.0898607 -0.12871423 0.46086684 0.3822411 0.51059496 -0.10060131 0.041011553 0.33960503 0.013186518 -0.3136702 -0.016712837 0.31671956 -0.083649404 0.09784841
781 -0.021198824 -0.22820203 -0.08351511 0.02068152 -0.52646905 -0.09499179 -0.12292612 -0.30998614 0.11293561 -0.3029718 -0.1697009 -0.06630575 -0.46843022 0.071333826 0.14076015 -0.10621336 -0.2560205 0.19984427 0.09761268 -0.27849162 0.12980956 -0.04093427 0.101580076 -0.24371445 0.264571 -0.16939081 0.28263876 -0.17040981 0.074299 -0.0021762312 0.4545322 -0.081419975 -0.12406088 -0.029369427 0.0039258194 -0.06678942 0.036289915 -0.11970714 -0.16909029 0.027776698 -0.10928106 0.6764365 -0.13265951 0.050049134 -0.1779604 0.23094968 -0.14759652 -0.3184976 0.12523678 0.008661895 0.41218823 0.17293592 -0.00637455 -0.22665626 -0.026925294 0.33713603 0.16861013 0.16869181 -0.35021362 0.3260732 -0.14658111 0.19842085 0.08297211 0.09780571 0.29435176 0.47439596 -0.028206067 0.34241402 0.075245366 -0.098776765 0.44164723 -0.43495935 -0.17289667 -0.5865707 -0.20395729 0.044668466 -0.07411914 -0.36811817 0.22469567 0.20434606 0.54030544 -0.15451849 0.15279564 -0.16614386 0.36486074 0.07032319 -0.010542255 0.033605047 0.15067916 0.070933774 -0.09031875 0.060186286 -0.2780637 0.01872748 -0.052495304 0.1334227 -0.21267198 -0.0995882 -0.0033965672 0.048018295 0.005498808 -0.12128893 -0.5872434 -0.20945747 -0.29648772 0.020796873 -0.18575844 0.2961088 0.29637715 -0.29713646 -0.13370632 -0.21684965 -0.16537891 0.1708433 0.18321057 -0.21305205 0.19450685 -0.04958391 -0.25309855 -0.22348312 -0.12320148 0.1714135 0.042399388 0.062220063 0.028686833 0.2799294 0.03759735 -0.31160074
543 -0.031771287 0.233568 0.08374588 0.05910876 0.18906324 -0.4013126 0.106766656 -0.47427794 0.11446141 -0.36308706 0.5064945 -0.24510255 0.20040022 -0.42653197 0.23805146 0.2566084 -0.3248141 0.38085717 -0.23153013 0.19673342 -0.5446182 -0.14319299 -0.09445409 -0.049098507 -0.22302198 0.109738946 0.032602202 0.052318543 0.09424373 -0.20612155 -0.015925363 -0.51717424 0.06867397 0.100539654 0.2661885 0.0652169 -0.021170089 0.20172872 -0.2096553 -0.07259192 0.2626444 -0.027932655 0.28929487 0.31183022 -0.047446728 0.017176373 -0.4193963 -0.20592646 -0.12778087 0.23160979 0.09866554 0.070998184 0.83455426 0.08439415 -0.16086254 0.012363769 -0.022488307 -0.27379093 -0.19364859 0.04558242 -0.3888108 0.4871654 0.1581593 -0.16684303 0.086773425 0.07553403 -0.040130366 0.031710133 -0.38028088 -0.071192704 -0.06953432 -0.17702769 -0.05277239 0.028679168 -0.00085783825 0.15818685 -0.06015683 -0.15011254 -0.06653629 0.308598 0.030090272 -0.0827959 0.32973054 0.29566714 -0.2894519 -0.26324403 0.09511491 -0.10439579 -0.2960073 -0.14679101 -0.61788744 -0.4001309 0.29175562 0.23346326 0.3513146 -0.27637792 -0.3424929 -0.22440225 0.19860378 0.0381438 0.043092992 -0.08942088 0.10230995 -0.12816264 -0.205691 -0.041729003 0.10108298 -0.20741627 0.11716145 -0.04036018 -0.41250813 -0.19938274 -0.27378693 -0.1648954 -0.17362194 -0.21773289 0.11801879 0.30268437 0.017607694 -0.013239364 -0.0022819487 0.105886266 0.34008422 -0.056619074 -0.091006756 0.07380683 0.21967131 -0.04323012
563 -0.25148287 -0.012642721 -0.19499385 0.18343385 0.035217263 -0.06687921 0.22467564 -0.2866357 -0.17849512 -0.041307542 0.02028473 0.10035904 -0.23527409 -0.13354158 0.23688748 0.15342669 -0.7103543 -0.08461074 0.06218861 0.024531355 0.08854057 -0.14280094 -0.27621627 -0.28422165 -0.51720667 0.1451035 0.035230655 0.09726045 -0.30156434 -0.31002742 0.047020793 -0.16230871 0.47273678 -0.41297108 -0.5052244 0.14417551 -0.4621719 -0.13529818 0.06386041 0.17704186 0.0035663473 0.043436427 -0.1991122 -0.12852366 0.13518088 -0.3910477 0.14622396 -0.13915847 0.44673592 0.09194566 0.29666477 0.55492634 0.014614455 -0.13278398 -0.2263418 -0.21523586 -0.07646967 0.033101674 -0.27469784 0.34210375 -0.6650726 -0.039939914 0.19417399 0.018663678 0.1748554 0.10041623 -0.27081648 -0.37625948 0.011517269 -0.20470415 0.42100123 0.20262915 -0.27451843 0.24247706 -0.121025555 0.013691906 0.27528512 0.28216928 0.2970748 0.108916864 0.23733611 -0.056010265 -0.26833668 0.08808317 0.32641336 -0.24499454 -0.2022423 -0.15681516 0.15878347 0.24182692 -0.21817039 -0.37837526 0.54434985 -0.16064432 -0.019780895 0.21230228 0.038846735 -0.13064125 0.52450866 0.07463343 0.07761272 -0.015578416 -0.0016549812 -0.2555611 0.009062839 -0.029860567 -0.07948249 0.07564858 -0.22251107 -0.1934116 0.32169637 -0.067083046 -0.05538515 0.31827372 0.105102465 0.24778262 0.41301692 -0.20073175 0.052020777 -0.2157648 0.31655222 0.0007141688 0.109105624 0.036156524 -0.0355585 -0.10026016 -0.028877156 0.29635787
1398 0.07723298 0.22451375 -0.39090666 -0.107705384 -0.13177863 -0.043447126 0.13640022 -0.1185947 0.060555607 -0.31276947 0.31264323 -0.2590639 0.2721577 -0.27665412 -0.04341873 0.012742442 -0.18527703 -0.50597954 -0.0033534898 -0.16336927 0.18999532 0.014517766 0.06290253 0.09517195 0.42727304 -0.17274882 -0.12882635 0.19313304 0.0074955733 -0.05503588 0.5618529 0.021946404 0.25813493 0.12695315 -0.11117878 0.011067906 -0.089233495 0.07399207 -0.2523407 -0.00100998 -0.021580672 0.40999013 -0.24798317 0.0408853 0.010338537 0.14167051 -0.09424516 0.16520925 -0.41755396 0.15780416 0.0046417173 0.20106085 -0.019973017 -0.13501613 -0.1430244 -0.32081208 -0.22209427 0.28994796 -0.24162301 -0.054688387 -0.09476072 -0.38784447 -0.29499844 0.08784301 0.18630832 -0.053437635 -0.050738815 -0.4903324 -0.32168478 0.34014392 0.55074996 -0.05585973 0.25709525 -0.09250451 0.04879819 -0.85090923 0.022374386 -0.16928186 0.029372681 -0.30654332 -0.18399706 0.049604118 0.35442647 0.31165794 0.4364408 0.14339593 -0.29476854 0.05193941 -0.13215743 0.021094156 -0.16898088 0.52553236 -0.019983381 0.018226407 -0.015101898 -0.1004525 0.03134969 0.13338673 0.12277461 0.11333952 0.23642021 -0.029330257 0.5079936 -0.07539599 -0.3520644 -0.13241257 -0.2204251 0.0006313576 -0.37685353 0.06273842 -0.29358777 -0.31170806 0.22509873 0.0005880243 0.32977068 -0.38989168 0.4004514 0.025009742 -0.06269801 0.00852981 0.28853893 0.050904788 -0.13625291 -0.23849419 0.4041342 -0.2790641 0.33695853 -0.36050653
614 0.22692728 -0.07212554 -0.07696333 0.07590942 0.011122943 0.079974405 0.17498365 -0.070862256 -0.053017702 0.5715949 0.1821506 -0.28648454 -0.13393804 0.035434414 0.061243564 0.35648575 -0.17252521 -0.17166923 -0.057282917 -0.05393484 0.20778924 -0.1985584 0.44715273 -0.20965518 0.030781046 -0.303845 0.3213574 0.40945858 0.057510715 0.034414694 0.111894764 -0.28513265 0.16387734 0.068069816 0.17015636 -0.24415693 -0.3611023 0.21446307 -0.1215088 0.1703325 -0.076648444 0.016832216 -0.22683457 0.105027854 0.32428363 -0.12097316 -0.57405514 -0.16423568 -0.26061982 0.26420286 -0.116622545 0.09603828 0.097752936 0.13753873 0.027038937 0.1734756 -0.254718 -0.24884848 -0.13267782 -0.025561944 0.11322648 -0.13767037 0.036838617 0.13332056 -0.033902455 -0.13659996 -0.0750812 -0.32281506 -0.29244787 0.15359356 0.25289005 -0.2605655 0.1464941 0.17347398 0.15678312 -0.26050192 0.615142 -0.00091755716 -0.57864344 0.63763493 -0.22300303 0.39419574 -0.22726388 0.55556935 0.5898472 -0.03419389 0.2949848 -0.12541035 -0.19214286 -0.637186 -0.111003764 0.04609828 0.036923382 0.016772438 0.19187863 0.0027041954 0.20800298 0.17162861 -0.1451849 0.013695316 0.21424332 -0.04737094 -0.20595187 0.0026435677 -0.41060877 -0.15746357 0.10822323 0.39055544 -0.06331035 0.056069233 0.26920277 0.06441627 -0.028402349 0.053142034 0.13774502 0.14213641 0.37782142 -0.044956744 0.3745009 -0.37734926 -0.10692944 0.16293272 -0.26093587 -0.17642309 0.049449585 0.021347914 -0.29883698 0.054112844
1219 0.054328043 -0.3672324 0.2876656 0.050098624 -0.17283879 -0.038074713 0.024759917 0.32088387 -0.09808621 -0.2908992 -0.27610308 -0.2886884 -0.056473393 0.43206307 0.08444549 -0.24706066 0.3320079 -0.044490587 -0.19708762 0.059745185 0.09541423 0.05576055 -0.20489308 -0.5046087 0.08912316 -0.0981774 0.19435683 -0.12411729 0.11590965 0.14895573 0.043619476 0.014305999 -0.101961054 -0.07420086 0.011340997 0.08005533 -0.028505215 0.079365045 -0.3384392 -0.3300322 -0.33081323 -0.3720626 -0.27724555 0.30172503 0.5367838 -0.5853081 0.16804792 0.45312652 0.2210354 0.30552217 0.3428199 -0.05528526 0.2322255 0.035217997 -0.3837877 -0.0025205968 0.33072937 -0.18178609 -0.1639203 0.37921777 -0.25063577 0.022859447 0.29244477 -0.32761505 0.009959612 -0.15666267 -0.021753551 0.057082504 -0.31760365 -0.2595692 0.2812449 -0.112055704 0.35498723 -0.23112427 -0.016678387 -0.09638456 -0.49002972 0.2096787 0.12541291 0.08477989 -0.1002894 -0.1592147 -0.2055283 -0.15758629 0.37967005 0.11677939 -0.19810167 0.082602486 -0.1094532 -0.4751766 -0.020449255 -0.28427514 0.08253422 -0.11575347 0.12196756 0.14308855 0.002975011 -0.067301415 0.37725127 -0.05444048 -0.06630457 -0.11771679 0.19184996 0.25772035 -0.15896267 -0.096106194 -0.21043716 -0.25465208 0.08529434 -0.24522243 -0.24084726 -0.4084464 -0.028150748 -0.17415571 0.44612435 0.05746895 0.55320066 0.2142613 0.11570891 -0.14548574 0.103148766 0.22708237 0.090529464 -0.16292109 0.14970209 0.3489341 -0.22369356 0.52043474
626 -0.39469844 0.010486196 -0.04770016 -0.44531435 0.33084154 -0.0055652247 0.08995698 -0.14140972 -0.13498132 -0.009852316 -0.35938907 -0.56313026 -0.13011335 0.09538101 0.2185218 -0.14856644 -0.09630134 -0.10277396 -0.1683928 -0.23555882 -0.07803101 -0.25507912 -0.047882974 0.027677981 0.05926788 -0.49809286 -0.27070478 0.1223983 0.019343996 0.10220548 -0.040513188 -0.23624136 0.12148891 -0.06787379 0.11033071 0.48498976 0.002068074 0.09721595 0.18678492 -0.14056055 -0.30352703 0.22461164 0.17853911 0.20149364 -0.03747551 0.40143746 0.18017365 -0.033397082 0.08865157 -0.056515258 0.22344148 -0.013849848 0.048695166 0.006676255 -0.31482688 -0.1426114 -0.28166834 0.26488402 0.2141146 -0.016522052 0.1585575 0.12930775 0.18037438 0.44542444 0.09720186 0.24218692 0.18390214 -0.3715952 -0.271184 -0.255575 -0.18455608 -0.48395312 0.17230836 -0.057489187 0.040332485 -0.10604126 -0.29469794 0.11049763 -0.09222304 0.18753427 -0.32224104 -0.051938634 -0.08264144 0.44236702 0.13646367 0.3834137 -0.3440758 -0.56969887 0.040469963 0.07391009 -0.08452965 -0.57127464 -0.27227885 -0.3799685 -0.10770268 -0.463219 0.736382 -0.09485707 -0.14775224 -0.48339614 -0.02806638 -0.30636704 -0.39752698 -0.5126562 0.25582597 0.026260823 -0.34826428 -0.18863107 -0.11441296 -0.27369434 -0.35539964 0.1490547 -0.052306723 -0.073410526 0.24278024 0.54550666 0.30877063 0.059359916 0.050922498 -0.16725355 0.043061662 0.09995368 -0.14950697 -0.17565893 -0.0056538503 0.16952182 -0.13454154 0.09742758
727 0.22538476 0.18951954 -0.05561742 0.013597022 0.024009025 0.14284949 -0.22120072 0.1307389 -0.074849956 0.048788704 -0.04433321 -0.30892634 -0.15565385 0.19504789 0.36016437 -0.29648572 0.09801041 0.03727198 -0.15414949 0.05163933 0.010991814 -0.14851372 -0.364239 -0.056824934 0.13929851 0.043852977 0.24759705 -0.047816884 -0.15611404 -0.08779177 -0.033216506 0.11478003 0.04888063 -0.18854283 -0.14466113 -0.10583709 -0.3634622 0.14334254 -0.6043029 -0.18390894 -0.17590997 -0.32440802 -0.18171506 0.16909578 0.39732617 -0.18944691 0.034268647 0.14591652 0.23439705 0.61807233 0.34087285 -0.15901078 0.2611804 0.01295266 -0.13863401 0.3221227 0.0059500383 -0.24436164 0.068312116 0.32862875 0.28588632 -0.014750643 0.38135356 -0.30990565 0.12272746 -0.20136774 0.10500363 -0.10375712 -0.2589039 -0.34532604 0.03266816 0.13935943 0.57714486 -0.17266928 -0.21499626 -0.08664977 -0.68387777 -0.124458835 0.027050562 0.23411839 -0.11797511 0.1640809 -0.14928481 -0.25658542 0.29137716 0.10563796 0.105262876 -0.12877598 -0.04051508 -0.09928289 -0.022639645 -0.13871889 0.08745277 -0.06871049 -0.009269377 0.1506326 -0.048116002 0.11876042 0.07852374 0.12955126 -0.08495184 -0.017816393 0.19922985 0.14041306 0.24984424 0.03488521 -0.26695535 -0.24030314 0.48970717 -0.18501516 -0.27030978 -0.15393831 0.06041731 -0.29805687 0.20124172 0.15200637 0.9031618 -0.07727518 -0.10346518 0.042542662 0.15298152 0.06583824 -0.2068653 0.078538194 0.39195463 -0.11415572 -0.22685526 0.34297433
539 0.31765246 -0.037925854 -0.13343942 -0.49741372 0.1321815 -0.17539854 0.38628736 -0.016543463 0.4975131 -0.40088066 0.058316838 -0.18847069 -0.056501128 0.092390314 0.16269843 0.12953608 0.4680675 -0.29702818 0.106231906 0.06108889 0.11478986 0.036567997 -0.575644 -0.11100482 -0.1838009 -0.11117072 -0.039788343 0.18084297 -0.016354483 -0.21650435 0.5077992 -0.05417744 0.17690727 0.2653564 -0.103293665 0.27684188 -0.045195516 0.15927298 -0.18793008 -0.032456517 0.022531666 0.08253339 -0.54570496 0.711107 0.034113925 -0.16721693 0.2375171 0.23518431 0.3077686 0.13276267 0.3775459 0.18569219 0.0012146196 0.3500116 -0.4799522 0.20615861 -0.5562418 0.30146763 0.19811772 0.27769262 0.35867116 -0.008236248 -0.18132612 0.056632955 0.14104292 0.2995014 0.14928432 -0.14085433 0.56284785 -0.16876434 0.034058016 0.18644774 0.032535125 -0.19702041 -0.12631667 -0.11888397 0.080352575 -0.26312533 -0.2635382 0.07015113 -0.29325676 0.077677414 -0.035877235 -0.03389978 0.11616553 0.06871485 -0.10391861 -0.06029406 -0.65609765 0.039306972 -0.0678222 -0.007982486 -0.20488125 -0.20311049 0.15644965 -0.0040211803 0.17504624 0.12757522 -0.1454734 0.034587413 0.16589226 0.3631928 -0.40810728 0.27279198 0.087949134 0.18680601 -0.13917458 0.071885444 -0.056435358 0.12578674 0.1376466 -0.30680794 -0.055598654 0.30808485 -0.29435912 0.15408443 -0.16809326 -0.043417577 0.06830758 -0.02515036 0.13096072 0.37749344 0.12156191 0.029281696 0.1552844 0.5171805 0.4055691 -0.26335075
116 -0.026870256 -0.37632224 0.0023101424 -0.12223049 0.24249811 -0.116840675 -0.52974486 0.063042425 0.05691664 0.11236506 -0.28658703 0.096714154 -0.07976563 -0.47309968 -0.35387236 0.07446254 -0.052537564 -0.32075053 -0.2870212 -0.0122339 0.22506702 -0.39339912 -0.063266 -0.24391267 0.21449457 0.1109436 0.0743348 -0.23773324 0.212517 -0.7755549 0.12127407 -0.054380838 0.12736173 0.122913346 0.038117945 -0.14416434 -0.30683738 -0.029459175 0.20236403 -0.13373896 -0.113449104 0.33780816 0.12677015 0.26207235 0.18610983 -0.060639564 0.20948479 -0.07565124 0.21273328 0.31014988 -0.052254345 0.028267724 0.23951906 -0.026316505 -0.13361888 0.2882323 0.15140203 -0.09653613 0.07238514 -0.25253385 -0.10948342 0.17806233 0.21532276 0.3718637 0.11267472 -0.12893085 -0.12482956 -0.023481257 -0.0820193 -0.28254992 -0.20874353 -0.19897674 0.123640366 -0.26027194 -0.076455355 0.34566167 0.018632183 0.059078928 -0.023745863 -0.03763451 -0.31090984 0.13433686 0.7378215 0.35201472 -0.04996282 -0.09247673 -0.041732226 -0.045596413 -0.29368913 -0.4412478 0.09547987 -0.08830357 0.19791476 -0.13369708 0.055361778 0.07546519 0.07191214 0.18389677 -0.6167317 0.079829894 0.12648389 -0.025709186 0.007355239 0.3239845 0.3659246 0.16022877 -0.2707481 0.055803888 0.10542857 0.24323769 -0.36289513 -0.47410604 -0.1682283 0.3873358 -0.12651958 0.33235726 0.28736034 0.3031081 0.059030484 0.1912155 0.16326095 -0.38271663 -0.53605336 -0.04880134 0.35337174 0.08663919 0.15764518 0.04811255
1312 -0.09642154 0.10475059 -0.15284649 -0.21766648 0.21251833 -0.12660901 -0.3307529 0.022452818 -0.2225776 0.21419914 0.025056764 0.27066317 -0.27025095 -0.26817313 0.1531128 0.16249467 -0.20317729 -0.25871253 -0.00413149 0.041487716 0.027071679 -0.64058626 -0.5881453 -0.12973644 0.2864158 -0.10363503 -0.12261708 0.05270657 0.31147733 -0.10151057 0.060373943 -0.83372855 0.060546238 -0.20996521 -0.13063891 0.090737805 -0.36333352 0.16442429 0.040448435 0.09431345 0.4052126 0.4554562 -0.2559674 0.3984902 -0.18396275 -0.012461217 0.2260749 -0.18169202 0.2754884 -0.31264266 -0.29153207 0.031048909 0.12287496 0.009798226 -0.059816137 0.14020354 -0.33953252 0.20978858 -0.35057533 0.17408407 0.20763358 -0.0015043546 0.1542471 -0.22995946 -0.6116328 -0.14085343 0.11451762 0.13394208 0.03433513 -0.18147264 -0.16004094 -0.17485058 0.02789667 0.43495697 0.019693937 -0.40604082 0.21529093 -0.24888265 0.27060664 -0.05822448 0.13717735 0.07166019 0.06402901 -0.3206977 -0.23608027 -0.19878492 -0.24377085 -0.20420566 0.3078158 -0.0073914933 -0.041005 0.20436168 0.051909987 -0.11842079 -0.07277282 0.025850609 0.10784455 -0.28039646 0.1508737 -0.08392811 -0.35990772 -0.24003753 -0.0082629435 0.25942364 0.11845209 0.12601937 -0.092427455 0.14694533 -0.13145724 -0.16508771 -0.03883993 -0.19091167 0.31772178 0.080223136 0.3424995 -0.30539283 0.502537 0.14180739 0.3448869 -0.3096445 0.6163148 0.38341805 0.0774746 0.028677471 0.16684265 0.3866997 -0.44410697 -0.23377916
1426 -0.18421969 -0.21073154 0.12643272 -0.13403578 0.025466 0.05832494 -0.08088271 -0.20817631 0.14848198 -0.2561832 0.13795774 0.29792532 -0.039652236 0.16546935 -0.19109845 -0.063698515 -0.40879965 0.25749812 -0.06357362 0.30170983 0.6340165 -0.06408159 0.3300637 -0.21076457 0.63870347 -0.19391292 -0.22488779 0.05115121 0.1436978 0.04523963 0.06024437 -0.15649222 0.18155254 0.23083088 0.036974203 -0.39604327 -0.505583 -0.48360604 -0.16650982 -0.13298488 0.43087688 0.39284098 -0.26875928 0.43064436 -0.33207643 0.2664464 0.067737065 0.2168209 -0.25767466 0.18632212 0.333466 0.44881114 -0.31720248 0.14188522 0.046179283 0.13856128 0.25318313 0.17902662 -0.17260803 -0.008967779 -0.16635485 0.18392226 0.15944251 -0.13636398 0.108816296 -0.069062844 0.14105652 -0.13706253 0.0153945945 -0.3525741 0.19923133 -0.54499954 -0.029143864 -0.45677686 0.16204236 0.044874508 0.036148492 -0.42966193 0.19072564 -0.016424323 0.3174066 0.10309476 0.016718302 -0.3234275 0.38369587 0.15559424 -0.08013438 -0.054815248 0.13213755 0.39600098 -0.4063591 -0.06264543 -0.44439763 0.04705218 0.049658522 -0.05024655 0.031654667 -0.07137829 0.093585625 -0.15457045 -0.17356484 -0.061447598 -0.2999179 -0.17895854 0.10716502 0.13913213 -0.28249717 -0.2900804 0.32437396 -0.047494814 -0.01775108 -0.21560295 -0.4462871 0.19531819 0.2976666 -0.05572094 0.015399341 0.2808518 -0.1635553 0.048002146 -0.09572591 0.2244568 0.011149795 -0.08245773 0.36707947 -0.013719648 -0.4644976 0.13632491
