749 128
311 -0.12354875 0.17845255 0.10859087 0.06894995 0.12090095 -0.19728623 -0.05139658 -0.27369192 0.35779464 -0.07037725 -0.17366645 0.14318556 0.045820702 -0.05426089 -0.017684786 0.06694168 0.03847328 0.12791798 -0.029179187 0.09007094 0.09230489 0.056389965 -0.014076109 0.39545017 -0.040852766 0.11192051 -0.2692444 -0.19078617 -0.34176773 0.16134365 -0.2330704 -0.18174946 -0.060390744 0.004640918 -0.13898775 0.19543734 -0.13213238 -0.20524448 -0.17212407 -0.07393401 0.009442523 -0.26290575 0.07123206 0.055354398 0.4652506 0.42487505 0.0667613 0.21157378 -0.33206016 -0.31805274 -0.18391769 0.19622183 0.30015785 -0.12346747 0.10740108 -0.07111003 0.1581769 -0.3161363 -0.15125331 -0.012623501 -0.43306112 -0.089807965 0.044949338 -0.43623084 0.037009094 0.007570425 -0.13518961 -0.068442106 -0.13178304 -0.0995732 -0.0033612428 -0.2272509 0.26191762 -0.14969772 0.10799175 0.040337056 0.2229462 -0.12097596 -0.2798064 0.06719929 -0.066294506 0.1575625 0.13575405 -0.15123789 0.04701568 0.24505216 -0.01776535 0.06660198 0.25822785 -0.0042205113 0.014825157 0.21843608 0.10585571 -0.010824213 0.2836768 0.14031298 0.18603931 -0.08844092 0.0066803256 -0.1634272 0.13005774 0.27603588 -0.37768304 -0.008293474 -0.05183511 -0.19463922 -0.010733993 0.009859466 -0.042642243 -0.15085894 -0.04883292 -0.24998283 -0.022734664 -0.025316285 -0.19888486 0.20388728 -0.04781785 0.22998743 0.10729932 0.031422857 -0.05163417 -0.11645287 -0.11641215 0.04854228 0.34161273 0.011792654 0.06308971 -0.29590115
349 -0.03926395 0.0008533406 -0.15577693 0.2681961 0.18858448 0.106932364 0.021382423 -0.19820052 0.0028186166 0.1923408 0.105547495 -0.020265236 -0.018340254 0.016385758 0.13565439 0.044054806 -0.032853078 -0.0104448 -0.11310462 0.20322646 0.15611562 0.34332004 -0.07835357 -0.07207959 -0.22242336 0.15970267 -0.08635827 0.18711904 -0.16193476 0.26677454 -0.07771175 0.06714056 -0.019983437 0.069553986 -0.23637073 -0.20764105 0.036900293 -0.026375096 -0.22998048 -0.07264414 0.19587308 0.17033291 -0.23234014 0.1711723 0.025883686 0.0030713547 -0.40559882 -0.105101064 -0.004211248 0.018425133 0.23766185 -0.033286225 -0.091856085 0.14769739 -0.2601477 -0.06320262 -0.06881671 0.045473292 0.0366489 0.14386939 -0.080651544 0.27056623 -0.066920325 -0.44551522 0.22568317 -0.13786317 0.14471437 -0.15306424 -0.19327468 0.4586454 -0.030169945 -0.108448386 0.1053207 -0.21631986 -0.37430164 0.032906298 0.11469111 0.16880132 -0.06800636 0.16759764 -0.05769524 0.058436178 -0.13763678 -0.13003373 0.19887891 -0.020115593 0.3897282 -0.25261024 0.104003735 0.13823037 -0.17466913 -0.045601264 -0.3222585 -0.11720197 0.062872745 -0.18052071 0.13295323 -0.18997763 0.0499502 0.023611989 -0.2212893 0.06172599 0.063398674 0.0002488214 -0.11062239 -0.23774564 -0.17317684 0.5151859 0.32561255 -0.05614418 -0.23949836 -0.28034666 0.19741945 -0.10037542 -0.21188533 0.04920019 0.048595086 -0.103803754 -0.10877514 -0.2130235 0.13947514 -0.10319931 -0.069695935 -0.11705474 0.17338328 -0.06758904 0.2136882 0.13105766
164 0.2770918 0.014177864 0.20724298 -0.10531381 0.17024095 -0.06296275 -0.19852689 -0.24985652 -0.041732077 0.2082968 -0.056344736 0.39788595 -0.004771806 0.0005134435 -0.014011964 0.30453643 -0.11222224 -0.25870162 0.0040694484 0.108766004 0.1840557 0.08417424 -0.12108546 0.15772822 -0.075917944 0.07511729 -0.21660541 -0.030109605 -0.4085694 -0.08453978 -0.016197853 -0.099419914 0.15000293 0.15655541 -0.5032638 -0.12771967 -0.08483608 0.017813254 0.37566864 -0.009562062 0.30277514 0.013246055 0.053635687 0.009307167 0.19477244 0.12549523 0.07325691 -0.24629149 0.058815137 -0.25554693 -0.09499287 -0.2741487 0.39306533 0.24686787 0.031548347 0.07332673 0.34057346 -0.3084724 0.037115373 -0.03460479 -0.09219526 -0.036836594 -0.33776724 0.0063352585 0.20124425 -0.112218425 -0.09041494 0.00045337298 0.15436299 0.21225144 0.3503663 -0.04878015 0.15532349 -0.2754881 -0.16318017 -0.002225913 0.079618156 -0.13502821 0.097559676 0.007476473 0.19051893 -0.0757174 -0.09152193 0.21555598 0.14729464 -0.09719896 -0.018743785 0.001351409 0.08487404 -0.28510898 0.34469804 -0.0882954 -0.14734982 -0.18299285 0.20699403 0.39278647 -0.2315905 -0.18358067 0.13404617 0.046453692 0.09229203 0.007259066 0.27282047 -0.072210774 0.2606936 0.109065056 -0.0057177804 -0.0011442327 0.3863557 -0.093260944 -0.062029544 0.14232369 0.13579318 0.13863012 -0.07335129 -0.021182878 -0.0801811 0.011439133 -0.22653285 -0.052811306 -0.23038538 0.128456 -0.14539829 0.24791162 -0.037351333 -0.00022165843 -0.11793196 0.254402
70 -0.06000185 -0.042463902 -0.26465765 0.009326257 -0.14959489 -0.13988611 -0.29017743 0.15249048 0.07747303 -0.12911254 0.18369831 -0.10394189 -0.24123137 -0.13165043 0.059146978 0.006969703 0.013970885 0.25320137 -0.19537029 0.36984894 0.2620613 0.47293174 -0.2006638 0.12601125 0.17427948 0.03171016 -0.17507339 -0.1529419 -0.1245143 0.40213388 0.12566607 -0.036828976 0.18815607 0.0579724 -0.2009967 -0.06642587 -0.023946362 -0.3180747 0.11559938 -0.19659488 0.13845213 0.2038621 -0.021895522 0.025670953 -0.10762169 0.07169018 0.1385011 0.3077789 -0.115813844 -0.15106812 -0.0024302942 0.18581903 -0.05096269 0.11613092 -0.21056795 0.02037589 0.21498545 -0.06656584 -0.17719418 -0.1357818 -0.116890766 0.2595715 -0.13278547 -0.1821691 0.10358351 -0.107231244 0.10997382 -0.4723298 0.06004359 -0.14101166 -0.2260804 0.004339111 -0.19621713 0.13896777 0.13478959 -0.028792199 -0.102548614 0.06940405 -0.072303794 -0.036842383 -0.20457098 -0.010447847 0.214982 0.2490262 0.15696028 0.100205846 -0.18852834 -0.09797168 0.049127754 -0.1270648 -0.2605397 -0.28439593 -0.07435949 0.18774831 0.09577879 0.012874586 0.20434509 0.028901756 0.095167324 0.23100838 -0.21028459 0.03525334 -0.042585265 -0.0001605825 0.25347835 0.08979694 -0.08457026 0.33231077 0.099809445 0.0163875 0.18160555 -0.15401353 0.21303718 -0.0027343908 0.3267878 0.04924405 -0.41359356 0.09795156 0.15098 -0.37395987 -0.054904167 0.017276071 -0.02895568 0.078204036 -0.34280887 0.060754508 0.12820391 0.26655576
49 0.102750026 -0.07626345 -0.5953803 -0.032052096 0.17381048 0.28275234 -0.25723523 -0.0022804986 0.21588926 0.2666629 -0.28995627 0.1454079 -0.008932663 0.049381103 -0.11793091 -0.046864804 0.09901423 0.28372177 -0.2978241 0.16596536 -0.013475539 0.16199514 0.03738959 0.14840595 -0.064922854 0.07264834 -0.071442775 -0.15101524 -0.24310207 0.033699654 -0.06458521 0.0074500735 0.13544187 0.29620355 -0.31607446 0.12861383 0.071625814 0.034789916 -0.001635983 -0.11341356 -0.028888188 -0.001080962 -0.024969982 -0.15298867 0.23690052 0.28248712 -0.07355148 0.2522555 -0.0830734 -0.08512501 -0.0026310424 -0.11889653 0.21715803 -0.19355756 -0.17535636 0.066549465 -0.16443266 -0.045278087 0.19964388 -0.33848634 0.040277235 0.048071478 -0.011605533 -0.054730542 0.12996583 -0.022644397 -0.08907596 -0.23259355 -0.3902666 0.040138565 -0.15369993 -0.065716356 -0.34004673 -0.042832427 -0.13682377 -0.16820821 0.035255346 -0.02539383 -0.46706566 0.15032066 0.11936471 0.22823907 0.24550664 -0.087661654 0.0710243 -0.12221133 -0.050842494 -0.083805926 0.0024482724 0.009081273 -0.1068607 -0.251828 0.124205925 0.04521685 0.0804197 0.38627613 0.020340763 0.04601965 0.05185783 0.011833519 0.11654177 0.25895193 0.08366002 0.0971174 0.21380065 -0.018217456 -0.4561826 0.078330316 -0.03302339 -0.24314937 -0.028930182 -0.11829437 0.2545837 -0.10827358 0.0070150457 0.05549819 0.052080393 -0.06647762 -0.11375615 0.1385689 -0.15603624 0.27451625 0.0028086167 -0.19458 0.26367328 -0.18568012 -0.18123545 0.18319048
112 0.078854814 -0.06476626 -0.13248676 -0.15882377 0.29730695 0.24703114 -0.0634902 -0.515422 -0.0875165 -0.068917945 -0.050961804 -0.25756383 -0.01282531 0.06876004 -0.015975341 0.010679452 0.016030071 0.2756573 0.07440475 -0.09437507 0.090140976 0.021681285 0.119874105 -0.057906676 -0.22543406 0.31597334 0.0041511375 0.03356222 -0.09996322 -0.025493093 -0.15289418 0.23689818 0.10216874 -0.14280607 0.04486458 -0.2775877 0.1392186 -0.10622766 -0.22272626 0.09896869 -0.19352399 -0.052324407 -0.21313295 0.058821063 0.26135314 -0.1386804 0.2605322 -0.020242313 -0.13895074 -0.03955519 -0.043053553 0.21590684 0.07542924 -0.21010847 0.0011145718 0.20206408 0.2942205 -0.21524875 0.019347161 -0.3133497 -0.12815495 -0.29372844 0.05216442 -0.06097789 0.13577348 -0.1871099 0.11629846 -0.20385644 0.0050594322 -0.29167986 -0.22258428 -0.017883873 0.26137438 -0.15237391 -0.043875404 -0.009050358 -0.007743063 -0.23180676 0.08348806 -0.052789524 0.17556284 0.08899934 -0.16524975 0.019252634 0.2634629 0.31050467 0.05864715 -0.14668867 0.03149442 0.15550838 -0.18983005 -0.11900019 -0.17260846 -0.1320544 0.2701147 0.057564095 -0.09022191 0.021577988 -0.13065243 0.3509731 0.061564315 0.06873698 0.10249303 -0.11626185 0.26960298 -0.056718025 -0.104884125 0.042654287 0.08838575 -0.047843948 0.12175828 -0.39488727 0.14721641 -0.19987693 -0.19013584 0.2108302 -0.29375207 0.19174261 0.08579819 -0.045904413 0.22032659 0.024538646 -0.25300652 -0.05292128 -0.0821365 0.2182848 -0.38460657 -0.019144421
252 0.02065908 0.0008955535 -0.16723576 -0.17264795 0.19437717 0.1520587 0.15598209 -0.050761525 -0.0658394 0.30831146 0.21608798 -0.07888796 0.019738639 0.09461748 -0.0053208545 -0.11780906 -0.13696136 0.103520304 -0.28090852 0.54203564 0.49891028 0.17158931 0.1331041 -0.18270299 -0.11075351 0.32118896 -0.24014059 0.26355428 -0.0114244865 -0.08012972 0.082141064 0.14513053 -0.14345181 -0.18967918 0.17382245 -0.025596617 -0.0070238686 -0.020921657 -0.09649394 -0.24890278 0.11218322 -0.017090125 -0.054930486 -0.22521845 -0.06428802 0.08003488 0.12402773 -0.051871195 -0.12029225 -0.028129276 -0.40507415 -0.26326782 0.11709459 -0.11775263 -0.44538578 0.13247618 -0.029594569 -0.25362325 0.10493735 -0.32630292 -0.2599868 -0.013325037 0.16139877 -0.23501101 -0.0949031 -0.21615097 -0.1724619 -0.29480332 -0.21687722 0.34409428 -0.03260077 -0.15874633 0.090616316 -0.07086209 -0.02123081 0.20103551 0.29552433 0.10278862 0.11203221 0.01967142 -0.018416662 0.09933549 -0.18458736 0.073879085 -0.001029091 -0.10590908 0.3008564 -0.2395296 -0.12185585 -0.077603005 0.12489741 -0.3782322 -0.009229292 0.13541833 0.29242346 0.27645826 -0.04828772 0.050054003 -0.10631032 0.06781375 -0.17483592 -0.16477296 0.23911932 -0.099144235 0.083593905 -0.016312543 -0.053256784 0.27140948 0.11231262 -0.1148016 -0.09834271 0.029930579 -0.22481106 0.22697459 0.1672803 0.123613596 0.0042461744 0.23793492 0.21369545 -0.047927976 0.02795611 -0.13890658 0.0815398 0.048516747 0.20987329 -0.27551636 0.15629464 -0.033234928
159 0.06593186 0.0083853565 -0.26660198 -0.2018029 0.22174636 0.033484843 -0.07302277 -0.37271374 0.032276783 0.28302124 -0.1239829 -0.33468106 -0.107955664 0.10139769 0.004089621 0.25086284 0.17482767 -0.10508098 -0.17402036 0.060521703 -0.09877356 0.13590387 0.069885835 -0.14939044 0.06164769 0.16495696 -0.38600317 -0.0062558814 -0.199203 0.017659426 0.052059576 -0.22858635 0.13105062 0.19251893 -0.3501507 0.11333495 -0.02384451 0.034854513 -0.20758143 -0.09906638 0.002811806 0.14341405 -0.15392193 -0.0115537 -0.03479131 0.08035148 -0.064761534 0.29063472 -0.15441076 0.245343 0.04841871 -0.23734096 0.1566811 -0.29604816 -0.0568544 0.15799403 0.16636406 -0.23674943 0.06936971 -0.18380728 -0.2963064 0.0915701 0.12510163 -0.325795 0.20986386 0.14227518 0.27368963 -0.14388864 -0.22289164 0.256388 -0.20509459 -0.069048345 0.13901517 0.15907794 -0.30865362 -0.058341797 0.013592593 -0.14741524 0.0085229715 -0.29787362 -0.18766205 0.21305335 -0.16971408 0.32817715 -0.20299265 0.29224926 -0.15801588 0.37386796 -0.20793712 0.060023688 -0.0770769 0.12749512 -0.08885585 0.082108825 0.009565415 0.14494045 -0.19620998 -0.12952217 0.16574927 0.12531921 0.07377826 0.2152037 -0.00040839444 -0.23796001 0.25834697 0.09845849 -0.06201408 -0.12787111 0.012539234 -0.08931484 0.048318014 -0.3576755 0.10137094 0.028900163 -0.03617537 -0.0020380667 0.26723677 -0.08667775 0.15750548 -0.17741075 -0.050501097 -0.16071503 -0.33466795 -0.29238042 -0.23077437 -0.0587205 0.2686695 0.12716797
7 0.20266598 -0.011514754 -0.36384624 0.04733215 0.18312779 0.22750631 -0.1700209 -0.029135214 -0.018923089 0.24412169 0.3085564 0.2036118 0.15254773 -0.14909871 0.13995904 0.008700804 -0.07262879 0.06847563 0.077347875 0.15812205 0.3518901 -0.20201904 -0.06356195 -0.10508313 -0.21491882 0.021446388 -0.030275265 0.007301443 -0.38452867 0.110524505 0.17379408 -0.16563113 -0.23192593 -0.022395363 -0.14874849 -0.14258534 0.07547863 -0.014967116 -0.33251637 -0.20750703 0.527981 0.01691698 -0.08627819 0.049377844 0.30766007 -0.048819445 -0.16059788 0.253921 -0.022895565 -0.046552848 -0.11385086 0.24815294 -0.045851283 0.056066368 -0.18500161 0.018383168 0.16206396 -0.14267501 0.1457179 0.23955815 -0.16939597 0.07762738 -0.28682458 -0.29361382 0.00596848 0.069860116 -0.041000597 -0.19504587 -0.2718029 0.09273867 -0.14213172 -0.030022861 -0.061073028 -0.31910893 -0.22453086 -0.06546553 0.028964605 0.27776727 0.41412154 -0.1637795 -0.075071685 0.19065303 0.27906102 0.24180587 0.14797154 0.08967604 0.2459326 -0.30875129 0.13581383 -0.029605623 -0.18464582 -0.06946551 -0.002080249 -0.13910186 -0.0145974485 0.34640446 -0.01812388 -0.07402113 -0.16902529 0.06486974 0.18545823 -0.2646324 -0.24102166 -0.2790799 0.05808163 0.026483556 -0.3926876 -0.27477443 0.08339083 0.006484895 -0.20432025 -0.022277135 0.16155435 -0.003830702 0.13267511 -0.18562108 -0.22782499 -0.053329345 -0.04858855 -0.14441729 -0.1554001 -0.12758315 -0.17618789 -0.029723203 0.16462351 -0.1957854 0.020079285 0.09126508
317 -0.03915992 -0.101337716 -0.1177345 -0.2850788 0.027683627 0.06448062 -0.4745345 -0.20082408 0.2935773 -0.24118923 0.16394818 0.094125144 0.19896016 -0.07886014 0.098406255 0.18504697 0.1771386 -0.09037107 -0.28990254 -0.08339555 0.09243922 -0.22493553 -0.3940978 0.062394973 0.07910941 0.38391173 -0.1269066 -0.110452205 -0.12422697 0.20431167 0.1725162 -0.02499071 0.069446586 -0.2790951 0.15053691 0.21188235 -0.15057395 -0.20178665 0.0021449074 -0.014473827 0.12651275 0.052521933 -0.14149362 -0.35727933 0.26683104 -0.37743387 0.039913427 -0.044197865 -0.18607864 0.025521537 0.082602546 -0.06353364 0.042445637 0.029109986 -0.12235929 0.093793996 0.19111449 -0.43363237 0.28791508 -0.3009779 0.09719052 -0.08824873 0.013621478 -0.2963415 0.103170894 0.03489882 0.26410025 -0.14523953 -0.03222576 -0.013351191 -0.17920522 0.2385869 -0.07259242 -0.032211524 -0.3320497 0.17952566 0.36613348 0.19974847 -0.13649093 -0.23102717 -0.08061279 -0.5319759 0.015334696 0.19926107 -0.118884556 0.050755214 -0.0034971256 -0.25023937 0.26226982 0.32367995 -0.07738922 -0.115241155 -0.045099057 0.14731961 0.16011722 0.05981673 -0.07967683 -0.078594804 0.09882783 0.44094938 -0.10406182 0.059457626 0.06797551 -0.10644536 -0.067290254 0.09312954 -0.02345329 0.4359863 0.1414787 -0.01400008 0.0756799 -0.38284206 0.13224678 -0.024633072 -0.010855695 -0.06817303 -0.06615077 -0.057018142 -0.085112885 0.110472165 0.17224693 0.12756969 -0.31644052 -0.031412628 -0.035056893 -0.081429325 0.024418466 -0.154416
45 -0.07908571 -0.03616284 0.031489797 -0.06272038 -0.03613729 0.06510583 -0.15863188 -0.16093886 -0.044507347 0.12083036 -0.07736885 0.15088567 -0.24082084 0.21955934 -0.3300634 0.37797853 0.13211598 0.021705404 -0.05553502 0.18175073 0.18683042 0.33191448 -0.07870302 0.287006 0.2946485 0.05094509 0.07511646 0.07834629 0.04984188 0.44199514 0.026063869 0.3058121 -0.03165667 0.051690284 0.052049972 0.15709248 0.15387517 0.2237573 0.034436807 -0.13850361 0.17968734 0.0024563351 -0.05535369 0.0061420673 0.2619602 0.094893314 -0.11755154 0.21062537 -0.20731872 -0.19174315 -0.27900475 -0.06634978 -0.07604923 -0.2008825 -0.10545112 0.22684169 0.39123714 -0.42050314 0.074748464 0.13555165 0.11574942 0.2393148 -0.031109493 -0.33161452 0.04209884 -0.054633733 0.0030361316 -0.065604195 0.13385 -0.14523734 -0.27414367 0.01261824 0.038667254 0.007944343 -0.023001038 0.26733017 0.17690991 -0.18379842 -0.060778487 -0.23077498 -0.26048452 0.14385039 -0.3807919 -0.069219425 0.30185947 0.012797445 0.16077103 0.04170691 -0.060935505 0.311643 -0.018826675 -0.07370549 0.16127354 -0.14495859 0.16974223 -0.15563309 -0.09463153 0.28967345 -0.2162096 0.03489311 -0.38477254 -0.17358534 -0.09480501 0.270797 -0.02351393 0.15818496 -0.15903138 -0.11139927 0.22665997 -0.23382565 -0.023798376 0.17550461 -0.042547014 -0.18418026 -0.1395714 -0.22158048 0.062954076 0.49679175 0.012799491 0.19909231 -0.22471862 -0.1619587 0.019107187 0.049953155 0.2216044 0.22400177 0.10633569 -0.16440307
256 0.35123584 -0.033521928 -0.12511991 -0.30136567 0.1632675 -0.0033064573 -0.20775285 -0.37793657 -0.11923508 0.0016390034 -0.047833003 0.05045043 0.11146218 -0.28617194 -0.15806282 0.25932962 -0.19005431 0.08405318 -0.32290173 0.38320407 0.08076162 -0.01376894 -0.25758418 0.19308324 0.010701487 0.19113335 -0.32760352 0.013308428 -0.20327899 0.23165824 0.08179413 0.3376507 0.3102341 -0.10547423 -0.086484045 0.2209539 -0.2832699 -0.23164263 -0.06949866 -0.035024676 0.073974736 0.07316783 0.06632815 -0.07544432 -0.097143665 -0.1542027 -0.31687546 -0.040711712 0.3153095 -0.14360699 0.06659441 0.073712386 0.2723202 -0.21504849 0.1892584 0.015933787 0.11193206 0.13041459 -0.11992409 0.016346013 -0.07782624 -0.15782489 -0.18770592 -0.10023779 0.0485052 -0.119664475 -0.1274487 -0.07701128 -0.12731905 0.039767098 0.119756155 0.09299646 -0.0055208793 -0.35897148 0.17008379 -0.00765821 -0.31870884 0.1448152 -0.27809042 -0.21063504 0.20538124 -0.15192005 -0.16260962 0.072027475 0.20910911 -0.06698142 0.06890274 0.07606919 0.103144296 -0.1947262 -0.05947244 -0.102746025 0.1286472 0.24578394 0.029715259 -0.24174474 0.11978323 0.114680104 0.085558996 0.39208916 0.057170242 0.089473 0.030026393 -0.078797325 0.3047832 0.067814335 0.22887363 -0.16536394 0.21591386 0.18489619 -0.22297756 -0.02723428 0.022202022 0.0630946 0.060544726 0.2528165 -0.20297866 0.18252178 -0.035620462 -0.011828902 -0.01777221 -0.38642573 0.119705714 -0.19649073 -0.042619996 0.08820621 -0.1518101 0.19586904
287 0.068497024 0.18150224 -0.12058214 0.011478203 -0.03925047 0.23329888 -0.19783759 0.057454944 -0.033294573 0.074459076 -0.24406615 0.109463714 -0.14904484 0.048342284 -0.08989115 0.25114188 -0.27267414 -0.026188351 -0.022341838 0.5309003 0.09984274 0.010029786 -0.10978434 -0.12711306 0.24415597 0.23616393 0.02456977 -0.19811076 -0.10478043 0.28145355 -0.100596085 0.07060947 0.014901515 0.08076511 -0.023982985 -0.0554809 0.015817018 0.037038673 0.31278092 0.04842149 -0.025843969 -0.19587547 0.036491767 0.07219714 0.08114742 0.05055178 -0.022032984 0.32179406 0.3221767 -0.009647374 -0.026699949 -0.058925338 0.16821739 -0.41053167 0.06663593 0.095216684 0.06054971 -0.25289944 0.078009896 0.004852474 0.32375684 0.14740959 -0.030402875 -0.31153816 0.040157743 0.17924473 -0.1998232 0.007490693 -0.39508885 0.22797821 0.06071452 -0.22979979 0.009604396 0.058856294 0.12309357 0.0106564425 -0.057621665 -0.14124066 -0.022218183 0.07339863 -0.07464185 -0.11106692 -0.3201833 0.11288283 0.48632565 -0.245419 0.088030376 0.029127652 0.15677992 -0.048700146 -0.1876228 -0.113652356 -0.43589848 -0.01000777 0.39849073 0.14326207 -0.20601915 -0.354087 -0.10408575 0.29943615 0.14754644 0.31694868 0.01642905 -0.2870617 0.113915965 -0.27430755 -0.011331373 0.12214206 -0.013885954 0.07054698 -0.25892907 -0.089928724 0.15817286 -0.0711531 0.16173415 -0.11693832 -0.32515848 -0.15764791 0.2083913 -0.09437191 -0.2134346 -0.10691154 -0.06476992 0.13882293 -0.009897532 -0.3342123 -0.051820975 0.19882779
43 0.36307585 -0.04731628 -0.30498597 -0.122332916 0.24546166 -0.32302165 -0.21028823 -0.259594 0.23028284 0.017828407 0.056317076 0.09827354 0.011479712 -0.25244653 0.2224769 0.35412896 -0.11165533 0.07351158 -0.07800834 0.1805676 0.13779975 0.35654372 -0.03239808 0.06410238 0.17802544 0.43852443 -0.0057577454 0.21849456 -0.15810356 0.018869393 0.21522315 0.1686483 0.10994835 0.050563283 -0.4267002 -0.009921726 -0.0631847 0.036298446 0.077407025 -0.097034656 0.04407747 0.0023935249 -0.21696585 -0.11606065 -0.14279182 0.051469967 0.12558432 0.051318314 0.18687014 0.07011995 0.44865295 0.0347147 0.13766007 0.044883337 -0.021320561 -0.011174528 0.06466097 -0.6044175 -0.07419127 -0.38869438 0.13278797 -0.1844128 0.09758609 -0.0030503143 0.4196716 0.10041197 -0.123655386 -0.22900984 -0.09466869 0.20469773 -0.10779447 -0.0014713916 0.23021194 0.029918313 -0.15088128 -0.06805956 -0.041656945 -0.10151954 -0.15113308 -0.47313026 0.12881897 -0.052636646 -0.076997876 -0.0314247 -0.17624706 0.3568984 -0.12648325 0.2225225 -0.23865364 0.23077036 0.15295428 0.1065918 -0.22157988 -0.27380002 -0.18303633 0.16996847 -0.030461375 -0.0039888117 -0.16366252 0.07326289 -0.106301844 0.0844691 0.0014398317 0.033649467 0.09068136 0.17971177 0.07248127 -0.121866755 0.3555994 0.04288273 -0.03473524 0.019585928 0.2354224 0.079269975 -0.10314002 0.0569711 0.0016314529 -0.033441164 0.15364736 -0.21002688 0.14464934 0.09074609 0.07354417 0.16921958 0.3348121 0.22296928 -0.059148252 -0.054465733
74 0.14417762 0.070444174 -0.1256654 0.036940694 -0.4749797 0.0947526 -0.20995949 -0.32179818 0.38213617 -0.21822003 0.15790547 0.27579913 -0.01429564 0.06816757 0.033101216 -0.081815444 -0.056810662 0.12153087 -0.28492916 0.27097058 0.059238117 0.22830266 -0.045778744 0.23247784 0.12702802 0.04968328 -0.15819989 -0.04911621 -0.15264885 0.04966731 0.12641416 0.14329681 -0.055133913 0.025247205 -0.5220282 -0.11276834 0.060577087 -0.03936143 0.08435712 -0.07231676 0.02571135 -0.06509802 0.31221434 0.26771027 0.18600266 -0.13438283 -0.07530031 0.14637958 0.04857104 -0.2377877 0.13506532 0.2718456 -0.005294293 -0.010939671 -0.22327349 0.27883336 0.12456301 -0.26544452 -0.06929233 -0.2012362 -0.0105328895 -0.32590985 -0.023394423 -0.07110392 0.29031757 -0.1581265 -0.0015259052 0.04101092 -0.37228125 0.39767298 -0.035815947 0.08382842 -0.078044765 -0.32025164 -0.09692465 0.30466533 0.055981696 0.0048862197 0.060284667 -0.23818003 -0.20578957 -0.21192324 0.16181302 0.07430099 0.21159345 -0.31588742 -0.11402758 -0.17114492 -0.09452115 -0.100053206 0.038735233 -0.107008584 0.2775038 0.07250654 -0.06751616 0.14641313 -0.08934143 0.015593449 0.14486961 0.23492993 -0.11175937 -0.13538517 0.13840735 -0.002879599 0.535629 -0.104781665 -0.08845522 -0.06318237 0.021742804 -0.029165154 -0.03279824 0.11681741 0.21409597 0.09608896 -0.25037768 -0.095335074 -0.0551912 0.13131076 -0.07649346 -0.25822702 0.20111358 0.16453838 -0.1787119 -0.12648845 0.0017521576 0.23112462 -0.00034851147 0.115441404
153 -0.04359704 -0.06830211 -0.19752853 -0.06341134 0.026041936 0.2597268 -0.11958802 -0.31330603 -0.114562795 0.24752948 0.1963086 0.11941263 -0.25761575 0.2745745 0.050052073 0.11918827 0.07700753 -0.16259864 -0.17677543 0.37905797 0.09086559 0.045747805 -0.088975914 -0.07948648 -0.0769783 -0.041566372 -0.033094943 0.17345491 -0.21903844 0.26434135 -0.18499626 0.27944398 -0.17370018 -0.06507106 -0.06275624 -0.39681667 -0.058028854 -0.10426787 -0.22225684 0.021194277 0.45803493 0.050388053 0.010837138 0.055103846 0.03551051 0.11618798 -0.018549347 0.060503006 -0.42503983 -0.5028195 0.03202897 -0.13667162 0.52791363 -0.01093142 -0.01890164 -0.01913577 0.046234563 -0.14528902 0.08147407 -0.27124974 -0.14874582 -0.3075295 0.03071186 -0.067421675 0.26819655 0.037106693 0.23460194 0.1162963 0.043967694 0.13833985 0.20010638 0.044791352 -0.15240976 -0.061904944 0.05124516 -0.083278775 -0.06867887 0.076703034 -0.17974702 -0.13314883 -0.09573322 0.19121498 -0.043375347 0.069040775 0.08077283 0.2800337 -0.038185213 -0.12109231 0.11519369 0.2577416 -0.08817838 -0.30064696 -0.12268152 0.2582683 0.20378526 -0.31052294 0.055844784 0.23943047 0.14659074 0.22908731 0.045766912 -0.16064103 -0.12362953 0.3230131 0.22390942 -0.2345663 -0.3346166 -0.12853317 0.16938344 0.3188458 -0.26424187 -0.04969173 0.07470454 -0.13769016 -0.0043748794 -0.059817974 0.061245058 0.06286156 -0.103554435 -0.17113398 -0.276161 -0.22144653 0.106151946 -0.071808174 -0.030228125 0.050042033 0.05168905 0.22287278
103 0.26234937 -0.06739346 -0.15528974 -0.51223046 0.058051884 0.2709418 -0.08063826 -0.3522253 0.13521577 0.051777508 -0.16131565 -0.013224517 0.028675245 0.11308188 -0.29588282 0.09395943 -0.3859555 0.17643759 0.023336519 0.20955166 0.3330153 0.309886 -0.016813535 -0.21548809 0.0006990366 0.09685963 -0.23333752 0.11330633 -0.009649114 0.08148277 -0.07131107 -0.14094791 -0.1598402 -0.20237379 -0.34918827 0.118493654 -0.15477443 0.0068304557 -0.074333236 -0.024245275 0.29898185 0.15055919 -0.06475585 0.10440309 -0.3765022 -0.018692646 -0.38528523 0.1127439 0.019740714 -0.19337691 -0.12834834 0.00013637595 -0.032573417 -0.010310695 -0.12085992 -0.14230861 -0.06556375 -0.06128234 0.10441424 -0.23893292 -0.38002616 0.13796747 -0.3733311 0.08936761 0.12469877 -0.09887676 0.33748943 -0.31540525 -0.049406923 -0.095331214 -0.046353146 -0.2137058 -0.16279577 0.04571677 -0.1055391 -0.03309667 0.31199935 0.120385855 -0.23836915 0.16650881 0.019108426 -0.040454235 -0.11991924 0.096324 0.05953225 -0.13157101 -0.0012283338 0.113477826 0.1639852 0.105600744 -0.27279362 -0.18786159 -0.039827067 -0.0684913 -0.16101919 0.27066714 0.042372916 -0.2605952 -0.33882916 -0.010934221 0.043755706 0.003657489 -0.24509186 -0.29211313 -0.05450069 0.10771727 -0.24286748 0.09345643 0.2016326 0.07243404 -0.2664486 -0.1873875 -0.27895156 0.12289646 0.25682852 0.081295945 -0.24015842 0.08754057 0.16316418 -0.42285544 0.051079955 0.2506745 -0.12497643 0.06533795 0.1703075 -0.098590836 0.092956915 0.121962145
241 -0.06268534 -0.11517176 -0.25893322 -0.0833127 -0.0050681196 -0.065581314 -0.15798356 -0.09249458 -0.0721384 0.33203757 0.44948044 0.28943855 -0.18923347 0.03675788 0.1953074 0.20631449 0.008324897 -0.017521583 -0.2606318 0.055351455 0.26663527 -0.21463403 -0.07661 0.04150453 -0.02483891 -0.003317689 -0.042263184 -0.02823125 0.18813501 -0.08481841 0.08973003 0.19134618 0.04928957 0.19821496 -0.30672726 -0.0600357 -0.072784916 -0.12624666 -0.12850942 -0.091598235 0.04638923 0.3073306 0.032854833 -0.062114332 0.15635288 -0.08884983 0.20926589 0.20215051 -0.12853311 -0.13778597 -0.14709385 0.3567561 0.09861751 0.10365325 0.06177228 0.09106757 -0.012351861 -0.44235072 0.17793374 -0.019633345 -0.0802475 -0.04259856 -0.0008266155 -0.116948836 0.063171335 -0.017337557 0.18943463 -0.08846846 -0.3737848 0.095006 -0.00011199346 -0.119344525 -0.07717845 -0.020566054 -0.21405073 0.2824579 0.10925684 -0.10048086 -0.5081673 -0.07324275 0.095583305 0.21547282 0.19442563 0.066870555 0.005827262 -0.21373476 0.34907523 -0.029378798 0.28938246 0.07200096 0.0763732 -0.028520865 -0.0044435635 -0.19529015 0.023919964 -0.11478363 -0.035530496 -0.13928767 0.161071 0.19551216 -0.12518081 0.34374046 -0.1814091 0.011571801 0.16686727 0.030234186 -0.087868586 0.28072983 0.014897204 0.00528426 0.052824542 -0.0141919525 0.14093186 0.027265022 0.34508815 -0.2511459 -0.49180105 0.18822096 0.027766667 0.087432146 -0.1984696 -0.04863132 0.3031836 -0.013392363 -0.026428921 -0.30277848 -0.08431013 0.27350226
257 0.26239523 0.17605728 0.21303885 -0.3746624 0.14232203 0.15375389 -0.09910664 -0.4624963 0.060259733 0.09430804 -0.22574964 -0.06412999 -0.034105293 0.09301572 -0.10817378 -0.050217193 -0.0276882 0.015337861 0.016310813 0.13785464 -0.21650599 -0.0584119 -0.026346823 -0.16647306 0.0115165915 0.26645735 -0.15702054 -0.14154808 0.030433452 -0.010965709 -0.22269101 -0.17037141 0.3816693 -0.20737885 -0.078871034 0.100214556 0.26951268 -0.046978887 0.010679962 0.024081914 0.086673565 -0.07763073 -0.24893084 -0.13172413 0.2648648 0.11903963 0.10761018 0.08923888 -0.048630923 -0.16467597 0.06518172 -0.041740984 0.04314336 -0.35290703 -0.14996973 0.17681962 0.04493835 -0.34357262 -0.011695085 -0.19051515 -0.15983969 0.0775549 0.09531024 -0.43067056 0.11498971 -0.046798293 0.23956484 0.07463103 -0.06921388 0.25515363 0.17710754 0.12404368 -0.024917606 0.085696794 -0.051900607 0.011799037 0.34353533 0.052522574 0.34577763 -0.01996868 0.087532185 0.30745146 -0.15974079 0.070503086 -0.04409898 -0.022269914 0.03967361 -0.077019766 -0.025149 0.20266151 -0.07875 -0.13156007 0.118033186 -0.097584344 0.13572246 -0.080634415 -0.039505206 -0.028427904 0.0003182129 0.150472 0.16020459 0.07421704 -0.046724003 0.28249174 0.0356064 -0.13866848 -0.23915908 0.17899068 0.19992365 -0.16442992 -0.38240853 0.1966022 0.011043112 -0.006266262 -0.068622865 -0.17721686 -0.20730445 0.20564337 -0.07513674 -0.5047342 -0.13961013 0.074375056 -0.0055169943 -0.14554001 0.31041297 0.12193568 0.117876984 0.30417126
0 0.013774581 -0.18878949 -0.015820347 -0.13757467 0.13915016 0.113320254 0.04413946 -0.033748094 -0.17915978 0.046271358 -0.019504385 0.15705335 -0.05777463 -0.007338859 0.05276211 0.14724222 -0.09738404 0.2043486 -0.48433575 -0.0022204393 0.18165958 0.21790597 0.29314262 -0.035413712 0.11885655 0.123459764 -0.14205568 0.037386656 0.06348805 0.35879174 0.38304582 -0.13731198 0.092498295 0.13113171 -0.11687385 0.12779051 -0.41505063 -0.117222376 -0.28372446 -0.0055972645 -0.04894877 0.13811952 -0.3459461 0.009770153 0.031206056 -0.05356997 0.10648247 0.033267826 0.2315981 -0.20292468 -0.2790902 0.031029068 -0.02420295 0.07186804 0.22627762 0.12679704 0.5040667 -0.49962005 0.16322489 -0.13578406 -0.14486046 0.046435952 -0.07709764 -0.2857285 0.107148066 -0.1474735 -0.07044453 -0.321454 0.0936076 0.053002506 -0.0786665 0.04635977 0.0725557 -0.06299877 -0.19647226 -0.31723374 -0.06924659 0.16426723 -0.11571683 0.31026584 0.06529452 -0.27329308 0.20447284 -0.013240405 0.21506855 -0.1371867 0.008210822 0.09520368 0.04485117 -0.058796953 -0.10842461 -0.05353985 0.056883395 -0.24348204 -0.048076563 -0.18771441 -0.3430266 -0.15559967 0.32885003 0.20173456 -0.08373875 -0.010459506 -0.15208325 0.29558113 -0.18093422 -0.10669755 -0.32276514 0.34562725 0.25055704 0.12237636 -0.33474705 -0.020381032 -0.11561407 0.10234914 0.098165445 0.26701626 -0.009587302 0.077681884 0.12662601 -0.101675324 0.035890944 -0.053171393 0.023396377 -0.41981807 -0.07993207 0.057993818 -0.18780328 0.3433221
288 0.08561121 -0.13744341 0.06224321 -0.1535616 0.15037225 0.26762414 -0.13664924 -0.34042522 -0.10748073 0.09269584 -0.13412005 -0.20100282 0.20640048 -0.16859983 0.018944278 0.2885138 -0.04824785 0.14898482 -0.29385135 0.6740333 0.13661902 0.11972905 0.2584257 0.31830743 0.026892427 -0.10443873 -0.3949845 -0.16709065 -0.117018506 0.03240408 0.17488758 0.066429265 0.090061694 0.03137106 -0.4867446 -0.09882499 0.17444417 -0.040685616 0.009436401 0.085657574 0.10287975 -0.07787347 -0.12947057 0.032466218 0.04642691 0.20321554 0.020035096 0.07911951 -0.14573866 -0.0835774 0.3713097 0.00822912 0.09982147 -0.00595502 -0.01648563 0.04579911 0.2326592 -0.13445139 0.055517644 -0.19172886 0.12209556 -0.13172181 0.20902145 0.0014830523 -0.08231498 -0.20136245 0.12618105 9.143597e-06 0.051480994 -0.05791607 0.028629884 0.11577434 -0.09084691 -0.23023324 -0.16432557 -0.4134917 0.05578091 -0.48762274 0.06411404 0.1441383 0.095540024 0.037083622 -0.074263215 0.08382246 0.20501567 -0.09508592 -0.3594684 -0.29622352 0.03707974 -0.03832753 -0.1687494 0.031091623 -0.31644782 -0.06654696 0.028516168 -0.029600112 -0.379206 0.32335562 0.12824266 0.27717543 -0.010998533 0.25641334 -0.13694265 0.2654541 0.011519263 -0.5426594 0.07839122 -0.062431276 0.20537731 0.15838341 -0.15965457 -0.030999716 -0.081168085 0.13396274 -0.035136454 0.024697343 0.08672243 0.060915742 -0.28324345 -0.09607068 -0.07400348 0.14163917 0.08392764 0.1620929 0.01568436 0.04627231 0.06357358 0.12317531
90 0.11009644 0.14259714 -0.14717151 0.07433492 0.27423778 0.26903275 -0.07825084 -0.18637651 0.09504365 0.11458555 -0.106056295 0.15016116 -0.18254669 -0.13724832 -0.016052926 -0.12755555 -0.43440577 0.04268658 -0.22736967 0.08915663 0.118082404 0.07110469 0.11948871 -0.052764293 0.10220389 0.2025209 -0.30185303 0.074967176 -0.3398199 0.10119014 -0.3262594 0.15389097 -0.19907199 -0.021440793 -0.18448156 -0.027357703 0.49886686 -0.2427517 -0.01315687 -0.33944175 0.21068804 0.10158963 -0.12427613 -0.22568443 -0.018947005 0.17042726 0.04233696 0.2144538 -0.27123016 -0.23612246 0.024305135 -0.021479914 0.36983117 -0.056534477 -0.02284902 0.42870978 -0.066940896 -0.16930601 -0.20626716 -0.18003578 -0.21131079 0.24904874 -0.23746322 -0.19139475 0.2553217 -0.22036648 -0.26026362 -0.17904094 -0.16617274 0.20802777 -0.1210387 -0.15016378 -0.15496825 -0.019811368 -0.22969349 -0.16419311 -0.16446494 0.0068331333 -0.111330174 0.050852116 -0.23615733 -0.062948965 -0.06250787 0.15567245 0.08967566 -0.0040397453 -0.10777662 -0.013388226 -0.21265967 0.1873755 -0.05113189 0.021265084 -0.004761428 0.3134349 0.16917497 -0.042016145 -0.031738758 -0.15898539 0.0938322 -0.049470805 0.039666273 -0.018381024 -0.25671062 -0.38291863 0.03905988 0.009018293 -0.017091978 0.15326197 0.29180327 -0.00063557376 -0.13639106 -0.12387285 -0.06702342 0.26453507 0.044636566 -0.049949836 -0.12458642 0.0876301 -0.011130931 -0.20259757 0.3367861 -0.058367107 -0.117200136 0.07058618 0.16926509 0.17450635 0.29400364 -0.15507771
318 0.27223176 0.027376086 -0.13698977 -0.03361458 0.23733772 0.0052475734 -0.073363625 -0.19013162 0.038829584 0.26070297 0.09929538 0.19417256 -0.0615371 -0.18298963 0.30343315 0.05511684 0.078612775 0.19084093 -0.20707065 0.2388972 0.07032425 0.18803301 -0.041273095 0.0955203 0.028287802 -0.14444107 -0.01732861 0.1617069 -0.3360903 0.012650393 0.27937225 0.15013304 0.059746005 -0.1360451 0.102166526 -0.058303565 0.048184186 -0.02318654 0.064132705 -0.27428582 0.021324111 0.06714463 -0.31047493 0.2236016 0.13580203 -0.013561187 -0.07765539 0.10223952 -0.06680854 -0.35388538 -0.3409612 -0.15073425 -0.086789824 -0.046274096 0.00972909 0.03876637 0.10515832 -0.04793639 0.3350254 -0.2817328 0.26242957 -0.024987964 -0.23970494 0.0009118928 0.0099062715 -0.07425767 -0.19585654 -0.055271182 -0.13642794 -0.0033034761 -0.16363578 -0.13477695 0.03894968 -0.14132611 -0.14390048 0.120921165 -0.35112113 0.14033324 -0.31978124 -0.20794143 0.50868315 -0.1269697 -0.073350295 0.21080892 0.013273414 -0.056952614 -0.097265944 -0.013354282 0.08979392 -0.3264338 -0.023178915 -0.1479701 0.34611136 0.2017497 0.08000483 0.23921564 -0.021623071 0.044574924 0.050617468 0.11647161 0.18029548 -0.31532028 0.19349952 -0.08093496 0.052985735 0.107386306 0.15737084 -0.08485013 0.20832995 -0.21899144 -0.42878205 0.034630578 -0.048435178 0.032557465 -0.09330056 0.1495742 -0.23991014 0.07850605 0.0063503906 0.09417112 0.28094393 -0.15965419 -0.4130805 -0.109269395 0.10935825 -0.13949955 0.12409903 0.11610514
156 0.2207064 0.13629135 -0.43437028 -0.023655014 -0.06279092 0.05739616 -0.24431227 -0.077971704 -0.15633287 0.17411059 -0.16387697 -0.008718303 -0.03134972 -0.36069945 0.119944476 0.103328854 -0.17033844 0.13913693 -0.056766722 -0.015872445 -0.38981962 -0.11790884 0.25252298 -0.23067987 0.10376463 0.104294635 -0.049898818 -0.09863651 0.00083625986 0.121340916 0.10856846 0.107416466 0.32976657 -0.008711557 0.025718395 0.17442217 -0.087421 0.0014996891 0.037960574 -0.13341278 0.11920831 0.29966184 -0.018591346 0.31910607 0.23942345 -0.22580118 0.203725 0.13297264 -0.16741294 -0.20090808 0.29713508 -0.02539213 -0.006904729 -0.22121656 -0.085221104 -0.0064805294 0.14270262 -0.04100333 0.2840159 0.0896205 -0.15236337 0.21641746 -0.10499266 -0.13952668 0.2809986 -0.092091896 0.02616335 -0.361626 -0.14667018 0.06852759 -0.19798018 -0.31005973 0.15235361 -0.15283974 -0.03992084 0.11285937 0.08473704 -0.05505448 -0.06858194 -0.117420584 -0.22648403 0.11172076 -0.061370816 0.024883984 0.014453692 -0.16561006 -0.15874065 -0.1452133 -0.12491884 0.21744815 -0.13915186 -0.20237337 0.17824629 -0.18615417 0.15502746 0.36915588 -0.2737385 0.021307738 -0.28429458 0.33326438 -0.040379096 0.08691327 0.10057633 -0.2515698 0.2754709 -0.29223904 0.008033112 0.2614723 -0.018440675 -0.12372626 -0.03786868 -0.21348149 0.1983948 -0.17197302 -0.3158896 0.1369152 0.08031943 0.008559476 -0.24328388 -0.3091194 -0.07618799 0.12683564 -0.40127367 0.027102828 0.11255646 0.21662237 -0.13556103 -0.010630768
193 0.038758337 -0.36339465 -0.13163087 -0.40495303 0.42067114 0.34439728 -0.06884523 -0.05281259 0.23878624 0.03760722 -0.03217832 0.07683661 -0.17691666 -0.13782896 0.058683403 0.014312014 -0.086288325 0.12180613 -0.13902555 -0.09635043 0.023522966 -0.036047895 -0.2577201 0.102019265 -0.17854223 -0.024054399 -0.14756651 -0.005471542 -0.32217327 -0.20907077 0.4254866 0.0067781527 -0.052457854 0.18715581 -0.16099331 -0.19690394 -0.018324357 -0.24917965 0.15886416 0.0057772216 -0.03986898 0.5645545 0.40549275 -0.17552868 0.047558594 -0.22869559 -0.24729891 -0.09300711 -0.33246046 -0.31838635 -0.21138445 -0.12869878 0.030128684 -0.07306797 -0.3582399 0.120258376 0.24966648 -0.09899819 -0.20358437 -0.19805822 -0.17018153 -0.023127228 0.15569715 -0.1539543 0.26522058 0.2191993 0.09367708 -0.09275536 0.075076886 -0.17782003 -0.20552988 -0.13699718 0.16011615 -0.09479053 0.067476116 -0.034954894 0.14564988 -0.08199428 -0.060577806 -0.28916505 -0.14404267 0.1383727 -0.2614535 0.1628718 0.023688566 0.023197653 -0.038286306 0.0075786454 -0.2365999 0.05446415 -0.011577661 -0.099331245 -0.2226396 -0.13361594 0.1952648 0.03689385 0.018743822 -0.25842533 0.016709253 0.17016432 0.085754775 -0.026663339 -0.11652067 0.06880695 0.21146375 -0.15808375 0.22703984 -0.1182823 0.2831981 0.035077248 -0.30881104 -0.2311976 -0.05592762 -0.21048993 -0.13077912 0.17229266 -0.27397454 -0.10390811 0.088048674 0.1468374 0.40721446 -0.14668772 0.1274238 -0.29971084 -0.039964043 -0.12900592 -0.14459138 0.28235167
238 0.053581387 -0.15762413 -0.066548675 -0.27099046 0.12202311 0.22648259 -0.1125968 -0.4183812 -0.22843184 -0.03973437 -0.24190319 0.2514373 -0.05537929 -0.009035606 0.31864458 0.3310755 -0.09237493 -0.06779096 -0.07738084 0.061859623 0.25061876 0.11755717 0.08072913 -0.15298246 -0.11826482 0.09253859 -0.38740745 -0.25579098 -0.17048024 0.5100818 0.1514034 0.17253576 0.0707925 0.09324509 -0.053899363 -0.18809254 0.068281464 -0.040373858 -0.15704806 -0.13831596 0.013482634 0.25857443 -0.11607297 -0.2245131 0.5618998 0.4765642 -0.06415096 0.17666887 0.19051978 -0.260709 -0.15742972 0.30012488 0.0007960696 0.16474049 0.08920866 0.30252138 0.30599788 -0.110228024 -0.06796504 -0.40111792 -0.16007079 0.17711127 -0.16429871 -0.15428144 -0.17352465 -0.019982822 -0.05165308 0.29352492 0.098535925 0.002227402 -0.07857604 -0.12515771 -0.051624462 -0.024694089 -0.032643802 0.13881294 -0.15571682 -0.14682846 -0.07336701 -0.09708328 -0.12404958 0.031563427 -0.124752656 -0.08342163 0.27555585 -0.058813017 -0.034421474 -0.26013786 -0.17823042 0.3532927 0.027150445 -0.080379754 -0.18692906 -0.008312898 -0.07249158 0.16712059 -0.26762372 0.27038163 -0.16579664 0.18441619 -0.08448245 -0.011006264 -0.2624648 -0.22262102 -0.058695488 -0.18724369 -0.043551877 0.15916833 -0.22087285 -0.08227922 -0.0912968 -0.12425474 0.32702628 0.19112411 -0.21263565 0.07810054 0.0016512357 -0.041100137 0.18742377 -0.18842722 0.24471454 -0.06434122 -0.09151732 -0.009255129 0.07636417 -0.14189403 -0.25136772 0.021413652
145 0.20500596 -0.030812623 0.12825069 -0.022104105 0.16011609 0.38140982 -0.5172002 -0.22761951 -0.11485764 0.13875379 -0.27806592 0.052295722 -0.11239726 0.04394661 0.45510098 -0.016655682 0.07358584 0.012768909 -0.24448158 0.44774118 0.1085806 0.047695618 0.013199442 -0.0208975 -0.23401618 0.15883806 0.08681252 0.19575545 -0.07132996 0.26819623 -0.10330215 0.20996523 0.11609572 -0.3248112 -0.35068598 -0.04770063 -0.18556608 -0.0932308 -0.066964395 -0.2692119 0.04860001 0.257736 -0.41197723 -0.043454677 0.3199599 0.25334817 0.19848631 0.23483875 -0.19095951 -0.24060129 0.14282565 -0.028486481 0.17311238 -0.011103193 -0.21779577 -0.10990612 0.24306153 -0.12363603 0.44587496 -0.10230859 0.25711825 0.10035556 -0.0066022677 0.11412375 -0.015527666 0.07242164 -0.23214689 0.38864493 -0.13450658 -0.24841748 0.033183206 0.100680016 0.11942834 -0.45201188 -0.20278549 -0.23266108 0.073479764 -0.15303564 0.016307127 0.19479896 -0.051076267 0.06735601 -0.008809426 -0.12128687 0.08839285 -0.03570761 0.02630526 -0.091917105 -0.08847939 0.087642044 0.08289154 -0.07119778 0.0971083 0.1783373 0.038116336 0.026563566 -0.030806413 -0.17521583 0.17532958 0.17420083 -0.11327056 0.057596345 0.060793865 0.18319006 0.061578136 0.0034139066 -0.050909992 0.3120856 0.045951735 0.030560456 -0.0031899675 0.31391934 -0.056280248 0.022886517 -0.0035509 -0.23112546 0.22702771 0.12054179 0.2038472 -0.20288065 -0.15351991 0.17726701 -0.006476835 -0.09164406 -0.16179536 -0.06688116 0.042270813 0.28723815
300 0.3832367 0.21150061 0.0015760659 0.06504498 0.3663537 0.082990274 -0.16102096 0.23083508 -0.14631596 0.19207828 0.06142413 -0.072782576 -0.014392007 -0.03859908 -0.026522193 0.049859557 0.0091947 -0.25168014 0.047703337 0.366283 0.23915966 0.21833847 -0.013880067 0.21108101 0.29230735 0.3760822 0.012945728 0.17710356 -0.029643325 0.28004315 -0.09245746 -0.0139932595 0.05511807 -0.09569302 -0.33406052 -0.3700542 -0.24439776 -0.0026187878 -0.18037243 -0.08794428 0.022707216 0.062217895 -0.07736856 -0.0101454705 -0.111278236 -0.097011015 -0.13283402 0.2911511 -0.19608907 -0.22197914 -0.19045244 0.24714023 -0.14391422 -0.00964776 0.28516307 0.33300564 0.3918766 -0.058995683 0.19045335 0.00827995 -0.13532138 0.013069214 -0.4024016 -0.42919362 -0.08306554 0.08949459 0.093595974 -0.06609922 0.12738019 -0.17495373 0.077941746 0.05144805 -0.22186963 -0.22009285 -0.09199715 0.03153175 -0.061432447 0.09621804 0.09948358 0.051055916 -0.18258573 0.14893034 -0.02634139 0.013218334 0.26754615 -0.036425438 -0.21197978 0.18188101 0.20864478 0.02030489 0.13442281 0.12525001 -0.22498341 -0.00028480403 0.042890437 0.11805979 -0.30085072 -0.1981451 0.12451369 -0.023867447 -0.30576104 -0.034354236 0.02072289 -0.04499692 0.19333158 0.022915507 0.38729343 0.28013223 0.111761354 0.207356 -0.033229377 0.092582434 0.14233609 -0.0010535419 -0.17067914 -0.14945701 -0.34363064 0.25592986 -0.059263833 0.016005643 0.13049448 0.13147691 0.00782432 -0.04324668 -0.043613322 -0.01121044 0.006085172 0.08704454
64 0.108420685 -0.162164 -0.16557582 0.056951948 0.1397275 0.042583153 -0.0601552 -0.27916655 -0.11613656 0.26276076 -0.10208996 -0.26216346 -0.017261166 -0.00044136358 0.04067505 0.42037094 0.09371066 0.19007936 -0.22098789 0.1703947 -0.0073449085 -0.24153143 0.018459132 0.08212521 -0.264171 0.22972527 -0.30557394 -0.42782992 -0.06288143 0.22454724 -0.23803614 0.04366836 0.01658082 0.021768486 0.13705538 -0.16159369 -0.004675747 -0.18772545 -0.3210256 -0.17268653 -0.06088043 -0.15079182 -0.037099343 0.16277531 -0.09294835 0.21885896 -0.060628228 -0.027260046 -0.16275212 -0.22611226 -0.1987524 -0.4102668 -0.13886122 0.22121596 -0.14923887 0.3040287 0.0588977 -0.08055897 0.04550712 -0.20303337 0.12585045 -0.20042221 -0.0064023207 0.04711291 -0.047261037 0.102105625 -0.026428651 -0.0020861842 -0.15546013 -0.036974713 -0.03138533 -0.06453206 0.06651945 -0.21710461 -0.13971114 0.20669746 -0.15757968 -0.010716899 0.07263407 -0.44399315 0.034137458 -0.12013719 -0.19803031 0.09526743 -0.16202109 -0.36616424 -0.09206648 0.0775895 -0.2983758 0.04514698 -0.08211401 -0.087577574 -0.05164861 -0.05590042 0.15145159 -0.036355413 0.29183722 -0.046948384 0.19650212 0.4276432 -0.45951214 -0.078268416 -0.08916821 -0.13530865 0.41780883 -0.12744205 -0.15126628 0.038040217 0.39413783 -0.20810194 0.01680606 -0.21095921 -0.04677176 -0.07502875 -0.19955102 0.16835006 -0.027823662 -0.19942616 -0.17468564 -0.22465055 0.12526421 -0.09758824 -0.070196845 0.07768864 -0.050312772 0.04494873 0.15017258 0.2757475
33 0.13255915 -0.017204791 0.018425308 0.011563035 0.18943195 0.14071417 -0.2111878 -0.30482316 0.24065831 -0.034572534 0.063893296 -0.06659716 -0.073878005 -0.04992134 0.07295226 0.26150298 0.0040288055 -0.100139774 -0.09100737 -0.125145 0.2457512 0.082241654 -0.21432993 0.0050512915 0.30345693 0.056459486 -0.11190367 -0.020377921 -0.24348117 0.051677387 -0.10483508 0.0011534053 -0.0034973912 0.09469871 -0.10426786 -0.35718924 -0.46947968 -0.050943617 -0.21356457 0.28724143 -0.16606267 0.15551206 -0.36657763 -0.25050408 0.10233688 0.11965506 -0.15019329 0.21988952 0.0036096673 0.04816473 0.20545477 0.40236545 0.08964284 -0.08394115 -0.28137824 -0.057410058 0.34801796 -0.29742888 -0.20160216 -0.054334853 0.02356024 0.20863949 -0.08523373 -0.39908734 0.05256121 0.17151253 -0.2516498 -0.19136778 0.016085843 -0.023488946 0.09127878 0.13440147 -0.09189138 0.11136729 -0.37371463 -0.07314185 -0.1381956 -0.09226715 -0.21536756 0.15905854 0.0043520457 0.060416006 -0.23870307 -0.09349418 0.1453694 -0.22904237 -0.12222059 -0.07965856 -0.047991514 -0.18714972 0.059938114 -0.15361597 -0.1015116 0.21114102 0.022493007 -0.14958227 -0.13513805 -0.24770315 -0.208058 0.2686267 0.19822982 0.2343254 -0.22574191 -0.03889588 -0.20622751 -0.12166547 0.026971428 0.128397 0.13781743 -0.21310069 -0.24457897 -0.15447427 0.18711281 -0.1321031 -0.08036779 -0.06528667 0.13907036 0.4113377 0.08413768 -0.2554003 -0.33073893 0.003492061 -0.35099584 0.070153035 -0.025685312 -0.11717458 -0.10117023 0.12728573
200 -0.12870526 -0.27000374 0.088428244 0.0048467666 0.12647192 0.14812815 0.14954425 -0.30503693 0.2798025 0.16530988 0.016195172 -0.0068443194 -0.00783319 -0.34337628 0.1516787 0.10903831 -0.19387084 0.102352664 -0.026831053 0.1783911 0.27913043 0.2670148 0.03417537 0.1808265 0.009663314 0.115025 0.1860155 -0.264886 -0.093475156 0.07241594 0.15499099 0.29015705 -0.013398921 -0.20846914 -0.30359307 -0.29942286 -0.1756307 -0.12014506 -0.093495764 -0.0061969417 0.12052794 0.3092205 0.2469191 -0.0075989966 0.17238551 0.08269557 -0.10268627 0.35712674 -0.0054694507 -0.4878758 0.078611 -0.047862314 0.17540494 0.075226076 -0.26648578 0.22662534 0.46067277 -0.10380341 -0.07275719 -0.028024778 -0.11455022 0.17800038 -0.10760769 0.012407793 0.12608963 0.012530114 -0.05360092 -0.12322647 0.06979192 0.3782512 0.26350126 -0.12005805 0.16700004 -0.027515275 -0.18768889 -0.20553988 0.32284173 -0.2727185 -0.03407117 -0.25835133 0.11102918 -0.11377065 0.12430702 0.08945204 0.120616764 0.22441243 -0.0083294725 -0.46981174 -0.19688952 -0.103319004 -0.13727225 0.19973521 -0.15149543 0.1176529 0.08834489 0.18234941 0.27700752 -0.07772846 -0.2962356 0.20384113 -0.04924402 0.12138798 0.045873694 -0.084360465 0.27850547 0.03005133 0.097218424 0.11216874 0.23677748 -0.18867451 -0.18673448 -0.13235591 0.043033905 -0.21779747 0.16613726 0.062478945 -0.035976186 0.33075193 0.10779619 -0.1916704 0.16105922 0.010974182 -0.08915104 0.08790764 0.07026564 0.0044850563 0.16284867 -0.19750836
180 -0.23520468 -0.01567391 -0.004150912 -0.051608007 0.39677903 0.16654588 0.3538712 -0.39144748 -0.08558198 -0.011503536 -0.1466327 0.032153696 0.087630235 -0.18936577 0.31047198 0.4553572 -0.106707096 0.25055662 -0.1270296 0.1924579 0.26868135 0.08791054 -0.03264055 0.12110887 -0.017640002 0.1311383 -0.2751329 0.24456939 -0.11533796 -0.27942166 0.11589551 -0.029367594 -0.3380229 -0.22934318 0.24897383 -0.08418769 -0.083577216 -0.066002406 0.017782548 -0.27194843 0.25453183 -0.2268935 -0.13330618 0.07132896 -0.08710375 0.22179016 0.09678548 -0.012238572 0.17476694 -0.14123374 0.06622387 0.14987347 0.1061002 -0.047140446 -0.3618715 0.16927339 0.33919 -0.1867244 -0.016277406 -0.09278249 -0.18628538 0.021794591 0.16045654 -0.35595274 0.00813962 -0.073704645 -0.072091125 0.16048984 -0.15766253 0.15888159 -0.059129864 0.23829639 0.13895741 -0.18241009 -0.2546589 -0.09606929 -0.12032847 0.07036963 -0.099760324 -0.49107453 -0.022192921 0.074940346 -0.138479 0.19368123 0.0074140597 -0.18211763 0.18128674 0.10976707 -0.050048858 -0.07905787 0.1604214 -0.07852703 -0.08007542 0.008759182 0.27928254 0.035188753 -0.14055704 -0.1477501 0.17485617 0.14684652 -0.038422912 -0.1459557 0.14536506 -0.060711335 0.112394735 -0.20367175 -0.23271044 0.27353564 -0.013358587 -0.015577934 -0.026768476 -0.27034527 0.13004822 -0.04848773 0.008582554 0.031411283 -0.25323203 0.13153598 -0.21099365 0.26236492 -0.12244584 -0.28706607 -0.19565055 0.39319614 -0.21354736 -0.055263143 -0.36067727 0.18644795
277 -0.08750134 -0.30405197 -0.07051857 -0.26762378 -0.053629104 0.26490337 -0.22604108 0.01945727 0.09659138 0.29661244 0.12292692 -0.070361614 -0.1905903 -0.17413859 -0.19417478 0.14476362 0.13265735 0.005643439 0.017590733 -0.0019388755 0.061242983 0.29586658 0.1388908 -0.24858736 -0.18169188 0.43008596 -0.26454437 0.2499382 0.12508193 -0.024434663 0.13472791 0.07664908 0.19211748 0.14250672 -0.027984533 0.3310607 0.12282099 0.03204776 -0.031621907 -0.16995832 0.0051373444 0.028278481 0.15462564 -0.09903896 0.17657307 -0.11480342 0.20030576 0.014517433 -0.14343879 -0.2383413 0.075945266 0.19331086 0.43821588 -0.12600613 -0.21505663 -0.12966697 -0.116275124 -0.0045691216 0.19630474 -0.168504 0.20443708 -0.15054044 -0.06622528 -0.12680459 -0.0012010391 -0.08699492 -0.050790925 -0.15478513 -0.39035666 -0.22004344 -0.13281848 -0.1319136 0.0980142 0.025808807 -0.2046819 -0.101253204 0.19932589 0.12843725 0.12950608 -0.40687388 0.11403038 0.108369835 -0.06140607 -0.39679843 0.18076885 -0.24595068 0.058059223 -0.050605766 0.16701046 0.07831917 0.19615847 -0.12808256 -0.14755645 0.05440161 0.15517302 0.079404354 -0.30420798 0.36329556 -0.35213816 0.3362608 0.044619963 0.008516475 0.28814384 0.27420828 0.067589246 0.013000209 0.15097484 0.082666494 0.1301244 0.029281234 -0.18899485 -0.24867328 0.22513068 -0.05148021 -0.2425452 0.13336222 -0.14149015 0.23316547 0.22494118 -0.078344084 0.13924663 -0.013867551 -0.18909086 -0.2084115 -0.12375465 -0.19411775 -0.4039373 0.22151046
332 -0.01819582 0.4474628 -0.34811184 -0.120291315 0.38083774 -0.11724197 -0.05016398 -0.36951596 -0.008239935 0.11945027 0.3781697 -0.17109329 -0.017565168 0.11389667 0.07906013 0.055532385 0.08223571 0.20021859 0.12620673 0.19511165 0.11709807 -0.091581 -0.09586671 -0.08566315 0.1109272 0.19398078 -0.22909512 0.25981042 -0.06131594 0.16460364 -0.21811908 -0.07997338 -0.07832377 -0.053353954 -0.141678 0.15441667 0.20699298 0.05633654 0.16434643 0.21287178 0.34183747 0.2819109 -0.12625422 -0.013169454 0.26991752 0.032388266 0.10913064 -0.058726873 0.010839858 -0.099680915 0.1525387 -0.15172365 -0.3624906 -0.35269067 -0.11424037 0.030734502 0.4418658 -0.14992747 0.00444632 0.03323159 -0.26214257 0.09813148 -0.015277582 -0.23486392 0.14268313 -0.06525238 0.039834715 -0.18813935 -0.027373193 -0.20961615 -0.2513263 -0.17903191 -0.12692533 0.018262222 -0.31899026 -0.18350145 0.117772356 -0.07667849 -0.20240566 -0.24001533 0.1278726 -0.33616424 0.03481285 -0.005373513 0.04087558 0.13697973 0.15491126 0.010920074 0.29390374 0.20701623 -0.13213477 -0.15945846 -0.26507917 0.018322881 -0.06920687 0.29197055 0.025561435 -0.22425598 -0.0017601638 0.25134104 -0.098203264 -0.026449826 -0.16040482 0.14337064 -0.12072204 0.12554806 -0.29836679 0.0755678 0.22388214 -0.1989098 -0.15831718 -0.123044364 0.24237259 -0.15197597 -0.019791013 -0.22651939 -0.14922109 0.1874308 -0.066976696 0.046033606 0.09200251 -0.041903995 -0.29492548 -0.17668639 -0.109061465 0.16570906 0.05944347 0.082715794
274 -0.079130046 0.10376447 -0.1406016 -0.2537428 0.45538622 0.029173115 0.13365728 -0.3175915 -0.0821939 0.120279334 0.22573328 0.21135205 -0.52902377 0.019926384 0.042924184 0.0023359093 0.14913525 0.011255889 -0.3410961 0.12666836 0.21146512 -0.07517751 -0.30566266 0.22237906 -0.09602027 0.63778955 0.12810868 0.1095087 -0.19846451 0.1562519 -0.17225456 0.08995598 0.18700555 -0.1634209 -0.053405732 0.15747741 0.13837393 -0.033322245 0.17352514 0.22933583 -0.1412977 -0.12174325 -0.18129806 -0.060866546 -0.05103464 0.0905066 -0.021457942 0.056255527 0.087367125 -0.1629459 -0.22777958 0.19351164 0.059439275 0.07305035 -0.1345736 -0.0621349 -0.101686805 0.0052087437 0.114501014 -0.1355324 -0.18415421 0.027963005 -0.112819664 0.078051314 -0.07076205 -0.18141766 -0.02465213 -0.031600047 0.088328384 -0.03349643 -0.2059771 0.21235617 -0.12730359 -0.26012453 0.013064686 -0.121453725 -0.120111786 0.11721014 0.016149424 -0.2420447 0.045656905 0.05050053 -0.061409384 -0.19399557 0.3906587 -0.061188966 -0.2206227 -0.2707798 0.02421498 0.37826213 0.23673978 0.03877022 -0.27729398 0.007922877 0.2964847 -0.04679732 0.032838956 -0.35461035 0.10440769 -0.0712263 -0.052716527 -0.08308993 -0.023500748 -0.21061045 -0.32927963 0.09754151 -0.0078006303 0.37212086 -0.08282391 -0.031588644 -0.07531783 -0.5181824 0.19487435 0.22106065 0.1242903 0.09497845 0.08334032 -0.04538747 0.12623116 -0.09854445 0.27753225 0.011513293 -0.1352054 0.12934525 0.13928834 0.20509638 -0.18944438 0.19149774
133 0.1505627 0.0011632564 -0.13060811 -0.14073879 0.1912565 0.33768284 -0.024011007 0.17494604 -0.08156385 -0.06638231 0.07936498 0.094768815 -0.0072550783 -0.040250473 0.0031621566 -0.13540697 -0.21564685 0.25387877 -0.344131 0.14345163 -0.11503309 0.1775279 -0.42987427 0.23338057 -0.064977564 0.04513611 0.078344464 0.12683582 -0.31444073 -0.16448344 0.060012486 0.04875065 0.0931366 -0.21663226 -0.19687548 0.09396166 0.100917675 0.036775965 0.151328 -0.41875672 -0.016305463 0.070111394 0.23779672 0.27753603 0.16133982 0.07183767 -0.23405252 0.14400078 -0.28693965 -0.19353421 0.17932855 0.28827953 -0.119094014 0.23424497 0.032501336 -0.23765051 0.08182129 -0.13900727 -0.084191844 -0.1798088 0.11374162 -0.033699248 0.11072357 -0.16997884 0.048909135 0.50047874 -0.04185785 0.20008913 -0.33903664 -0.11325638 -0.16656177 0.0080861915 0.013747132 -0.028101895 -0.17952971 0.107988305 -0.14930202 -0.0436934 -0.34435657 -0.09445455 -0.23454861 0.32686502 -0.006401478 -0.008889135 0.122517616 0.093484685 0.29446483 -0.063988626 0.013369035 0.26913166 -0.0046549165 0.03552711 -0.090069726 -0.3147985 0.005333591 0.008903603 0.10672038 -0.060299113 -0.051931903 0.5516451 -0.039553232 -0.07209921 -0.056494385 0.37439352 0.3409356 -0.20615938 0.111482695 0.08588182 0.3842142 -0.18080983 0.0072776675 -0.059485387 -0.17612806 0.08180187 0.04439861 -0.20198208 0.05575156 -0.07362622 0.09645481 -0.18470435 0.19896162 0.0910995 -0.12631437 -0.25490057 0.10641805 -0.03467211 0.043014 0.15198171
44 0.033758674 0.10256432 -0.38027337 -0.12572336 0.18131194 0.24931163 0.07537425 -0.2591164 0.03414429 0.111990705 0.12806007 -0.3092054 0.13909428 -0.09390427 0.18576463 0.14518856 -0.27478623 -0.05751749 -0.084855065 -0.13577282 -0.2768459 -0.098417774 0.13325237 0.03180601 -0.17911205 0.40054956 -0.17861988 0.22130442 -0.23805079 0.03267665 -0.07371171 0.12501372 -0.14941524 -0.07604689 -0.27706087 0.29250216 0.1831642 0.18821102 -0.034105618 0.18947661 0.05503811 0.29513508 -0.3144373 -0.043780796 0.32312915 0.0016111435 0.21468371 0.17422716 -0.019816028 -0.2613011 -0.24245651 0.12204475 0.32636115 0.37214208 0.09168335 0.05401848 -0.06945383 0.06874465 -0.06904404 0.06278554 -0.08116292 -0.10338884 -0.043614876 -0.60314727 0.19672294 0.022159014 0.06626852 -0.12579082 -0.06602619 0.26681787 -0.25467852 0.09131893 0.18308365 -0.11273498 -0.17357136 0.13981123 0.2019423 0.24315827 0.0039543645 -0.3063704 -0.16437887 0.23000218 -0.13011256 -0.034847993 0.0022410264 0.09208801 -0.0926362 -0.032394473 -0.1233773 0.034139063 -0.06350189 -0.38561055 0.12039797 0.03142306 0.010288645 0.051680043 -0.1285012 -0.24802226 0.10075614 0.19979684 0.010945889 0.18053171 0.053716358 -0.1104995 -0.004492851 -0.012395164 -0.29465082 0.3631275 -0.078731105 -0.17689447 -0.022359138 -0.031180456 -0.03353289 -0.0994125 0.2298049 -0.00079466164 -0.018983698 0.38990518 0.016017007 -0.07111793 0.048632473 -0.03738051 -0.2167659 -0.09727838 0.11834611 0.06694913 0.1711518 0.19223265
77 0.07862579 -0.07424041 -0.19214806 0.19041534 0.17249204 0.19338791 -0.011760234 -0.08956635 0.26887986 0.17875381 0.09911622 0.055029772 -0.005618364 -0.19291784 0.20996869 -0.050606754 -0.022464529 -0.027963907 -0.3767922 0.26046684 -0.15038753 0.101145804 -0.14046194 -0.11181887 -0.08986837 -0.04286308 0.113785036 -0.163513 -0.2696998 -0.07185742 0.50446033 0.20999433 -0.0046429466 0.003256523 -0.31293952 -0.42582774 0.17357044 0.04310749 0.34289944 -0.3523438 0.44989705 -0.015222072 -0.17947713 -0.085083745 -0.03216879 -0.038163472 0.119601056 0.27383777 0.13840055 -0.35633984 -0.14849563 0.099900536 0.14187591 0.15158303 -0.21566814 0.062419493 0.37240872 -0.005088346 -0.07241335 0.1289229 -0.045513168 0.059568446 0.24907131 -0.3062743 0.08967437 -0.17508909 -0.13347675 -0.15639062 0.09447032 -0.022551427 -0.2524081 -0.023562398 0.4183952 -0.13531709 -0.08737226 -0.08582908 0.31166652 -0.019712253 -0.016707387 0.10434613 -0.11916352 0.2797738 0.080341965 0.0120773 -0.2567959 0.012358546 0.15741247 -0.37389565 0.22788925 0.2223473 -0.12579234 0.03422618 -0.16137767 0.24413638 0.2540536 0.03505857 -0.030460978 -0.19960515 -0.3333647 0.106208004 -0.1542638 -0.09644631 0.14150305 -0.04785166 -0.052266646 0.025686026 -0.13737667 -0.1367514 0.04336496 0.037441444 -0.15999055 -0.34873602 0.14131406 -0.000892388 0.24757831 0.10790534 -0.07662627 0.04351222 0.107505396 0.036849767 -0.23215154 0.10212383 -0.28889307 -0.16391714 0.10245916 0.04739775 0.098149516 0.048857037
152 0.16858372 -0.15664652 -0.29485533 -0.19355565 0.13342443 0.34423774 -0.13942005 -0.055288162 0.27674556 0.10921717 -0.36696857 0.07478399 0.050447937 -0.17392913 0.10487231 -0.2271212 -0.044155985 0.014624169 -0.14519316 0.46393502 0.049735323 0.08090643 0.047039617 -0.1349876 0.096371524 0.21649197 0.16191219 0.22620668 -0.013415493 0.08448152 -0.07343672 0.07535997 -0.18282431 -0.13661423 -0.04429293 -0.058437865 -0.0057123597 -0.14332846 -0.25215888 -0.33066204 0.06308731 -0.0417006 -0.30314994 -0.021318896 0.14921845 -0.24307388 -0.027775526 0.081670314 -0.013562635 -0.19194494 -0.2656155 0.16435578 0.028575288 -0.20904677 0.031228825 -0.09963774 0.22452281 -0.27080563 0.13516589 0.31160986 0.19308399 0.1663592 0.074601375 -0.21359576 -0.16209166 -0.23331729 0.21574566 -0.07912557 -0.059316035 0.23247181 0.1206212 -0.28365326 0.012954693 0.11242667 0.007350621 0.048340857 0.25713223 0.35244417 0.0306481 -0.27363458 -0.13775365 0.061163947 0.16347252 0.15819882 0.09431717 -0.20155977 0.008078462 0.030227372 0.023691649 -0.34405366 0.06917513 -0.31526664 -0.2641612 0.1462797 0.12320424 -0.06534765 -0.2351776 0.010338607 0.037841976 0.041260157 -0.12943424 -0.0073012174 -0.035521373 0.048834894 0.33387667 0.16901314 -0.21878028 0.07786611 0.6106944 -0.32245603 -0.035102025 -0.06719251 -0.029505594 -0.35600713 0.13874942 -0.06448304 -0.19232929 0.16490944 -0.38869083 0.12755148 0.07118364 -0.2522292 -0.0691912 0.20757805 0.0020249572 0.39305627 -0.30311322 0.15350857
54 -0.11522664 -0.014355688 -0.43395084 -0.09288964 -0.00355557 0.2097663 -0.3210478 -0.014028381 0.17997669 0.043742776 -0.05509218 -0.041541513 -0.17068632 -0.26705053 -0.24292442 0.22158176 0.025860919 0.3800249 -0.26125097 0.12630183 0.058338523 -0.004300054 0.07841542 -0.060498044 0.051182088 0.27107203 -0.39083415 -0.21101627 -0.04143049 0.31096807 0.13600698 -0.010461462 0.11313022 -0.061018992 -0.033632763 -0.1267138 0.020869229 0.19075766 0.0012741712 -0.14859925 0.017397624 -0.13687903 0.02500642 -0.20406687 -0.011106076 -0.029184364 -0.22105014 0.018670645 -0.044812717 -0.27553096 -0.06928387 0.018027961 0.23906527 -0.28576037 -0.0027143122 0.15094952 0.31417874 0.1431941 -0.1500248 -0.19772735 -0.1557412 0.10243917 0.25749463 -0.18282256 0.07699248 0.14805302 0.19132152 0.2026691 -0.6374845 -0.18559897 -0.2760751 -0.32673624 0.25298464 -0.26907104 -0.17068757 -0.2632277 0.06396934 -0.45768365 -0.09462878 0.043175325 0.1544099 0.23139735 -0.25519565 0.18578827 0.13668515 0.27708355 -0.013540492 -0.42017773 0.031090943 0.06791242 0.039166056 -0.2645358 0.21411757 -0.056125645 -5.0679017e-05 0.006348426 -0.1690885 0.038552504 0.14828327 0.083791815 -0.007824792 0.10716812 -0.06628573 0.19290055 0.0640448 -0.1437197 -0.17749025 0.16381986 0.029290676 0.124556705 -0.17812501 0.046107456 0.14931867 0.2954833 -0.070453756 -0.31630078 0.016605726 -0.11255549 -0.1441692 -0.21523538 0.25440502 -0.12695533 -0.13696934 0.062143203 -0.10441928 0.12759537 0.04243664 0.04466525
92 0.078008875 0.15927513 -0.05091587 -0.122386456 0.14289583 0.19827038 -0.28704727 -0.26798508 0.38517928 0.043848474 0.1791054 0.034365892 0.027384708 -0.18556137 0.14833957 -0.08006617 0.10531035 -0.039777845 -0.17409816 0.6189199 0.14343205 -0.11916819 -0.1129559 0.16592576 -0.13935013 0.2932021 -0.34744254 0.12686808 0.16997404 -0.10577973 0.1010391 0.11870803 -0.007832623 0.11338648 -0.013296955 -0.13950251 -0.17548126 0.21774119 0.2771845 -0.08331356 0.04422462 0.15234181 -0.08184654 0.064159766 0.34846488 0.26653558 -0.16024132 0.18891694 -0.31832454 -0.17843384 -0.1882093 -0.08844015 -0.0011425227 0.0043221326 0.12344166 -0.10706195 0.40360862 0.076580554 0.34521827 -0.33104995 -0.0069370894 -0.2237065 0.14957114 -0.22409491 0.16408569 0.124286994 0.11311557 -0.18963696 -0.12799509 -0.049823843 0.0045234766 -0.23101576 -0.16612197 -0.20019901 -0.09008333 -0.012147156 0.011816215 0.10006555 -0.011612857 -0.07062334 0.031605236 0.28169832 0.08812329 0.29486176 -0.041037217 0.23444974 0.019001812 -0.4701407 -0.32214168 -0.3583382 -0.023811888 0.10948808 -0.06559374 0.31633735 -0.16296521 0.1332662 -0.08726352 -0.09326769 -0.07727184 0.004946031 0.09488222 -0.03880079 0.041408114 -0.0018766758 0.15069832 0.17898963 -0.06253918 0.08043111 0.104183294 0.04916144 0.038964614 0.21404967 -0.1664898 -0.030068168 -0.09162592 0.10974947 -0.18644328 -0.0432067 -0.10892648 -0.39070836 0.039588682 0.18769385 -0.21801634 0.056054793 -0.103303164 -0.23833878 -0.048748314 0.06301757
140 -0.08590856 0.063062266 -0.36214393 -0.023481678 -0.08237028 -0.20821245 -0.31089658 -0.38215688 -0.08767509 0.35918698 0.108864956 0.23359476 0.043899115 0.041762013 -0.08405167 0.16440338 -0.20456234 0.09852705 -0.20315325 0.35440275 0.027980149 0.07674093 -0.071049094 -0.20366423 -0.0987656 -0.27271956 -0.2604215 0.3875366 0.10106505 0.012809965 0.20883557 0.10737858 0.0077333488 -0.35897318 0.11122807 -0.22361292 0.08522214 -0.2839756 -0.2204323 0.13792315 0.20614403 -0.2428123 -0.08279039 0.04031804 0.100646995 0.2313277 0.16464698 0.019789968 -0.16920131 -0.2782151 0.020407306 -0.044260662 0.51777685 -0.024541039 -0.0077712946 0.1600176 0.13462637 -0.09936896 0.025132263 0.025587438 -0.09836611 0.36277595 -0.011053718 -0.17712879 0.014805941 0.12951912 0.09621549 -0.114830755 -0.050566394 0.41203076 -0.025829442 -0.12885484 -0.20768836 -0.12993775 0.047283933 -0.04323459 0.057606768 -0.014460412 0.08063876 -0.12532061 -0.12411313 0.16163865 0.08037998 -0.13717937 0.4398265 0.098668665 0.2575341 -0.29663253 0.038457803 -0.11713784 -0.19591156 -0.227901 -0.07618329 -0.05553417 0.15826234 -0.23210922 0.0032496843 0.02761242 0.17686905 0.38043165 -0.022545446 0.12804309 -0.2794358 -0.14723755 -0.14248475 -0.2727428 0.051208682 -0.11055135 0.036268417 -0.41486615 -0.18696842 0.004589574 -0.13874054 -0.1500044 -0.32292557 0.027942084 -0.16619529 0.2625653 -0.2259262 -0.08741549 -0.10181131 -0.18320441 0.017713375 0.008105866 -0.09103481 -0.19668663 0.16543914 0.2286981
79 0.12860532 -0.0019882307 -0.15940477 -0.043046083 -0.044926405 0.2831769 -0.30699068 -0.027055295 0.103448935 0.10049722 0.07505136 -0.10796824 -0.3587501 0.06329141 0.3677277 0.18880211 -0.06768361 -0.052838046 -0.32507703 0.07952828 0.2551021 0.07242139 -0.028181223 0.03632241 -0.030719131 -0.32041952 0.2489019 -0.044974282 0.031417195 0.3376807 -0.061780076 0.09562451 0.29280645 0.0095184855 -0.30217752 -0.1802957 -0.0067439675 -0.09003094 0.19712338 -0.038496956 0.23422167 0.46536106 0.10728583 0.06840212 0.26353398 0.0787937 0.0041414825 0.23974521 -0.054709528 -0.32024047 0.13480079 -0.16832711 0.19499667 -0.143711 -0.40531948 0.20830643 0.119786836 -0.056436863 -0.08318076 0.055565342 -0.2282023 -0.008632107 -0.1897942 -0.45849133 0.057418738 -0.2579254 0.08466725 -0.24538875 0.15489563 0.029042874 -0.20306134 0.022837443 -0.041887656 -0.15915503 -0.10975324 0.0988353 0.038656976 0.06740735 -0.24205108 0.13570292 -0.19490139 0.07739775 -0.24456042 0.07103121 -0.10963775 0.06075171 -0.26831216 -0.15065303 0.16386344 0.3172241 0.22125733 -0.058592957 0.038017817 0.006891171 0.28782868 0.038899016 0.48290995 -0.08435879 -0.18481421 -0.11393616 0.056816243 0.30555356 -0.12918504 0.1302926 0.14908782 0.036486674 -0.01319819 -0.344348 0.007020164 0.1156324 -0.35133016 -0.14900918 -0.10077272 -0.009480305 0.22545636 0.032218136 -0.14085056 -0.04734991 0.105184846 -0.09257786 -0.18388112 -0.2047557 -0.20609201 0.044011686 -0.023841664 0.18878385 -0.09102769 0.06582955
312 -0.2059096 0.14024937 -0.32332376 -0.357747 0.0053875605 0.011202866 0.025423868 -0.09061427 0.08206226 0.16294505 -0.29676953 0.15835622 -0.22919542 -0.13345952 0.085840456 0.0345094 -0.07120738 -0.037384633 -0.028684797 0.19779095 0.044303432 0.2656716 0.36776176 0.009186403 0.054507528 0.38883653 0.11544184 -0.10750724 -0.036150254 0.038331132 -0.09609636 0.12670845 0.026963608 0.047324345 0.22569622 0.2411771 0.11166589 -0.039127763 0.23612407 -0.34066716 0.07486699 0.26758868 -0.1533692 -0.10348767 0.16580294 -0.00649085 -0.0997904 0.052544292 -0.31187886 -0.18490039 0.17796494 -0.22544076 -0.007983418 -0.10139255 -0.11996866 0.14514704 0.33936328 -0.31124628 0.06568879 -0.0034159808 -0.22072326 0.35924423 -0.17762761 -0.21307705 -0.07857643 -0.04193323 0.18542863 -0.185902 0.08434276 -0.17219332 -0.12209572 0.15799071 -0.019661997 -0.1881271 -0.27443603 0.0480268 -0.39360526 -0.075596265 -0.05099689 0.056165513 -0.048964217 0.3147643 -0.057058074 0.580644 0.16536002 -0.17113775 -0.13578512 -0.20346823 -0.10983155 -0.036675557 -0.06346371 -0.3181586 0.02224567 -0.025998106 0.31543943 -0.045008406 0.067497715 0.016285945 0.11093477 -0.20729907 0.14950345 0.40226638 -0.19484024 -0.14087957 0.13553424 -0.003375731 0.096780315 0.26328188 0.45698884 0.20058523 -0.035765406 -0.10751087 -0.033259053 -0.12839578 -0.0084914295 -0.32097182 -0.013160182 0.0755355 -0.08485574 -0.4112139 0.18116567 0.15182813 -0.06206816 -0.39616406 -0.20610324 -0.23428124 0.21301204 0.34028706
244 0.028916769 0.14377482 -0.32840034 0.23350285 0.18104152 -0.15883589 -0.19477338 -0.1310771 -0.025510335 0.09720762 -0.16641472 -0.09148554 -0.0112302825 -0.10986188 0.12955073 -0.12058958 0.2309515 -0.07505634 -0.37604064 0.0016953244 0.33026007 0.06570381 0.07493328 -0.10152654 0.039601892 -0.051288944 -0.23684952 -0.019028608 -0.10822949 0.14020878 -0.117468685 0.008783379 -0.13461281 -0.14324373 -0.46726766 0.05562402 -0.25318846 -0.03445856 0.06015372 -0.2735345 0.027666414 0.090258196 0.058285445 -0.039917298 0.16563663 0.16219014 0.23774898 0.26571965 -0.0026231806 -0.003208338 0.09094946 0.18573865 0.21379128 0.14078878 0.10848969 -0.23885506 0.009033382 -0.40872833 -0.05225536 0.06122202 -0.04637081 -0.044272233 -0.23698907 -0.3996062 0.18199264 0.3980296 -0.15134212 -0.16869166 0.08861833 0.0506357 0.11539471 -0.06631677 0.2093155 -0.20737992 0.23428516 0.08721966 -0.3243307 -0.19024554 0.13592033 -0.20611481 0.077521145 0.14799759 -0.18660058 0.02562392 0.16824053 -0.340069 -0.039946347 0.19526003 0.010485872 0.34717086 -0.34200132 -0.30256867 -0.14190167 -0.2620897 0.08067363 0.08783541 0.1702251 -0.09092506 -0.070407175 0.17658271 -0.042014293 0.02322861 -0.1672451 0.11883088 0.36252615 -0.19781895 0.020001274 0.1218293 0.04857244 -0.58748925 0.17071038 0.012477923 -0.09434753 0.24225935 -0.14622511 0.2748765 -0.13606764 -0.05600913 0.16743246 -0.25969902 -0.05502063 0.034580957 -0.24006532 -0.39020348 -0.20667368 -0.02055197 -0.08181949 -0.07215772
188 -0.008331812 0.11117043 -0.27970484 -0.15218341 0.38924626 0.21374997 0.08623155 -0.13999815 0.20147727 0.122493885 0.17647243 0.20461665 0.08349758 -0.06752853 0.29004073 0.22030354 -0.06036008 0.13589221 -0.12154065 -0.11643222 0.13721661 0.026962934 0.042635966 -0.33089772 0.29582208 0.37766948 0.15491842 0.24169604 -0.11260606 0.0814602 0.010516327 -0.18611915 -0.05720753 -0.035701033 0.015296342 0.19376418 0.12151011 -0.2847318 0.06968861 -0.12993641 0.019752162 -0.44948453 -0.20686729 0.13607973 0.4387211 -0.064882465 -0.050583314 -0.09392316 -0.49177718 0.09563478 -0.11771678 0.11538102 0.2769065 -0.21093394 -0.2977953 -0.0077283494 0.4049506 -0.30990997 0.042371586 0.2004002 -0.11862085 -0.019455131 0.013245474 -0.14503087 0.12092498 -0.0863475 -0.19994067 -0.24625853 -0.010941855 0.061127923 -0.07247611 0.111182354 0.1558517 -0.11520664 -0.16160564 -0.14137636 0.039348632 -0.038828503 0.007041448 -0.09797249 0.08711151 -0.21326733 -0.043875262 0.0021340621 0.15807013 -0.15782654 -0.1684477 -0.20923775 0.06335846 0.1849067 0.23480491 -0.11474 -0.29446983 -0.32593426 0.18511698 0.07589846 -0.0037192632 -0.052593037 0.09353899 -0.058444846 -0.034535483 0.075489216 -0.16643855 -0.21899287 0.3131853 0.13520168 -0.29805997 0.14029318 0.14936277 0.025437558 -0.03784901 -0.15976676 -0.2250426 -0.17194429 -0.13460277 -0.24141693 0.09510452 -0.029930687 -0.017560408 0.023948971 0.21302587 -0.18783003 -0.17946875 0.104606636 0.043621477 0.08722138 0.013342844 -0.02476618
295 0.2057795 -0.12091738 -0.21154997 0.24953309 0.48840287 0.13700007 -0.21638748 -0.15040681 -0.22974306 -0.13329948 -0.1930994 -0.19818933 0.0217514 0.28846914 -0.13038273 0.21980335 0.05661376 0.122184895 0.05246812 0.23059005 -0.112116404 0.18842943 0.033662427 -0.2001852 -0.3047271 -0.07067822 -0.3426993 -0.082916565 -0.24210143 -0.12901501 -0.011533262 -0.21999574 0.0062336917 -0.100271314 0.019346468 0.08155876 0.010263838 -0.24029958 -0.20739563 -0.42722207 0.13464577 -0.13838734 0.14850563 -0.21812856 0.030822573 0.25709915 0.013159524 0.18261498 -0.055380043 -0.08690647 0.035350066 0.16544218 -0.011620738 0.010399899 0.07505301 0.03394173 0.36568752 0.1027126 0.24581774 -0.073622465 0.08753509 0.25538033 -0.24785623 -0.26967382 0.2551556 -0.08400235 0.18025541 -0.28873286 -0.15018338 -0.23158208 -0.32893574 0.07323645 -0.08285075 0.14870892 -0.23901764 0.07513631 0.117487304 0.030701056 -0.15812793 -0.023344567 0.066331215 0.3295833 -0.31609 0.13355958 0.2646958 0.034934476 0.037835587 -0.46622428 -0.031820584 0.13833958 0.06913392 -0.06657215 -0.05420546 0.10833737 0.22714002 0.16850041 -0.49330598 0.01203422 0.033619143 0.18118039 0.08976938 0.24296778 0.20688339 0.21885161 -0.2533028 0.24370465 -0.098080985 -0.2837951 0.39509603 -0.15203372 0.057085782 -0.16443005 -0.017975122 -0.19413656 -0.03735647 -0.16096316 -0.06195192 0.34419706 -0.07587592 0.052584242 0.06845989 -0.01622927 -0.41121495 0.06913558 0.10724486 0.21614072 0.14269628 0.2700653
80 0.00879273 0.0874284 0.1400687 -0.2652894 0.26013935 0.14185797 -0.045081865 -0.17169516 0.4092642 0.3480778 -0.1463453 -0.07002017 -0.11640393 -0.01441619 0.29449284 0.23747352 0.23674081 0.19493657 -0.17757986 0.014682394 -0.17570831 0.1729761 -0.18326592 0.07119127 0.030931735 0.06520161 -0.14790176 0.14338076 -0.08488976 0.22340065 -0.08526108 -0.11272376 0.19179687 0.0070699044 -0.29003823 0.14463525 -0.020210547 -0.3592117 0.029932657 0.16644049 0.0605968 0.10814675 -0.11622459 -0.011768578 -0.20699766 0.13736153 0.18120487 0.022151655 -0.2101173 -0.082553096 -0.058383763 -0.24839887 0.14000039 -0.018932812 -0.061740864 -0.43340272 0.019543245 0.12387423 0.20939434 -0.42866272 -0.2418349 0.10033604 -0.29588807 -0.2590326 0.09115233 -0.2673463 -0.039153684 -0.01081571 -0.04062945 0.18956628 -0.34939042 0.23123235 0.3262029 0.07643315 0.06984849 0.08839886 -0.29624343 0.39182422 -0.27417624 -0.0905353 0.028578334 -0.04867047 -0.20257375 0.18631107 0.48113734 0.21155871 0.08582076 -0.10805962 0.24613908 -0.18421854 0.21232349 -0.35332444 0.068066545 -0.18104018 0.26738548 -0.04881268 -0.06780261 -0.06873058 -0.058792863 0.12892595 -0.22042397 -0.03027652 -0.14048822 0.02864305 0.27619994 -0.34143132 -0.020912947 0.14880492 -0.06642976 0.11834693 0.02374867 -0.1566821 0.04901705 0.17721671 -0.112704806 0.04435782 0.040979523 -0.036576044 -0.12296465 -0.10883704 0.02452447 -0.2870303 -0.3549883 -0.09524831 0.03274943 -0.2982372 -0.22474423 -0.11878983
322 0.02334707 -0.1221551 -0.16268292 -0.23873277 0.21536563 0.19292964 0.27455586 -0.11843022 0.12300567 -0.015401928 -0.271254 0.07757915 -0.053863842 -0.1245559 0.06258532 -0.014060992 0.36839098 0.31656134 -0.24543369 0.2576096 0.28153554 0.30828762 -0.2542471 0.0565048 -0.03452904 -0.031969074 -0.22209156 0.19402258 -0.26308596 -0.34603152 0.024361739 -0.124620795 0.019840196 -0.22280835 0.020009918 -0.19677074 -0.0046069925 -0.013396563 0.098866515 -0.068409495 0.08298634 0.26074922 -0.034987427 0.26744244 0.23467416 0.16359963 -0.12552372 0.036728326 -0.11832092 0.29245332 -0.07785247 0.10543253 0.35979447 0.10177283 -0.20672636 -0.14761281 0.2873692 0.13472879 0.1487139 -0.11862796 0.25359467 -0.15721005 -0.08236184 -0.25271535 0.04189517 0.17434335 0.05714954 -0.20263119 -0.3198382 0.0064037056 -0.13179979 0.16681474 0.15019748 0.3444823 -0.07153935 0.13848634 -0.11335926 0.29168114 0.034482338 -0.20423342 0.028033916 0.0065820627 0.002541647 -0.10946086 0.3249451 -0.05752181 -0.2515038 0.19094512 0.040964175 0.100996464 -0.19431724 -0.17735551 0.06483212 -0.245444 -0.1255155 0.101471126 0.07250267 -0.11935718 0.073527314 0.24070886 0.14009105 0.1858204 0.044963866 -0.029859563 0.20428853 -0.15825774 -0.35222226 0.1588593 0.049109288 -0.21211374 -0.17325135 -0.35434496 -0.17567444 -0.026552925 0.091875784 -0.064017944 0.061961308 0.09938964 0.15621412 -0.09835649 0.19433287 -0.19924586 0.19850755 -0.43055996 0.16899541 -0.075036705 0.36485413 0.51763517
258 0.049932312 -0.0027791215 0.31350306 -0.062380157 -0.18705995 0.192004 -0.05764698 -0.067701206 0.23842114 0.078586966 0.04248329 -0.057176966 -0.06286743 -0.4067387 -0.11296845 0.14187057 -0.18484138 0.10389721 -0.52562064 0.075669415 0.34502378 0.069771685 -0.09103465 0.19403352 -0.14589708 0.27483022 -0.16271494 -0.33489323 -0.18563966 -0.07260806 -0.055328395 0.06593356 -0.09319958 -0.1310066 -0.12441163 0.060226977 0.0758455 -0.07573363 0.16148113 -0.18353745 0.20794347 0.08773637 0.02601313 -0.06385222 0.24316092 0.10938584 0.016475623 0.13105935 -0.27166897 -0.058703262 -0.096661635 0.2633404 0.41235337 0.03888754 -0.22593857 0.10670452 0.15602459 -0.015097702 0.020755908 -0.2065387 0.13614276 -0.046637207 0.16056445 0.020768007 -0.13154648 -0.09700621 -0.3820296 -0.22369969 0.0039725117 -0.15613206 0.11326565 -0.15178493 0.07287375 -0.028154483 -0.10755804 0.3066615 0.18038902 0.005778774 -0.16279894 -0.026495636 -0.042393807 -0.06553285 -0.03486751 0.06109256 -0.070428334 0.13666242 0.10956619 -0.22682732 0.078823775 0.22237572 -0.06204967 -0.4657457 -0.031705625 -0.29612812 0.03957775 -0.04262933 -0.14549227 -0.1384099 -0.055232953 0.13550544 -0.3186084 0.038595732 0.24494043 -0.14112256 0.2696749 -0.09971286 0.12721486 -0.121660255 0.19283552 0.004948063 -0.057131216 0.021047564 0.12562275 0.15835075 0.010218696 0.12824956 -0.05626852 0.036847923 0.1982916 -0.23618269 0.13704006 -0.46010438 -0.044319484 -0.3159892 -0.20584176 0.09512449 0.025769064 0.45908773
190 0.50877744 0.19089656 0.015621123 -0.0102958325 0.22747175 0.22407347 -0.33269775 -0.35813913 -0.019130327 0.36186668 0.11474985 -0.24272154 0.1493292 -0.3041096 -0.13539253 0.051857386 0.12184655 -0.02637008 -0.050117873 -0.008856479 0.59528726 0.16191739 -0.13633318 0.0007903511 0.013657009 0.20589295 -0.07187146 0.18272944 0.03160868 0.08236101 -0.08117771 0.19354704 0.00931575 -0.23215775 -0.3841873 0.015463403 -0.10897083 -0.08400602 -0.089815065 0.1095264 0.059076555 0.029687505 -0.3051783 -0.037596002 0.02478754 -0.17598791 0.17110975 0.45796815 -0.193835 -0.049741443 0.25239193 0.16591649 -0.06244818 -0.18517238 -0.25198987 -0.15099463 0.0784676 -0.05121274 -0.06688112 -0.22901239 -0.042578798 0.21181561 -0.010192093 0.10259625 0.0012650824 -0.04480407 -0.11155759 0.04969798 0.10512768 -0.15177074 0.07987389 0.072973534 0.21146056 -0.2472673 -0.065535106 -0.08019053 -0.021358876 -0.33906 -0.2237054 0.06075209 0.06064291 0.026462642 -0.013159527 0.18953879 -0.16823845 0.10150137 0.24654242 -0.06113904 -0.055506963 -0.073960364 -0.2003995 -0.33972645 -0.20155375 0.26547968 0.04141121 0.061079286 0.020494249 -0.17979583 0.020270256 0.14872988 0.056035455 -0.072739534 -0.08876763 -0.053901523 -0.01701786 -0.37439126 0.13404205 0.17719251 -0.28348494 -0.19631957 0.21993539 -0.17693606 0.05853763 -0.14024949 0.026051378 0.04338772 0.3209885 0.0659939 0.15605219 -0.09288089 0.20791975 -0.13599256 0.15053146 -0.21303552 0.13724238 0.0011365095 -0.22828718 0.45991743
60 -0.2550459 0.16464786 -0.118911095 0.22696222 -0.14165509 -0.15948397 -0.15328631 -0.13992827 -0.15273616 0.17178859 0.556334 0.14174166 -0.108932376 0.0020147895 -0.18037134 0.119207054 0.14511065 -0.06716966 -0.24797739 0.31822047 0.2708964 -0.009871217 0.28110874 0.028675046 -0.0948275 -0.003997344 -0.2478674 0.118620634 -0.21717997 0.07857713 -0.10416968 0.44166967 -0.05264374 -0.16997375 -0.36005923 -0.056681905 0.0071239336 -0.06927514 -0.09386295 0.00032099936 -0.10591149 -0.09805458 0.10202995 0.14964402 -0.0007043374 0.16731806 0.058214232 0.24782248 0.07920223 0.05822781 -0.106724024 -0.21269299 -0.13397343 0.08616171 -0.06622292 0.18234873 0.18329835 -0.056871414 0.064495765 -0.00377126 0.13503908 -0.05480617 -0.14745091 -0.34187487 0.2521867 -0.28115684 0.26700595 0.2114464 0.14539485 0.04762376 -0.40267417 -0.2551225 0.17809589 -0.119212896 -0.120406345 -0.26812518 0.25316852 -0.018180178 -0.13788018 -0.22395596 0.12246432 0.3643484 0.051141758 0.14552423 0.15272062 -0.23403545 0.24948679 0.09073385 0.33456054 0.37045386 -0.15431875 0.25237745 0.22558516 -0.3133903 -0.11329521 -0.07684409 -0.06414356 0.08784015 -0.0057941983 0.008785934 0.3674305 0.059359897 0.17501795 0.32686344 0.21543887 0.18801378 0.16499846 0.17735209 0.048155244 0.25996438 0.20282675 -0.32260865 0.24066772 0.01809586 -0.11674146 -0.22564965 -0.10370944 0.17096002 0.11767753 -0.025365712 -0.06719682 -0.17120406 -0.09005874 0.0047289724 0.2059757 0.21219343 0.24499322 -0.10334105
278 0.3176212 -0.12550277 -0.27873328 -0.05160668 0.044925082 0.10170933 0.015010726 -0.1925965 0.16858436 -0.0055771577 0.018193388 0.22977312 0.2279932 0.0049578687 0.12449922 0.09617459 -0.11783036 -0.16377513 0.18301363 0.4568996 0.056576196 0.1371347 0.24305397 -0.11450143 -0.05898853 -0.21422379 -0.37193054 -0.13513075 0.01621531 0.08815777 -0.03422035 -0.049133226 0.12141959 -0.16981964 0.0006502719 0.067075714 -0.31620547 -0.03338402 0.1873652 -0.17110348 0.06655621 0.20975284 0.023744231 0.085880086 0.29002067 0.06403285 0.16778037 -0.09799005 -0.41544348 0.009299524 0.049034175 -0.09990167 0.07991779 0.10883227 0.25232401 0.24612093 -0.008804722 -0.05019297 -0.046223238 0.056980006 -0.15421672 -0.11926325 0.038125973 -0.45089054 0.22647962 -0.37131166 -0.17776817 -0.29307106 -0.3458454 0.0006722886 0.0024759618 0.24545176 0.031513028 -0.14831813 -0.08017279 0.101461746 -0.1636523 0.2294496 0.05987716 0.0392853 -0.2248352 -0.12233822 -0.13858752 0.030928612 0.19510168 -0.0076350085 0.01168739 -0.38448 -0.29793927 0.23615716 -0.20194909 0.1043498 -0.048580512 0.14047451 0.08560797 -0.14537826 -0.17552435 -0.30097175 0.23322237 0.16027549 0.28886285 -0.07379842 -0.07999252 0.30264053 -0.00073264947 -0.06644109 -0.15396993 0.057151068 0.15060908 0.0620252 -0.1443164 -0.1439112 -0.12190441 -0.18962365 -0.18282536 0.15533574 0.06364821 -0.0026625118 0.17441684 -0.32885936 -0.060129914 -0.08863948 -0.2183004 -0.24307701 0.12949012 -0.20449725 -0.07312921 0.47326183
177 0.11503815 0.0601233 -0.17749636 -0.43299663 0.19083402 0.023429211 -0.1297808 -0.08397569 0.052168053 0.085634135 0.4129079 0.10517084 -0.17049481 0.030916674 -0.011376828 0.43986344 -0.04693753 -0.25209835 -0.17283067 0.120984994 0.1447138 0.25929958 -0.2627453 -0.2859338 0.2807162 0.040863916 -0.3098614 -0.096284404 0.04947471 0.11468572 -0.06988956 0.19894823 0.01435238 0.058822155 -0.2251232 0.042371254 -0.14376996 -0.119090326 -0.07637528 -0.08656961 0.08006866 -0.09264497 -0.15336971 -0.079937175 0.19363724 0.061167922 -0.0008307885 0.1706968 -0.20706908 -0.38237342 -0.039713588 -0.058651954 0.22846864 -0.15530609 -0.030223995 -0.17643425 0.047917552 0.013062014 0.094879046 -0.13739705 0.003367459 -0.04127638 -0.2291358 -0.033699613 0.3004575 0.09361291 0.116858274 0.056585502 -0.0475691 0.10357148 -0.06692409 -0.14286833 0.06064574 -0.04445447 0.07948333 -0.00028357378 -0.16855232 0.12248122 -0.088589504 -0.09174952 0.36738396 0.13305692 0.1656043 0.15638144 0.1762295 0.00085612276 0.11641708 -0.059669588 -0.13593452 0.47221118 -0.064872004 -0.24292408 -0.3106382 0.20132467 0.24594292 0.036165778 -0.039410673 0.37066352 0.10332505 0.029225763 0.14079383 0.033309203 0.08538105 -0.13309307 0.19759747 -0.32590365 -0.014526619 0.16336207 0.47097287 0.035843156 0.044628147 -0.032940768 0.23022373 0.28515726 -0.04609434 0.08092324 -0.046641383 -0.08951867 -0.0685815 -0.26280093 -0.20914838 -0.14866869 0.06023047 0.15782604 0.04120028 -0.09333134 0.041323144 -0.15691519
290 0.29928613 0.42376074 -0.22783749 0.23161522 0.47113192 0.2552646 -0.071465895 -0.15482453 -0.24768808 0.17982951 -0.0039720917 -0.11496171 0.08665944 0.10954329 -0.1934134 0.15118976 -0.2524502 0.10661611 -0.30827838 -0.0621008 0.001767585 0.13868725 0.20940048 0.3780831 0.078583136 -0.15140021 -0.4047701 0.010097673 0.07463331 0.16965067 0.16840985 -0.2336487 0.34035283 0.22090797 -0.1603628 -0.11901531 0.023272399 -0.0032263836 0.028734025 -0.048891157 0.07315219 -0.023548607 -0.37125942 -0.18972984 -0.1783589 0.11451203 0.06824514 0.05763717 -0.15830746 -0.34747154 0.07985886 0.28034088 0.26174995 -0.06352059 0.10593125 0.33551866 -0.15245572 -0.043089762 -0.08888917 -0.1267163 0.46173933 -0.13950911 0.010941174 0.0032107704 0.2170741 -0.09583269 0.3815189 0.12528062 -0.006710382 0.12161638 -0.020200893 0.15351644 0.24958397 -0.32639748 -0.02421002 0.25189626 0.3024425 0.3321876 0.2464596 -0.033066846 -0.12480159 0.21347134 -0.24400105 0.3030729 0.288789 -0.26679054 -0.041002363 -0.39906004 -0.034507334 0.057870407 -0.11801785 0.0075651715 -0.18983868 -0.21914418 0.11576706 0.18649751 0.14798783 0.16259594 -0.13375872 -0.07139339 -0.1431808 0.01672919 0.38120505 0.068414144 0.09665701 0.09451842 0.067264855 0.17983699 0.3066093 -0.124698184 -0.09826238 -0.010696696 -0.06292983 -0.078926794 -0.1528153 0.06232813 0.08698282 0.08314443 0.15760383 0.07161881 -0.006369643 0.10089141 -0.002537728 0.053464312 0.014903671 0.041589312 -0.045067485 0.09478456
3 0.05364654 0.13081059 -0.099486105 -0.07507479 0.08445837 0.072019465 -0.10516981 0.14875214 -0.09577418 0.3112177 -0.012078893 0.24581704 -0.30257127 0.097230926 0.3202644 0.2996375 -0.11682855 0.15793645 -0.1765505 0.13406377 0.4606548 -0.08732654 -0.12624922 -0.05750729 0.022716794 0.07330868 -0.121539086 0.13939439 0.04396274 0.04280735 -0.13022383 0.27062708 -0.04642166 0.17987455 -0.14846176 0.28024518 -0.06327191 -0.19900444 -0.061185215 0.19917634 0.090133086 0.3687338 0.05961311 0.22154896 0.030219525 0.236619 -0.13261357 0.03544538 -0.056109313 -0.05299698 0.120312475 -0.12321213 -0.0028309843 -0.06510059 -0.09933095 -0.35061052 0.19037883 -0.21538611 -0.22270471 -0.15140018 -0.048954204 -0.018784054 -0.21930438 -0.35963854 -0.028205132 -0.26710793 0.11752733 0.06958563 -0.21966848 -0.17200941 -0.21902227 -0.2149431 0.14859721 -0.052877136 0.12429717 0.3534403 0.1644973 0.017233009 -0.28094962 -0.25779498 0.48192894 0.20102736 0.23722559 -0.01314962 0.11332287 -0.035534713 0.10728519 -0.3243767 0.09057132 -0.0033948892 -0.20165299 -0.28613406 0.40277946 0.19446146 0.067468636 0.17435347 -0.12154465 0.029813532 0.113045335 0.03059374 0.055112436 -0.08424798 -0.0123496335 0.13297755 0.2001378 0.029174041 0.0379854 -0.2823325 0.14379871 0.003191546 -0.09068813 -0.07354014 -0.1101626 -0.21682145 -0.24301843 0.27526605 -0.20575102 0.10761112 -0.02730057 -0.16667095 0.12959321 -0.2933426 -0.2962088 0.0930152 0.32957488 -0.19195233 -0.0054822545 0.15513618
320 0.19419585 0.19026767 -0.24497968 -0.06437903 0.103991315 0.32911897 -0.15953597 -0.1730098 -0.21449487 0.25045833 -0.19516595 0.123052076 -0.24374117 0.31618842 0.33743185 0.088431835 -0.27348277 0.06733976 -0.5952479 0.18595268 0.19432446 0.004968453 0.46399182 0.029349813 0.15194297 0.18908855 -0.13459508 0.09987995 0.120738134 0.13847391 -0.12752807 -0.016723938 0.2775615 -0.053764388 -0.2257125 -0.21027526 0.1794528 0.076045044 -0.046674427 -0.27305418 0.13333681 -0.053165942 -0.15024689 -0.107409485 0.11831386 -0.2164928 0.13536684 0.1003336 -0.27553424 0.00032786612 0.13740653 0.0056244237 -0.1246419 -0.085545026 -0.02423679 0.098156184 0.36946675 0.0047449637 -0.03894499 0.012533963 -0.04813285 -0.14571206 0.045518816 0.29651245 0.04615774 -0.1647048 0.038005 0.12616058 -0.24181166 -0.05956804 -0.18082349 -0.24385318 -0.11396187 0.0794604 0.017804887 0.10349004 -0.07683302 -0.12087795 -0.099988796 -0.24952865 0.06208027 0.32049057 0.098962314 0.1295583 0.0029427689 0.15239042 -0.06811459 -0.25068995 -0.027496792 -0.18944071 -0.040402528 0.03387568 -0.0058575054 0.081520535 0.34994525 0.4888391 0.041682765 -0.1816284 0.024003077 0.18258497 0.19148889 0.16923995 0.14898652 0.45857084 0.032893512 0.1572856 -0.02336881 0.21086939 0.106782615 0.28237626 -0.13425831 -0.045575544 0.21848373 -0.06678008 -0.21816374 0.03305878 -0.24368995 -0.024977166 -0.05103417 -0.24257551 0.2920065 0.1572641 0.13802685 0.13404694 0.3920461 0.06604564 0.013016692 0.32371894
61 0.05582282 -0.08855492 -0.27558538 -0.06539006 -0.01643753 0.0012653908 -0.033834923 -0.097845115 -0.005876775 0.077924035 0.09878203 -0.051962685 0.2288282 -0.16704969 -0.14511201 0.06548154 -0.080469884 0.13242094 -0.17598711 -0.046754986 0.10018041 0.1459736 0.0017325577 0.06636172 -0.11579301 -0.03573203 -0.35061678 0.025649041 -0.16879575 0.19760503 -0.09290287 -0.04491218 0.057617504 -0.21614096 -0.15915039 -0.056416 0.11667398 0.09821173 -0.17504016 0.09655774 0.070184134 -0.13700008 -0.16815692 -0.3171196 0.35638976 0.049157996 -0.164834 -0.13915466 -0.30364487 -0.027330168 -0.18729825 0.012110216 0.19873914 -0.28202084 0.36123383 0.038728062 0.19574589 0.1953438 0.02346657 -0.027006602 -0.12038738 -0.016250376 0.03750808 -0.049767848 0.23789796 0.11528068 -0.09004479 -0.3497883 -0.42103937 -0.24507095 0.03499241 -0.15857491 0.022090232 -0.104635715 -0.060654387 0.3122892 -0.2910009 -0.20780607 0.07993744 0.08422639 0.031650133 0.17965187 0.029917143 0.18013147 0.41290483 0.06144989 0.18800387 -0.48784605 0.05610672 0.15953317 -0.008744489 -0.095080085 -0.24888287 0.00784344 0.2295499 0.21118739 -0.3659194 0.11133222 0.13202572 0.0038437531 0.130033 0.09318213 0.19701074 -0.12365054 -0.021223066 -0.17659435 -0.30170995 0.24916898 0.29909447 0.044712294 -0.18839674 -0.15093379 0.103819445 -0.14336626 -0.03713644 -0.0017582154 -0.27803883 0.28648886 0.15226412 -0.12887162 0.08882306 -0.43685225 -0.06923832 0.024028122 -0.042579368 -0.08254937 -0.4212364 0.12490408
88 -0.101032704 0.115067236 0.16357347 -0.20670155 0.4299357 0.08100635 -0.013174465 -0.0069587957 0.33814692 0.060385887 0.14421691 0.036627464 -0.2985182 -0.13501371 -0.04171833 0.6635183 0.16382656 0.06823335 -0.18906933 0.16047208 0.50745124 0.09379875 -0.061140772 -0.13391942 0.33440694 -0.15486509 -0.25934413 -0.21170278 -0.22089331 0.21797869 0.08658255 -0.09378234 0.16024365 -0.14095736 -0.19023794 -0.11748681 0.20165776 0.10999662 0.062969156 0.054790042 0.0960693 0.14512345 -0.015994284 0.055825956 0.10371517 0.14897801 -0.18012275 0.02399601 -0.14053251 -0.015038915 -0.107396744 0.06560021 0.30522925 0.1387662 -0.3353375 -0.17785677 -0.030267958 -0.067148186 0.118324265 0.2054832 0.40025952 0.025724461 -0.045493282 0.07940248 0.04805045 -0.17785388 -0.03289409 -0.056299288 -0.03322145 -0.022586558 -0.49852824 -0.18891808 0.42254266 0.19538364 -0.100863926 0.1860711 0.0346069 0.14400241 -0.06334422 0.20584562 0.045068692 0.2632605 -0.0147765 0.11799914 0.01218643 -0.04754722 -0.18515489 -0.044568412 0.21502681 -0.13329224 0.048054546 -0.07342874 -0.09017838 0.0057263616 -0.08028554 0.056075104 0.03242861 -0.31625372 -0.07708904 -0.055632975 0.007733308 -0.13189898 -0.03046741 -0.13902965 0.053231 0.034671556 -0.14656657 -0.11738032 0.14429335 -0.3969653 -0.28341842 -0.13264787 -0.047911033 -0.18394673 -0.22388507 0.025740884 -0.18158638 0.36473882 0.14173183 -0.14533727 0.11443547 -0.35739478 -0.0063947313 -0.22780047 -0.098178685 0.1418675 -0.046949796 0.14803411
176 -0.036576707 0.11793499 0.23997806 0.18355264 -0.21041524 0.30434605 -0.30629477 0.024001775 0.110697925 0.1804664 -0.033295624 0.21469666 -0.15418184 -0.11010663 0.029208293 0.039623883 -0.17904633 0.05891328 -0.24466929 0.025332415 0.122079745 0.36128783 -0.041897457 0.11826653 -0.08262978 0.15555826 0.0030060073 -0.088806614 0.06510329 0.11487454 -0.13719209 0.41359317 0.031613156 -0.10318354 -0.49043944 -0.10826613 0.23106746 -0.21189147 -0.107061304 -0.20542382 -0.16881196 0.08459042 -0.1817838 0.18261273 -0.02206718 -0.035212327 0.011687726 0.24988692 -0.20419125 -0.27615348 0.035600055 0.18632357 -0.10280681 -0.14714888 -0.32971114 0.14000867 0.32533893 -0.19495177 -0.20848124 -0.123779155 -0.2886716 -0.070638455 0.01369509 -0.04491612 0.14604071 -0.20424311 0.22459787 -0.12966855 -0.14921759 0.25825438 -0.18748361 -0.10897406 0.04832585 -0.09241075 -0.23893474 0.08410573 -0.11249799 -0.2635112 -0.028702505 -0.02867759 -0.18701105 -0.27582654 0.1865385 0.038783446 0.11829487 0.11550759 0.0058579342 -0.07806166 -0.13852881 0.25713193 0.1143037 -0.5412405 -0.16749294 0.10345464 -0.048424747 -0.07916873 -0.14074324 -0.29186442 0.07234887 0.16206701 -0.032392077 -0.14718162 -0.044096697 -0.096340805 0.24018955 0.106349215 -0.012414433 -0.01498611 0.34613895 0.060223904 -0.025963465 -0.2012323 -0.079981074 0.10880183 -0.031631254 0.086000875 -0.12983447 0.3856833 0.05274284 0.07368597 0.3864723 -0.11643147 -0.07832324 -0.073337175 -0.12992854 -0.0750002 -0.56719804 0.34165478
118 0.36493927 -0.08627099 -0.028205909 -0.097230315 0.21118665 0.31807724 -0.038825892 0.08989377 0.17943825 -0.051106445 -0.0035776508 -0.070294864 0.04498929 -0.15960114 -0.09627695 0.12410085 0.13682742 -0.12809987 -0.36839923 0.37729555 0.04373069 -0.106485054 -0.24242888 0.17924894 0.028161556 -0.09938685 -0.03267097 0.20341402 -0.06656596 -0.015864763 0.24700567 0.5628429 0.03446598 0.08885585 -0.11108613 -0.09931662 0.19677272 0.17852809 -0.038008235 -0.27841344 -0.17630734 0.39678898 -0.089583024 0.14501302 0.4052696 0.19478875 -0.057593983 -0.18746865 0.027242519 -0.2655414 0.026864462 -0.12389094 0.13252947 0.17305884 -0.33652106 -0.15434185 0.28029454 0.07731654 0.0402349 -0.09858323 0.053333808 0.32975584 0.020989459 -0.52525836 0.38572648 0.1792703 -0.050352726 -0.013492293 0.15325376 -0.071333535 -0.2878969 0.22051091 0.1463046 0.12196051 -0.0022496695 0.06217138 0.30333903 0.41998592 -0.065429084 -0.36401665 0.040656146 -0.2567846 -0.07276746 0.098556 0.2007734 0.16853188 -0.052093815 -0.067026675 -0.038449872 -0.011353078 0.18665561 -0.12846424 0.13257304 -0.014703267 0.16011804 0.20054542 0.029346552 -0.21723843 -0.086276524 0.105074406 -0.19845271 0.14889915 -0.22805926 -0.31780687 0.08142514 -0.0010483481 -0.19851173 0.21620181 -0.011582583 -0.14332849 -0.12120469 -0.017561015 -0.019274019 0.075679265 0.29433045 -0.03577648 -0.14076541 -0.17139317 0.02028223 -0.2986661 0.025855474 -0.25916404 -0.20072278 -0.49137607 0.15003994 0.3361409 -0.05146463 -0.0467706
106 0.26886955 0.085666396 0.23650904 -0.08873671 0.066448644 0.065770544 0.36092368 -0.23115426 0.081802346 0.16798723 0.34937155 0.22380488 -0.0818583 -0.026079327 -0.07894151 0.58436483 0.21944928 0.06801433 -0.11594122 0.39883986 0.11868274 0.19439241 -0.21566324 -0.1977137 0.07811915 -0.0048337365 -0.20670462 0.04964286 -0.29076108 0.002218925 0.004257342 0.04994201 -0.03632659 0.19170558 -0.30279538 0.2202922 0.2786312 -0.022042751 0.14740229 -0.16028169 -0.09087686 0.17452146 -0.020798728 -0.2965261 0.1600569 -0.12759705 -0.02814431 0.19335276 0.06017828 0.09665056 0.045419555 -0.033585772 -0.23946722 -0.29921538 -0.022712298 0.2382765 0.27966598 -0.09859604 -0.060808185 -0.10937459 0.020619035 -0.054138225 -0.010396082 -0.0039275317 0.2009638 0.20945759 0.2197322 -0.044826876 -0.29944912 -0.24533486 -0.35018802 -0.108198896 -0.11262588 -0.096923694 -0.40925157 0.33007103 0.01638026 -0.015993476 -0.17002685 -0.0016275822 -0.31051418 0.19426689 -0.11679856 -0.085350156 -0.062173326 -0.26670992 -0.10989199 -0.34302408 0.20636272 0.2296328 0.40016738 -0.14173469 -0.024701722 -0.04508983 0.07820633 -0.16375448 -0.13506623 -0.086621724 -0.13658911 0.030449735 0.32002825 0.30210856 -0.3702697 -0.26566693 -0.046800736 -0.07087989 0.028864058 0.23839547 0.0045160977 -0.008660036 -0.089197755 -0.31799194 -0.016413547 0.12326556 0.09341992 -0.06398565 -0.14527427 0.025031548 -0.0031235283 -0.09387231 -0.109265804 -0.33792964 -0.22539277 -0.044764712 0.010817188 -0.20786583 -0.12081482 0.13354142
40 0.31793284 -0.3024677 -0.21530826 -0.20484123 0.14007412 0.23631261 -0.25570756 -0.04167802 0.15671615 0.14153585 -0.016160345 0.09839248 0.11837325 -0.056297425 -0.17762043 0.25118184 -0.13528809 0.12443481 -0.2640742 0.12166281 0.09444659 0.32742053 0.31695172 0.35609117 -0.102178834 -0.20239948 -0.51563865 0.08247994 -0.2937618 -0.030281456 0.12734541 0.012725235 -0.033202562 -0.24499738 -0.2749877 -0.0122955125 -0.06822202 -0.1828693 -0.15748064 0.11291583 -0.09039399 0.13943757 -0.004842606 0.13634293 0.20719013 0.2413936 -0.037649106 0.1599745 -0.27791992 -0.014693427 -0.33988476 0.039993685 0.03805045 -0.22303447 -0.23923625 0.12267293 0.2400622 -0.1607759 0.13212477 -0.16591373 -0.026448749 -0.082522884 0.21515839 -0.031147128 0.10260961 -0.025638675 -0.30367452 -0.30292842 0.10789703 -0.112781435 -0.23829867 -0.14831978 -0.34158406 -0.3810923 0.009868724 0.018742546 -0.4688746 0.107633345 -0.22279243 -0.4275542 -0.17246215 0.2700494 -0.18990946 0.14999479 -0.29427487 0.07609594 0.16827796 -0.07038738 0.17011589 0.12769537 -0.17481239 -0.089984 0.037865 0.13461669 0.13128924 -0.052973453 -0.2772003 -0.23773308 0.062061388 0.33321717 0.23743328 -0.02885637 0.158056 0.05232997 0.21528266 0.2178281 0.30508247 -0.0021116142 0.011823209 0.09592091 -0.17749582 -0.10059728 0.033425532 -0.20102622 0.2590965 -0.048251923 -0.1455199 0.20118473 0.06700776 -0.39620113 0.04997757 0.029372064 0.13057834 -0.045387655 0.15143786 0.2345132 0.17453834 -0.12025071
151 0.034697242 0.21760295 -0.63479286 0.021252176 -0.08484124 0.023579272 -0.14142959 -0.101033084 0.037363667 -0.002099241 -0.114121445 -0.0987527 -0.19885609 0.11405946 0.28623632 0.06433432 0.07798602 0.060528815 -0.056421947 0.17519481 -0.016325288 -0.08072576 0.14007768 -0.042690143 -0.09770377 0.35676232 -0.25417176 -0.42956918 -0.044708636 0.15718704 -0.077647075 -0.016243692 0.024261711 -0.1360186 0.099004194 0.05224262 -0.26910284 -0.009600324 0.18760179 -0.17800641 -0.06895718 -0.29751983 0.18334723 0.13885917 0.08206471 0.07791429 -0.069296904 0.0010581902 -0.041545805 -0.29300794 0.10656064 0.10798885 0.07301524 -0.10674872 0.1714578 -0.06195656 0.41792038 -0.105698496 0.16502751 -0.061253082 0.01707742 -0.37019265 -0.15884094 -0.008875081 0.18719871 -0.018476103 -0.17826833 -0.36058927 -0.22200797 -0.1292909 0.16877879 0.071322985 0.22482125 -0.14872058 -0.008333443 -0.008315687 -0.23276883 -0.12494709 0.067779444 0.008564601 0.04001922 0.0151233 -0.11269313 0.15076607 0.3157308 -0.035205387 0.024190186 -0.23480114 -0.12845509 0.2411105 0.07455067 -0.16575989 -0.04014992 -0.05813126 0.22049315 -0.17344117 0.1524529 -0.27900368 0.37617627 0.07499554 -0.27522922 0.115641005 -0.042356018 -0.0845764 0.26441252 0.058348406 -0.097171046 0.023742337 0.20181002 -0.327571 -0.17905195 0.09955231 0.030743167 0.23799232 -0.14007026 -0.110330194 -0.18942785 -0.1891533 -0.077852406 -0.25833756 0.12825169 -0.13341911 -0.1011394 -0.50801706 -0.21062551 -0.21333307 -0.16857526 0.53254426
27 0.22337712 -0.055361632 -0.10072705 -0.28285927 0.3810308 0.2652948 -0.04429971 -0.31204554 0.111909285 0.17360514 0.024637626 0.078363776 0.06788893 -0.059516102 0.12655532 0.10319077 -0.0438293 -0.06322218 -0.33736375 -0.2375023 0.15213737 0.2685793 0.24879378 -0.15413092 -0.13098793 0.30230471 -0.28675866 0.06777853 -0.23203738 -0.15029079 0.17353305 0.020583384 0.1473102 0.034117226 -0.027971245 0.3130306 0.19972515 0.17061144 0.051473923 -0.08386475 0.1388856 0.07938794 -0.0037771473 0.34090635 0.28653142 -0.087441385 0.0720917 0.040279087 -0.11633998 -0.11275661 -0.03411985 -0.30165738 0.08782334 0.17721523 0.18967596 0.0933388 0.27957043 -0.32613957 -0.24301751 -0.09031286 -0.16273531 -0.12815376 -0.2711452 -0.067161396 0.22089666 -0.016066812 -0.15192053 -0.3533005 -0.3449145 -0.039069302 0.09265313 0.024990752 0.12996697 0.32127422 -0.3749875 -0.05379347 0.101758555 -0.1373235 0.01940831 -0.09222444 -0.27212733 -0.025401955 -0.05933831 0.1398512 0.04646996 0.13561872 -0.097734936 -0.30321178 0.54348767 0.1966859 -0.28094718 0.029365314 -0.037313074 -0.12683438 0.20174716 -0.08642056 -0.1209364 0.15527788 0.00046845892 -0.06853644 0.18494931 0.21477969 0.014653945 -0.19006816 -0.114207305 -0.056589864 0.056310505 -0.037523493 -0.025601292 0.022702929 -0.07838896 -0.13516262 0.0645066 -0.44986862 0.011480864 -0.2675053 -0.12636222 0.018093644 0.20395161 -0.0806101 0.119668424 -0.06332558 -0.23697178 -0.2214348 0.01988435 0.06608136 0.07430103 0.045925867
99 -0.14985001 0.163208 -0.025465272 -0.00084433233 -0.19413328 0.110680446 -0.15033029 -0.054287333 0.029467506 -0.0076426165 -0.009269384 -0.0480543 -0.26585212 -0.15848398 0.1340024 -0.16121837 -0.3302694 0.16879256 0.06506655 0.091975816 0.24535212 0.069429465 -0.014387712 -0.046742294 -0.0108032655 0.1023883 -0.33355087 0.015928034 0.20604457 0.48492447 0.37971064 0.12772012 0.018896375 0.10039376 -0.4150282 0.018961681 -0.17526841 -0.15395822 -0.017409049 -0.14862359 0.033626206 0.28483313 -0.2008104 0.12913695 0.17153737 0.15154442 -0.5841083 0.09543806 0.081204996 -0.04867965 -0.08747084 -0.15591672 0.11369915 0.012881504 0.0009883479 0.083114766 0.22539838 -0.22267126 -0.018090632 0.011090944 0.037981912 0.10019733 0.16272548 0.079490356 0.5100858 0.1963024 0.22107226 -0.22964251 -0.32539502 -0.030027954 -0.009396167 -0.19263968 0.038254585 -0.2359216 -0.13927172 0.12511154 -0.13012515 0.17964603 -0.11102966 -0.039335947 0.11518074 0.24696125 0.42483285 0.49667162 -0.0022551196 -0.08412714 -0.13446079 -0.35235307 -0.15153876 0.07736664 0.11529969 -0.57650733 -0.2586222 0.04650968 0.29037514 0.00011958979 -0.20087104 -0.043209266 0.043394066 0.15128568 -0.08720116 0.057284422 0.08874089 -0.32733166 -0.015144369 0.280567 -0.4789765 0.36318967 0.35727912 0.072882794 -0.11417089 0.14313345 0.0074357428 -0.21336648 0.1468652 -0.027680967 0.06883546 -0.010811781 0.052132897 -0.04696761 0.12163862 -0.24086493 -0.32004976 0.064196706 -0.4027729 -0.08571559 -0.09137621 0.057011656
