439 128
5 0.13496374 0.18918692 0.08231034 0.2074391 -0.17586143 -0.30218533 0.38083544 -0.13897483 0.13347884 -0.24582762 0.3046798 -0.24009767 -0.0067198053 -0.06809868 0.2218387 0.21049936 -0.058395933 0.1290169 -0.14302959 -0.06572153 0.15974599 -0.17620221 -0.16664349 -0.17168225 -0.040529236 0.13928318 -0.1263901 -0.14119129 -0.21157475 -0.2721425 0.045789916 -0.14918216 0.22766848 -0.38016418 0.028181965 0.07155242 -0.0068225004 -0.24823934 0.13628624 -0.29195833 -0.4110981 0.27860272 -0.08383413 -0.22696875 0.098297656 -0.26452523 -0.20004582 0.2771716 0.08921771 0.17639704 -0.21260138 0.2869695 -0.14731428 -0.18796442 -0.28310764 -0.46426842 0.034451023 -0.33931908 -0.47153044 -0.0017677153 0.15658674 0.020325143 -0.048748426 -0.25695965 -0.095013365 -0.06368487 0.24351919 0.09299501 -0.1224958 0.15568495 0.03198729 0.38465217 -0.16970074 -0.16213611 -0.063002475 -0.1615759 0.05722567 -0.12729286 -0.17493184 -0.14637332 -0.099664114 0.2574034 0.16708326 0.21462674 -0.1677223 0.08836675 -0.0437568 -0.21330109 0.011951565 0.26045567 -0.07878416 0.09944954 -0.064562686 -0.12275526 0.16233744 0.059569497 -0.34430215 -0.43247312 -0.38963163 0.05566457 -0.11077607 0.04400567 0.08777181 -0.10443578 0.2423062 -0.037022665 0.079138 0.59401125 -0.11574146 -0.12891287 0.009758385 -0.39823157 -0.14359728 0.064704284 -0.20835291 0.32254133 0.15727615 -0.047240112 -0.07675197 0.042185657 -0.019427333 -0.051523544 0.12121402 -0.22672932 -0.009504751 0.12843874 -0.026285062 -0.045798898
4171 -0.28919774 0.27691567 0.03648167 -0.16982631 -0.06292713 -0.22301857 0.15508038 -0.06447501 -0.004070615 0.10741771 0.16836984 0.42078188 0.073060155 0.030232575 -0.158324 0.1095785 0.16661201 -0.046462018 -0.055517543 0.09363331 -0.007545628 -0.22501893 -0.051268417 -0.23602216 0.010497392 -0.30796438 -0.038172808 0.0041357176 0.027030073 -0.2516929 0.15144119 0.049145043 -0.16748458 -0.16322748 0.054938566 -0.031148374 -0.12095369 -0.050781228 -0.07537304 0.043652866 0.043567706 -0.17892735 -0.06256245 -0.1311271 -0.08402456 -0.031462274 0.033930868 -0.139835 -0.48161292 0.21613427 0.112066105 0.2253029 -0.03957797 0.10917217 -0.10464191 -0.11244686 0.2545081 -0.0093441615 0.023739956 -0.09766369 -0.09279992 0.3489115 -0.08037208 -0.3099592 0.3029826 -0.03980614 -0.11010451 0.1353949 0.14380476 0.2795566 -0.34182733 0.05382947 0.14459571 -0.16225982 0.057501942 -0.20603974 -0.18785271 0.4636348 -0.3935348 -0.046500582 0.028610408 0.03280117 0.14424583 0.23914364 0.18062969 0.07996231 0.17364684 -0.12688409 0.017794099 0.44681385 0.071901366 -0.36844665 0.10235096 0.048510235 -0.040992714 -0.15420802 -0.08445277 -0.15393336 0.09317484 -0.03287017 -0.099022165 -0.18515103 -0.008396028 -0.021207767 -0.024749467 0.007920137 -0.49155763 -0.20595025 -0.043457385 0.26079112 0.07364969 -0.26286703 0.008726482 0.16980782 0.046054363 0.4297532 0.12369744 0.13465866 -0.11373254 -0.10022821 0.141436 -0.023573944 -0.007884137 0.28366905 -0.23507188 -0.2589517 -0.41561034 -0.11012093
5020 -0.068179406 -0.1515146 0.2448399 0.17653365 -0.14723423 -0.15510614 0.014760726 0.03739422 0.052211262 0.19237703 0.029787224 0.101342425 -0.18941976 0.02712463 0.113918476 0.2861245 0.2011729 -0.10946028 0.081267506 0.38606614 0.35541487 0.06817794 0.16911334 -0.50907147 -0.072952814 -0.020379461 -0.12712382 -0.00897202 0.33579713 0.2177026 0.017546771 -0.41377747 0.27503642 0.22952725 -0.034297176 0.26799402 -0.14318734 -0.014089601 0.28851366 0.33335626 -0.05032599 -0.060896393 -0.0109249465 -0.21049316 0.20087312 0.38663328 -0.15123847 -0.45828974 0.046538126 0.16169156 0.31022382 0.13510105 -0.025389906 0.012000421 0.24343443 0.14899924 0.23987162 -0.03354881 0.17527722 0.16280042 0.070514455 0.21690065 -0.33332825 -0.0047180727 -0.18572235 -0.16111106 0.07696339 -0.13885395 -0.25028428 0.5315218 0.24394198 0.29455256 0.061743814 -0.042789254 0.16115342 -0.046617374 -0.15949805 0.10943083 -0.07512 0.15037249 0.3018801 0.12376428 -0.31412 0.41003427 0.034447446 -0.161697 0.07607571 -0.1422498 -0.053752657 0.15345284 -0.009717796 -0.11788185 0.053026922 0.023129031 0.2634011 0.06440518 -0.33026913 -0.20457633 -0.019099789 -0.14850995 -0.20084159 0.20931038 -0.13218449 0.0100444965 0.11635001 0.17293017 -0.08056864 0.19796851 0.012264358 -0.047133762 -0.14687414 -0.07652589 0.026408864 -0.22924125 0.10816661 -0.034183588 -0.113930814 -0.061112583 0.06767169 -0.1436715 -0.26972082 0.07915773 0.016171234 0.09898491 -0.0817148 0.019188313 -0.0062539005 -0.21396911
5789 -0.09767651 0.02408837 0.050399948 0.06639311 -0.035592545 -0.12490856 -0.2268121 -0.2619784 -0.108560495 0.064276524 0.064809054 0.5896587 0.001965647 -0.20055589 -0.18707232 0.2978624 -0.23895922 0.031547308 -0.35273418 0.23259301 0.11589602 0.15132983 0.05455471 -0.13774946 -0.2013712 0.4267542 -0.12234032 -0.21895057 -0.27494317 0.4404045 0.20853794 -0.061812054 -0.13418768 0.023584895 -0.076806135 0.13762157 -0.10927529 -0.32917187 0.6036441 0.2875227 -0.5260443 0.14370106 -0.24160919 -0.13901483 0.13627921 -0.095514216 -0.02365112 -0.15209304 -0.08377233 -0.030481381 0.1917966 -0.0035272297 -0.11078576 0.11213299 -0.07741698 -0.3170338 0.18082227 0.042767555 0.13396168 0.11654318 -0.060425512 0.14359763 0.11425692 0.07346853 0.14903161 -0.05387223 0.10266389 0.058465388 0.21107778 -0.08309299 -0.22884528 -0.20598003 0.03846217 0.008276469 -0.04969295 -0.05699921 0.14769898 0.07480988 0.01776967 0.064152725 0.15613973 -0.14561707 0.26299652 0.43827015 -0.16240676 0.00085573114 0.037813608 0.039663613 -0.31188744 -0.068718836 0.26530915 -0.16237415 0.16591503 -0.07377067 0.04369862 -0.16785431 -0.45707977 -0.014970212 0.2646553 -0.20649041 0.07302291 -0.1722338 -0.113517955 -0.053424038 -0.099729635 0.22499734 -0.19325072 -0.024803529 -0.115805045 0.15203156 -0.034211118 -0.35861745 0.25802594 0.14770825 -0.09836942 0.019319793 -0.19918253 -0.11175446 -0.08885758 -0.10596657 -0.12781088 -0.2302781 -0.08855869 0.14030889 -0.2061702 -0.04980162 -0.19405897 0.25043634
1494 -0.010536485 0.26731455 -0.20931351 -0.123691976 0.09815412 0.12819113 0.1556086 -0.0949197 -0.09042092 -0.028031982 0.018994996 0.26970515 -0.35402244 -0.21343638 0.110510334 -0.07955748 -0.26585218 -0.29414234 0.09320329 -0.040033188 0.2126088 -0.11714878 0.32266474 -0.36214066 0.045190126 0.12508333 -0.2894198 -0.19479695 0.030137448 -0.39126056 -0.017334566 -0.33008966 0.08590778 0.052748043 0.11205508 0.14464046 0.045490775 0.065463856 0.14071538 0.016200049 -0.045448225 0.27801302 0.029285952 0.2649572 0.017741583 0.2362932 -0.18829656 -0.28251442 -0.06780102 0.2573546 0.31972107 -0.1387913 0.09814009 0.1321661 0.13106622 0.11938083 0.13738234 -0.23378558 -0.30751318 0.098597035 0.19690752 0.19108793 0.33246562 -0.11551061 -0.15222016 0.107515134 -0.3458257 0.054625895 0.21548294 -0.080903806 -0.08912513 -0.17920771 -0.077632934 -0.34232244 -0.27150676 0.072944015 -0.15368171 -0.14940086 -0.020608973 0.3817184 -0.36441433 0.026046768 0.16983981 0.22682549 -0.3827729 -0.27789414 0.29228827 -0.32937115 0.61717385 -0.028128885 0.16129245 0.0082534645 0.19363326 -0.22186577 -0.012891067 -0.0068849935 -0.23791291 -0.1611545 0.016230173 0.010233934 0.019941438 0.17665987 -0.19268574 -0.19899619 0.17725681 -0.08163159 -0.1102613 -0.03788059 0.103727974 -0.4166882 -0.008001541 0.009478723 0.080209285 0.13979903 -0.26543394 -0.038489316 0.11044975 0.122780204 -0.0896032 -0.2870662 -0.34498826 0.2635251 -0.19415067 0.07319925 -0.24403112 0.1373454 -0.14418742 -0.16921364
3623 0.08380715 0.06873764 0.11804477 -0.06830853 0.18829145 -0.23310833 0.05846465 -0.018676834 0.08172639 0.05781598 0.12021601 -0.15737 -0.38920054 0.070272684 0.1889508 0.3553314 -0.20529114 0.13551742 -0.02823174 -0.08387407 0.0044038054 0.14163677 -0.19826409 -0.12317942 -0.11395817 0.3047949 0.015662182 -0.09137663 -0.23213252 0.04702749 -0.1186645 -0.09639591 -0.11562974 -0.091959015 -0.3146237 0.0640382 0.0004906498 0.23430681 0.15079603 -0.05891021 0.030670349 -0.0657123 -0.21119261 -0.18627977 -0.0408753 -0.026575817 -0.046187732 -0.19197643 -0.02686317 0.091027826 0.029835312 0.06779785 0.34184548 0.18056943 -0.17997395 -0.038744785 0.040724415 -0.082222015 -0.29053453 0.41173893 -0.05320348 0.3465242 0.29005152 0.02256107 -0.12740563 0.096283786 0.26635534 0.25280327 -0.10146133 0.1140069 -0.015164748 -0.010953904 -0.07554373 -0.40082023 0.079578854 0.110875994 0.07145356 0.0007097646 -0.057903353 -0.09053921 0.07437695 0.07972926 0.008673898 -0.035060667 0.006492105 0.23703875 0.36824962 -0.054241955 -0.08685916 -0.048474375 -0.22093558 -0.056842778 -0.033362504 -0.14021209 0.028031105 0.28031603 -0.16224419 -0.3083398 -0.2794143 0.47039792 -0.22197835 -0.007770989 -0.041272856 -0.10217408 -0.34256536 -0.1432442 -0.35505828 -0.05663928 0.20855859 0.11586006 0.08861522 0.052352227 -0.24004684 0.00407996 0.18050618 0.12870802 0.2565835 -0.08200443 0.105032146 0.02916031 -0.07250087 -0.045757942 -0.30314878 0.118369885 -0.15893076 -0.4113982 -0.1016563 0.26757967
1049 0.114420846 0.06342151 0.14287896 -0.03673999 0.0325842 0.17476754 0.060332917 -0.24656671 0.48481536 -0.15976802 0.09522149 0.020682884 -0.21612689 -0.18373477 -0.01539186 0.13497342 -0.019045282 -0.11561174 -0.072166905 -0.037957206 0.031321418 -0.081910774 0.26730594 -0.3801082 -0.2143024 0.2978605 -0.22328308 -0.16156062 0.23478816 -0.13001645 0.023054836 0.004102823 -0.38031533 0.28147766 -0.008285941 0.111320674 0.09788641 0.07368942 0.13836707 -0.36649194 -0.0046426984 0.18022187 0.21731223 0.054564282 0.05164192 0.10835815 -0.12293687 -0.07521904 0.133632 -0.074983284 0.034952406 -0.009242097 -0.07877709 0.12121015 0.004611807 -0.15833159 0.052122373 0.053144235 -0.025650313 -0.3673209 -0.09988478 -0.27747783 0.22785527 -0.39269623 0.34408173 0.34858343 0.058989126 0.32659912 0.14952447 0.044685397 -0.2606704 -0.1441824 -0.05640292 0.15522695 -0.109883204 0.3534805 -0.48089266 0.21785681 -0.0371395 -0.025014585 0.17573546 -0.23129268 0.13049038 0.15308926 0.19469388 -0.030822054 0.34149387 -0.17116219 0.2405949 0.16468923 0.018720789 -0.39044708 -0.229837 -0.01668485 0.16911758 0.14488456 -0.33236828 0.044291858 -0.06167599 0.0142816175 -0.29512632 0.17425194 -0.08899224 0.28154847 -0.049495067 0.21404855 -0.32355258 -0.1308311 0.049370833 -0.3536058 0.14816126 -0.086912684 -0.11800443 0.05667626 0.034734536 0.111242756 0.17090759 0.053320684 -0.4443578 -0.19358917 -0.1439709 -0.2940825 -0.15100767 -0.31486312 0.051392265 0.14254701 0.056286734 0.32333097
3123 0.062939174 -0.010666481 0.047266405 -0.11786559 0.015906552 -0.37482005 -0.03848603 -0.10384631 -0.006141864 -0.05313444 0.13512592 0.16095929 -0.261059 -0.1149104 0.4697816 0.11761686 -0.35909212 0.16244473 -0.26535207 0.09999553 0.038163014 -0.4009826 0.053490724 -0.45112646 -0.27207136 0.15805659 -0.30839694 -0.026594397 0.42937237 0.26291117 0.04375765 0.34738353 -0.0587935 -0.19598344 0.3320103 0.23007415 0.14170486 0.14183958 -0.10213172 -0.14388722 0.1505466 0.52367496 0.003008346 0.026331924 0.016075162 -0.19343674 -0.0046314555 -0.034221634 0.032060802 0.08613022 0.40968373 0.18670121 -0.0035567766 -0.055428002 0.23614657 -0.0033489452 0.25080177 -0.14915162 0.24064273 -0.14591336 -0.25083092 -0.14194147 0.044998877 -0.06551561 -0.2231102 0.2910939 0.05117921 0.33079013 -0.41140163 -0.047321472 -0.3684692 -0.24128094 0.004607711 -0.075453505 0.0636822 0.05382757 -0.5789606 0.08468965 -0.021906737 -0.11450585 -0.057708796 -0.08308843 -0.09070721 0.24630557 0.07229497 -0.11809135 -0.20565198 -0.007945162 -0.004910721 -0.11513891 -0.35255042 0.2686375 0.39622328 0.32995898 0.029852394 0.17415759 -0.028518729 -0.14308879 0.24504131 -0.23076896 -0.18378876 0.017107977 0.02103987 0.34656334 0.15857732 -0.3261025 0.024718137 -0.061977964 -0.051555198 -0.19456989 -0.017477103 -0.12653486 -0.07038829 -0.3209344 -0.14878137 0.37154388 0.4672375 0.003419444 0.22083665 -0.19948517 -0.13534886 -0.20634772 -0.063343965 -0.3694749 0.07823921 -0.14533854 -0.00085651304 0.25749925
16 -0.35050714 0.2327347 0.41703916 0.48349324 0.4518352 0.17949909 0.07647929 0.10484607 0.12162856 0.2033772 -0.026197877 -0.102269806 -0.23640563 -0.3822701 0.27570486 0.047132432 0.034225106 -0.13094078 0.14120808 -0.074728414 -0.0048670704 0.25359264 -0.12641184 -0.07397093 -0.35905662 -0.23242377 0.07476506 -0.3674976 0.19543295 -0.15694176 -0.036606018 0.16305019 -0.16762227 0.16693643 0.13944328 0.22001766 0.32009387 0.07766877 0.09476726 -0.1958435 -0.19556293 0.053312067 0.01708034 -0.09689667 0.02209663 -0.102872565 0.27986518 0.16323285 -0.23626074 -0.11022169 0.014026624 0.29425386 0.055527378 0.0559586 -0.20742726 0.028722156 0.25947085 0.14637804 0.07366765 0.08242308 0.111611135 0.18528841 0.23455516 0.0645333 0.2082133 0.179928 0.07818431 0.16028094 -0.05512775 0.31256312 -0.18012704 0.16147183 0.20891778 -0.20587195 0.19501752 -0.32705867 -0.16254015 0.49353886 -0.23466054 -0.1414915 0.21284226 0.04981811 0.12769945 0.24326707 -0.3107094 -0.21415864 0.008576511 -0.11182148 -0.21457048 0.48779798 -0.0023726323 -0.0015033341 -0.268283 -0.020635255 -0.13900708 -0.50389236 0.10148822 -0.3287445 -0.038693573 -0.09533202 -0.40689558 -0.07055592 -0.04691183 -0.2593599 0.22647549 -0.17218453 0.29468355 0.1281944 0.101793624 -0.21488644 0.17824642 -0.39962935 0.032866932 0.0029218723 0.27897695 0.093039975 -0.042966757 -0.238541 0.12076748 0.22270428 0.15778571 0.08319021 0.2534466 0.0019419447 -0.15319823 -0.11674411 -0.291482 -0.08737544
4713 -0.34626827 0.12600516 -0.01617616 0.12270205 0.28666553 0.21509701 0.20335513 0.36355734 0.03166025 0.33330113 -0.06757324 0.013232062 0.03429831 0.02454057 0.16796 0.08075677 -0.0062212017 0.09852731 0.06296672 0.090242974 0.12209493 0.034016974 -0.003768377 -0.47220033 -0.32889926 0.0025760897 -0.30018753 -0.20949408 -0.025048742 -0.14682901 0.30304536 -0.11595947 -0.13520035 -0.041302614 0.028061884 0.15772429 0.22787811 -0.062012393 0.1857376 0.2060537 -0.29196626 0.08115452 0.2534473 -0.1513071 -0.16436477 -0.028531816 -0.021254292 -0.06173427 -0.22203366 -0.14209297 0.26930603 -0.02614852 0.1645568 0.3059053 -0.057562705 0.37284133 -0.022566684 0.23821941 -0.33038828 -0.2890515 -0.16284186 -0.0002423843 0.12699538 -0.39204648 0.06807505 0.034179084 0.16798292 -0.053534754 0.011566823 0.4386113 -0.16034679 0.19495103 -0.22220723 0.15959376 0.12294848 -0.11919405 -0.118284725 0.33427674 0.05508234 -0.16863963 0.33905336 -0.18028396 0.003194653 -0.49919748 -0.36912784 0.029494714 -0.106551334 -0.04836902 -0.20123501 0.40005827 -0.17685159 -0.009269769 -0.40589455 -0.15087691 -0.03119746 -0.35151485 0.04772494 0.09908796 -0.010529837 -0.13095699 -0.038667884 -0.26075867 -0.05307051 -0.3796714 -0.018983724 -0.15986045 -0.055284932 0.028045317 0.029840747 -0.23702225 0.2678779 -0.33678627 -0.271933 0.16457087 0.017074034 0.4012672 0.03222348 0.042878672 0.13693704 0.23685548 -0.06060749 -0.09373813 -0.048180822 -0.05746705 -0.26774788 0.112838656 -0.26988575 -0.0715414
3818 -0.023125147 0.029421452 -0.08255651 0.057202205 0.02350452 -0.16818874 0.5128249 -0.22131136 -0.30933288 0.050623458 0.002482306 0.51941717 -0.08077611 -0.34996873 0.11854794 -0.06409842 0.119521186 0.07062801 -0.012486103 0.2888119 -0.29780933 0.028681522 -0.19905199 -0.31908146 -0.07296611 -0.0014233051 -0.25247335 -0.16216347 -0.030817544 -0.12855293 -0.11712565 0.23996423 -0.12129021 -0.05000237 0.025405629 0.30980045 0.015509994 0.06943796 -0.17577568 0.062715866 0.025305493 -0.14712405 -0.05112373 0.0074001 0.21003224 -0.10037909 -0.12772979 -0.11464472 0.10844074 0.269307 0.30677757 0.1204552 -0.20699263 0.21436684 -0.37236038 0.023231845 0.027113006 0.15076046 -0.2767542 0.3499525 -0.1616227 0.050160024 0.23037107 -0.082862385 0.05055013 -0.25375122 -0.06282407 0.13138862 0.008473073 -0.14702247 0.21705326 0.0051841307 -0.043782357 -0.028468734 0.20888884 -0.079353675 0.117446244 0.08536189 0.01652802 0.1299261 0.06546902 0.33137608 -0.094182685 0.32433113 0.11331297 -0.1057725 0.48241258 0.0761473 0.23092449 -0.016547026 -0.0059955916 -0.6894465 -0.07309868 0.03385191 -0.19030234 -0.16432972 0.16513911 0.013653626 0.17936318 -0.1494209 -0.040876597 0.08527156 -0.011197241 0.10448569 -0.20921691 -0.064438574 0.26516914 0.03675627 0.010211191 -0.32334518 0.550999 -0.22025682 -0.16133188 -0.14013077 0.20006363 0.5455274 -0.007281081 -0.09240234 -0.17740043 0.26548168 0.03287576 -0.20456472 0.18261547 -0.26102728 0.06016803 -0.1521462 0.13033408 0.029367242
5345 -0.05204554 0.27636898 0.5243284 -0.38143188 -0.02730058 -0.07364054 -0.15138614 -0.05209838 0.012000881 0.0879781 -0.18980873 0.281799 0.17139122 0.055448774 0.042806517 -0.12890106 -0.19897452 0.13178647 0.14594069 0.076948866 0.14996327 -0.4321923 -0.34352675 -0.39627835 0.1775929 0.24800162 -0.045332693 -0.13315745 0.08202185 0.2856849 0.14929396 0.11908871 0.31174698 0.16712277 0.19432917 0.4165882 -0.08211892 -0.15432861 -0.077866435 0.11646822 0.06544062 -0.054342404 -0.031401504 -0.052616976 0.20967972 0.017480401 -0.24646091 -0.5352214 0.015193856 -0.073044844 0.3616673 0.25573388 0.13578768 -0.04821166 -0.018638851 0.035054475 0.42064843 -0.052498456 -0.49774283 0.025430106 -0.19594344 0.11119651 0.047492694 -0.03160974 -0.020210342 -0.18732761 -0.025732981 -0.20243897 0.38092858 0.09328174 0.04808882 0.17422776 -0.2306964 0.049525976 0.39572555 0.047264885 0.19256184 0.2636266 -0.057390273 0.0883002 0.21103077 0.050384585 0.2402115 0.02180286 0.009538026 -0.043339156 0.017728554 -0.32383615 -0.08013037 -0.19403094 0.38306522 0.03907169 0.13936648 -0.05745781 -0.0312933 0.19625892 -0.24576078 0.015937326 0.07662955 -0.21457219 -0.29320443 0.33695897 -0.12085611 -0.30630115 0.21091956 0.5233588 -0.14780438 -0.08968237 0.007325927 -0.09543804 -0.065002136 -0.067212895 0.037103478 0.031946838 -0.113681726 0.17403017 -0.060799178 -0.13145834 0.24987759 0.22884004 -0.07491947 -0.0823536 -0.04255607 -0.03718039 -0.22086269 -0.08346651 -0.074466646 0.1652954
2016 0.16318028 -0.34706694 0.1438329 0.2046828 0.040638637 -0.28165114 0.24441838 -0.06270286 0.35283044 0.33027896 -0.2739372 -0.1558802 -0.16084653 -0.23547886 0.33743092 -0.08948923 -0.0523646 0.0016814208 -0.20187086 0.3618139 0.05981814 -0.08146243 0.14789169 -0.061243534 0.17956698 -0.012912487 -0.10444553 0.036951777 0.38025573 0.3539446 -0.26103148 -0.07089722 0.2111581 0.089129366 -0.2393158 -0.0846485 -0.047823858 0.010984607 0.1475543 -0.03833511 0.27703086 0.075667955 -0.14229038 -0.07045882 -0.07156799 -0.07242352 0.21147856 -0.32095483 0.054624904 0.15535524 0.11498842 -0.24026777 0.05084424 0.2795115 -0.12625596 -0.41303906 0.113320746 -0.3834047 -0.16121557 0.32782182 0.109064534 0.3052173 -0.013682331 -0.048429128 0.1736541 -0.12637785 0.20252138 0.013617882 0.14530489 -0.08995948 -0.015516788 0.029925112 -0.109649904 0.11189947 0.03481 -0.1727505 0.043937325 0.30071294 -0.36718878 0.2522346 -0.439214 -0.24549967 0.020627469 -0.036015693 0.3564314 0.11466973 0.19184339 -0.014101399 -0.061508834 0.005580585 -0.47114915 0.03465651 0.12189043 -0.20392984 -0.033841703 -0.026888685 -0.020682257 -0.3300772 0.18635654 0.12311092 -0.20086612 -0.029230805 -0.12940867 -0.2824451 -0.117549166 -0.24662809 -0.0898398 0.28105122 0.20531176 0.05856739 0.059262812 -0.12729886 -0.11985916 -0.16003892 -0.07183097 -0.2629431 0.035391785 0.013212357 -0.022392761 0.12899481 -0.039177183 -0.48596102 -0.3998426 -0.109959185 0.13455345 -0.30846104 -0.1783085 0.21920244
1074 0.05998544 0.2806368 -0.09451294 0.014177112 0.4592881 0.092509955 0.16249374 0.1575333 0.21278757 0.41622588 -0.052420057 0.08458825 0.029472055 -0.21604323 0.2827254 -0.077414595 -0.035271082 -0.05886397 -0.19750008 -0.3269096 0.07185285 0.10364624 -0.23415819 -0.04266105 -0.32016402 -0.18462388 0.23021853 0.107513495 0.16006929 0.13146578 0.2810855 0.22358693 -0.3589344 -0.08843153 0.099520564 0.10522228 0.028273406 0.08851454 0.06477923 -0.15027836 -0.012898839 0.23650555 -0.18645954 0.017617118 -0.20751196 -0.1878801 0.054679032 -0.3296001 0.038983725 0.194732 0.04813398 0.29709128 0.11415631 0.121765345 0.10042906 -0.50110173 0.48828587 0.21890515 -0.2310748 -0.0029633897 0.054630153 -0.004808209 0.022020599 -0.36751685 0.46677926 -0.33126673 -0.19325939 -0.040559907 0.1452861 0.09151729 0.0589681 0.032261863 -0.1491933 -0.1414876 -0.02604816 -0.066409834 -0.20229009 -0.14725311 -0.29567817 0.4216753 0.15252613 0.34885046 0.25667077 -0.012786628 -0.054593306 -0.1905264 0.08760978 0.34526095 0.0953629 -0.041698117 -0.26220328 -0.1883719 0.016185151 -0.1893657 0.19587228 0.27195132 -0.08086945 -0.30397394 0.021083685 0.105244644 0.16064724 -0.21505074 0.06951286 0.08215489 -0.027607081 0.11781002 -0.21677493 0.06953196 0.006487931 0.038365267 0.022513531 0.06979256 0.058097005 0.12466776 0.0048395474 0.52619714 -0.05562528 -0.24432178 0.16464174 0.15983365 -0.15310095 -0.073315695 0.20992935 -0.23651826 -0.20771983 -0.080076665 -0.25301224 0.014396665
2889 -0.27544516 0.14189982 0.050071493 0.21117952 0.34927803 -0.12857667 0.28806 -0.06653051 0.3770087 -0.32846105 -0.10458088 0.1529959 0.18809097 -0.5188454 0.31315297 0.31365162 -0.14756796 -0.23359191 -0.027004503 -0.27482712 -0.15941145 0.23641784 0.435279 -0.26225898 0.00431337 -0.11592302 -0.046028227 -0.25599745 -0.033635877 -0.36078927 0.11311375 -0.046206668 -0.057573844 -0.07560492 -0.1873304 0.39005426 0.112018466 -0.27019137 0.26454765 -0.092709504 -0.09214243 0.0381933 0.1176335 0.10176066 -0.026920272 0.065817766 0.17028669 -0.35461685 -0.30116895 -0.2870488 0.12877214 0.60389096 -0.46167699 0.044426396 -0.20767985 -0.21502116 0.22425316 -0.14419238 0.015775224 -0.14315493 0.15862295 0.0958684 0.3657229 0.28815076 0.05832993 -0.067334056 0.23174058 0.033411458 -0.0070203976 0.38649368 -0.14072971 0.2345742 -0.30376956 -0.050232865 0.20039853 0.5001659 -0.019815156 0.041019704 0.3991656 -0.03567238 0.14572237 0.16630729 -0.109132536 -0.09458929 0.03976261 0.333889 -0.072563246 -0.2471525 -0.27006269 0.0053285216 -0.15882915 0.3440442 0.33365414 -0.19576414 -0.08783971 0.14306869 -0.10552143 -0.26355788 -0.104040764 0.09212961 0.16914028 0.37982625 -0.21066062 -0.25811633 0.12899894 -0.29956913 0.22491382 0.0014386196 -0.12513733 0.23798884 0.3712679 0.07284703 -0.19480136 0.45488426 0.19203968 0.13417713 0.17840685 -0.3480872 -0.02754432 -0.015534427 0.03189757 0.18747853 -0.22176535 -0.19028056 -0.07966588 -0.14355527 -0.35653493 -0.09621036
4854 0.011534282 0.06554312 0.05777615 -0.32153657 0.12228822 -0.3021924 -0.18748538 -0.1724674 0.23172589 -0.058576554 -0.04215817 0.029544614 -0.12576362 0.04008348 -0.091490746 0.17776027 -0.24296503 -0.13687429 0.2293152 -0.27016568 0.10516404 0.18990237 -0.08108227 -0.18753268 0.16995575 0.17847829 -0.07234667 -0.3237148 0.15023574 -0.09953249 -0.33916238 -0.22638364 -0.22791056 0.18553013 -0.01358428 0.32466754 -0.15345383 0.14275709 0.17852877 0.024652302 0.10212128 -0.044332918 -0.31020328 0.11531521 -0.024392625 0.010710497 -0.3333631 -0.3735111 -0.25563475 0.062601045 0.11474664 -0.049381584 -0.0035868818 -0.23510006 -0.18613952 -0.25410184 -0.17780788 0.19376127 -0.34501883 -0.12074644 -0.14330178 0.19153449 -0.122869946 -0.18276101 0.0063876305 0.056201365 -0.023288026 -0.12982628 0.1190881 0.032671284 0.034408856 -0.07431611 -0.38229093 -0.23405361 -0.2933353 -0.009706721 -0.18647397 -0.03832983 -0.08776553 -0.11073285 0.042651404 -0.10385648 0.17876717 -0.26924497 0.0039388966 -0.0959189 0.08442312 -0.36155075 0.07317822 0.20262124 -0.15105626 -0.1724947 0.16955368 -0.07259864 -0.13939612 -0.33956954 6.511023e-05 -0.13342385 -0.49208426 -0.29952684 -0.22716773 0.047250677 -0.02010411 0.007456565 0.12965588 -0.36216772 0.015877841 -0.023031732 0.039830126 -0.41231796 -0.039079744 -0.07020943 -0.14717275 -0.28383148 -0.01040858 0.06530979 -0.01183855 0.14701998 -0.19629347 0.29618633 -0.35283348 -0.13486463 -0.1750485 -0.062597334 -0.29075673 -0.07418369 -0.1975762 0.023362216
3872 0.09998162 0.23012632 0.22254406 -0.12475402 0.4578761 0.038088236 -0.0855215 0.2632541 -0.16824538 -0.13457808 -0.2739288 0.04845764 -0.03571562 0.08903462 0.014233481 0.38806957 -0.31177685 0.07827933 0.09724495 0.17712137 0.117513016 -0.22585781 0.23965271 -0.1507597 -0.19670437 0.18034457 -0.30737484 -0.235619 -0.0042626574 0.02149085 -0.09422845 -0.023369992 -0.201064 -0.4945938 -0.20205577 0.27531976 0.14905824 0.11695614 0.18945447 0.084644444 -0.1420538 0.25175908 -0.09704545 -0.013375185 0.023924418 0.06627145 0.3102466 -0.32736486 -0.14199303 -0.22188243 -0.12716313 0.39764905 -0.34376743 0.11795856 -0.17169276 -0.28661534 -0.31640387 -0.025377858 0.1589709 -0.16178164 0.1747394 0.17538334 0.09426825 -0.2704994 0.17089485 0.09484708 -0.09460584 -0.23531939 -0.07489447 -0.4437382 0.006278491 0.006671848 -0.23992704 -0.11468808 -0.003906782 -0.13005178 -0.4147348 0.18934493 0.17361368 0.34537587 0.010412898 0.2247794 -0.09834916 0.0027134242 0.42399484 -0.29036915 0.12892298 -0.0814493 -0.20116322 0.06530821 -0.19532306 0.040423952 0.37718743 -0.52484965 0.2652751 0.21665417 -0.52911836 0.052930426 0.024490006 -0.10154811 -0.11440813 -0.14005364 0.035439774 -0.075738475 -0.17954096 -0.44903716 -0.007494303 0.40498468 -0.1587914 0.01535808 0.013952561 -0.3252482 0.031797722 0.17943372 -0.06755947 0.14832355 -0.08900707 -0.16439162 0.27494362 0.24230999 0.16887581 0.31699798 0.15810847 0.31644773 -0.12689735 -0.18335682 0.09554236 0.09772606
1674 0.12509637 0.23826984 0.21859567 0.33518362 -0.26942083 0.18257688 0.3278201 -0.15142287 -0.015496794 0.09438576 0.13790345 0.06601909 -0.21179146 -0.106497794 0.21118064 -0.120164044 -0.18677348 -0.11681503 -0.52813995 -0.284806 -0.2707413 0.027264087 0.118007146 -0.41946542 0.08775077 0.200177 0.2899918 0.16414648 0.3478635 0.09362809 0.019844217 0.16759162 -0.19484934 -0.23527957 -0.16713792 0.1481259 0.109139405 -0.11414048 0.28595102 0.25491014 -0.23733224 -0.20075412 -0.07720118 -0.4864743 -0.0016315056 0.32542944 -0.07349703 0.19253431 0.00919619 0.30256772 0.21969253 0.1124866 -0.14353974 -0.059161488 -0.49198273 0.11304491 0.08875613 0.08167678 -0.012687769 -0.0013518564 0.019058982 0.21267174 0.100006714 -0.20392968 0.15875608 -0.116119884 -0.08559077 -0.0863883 0.2044311 -0.0040532122 0.093733154 0.24421656 0.21158063 -0.47354677 0.21900122 0.1287303 -0.17732096 0.38292736 0.09776346 -0.044999424 0.11484087 -0.23834802 0.06299517 0.1625133 -0.16642979 -0.032920957 -0.0999323 -0.1057994 -0.062479153 0.32314253 0.02183231 0.053923585 0.3888563 -0.248443 -0.11201039 -0.1718584 -0.08840423 0.09983916 -0.30038214 -0.34146583 -0.122264415 0.24770275 -0.044161715 0.12686427 0.1582361 -0.202166 0.2430261 0.16437952 -0.010579292 -0.012924481 0.47133318 -0.12298578 0.2027137 0.2849316 0.067390345 0.15338221 -0.09579382 -0.14573437 0.20360328 0.31565505 -0.02625642 0.0019114447 -0.07294465 0.38791806 -0.15233931 -0.13409448 -0.058126487 0.047916647
3300 -0.122593455 -0.09196928 -0.07133355 0.02789562 0.1545703 0.011736678 0.14755219 0.2241834 -0.10281508 0.05241075 0.012012452 -0.0643139 -0.22905804 -0.22377722 0.2575938 0.16855621 0.02907495 0.039914154 -0.050055373 0.088622324 -0.12015988 -0.30476496 -0.14534494 0.027754698 -0.077339485 0.12083176 0.11914091 -0.0034126106 0.32701355 -0.18934114 -0.32876447 0.28371733 0.32276493 -0.10327197 -0.020769753 -0.06217474 0.51303154 0.033805862 0.2923551 -0.14341441 0.40317643 0.14294901 -0.018711215 0.24713823 0.2907174 -0.2528438 -0.07766955 -0.13777235 0.18542445 0.26975045 0.16772324 -0.07039423 0.110980496 0.24419495 -0.09331698 -0.24276075 0.30681765 0.04715624 -0.14417258 0.19901271 0.04837696 0.14463219 -0.22826327 -0.15748613 -0.050080016 0.2717731 -0.18372467 0.327693 0.031210165 -0.035208046 -0.29356298 -0.18166275 -0.17127109 0.5173531 0.06129703 -0.17088443 -0.098007105 0.27805126 -0.22700956 0.28211242 -0.15604095 -0.14589782 -0.017253442 -0.005747896 0.030208677 -0.007039596 0.025785174 -0.27980304 -0.123544894 -0.043524504 -0.3194039 -0.26678252 0.31493837 -0.17238319 -0.099186726 -0.019432986 -0.2227282 0.07484302 -0.21525696 -0.2585051 -0.2954503 -0.07518784 0.13660148 -0.17715251 -0.24940374 -0.1924621 -0.096388884 0.29433838 0.18680342 0.14365593 0.04715791 0.029284872 -0.04463272 0.1896753 -0.32323548 0.1547976 -0.03763176 -0.23585014 0.034083284 0.1910489 -0.27999204 -0.06520554 -0.15463604 -0.0363787 0.13303506 -0.12188449 0.0036029813 0.049718898
773 -0.07452887 0.20993349 0.25945053 0.11367039 -0.053929277 -0.44266018 0.07692103 0.07116866 -0.29641068 -0.023008471 0.18629952 0.020796845 0.17692612 -0.43864313 0.43662688 0.22715954 0.20041186 0.013482792 0.25231376 0.2506084 0.05297842 0.13329981 0.40667766 0.12490654 0.19022527 0.12853797 0.0056231227 0.5752187 0.19207385 0.1883962 0.041285533 0.2167182 -0.037402984 -0.22558661 0.03686358 0.06529427 0.19246587 0.00083268445 0.051838823 -0.35210228 0.17533942 0.26869598 -0.04739546 -0.030457422 0.05960501 0.06652845 0.03870978 0.09964326 0.3065295 0.28326598 0.10561966 -0.06815757 0.0509513 0.16572863 -0.05132276 -0.23551767 0.48870352 0.07160548 -0.17483264 0.0008988304 0.06985008 0.071656935 0.12764855 -0.12431044 -0.14720966 -0.27053928 -0.054292176 0.025510387 0.27975062 0.038421582 0.1681464 -0.26504302 -0.19242191 0.111548185 0.24189559 -0.053195395 -0.40230164 0.16941424 -0.26410028 0.3392408 0.20793794 0.16467477 0.10468038 0.06841602 0.094460346 0.10512601 -0.25581384 -0.28269607 0.07411406 -0.43125898 -0.50574076 -0.0575204 0.021940747 -0.18932237 -0.1931255 0.07591681 0.018120775 -0.050658207 0.009642276 -0.21993409 -0.2348057 -0.21569882 0.022715831 0.44121805 0.038325958 -0.16477478 0.07455805 0.15298751 -0.03167509 -0.29385528 0.105825566 -0.13734537 0.070925206 -0.090971276 -0.15962797 0.33871242 -0.17479643 -0.022454029 -0.0024950528 -0.008515508 -0.11834309 -0.23217562 0.107960396 -0.056877974 -0.1108002 0.21634525 -0.44522902 0.102170646
1335 0.16966115 0.05052612 0.30361366 0.123090014 0.20109603 -0.053446457 -0.03768071 -0.20281312 0.02037651 0.22619627 -0.24060078 -0.01105677 -0.13733754 -0.091871254 -0.35699007 0.19548781 -0.30815372 0.033399567 0.3077277 0.29819933 0.17442955 0.13701154 -0.22335093 -0.32031637 -0.067306645 0.11375719 0.081732355 0.0441103 0.048055872 -0.14236903 0.16566539 -0.039261647 0.19559267 -0.10145639 -0.21487686 0.3317771 -0.112444356 0.23707627 -0.25658172 -0.12608576 -0.14842466 0.16597345 -0.29876155 0.16907011 0.092885695 0.11978861 -0.14100151 0.07919188 -0.20877002 -0.20128042 -0.074032955 0.043159086 0.2180804 0.062452987 -0.0366871 -0.11548434 0.27038246 -0.09045828 0.095268816 -0.07016606 0.20811698 0.13682333 0.22132781 0.11181404 -0.011956396 -0.28561807 0.035974234 0.37455472 0.069930315 0.15927948 -0.2150716 -0.20078611 -0.16537242 0.15558417 -0.01864477 -0.049457233 -0.10599596 0.05542719 -0.07700771 0.0117098205 -0.09094978 0.12302268 0.035789836 -0.08929023 -0.031960975 -0.29961634 -0.026569994 -0.28877193 0.0022196008 0.21610917 -0.12612829 -0.12635727 -0.07969513 0.06560453 -0.12818618 -0.28579578 0.013213257 -0.06244693 -0.1976617 -0.25686586 -0.08207864 -0.004152328 0.24846585 0.0008509848 -0.19035675 0.099584505 -0.08690733 0.30015707 -0.38410464 0.09220037 0.113283835 -0.18762843 -0.15643491 0.1475212 -0.26226634 0.044931468 0.15402617 -0.14515412 0.1463845 0.00010594595 -0.23371279 -0.07579341 -0.121542886 -0.14508991 -0.12608774 -0.0006161721 -0.022221005 0.017245255
4321 -0.31568176 0.2299421 0.23180655 0.026889255 -0.069279395 -0.22252575 -0.10711916 -0.032487236 0.18414323 0.09053392 -0.08668594 0.18206231 0.41580108 -0.39018592 0.13360344 0.21351084 -0.27067092 -0.17419392 0.33267587 -0.5644519 0.18153836 0.1197843 0.027571531 -0.2501951 0.049261488 -0.15736282 -0.14665964 -0.106398135 0.28060606 -0.16662985 -0.1260414 0.2146624 -0.2830376 0.32934907 -0.16156834 0.17110206 0.26746586 -0.049617704 0.1636716 -0.3048484 0.05059131 -0.003347348 0.32665992 -0.18996386 -0.2583371 -0.05359013 -0.21012463 -0.43546098 0.057803344 -0.053575307 0.30427304 -0.28439808 0.03567172 -0.081533365 -0.03380207 -0.4535636 0.0036005606 0.12661299 -0.25752357 -0.12951833 -0.06422972 0.05122839 -0.0052654506 -0.035686523 -0.18058445 -0.20326784 -0.07499457 0.17424683 0.17922948 0.037217297 0.02740159 -0.267547 -0.14231248 -0.20212562 0.13374746 0.07577221 -0.19330117 -0.16482146 -0.3466644 -0.28590798 -0.037643045 -0.107238054 0.053939078 0.32172891 0.14021592 -0.2105795 -0.092735685 -0.19112173 -0.071508154 0.2284324 0.076655395 -0.13771933 0.12886629 -0.09566355 0.18544863 -0.037474323 -0.10037257 -0.023024317 -0.05895075 -0.32040706 0.10728219 -0.24650475 0.47730213 0.013961593 0.19259864 -0.14372656 0.1534468 0.23262988 0.28493595 0.26649445 -0.09687743 -0.04493674 0.09012193 0.111363314 -0.36076412 -0.009139334 0.18779717 0.14115313 0.15992208 -0.37060782 -0.22238907 0.07814226 -0.32690182 0.05828034 -0.23334113 -0.2320356 -0.3480351 0.1206152
5474 0.17332311 0.03679279 0.49115756 0.007888119 0.38678327 0.099807516 0.20071828 -0.102068566 0.28516793 -0.3641207 -0.0016446399 0.15798855 0.04836115 -0.29298845 0.41033947 -0.09092633 0.14952788 -0.7388601 -0.08194814 0.1875037 -0.14600608 -0.14179125 -0.3980592 -0.3710488 -0.4828883 0.13271828 -0.0023717862 -0.2347376 -0.03248028 0.017045373 0.07363474 -0.22159812 0.034627147 0.114726566 -0.28622705 0.39719313 0.088117205 0.09166141 0.36942837 0.30247048 0.20906034 0.20195813 -0.29254037 0.22320671 0.23740682 -0.24941413 0.06576565 -0.07598626 -0.32301736 0.007600096 -0.1691374 -0.12555167 0.11651057 0.23331438 -0.11012596 -0.19648592 0.13657267 -0.081307 -0.18286826 -0.24167857 -0.11824077 -0.03087571 -0.1903619 0.08691454 -0.13483907 -0.1126896 0.011696545 0.18934217 -0.14067681 -0.02187731 0.122415245 0.11309401 0.08702867 -0.06935438 0.2318987 0.086527035 -0.16096254 -0.20699812 0.015542078 0.1260609 0.15463614 -0.342141 0.3376585 0.09549657 0.001275788 0.06374339 -0.29449797 -0.3377306 -0.041569673 0.13731422 0.075945996 -0.19153178 -0.0074026682 0.2931948 -0.06465902 -0.3061356 -0.13847275 0.053198144 0.0671351 -0.32542232 0.015246709 -0.046552535 0.13586764 -0.12698208 -0.062117815 -0.1282283 0.18453746 0.17906992 0.14559342 0.11087777 -0.06190576 -0.03659923 0.124640234 -0.29939407 0.086443484 0.20450464 0.04645586 -0.03354058 0.31318438 0.01411349 0.19311883 -0.037232753 0.14109837 0.4233088 -0.33355647 -0.34192157 0.26155505 0.1302027
56 0.0345182 0.19444592 -0.2879995 -0.04060254 0.28847307 0.10382121 -0.20068598 -0.18426685 -0.04359542 0.0021239927 -0.119128875 0.2859969 0.28998053 -0.015951969 0.22486004 -0.0141090965 0.25129458 0.07399415 -0.20397918 0.10509466 0.028594602 -0.38544667 -0.40130138 -0.38727772 0.045096654 0.0021067632 0.1976467 0.19314232 -0.35859707 -0.06399187 -0.032634325 -0.31029087 -0.22715619 0.26193118 -0.080206566 0.15608092 -0.4098837 -0.29028755 0.16701354 0.124946475 -0.03966988 0.38172343 0.006967067 0.08678738 0.16607493 -0.042123917 0.2107592 0.0051046396 -0.2939769 0.010432101 0.50046897 0.20450836 0.08605601 -0.23128855 -0.22501315 -0.025657455 0.6144708 -0.23517816 -0.0013693852 -0.34951997 -0.09896732 0.19190197 0.009503737 0.15650317 -0.05241203 0.047625277 0.048424333 -0.10038088 -0.06551666 0.03180749 -0.22984116 -0.23762903 0.036717895 -0.30194002 0.25926754 -0.10878179 0.13376586 0.30673242 -0.035534695 -0.025837941 0.090289116 -0.1472001 0.19875416 -0.16671118 0.18033022 -0.26550066 -0.16036291 -0.5523575 0.061076213 0.22014625 0.17514096 -0.0010992006 0.20435011 -0.020422304 0.06439858 -0.06828666 0.0065093404 -0.19963653 0.3468566 0.015067186 -0.24221975 0.16572976 0.11907115 -0.18149912 0.043365583 0.16294573 -0.1857646 0.28179532 -0.3883063 -0.38870254 0.0019517654 0.040808618 -0.023465142 -0.20871176 -0.2025207 0.1705625 0.13364094 -0.17606385 0.16527069 -0.06950225 -0.15813471 -0.51215005 0.12973261 0.16295661 -0.09210845 -0.24901374 0.1478103 0.0933614
3067 -0.19039688 0.11458916 0.08354148 0.33921143 0.07406778 -0.052104574 0.17142181 -0.33641648 -0.06774399 -0.040222038 0.03861501 0.41700423 -0.17707042 0.14587681 0.11018231 0.08466338 -0.36875176 -0.036738995 0.17883195 0.36696315 0.0024192594 -0.1124878 0.08206716 -0.3004624 -0.18758631 0.0042385873 -0.4912691 -0.3099767 0.05818944 -0.4359087 -0.02367212 0.39641845 -0.2964316 -0.37374794 0.19362848 -0.21206318 0.37012395 -0.38213223 0.08742882 0.3091484 -0.14253968 0.30486843 -0.4280266 0.3608028 0.41412014 0.080295846 0.050026104 -0.26031747 -0.06802368 0.34604904 -0.1308849 0.19390824 0.36818925 0.055557072 -0.33329093 0.2812265 0.4761146 -0.06438292 -0.075971484 0.08922949 0.50848335 0.23382832 -0.052233804 -0.07782135 0.13809784 -0.37394467 0.070646375 0.35108507 0.14166212 0.02177078 0.26132596 -0.20269445 -0.021924606 0.26975822 -0.52802515 0.2900491 -0.12016663 -0.07474659 0.100225054 0.6532939 -0.2409015 -0.3112748 0.10046943 -0.03452583 -0.21798122 -0.31417927 -0.3715499 -0.3304874 0.19958429 -0.19198228 -0.23518836 -0.009760483 0.21192212 -0.4347085 -0.052259598 0.007850955 0.044923406 0.582714 0.047073588 0.15987459 -0.6472337 0.09140423 0.034439113 0.37890476 0.030383829 0.05347053 -0.15801018 0.16708194 0.38115683 0.086057514 0.20409852 -0.5790306 -0.083391376 -0.09663356 -0.22078381 -0.13014908 0.36347264 0.24808303 0.28557456 -0.12862092 -0.590935 -0.092985675 -0.016916705 -0.23148099 0.052612215 -0.055459555 -0.39459378 0.01539683
4572 -0.048215806 -0.19192818 0.06381722 -0.31180608 -0.06741612 -0.02689076 -0.058490295 0.045926552 0.37852058 -0.0066593955 0.0643718 0.25265872 -0.47163287 -0.27315402 0.11385519 0.15025006 -0.10925331 -0.32597682 -0.10281638 -0.070251055 -0.28925034 0.2558277 -0.05403551 -0.43481112 -0.013419948 -0.22437319 -0.16516285 -0.09949449 0.23803028 -0.15335193 0.36810228 0.18365563 0.26438624 -0.090559006 0.32305261 0.05750968 0.19088848 -0.24179526 0.064389 0.11917498 0.21203712 0.33373746 0.093692794 0.14017388 0.52644914 -0.114832774 -0.18865627 0.2384906 -0.19096261 0.2415071 0.056800794 -0.14556192 0.1778357 0.20750518 0.029266894 -0.46676964 -0.0016685147 0.03589993 -0.115263335 0.00020491348 -0.4339079 0.25525585 0.038280256 -0.009360719 -0.082934186 -0.08419871 0.12859415 0.02199385 -0.2517511 0.10119683 -0.23354468 0.21256374 0.01455976 0.092383474 -0.081201635 -0.23034096 0.116802774 -0.007668741 0.07114028 -0.02804118 0.19010317 -0.1644909 -0.041394573 0.3886798 0.3787641 -0.04368221 -0.04720225 0.10061152 0.22453728 0.25093144 -0.26804525 -0.011651903 0.16810088 -0.16594386 0.049081337 0.2711254 0.32562146 0.27576476 0.17605427 -0.01860274 -0.21971847 -0.18509553 -0.21686156 -0.18902223 0.009595448 -0.08260951 0.041661907 0.31276986 0.14570506 -0.65348774 0.36925012 -0.16416383 -0.09778741 -0.029632939 0.018856453 0.27256563 0.15415566 -0.3569609 -0.04234896 0.26081222 -0.385474 0.1077571 -0.10717394 -0.09635236 -0.15796082 0.02269523 0.32084617 -0.048076674
1155 -0.007885837 0.27018636 0.1349799 -0.39528048 0.05909816 -0.23985116 0.024727365 0.15520254 -0.10979907 0.2576416 -0.1726878 -0.07996888 -0.07359755 -0.43353844 0.25865808 -0.02075141 0.13650908 0.027796652 0.103243604 0.08897642 -0.054425195 -0.022037446 -0.12076976 0.112466626 -0.26143268 -0.11045014 0.16656101 0.28305694 -0.23535998 -0.21962729 0.12163688 -0.119207606 -0.30398646 -0.2961358 0.1458868 0.31784886 0.03201033 -0.047296904 0.15984964 -0.06796942 0.11753775 0.08208483 0.0027879376 -0.062235605 0.32520133 -0.015403741 0.05713906 -0.22277023 -0.51117516 -0.021295086 0.25278196 0.31832257 0.03058826 -0.055017337 0.22315562 -0.45194507 0.42440072 -0.4611351 0.09481377 0.11632839 -0.14572988 -0.13095237 0.004301643 0.010560515 0.5089165 -0.11252067 -0.0626924 0.2866983 0.10047323 0.14863183 0.42863613 -0.036760226 -0.07732691 -0.21230327 -0.23023273 -0.26661727 -0.312563 -0.23982584 0.13714823 0.37300888 0.13712996 -0.18910678 0.056059282 -0.072805546 -0.17449075 0.021425143 -0.04065403 0.07680843 0.0024617212 -0.17347084 -0.11205289 -0.11404151 0.083186366 -0.3774372 0.002052274 0.15817724 -0.27959636 -0.40896752 -0.13374616 -0.40090466 0.2032295 0.020483332 -0.19199638 0.22790684 -0.022247452 -0.31615162 -0.31836176 0.015998848 0.013384931 -0.07087747 0.23766397 -0.17995955 -0.02275112 0.18625344 0.13856491 -0.13436979 0.101063095 0.23626953 0.069733016 0.10844818 0.35492206 -0.2331475 -0.029043404 -0.11441085 -0.19155294 -0.04598007 -0.000560354 0.12095507
4257 -0.08149302 0.24158967 0.021615632 0.036111873 0.2286627 -0.13911974 -0.016415926 -0.042143088 0.053928405 -0.026868619 0.09268892 -0.20029281 -0.00096959126 -0.12794358 0.17692246 0.32202274 -0.019056143 0.09164711 0.532853 -0.06164717 -0.067373194 0.081378646 -0.32655385 0.0028818233 0.14744148 0.1648082 -0.011118169 -0.33127797 0.29489246 -0.12506792 -0.015426543 -0.34907624 -0.48517925 0.19105579 -0.26870883 -0.069500655 0.28690866 0.065800615 0.13886036 -0.17202346 -0.09178765 -0.10994935 -0.13084066 -0.14132519 0.11091504 -0.018720122 0.2372923 0.04652483 -0.38010496 -0.061574556 0.2681567 0.025673058 -0.3059832 -0.038380306 0.28329137 -0.058431543 0.30527902 0.08072162 -0.27534565 -0.23013783 -0.197609 0.2663941 0.12591587 -0.19886181 -0.024455428 0.1775094 0.17943627 -0.072875075 -0.16496298 0.11319964 -0.09219214 0.2003705 -0.04534998 -0.32356247 0.31209093 -0.0054432196 -0.025863787 -0.11571863 0.19651137 -0.31987223 -0.10336687 0.3690413 -0.05481732 -0.11006148 -0.2130142 0.12089886 0.13621925 -0.16410755 -0.070012294 0.09345886 -0.01822465 -0.22627875 0.18460599 -0.3088906 0.028098227 -0.09494703 -0.18228412 -0.038676012 -0.0028848553 -0.019025497 -0.29012722 -0.1931988 0.20167759 0.048428115 -0.29360566 0.12421059 -0.08732383 0.39050448 0.074928716 -0.17441249 0.27256784 -0.5183485 0.008146713 0.3878281 0.123852335 0.054269154 0.12084511 0.0012612581 0.13955279 0.6586457 -0.06763385 -0.13504359 0.037760694 0.32600754 -0.081076935 0.3019476 -0.2394415 0.091985926
916 -0.0032415392 0.23755136 0.06191266 0.27012232 0.21551506 -0.23959601 0.069762304 -0.099455066 0.5128563 0.0086180065 -0.28042307 0.1684254 0.07397972 -0.21076329 0.1832955 0.019825798 -0.057939213 0.26192132 0.017549098 0.13778347 -0.023414591 0.14780104 0.053402103 0.07532557 0.09384088 0.39440155 -0.38672158 -0.40777978 -0.13382612 -0.08054421 0.029560663 0.5510742 -0.20822819 0.08790768 0.07844711 0.25177637 0.2599572 -0.5294809 -0.030002983 0.24100266 -0.029468251 0.26039997 -0.35783857 0.10697234 0.054381456 0.29132524 -0.29988313 0.027761215 0.32963774 0.33589414 0.15308827 0.2104021 0.1978174 0.31474653 -0.067912914 0.037708916 0.109812245 -0.014823376 -0.032885816 -0.04323755 0.3401262 -0.009057852 0.64996284 0.14871123 0.24005862 -0.05774447 0.03846425 -0.24641635 -0.20875679 -0.062236574 0.15846652 -0.10081084 -0.11659087 0.039725587 -0.02382584 -0.2255149 0.27163696 -0.20994447 -0.25311628 0.09786709 0.101519674 -0.04404085 -0.17969438 0.4114326 -0.14571321 0.068019435 -0.13532983 -0.12088678 0.03326892 0.31132552 0.14741428 -0.23979215 0.20014751 -0.14635146 0.0551248 0.04352599 0.14228803 -0.03407169 -0.115248926 -0.18234044 0.062129814 -0.3317194 0.113615915 0.31191406 0.21329316 0.13518758 -0.09633886 0.10586182 0.14048177 -0.05056499 0.24705131 -0.04877274 -0.028484868 0.18756784 0.26349092 0.16299449 0.2167694 -0.10307228 0.14871384 0.02829987 0.26369777 -0.027676685 0.19816683 0.13974212 -0.15065219 -0.23935093 -0.076711066 -0.2241937
1315 0.13710381 0.14472729 0.032546055 -0.0010346485 -0.04783632 0.04304417 -0.06119151 -0.32726556 0.1221518 0.14998192 0.15918781 -0.13995956 0.1106539 0.0721812 -0.09070137 0.39331526 -0.081812054 0.13000107 0.05577672 -0.041698214 0.13804105 -0.15826273 -0.03622012 -0.173074 -0.14925289 -0.12241273 -0.08762524 -0.09587045 -0.0019776325 -0.19098115 0.15097702 -0.07614146 -0.21307544 -0.3164016 -0.012863785 -0.09521526 0.26004905 -0.041230477 0.10846551 0.11040506 -0.03000304 0.24311444 -0.091491625 -0.27287662 0.05693625 -0.122353636 -0.17915232 -0.2862582 -0.076904394 0.056575507 0.2120529 0.11228733 -0.16162579 -0.10037377 -0.10984808 -0.03626141 0.061215762 -0.04644078 -0.07221106 0.109248385 0.14790274 0.02380017 0.04930283 0.39098153 -0.12679559 0.26380834 0.06565683 -0.018961763 0.38748017 0.10820938 0.007701656 0.03599606 -0.27539197 0.2867924 0.26015598 0.12272056 -0.11128384 -0.09534472 -0.08682163 0.041537013 -0.12079547 0.033166252 0.43967152 0.10775497 0.17820387 -0.102842234 -0.014213851 -0.20835644 0.036792055 -0.0028941 -0.1960055 0.23675217 0.08380112 -0.22072004 -0.37900338 -0.35437745 -0.10689621 -0.29399937 0.13423727 -0.06121464 -0.2959721 0.113566406 0.032520637 0.18210982 -0.09119649 0.11691478 -0.100767136 0.26165262 0.16212517 -0.26441407 0.5266025 -0.0778482 0.09522529 -0.0058344556 0.14488661 0.0062056407 0.23992892 0.16847132 0.15173955 -0.10922791 0.029773284 0.04738228 -0.1017564 -0.015123468 0.025793063 -0.18335678 0.1384031 -0.026541134
5119 0.029263075 -0.08876019 0.45788503 -0.30041632 -0.14621004 0.09636101 -0.06524325 0.14045481 0.22025384 0.17027535 -0.26900488 -0.099034704 0.19419646 -0.5206424 0.20043048 0.2670025 -0.0703999 0.13429643 -0.00866537 0.25633708 -0.10016407 0.1441061 -0.021097774 -0.261008 -0.021672286 -0.18238053 0.1586062 0.13865872 0.011849719 -0.12419827 0.017142747 -0.072221816 -0.0735767 0.14983138 -0.3524385 -0.080554456 -0.073540814 -0.0006593473 0.19972025 -0.23338932 -0.3618586 -0.11810273 -0.06584382 -0.14852978 0.20960005 -0.24015789 0.17355488 -0.033684034 0.092200935 0.27021426 -0.29323348 0.12440644 -0.11935744 -0.006285161 -0.352864 -0.24844229 0.0696964 -0.2100404 -0.21816397 0.004388036 -0.23009768 0.04736993 0.19279158 -0.3032829 -0.18550763 0.13747345 0.055733956 -0.11964193 0.01499967 0.021332294 0.15738997 -0.0618661 -0.13781475 0.18343255 0.28320417 0.3325902 -0.27388754 0.059393432 0.1239885 0.32002014 0.2529868 0.0009023543 -0.07370385 0.090416364 -0.23447111 0.0363115 -0.1903249 -0.28609735 0.29556918 -0.25913447 -0.33702022 0.18145084 0.04629722 -0.25183934 -0.2581539 -0.04962765 -0.14938836 0.4346749 0.0021043653 -0.4804581 -0.6348676 0.013725005 0.191454 0.30849645 0.24491727 -0.02829805 0.07375343 0.14468907 0.3701034 0.036507856 -0.07495158 -0.036238447 0.15364122 0.2300321 -0.1497445 0.18683425 0.05264902 -0.2753327 0.022580452 -0.057782214 -0.018587166 -0.13176441 -0.007787231 0.2634653 -0.44578633 -0.26310083 -0.13011771 0.027799724
5135 0.14721836 0.19212131 0.11049062 -0.4071612 -0.14725187 0.23662803 -0.047246005 -0.015136221 0.17342278 -0.12950711 0.35136172 0.109576344 -0.0024931054 -0.20114581 0.22594112 -0.22128136 -0.14525393 0.11817775 0.15936254 0.102777064 0.2772321 0.16904287 -0.24746904 -0.4740581 -0.12875544 -0.18862884 -0.19671984 -0.23020849 -0.4006589 -0.11424536 -0.02532827 -0.05296486 -0.27238995 -0.048192196 0.008210356 -0.07606279 -0.043800816 -0.28103447 0.016803978 0.019764345 0.27434865 0.058059543 -0.06172295 -0.2281092 -0.027826829 0.24395533 -0.008497439 -0.378629 -0.32359612 -0.16487892 0.33067304 0.13837221 -0.19396752 0.38445392 0.27287626 -0.2696777 0.11322547 -0.0138314795 -0.0484692 0.17122243 -0.08237865 0.122261904 -0.049589995 0.045696434 0.08428721 0.019345589 -0.2629643 0.25180683 0.21486545 0.1616612 -0.006892099 0.13797931 -0.031955894 0.14463842 -0.06589912 -0.32581395 -0.16404398 0.20624208 -0.18407117 -0.0129246265 0.1058719 0.19980286 0.34377664 -0.12828775 0.102531254 0.10685029 -0.050068334 -0.08261025 -0.24893574 -0.25233087 -0.18247329 -0.0066039115 -0.14971608 -0.24629919 0.16391654 -0.20389764 -0.3631609 -0.32856268 -0.27478492 -0.0059978412 0.1793535 -0.21354808 -0.0057363077 0.00089870323 0.04337694 -0.2544967 -0.42566398 -0.1592082 -0.09767217 -0.31610793 -9.982841e-05 -0.17675707 0.14213291 0.18526357 0.04651564 0.11665984 0.06919755 -0.44937417 0.15994911 -0.099310085 -0.13470624 -0.3881495 0.013111761 0.15958382 0.10109234 -0.121692434 -0.17412847 0.18245095
6109 0.01139986 0.33212754 -0.17412016 -0.072184615 -0.06722532 0.040170696 0.22041348 -0.06978953 0.26663575 0.05984206 0.17224453 0.27592388 0.012223439 -0.29501602 -0.16341974 -0.054386955 0.053021833 0.12499354 0.17716941 0.20313016 0.1299599 -0.033412714 -0.17159918 -0.3124573 -0.19989245 0.030890094 -0.2737898 -0.3831523 0.006893009 -0.041016493 0.21049227 0.030259106 0.19685124 -0.072898366 -0.024104571 0.07942671 -0.33328342 -0.42967975 -0.17008002 0.41523325 -0.20098421 0.2699002 -0.31647226 -0.32704732 0.12349907 0.07931572 0.021442443 -0.2546792 -0.073825814 0.18593433 0.4086248 0.16591816 0.03245624 0.25613713 0.035622 0.0985975 -0.094002165 -0.015339593 -0.29743123 -0.0851708 -0.00043102712 0.017420083 0.03770173 0.097796604 0.32876682 -0.109502904 -0.17515899 -0.24832106 -0.0151353115 0.06550929 -0.43695214 0.019651579 -0.3876444 0.033519015 0.42670682 -0.045470558 -0.061550926 0.07234033 -0.062043965 -0.27996752 -0.006403041 -0.12962776 0.22291379 -0.10653305 0.05982314 -0.14788382 0.06371817 -0.130671 -0.10912562 -0.034395617 -0.321969 -0.15877128 -0.1179781 0.02125521 0.043434422 -0.00435216 -0.0154077625 0.07096519 -0.13730066 0.067158386 -0.25182205 -0.250049 0.16598807 0.08263939 0.33687884 -0.021070821 -0.19609547 -0.09158844 0.13688317 -0.27706718 0.19321689 0.17363256 -0.31892535 0.17763709 0.28435072 0.19655137 -0.29715043 0.010915875 -0.03808346 -0.28863648 0.062351644 0.024369061 0.45183396 -0.059883155 -0.031805027 -0.31389913 -0.2655146 0.095499426
1595 0.29166305 -0.15206294 -0.05355779 -0.14901161 -0.15209487 -0.04065629 0.29675508 -0.28151512 -0.020009892 -0.22582999 0.006917935 0.01179143 -0.20158866 -0.021312984 -0.14433885 0.046700343 -0.07195777 0.06441557 0.001021922 -0.21834563 -0.0957245 0.33615234 -0.21934627 -0.24676575 0.20833683 0.40236664 -0.27571288 0.13946879 0.00854236 -0.08013898 0.12559122 0.07727874 0.12147525 0.12467316 0.021028835 0.30831283 0.4199477 -0.19617242 0.3360818 -0.045100033 0.2825983 0.01682565 0.26371437 0.16063017 -0.045965478 0.15713553 -0.0382871 -0.33531806 -0.23197484 0.014733224 0.04093748 -0.025530718 0.21900885 0.16632621 -0.02492152 -0.032724407 0.06207249 -0.36787498 -0.2627658 -0.12035255 0.041640397 0.0866329 0.12618886 -0.27787563 -0.18440968 0.2869984 0.094024934 -0.32819661 0.13791886 0.32241327 -0.035343282 -0.28343728 -0.0016062787 -0.25848567 -0.18607518 0.08240226 0.051828906 0.11345245 -0.29468876 0.27666986 -0.013008255 -0.007830159 -0.15363549 0.16796099 -0.23723741 -0.031108342 0.4882329 0.10146664 0.12277139 0.02082709 -0.1278419 0.08867589 0.19075057 -0.063019186 0.3457454 -0.17608579 -0.02777077 -0.12458345 0.05028354 -0.28913793 0.15635742 -0.15314241 -0.18430148 0.096854016 0.09829652 -0.35652006 -0.18331294 0.122496374 0.17127608 -0.51046634 -0.09519008 -0.28354007 -0.18460618 -0.21241735 -0.04912226 -0.19508776 -0.03317261 -0.093188904 -0.077744834 0.11147725 -0.17572705 -0.1395344 -0.22392082 0.021697175 -0.37480247 -0.27791473 -0.10233525 -0.15135762
3886 0.27546978 0.105162665 0.07008322 -0.064475976 -0.010297038 -0.6451309 -0.055185206 -0.16168955 0.042306457 -0.25622392 0.03203016 0.1009156 -0.33615613 -0.30546823 -0.15076576 -0.062206585 -0.27517062 0.036106076 0.13950801 -0.2761186 0.08889132 0.1006584 -0.109481476 -0.22870645 0.1605449 0.3445988 -0.5819372 0.0036996221 -0.06646953 0.021503676 -0.04209857 0.13246705 0.21057145 0.17874204 0.23606907 0.14111055 -0.036991257 0.20759113 0.113908626 0.07627856 -0.029822819 0.26822624 0.35497683 -0.01539086 -0.30001912 -0.12596324 -0.3276555 0.03021287 -0.13735317 0.17845367 0.3002151 0.013946639 0.09050941 0.08571872 0.45622608 -0.06419025 0.49820265 -0.097543605 -0.35534337 0.009555232 0.21615306 -0.1206591 -0.01290696 -0.05157123 -0.025612734 0.18401834 0.33357468 0.1421815 0.015281235 0.19145985 -0.501645 -0.039222397 0.15804341 -0.09435568 -0.06458855 0.37682647 -0.7039481 0.08797442 -0.16780287 0.1149437 -0.19610426 -0.055450264 0.067957655 0.26455793 0.056600492 -0.124629736 -0.0010093179 -0.24760678 0.3499261 -0.12557936 -0.22911464 -0.17873153 0.09104325 -0.19213107 0.3951319 -0.028569734 -0.26280823 -0.0045705438 0.023601538 -0.27753553 -0.18729913 0.19043227 -0.29637557 -0.0040717996 -0.10482499 -0.27568963 0.17996086 -0.30781686 0.22840084 -0.3725955 -0.08997851 -0.004998821 0.04710556 -0.17673364 -0.09290568 0.16398688 0.21729204 0.0071116793 -0.10595285 -0.2502443 -0.2213686 0.23685803 0.2256044 -0.18390718 -0.121555336 -0.015006202 0.22454558 0.33074778
616 -0.010139145 0.14719965 -0.37741742 0.08480539 0.10664373 -0.2216284 0.16780038 -0.061181452 -0.010126457 0.115339786 -0.027182344 -0.14025265 0.045081217 -0.1196789 0.3332466 0.252753 -0.112078786 0.10698689 0.119450815 -0.37608993 0.15985364 0.049313348 0.0008369912 -0.31042704 -0.17775549 -0.1311886 -0.11176261 0.09082822 0.35342935 -0.03014778 0.07366144 0.07224461 0.027151408 -0.14395572 0.26311153 0.08737674 0.15968198 0.28887886 -0.02400049 0.028080937 -0.12161332 0.12620658 0.055159654 0.013958433 -0.11993187 -0.05274766 -0.055658013 -0.26178384 -0.08276812 -0.43719906 0.18165965 -0.012562367 0.31498542 0.039965056 0.072487496 -0.26907644 0.2446854 -0.039368603 -0.18794647 0.03670299 -0.32531017 0.08594239 -0.12090647 0.37147895 -0.185044 0.052296467 0.2565006 0.24399497 -0.33653918 -0.16765736 -0.11578684 -0.24037741 -0.058498517 0.18681002 0.31262428 -0.03087836 -0.41798034 0.1913431 -0.16290973 -0.0074109137 0.13744643 -0.123542875 0.026176643 0.6287598 0.10400369 0.16303572 0.053505782 -0.43282557 -0.019357298 0.28216815 -0.17840378 -0.015426793 0.30944234 -0.1404899 0.17592388 -0.098634 0.023547769 0.1878409 0.2946398 -0.07059563 -0.1388651 0.12600528 -0.08762734 0.5896022 0.49492747 -0.05497233 0.11463249 -0.04691967 0.22084656 0.06419026 0.23563784 -0.05007931 -0.024154417 -0.14395243 -0.39549586 0.042052604 0.23643264 0.034589905 0.04412494 -0.046619605 -0.09091762 -0.1493011 -0.5270876 0.016534893 0.263513 -0.33297557 -0.13900098 0.15703519
3073 -0.39084008 0.18013167 -0.20511054 0.032144383 0.06763194 -0.054681357 0.105825625 -0.20856033 0.34891865 -0.15090786 0.22180055 0.2279066 -0.123782605 0.07124437 -0.3857241 -0.068693966 -0.46656328 -0.051679462 0.35861963 -0.22326215 -0.11824044 -0.20326519 0.14065637 -0.40845343 -0.16263776 0.27544957 0.4149097 0.09550337 -0.094253816 0.074858345 0.15416095 0.13479686 -0.15166216 0.5159662 0.09467274 0.0313948 0.093627974 -0.17864141 0.13818292 -0.08941995 0.3444078 -0.18772 0.16359997 -0.33051133 0.14172725 0.09485508 -0.23124562 -0.42953026 0.31200874 -0.12253143 0.06737661 -0.1349077 -0.33813486 0.32123616 0.04265076 -0.14435749 0.37311494 -0.24143578 -0.37914333 -0.23235615 0.019945608 0.3438325 -0.02111213 -0.054505087 -0.48739028 0.1597397 -0.25041783 0.37971413 0.112084724 0.06557082 -0.0072217793 -0.05760118 -0.37179294 0.3338318 -0.119059294 -0.06650572 -0.3434051 -0.27990377 0.093523346 0.25370607 0.037481576 0.2289091 0.25462663 0.23067486 -0.13879225 0.15556648 -0.048317052 -0.2705135 0.2371547 0.2667235 0.113128886 0.030652104 0.30120915 0.005377491 0.06269859 0.041517243 -0.26783735 0.11563091 -0.16303906 -0.2867747 -0.29667783 0.34146532 -0.077680856 0.0020872988 0.20868994 -0.36166435 -0.13620396 0.27375716 -0.057659518 -0.17466988 0.07420767 -0.028428003 -0.06489074 -0.034128737 0.024825923 -0.22497286 0.110620566 0.08658085 -0.14501934 -0.07883822 -0.17981058 0.09558572 0.04016687 -0.11861822 0.051796712 -0.19772919 -0.2517775 0.3161198
339 -0.33936602 -0.017810913 0.15798214 -0.19841246 0.18853372 -0.19962162 0.093538895 -0.24803168 -0.53216857 -0.057336345 0.07668195 -0.2995175 -0.0947808 -0.091839194 0.13697037 0.12718144 0.16395827 0.040488157 0.043606773 -0.27669796 0.085081086 0.028498337 -0.53702986 -0.3092271 0.031580217 0.04746328 0.08976339 -0.04789739 -0.08424177 0.009399814 0.16424781 -0.2778275 -0.12642126 -0.035207085 -0.062005196 0.37596714 -0.25468454 0.055275016 0.40566584 -0.08609105 -0.3051451 -0.06535066 -0.097470276 0.092389375 0.1748435 0.09373837 -0.42986158 -0.12791064 -0.09751196 -0.07718874 0.30223075 0.29906565 -0.18539515 0.14120394 -0.23128997 -0.23303443 0.29194963 -0.08083718 -0.054703638 -0.079736814 0.017852768 0.22083871 0.29567602 -0.20636334 -0.025258478 0.061261695 0.007864022 0.031764053 -0.09498805 0.06289306 0.044559155 -0.17330067 -0.24146017 -0.34030026 0.046160042 -0.1378958 0.092818506 0.26305336 0.19935465 0.06203915 -0.29764202 0.013623711 0.12058248 0.061093453 0.071580514 0.078789905 0.023980848 -0.03255764 0.05461763 0.013556981 -0.25547367 0.2352791 -0.015404102 -0.70743924 -0.20991291 0.12624519 0.06830536 -0.10951665 0.008498368 0.1306143 -0.38396323 -0.1644471 -0.095609434 0.023098053 0.17349438 0.20428327 -0.35165325 0.0640271 -0.004086079 0.13876024 -0.38827544 -0.09723527 -0.15797792 0.0726766 0.3378247 0.011527214 -0.13184012 0.18733832 -0.099291146 -0.12043271 0.03097537 -0.197745 0.15300196 0.016873032 0.109428056 -0.2097736 -0.016512139 0.16405685
434 0.10912225 0.06055009 -0.18789718 -0.032674402 0.16623539 0.10462883 -0.11263614 -0.0013755257 0.028877588 0.09780209 -0.11329361 0.19339441 0.026614225 0.033312675 0.06904705 0.094930954 -0.22954251 -0.039603025 0.10939357 0.1491496 0.065201774 0.26802275 0.003173042 -0.5163454 -0.41030136 0.16649748 0.24021794 0.054136876 -0.0685498 -0.2094003 -0.040568132 0.049089912 -0.04161713 -0.06569671 -0.08083748 0.18410453 -0.09982346 -0.03320266 0.1121414 -0.37559274 0.16018413 0.054971684 -0.1607502 0.12042064 0.21903925 -0.1310457 0.006262255 0.004670771 0.063338 0.15709168 0.24946067 -0.08669335 0.07437821 0.35558146 -0.22350672 -0.11699327 -0.17861286 -0.21472178 -0.023969334 -0.004468266 -0.14302291 0.06975196 0.19761844 -0.17403863 -0.012936614 0.22916223 0.21877329 0.03945359 -0.34335464 -0.0025914817 -0.44203207 0.33458242 -0.164417 -0.32080403 0.17271589 0.10887978 -0.16700096 -0.1509147 0.24721591 0.02904217 -0.13870148 0.117569 0.21871956 0.043370955 0.022403032 -0.2075645 0.19386949 -0.025705656 0.14944883 -0.07503678 -0.07768915 0.12786937 0.17435887 -0.20479062 0.0552229 0.17496021 0.11512107 0.21933109 0.2422152 -0.23587207 0.0074437093 0.1392257 -0.07769322 0.007540399 0.11298711 -0.0046680057 0.014925674 -0.019400502 0.044616524 -0.2967952 -0.0035167835 -0.5016338 0.08724162 -0.04881273 -0.022493362 0.0021702303 -0.043169245 0.31155333 0.022653647 0.38138765 -0.066293895 -0.49873292 0.1361162 0.33335352 -0.25263655 -0.17748514 -0.051694047 -0.031373456
1198 -0.12791607 0.26777667 -0.009080988 0.14141002 0.20759758 0.16415828 -0.11860136 0.05021093 0.11504175 -0.10375173 -0.5754672 -0.026035337 -0.22255191 -0.494372 0.013629872 0.26961046 -0.123360686 0.23546602 0.09456184 0.14445928 -0.12390726 0.15143822 -0.24746466 -0.31958613 0.054474685 0.21397077 0.007076047 0.013003191 0.072074756 -0.068168916 0.14924577 0.41910326 -0.26061648 -0.069327965 -0.16806138 0.13380004 0.12227408 0.01169696 0.30643424 0.2938287 0.38512823 -0.16334414 -0.21172789 -0.24145024 -0.00030132866 0.20750119 -0.059674222 0.16259927 0.17641558 -0.0993018 0.32101184 0.035041317 -0.3328224 0.078476086 -0.30990118 -0.3886697 0.005034268 -0.15811315 -0.2767725 0.15676868 0.32816967 -0.26376906 0.14764644 0.023802353 -0.068606555 0.17743208 0.1316737 -0.10576235 0.11374627 0.012783451 0.27364838 -0.1786493 -0.20469435 -0.28013793 -0.078514546 0.0022541478 -0.33043772 -0.12379624 -0.25536945 -0.05671793 0.0657373 0.30500278 -0.11936925 -0.26264897 0.17717725 0.11408016 -0.03985009 -0.26985732 0.0024905207 0.10845463 -0.18542357 -0.26091552 0.05703577 -0.23635344 0.13788372 -0.2137931 0.14838353 0.3265018 0.13027617 0.042780507 -0.18359365 0.09188847 -0.14842348 -0.19492757 0.23995121 0.013962085 -0.22224636 -0.05055398 0.21542145 -0.019256078 -0.28096932 -0.12103254 0.0021305217 -0.08745312 -0.27817437 0.29778743 0.042456005 -0.038006674 0.024469292 0.49288994 0.09366345 0.060167648 0.0014724099 0.11795096 -0.17844155 -0.08660254 -0.34328666 -0.30316958
3838 -0.03356662 0.1203069 0.12114047 -0.05401377 0.08690006 -0.3666859 0.05407758 -0.22083057 0.084178366 -0.068393834 -0.17974152 -0.13842039 0.10535773 -0.3214192 0.1548415 0.01456401 -0.07806155 0.09006535 0.08878615 -0.05100352 0.094931155 0.088773094 0.02800227 0.055769634 -0.25567573 0.011573719 0.2697781 -0.3335134 0.12699029 -0.21990958 -0.05163138 0.044141777 -0.194909 -0.19509014 -0.15395118 0.21724406 0.16779779 0.21585093 0.37843224 -0.2116825 -0.016330482 0.2922482 -0.034581196 0.06394504 -0.2725239 0.029765222 -0.10411635 -0.37302288 0.028688911 0.13715033 0.05895987 0.5720951 -0.25333375 0.11246191 -0.18433951 -0.3134101 0.039327435 0.22358121 -0.054729786 -0.15528604 0.2346256 0.05476915 0.082586884 0.14684343 0.19684595 -0.1380327 -0.26304743 -0.1501255 -0.13072722 0.1802431 -0.052018106 0.20465997 -0.27240372 -0.21650852 0.03732927 0.08909114 -0.03700617 -0.03585395 -0.11783314 0.027328702 0.27313042 -0.17655349 0.07757481 -0.123746336 -0.14889796 0.28444704 -0.18881983 0.0071678185 -0.046434984 0.29572183 -0.12941949 -0.104440965 0.3241487 0.07259846 0.08583281 -0.30871582 0.06555448 0.018978748 -0.2748034 -0.0450164 0.08283021 -0.116366975 -0.10624755 -0.16764228 -0.17616497 -0.11447165 0.059350222 0.19075139 0.3605665 -0.048635125 0.22024408 -0.24385025 -0.042784806 0.23181194 0.33926332 -0.00095176056 0.3415342 -0.28394106 -0.29048258 0.2454581 0.08257337 -0.22356954 0.08356013 0.21684062 -0.30410904 -0.21962897 -0.040633556 -0.20208
831 -0.13926597 0.03780855 0.026884982 -0.37643504 0.099854074 -0.3041616 0.10023816 -0.10309656 0.29594332 -0.29299077 -0.20988944 -0.089535326 0.19805388 -0.14363907 -0.005160183 -0.0063663954 -0.16569981 0.04619406 0.035367068 0.1889172 -0.15351586 0.040667128 -0.29386973 -0.4910511 -0.20369597 0.42990977 -0.2952063 -0.1704742 0.40030092 -0.48915154 -0.3515973 -0.30366814 -0.039524935 0.020552116 0.33430338 0.11753915 -0.20845541 -0.6114768 0.32565433 -0.040141243 -0.22176117 0.0026661083 -0.02203153 -0.30614442 -0.0789171 0.10003137 -0.23586266 -0.059668425 0.3582831 0.02249968 -0.17443144 0.006570046 0.26530147 -0.2778366 0.37547302 0.2686893 0.31157237 0.009999505 0.004329291 0.34880027 0.06561058 0.09540531 0.090570465 -0.23538455 0.1546039 -0.002115801 0.16431873 0.2502614 0.18369272 -0.15768985 -0.3392865 -0.15102951 -0.48846203 -0.14826597 -0.27684912 -0.03496961 -0.40756774 0.20061986 -0.25169912 -0.041028865 -0.12762429 -0.04332249 0.3429832 0.0061261836 0.18631023 0.19333392 -0.14507751 0.1440278 0.015419657 0.19572783 0.33313778 -0.11050963 -0.021399029 -0.16228916 0.07615861 0.3058434 0.06630522 0.015502101 -0.08284112 0.021032803 0.010915456 -0.011001677 0.10116045 -0.16875361 0.24150504 0.13889088 0.00813856 0.112633154 0.1320156 -0.13189188 0.51721245 0.07810339 0.25351253 0.03948984 -0.28378496 -0.13751052 0.030593181 -0.08383377 0.017130142 0.26798722 -0.36212665 0.01733034 0.061972283 -0.117946446 0.05592645 -0.31133097 0.22272114 0.04033623
335 0.18101549 0.20071329 -0.077488 -0.44832355 0.31213003 0.040265933 0.4203598 0.17579345 -0.14142092 0.3650926 -0.14723966 0.08666299 0.040353812 -0.21631184 0.27042577 -0.011369699 -0.021126796 0.02643035 0.15326996 0.111922055 0.22114487 0.12982331 0.44388908 -0.2058143 -0.19068113 0.21091427 0.14549445 0.049624503 -0.23698008 0.15100096 0.23044917 0.0055647907 0.13206528 -0.038825497 -0.00045671323 0.24801782 0.07440062 -0.26878342 -0.010650223 -0.2036373 -0.041767605 -0.0019075234 -0.009050699 -0.067338645 0.26617536 -0.023834763 0.16430998 0.14344786 -0.24083626 -0.23122056 -0.07424294 0.24942721 -0.12917738 -0.23958072 -0.08222269 -0.36708993 0.4201531 0.13887501 -0.06786628 -0.06556901 0.20244198 -0.12493519 0.13652585 -0.41946098 -0.016405525 -0.21886921 -0.07430097 -0.06426907 0.25255 -0.13540384 -0.16221298 0.07341943 -0.07770588 0.043688953 0.02139689 -0.37377176 -0.1800113 0.06645419 -0.41036484 0.34575924 -0.0009722222 -0.08504162 0.013844083 0.034473203 -0.14436083 0.08822021 0.12092342 0.29352397 -0.13562581 -0.04237002 -0.5357528 -0.36737362 -0.0114802 -0.13911502 0.08363811 0.38319758 0.11947291 -0.35913372 -0.12967116 -0.34355485 0.09246294 -0.16242343 -0.3624817 0.17096312 0.100560024 0.087094456 -0.34450924 -0.04476392 -0.23246959 -0.29251352 -0.14248058 -0.12168105 0.3727748 0.037202388 0.2367488 0.16509594 0.2914675 0.111103006 0.35656315 0.2624802 -0.0009863426 -0.06913343 -0.2525126 0.025363555 -0.04718362 -0.022980357 -0.24358988 0.06409165
5234 -0.073596805 -0.002736329 0.03299788 -0.05800419 -0.14743793 -0.24587451 0.10330758 -0.07284527 -0.031179495 0.058923647 0.28676486 -0.041509394 -0.10604775 -0.0025885112 -0.04472638 0.24761787 0.17372648 0.05730108 0.20475543 0.023464156 0.1234764 0.015232014 -0.3175405 -0.3787166 -0.18434961 -0.12207867 0.025040038 0.02585381 0.10574968 -0.10031832 0.08196762 0.001430784 -0.19250406 0.0748839 -0.049300913 0.22486728 0.08391587 0.13095407 -0.0048098224 0.06951881 -0.40491143 0.38867706 -0.123891115 -0.2595313 0.018352283 -0.058861747 -0.033657484 -0.3318203 0.013575235 -0.03606878 0.20595908 0.27498206 -0.0010187514 -0.2108142 0.058715347 -0.2690086 0.30857107 0.030598665 0.17051092 -0.08852641 0.004280203 -0.09564267 0.19322363 0.09426492 0.0023766654 0.05160072 0.06509507 0.16529027 0.38921297 0.0066337516 0.080342 0.14362177 -0.33516225 -0.1791621 0.13782594 -0.15170301 0.054163177 -0.15986103 -0.11372392 0.094539635 0.058314912 -0.20096137 0.40038595 -0.10873567 0.082426354 0.061829958 0.24324389 -0.0042551416 0.34982863 0.20663263 -0.059747186 0.111825444 0.042975895 -0.5184212 -0.13204113 -0.042142432 0.086293764 0.15621933 0.1688263 -0.03143661 0.17013885 0.063539766 -0.03785113 0.1894484 -0.01304164 -0.15249108 0.18784665 0.022401486 0.16645247 -0.08170687 0.24118389 0.12466642 0.09775892 0.036501564 0.30540258 -0.1691426 0.15637471 0.12072029 -0.016219005 0.01134102 -0.022834446 -0.26217896 -0.15809406 -0.05942601 -0.07633721 -0.0997263 -0.2569858 0.0017644844
813 0.16045396 0.3946464 0.28302228 0.11440178 0.37733603 -0.23196498 0.19979906 -0.0043396307 -0.13105454 0.087627865 -0.2847214 -0.046470497 -0.18967682 -0.4351133 0.14867313 0.23615319 -0.16556469 -0.17971456 -0.07030531 0.01545609 -0.03924075 -0.116407976 -0.2420407 -0.08896364 0.043011162 0.28910306 0.15062459 -0.05567645 -0.17633575 -0.20365824 0.21873018 -0.34585592 0.008148646 0.093161575 -0.14395352 0.069976784 0.21655424 -0.3756834 -0.040217344 0.086222455 -0.35250518 -0.13189985 -0.0007809999 0.105748534 0.19130448 -0.14158331 0.088264905 -0.083053224 -0.1109862 -0.0011446119 -0.052938648 0.13007902 0.01972141 -0.03705311 -0.023365468 -0.1466682 0.11624257 -0.1850375 -0.011463579 -0.051130317 -0.30035657 -0.112746805 0.10782385 0.10669319 0.2842999 -0.09716467 -0.020723665 0.1194848 -0.30691087 -0.10537535 0.016166233 0.06892789 -0.14954843 0.07940876 0.20883599 0.21232708 -0.101224676 0.00047755204 0.10446373 0.06687676 0.21948713 0.05060803 0.07044794 -0.05988361 0.06944111 -0.15818366 0.030896753 -0.0033559753 0.045987267 0.10829879 0.05590504 -0.007996317 -0.16263087 0.013098588 -0.052685916 0.019733762 -0.33968574 -0.24031703 -0.2622383 -0.56627053 -0.1142263 0.22493945 0.29764313 -0.3030107 -0.1242174 -0.15927842 -0.17302223 0.21029402 0.18123098 -0.0003188871 0.054765094 -0.028471665 -0.04025227 0.08018664 0.057488278 0.1854045 0.0496224 0.1018833 0.08342255 -0.09393149 0.26868594 0.05907765 -0.2321551 0.17948286 -0.121380255 -0.2292542 -0.17639025 -0.03318868
1228 -0.14578211 0.13985322 -0.3423777 -0.07915699 0.24407011 -0.31585276 -0.021665098 0.0053280736 -0.08806764 0.037027594 -0.153268 0.24521619 0.056704134 -0.233391 0.08248642 0.011474318 -0.10702616 0.1781503 0.035715923 0.47623357 0.17894067 -0.34636256 -0.33052438 -0.22335465 0.093192525 -0.046948574 -0.21818818 -0.23549809 0.066681534 -0.011531199 0.03621723 0.1976033 -0.35329401 0.18945797 0.17057562 0.058596775 0.47386417 -0.25399378 0.09379235 0.40875897 0.054149926 0.0604751 -0.43426353 0.099646166 0.13903846 0.3962009 -0.119339615 0.10283545 0.06548317 -0.253004 0.31003776 0.12567724 -0.25144303 0.3077442 0.030345703 -0.067998186 0.3339317 -0.12127961 -0.16084844 0.030636808 -0.19997364 -0.1445867 0.3922116 -0.081648655 0.11357248 -0.20120916 -0.16501826 -0.28548685 -0.026920337 0.1660525 -0.16397104 0.014309737 -0.056115344 -0.03049622 -0.07075567 0.041158523 0.06383443 0.2809556 -0.00020573978 -0.0146084605 -0.1613596 0.25507954 0.21259247 0.21348444 -0.029051585 0.12968647 -0.07728487 0.30578148 -0.08101597 -0.23245001 0.1837084 -0.30007035 -0.30317518 -0.50153553 -0.19037095 -0.13171093 -0.06575464 -0.12076282 -0.27859926 -0.08078657 0.21982089 -0.018284325 -0.28536394 0.26767167 0.27373797 -0.16407824 -0.3096709 -0.05470734 -0.11240709 -0.018353475 0.14449559 -0.1804727 0.049097825 0.20253336 0.04514133 0.029814364 0.04811329 -0.048536573 0.14272021 -0.018045925 -0.2466207 -0.06684495 0.04869243 -0.004816918 -0.0940366 -0.108420625 0.13272336 -0.23006521
2946 0.03231968 0.20423454 0.09446556 0.5591121 0.2989084 0.26383883 0.22229135 -0.16744132 -0.074149065 -0.034383375 0.07913881 0.020987475 0.14912443 -0.3985393 0.057371464 0.12510948 -0.016896656 0.2856803 0.21849217 0.089673124 -0.16865245 0.15405244 -0.32122105 -0.3711406 0.28078797 0.09832252 -0.092042655 -0.017585559 0.21250837 0.045959845 -0.264205 -0.34892654 0.16733362 -0.12371126 -0.24620132 0.40660104 0.26917067 -0.006434934 0.0059583583 0.15320975 -0.27228427 -0.27724198 -0.0787575 0.053507734 0.022585787 -0.10796123 0.03109708 -0.060113225 -0.32520854 0.08084637 -0.04211556 0.27785054 0.33584234 0.053208012 -0.2872545 -0.24037275 0.42578635 -0.01924286 -0.041559745 -0.39934057 -0.038910758 0.017951658 0.028098963 0.4021821 0.07716429 0.077557094 0.1729745 0.0003728543 -0.21952035 0.3554873 -0.22800761 0.2093118 0.079874866 0.44814643 0.11472844 -0.011286294 0.07714774 -0.04839069 0.020974575 0.19812632 0.20840015 -0.0629982 0.50362563 0.005111037 0.14776544 -0.26270148 -0.18535669 -0.2005094 -0.37506193 0.2751138 0.23014398 -0.21777166 0.0672611 0.21615921 -0.2586398 -0.0041049225 -0.32577634 0.0032088377 -0.24684988 -0.050884087 0.0142469155 0.25897205 0.108322136 -0.06556667 0.07354219 -0.1290378 -0.056967057 -0.14870216 0.23937073 -0.09135302 0.05972852 -0.029621348 -0.052012328 -0.0728123 0.33466375 0.30909565 -0.06564427 -0.1637361 0.025976412 0.09995942 -0.1298288 0.08775468 -0.15732649 0.24914843 -0.36916786 -0.1325869 -0.32668406 -0.13540822
2993 -0.6595486 0.2445231 -0.06199023 -0.16099678 0.0669453 -0.1643601 0.14436622 0.039819345 -0.08842926 0.16887224 0.16345327 0.4921334 0.07445665 0.018130094 -0.13212706 0.018933509 0.33080256 0.21247932 0.10199451 -0.048516348 0.03854665 -0.38672516 -0.011771554 -0.19789751 -0.09422075 -0.3105665 -0.19334976 -0.023018282 -0.08956701 -0.08771067 0.36124435 0.09106083 -0.38234046 -0.050859645 0.3170135 0.21966194 -0.26742247 -0.21281338 -0.024505107 0.04133239 -0.006656775 -0.024907446 -0.14189349 -0.044851586 -0.2635266 0.19951126 -0.021417355 -0.23635146 -0.5717225 0.3489603 -0.095213614 0.07155668 -0.0014672235 -0.01911288 -0.361606 -0.4692952 0.26841077 -0.07093254 0.13752432 -0.11244176 -0.18915604 0.3394873 0.05675517 -0.37473616 0.50871927 -0.08133798 -0.03033193 0.25061804 0.39125663 0.66821533 -0.41613278 0.20353362 0.09478315 -0.107616514 0.11040022 -0.09299894 -0.50192964 0.30432582 -0.38455305 0.031948123 -0.0939909 0.5184929 0.09744083 0.37691474 0.22246546 0.20049968 0.26648387 -0.22274387 0.062418297 0.18739392 0.24346441 -0.1519568 0.5348229 0.15458408 -0.07045432 -0.5604337 -0.15463881 -0.06440488 0.13572168 -0.04164309 -0.39020002 -0.68272144 -0.106235154 -0.14470078 0.22991906 0.07813548 -0.5539754 0.19568522 0.081207424 0.24210618 -0.08396039 -0.33510414 -0.0035464934 0.2506656 -0.028168175 0.4039663 0.2453001 -0.024342334 -0.13044114 0.0074894708 0.08412257 -0.24276039 0.030471787 0.06093213 -0.53449816 -0.59043014 -0.33920547 -0.0856623
5482 0.06253396 -0.13131014 0.053662162 0.045136813 0.29501933 -0.17402123 0.060494896 -0.064927086 0.36865494 -0.17824583 0.025854459 0.41323027 -0.19069305 -0.16323389 0.21842922 0.034842093 -0.3133155 0.054996464 -0.035897795 -0.033865616 0.15488517 -0.01241492 -0.043775067 -0.35093734 -0.5441918 0.124728926 -0.12603529 0.21089876 0.24642064 0.037100412 0.06029343 -0.009941041 -0.24357297 0.008723369 0.45763674 0.24231353 0.08315824 0.2554667 -0.1485277 -0.37436432 -0.0662136 0.12602714 -0.10796875 0.06131214 0.36854514 -0.015128395 -0.13863166 0.3278047 0.04284339 -0.21709779 0.019219907 -0.2966783 0.2800326 0.33777532 0.09497103 -0.009320007 0.26165307 0.055282634 -0.15635285 0.017001063 -0.05832801 -0.058169432 -0.0682223 0.0009004347 0.0946838 0.008131435 0.07601428 0.062100273 0.03818251 0.18219388 -0.2523576 0.06418343 0.0030283337 -0.031995945 0.010206724 0.18685609 -0.57734406 0.29621455 0.06703399 -0.16138138 0.06386069 -0.2516205 -0.040122278 -0.05531469 0.0026924585 -0.05058155 -0.07574209 -0.07957386 0.04235206 0.19771664 -0.40355247 0.16509952 0.27256265 0.20360263 0.0618953 0.0700424 -0.119129784 -0.16620158 0.17074119 -0.20931514 -0.117290154 0.22019257 0.044325262 0.15243544 0.025101341 0.020561192 -0.11441234 -0.10438415 -0.15427123 -0.269467 0.17235832 -0.22274686 0.046175744 -0.084079005 -0.20650664 0.1250621 -0.072714396 0.056726735 -0.29684806 -0.09003187 0.05435204 -0.23635283 0.2364315 0.024653452 -0.06681384 -0.08210337 -0.03916616 0.11229967
5463 -0.08061698 0.06277636 -0.07102714 -0.5476642 0.23555185 -0.23282142 0.37101644 0.11422142 0.17577282 -0.16933006 -0.009779204 0.17993958 -0.11758118 -0.15409668 0.026164379 0.10272442 -0.36418504 -0.32722405 -0.0030963235 -0.2335002 0.090278886 0.13379583 -0.19185834 -0.3551709 0.21621238 0.022495324 -0.4024962 -0.0937408 0.03368409 -0.05295103 -0.119484246 0.06417835 -0.29036957 0.088592224 0.10636229 0.42820415 -0.054843787 -0.36434752 0.16097869 -0.12251361 -0.13724905 0.1903506 0.27253357 -0.22427894 -0.14570458 -0.1951064 0.062398124 -0.3834554 0.278857 -0.12528527 0.22655469 -0.07778594 0.18275386 -0.14757724 0.10477883 -0.07140809 -0.11941396 -0.19246355 -0.041662615 -0.27782476 0.074447855 -0.06254952 0.076974 -0.25789246 0.06560213 0.22974436 -0.20902972 0.049375303 0.023097875 0.17456646 -0.07107597 -0.07420728 -0.07874073 0.029456299 0.06250138 -0.099716276 -0.08781507 -0.18769784 0.09534959 0.01613488 0.024125647 0.11721479 0.49804798 0.26380777 0.05994483 -0.035251826 0.16416936 -0.37674183 0.1984027 0.2816546 0.03413643 -0.2309192 0.074482724 -0.17735976 0.23199125 -0.11000129 -0.18129887 0.21465734 -0.26864287 -0.13399228 -0.08732462 0.22098549 -0.22398077 -0.119836405 -0.021925436 -0.060353607 -0.08453864 0.08246316 -0.064969584 -0.30149233 0.04496897 0.0628384 -0.11010212 -0.4011201 -0.18522431 -0.18240203 0.119401574 -0.30234426 -0.15738474 -0.21755058 -0.17877232 -0.3112302 -0.1599798 0.15679407 -0.03730857 0.045045193 -0.19852467 0.26572818
4409 0.05284284 -0.39863947 0.2786087 0.25816214 0.24497108 0.0280064 0.46410096 0.16157892 0.13435806 0.12919118 0.034314662 -0.12446347 -0.11692887 0.14155948 0.21055458 0.14427623 0.06189653 0.11897028 0.14372677 0.27193508 -0.23614527 -0.1907043 -0.06806481 -0.093523234 -0.022176782 0.028746884 -0.008917351 -0.1295305 0.10190005 0.27583545 -0.28043473 -0.15042529 0.16734439 -0.0028589196 -0.385566 0.090071954 0.058271904 -0.17661734 0.049911655 -0.14967822 0.09131388 -0.017928317 -0.29785642 0.029732736 -0.017843412 -0.094806455 0.1413276 -0.15657118 -0.09253655 -0.10537984 0.34723452 -0.34850392 0.28166917 0.12032574 -0.49649742 -0.42383045 0.23121594 -0.25444314 0.12829225 0.05541764 0.13223027 -0.026171962 -0.22897394 -0.1661417 0.10441904 0.16416885 -0.25111586 -0.09369455 -0.23965912 0.07367205 -0.12885539 -0.37717792 -0.24407347 0.289553 -0.06396402 -0.08880518 -0.28378895 -0.03244088 -0.26071677 0.23308516 -0.16367808 -0.050362825 -0.20288222 0.23901898 0.27812293 0.22973083 0.0946655 -0.012882111 -0.101996 -0.053704806 -0.12724973 -0.21604377 0.20682305 -0.11275163 -0.11944279 0.40853965 0.23321882 -0.07869108 0.045471728 -0.4060538 -0.39803 0.04256397 0.09140039 0.007819067 -0.005262427 -0.25498772 0.023703422 -0.050761994 0.017079098 0.13564923 0.37437683 -0.079403676 -0.0054954723 0.19675466 -0.2740299 0.23479848 -0.31301892 -0.1484969 -0.22005807 -0.2340342 -0.5086075 -0.07235355 -0.05859699 0.34581864 -0.030995201 -0.24457425 0.03774637 0.0094127795
3087 -0.46660602 0.012968556 -0.28474355 0.43089035 0.3110593 0.04240654 0.13177375 0.09555272 0.20142503 -0.16272224 -0.025891261 -0.3340729 -0.0050761327 0.15815589 0.07834847 0.15117325 -0.030348688 0.061456475 0.3057737 0.12448866 0.06411677 0.16432346 -0.13161145 -0.40621093 0.20402175 0.14088073 -0.23871857 0.123412795 0.102791615 -0.21886826 -0.16444784 0.2087788 0.25425887 -0.019913416 0.27614412 0.32041702 -0.021328248 -0.23657957 0.14226586 0.39134747 0.19352546 -0.16258478 0.11940029 -0.14448571 0.066082686 -0.11014685 0.053002916 0.026947506 -0.27526426 -0.10070477 0.16705827 -0.20610236 0.10642167 0.2907075 -0.21315737 -0.26295108 -0.094468266 -0.15611593 -0.11646914 -0.18543044 -0.11203734 0.33380082 -0.12545907 -0.17066807 0.48468024 -0.017592423 -0.21156524 0.306811 -0.08630847 -0.04788039 -0.37240577 -0.13823181 -0.17362046 0.0646973 0.03475259 -0.02888365 -0.01388021 -0.06372925 -0.037582755 0.18107435 0.09313221 -0.026569555 0.10928285 -0.45424688 -0.0020127348 -0.26836807 0.22315688 -0.41590148 0.124338605 -0.21462122 0.057382908 -0.33917412 0.00794912 0.22028862 0.018665303 -0.03237595 0.04841316 0.16680935 0.21091904 -0.1814178 -0.17644961 -0.24846877 -0.27055192 -0.047968697 -0.36710912 0.06965044 0.2765038 0.3084404 -0.047318902 -0.0698334 -0.015700823 -0.36863407 0.1685452 0.39715666 -0.0005993026 0.13298616 0.37710458 0.011842107 0.1521076 0.21489944 0.09269089 -0.005924588 -0.31021124 -0.022483254 -0.4963723 -0.31156516 -0.32071918 -0.11005704
4058 -0.27985644 -0.013060779 -0.46587354 0.3058492 0.23696017 -0.12386063 0.24296708 0.121518254 0.2480114 0.028431553 0.16388392 0.04319529 -0.19705519 -0.27348867 0.28951135 0.58820724 -0.21300167 0.021831935 0.10113877 0.07519121 -0.094942935 0.061168298 0.10487621 -0.64254326 -0.23704498 0.29155657 -0.16900831 0.0030412772 -0.099810466 -0.23587425 0.17644787 0.43188775 0.13823847 0.012994885 0.11201378 -0.044977285 0.45812678 0.099626854 0.13467763 0.054419674 0.1349563 -0.09258805 0.21622081 -0.27697656 0.25397676 0.11100738 -0.14132966 0.037731256 -0.1551615 -0.043028906 0.19039768 -0.07313017 0.37486908 0.2911138 0.16264701 -0.12682863 -0.035874225 -0.09521994 0.013886151 0.08291116 -0.21319364 0.17106344 -0.28686056 -0.45224988 0.06890798 0.25428882 -0.118899025 -0.069994904 -0.1814384 0.22779499 -0.21375346 -0.2974772 0.061255157 0.014183812 0.16514023 -0.04949508 0.31548366 -0.24303597 0.039247416 -0.08746242 -0.03967051 -0.20452666 0.16007197 -0.23139708 0.081413664 0.040827297 -0.16354485 -0.087593146 -0.17429449 -0.029185137 -0.18928468 -0.08585931 0.04477343 -0.2003388 0.041078914 -0.2619103 0.13053599 -0.017075373 0.18221016 -0.08123747 0.12876286 -0.21673098 -0.34607252 -0.24623047 -0.06949267 0.25537217 -0.39549187 0.2912297 0.117910355 -0.3181141 -0.0014847727 -0.1331693 -0.1522974 0.04567188 -0.14884159 0.005439619 0.11005706 0.03196279 -0.2356313 -0.25919476 -0.053959303 0.17880285 -0.17606218 0.2352539 -0.15796281 -0.020636834 0.38319254 -0.14688624
978 -0.46531588 0.21691664 -0.0048972913 0.27923828 0.58631474 0.3355258 0.14335465 -0.029211663 0.28066108 0.20842423 -0.1740075 -0.036901407 -0.1188249 -0.15605226 0.25721976 0.019914828 0.14277819 0.04478311 0.048157882 -0.05251851 -0.20498082 0.07257135 -0.019933928 -0.37534067 -0.10204919 0.12895858 -0.07358499 -0.59168565 -0.07169767 -0.0191583 0.27836084 -0.14981228 -0.29749274 -0.07782344 -0.13966773 0.22547594 0.50275755 0.34170243 0.019852178 0.050790615 -0.27429906 0.104180925 0.103630416 -0.25433663 -0.2137518 -0.15881129 0.26635388 0.036120865 -0.37606347 -0.12860408 -0.07699854 0.100969486 0.08717511 0.3699387 -0.14491946 0.17469037 0.15104225 0.26770756 -0.11360262 0.048011616 0.11698441 0.18351568 0.12757753 -0.04042914 0.15583757 0.21767442 0.25581497 0.008105306 -0.047528695 0.28341788 -0.20697953 0.110589355 0.18486948 -0.13753119 0.32046595 -0.4321957 -0.22680277 0.34047806 -0.34263822 -0.1660382 0.24432592 -0.02332055 0.3896023 0.0060527073 -0.39532232 -0.18225731 -0.18737069 -0.06986098 -0.025262002 0.51915467 0.122462995 0.20730565 -0.33454433 -0.03665884 -0.13649042 -0.49301833 0.11903463 -0.40682876 -0.10656284 -0.16772687 -0.32549605 -0.0010567228 -0.26868036 -0.2488383 0.062450774 0.07161487 0.17596886 0.28247118 0.16294344 -0.10570045 0.2673625 -0.51254123 0.12536633 -0.077837676 0.13907926 0.08730647 0.047967646 0.020711 -0.06661896 0.052599076 0.051881358 0.07383578 0.27179003 0.014444736 -0.14180592 -0.040431883 -0.47277862 -0.030953998
5351 -0.073830225 -0.1571315 -0.10314828 0.08191461 0.1709325 0.06860733 0.19583334 -0.075431295 -0.07691016 0.1833257 -0.040956017 0.13703023 -0.07531714 -0.014424328 0.23492281 0.3273877 -0.24957415 0.09247515 -0.005632363 0.13571757 -0.19075203 -0.07905437 -0.2540688 -0.42293364 -0.41667888 0.008475659 -0.036316965 -0.028408352 0.019678786 -0.17946368 -0.11627823 -0.094907224 -0.058954887 0.12270536 -0.017723557 -0.070837535 -0.37602937 -0.111246854 0.05820803 -0.1444086 0.058438037 -0.09927437 -0.020298617 -0.040423863 0.16788779 0.014040974 0.03037318 -0.010738867 0.06021934 0.10383979 0.12315613 -0.17077558 -0.053444587 0.30339405 0.036053002 -0.2155977 0.13723055 -0.29806978 0.18728004 0.28879234 -0.2260098 0.08960734 0.034570023 -0.11743087 -0.23099625 0.03997547 0.23588124 0.03921631 -0.070434816 -0.031330474 -0.30348405 0.18534538 0.019143034 -0.529904 0.24032818 -0.14337783 -0.19200617 -0.07194431 -0.051470626 0.24555176 0.14204894 -0.1603901 0.264928 0.31531116 -0.045889705 -0.21419276 0.21607448 0.13722064 -0.06125389 0.20509186 -0.06113644 -0.045560196 -0.02995661 -0.006502216 -0.17311445 0.035812225 0.1416899 0.21555458 -0.049527787 -0.18722071 -0.17004026 0.22055697 -0.2657466 -0.006529982 0.14319013 -0.1407775 -0.008974831 0.09227576 0.20372503 -0.05534385 -0.20957714 -0.20607886 0.007512907 0.02795676 -0.020756489 -0.16652076 0.12144539 0.02012013 0.25232482 0.28761715 -0.06346641 -0.29384887 0.2662491 -0.111738466 -0.45014656 0.034819435 0.20175657 -0.019554209
3259 0.04044814 -0.078741275 0.2550185 0.3437072 0.0496881 0.013681686 -0.01109069 0.10370158 0.1361307 -0.008363144 -0.29358312 0.09976102 0.10876793 -0.087386206 0.21816827 0.45611238 -0.1083876 -0.23013823 -0.14564337 -0.11855894 -0.091521636 0.38392273 -0.34943876 -0.08745099 -0.14949176 -0.006014089 0.22729403 -0.08275592 0.007889014 -0.08583684 0.19688292 -0.34066853 -0.08627078 0.45144188 -0.10221301 0.1810633 0.15601975 0.0453589 0.043295246 0.03255645 0.0524067 0.39850935 0.07942676 -0.10960136 -0.18879338 0.11027856 -0.03846549 0.08139857 -0.23681496 -0.091745116 0.0074896277 0.21567264 -0.13546115 0.07952746 0.116594665 -0.06602839 0.04944762 0.051715583 -0.18596618 0.0065376847 -0.08061763 0.060516402 0.12639637 -0.19193532 0.01469404 -0.2071871 -0.14626338 -0.178304 0.103086695 0.06369321 -0.3190766 -0.05550045 -0.32116377 0.20892355 0.28607154 -0.17179704 0.11951157 -0.09239332 0.17106165 0.26362854 0.06594687 0.350436 0.010541968 0.024264948 -0.07823041 0.14448081 -0.08438142 -0.14408156 -0.059452556 0.081794046 -0.062282007 0.06754519 0.096333474 -0.00983977 -0.3756209 -0.0987973 -0.21541725 0.030547954 0.02700265 -0.16282494 -0.09131117 0.16878214 -0.004662581 -0.008595143 0.35753113 0.014512778 -0.022124203 0.019402863 0.3441822 -0.0011706289 0.17105174 -0.2506575 0.0497555 -0.08316392 0.091750845 0.13823605 0.31202248 -0.0060466006 -0.01045093 0.21077834 -0.021589873 -0.12621552 -0.2155506 0.546827 -0.17663205 -0.12046853 -0.05984398 0.11447345
2744 0.055878896 -0.2044482 -0.0141984215 -0.30707496 -0.2680439 0.12870072 -0.4259002 -0.25364256 -0.16458559 0.16353883 -0.25577146 0.06145255 0.21946804 -0.2632926 0.28412655 0.3100032 -0.016927827 0.11477411 -0.13123438 0.079140335 -0.1915068 -0.054411065 -0.17937478 -0.39179674 -0.06704928 -0.10941836 0.071951576 0.04550985 -0.3942582 -0.010788601 0.0767769 -0.40134013 -0.27945 0.091240235 -0.23808914 0.3169939 0.062550895 0.10443348 0.29793894 0.17798121 -0.35483658 -0.005394719 0.15490907 -0.19887817 -0.1693271 -0.18906441 -0.0023662157 -0.34690738 0.14304811 0.058634058 0.2839202 0.16548148 0.3870119 -0.3092119 -0.29278776 0.11986321 0.697064 -0.47006485 0.08053859 0.038288917 0.11512501 0.08244886 -0.19662371 0.36260545 0.113274746 -0.031150961 0.19029005 0.17527986 -0.088770375 -0.098869815 -0.3454498 0.012219928 -0.17416324 -0.0008354488 0.19162479 -0.08080764 -0.101769015 0.015935948 -0.23638137 -0.08953333 -0.08146721 -0.022217026 -0.0900797 0.21141914 -0.15585576 0.06531024 0.15445608 -0.10812073 0.29259804 0.05896146 0.08032051 -0.089247406 0.0067144716 -0.2219718 0.3295139 -0.26235023 -0.04025396 -0.019492863 0.26513946 -0.03411658 -0.4380189 0.2475836 -0.24497297 0.2425696 0.18030132 0.16504014 -0.231361 0.52522194 -0.25669533 -0.37708592 -0.12409909 -0.23446696 -0.37302974 -0.017173607 0.21747063 -0.11629684 -0.07434598 -0.04464248 0.25750053 -0.17063561 -0.13107711 -0.10570328 0.070197135 0.35120472 0.034912597 0.0029622682 0.37552652 0.025597548
1448 -0.3640752 0.06310085 0.40610725 -0.22741637 -0.110820055 -0.09789438 -0.022054981 -0.15477377 -0.25972804 -0.065747716 0.1793686 0.15306625 -0.37271044 0.028019177 0.30676827 0.23919962 -0.19415143 0.07989282 -0.07301748 0.14875348 0.21387601 0.19514729 0.10256113 -0.29882115 -0.500199 -0.13079695 -0.018457165 -0.0068576583 -0.22355299 0.21523544 -0.0005939179 -0.07331782 0.069062546 -0.25302017 -0.07073225 -0.024707414 0.07282022 -0.20637897 0.27309644 0.013831227 0.033286158 -0.0031276967 -0.033211462 -0.26151085 0.4516785 -0.0016078813 -0.29869205 -0.16891962 -0.0024542066 0.18495148 0.17276573 0.38674763 0.049967397 0.0023220049 -0.30313444 -0.07690275 0.25214678 -0.036498684 -0.022271352 0.28156117 -0.06899172 0.14123794 -0.13890468 -0.13447243 0.37992385 -0.06168798 0.20667273 -0.46761116 0.025560651 -0.041475978 0.0046020485 0.108852886 -0.042756014 0.27574232 -0.121230036 -0.12191074 0.18762392 0.38325387 -0.0048372354 0.22857766 -0.001880897 0.15539373 -0.099421546 0.12353687 0.14562438 0.09959904 -0.033153214 -0.09370266 -0.07453878 0.12043332 -0.049605988 -0.40444094 0.25070345 -0.079298064 0.24365902 0.16477713 0.11655514 -0.104994126 0.11638829 -0.15100779 -0.01242233 -0.13487 0.06567509 -0.009961584 -0.1576105 0.08195778 0.20277981 0.17888841 -0.12326898 -0.08313571 -0.15562971 -0.092371665 0.21772711 -0.08158344 0.22970305 0.07608245 -0.09519054 -0.06533908 0.296859 -0.29091984 -0.071296714 -0.13099048 -0.079215616 -0.07474239 -0.12200582 0.09435687 -0.23002432 0.05792231
1682 -0.17969403 0.09453478 0.10770121 -0.15010542 -0.11637289 -0.32341743 -0.023612976 -0.052984126 0.13194798 -0.30001566 -0.15711781 0.47439232 0.18229687 -0.23128977 0.03165631 0.36330622 0.23163977 0.20304564 0.032109108 0.04534315 0.17699532 -0.5444341 -0.052608717 -0.36994264 0.16822389 0.19878103 -0.006093599 0.05240188 -0.09729426 0.32569042 0.24109523 0.07933832 0.22910611 0.0570542 -0.014027691 0.02450807 -0.04928612 -0.17914699 -0.37163717 0.054676782 -0.57275677 0.03374298 -0.00044805554 -0.15483634 0.25278172 0.1915649 -0.035549395 -0.13477677 -0.368886 0.7271049 -0.27404857 0.11752492 0.22305088 0.13809256 -0.47469097 -0.12483473 0.66354746 0.032097697 -0.07101981 -0.23328602 0.086598925 0.613956 -0.08479214 0.08088341 0.030678043 0.35153282 0.0012827662 -0.0009916903 0.0540103 0.5899561 -0.09663405 -0.1665726 0.031137612 0.24697651 -0.18386962 -0.20402028 -0.34755734 0.45614052 0.07065542 -0.26155406 0.15919681 -0.026889386 0.1611554 0.18357396 0.23680013 -0.6058306 -0.02213383 -0.16288981 -0.30390468 -0.33560675 -0.08300518 -0.39616677 0.09834819 -0.40029302 -0.14796586 0.10563705 -0.07145442 -0.27316436 0.27009946 -0.4541447 0.14348377 0.1671755 -0.2069702 0.055638388 8.572822e-06 0.18240112 -0.19501466 0.2175841 0.15213877 0.3378091 0.049862105 -0.02194386 0.27402446 -0.12750952 0.38723505 0.27440277 -0.19143109 -0.21316993 0.03192934 -0.20356582 -0.29809242 -0.09755082 -0.10184932 0.22833201 -0.41778168 -0.13567275 -0.39668074 0.18600684
1625 -0.10534716 0.0988584 0.099174865 -0.08152236 0.00012993968 0.08596366 -0.0136894835 -0.035474014 -0.1296026 -0.03329307 0.0028631715 0.026049571 0.047756214 -0.006852857 0.24966152 0.087263614 0.33662593 -0.17632298 -0.115965225 0.116378255 -0.012931646 -0.087539606 -0.2288079 -0.14231607 -0.100617036 0.15780123 0.12593277 -0.023997882 -0.31316715 -0.20216785 -0.09121477 -0.152721 -0.028901072 -0.04684412 -0.3224123 0.18544179 0.1942038 -0.18656714 -0.07531067 -0.046409387 0.01113738 0.23160523 0.13801906 -0.42034975 -0.03934547 -0.28027248 0.117109805 -0.06271336 -0.14697044 0.26609322 0.10478116 -0.10621621 0.0354072 0.18447728 -0.26832074 -0.064571075 0.6015194 -0.20908953 -0.011052161 0.08996523 0.29214698 0.29783672 0.007493733 -0.07103913 0.11160115 0.04359649 0.22572708 0.06980155 0.08633603 0.073423795 0.07223032 -0.08030665 -0.16638047 -0.27763113 0.26992518 -0.23658334 0.043330718 -0.02517469 -0.26355398 0.18531808 0.07783578 0.04132306 -0.25973517 0.0100056045 0.24331301 -0.2187517 -0.0343601 -0.09559144 0.08759177 0.042295333 0.0069313967 -0.1989499 0.02238289 -0.17286249 -0.22775692 0.044209782 0.15700641 0.03565472 0.13551353 -0.19127743 -0.4769576 0.3185385 0.09412239 0.33139345 0.060690165 0.1293123 0.012471765 0.116654016 0.009933936 -0.24017112 -0.24817885 -0.18439275 -0.18245219 -0.15468211 0.05743193 0.26806873 -0.14987251 0.06334304 -0.0814076 0.06825914 -0.03225555 -0.16141956 0.24097726 0.041380093 -0.00918104 -0.09150869 0.021153143 0.11882036
2659 -0.22128244 -0.02232002 -0.17392482 0.20602852 0.25089008 -0.24962047 -0.23388502 -0.117026135 0.21204744 -0.22129813 0.41731358 0.3290423 0.045736313 0.06219335 0.45108244 0.10154156 -0.18499996 -0.19220634 -0.13836366 0.27445444 0.08479585 -0.07015591 -0.23942253 -0.28310838 -0.2978405 -0.21853423 -0.0048977314 -0.06728322 -0.09293313 -0.09523457 0.31823948 0.010897377 -0.07306203 -0.33730376 -0.21216199 0.2178165 -0.29061744 -0.024532175 0.08136636 0.16019528 -0.39087486 0.08271363 -0.12109069 0.103442594 0.22500126 0.24650396 -0.07978527 -0.09746998 0.1081291 -0.21783173 -0.13507144 -0.21758683 0.28049123 0.16703457 -0.26611623 -0.1489173 -0.09390953 0.0005081685 0.06990332 -0.008153702 -0.105065115 -0.19365217 -0.35961223 -0.3441439 -0.13633385 0.23624478 -0.09768847 0.014099772 -0.14217107 0.052375212 0.030931147 0.1265328 -0.14804287 0.15101688 0.024588145 0.16275713 0.04922687 0.07284699 -0.20263322 0.12181015 0.04072095 0.11270135 0.19434078 0.123173125 -0.061512142 -0.21345453 0.041284952 -0.1837527 0.28241715 0.15854093 -0.3187392 0.11473568 0.19811231 -0.045689635 -0.03476137 -0.0624687 -0.13255605 -0.08886532 0.039214905 0.10039762 -0.03862308 -0.17015015 -0.47030273 -0.17753014 -0.18775387 -0.18157205 -0.11230019 0.09226156 0.31802264 -0.17168811 0.39595482 -0.2868698 0.080811456 -0.10002738 -0.02556928 -0.051212277 0.3630121 0.07436282 0.28637487 -0.1397466 -0.4020683 -0.11305576 -0.007138698 0.03211275 -0.26274517 0.1362185 -0.19932532 -0.032711446
593 0.12589678 -0.08587507 0.0061764233 0.038576826 0.024495367 -0.094786175 0.16021487 -0.29814667 -0.13762845 -0.06341193 0.0006646509 0.14081426 -0.50160134 -0.35385767 0.2652274 0.21218218 -0.2502825 0.025928162 0.0670416 -0.061444297 -0.021515261 -0.1388098 0.014361541 -0.35959625 0.45829606 -0.07532781 0.2153251 -0.14675097 0.007852866 0.21115452 0.1375345 -0.12880535 -0.10207391 0.07184278 -0.05766817 -0.14066842 0.23071904 -0.15000488 -0.07469326 0.18422842 0.03672322 0.241772 -0.05293716 -0.4399514 0.25664136 0.27154413 -0.229674 -0.12450378 -0.15012011 0.26504055 0.1451148 0.11574516 0.22435476 0.21733178 -0.36517668 -0.18187383 0.21397181 0.034290127 0.10322742 -0.03358709 0.11060797 0.118028365 -0.011605087 -0.22138639 0.049053766 -0.057997014 -0.110857286 -0.14114018 0.1312444 -0.033750247 -0.006133929 -0.12937438 0.015800867 0.07301637 -0.030258585 -0.011271093 0.10359473 -0.027276598 -0.32759854 0.08557922 -0.2734467 0.02295009 -0.004998871 0.2871527 0.032320656 -0.23628747 0.34340277 -0.10953069 -0.28563648 0.2685108 0.1720932 -0.049966153 0.11341831 -0.0916394 0.22046737 0.5055682 -0.33141083 -0.044086494 0.16256848 0.005506087 -0.28467548 0.068130635 0.014193645 -0.08515162 -0.11057572 -0.19255921 -0.005361327 0.15231104 0.22123906 0.24864452 0.07979432 -0.26874378 0.12844749 0.23225605 -0.096154585 -0.031592492 -0.231498 -0.11779049 0.07026625 -0.055108253 0.16255169 -0.16505256 0.047281872 -0.08273568 -0.16274615 0.11734982 0.049779702 0.10936521
3634 -0.031385373 0.12627254 0.12178591 0.033922646 0.36652 -0.08865332 0.00088313606 -0.19145994 0.39126623 0.36912552 0.077184655 0.121210136 0.24589235 -0.32398197 -0.13038568 0.23433122 0.03385922 -0.21623437 -0.03924284 -0.16081299 0.2837657 0.066364124 -0.04617079 -0.20360336 -0.24228756 0.14234467 0.2263893 -0.07583325 0.046702705 -0.201562 0.020626953 -0.23812047 -0.18995571 0.007793453 0.26885206 -0.15623096 0.26819083 0.10267469 0.1823392 0.14513989 0.03401745 -0.18766263 0.009504914 0.009226177 -0.057363205 -0.1197672 0.11123832 -0.042331424 -0.035778504 -0.07114798 0.13024524 -0.08475903 -0.054203264 0.15178207 -0.26965165 -0.16292606 0.45232123 0.09944628 -0.07709008 -0.0007398376 0.14442174 0.34806848 0.22401974 -0.13887663 0.23855124 0.05119019 -0.08396616 0.0004625328 0.09199353 0.14743057 -0.056537922 0.12484009 -0.48898965 -0.093862414 -0.09910009 -0.08230793 -0.14674336 -0.0077096815 -0.025498165 -0.0027802798 -0.083863705 0.21437909 0.22621198 0.23937717 0.030298783 -0.03844543 0.33432356 -0.32316527 -0.16838142 0.056643438 -0.14574654 0.06503569 0.093133375 -0.01665979 -0.14309384 0.022145152 -0.1677415 -0.0025894756 -0.049107917 -0.17074502 0.22959664 0.13297027 -0.14542037 0.27441692 0.20713277 -0.12369271 -0.14353961 -0.014763392 -0.12669592 0.015989665 -0.20943448 -0.07632844 0.031395257 -0.11341765 0.07314785 0.17184511 -0.024923252 0.05986094 0.20180929 0.17110005 0.3710508 -0.060949028 0.057027306 0.04705011 0.29310173 -0.23092683 0.07735272 0.14753802
5558 0.05269838 0.05572527 0.28468433 0.041081015 -0.016752638 -0.09394629 0.22639018 -0.14185855 0.28996778 -0.27079272 -0.4134161 -0.047582425 -0.15199138 -0.20210993 -0.1657227 0.013038516 0.37426597 -0.33225906 -0.3224029 0.13381144 -0.02661159 -0.36460257 -0.095824644 -0.29500106 -0.20400824 0.44112137 0.07686824 -0.44467995 -0.04270204 0.41093993 0.27372402 -0.11417092 -0.04254504 -0.06263869 -0.1803373 0.18848273 0.24046989 -0.16257975 -0.006091117 0.11501981 -0.44678113 -0.1525578 0.10273974 -0.12758148 0.19718592 0.012944629 0.37919587 -0.3557057 -0.03529621 0.030916179 0.040287126 0.07813421 -0.15591034 0.14870508 0.08807756 0.05031452 0.21422477 -0.012783084 -0.15543272 0.07144859 -0.12295895 0.57635397 -0.17070682 -0.23704958 0.16373977 -0.15287496 0.115002476 -0.2732007 0.09937404 -0.0152198095 0.15585339 -0.0018915491 -0.041789744 -0.052686684 0.19406605 0.11920362 -0.24123713 0.20625415 -0.29799896 0.16849734 0.09470456 -0.09201593 0.115652725 0.46455988 0.049409937 0.17144163 -0.3127881 -0.19594252 0.01038011 -0.08909774 0.09554102 0.07571209 0.22444756 0.027455444 -0.08646684 -0.24842107 -0.028069824 -0.12197927 -0.22272196 -0.25533816 -0.28814042 0.38377404 -0.09575678 0.16033672 -0.14312771 0.12497603 -0.10279428 -0.28821898 0.28505287 0.15512148 -0.15191038 -0.41971633 0.32301718 0.14774261 -0.18738882 0.16900896 0.22712222 0.13994083 0.12761304 0.055762876 0.22264929 -0.03088512 -0.08587998 0.013018637 -0.14510736 -0.0072291763 0.034980476 0.0152814705
450 -0.019552756 0.17779405 0.077479616 0.3410193 -0.05803491 -0.11775892 -0.06482608 -0.24652925 -0.07308857 0.08317399 0.12364293 0.1221246 0.068067685 0.039913416 0.20187613 0.1700782 -0.3101811 -0.27353194 -0.023801694 0.35901964 -0.031370565 -0.13643692 -0.03883757 -0.43211102 -0.04090656 0.07067742 -0.27252033 -0.12226192 0.21721077 -0.5798565 0.11075145 0.18725725 -0.020335108 -0.09841538 0.2604141 -0.0023076257 -0.2557342 -0.11343906 -0.1345873 0.18474296 -0.27710116 0.23994689 0.010555988 0.034021158 0.22163615 0.43643206 0.05053678 -0.534625 -0.20555523 -0.103852734 -0.0031739264 0.18933082 0.32201684 -0.024519114 -0.22252817 0.29596466 -0.018808974 0.03003096 -0.23533592 0.11774737 0.46161783 -0.13580136 0.051542483 -0.37729505 0.11473445 -0.24053623 0.07468113 0.3934516 -0.004724944 -0.062228426 0.05878519 0.106382 0.09367326 0.0059914584 -0.40701145 0.015726388 -0.15782358 -0.3867121 -0.07227966 0.8908686 -0.20711917 0.052079055 0.112307206 0.12649731 -0.3897447 -0.5364753 -0.15692082 -0.15663366 0.43595025 -0.023563549 -0.12983009 0.007166458 0.22643793 -0.22232485 -0.17788447 -0.19069964 0.016380029 0.017975446 -0.060688596 0.276935 -0.23077007 -0.15737711 0.015924986 0.22697307 0.08219714 -0.13610944 0.006727087 -0.029281026 0.11264795 -0.09921258 0.30329904 -0.34933603 -0.058718998 0.080631286 -0.07662888 -0.052491453 0.21968514 0.3093557 0.27190048 -0.23025656 -0.4088819 -0.059578497 -0.29861963 -0.18280566 0.023391327 0.34107652 0.050926156 0.23423855
2333 0.11615352 -0.18323046 -0.056038085 -0.09178306 0.12149838 -0.06728016 0.029795082 -0.14827573 0.07085248 0.079950966 0.5083832 0.20628956 -0.17466526 0.007943879 0.04070311 0.1394783 0.0015284166 -0.17852122 0.1367201 0.114204906 0.0594125 0.058441076 -0.044691984 -0.27223846 -0.116083115 0.0032046859 -0.28996414 0.019202111 -0.18606475 -0.2733549 0.22642879 -0.038099606 -0.0023053705 0.084501676 -0.124305554 0.38184384 -0.17030859 0.11050321 -0.28416863 -0.11531646 0.21968538 0.29749328 -0.22985697 0.0041310773 0.2816058 0.1559698 -0.389716 -0.15212534 -0.025765728 -0.07784191 0.08218056 -0.022592897 0.09072359 -0.04489023 -0.095234975 -0.28556067 0.07135219 -0.025487507 -0.16059497 0.011770791 -0.010704977 0.22297321 -0.14361636 -0.041376255 -0.008044947 0.19490963 0.22200944 -0.082774304 -0.02671617 -0.17708893 -0.27464625 0.15814097 -0.18242952 -0.41015118 0.20301579 0.030698543 -0.08155545 -0.04959604 0.15244626 -0.21532825 0.16236584 0.047597732 0.5596679 0.14903201 0.21457039 -0.06278462 0.07838984 -0.10410305 -0.20817171 0.15753147 -0.04867726 0.02088257 0.13666502 0.05304076 -0.28530163 -0.24417008 0.1236086 -0.20969392 0.16481236 -0.11235892 -0.14333235 0.056858953 0.17356104 0.20074208 -0.063297115 -0.19201407 -0.092198275 -0.09320912 0.16238044 -0.22725424 -0.053395636 -0.3575337 -0.14346868 0.1710126 -0.057184484 -0.14151503 0.15806477 0.18305357 -0.28846768 0.30789012 -0.29205945 -0.018362295 -0.38843298 -0.1394053 -0.06349733 -0.08973336 -0.24068315 -0.120344
