500 128
56 -0.29119042 -0.18407728 -0.30496582 0.13697787 0.19918 -0.066108115 -0.12999766 -0.02248665 -0.13714752 -0.012644412 -0.11808591 -0.0003965019 -0.0035801418 0.11463943 0.19091485 -0.0065842927 0.22000307 0.34250894 -0.13526459 0.022469126 -0.22270092 -0.18560211 0.1740387 -0.26903942 -0.10840662 0.33148184 -0.20599706 -0.08662041 0.16588113 0.044667203 0.021709647 0.042740963 -0.03766551 0.17064588 0.14834565 -0.33403057 -0.01062194 -0.0015162209 -0.17697488 0.0022459242 -0.31871456 -0.15099655 -0.12984571 -0.23934399 0.09534703 0.1807013 0.107474625 -0.14969546 0.10860832 -0.15567255 0.023467578 -0.07159716 0.14954571 0.27385488 -0.20388947 0.2262456 0.11807482 0.0011401012 0.1095197 0.28824818 0.112831704 0.121067286 -0.050824244 0.04638976 0.13453898 -0.2965608 0.024374127 -0.0060739205 -0.21271165 -0.13178971 0.0529807 -0.3471505 -0.18441324 -0.23036295 0.014197108 0.047388088 0.3183251 0.08931654 0.010238896 0.26069683 0.05491913 -0.05626704 0.1936749 0.101217024 0.25690022 -0.1677084 0.21842921 -0.296615 -0.10086078 0.13807285 -0.12333031 0.522327 -0.07051794 0.22043283 -0.11851691 0.15564963 0.21735346 -0.03189787 -0.20640363 -0.24386033 0.027608112 -0.2338953 -0.06744923 -0.25035778 -0.10059643 0.054234482 0.059701227 -0.2053782 -0.17595881 0.03272371 -0.23469432 -0.06334202 0.20396982 0.18383259 0.03487027 0.38589302 -0.0661316 -0.33375522 -0.007786384 0.42382154 -0.3069569 -0.21506749 -0.0041195005 -0.18866296 -0.057224058 0.06383405 0.023766553 0.20054579
405 -0.5121328 -0.2991663 -0.26828328 0.16724466 0.024416588 0.31654716 0.039021656 0.14205724 -0.20660952 0.11062017 0.03782678 0.15819374 -0.1706017 0.10833846 0.11339015 0.16346459 0.09269244 -0.17858727 0.3217988 0.014671905 0.08054011 -0.042861275 -0.026547236 -0.19282165 -0.24148935 -0.013081998 -0.10273843 0.009456078 0.051112685 0.28787 -0.07550029 0.04871581 -0.024391841 -0.04281131 0.1184515 -0.35120216 0.13604684 0.17174996 -0.11669028 0.2419496 0.19500847 -0.004419528 -0.27305868 -0.19347061 -0.11305537 0.023787415 0.22870836 0.36859006 0.2096457 0.14809228 -0.02725554 -0.053814627 0.14910354 -0.19300963 0.026158119 0.060810696 0.08169122 0.28769675 -0.07161942 -0.010210803 -0.14090131 -0.22777015 -0.1084587 -0.399366 0.005817496 -0.32232457 -0.07577751 0.1477857 -0.23125035 -0.12623915 0.13280363 -0.09043523 -0.19751172 0.015429041 0.0461351 0.13103086 0.19082665 0.31272724 -0.032153875 0.029720536 0.15371938 0.11674468 0.025022604 0.341336 -0.12667373 0.13357002 -0.10038692 -0.08451097 0.05575051 -0.11317943 -0.14497608 0.034582626 0.18720298 0.21187471 -0.13312523 0.14615022 0.0880285 -0.103880316 0.020859387 -0.05473683 0.014384791 -0.10415457 -0.104784176 0.07918713 0.36079073 -0.2033748 0.1026276 -0.028088264 0.31324887 -0.2343973 -0.13416556 -0.25036395 0.0903371 0.04437306 0.032595955 -0.011895848 0.03442381 -0.18722829 0.13308334 0.38129228 0.093403235 -0.08871677 0.11744888 -0.360944 0.05387566 -0.10534478 0.07478912 -0.26518565
302 -0.11325001 -0.4036093 -0.42483938 -0.015730148 0.10938025 0.012712711 0.2308861 0.12096778 0.13964078 0.021501314 -0.09424441 -0.19795397 -0.029521095 0.37464842 0.08426764 0.15339932 -0.008210908 -0.17036149 -0.08049311 0.12813853 -0.10676914 -0.1477753 0.13081218 0.14678514 0.0833577 -0.21544594 -0.011234136 -0.1300617 -0.3228422 0.13075775 -0.13912529 0.040708516 0.05955535 0.027020171 -0.103704214 0.032594893 -0.014831096 0.0202983 -0.15728547 0.12834346 0.018878508 0.06930026 0.007813343 -0.05867434 -0.11147745 -0.056635395 -0.0978529 -0.034281425 0.13739204 -0.27646947 0.26477018 0.07786166 -0.11951803 0.2169173 -0.27034473 0.031133682 0.004194744 -0.06671687 0.0049041575 0.5219678 -0.09504812 0.092788205 -0.12609681 -0.08335605 0.15835918 -0.19880314 -0.016754678 0.07918222 -0.12767191 -0.35130048 -0.018417466 -0.08062821 -0.19734967 0.010651428 0.2515675 -0.14842182 -0.08169848 0.02898122 0.22314778 0.019870074 0.1130589 -0.079756215 -0.007253086 -0.11898902 -0.0063279346 -0.10481202 -0.09753985 -0.48036036 -0.22221531 0.1510226 0.030138446 0.38092357 0.20614588 -0.13718995 -0.23404565 0.15676092 -0.17280452 -0.06911842 -0.11660326 -0.19197711 -0.009461754 -0.5186473 -0.1542169 0.004597659 -0.27830303 0.22635128 -0.22303094 -0.08108471 -0.11390889 -0.060692463 0.025489911 -0.031651814 0.42089427 0.5417809 -0.09635736 0.10532783 0.039196372 -0.030857686 0.303256 0.37682664 -0.4541322 -0.22914198 -0.119130276 -0.055032987 -0.0006765524 -0.07644905 0.020140136 0.20343006
475 -0.62130064 -0.03604632 -0.2985262 0.2416572 0.018683212 0.31248516 -0.09152924 0.13513781 -0.35694832 0.29395896 0.030079763 0.3022973 -0.32040092 0.10439507 -0.074128985 0.1868614 0.03607134 0.00056852354 0.058513448 0.03204971 -0.059982914 -0.20553589 0.07937698 -0.13691407 -0.023643423 0.023841035 0.010679349 0.12741454 0.14777777 0.085946195 0.17191644 -0.03876816 -0.073702134 -0.029083228 -0.07023472 -0.29248047 0.03219962 0.21447378 -0.036425922 0.20300764 0.123169385 0.08193577 -0.1565628 -0.28580087 -0.10715507 0.12229706 0.26632923 0.21285778 0.10247991 0.12696873 -0.18381014 -0.23243462 -0.044554617 0.10256956 -0.0035663205 0.023559915 -0.13361746 0.35212806 -0.21462683 -0.12319883 -0.15772334 -0.09816955 -0.047788892 -0.07761802 -0.0078653 -0.18451658 -0.1634397 0.15844268 -0.06232593 -0.122009 0.35374737 -0.14516619 -0.15709543 0.09450272 0.1061005 -0.26871037 -0.050218474 0.071305275 0.012561059 -0.23646912 0.038649905 -0.072317466 -0.2047297 0.25463662 0.16823715 0.0351937 -0.20571259 -0.025146686 -0.09386283 -0.022723217 -0.061344933 -0.09872097 0.23948254 0.1360953 0.009104225 0.24177155 -0.14213078 0.04175259 0.032552965 0.045048285 0.079808645 -0.14085068 -0.20244323 0.17233407 0.24801213 -0.051337913 -0.1510344 0.051636007 0.19900075 -0.055131022 -0.06991707 -0.22632569 0.11209141 0.085248806 -0.21733591 0.3195092 0.07569224 -0.2798611 0.2943961 0.26953536 0.050470673 0.09036528 0.23613937 -0.20964766 0.18953237 -0.26617882 -0.108291626 -0.12282341
384 0.19600561 -0.3804557 -0.14620212 -0.30059543 0.06640609 0.040501557 0.3755518 -0.16573313 0.03855654 0.31961423 -0.189176 -0.3867481 -0.23735853 0.21737479 -0.17134775 -0.030213745 0.13053064 -0.054993946 -0.06387279 0.1747544 -0.24283135 -0.16812342 -0.10719127 -0.24514334 -0.07137446 -0.2919395 -0.1830601 -0.11271444 0.018932723 -0.12896886 0.45751968 -0.008339601 -0.11140878 0.070646785 0.3548599 -0.06588557 -0.34294352 0.10022606 0.027986893 0.012085646 0.10914663 -0.10563326 -0.2437209 -0.10834866 0.15217575 0.17926504 -0.14091575 0.01983913 -0.06789196 0.023386039 -0.041024726 0.23374358 -0.18431859 -0.12923816 0.07431717 -0.10293702 0.3187949 0.071314044 0.266284 0.2803332 -0.21087657 0.17909075 0.22107887 0.08576337 0.36541563 -0.07255497 -0.38946962 0.080033176 -0.0281796 -0.21675539 0.03733073 0.009208208 -0.3509922 0.015275344 -0.0714451 -0.20388436 -0.4652847 -0.02827022 -0.3220323 0.0017449679 -0.09269675 -0.055580296 -0.36464575 -0.1914144 0.10961754 -0.07476002 -0.19011182 -0.14087264 -0.14613898 0.01068335 -0.070678264 0.09545715 0.08945315 0.0036988116 0.118547715 0.16477978 -0.047235776 0.019223088 0.12514901 0.057988666 -0.28214827 -0.04441634 -0.16035852 -0.19134426 0.055370934 0.27288997 0.22532175 0.01089711 0.09845773 -0.14423409 0.096084885 0.39180687 0.08108555 0.14382607 0.038262162 0.04207377 0.006533358 0.2499824 0.21049744 -0.016897108 -0.43649575 -0.3498191 -0.050630886 0.08147297 0.07792359 -0.07864011 0.10569016 0.054471195
211 -0.14913994 -0.30145755 -0.22894995 0.19125837 0.16082458 0.14463297 0.2314222 0.14659242 0.015224287 0.09122401 -0.13441883 -0.004735125 0.02080933 0.2647957 0.20908765 0.033336934 -0.056865502 0.07202733 -0.024829233 0.07736039 -0.1218897 -0.21990815 0.17249669 0.0828646 0.11854947 -0.08243455 0.05322387 -0.184095 -0.15145363 0.06110204 -0.064296335 0.08104167 0.03358111 0.1940514 -0.3655063 0.020171685 -0.09375549 -0.044563033 -0.009210923 0.25387546 -0.14698526 0.05011933 0.11169948 -0.07039858 -0.24505134 -0.05758197 -0.03508646 0.08167384 0.08801606 -0.31717968 0.10007618 0.082036346 0.0095821805 0.15453607 -0.25927734 0.031007303 -0.09258284 0.071423925 0.07584498 0.39386278 0.14550847 0.0062760534 -0.029379983 -0.016544001 0.10669959 -0.4445125 0.024983952 0.021718197 -0.14020865 -0.397662 0.0050184815 -0.2627727 -0.16111003 -0.037896045 0.14965199 -0.1346694 -0.025204184 0.2381657 0.06585407 -0.069371134 0.1796973 -0.09187617 -0.059602767 -0.1820729 -0.06441712 -0.094609894 -0.103819154 -0.2948941 -0.21316515 0.09796914 -0.23185368 0.30041456 0.1354201 5.666132e-05 -0.33261853 -0.0030596294 -0.14177318 0.068622306 -0.03985968 -0.15270868 0.12793842 -0.51180595 -0.21812625 -0.0807719 -0.11570588 0.16216278 -0.21827424 -0.1769725 -0.3241256 -0.14482023 -0.030394046 0.07330988 0.27927488 0.52992344 0.0045808153 0.34496105 -0.07143638 -0.27546227 0.23233303 0.20913692 -0.3924109 -0.33442992 -0.13103575 -0.039503045 -0.052117098 0.10401902 -0.04023866 0.072358645
397 -0.17333053 -0.44159216 -0.20935959 -0.09962435 0.08955612 -0.114823096 0.28247458 -0.2687463 0.007494094 0.20111755 0.16799738 -0.0037811645 0.060416393 0.38243607 -0.18901303 0.019225106 0.2183766 0.12584981 -0.15305209 0.42237467 -0.16026665 0.07635381 0.05663957 -0.31808686 -0.3497662 -0.19997546 -0.19691712 -0.08691846 -0.087227196 0.09188923 0.01329861 0.10230398 0.2829945 -0.04472482 -0.031290144 -0.049002264 0.019450588 -0.045218278 0.22660522 -0.089075856 0.010576945 -0.056590173 -0.016398402 -0.22062868 0.20650053 -0.33998916 -0.100543566 -0.06881369 -0.007128675 -0.045411367 -0.11123033 -0.2502492 -0.02603667 -0.028429817 0.2112214 0.10587985 0.19302772 -0.26045436 -0.022289798 0.112125434 -0.22033244 -0.03246314 0.0041968646 -0.31446725 0.22854626 -0.18580818 0.053215895 0.035891242 0.16666779 0.010202581 -0.018470256 -0.06292558 -0.36419952 0.30293614 -0.0496653 -0.21771997 -0.0855169 0.09542491 -0.37807217 0.06150086 0.0050167777 -0.16512522 -0.024940599 0.050603244 -0.06350921 -0.05315272 0.052055545 -0.22263749 -0.20743956 -0.09463772 -0.1135473 0.46411666 -0.21711877 -0.14207023 0.19799785 0.24098301 -0.000565723 -0.1595117 0.20707554 0.006801954 -0.20841439 0.020372134 -0.14377822 0.035915323 0.09223143 -0.04410345 -0.0884851 -0.16193585 0.09629034 -0.018162195 0.08041574 -0.17235494 0.11133746 0.17280073 -0.029974056 -0.08435144 -0.21732935 0.2927813 0.4304169 0.039584473 -0.21236557 -0.11312303 0.060998783 0.09669175 0.14331967 -0.19251116 -0.002553957 0.2421577
319 -0.33897057 -0.5641296 -0.13834292 -0.107991464 0.2754673 0.02496159 -0.06829588 0.07860999 -0.0057123452 0.054159626 0.029560117 0.12816046 -0.099702 -0.14001985 -0.035752982 -0.108810246 0.04409091 -0.42504498 -0.17994097 -0.07581088 0.10683624 -0.020724585 0.02758849 -0.34016037 -0.01692871 -0.097249344 -0.31503305 -0.19396122 0.18671463 -0.07585411 -0.10200283 0.20454141 0.0910592 0.10690476 0.047169458 -0.35185784 0.43125924 0.23939013 -0.023812046 -0.082679756 -0.23730205 -0.15766026 -0.1505389 -0.23084453 0.13461581 -0.08270362 0.1268507 0.1687534 -0.20331271 -0.24685955 -0.048716 -0.30222255 0.26194236 0.16287354 -0.043151807 0.09216178 0.13083106 -0.028029181 -0.030376874 0.15761277 -0.3292584 0.10274364 0.0666871 -0.6026439 0.1812198 -0.16640054 0.0035597156 -0.08239147 -0.21274683 -0.21633454 -0.06507892 -0.28893137 -0.28414044 -0.0862725 0.08101243 -0.1481536 0.22978969 0.23212859 -0.21369624 -0.10184643 -0.089140795 -0.02768497 0.13606472 0.19406292 -0.07049553 0.08745233 0.08920681 -0.0029005683 -0.34173402 0.19256933 0.0030468476 0.27740023 -0.17925718 0.22008397 0.082417846 0.174012 0.2007145 0.030054314 0.27882516 0.0012768386 -0.07112621 -0.016317716 -0.24218266 0.3371466 0.19634025 -0.30871943 0.0091079855 -0.38622117 0.003540467 0.048906162 -0.023160636 -0.31780994 0.03880856 -0.011457315 -0.01863227 0.00796954 -0.3977686 0.062468838 0.31303352 0.19833198 0.16660152 -0.30299056 0.28760526 -0.18799077 0.04120456 -0.21234381 0.22414167 -0.008843548
471 0.031160543 -0.12774873 0.1417508 0.2538072 -0.19770296 0.08562178 -0.09296219 -0.050198272 -0.17744869 0.21723562 0.040133383 0.20661946 -0.1003584 0.012864769 -0.2724404 0.02244802 -0.2818836 0.2907909 0.21891592 0.014536983 -0.24837252 -0.0894215 0.1543877 0.05450207 0.05394507 0.11272384 -0.22219299 -0.102995895 0.10179318 -0.2688837 0.060358256 -0.19214521 -0.13026135 0.19334458 -0.09824475 0.3104117 0.21456163 0.04653809 -0.38236865 -0.041227248 -0.15204372 0.09668183 0.22129472 -0.13287163 0.0894724 -0.15149477 -0.07942298 -0.05563474 -0.05352482 0.087025896 0.16550162 0.14057465 0.17258644 0.14951655 -0.1331142 -0.12395264 -0.142202 0.25811473 -0.008542417 0.20943768 -0.27526975 0.040532198 -0.35630235 -0.095847435 -0.23188232 -0.19967924 0.2680389 -0.09008994 -0.20267732 -0.13240658 -0.7022174 -0.16036516 -0.49360815 -0.10000243 0.13551348 -0.13091502 0.029977683 -0.047669616 0.03426326 -0.07900341 -0.25426915 0.101443134 0.05693903 0.28359857 0.0696637 -0.21681477 -0.08216679 -0.24040273 0.4229804 0.039476868 -0.32799685 0.18403365 0.3448807 0.15156648 -0.08538303 -0.031880606 -0.14932823 0.13797966 0.14055087 -0.11127069 -0.02390346 0.03626617 0.19467482 0.13426419 0.107514314 0.22056228 -0.020985356 0.06208903 0.2399704 0.047646075 0.13855596 -0.13927275 -0.16781898 0.14113371 -0.0014676095 -0.05125796 -0.117298186 0.106070034 0.30425087 -0.29278755 -0.12125252 0.048585895 0.37887353 0.07365774 -0.4032385 0.031176005 0.2349048 -0.09236969
313 -0.17333053 0.115085565 0.27796355 -0.025759287 0.0083051445 0.49595118 -0.10814343 0.14669178 -0.07985357 0.1512237 0.17339827 0.02674704 0.30109608 0.1818054 -0.14417031 -0.03593976 -0.13017097 -0.22905985 0.13123961 0.47017673 -0.031104237 -0.19073609 -0.23716892 -0.03716017 -0.17071474 0.3638057 0.09725943 -0.05356318 0.013217868 0.22094218 0.19036345 0.0962416 -0.30010107 0.18302485 0.022527743 0.05551632 0.22138582 0.11756359 -0.18143918 0.059930384 -0.40726957 0.048639216 0.0053776875 0.29569 -0.05617075 -0.031596232 0.2316875 -0.0011138835 0.1623821 -0.015110281 0.1866373 -0.12579456 0.014732291 -0.014888537 -0.19755505 -0.25015816 -0.024401994 0.25532338 0.006421215 -0.13709477 0.13572894 -0.07613768 -0.04779897 0.09813602 0.07925989 -0.027113033 -0.3848143 0.0109169055 -0.025452979 -0.32285944 0.13293321 0.22590533 -0.027276872 -0.2552657 -0.10500612 0.0032476683 -0.13384053 -0.15744454 -0.29943216 0.10069627 0.14636353 -0.013133575 0.30676723 -0.2710298 -0.20277008 0.3809412 -0.28930724 0.18098511 0.2531737 -0.28932264 -0.2759795 0.3131653 -0.24231075 0.15974191 0.14456886 0.32025146 0.08807769 0.08844625 0.13956515 -0.18042739 -0.06471346 -0.20435219 0.092207074 -0.1553855 -0.37199107 0.14157906 0.1879067 0.17421108 -0.07121884 -0.21797267 0.22811262 -0.048723657 0.10333531 -0.32240382 0.14262287 -0.10765372 0.10110609 -0.40447208 0.4687697 0.08320227 -0.25040373 -0.30470166 -0.11320768 0.036515214 -0.0068933833 -0.07382945 -0.07555815 -0.12087602
389 -0.07620659 -0.14621218 -0.28638735 0.030547151 0.13556674 -0.066295736 -0.1625368 -0.024370514 -0.086924344 -0.1447779 -0.24040309 0.21917097 0.12539785 0.15017386 0.04615607 0.1419037 0.16884044 0.2026901 -0.10585985 -0.008519952 -0.23552705 -0.04688664 0.22759877 -0.22367524 -0.08971338 0.3159225 -0.15307419 -0.05851585 0.16081724 0.053613283 0.09566222 0.06945946 -0.12333552 0.15607776 0.20270208 -0.15258227 0.22428067 -0.20290463 -0.27962872 0.20172118 -0.4305723 -0.06376406 -0.2253408 -0.29292017 0.21808611 0.04983524 0.097301394 -0.2902352 -0.02658436 -0.09850739 -0.15577614 -0.021957025 0.17363803 0.4236642 -0.4019587 0.14043514 0.24033275 -0.03282618 0.13315335 0.29901206 -0.05034588 0.0042372597 0.07735889 0.16785449 0.02658579 -0.27704483 0.069868326 0.13486311 -0.3645833 -0.22298697 0.04132088 -0.31298456 -0.15665284 -0.14721347 -0.091671385 0.025309317 0.42700085 0.060066875 -0.05239866 0.114952795 0.14261423 -0.043439437 0.14878374 0.05520574 0.14029525 -0.050881263 0.18137164 -0.31057522 -0.12665492 -0.07536528 -0.075331345 0.34141508 -0.21887216 0.25539213 -0.013739915 0.09615843 0.051565032 -0.104595095 -0.17688717 -0.26769683 -0.0074781105 -0.107459016 -0.15807916 -0.2838498 0.20952392 0.03669788 -0.007522929 -0.07629393 -0.12059294 -0.006628719 -0.14291392 -0.10398205 0.09658828 0.16053163 0.02834428 0.510166 0.091250844 -0.094876304 0.048284758 0.2539168 -0.30829272 -0.25595656 -0.0076613664 -0.12063686 -0.031303793 0.20262626 -0.031185918 0.08449806
108 0.106815174 -0.18612859 0.05366267 0.10098691 -0.29374778 0.013637953 -0.033101145 -0.19665326 -0.10045323 0.10104119 -0.040315315 0.1832135 -0.08409674 -0.03847653 -0.0609005 0.114235684 -0.01695884 0.17897828 0.16845891 -0.17748448 -0.23108566 0.009496453 0.12642579 -0.061924 0.028692137 0.20863627 -0.21475884 0.20770508 0.13301589 -0.24398102 -0.0007594541 -0.07109201 -0.052058123 0.20366521 -0.021250676 0.24281058 0.03638506 -0.011781205 -0.36732408 -0.07210456 -0.16930218 0.0096241115 0.07262944 -0.033440623 -0.069298685 -0.17312834 0.054021165 -0.045048255 0.20110817 0.37951064 0.28347322 0.10254882 -0.047248796 0.14585732 -0.096532375 0.1365789 -0.16969277 0.08016887 -0.026139272 0.28081384 -0.44318527 0.43046337 -0.3109337 -0.15756238 0.1269002 0.16266459 0.1108812 -0.13759764 -0.07462098 -0.07379289 -0.65419745 0.0100866845 -0.4537943 0.04510808 0.05675382 -0.15765479 -0.044704705 0.12618716 0.1920807 0.12397769 -0.038092814 0.030888012 0.11679659 0.13133173 0.055829287 -0.09115663 -0.26874793 -0.16978958 0.3391384 0.16137318 -0.09948009 -0.014245841 0.2562213 0.10044087 -0.048509814 -0.081504785 -0.054330695 0.011988672 0.08972633 -0.19245157 -0.122987665 0.08105391 0.12928554 0.44423416 0.115682326 0.30950403 0.040321715 0.033691842 0.20743677 0.0789886 0.0058759884 0.09061759 -0.120188706 -0.0005624298 -0.24939531 -0.09551062 -0.13666579 0.030283984 0.46783668 0.11653031 -0.27729174 -0.065685846 0.40677863 0.2337929 -0.33208427 0.10349999 0.25195637 -0.20597857
497 0.07577037 -0.25691864 -0.13167483 -0.044113565 0.06412415 -0.07804643 0.3220565 -0.35202083 -7.936172e-05 0.31331897 0.062218443 -0.12215202 -0.17944035 0.25279292 -0.31296292 0.21761355 0.22449301 0.10727007 -0.027548559 0.41337618 0.017812159 -0.0583806 0.03717666 -0.28659537 -0.24251808 -0.19850668 -0.26319805 -0.074363634 0.012975441 0.12180756 0.08191971 0.13154572 0.15420382 0.026170932 0.0917732 -0.18998536 -0.11739653 -0.0649583 -0.076272696 -0.13045739 -0.021611137 -0.1367072 -0.124394886 -0.076581575 0.01056427 -0.1804475 -0.17711954 0.07601448 -0.089698076 0.09740199 0.10537224 0.0043392284 -0.10785145 -0.077794984 0.1127478 -0.2025985 0.38564757 -0.34397018 0.032872077 0.13433537 -0.17622006 0.018291278 -0.015080257 -0.11332556 0.13647375 -0.21924004 -0.16574757 0.071898125 -0.17569554 0.010891354 0.13297784 -0.014180927 -0.32921326 0.10540368 0.031173004 -0.37364885 -0.17652296 0.14390829 -0.28792062 -0.004124933 -0.037108455 -0.10744047 -0.22567615 -3.56658e-05 0.030265938 -0.026221272 -0.20548733 0.027818134 0.121223584 0.01408787 0.111250766 0.3234035 -0.15057103 -0.08436502 0.23143703 0.13089629 -0.030996447 -0.093808 0.1666264 -0.17540845 -0.3266287 0.016592355 -0.1808565 -0.16329938 -0.08002232 0.11151462 -0.061761707 -0.0072889565 0.23148733 0.07152289 0.11981387 -0.0044193296 0.20230196 0.13347605 0.13338679 -0.23326848 -0.12823541 0.31359476 0.18654613 0.23897119 -0.54080224 -0.044652026 0.01918916 0.111188605 0.20450413 -0.24121916 0.24963695 0.20882073
452 -0.32478195 -0.20401144 -0.2595203 0.0988286 0.30118868 0.034549616 -0.053121623 -0.20382129 -0.12975697 0.108905375 -0.14839299 0.031490207 -0.0028408677 0.1690912 0.31007895 0.081745 0.03202588 0.19575635 -0.22089039 0.10005111 -0.2301217 -0.30149367 0.119295366 -0.29242775 0.031581055 0.25336254 -0.17860883 -0.12649474 -0.026653087 -0.0067015877 -0.12771574 0.052340288 -0.10255582 0.0032212692 0.24597742 -0.31606206 -0.051693972 -0.1365517 -0.21035475 0.0413917 -0.20413409 -0.13480037 -0.12067723 -0.30619654 -0.0340791 0.31916416 0.034838557 -0.23461063 -0.010762426 -0.26551497 -0.15270571 -0.14984402 -0.055335045 0.15902321 -0.034762118 0.09494723 0.09812629 0.15544644 0.3597112 0.48855317 0.0021137542 -0.11047408 -0.20165995 0.0533752 0.2035138 -0.3090413 0.07341625 -0.20579962 -0.38118634 0.0024255286 0.033896375 -0.30733618 -0.26146308 -0.19350271 -0.16791223 -0.07619985 0.27806875 0.18813877 0.1398926 0.15939203 0.014187333 -0.24346307 0.106010266 0.034813333 0.027593637 -0.1167328 0.35600477 -0.17741202 0.07126853 0.019642478 -0.18883605 0.40927017 -0.11997806 0.1301872 -0.012320773 0.099504255 0.030999228 -0.03597302 -0.22337152 -0.25547218 0.11834233 -0.329714 -0.052052263 -0.22286862 -0.036920223 0.025513494 0.15025988 -0.3611714 -0.19060422 0.04404707 -0.17213176 0.016276823 0.37462842 0.08363124 0.23562191 0.2870659 -0.21424799 -0.16218162 -0.03400546 0.3246169 -0.19980751 -0.23014429 -0.026427241 -0.16068119 -0.14912902 0.22824873 0.0022376748 0.06746279
60 -0.23451957 -0.41120946 -0.2000172 -0.060059976 0.160003 -0.091989785 0.026166717 0.065108925 -0.11494422 0.024122005 0.0054243775 0.28183216 -0.014049546 -0.054665156 0.07220999 -0.08334991 0.18434222 -0.09643807 -0.0416858 0.03697213 0.06442481 -0.3592181 -0.074342296 -0.50646526 -0.041555222 0.0018746697 -0.17546111 -0.28622705 0.19423106 -0.1684255 0.101085804 0.27116868 -0.06566319 0.14222786 0.042713415 -0.41823885 0.27367455 0.18156612 -0.071862414 -0.0153097 -0.2756749 -0.20037286 -0.06608934 -0.23580198 0.18606101 0.024980288 -0.0014246551 0.1292627 -0.24779557 -0.3999476 0.11985509 -0.23011044 0.28615883 0.31329954 0.07057495 -0.059149522 0.27108207 0.06106693 0.00049430004 0.31711376 -0.32234254 0.0025668463 -0.04646319 -0.5012663 0.14461043 -0.25113508 -0.06432128 0.015966542 -0.15305108 -0.13555121 0.04517927 -0.2632819 -0.34536934 -0.011338949 0.05128467 -0.0075637815 0.3297013 0.0908216 -0.10084531 -0.054337762 -0.049475774 0.040611327 0.11260301 0.12894276 0.10668521 0.04777957 0.2537542 -0.0050614947 -0.36392605 0.08565179 0.0011483139 0.32836056 -0.05681636 0.25367248 -0.083479054 -0.025759242 0.15872106 0.046551555 0.42164657 -0.1953405 0.13205968 0.054682232 -0.055547997 0.17841002 0.26656112 -0.20565732 -0.059769437 -0.279099 0.05507106 0.19149944 -0.25704128 -0.38144702 -0.04275806 -0.009804012 0.007857907 0.12954946 -0.38884583 -0.090472 0.13352947 0.26515126 0.10659906 -0.3663995 0.19848426 -0.03343935 0.07749723 -0.15633906 0.121612914 -0.011765696
432 -0.25899845 0.15640996 0.38091424 0.21379213 0.07890959 0.27846366 -0.26033464 -0.014679835 -0.12478005 0.21634601 0.22399068 0.13515604 0.3598486 0.40820834 -0.23002914 0.14700025 0.030549966 -0.092058055 0.03153267 0.42055106 0.13679634 -0.35005295 -0.02552257 -0.16598135 -0.22106902 0.45140097 -0.13426797 0.11201735 0.22453375 0.16755523 -0.11143547 0.26197916 -0.33750445 -0.019746182 -0.0014808887 0.10034269 0.09448928 0.016766543 -0.18262558 0.0885647 -0.39710662 0.024635106 0.15287969 -0.047691327 0.023639519 0.12844792 0.24096006 0.019708315 0.088837855 -0.19046739 0.04285742 0.21282732 -0.07358323 -0.044679083 -0.112861834 -0.16643155 -0.24933682 0.22797854 -0.048325192 -0.2395208 0.13676694 0.20856099 -0.014848957 0.03376376 0.10178819 0.027220644 -0.1065057 -0.12557256 -0.24365312 -0.26200643 0.10908555 0.060086336 -0.008435292 -0.17766 -0.13750003 0.039847642 -0.18827422 -0.23051746 -0.27694067 0.31865072 -0.14341752 -0.03669227 0.20376128 -0.25812465 -0.20604919 0.27915064 -0.23790032 0.13139564 0.16698621 -0.14371653 -0.24137841 0.23660943 -0.25685588 -0.040944498 0.20811856 0.21441056 0.0101061845 0.1918904 -0.18277077 0.018447228 -0.06240017 0.11252306 -0.101855315 -0.22393489 -0.32403255 -0.035934128 0.2249168 0.19707966 0.014632754 -0.299303 0.30529782 -0.09016407 -0.096277155 -0.13342914 0.31092957 -0.040765096 0.20353928 -0.23175384 0.24829848 0.23428296 -0.22873622 -0.37877122 0.052188653 -0.057052046 -0.06748094 -0.20922573 0.0028204387 -0.19349225
359 -0.446473 0.39948767 -0.04447288 0.2822717 0.40653053 -0.13646773 -0.08034125 0.23024966 0.122885175 0.26573426 0.124653645 0.22965023 -0.039530516 -0.19989094 -0.08809547 0.26716438 -0.3049747 -0.013925068 0.25139004 0.17782031 -0.031637605 -0.18746506 0.40761724 -0.15429714 0.05248377 -0.25042084 -0.04766303 0.31507784 0.19251245 0.15338174 0.095747374 -0.46424332 0.07124868 -0.24624145 0.07829901 -0.2489423 -0.0058539794 0.14926083 0.032984905 0.11961481 0.19310205 0.01902267 0.18056658 -0.19531459 0.026961034 0.09297581 0.030527046 0.3500559 0.16371228 -0.16603783 -0.11264547 -0.3398864 -0.0117684435 -0.025731293 -0.08656719 0.27485016 0.2752903 0.12346305 -0.014790449 -0.03788417 -0.0521604 -0.01834283 0.018511502 0.0754327 0.3372658 0.1026777 0.040898092 0.2822128 -0.10981375 -0.17821857 0.3939742 -0.028340882 -0.23902792 -0.037688795 0.16543786 -0.22731005 -0.14956947 -0.003939587 0.022134343 0.12611935 -0.0317057 0.0625899 -0.03014205 0.19800602 0.22570357 0.20652393 -0.07664303 -0.22819003 0.19956274 -0.325343 -0.14729062 -0.048860222 0.03559708 0.45625213 0.07922168 -0.18103018 0.09440659 0.0832012 0.011218413 0.35699356 -0.1676973 -0.020251477 -0.70420736 0.011114281 -0.050861888 0.10455538 -0.28074676 0.23588336 0.047166478 -0.16330397 -0.1523706 -0.3459595 0.27742317 0.1563819 -0.3198224 0.29871076 0.05042731 -0.33672202 0.3432697 -0.17997009 -0.18057129 0.17687471 0.23214833 -0.23683041 0.3992397 0.16341616 0.29710954 0.37463436
147 -0.3110654 -0.010264142 0.30660096 0.21459913 0.02899669 -0.006079936 -0.31084156 0.15370283 -0.26637027 0.29784244 0.14553156 0.24321999 0.19799343 0.30789122 -0.3803618 -0.05008414 -0.056679595 -0.14389768 0.017106602 0.2866902 0.09371694 -0.2763587 -0.14675413 -0.25480288 -0.09577931 0.24859963 0.087191045 0.013707789 0.34261677 0.034523424 -0.12661706 0.1457821 -0.330115 0.2033251 0.18160398 -0.14126086 0.08636571 -0.18790157 -0.13407762 0.17078741 -0.509396 -0.21584707 0.027891852 -0.2936483 0.0074742455 0.16793446 0.15268019 0.17719898 -0.06816765 -0.119738616 -0.21016072 0.18906496 -0.1635757 0.056559164 0.026003798 0.15466174 -0.120542765 0.1622861 0.19165437 -0.020296132 0.042575072 0.22574955 -0.041449193 0.122697875 -0.057256926 0.102535985 -0.20768039 -0.011601693 -0.10299448 -0.29531187 0.14925599 -0.31567332 -0.18102458 0.04163112 0.09031222 0.08049166 -0.2296804 -0.2543264 0.039141413 0.45513383 -0.08902576 -0.028831651 0.01752592 -0.06729429 0.05534631 0.43011206 0.0026793715 0.098314814 0.08658214 -0.28349262 -0.1292888 0.06241852 -0.15110627 -0.36975512 0.000830905 0.08083308 -0.13377403 0.15898086 -0.24258797 -0.37963796 -0.10476815 -0.026296604 -0.06445561 -0.33332863 -0.34070632 -0.062504135 -0.15220617 0.29428455 -0.10129547 -0.452208 0.54333144 0.11627174 -0.052674342 -0.1544613 0.50089526 -0.057060175 -0.06783355 -0.20492932 0.30296573 0.20119108 -0.25285068 -0.2208671 -0.0058478806 0.19707683 -0.35504988 0.041593593 -0.10537312 -0.20200126
482 -0.14344937 0.10238167 -0.042498287 0.038849 0.28123146 0.13183299 0.046567574 0.28056425 -0.32536805 0.28028268 0.026709676 -0.014092568 -0.08895672 -0.19524385 0.2946278 0.1719092 -0.22873393 0.11280881 -0.23214525 0.15568596 -0.0182084 0.039951723 -0.0036732547 -0.072585806 -0.08165879 -0.0682385 0.268757 0.050058797 -0.1722989 0.26466897 -0.28886274 0.41146162 -0.31917313 -0.13438627 -0.07647164 -0.09950343 -0.1430059 -0.107702136 -0.20593663 0.029448627 -0.43487394 0.07275911 -0.09738887 0.05585455 0.21508151 0.3975917 0.08112864 -0.13995945 -0.23772931 -0.24472821 0.16554359 0.41181886 -0.2643571 0.24940494 0.23349181 0.08203865 0.01756833 0.097836144 0.45038155 0.6511704 -0.04130629 -0.011499056 -0.2552798 -0.11277214 0.55703205 -0.05915125 -0.059716403 0.15662459 -0.3991504 0.05972421 0.051221423 -0.36988676 -0.16603029 -0.17642662 -0.26999977 -0.3669344 -0.13064712 0.04486924 -0.42153078 0.1898876 0.05647199 -0.3220895 0.30106518 0.0016321333 -0.31158534 -0.09389984 0.50107825 0.21315418 -0.018021079 -0.16249825 -0.20288567 0.12827268 0.24905846 0.041216876 0.14575738 0.0887235 0.019646568 -0.22800998 -0.09631954 -0.2536569 0.38698703 0.041930974 -0.34392622 -0.23414542 -0.22981603 -0.046959963 0.31559977 -0.2258343 0.3261876 0.17268313 -0.33738446 0.056075536 -0.049611017 0.37730685 0.35450935 0.13399337 0.08340367 -0.11186524 -0.04975205 -0.11779158 -0.10955141 -0.12488895 0.23458005 0.074460894 0.07323043 0.1297768 0.09943076 0.16326769
155 -0.20446904 0.09202394 -0.07849707 -0.070817254 0.0407538 0.14105847 -0.24512197 0.31184492 0.19839951 0.4103247 -0.21798359 -0.23997228 0.24746022 -0.0076286043 0.4205843 -0.19607984 -0.22627535 0.21272221 -0.1271293 0.30446878 -0.16398151 0.054137923 0.041896485 -0.5260965 -0.0788223 0.11545611 -0.36405846 0.31588736 0.25546524 0.2129493 -0.2126646 0.15613888 -0.019126212 0.1211529 -0.045877934 -0.3889204 0.060563114 0.1957604 0.20501946 0.10007809 -0.20960204 -0.050072365 -0.106871046 -0.20804453 -0.18140928 0.22259535 -0.20931144 -0.29354337 0.11953985 -0.17357445 0.020585008 -0.17217265 -0.17125961 0.46203145 0.030324776 0.29866397 0.14575084 -0.09787966 0.08352456 -0.22069676 0.01749428 0.1501564 -0.10198428 -0.029210053 0.32553458 0.066449575 -0.13469249 0.17429826 -0.14849964 -0.20809814 0.08321149 -0.22891235 -0.18060413 -0.10731379 0.13012636 0.2265618 0.14153035 -0.13942176 -0.08160822 0.23731536 -0.012426132 -0.14787996 0.059532024 0.07426818 0.028830891 0.22572893 0.3986217 -0.5787994 -0.01315085 0.33147928 -0.38801357 0.38459268 0.03483308 0.22886045 0.015038707 0.14387363 -0.04026343 0.399898 -0.2379071 0.1432678 -0.20461108 -0.49732 -0.037722457 -0.32155797 0.3081562 -0.012715185 -0.18081218 0.018895857 0.15455103 -0.10170055 -0.008513075 -0.12974474 -0.076791316 -0.16910516 -0.21308714 0.30251122 -0.348734 -0.0260113 -0.19942935 -0.17365007 -0.26231092 -0.18043888 0.050689418 -0.29593042 -0.28256318 0.027523028 0.21892287 0.2079541
10 -0.21745405 -0.07632804 -0.3194324 0.23608103 0.06525622 0.27393305 0.065879166 -0.019599712 -0.15325804 0.1724576 0.019910943 0.33329526 -0.22515643 -0.07968955 0.26391667 0.23146522 -0.13350874 -0.083730675 -0.067318715 0.2687891 0.07097156 -0.1993676 0.15560658 -0.0777964 -0.21451975 0.20797163 0.15323734 0.038818464 0.082798935 0.3543844 0.1283014 0.122090966 0.09245583 0.19954416 -0.025605803 -0.23974332 -0.06368144 0.023527997 0.1314544 0.13043006 0.10455618 0.093533516 -0.08528388 0.02502582 -0.12840413 -0.0044781757 -0.011387924 0.17025289 0.29541868 0.06723883 -0.14615892 -0.24965675 0.054576103 0.17952219 0.058355693 0.2318149 0.19075434 0.29535633 -0.009949083 -0.081833184 -0.17435606 -0.008169816 -0.05476331 0.030160306 0.052786443 -0.21727838 -0.023422198 0.09857301 -0.27427384 -0.2911411 0.35136974 -0.0032442794 -0.3068914 0.13303035 0.11341799 -0.2965354 -0.054976232 0.19815859 0.13836312 -0.11051865 0.17835227 0.06640041 -0.10273994 0.07573898 0.08666765 0.01409925 -0.3372908 0.091708355 -0.12687615 0.006707334 -0.27242655 0.116881914 0.34289095 -0.0074669584 -0.0629544 0.3132732 0.090614796 -0.046623662 -0.061164718 0.20795809 0.17687105 -0.43449125 -0.37491107 0.4035269 0.107030034 -0.21726401 -0.36084706 0.12089569 -0.04104742 -0.22324899 0.073909506 0.009633539 -0.084071875 0.21120404 -0.060873915 0.44905534 0.15381521 -0.37344295 0.24111515 0.3206748 -0.15164734 -0.11196263 0.01909811 -0.1620867 0.099358 -0.22875658 -0.14938785 0.17500451
433 0.14196311 -0.14748482 -0.003703111 0.028442089 -0.15697755 -0.02339035 -0.38252905 0.21814755 0.1469408 0.02350592 -0.07203984 0.0034889656 0.02749194 0.0003596049 -0.367905 -0.1185819 -0.01719256 0.4348329 0.07505686 0.022512296 -0.11243381 -0.12686026 0.18548661 -0.15898196 0.25133437 0.31331986 -0.15572374 0.08083716 -0.007363637 -0.086126454 0.3177098 -0.018652542 -0.239619 0.3776612 0.14863962 0.070656255 0.22732496 -0.06820191 -0.14721118 0.22395265 -0.31327865 0.3397791 0.3680763 -0.15374969 -0.08656404 -0.21097018 -0.054931536 -0.020508284 -0.576573 0.4259941 0.15015292 0.208542 0.24768485 0.06470606 -0.28835547 -0.12388994 0.21230693 0.3481177 -0.2520949 0.14191633 -0.21563827 -0.030500079 -0.21638687 -0.20524007 0.13805056 0.14583002 0.22063859 0.067067355 -0.42257434 -0.19627182 -0.36506683 0.16337718 -0.09728038 -0.26155588 -0.047399618 -0.5178677 -0.27514082 0.09226227 0.123041116 -0.057682224 -0.26528817 0.1250774 0.049520943 0.2128824 0.37733215 -0.36938187 0.07548792 -0.37822232 0.38748345 -0.050281543 -0.27349436 0.19667947 0.21726865 -0.2884864 0.00035049446 -0.22334237 -0.04849158 -0.19788018 0.008014703 0.26369265 0.13199821 -0.17554551 0.21852769 -0.14778289 0.01256996 0.10942945 0.19306816 0.0059980876 0.30675164 -0.17682871 0.0888571 -0.115655094 -0.13366257 0.10230628 0.08451822 0.31236652 -0.03991014 0.077959895 0.26726425 0.01629601 0.09917341 -0.03586013 -0.0028991243 0.27731735 -0.089249864 0.17160648 -0.11348731 0.16258201
390 0.006144223 -0.41800025 0.19701166 0.4367097 0.030516453 0.22572985 -0.27362552 -0.16707928 -0.3265468 0.40994066 0.20773762 0.4858162 -0.20285387 -0.13518058 -0.09444559 0.03470114 -0.07063479 0.00802195 0.18372941 0.109608 -0.021594847 -0.190635 0.11447751 0.13552494 -0.12950796 -0.0057772207 -0.107651986 0.030391462 0.017768318 -0.1708722 -0.044158444 -0.33729076 -0.3128528 0.20177057 0.086345196 0.10362851 0.024431374 -0.1712163 -0.46000713 -0.107216895 -0.19515021 0.16832204 0.07124844 -0.2500341 -0.011509034 0.06001473 -0.12997578 -0.39671183 -0.16978616 0.14745225 0.2656413 0.12231399 0.08279008 0.07523309 -0.2498364 -0.12786378 -0.13233025 0.23972557 -0.24564835 0.16870324 -0.279403 0.10857178 -0.061105363 -0.27821675 -0.15906547 -0.24804656 0.3334558 -0.25084013 0.11874614 -0.10147984 -0.5319543 0.102214284 -0.29621005 -0.033271406 -0.12062036 0.123976074 -0.18665421 -0.054959178 -0.1422417 -0.0022513878 -0.103255935 -0.1435738 -0.09185543 0.24599472 0.018409085 -0.49202707 -0.14324398 -0.27772054 0.23681791 -0.21491621 -0.6713706 0.36991224 0.21191816 0.57298785 0.112807825 -0.029967282 -0.03947584 0.22923833 0.53071594 -0.26307872 -0.08647603 0.15100867 0.15668647 0.118965715 0.11423332 0.3018151 -0.15254045 -0.03800212 0.08415242 -0.10659255 0.13231248 -0.122027576 -0.13285226 0.15495427 0.061014593 0.04652472 -0.108303085 0.18121392 0.17263031 -0.08521793 -0.031065317 -0.110514246 0.41681293 -0.08857525 -0.3628603 0.09801067 0.10247699 0.006247177
360 -0.14659114 -0.12161681 -0.2755833 0.18999214 0.10837527 0.24407807 0.012591843 0.107216604 0.06066393 0.12896527 -0.10511653 0.28303215 -0.11776565 0.023802215 0.25739044 0.26928523 -0.21776283 -0.09388266 0.037722066 0.1902639 -0.05790987 -0.3938424 0.10640781 -0.0892912 -0.09862473 0.08848676 0.06291044 0.09062525 0.3263822 0.4486419 0.1284809 0.04660934 0.071659766 0.16012838 -0.123807944 -0.21193819 -0.021361336 -0.052836463 0.1518105 0.0068911905 0.23411746 0.022866985 0.0020635747 -0.16879883 -0.03930033 0.091618545 -0.114163466 0.095390715 0.013699737 0.27658096 -0.1492726 -0.5542397 0.055188127 0.12472319 -0.046441056 0.22050151 0.2024659 0.32609862 0.046338912 -0.24539872 -0.13539337 0.009296349 0.008407305 -0.17270696 0.12032151 -0.026696997 -0.07952383 -0.032779664 -0.17581113 -0.5567613 0.20500161 0.041225012 -0.12541309 0.08428616 0.12968408 -0.27448475 -0.008333681 0.19096398 0.019161584 -0.37365898 -0.015990064 -0.032856558 0.13868031 0.1208451 0.2777671 0.07710624 -0.20556849 0.06680199 0.054120183 -0.23426381 -0.27869275 -0.07180428 0.27248567 0.16914555 -0.023129208 0.41923472 0.022709522 -0.17837422 -0.051026125 0.23179622 -0.15896212 -0.2595986 -0.30443284 0.38156074 0.088334166 -0.42646083 -0.3312271 0.103808746 0.111302964 -0.09241722 -0.050674547 0.059639923 0.09239247 0.13776699 -0.086134665 0.34148347 -0.0019494188 -0.38403055 0.073470734 0.28109133 -0.32063612 -0.15879479 -0.12313883 -0.06738301 0.05844757 -0.38254213 -0.013475126 0.19605242
490 0.15415327 -0.45005724 0.21029413 0.16813166 -0.03721063 0.07947363 0.28903142 -0.29876944 0.10507999 0.31461728 0.3065281 0.019950038 0.11632497 0.1898998 -0.17565776 -0.024169603 -0.09283885 0.3526793 -0.016955422 -0.110235006 0.19659978 -0.0091315815 0.48450842 0.13565516 -0.25446966 0.28344545 -0.4417351 0.07078368 -0.10120447 0.03329885 -0.0209123 0.024042075 0.4664787 -0.35442987 0.008674195 -0.064550206 0.18885356 0.08842792 0.19598551 -0.2772449 -0.4182765 0.041793223 -0.32744867 -0.083770595 0.12157766 -0.32770136 0.08861362 0.4450707 -0.16623096 0.1065094 0.27759105 0.1162976 -0.34983036 0.045196746 0.06516622 0.34345388 -0.078379415 0.15701407 -0.08466562 0.3644194 0.03890398 0.15661556 -0.36575317 -0.04089672 0.4924496 -0.06699486 -0.15899824 -0.15565789 0.06493811 -0.1250274 -0.27753714 0.08192267 -0.6256044 -0.20715101 0.025498891 -0.10425127 -0.35975122 -0.038822282 0.026386874 -0.30965886 0.072750896 -0.072928764 -0.11158772 0.4945431 0.08584858 -0.04741628 -0.0055231517 -0.092228994 -0.043325074 -0.029252943 0.17335238 -0.03213633 -0.090007156 -0.12150815 -0.2244583 0.21681128 0.0130570205 -0.0075914934 -0.052122977 -0.22523731 -0.0019157344 -0.061551366 -0.20918988 -0.009576701 -0.1435729 0.22124487 0.073164344 0.297505 0.0045571574 0.008888532 -0.09553818 -0.040830947 -0.24544539 -0.030752782 -0.15468194 -0.105931096 -0.39442885 -0.109923035 0.10229098 0.14067638 -0.3403443 0.30950856 0.33014 0.42054325 -0.057338767 -0.03373917 -0.2410455 0.18984047
352 -0.00043528862 -0.2867239 -0.11480503 0.14848575 -0.31391707 0.010025274 0.19992167 0.0762181 -0.083545834 0.08181782 0.26234093 -0.16878308 -0.087335676 -0.029445786 0.11890455 0.02060706 0.12497289 0.07043958 -0.0053768028 0.1328411 -0.4534218 0.18976027 0.070234984 -0.27417716 0.066302225 0.3368536 -0.1405759 0.23610055 -0.014261797 -0.30031064 0.2911918 -0.19541037 -0.018074656 0.3050259 0.02851156 0.31295532 -0.092546724 0.016408602 -0.24207461 -0.14212976 -0.24876916 -0.16735044 0.27212036 -0.097015224 0.03150156 -0.27513656 0.12014372 -0.005734283 0.10579275 0.2282928 0.10445948 0.12583253 -0.0683797 0.14757177 0.17136079 0.24018566 -0.260847 0.15343933 -0.019152218 0.23075528 -0.47459203 0.30596447 -0.34108108 0.045780644 -0.12371735 -0.08362711 0.06508922 0.02112507 -0.21362919 -0.21329938 -0.71656376 -0.05477988 -0.39447924 0.113574944 0.14010541 0.13380405 -0.27420118 0.035299115 0.10101256 0.06505685 -0.037840895 -0.09324861 -0.14826764 -0.004719554 -0.041749697 0.15551214 -0.2362727 0.16496369 0.30335212 0.25270855 -0.060262527 0.20156771 0.42832518 0.16641325 -0.06285141 -0.21255323 0.37557346 -0.28081208 -0.0067044166 -0.17559028 0.013921483 -0.13024221 -0.038312245 -0.00766529 0.060486346 0.33567423 0.04711069 0.085097775 0.05139758 -0.048140187 -0.10280132 -0.060240768 -0.24807417 0.21711908 -0.08782835 -0.026652515 0.06428765 0.033360355 0.59054726 0.15846813 -0.17134617 -0.0006545516 0.3419341 0.3293162 -0.18669884 0.163469 0.2046399 -0.1554417
301 0.032961834 -0.1464389 0.16750915 0.21138264 0.2374111 -0.22061408 -0.35219723 0.21478835 -0.20185925 0.24381614 0.24646309 0.15642892 0.17982331 0.33279017 -0.33553913 0.07511445 -0.20866555 -0.098804094 -0.20276424 0.3740815 -0.0023420055 -0.1492016 -0.047640428 -0.24718136 0.046623416 0.11694866 0.12194396 0.1843427 0.33578488 0.10220967 0.04926596 0.30464265 -0.10296686 0.22996667 0.27275747 0.01987004 0.3790888 -0.33460924 -0.37270728 0.15030783 -0.2987853 -0.14357542 -0.10945102 -0.34819263 -0.1057551 0.15615624 0.3966521 -0.006188703 -0.14116418 -0.10766701 -0.15208368 0.2533876 0.08495048 0.08040408 -0.07299803 0.12657072 -0.06698895 0.077427745 0.1456267 -0.03669219 0.109008834 0.289275 0.02315544 0.15196301 0.098647326 0.048379228 -0.17883298 0.19653918 0.060284603 -0.37715605 -0.15426002 -0.13147916 -0.24076724 0.2975264 0.15355293 0.25336438 0.0022784928 -0.16411506 -0.15919541 0.4323749 -0.13226941 -0.027444372 0.07636651 -0.09023264 0.022494646 0.3789383 -0.08067624 0.30699772 -0.014644281 -0.24572562 -0.22951315 0.037254285 -0.28735852 -0.009168991 -0.113647245 0.086662784 0.02280467 0.25590572 -0.25086117 -0.35710528 -0.08257347 0.18268044 -0.031130472 -0.20230535 -0.2280437 -0.16547132 -0.083443075 0.14645296 0.023442483 -0.26473233 0.21774375 -0.0666173 0.006429544 -0.10734762 0.197711 -0.024841672 -0.089995 -0.2363924 0.17415291 0.33333004 -0.38207465 -0.20377472 -0.025027994 0.10426873 -0.123665296 0.022278834 -0.19053997 -0.15843971
368 -0.26831114 -0.4512391 0.14238334 -0.111844525 -0.062141094 -0.038738262 0.18249542 -0.030591302 -0.05407049 0.24050166 -0.015199394 0.086751685 -0.45154458 0.6117939 0.0479018 -0.11509801 -0.2560514 -0.040253613 0.08053524 0.17525703 0.12755834 0.1392091 -0.06533537 -0.3443069 0.28427872 -0.08162857 -0.06034085 -0.26291215 -0.0018830867 0.001878316 0.351078 0.10436953 -0.37705594 0.17705698 0.48326734 -0.3279835 -0.2768775 -0.23276553 0.08711121 -0.03872216 -0.26947618 0.18869355 0.31456277 0.07476614 0.22953407 0.39566916 -0.23449744 0.02756529 -0.23300138 0.040934004 -0.30483323 0.049411714 -0.20773815 -0.4302428 0.21504551 0.25857532 0.067818716 0.13621537 0.19932432 0.6723315 -0.038523793 0.3149136 -0.30229688 -0.097626105 -0.015569133 -0.02010386 -0.20960058 0.02881584 -0.4108358 -0.2288813 0.030872015 0.12054587 -0.5689639 0.18054475 -0.20949973 0.14128344 0.10305802 -0.043360926 -0.11396079 -0.13069963 -0.004652383 0.046305135 0.24920236 0.26942572 0.19208255 0.5886652 0.19296741 -0.15743569 0.16631883 -0.28797552 -0.2335472 -0.18433595 0.015833186 0.002465961 -0.26339602 -0.08046414 -0.20150131 0.09095248 -0.33207345 -0.09999587 -0.29037935 -0.06402884 0.05395171 -0.3236375 -0.29941988 0.22422113 -0.08490096 0.17718728 0.045233764 -0.28445828 0.08624665 0.39772037 0.14881538 0.01000831 0.1697337 0.19394808 0.11744698 0.28851154 -0.13986553 0.015152497 -0.18808404 -0.14209849 0.042639144 0.09244231 0.14647615 0.08223297 0.21046807 0.23674384
317 0.03595893 -0.5948485 -0.039381903 0.05308942 0.07487822 -0.08944405 0.3483997 -0.38787687 0.22024271 0.2553686 0.19597024 0.12570676 -0.09513884 0.24324018 -0.13759194 0.016736211 -0.02991817 0.512338 -0.10296532 0.03299396 0.1659415 -0.06421036 0.36465475 0.02082374 -0.11458037 0.14454116 -0.22878449 0.120654605 -0.10360834 0.08019567 -0.0394681 0.04922298 0.4449907 -0.31374002 -0.16713244 -0.03388149 0.06313142 0.07147443 0.08000899 0.05784112 -0.2577505 -0.100828506 -0.30494514 -0.029873695 -0.052950695 -0.40102366 0.0447717 0.37859377 0.116784684 0.12316268 0.28278968 -0.13368696 -0.42764488 -0.044559497 0.02878958 0.3934544 0.008092332 -0.0698919 0.13246249 0.3277307 0.029186226 -0.07574803 0.026354996 0.037024572 0.44498765 -0.013497447 -0.034963533 -0.15387207 0.08986663 -0.29669982 -0.19633052 -0.021223746 -0.5263617 -0.025457934 -0.044426084 -0.01388484 -0.3458716 0.11842511 -0.14306979 -0.15749784 0.0031296413 0.011261714 -0.11218983 0.40983635 -0.18054049 -0.085228235 -0.23088239 0.023199987 -0.0919969 0.013202959 0.2592488 -0.029217927 -0.13539806 0.044231564 -0.058657594 0.34106803 -0.24446256 -0.052743938 -0.16998497 -0.1670361 -0.016658321 -0.18616135 -0.1959578 -0.16883901 0.012918652 0.1646028 0.025153155 0.17004699 0.042944398 -0.19038962 -0.15514097 -0.30929077 0.033358507 0.11219141 0.035926424 0.07498827 -0.15878473 0.16815071 0.32856983 0.3222585 -0.06788515 0.032851137 0.17465161 0.4620234 -0.25368676 -0.05594292 -0.095438324 -0.009042201
275 -0.12783441 0.0011722741 0.08988747 0.07950267 0.037800506 0.27899256 -0.06209731 -0.01985955 -0.14945783 0.13834676 -0.020259818 0.21769045 0.27355763 0.17754728 -0.056063924 -0.08794069 -0.110089235 -0.23030378 0.23931378 0.3685202 -0.056737397 -0.2752949 -0.3495247 0.23286346 -0.19132799 0.2900156 0.07429472 -0.024661846 -0.094071224 0.21988086 0.28868723 0.2600784 -0.113046795 0.18489039 -0.021488894 0.1716182 0.10965742 0.39385387 -0.29692712 -0.10532482 -0.21812463 0.12938966 0.018793438 0.35213375 0.031350706 0.1880717 0.22360517 -0.043826517 -0.07361959 -0.047679543 0.16824673 0.06152801 -0.046973485 -0.07250316 -0.08610217 -0.32379782 0.04923844 0.13519815 0.07602506 -0.05674458 0.1987698 -0.037201658 -0.024726305 -0.10865818 0.24665812 0.15365204 -0.55105877 0.0069413898 -0.059492555 -0.033993717 0.15597385 0.19415832 -0.008192261 -0.292257 -0.19854036 0.18714687 -0.1689311 -0.12746108 -0.4929319 0.008035029 0.09576317 0.19274972 0.25397074 -0.035488263 -0.0014927826 0.14855132 -0.23017402 0.084915675 0.41882953 -0.2471666 -0.30675122 0.56428003 -0.15600857 0.08493883 0.15343477 0.382495 0.28434935 0.1261175 0.2705704 -0.16320641 0.0023837541 -0.013732156 -0.177505 -0.104747064 -0.23822784 0.22962387 -0.013894886 0.16422907 -0.006097198 -0.21023242 0.03295287 -0.04159091 0.07746928 -0.32550305 0.15407759 0.14527245 0.28691703 -0.12629862 0.58126295 -0.22536045 -0.16182709 -0.4236862 0.066136025 0.043192912 -0.22662614 -0.04069601 -0.04758545 -0.24002871
484 -0.06530647 -0.32068598 0.06522686 -0.18548681 0.21099587 0.37100378 0.36315763 -0.17512661 -0.028686315 0.20450751 -0.20805815 -0.38043815 0.15596086 0.29442477 -0.25313237 0.16595091 0.12357995 0.29404297 0.041735966 0.22147398 0.21017028 -0.024145553 0.33215272 -0.02114095 -0.6316999 -0.21264334 0.08319902 0.40227097 0.05980853 -0.081240274 0.10663182 -0.046796717 -0.076352656 0.1039277 0.12991771 -0.22708388 0.20438598 -0.1855558 0.015015801 -0.03215176 -0.2847786 -0.0027934674 -0.07376178 0.08674319 -0.037250828 -0.034152567 -0.0057136216 -0.11352209 -0.0645272 0.46106586 0.07780747 0.19137086 -0.21174385 -0.1620664 0.06323404 -0.328257 0.03778488 -0.20443211 0.0757998 0.13232267 -0.00035750028 -0.09800925 -0.12632708 -0.12044427 -0.24361424 -0.679986 0.15954141 0.09931108 -0.11771724 -0.045849804 0.39147362 0.13806012 -0.39091727 -0.07757458 -0.019847654 -0.21165286 -0.19217928 -0.16786782 -0.23656558 -0.3085938 -0.053745035 -0.28834248 0.19646293 0.47786558 -0.028900644 -0.01666194 -0.17262661 -0.14512095 0.39042437 0.41866764 0.28901944 0.18195496 -0.29119453 0.1592855 0.091802195 0.22300334 -0.007363057 0.17242806 -0.09865453 0.14989416 -0.21808372 0.2282122 -0.5016482 -0.21009584 -0.103880525 -0.16217747 -0.23292664 -0.051372387 0.15066999 -0.21479581 -0.073010094 -0.0002212695 0.05968403 -0.18967353 -0.06407239 -0.06555508 -0.50158405 0.24945338 0.4177287 0.007053363 -0.30561376 0.14231001 0.22546181 0.19961424 -0.1904704 0.15129639 0.11161339 0.26520136
386 0.12191834 -0.15275137 -0.121783525 -0.122937076 0.18470801 0.33983728 -0.06117439 0.11739817 0.13388841 -0.099482745 0.40596876 -0.26518026 -0.008454687 0.19931173 0.14146712 0.4280501 -0.40029317 -0.09028617 0.18962382 0.060174607 0.06072621 -0.04469178 -0.14390609 -0.2283708 -0.15792966 -0.100673325 -0.04828919 -0.00233971 0.18743786 0.6313399 0.5697565 0.18235059 0.3040331 -0.20287415 -0.3441244 0.06650048 0.03309084 -0.07273728 -0.28615484 0.100869045 -0.47877797 0.049794625 0.23107445 -0.20649254 -0.14528604 -0.053539984 0.013855611 -0.13007408 -0.16063763 0.21954514 0.2374986 0.29914895 -0.14718798 0.16319755 0.14477646 0.37903914 0.03147546 0.16813576 0.22032382 0.08041986 -0.2229859 -0.06758581 0.0050919666 0.16687167 0.062393684 0.21245484 0.02599832 -0.2260098 -0.20552233 -0.2710402 -0.06154703 -0.08545494 0.025293188 0.08156814 -0.12740739 -0.26253226 -0.35937387 -0.0977456 0.4611631 0.39540127 -0.10221325 -0.21495155 0.286849 0.3503568 -0.3114228 -0.0007411665 -0.27961677 0.2544391 0.27231932 -0.07500609 -0.14701311 0.4431197 -0.39785305 -0.0027121739 0.33127734 0.085624315 0.05413163 0.149572 -0.03195164 -0.47231683 -0.17499866 0.050249435 0.1050419 0.04791095 -0.073668875 -0.14638518 -0.029719463 -0.2259753 0.3198968 0.2287679 0.23770688 -0.006934927 -0.27270272 0.3618452 0.1082377 -0.04637744 -0.1832837 -0.2598972 -0.18199232 -0.022948578 -0.11457815 -0.17828923 -0.010921439 -0.14386003 0.3151884 -0.2594819 -0.16581239 0.24546102
428 -0.4410731 -0.03701385 0.009627165 0.14223109 -0.053358693 -0.044018194 0.2306033 -0.272466 -0.056142926 0.15309495 -0.090993546 -0.3858857 0.18835132 0.099011816 0.15020137 -0.043532006 -0.023700444 0.25258335 0.13456781 0.079800606 -0.20853946 0.09901854 0.28237286 -0.15007581 -0.111275084 -0.10731445 0.06373184 -0.10879756 0.13335386 -0.23859331 -0.13915926 0.076828785 -0.11243349 -0.036838062 -0.16966894 0.21524526 0.09502491 0.26227042 -0.13013244 0.20479576 -0.07088685 0.16866826 -0.024998125 -0.06839114 -0.20990543 0.26802027 0.10763368 -0.27599382 -0.035909235 0.20511472 0.068516046 0.16614677 -0.15518533 0.26335132 -0.49528733 0.093912 0.047969688 0.5263841 -0.0051976307 0.22580132 -0.08831443 -0.2463278 -0.35343623 -0.3599336 0.055899877 -0.07970548 -0.40621224 0.32084775 -0.26726773 0.10816167 -0.19163926 0.041114263 -0.21784303 -0.16391867 0.037951183 -0.29962724 -0.044531494 0.23737536 -0.018167928 0.18258476 -0.14466245 -0.2191141 0.34999365 0.118515216 -0.32961923 0.12295033 -0.09950632 0.007233133 -0.03142648 -0.16775002 -0.40562248 -0.14359552 0.15303 0.012492896 0.107746884 0.28587553 -0.0020952239 -0.047694895 -0.0055946284 -0.063907966 0.17264348 -0.07037066 -0.08068522 -0.39071018 -0.008672353 0.06817273 -0.4507148 -0.0051562316 0.014026683 -0.21276323 -0.09577674 -0.23986146 -0.23455843 0.30774286 0.016600152 0.1812204 0.14464301 0.12855949 0.12611778 0.08876063 -0.006994864 0.13590568 0.110753134 -0.19019915 0.076120794 -0.21254252 -0.21056604 -0.050143737
136 -0.023022614 -0.23578139 0.1203453 0.14538819 0.37453634 -0.01974838 0.10445245 0.4574964 -0.43515417 0.16419202 0.08417982 0.17513795 0.07247299 -0.08895902 -0.50465065 -0.1231933 -0.20765959 0.09805702 0.08796739 -0.35084817 -0.13551843 0.0554614 -0.18999304 -0.18415762 0.30364913 0.13646527 -0.009203468 0.21085241 0.13607018 0.016689656 0.109241895 0.16637555 -0.09058974 -0.224203 -0.17313917 0.10485445 -0.05298418 0.09832588 -0.09297801 0.1361961 0.34982982 0.33636308 0.1859246 -0.26023993 0.0710978 0.078908965 -0.09649599 -0.004651091 0.27078748 0.21295953 0.4817982 0.3081174 -0.20321198 0.06336742 0.17439805 -0.0037475475 0.08457413 0.11094933 0.1405422 -0.06359848 -0.1589653 0.08784747 0.08153004 0.0048001083 0.29855636 -0.09112726 0.24575725 -0.19973803 -0.027893743 -0.06454288 -0.28905243 -0.21398756 -0.24020886 0.07118857 -0.002268207 -0.10470029 0.24766217 0.21725257 0.048239585 -0.053697694 -0.040416088 0.022655088 0.07937748 0.3167118 -0.18986632 0.18839073 -0.16842987 -0.122684866 0.08536002 -0.077193655 0.040421683 0.056067165 0.06632772 0.114398435 0.12580505 0.24979167 0.0402775 -0.27636138 0.11443597 -0.40173736 -0.24274284 0.22766362 0.0265898 0.05224884 -0.043370415 0.43260634 0.11407057 0.07909089 0.27783036 0.41597238 0.45964536 -0.31444678 -0.06537648 0.03759025 -0.18920273 -0.02029357 0.28181437 0.07004531 0.4151437 0.33060908 -0.14655206 -0.04077739 0.14955795 0.08837154 -0.27348828 0.42958558 -0.28399268 0.054914005
431 -0.49153423 0.027337044 -0.10813944 0.31715754 0.19762573 0.15229136 -0.28198707 0.050141484 -0.22253652 0.47939998 0.3425233 0.3582701 -0.2666539 0.23034507 -0.12592685 0.2557647 0.2074036 -0.40770504 0.06341559 0.4481441 -0.049041495 0.18825959 0.13061185 -0.27184284 -0.06503871 0.18221201 -0.34274116 0.23514159 -0.09240996 0.15678671 0.22131251 0.025513213 -0.14724593 -0.085027255 0.02703707 -0.094165474 0.23868828 -0.069228336 -0.26574698 0.42277566 0.05771393 -0.3180967 -0.10333445 -0.03535641 0.054316867 0.4171794 0.28240508 0.17108287 -0.00031633253 0.41611323 -0.25202706 -0.13577467 -0.12753344 0.15269099 0.08497801 -0.4258362 0.18452194 0.5769465 -0.108899444 -0.0035897589 -0.17133407 0.004294567 -0.27608427 0.09944159 -0.17200896 -0.053709242 -0.21698482 0.2626242 -0.078709945 -0.07012562 0.49849758 -0.47851586 0.07683105 -0.104516074 -0.062227625 -0.46251935 -0.2658043 0.12403416 -0.03325491 -0.3953269 0.1624912 0.061220158 0.13062994 0.010911418 0.1225764 0.066562206 -0.28387767 0.015145774 -0.34360322 0.29952654 -0.30159724 0.09870152 0.29144058 -0.08868683 -0.08835161 0.28465813 -0.26079926 0.36329722 0.043110587 0.042514686 0.007498636 -0.121363506 -0.23856553 0.07600283 -0.0057941154 0.14445914 -0.08286758 -0.024162287 0.018830642 -0.07700872 0.21392263 -0.029739078 0.17872663 -0.19866246 -0.34309328 0.24515764 0.07651622 -0.00032333963 0.31299123 -0.04859254 0.34462318 -0.04075525 0.40719432 -0.20456533 0.25442284 -0.013004325 -0.21103309 -0.22783214
499 -0.51991844 0.289921 -0.12452574 0.41092297 0.2693316 0.018694226 -0.21342485 0.1699307 -0.0032719271 0.2747544 0.24361673 0.014751903 0.013051247 -0.07612011 -0.14130078 0.17168634 -0.07818328 -0.083346255 0.2189298 0.072656535 -0.029262543 -0.04163681 0.30264258 -0.11362606 0.067692555 -0.087456726 0.023466326 0.1618074 0.21692851 0.29158366 0.1627203 -0.38108844 -0.064739555 -0.16482697 0.12558584 -0.15895371 -0.056083966 0.09303158 0.058345664 0.019417224 0.20393123 0.12394455 -0.06328783 -0.40137482 0.061729793 -0.0014286868 0.090774626 0.5368019 0.15445507 0.053005666 -0.012756282 -0.2802266 -0.00445828 0.08780017 -0.12005835 0.029003426 0.27887163 0.27839077 -0.22616263 -0.092818506 -0.1556693 -0.024808513 -0.02184206 0.08255841 0.10986875 -0.10837631 -0.11084007 0.18836157 -0.19615471 -0.0344715 0.3372417 -0.11313005 -0.24150774 0.048994537 0.16150816 -0.185484 0.13491566 0.063525304 0.050382916 -0.13573499 -0.014828927 0.1040233 -0.17603159 0.2785951 0.08375148 0.115470305 -0.15565118 0.021480385 0.25825128 -0.28421962 0.0010173698 -0.04204327 0.053836305 0.31838432 0.14345743 -0.0025279007 -0.03915581 0.033745036 -0.015379866 0.31466842 -0.31127867 -0.03388423 -0.41918677 0.00969068 0.018749796 0.20032224 -0.25320277 -0.020744476 0.11438567 -0.2928176 -0.33281103 -0.25815094 0.30101907 0.24511163 -0.18207651 0.44362113 -0.04380689 -0.3180613 0.32868037 0.01894576 -0.17123245 0.069095686 0.2220841 -0.057802904 0.27958435 -0.03394877 0.2887715 0.42906588
187 -0.33543944 -0.27363303 0.13559978 0.08420231 0.24002554 -0.09412274 -0.20291951 -0.21396428 -0.3913177 -0.24563345 0.33768854 -0.04507883 0.035571497 0.09955476 -0.0049167015 0.12275815 0.31246588 -0.15854259 -0.36436492 0.23895824 -0.05738312 -0.15389836 -0.00660824 -0.3542637 -0.24167101 0.18777665 -0.37450287 0.31029847 0.305699 0.33867598 0.12058478 0.08117642 -0.1909102 0.22158733 -0.02780612 -0.08585416 -0.031311836 0.020182686 -0.5066014 0.066073984 -0.10603267 0.080476664 -0.062657416 -0.10795329 0.08130713 0.43196702 0.27020708 0.08617405 -0.19036075 0.113595456 -0.26278174 -0.18467955 0.0002583547 -0.03336267 0.04350702 -0.03820334 -0.20709215 0.22035418 0.32712018 0.022379752 -0.088910416 0.20738637 -0.48213848 0.10470295 0.08897337 -0.04113184 -0.0926806 0.038351934 -0.008915182 -0.07295735 -0.2063443 -0.19954042 0.016647136 0.08253953 -0.000424171 -0.29988125 -0.3211413 0.15071644 -0.27729383 -0.15823449 0.03743087 0.27198336 0.34707555 0.34902185 0.11744901 -0.02925829 -0.44288278 -0.34936118 -0.22279817 0.18280573 -0.36782277 0.0025477991 -0.24604617 -0.21813259 0.35165843 -0.14142206 -0.37964442 -0.21799581 0.09967876 -0.36063626 0.11578861 -0.18603484 -0.27254802 -0.24823277 0.6174165 0.051946975 -0.16860339 0.060570475 -0.25235313 0.26726 0.22316132 0.37956733 0.56592405 -0.14383276 -0.35176498 0.24840042 -0.12280262 0.23593967 0.45919135 0.1698807 -0.0598062 0.038844258 0.5824869 0.052800197 0.34764403 0.1178591 -0.3750467 -0.06968654
118 -0.15236044 -0.05109658 0.049109988 0.15479092 -0.09750901 -0.04199792 0.34906986 -0.09676112 -0.060300387 0.08027605 -0.13394731 -0.32017994 0.13270207 -0.04153226 0.27490363 -0.00079318404 0.022498708 0.18132491 -0.07359052 0.066480584 -0.071426086 -0.08022854 0.21507329 -0.12721509 -0.06215533 -0.14088875 -0.0024752507 0.086454175 0.09976003 -0.49443272 0.06960574 0.16587412 0.069037236 -0.17409985 -0.3362136 0.37242484 0.09458979 0.19522329 -0.25930336 0.08048945 -0.14579996 -0.0037454544 0.012664872 0.007579407 -0.41633472 0.196107 0.07705929 -0.18501133 0.19908026 0.16513807 0.11724667 0.28336444 -0.15008844 0.21851668 -0.37915894 0.13391684 0.05605555 0.36575708 0.042458583 0.29297334 -0.073734134 -0.31837255 -0.3106884 -0.31002927 0.087268285 -0.21510805 -0.54016805 0.25088415 -0.43577555 0.20569862 -0.039890785 0.11478224 -0.13360204 -0.25559178 0.29832605 -0.42449576 0.055203676 0.3001472 -0.14976539 0.24091086 -0.2125685 -0.21390858 0.0053215553 0.103265345 -0.48159316 0.26482263 -0.092160136 -0.18887764 -0.24073632 -0.3250544 -0.27763453 0.09310334 0.15458892 0.20087147 -0.08965932 0.17892691 -0.1673299 -0.08215201 0.09433301 0.08391656 0.073406585 -0.23099999 -0.14666575 -0.25658712 -0.18211696 -0.23113282 -0.4954817 -0.07768128 -0.14981458 -0.25300735 -0.14395325 -0.13384868 0.01478386 0.45424554 0.09190327 0.21324547 0.11155864 -0.24978727 0.14202441 0.10825825 -0.1011689 0.13208152 0.2837423 -0.04542142 0.14055961 -0.15859236 -0.31368712 0.039366283
80 0.20618793 0.12856688 -0.38926572 0.3412729 0.29222804 0.20183797 -0.47271535 0.0074782865 -0.21520634 0.12307717 0.03753387 -0.1478461 0.07725521 0.014973415 0.009008739 -0.14136843 0.013697206 0.8093451 -0.2757315 0.046839736 0.32930028 -0.18219325 0.012631416 -0.2740445 0.07728213 0.021625249 -0.0031877898 -0.103902705 0.24496908 -0.10618837 0.33891815 0.1945028 -0.0146905165 -0.087837666 0.0129922405 -0.042973496 0.021415133 -0.3273265 0.018258974 0.23094136 -0.4121325 0.050667077 0.09461568 -0.009544555 0.18352923 0.250163 0.26344046 0.18809864 -0.34244102 0.08086312 0.33728835 -0.18253899 0.022106357 0.24976517 -0.21345198 0.08433031 0.051409177 0.23190986 -0.011433844 0.47490665 0.21306999 -0.106448404 0.022940764 -0.3150437 0.4552073 -0.171322 0.22659945 -0.18478373 -0.19406976 -0.089010045 -0.15931894 -0.29974455 0.10807326 -0.3117088 -0.4023693 -0.06408917 0.23393506 0.029648002 -0.11730873 0.11450554 0.1783416 0.1494451 0.19246113 0.24866796 0.36318967 -0.24618849 0.47044975 -0.0786194 0.33179587 0.064380914 -0.40669417 0.36258227 -0.10008381 -0.0776015 -0.020217378 -0.09272169 -0.1029859 -0.43667957 -0.24618585 0.12521787 0.044446602 -0.4064359 0.07149086 -0.16682066 0.1467879 0.18095286 -0.045334853 -0.113057345 -0.10304474 -0.09204548 0.14242145 -0.08893651 0.047569465 0.18541235 0.005856947 0.040488224 0.15236215 -0.15516005 0.16343164 0.13518609 -0.17987077 0.10856502 0.22996053 0.14825492 0.09494994 0.19698723 -0.0477002 -0.33730435
226 -0.12171286 -0.09287829 0.043946538 0.15183863 0.14501669 0.2645674 -0.08275861 0.23975325 0.09085022 -0.17695116 0.20344839 -0.20355168 0.025777115 0.3231892 0.31058067 0.2411975 0.023168216 -0.076846465 0.029213617 0.08554776 0.09094477 0.1831623 -0.04772517 -0.30898067 -0.12138649 0.030506022 -0.024116118 -0.07217336 -0.09089371 -0.0749857 0.18266849 0.30536443 -0.2599363 -0.23786671 -0.021167452 0.09530698 -0.17301598 -0.0598593 -0.0024458123 -0.0036504266 0.06887144 0.5751413 -0.16878034 -0.05210185 -0.12395854 -0.12205407 -0.07876275 0.2325001 -0.22808917 0.49607465 -0.095172234 0.05345023 0.18718973 -0.52884597 -0.34824094 -0.05462351 0.033189833 0.08552229 0.4529593 0.6394482 0.13715823 0.032899898 -0.07814439 0.22646378 0.4117479 -0.007949623 -0.39876828 0.30874717 0.1720127 -0.022330122 -0.10838958 -0.6226607 -0.34455517 -0.006591087 0.18255548 0.113914564 -0.19136564 0.011062296 -0.18443765 0.29312414 -0.09060069 0.24726957 0.34891886 0.29431635 -0.030965183 0.12173496 -0.009801751 -0.24124688 -0.53914076 0.15576105 -0.14864458 0.13331273 -0.27050868 0.16006996 -0.2649876 0.28898057 0.053527027 -0.19468491 0.050183237 -0.14103335 -0.1299415 0.274523 0.3896725 0.17020418 -0.28425628 -0.14773606 -0.05916736 0.033752088 0.27726072 -0.10852429 0.42507404 -0.100585364 0.032237455 -0.009097148 0.07766425 -0.27910197 0.10362851 -0.06475016 0.15623853 -0.21088135 -0.33915076 -0.19207314 -0.36090353 -0.009270699 0.043087494 0.5708104 -0.11283063 -0.12720804
46 -0.38847956 -0.22824368 0.24777465 -0.034659054 -0.005578754 -0.2951883 -0.05262928 -0.040285368 -0.24157825 0.010598684 0.6109775 -0.06314802 -0.3647806 0.32558057 0.11225879 -0.19231966 0.08373415 -0.29910925 -0.056154646 0.2103796 -0.14458008 0.060327265 0.31360066 -0.3179092 -0.3030358 0.098746166 -0.07923005 0.28688842 0.35960138 0.15561639 0.19537714 -0.054174494 -0.15227062 0.1328219 0.12357966 -0.18032224 0.26599345 -0.09873113 -0.080007546 0.065113984 -0.28124514 0.5509451 0.48280084 -0.39729565 -0.036397945 0.43519014 0.20207696 0.022201763 -0.2630203 0.1087829 -0.25712544 -0.0039532455 0.22186014 0.006797872 -0.21852955 0.029615097 0.19616069 0.081575386 0.61454856 0.042870294 -0.2856279 -0.008060707 -0.36699685 0.07028357 0.03690353 -0.06979578 -0.20108105 0.14029893 -0.40306628 -0.0062173484 -0.19987176 0.050152738 -0.22602046 0.051212393 0.1786319 -0.36335835 -0.31450486 0.15427452 -0.029745936 -0.046827648 -0.110637896 0.115397185 0.37778348 0.08426257 0.15023316 -0.29268542 -0.163797 -0.35455394 0.104010284 0.06766725 -0.070085056 -0.11644423 -0.05420881 0.062900335 0.38743198 -0.03812954 -0.020059034 -0.34119526 0.12287815 -0.3465903 0.17616355 -0.574808 0.02420194 -0.3766995 0.17657581 -0.0794247 -0.1715671 0.09833548 -0.419585 0.062591225 0.20529264 0.49549648 0.16920672 0.0533826 0.07939172 0.41836363 -0.04203361 0.2753441 0.7126355 0.12689264 0.19199859 0.17816447 0.39509556 0.3814472 0.20300001 0.07612731 0.108429775 0.20379522
18 0.04529137 -0.19590949 -0.16938911 -0.20706588 0.02677263 0.033744924 0.3770599 -0.25133085 0.039869804 0.34382898 -0.18619363 -0.31474838 -0.31126535 0.24206673 0.023765763 0.02082914 0.10257757 -0.08730263 -0.12970792 0.40083423 -0.015661316 -0.04316473 -0.2581009 -0.32792857 -0.20456256 -0.20839466 -0.12811446 -0.263197 0.047513545 -0.15839101 0.23690064 0.11822402 0.05127847 -0.031920902 0.2602867 -0.12655246 -0.41650182 0.03661049 0.04908293 -0.08348653 0.099628 0.044570293 -0.25513583 -0.19158305 0.19420843 0.044947118 -0.20687921 0.12408767 -0.19058786 -0.034941126 -0.16090816 0.22522333 -0.04319213 -0.05080918 0.07724046 -0.039583635 0.2565708 -0.08087938 0.079798356 0.2939799 -0.12614629 0.10080759 0.48755658 0.066077866 0.36604333 -0.10631623 -0.26811403 0.19241402 -0.1768278 -0.22329924 0.020172995 -0.26332858 -0.29961854 0.0881031 0.065237656 -0.24035841 -0.16260412 0.15899967 -0.3457447 -0.03372639 -0.20590527 0.19922838 -0.20075902 -0.014016357 -0.1560364 0.1300092 -0.1464359 -0.1685212 -0.02103919 0.10803758 -0.2701386 0.030028569 0.17700362 -0.11825926 0.20825939 0.22999677 0.22902998 -0.31329274 0.20860931 -0.10821455 -0.09425469 0.105189204 -0.2072113 0.075813256 -0.030588439 0.25857747 0.11276677 -0.041689895 0.16836035 -0.1012491 0.28404653 0.30829787 0.14554283 0.09225067 0.07955827 -0.19127686 0.24242263 0.3007374 0.04816835 -0.05603183 -0.3658047 -0.252538 -0.09635198 0.06850385 0.1235645 0.20229384 0.11659045 0.12629092
19 -0.12823856 0.19315936 0.22066435 -0.23182811 0.16375604 0.116308875 0.04683727 -0.066382036 0.32133386 0.23144901 0.07614969 0.35728914 -0.09432552 -0.19841556 0.17669302 0.108100176 -0.27797216 -0.30688608 0.015415802 0.06857498 -0.019841852 -0.032828353 -0.47347614 -0.1123953 0.2154475 -0.3942768 -0.009206669 -0.0067759533 0.014759786 -0.012844478 0.040196255 0.08345431 -0.009885445 0.22726339 0.10649271 0.51099485 0.5000624 -0.26347706 0.3880761 -0.03426563 -0.30034056 -0.272807 0.05311222 -0.036815494 0.027219716 -0.005113432 0.43259296 0.017320193 -0.0808143 -0.104486704 -0.42878664 -0.31598502 0.48206988 -0.115478344 0.051941458 0.42637154 0.15295468 -0.0053139892 0.13279073 0.001472962 -0.48449755 0.44994867 -0.005372403 -0.36111376 0.033759553 0.2724076 0.22043449 0.097017914 0.21059382 0.31746495 -0.0035766908 -0.34218273 -0.32687923 -0.047086194 0.030450683 -0.21737906 0.14435259 0.31058326 -0.02360835 0.26441184 -0.36542946 -0.10678476 0.09935018 0.43383285 0.10897597 0.41711578 0.0225157 -0.075318255 0.16254762 0.080635354 0.039008204 0.42638132 0.18409345 0.37118173 0.024748296 0.09070288 -0.05184295 0.46042112 0.31589404 0.17280672 -0.093850516 -0.2071237 -0.4891911 -0.05482984 -0.06763252 0.32241103 0.18897595 -0.19328827 0.27747017 -0.16852127 -0.2693873 -0.26316833 0.32336715 0.11520882 -0.1733672 -0.022658324 0.14062484 -0.12622042 0.21979047 0.14764772 -0.26210093 -0.29188788 -0.122927874 0.120863825 -0.07246088 0.36198968 -0.06869561 -0.37873328
450 0.24260698 -0.211777 0.010889639 0.06815115 0.0774379 -0.029710196 0.06663231 0.27306464 -0.04954347 -0.088474646 0.31178042 0.3485905 -0.1790335 -0.07670295 0.1877431 0.004272581 -0.22555168 0.20216635 0.37080553 0.118534975 0.122273095 0.5364272 -0.009789063 0.082739204 -0.097944885 0.32376382 -0.02686529 0.08725868 0.17096834 -0.49006617 0.03738544 -0.3649361 -0.120174855 0.38367748 0.0044589634 -0.0042887856 0.010857611 -0.2707046 0.19375806 0.25657073 -0.12647831 0.13365133 -0.057216004 -0.43707415 0.23373446 0.45503294 0.17221697 -0.1836646 -0.43100804 -0.35440516 -0.11880483 -0.0995752 -0.03770497 -0.12157078 -0.15024455 -0.11153196 -0.08538458 0.004583682 0.030504873 0.29658762 -0.092089325 -0.24273092 -0.56384444 -0.08446071 -0.26023912 -0.2677801 -0.2581456 -0.14969473 -0.47795942 -0.19272363 -0.49638426 -0.13673982 -0.62888044 -0.050298255 -0.048548244 -0.4273798 -0.021527061 -0.043321922 0.052607 0.20601429 -0.16704564 -0.1407292 -0.012134836 0.018640868 0.56728053 0.048312474 -0.13918172 -0.2740049 0.18469913 0.027749414 -0.22420146 0.34993896 -0.1124152 0.2480168 -0.108354904 -0.012679985 -0.074332505 0.038964033 0.022820598 -0.30207655 -0.28278524 -0.09588 0.316154 0.12414792 0.22773294 0.20253693 0.33872434 0.18889116 0.1290848 0.11254471 -0.051043205 0.17899212 0.11163312 0.5286956 0.12555355 -0.09854592 -0.079822354 0.19169876 0.20454714 -0.15696794 -0.27882323 -0.029733725 0.3662739 -0.00839289 -0.24457838 -0.08230807 0.22815374 -0.11462318
273 -0.16809048 0.06795001 -0.18550293 -0.29589507 0.1645859 0.3159832 -0.2930864 0.19141103 0.42628017 0.4571723 0.21760294 0.2746829 -0.1441317 -0.16069095 0.33992276 -0.23111688 -0.2525246 -0.04489422 -0.1486833 -0.096168704 -0.115919955 -0.06651856 0.0042126114 0.132261 -0.21575679 0.0053340513 0.13145941 0.15452859 -0.44293222 0.21632239 0.27792552 0.52394944 -0.1875016 0.23863252 0.096193366 0.0546968 0.27283224 0.0017028691 0.060528927 0.27406895 -0.062146116 -0.0069875736 0.25487107 -0.08364304 0.10592792 0.30859882 0.40707248 -0.19714667 -0.16733465 -0.27820247 -0.29862198 -0.13148206 0.32199755 0.31869978 -0.07731624 0.3596952 0.5351388 0.046906583 0.22319645 0.08987232 -0.36078677 0.15705784 -0.058759563 -0.15123418 0.21602266 0.3006209 0.2028098 0.15195222 0.28760046 0.3753921 -0.17100671 -0.28224397 -0.0705351 -0.3487704 -0.27891618 0.15078244 0.05081579 0.06721994 -0.11953111 0.09293799 -0.1315786 -0.09424457 -0.36216807 0.2583837 -0.29644707 0.75382274 -0.05652242 -0.07509969 0.059074126 0.23184556 -0.097362414 0.3843806 0.3263032 0.01975056 0.03927532 0.06857038 0.20200448 -0.00044882367 -0.0022152087 -0.09614367 -0.39318737 -0.21322465 -0.33595324 -0.08977306 -0.19988334 0.19684641 0.009718595 -0.32484913 0.4457481 -0.2664746 -0.048437268 0.11095876 0.22996318 -0.026428461 -0.17589799 -0.041140098 -0.20085491 0.20815296 -0.041099828 -0.10849928 -0.7028479 0.0021963452 0.045058217 -0.082146 -0.45876756 -0.15407002 -0.06037576 -0.4934755
307 -0.054809183 -0.17605108 -0.25312686 0.03763278 0.0066405577 0.103916764 -0.15539214 0.49997637 0.12359101 0.25557622 0.31809554 0.11678268 0.038114298 -0.085478276 0.20426133 0.3508739 0.0063886354 -0.07905114 -0.20819968 0.14512627 -0.015061455 -0.27607742 -0.09160291 -0.2708433 0.07671556 0.4241429 -0.09588328 0.013984606 0.23910709 0.34093735 0.25150278 0.2107791 -0.094023734 0.19457781 -0.13694438 -0.07827404 0.54224116 -0.14650248 0.08885616 -0.01749808 -0.09658915 0.43511552 -0.2068295 0.50964344 -0.07290892 0.12877479 0.014346202 -0.05814634 -0.027811864 -7.367175e-05 0.3787536 -0.3120768 -0.12132866 0.10994486 -0.13577393 -0.23155104 0.14225224 0.7672038 0.091390885 -0.4919073 0.032804277 -0.19394776 0.029483976 -0.38010052 0.09631327 0.035256978 0.048832737 -0.50318813 -0.06497006 -0.45811462 0.2808547 0.20996624 -0.3511892 0.39175135 0.21361421 0.08794958 0.04983196 -0.19374236 -0.21741104 0.06261034 -0.22695798 0.02369079 0.264727 -0.051106926 -0.23535281 0.3950134 0.13566828 0.27460548 0.0974325 -0.42995787 0.019215653 0.34335384 0.19904001 0.16238596 -0.09416916 0.2212327 0.057794638 -0.20776151 -0.09968309 -0.33890992 0.07533459 -0.13070388 -0.16481839 0.24212073 -0.1658834 0.014989749 0.15087086 0.03604291 -0.17951961 -0.34116238 -0.09380897 -0.08495305 0.15468179 -0.47715527 -0.027030483 -0.12472684 -0.07339461 -0.15851706 0.5966861 0.040965635 -0.16766235 -0.025811559 -0.25125265 -0.08886859 -0.053099204 -0.09008818 -0.09279781 0.17041592
415 0.045593504 -0.125649 0.10356731 -0.014833921 -0.20510404 -0.16794805 -0.13207053 0.22509673 -0.11953996 -0.01973436 0.018271854 -0.057562336 0.09835068 0.2625152 -0.09525895 -0.31988794 0.08584437 0.36164233 0.101625785 0.05739138 -0.00095681066 -0.057818685 0.33472726 -0.27021673 0.10076735 -0.022306418 -0.054376137 0.29300204 0.14168216 0.12696809 0.2822673 -0.34694532 -0.21732949 0.2589486 0.11203086 -0.15783101 0.21406755 -0.1415453 -0.22845419 0.0684683 -0.2977548 0.2402381 0.42736018 -0.1641717 0.009462457 -0.14183633 0.018625634 -0.14372319 -0.4095196 0.21548772 -0.082243286 0.14252523 0.27709523 -0.013645834 -0.3187296 0.028537875 0.43615696 0.16136482 -0.17069319 0.14118636 -0.29614422 -0.078057975 -0.5112089 0.054298714 0.0866329 0.11733899 0.23707302 -0.2548175 -0.30772054 -0.053155895 0.0017656748 0.22618718 0.033814173 -0.10488242 0.11114161 -0.6983435 -0.27999097 -0.07875527 0.12912305 -0.0155322235 0.040356997 0.075505696 0.21272783 0.151388 0.13449438 -0.2168076 -0.039752632 -0.18337053 0.21513934 0.090306275 -0.19766195 0.19079731 0.37159765 -0.18204984 -0.09787908 0.05471763 0.07301141 -0.37546173 0.39379254 -0.016564924 -0.10715281 -0.018368436 0.08513495 -0.47458768 0.08308617 0.16359264 0.1501018 0.032042157 0.124948055 -0.31110308 0.068050705 -0.140802 -0.16891938 -0.05793409 0.011606896 0.2940466 -0.17425962 -0.026904436 0.2718592 0.19822632 -0.08364224 0.059499796 0.047456607 0.39078623 -0.028268687 0.053954042 0.14372475 0.027155623
374 -0.20865835 0.21483083 -0.04098476 0.009091843 -0.010103518 0.16552415 -0.014760722 -0.07946826 -0.042465314 0.1915402 0.3005666 -0.02456413 -0.21993575 0.3978831 -0.08066589 0.021732133 0.26180035 -0.0340867 -0.23035075 0.05073216 -0.23961738 -0.23596328 -0.39809954 -0.2744753 -0.098606154 -0.057733625 -0.0837972 0.0719931 0.036170073 -0.25253752 -0.34732795 0.3808725 -0.05307823 0.035717852 -0.15592287 -0.45558906 0.07942556 0.47778332 0.11526724 0.10334541 0.4213784 0.033659734 -0.1216114 -0.23639841 0.06667129 -0.117249355 0.08789739 0.4941916 -0.23393932 0.1926628 0.0123109585 0.26283023 0.023093699 -0.6461565 -0.3395653 0.13816828 0.06618327 0.18217367 -0.049388822 0.16370869 -0.22399387 0.15299289 0.5925208 0.18912175 0.11434981 -0.16603602 -0.01658726 0.35517964 0.11072382 -0.13933063 -0.082612075 -0.087969854 -0.4595163 -0.43315914 -0.19548677 -0.33145213 -0.0108087445 0.06781689 -0.13298115 0.0881631 0.3515399 0.052986614 0.086954676 0.24457245 -0.20091905 0.30952558 -0.51961553 -0.29119724 -0.03908128 -0.3134614 -0.16419345 0.13845876 0.32382944 0.21716619 0.05932522 0.02247307 0.18632227 -0.48023093 0.28521132 -0.097914465 -0.12120908 -0.008472334 -0.094546355 0.225806 0.21254604 0.13319707 0.25105554 -0.02148105 0.10411446 -0.17031743 0.23086452 0.12170559 0.19687365 0.08399481 -0.17071952 -0.41854826 0.23590119 -0.10710629 -0.08534051 -0.0947727 0.3112829 -0.504968 -0.13608062 -0.05610892 -0.18687047 0.24923894 -0.44692612 -0.10192588
96 0.11571794 -0.07484639 -0.10688915 0.27539527 -0.24994248 -0.021161625 -0.38898855 0.32736027 -0.015566517 0.08487344 -0.2821671 0.09690737 0.025775824 0.13661695 -0.41906902 -0.08363361 0.08080859 0.5124777 -0.11123233 0.015425906 0.23611327 -0.19145514 0.024231533 -0.18945199 0.33964208 0.19420822 -0.06414732 0.21509461 0.02326614 -0.26411194 0.45156664 0.07843468 0.02309932 0.31631586 0.123309575 0.20174791 0.13331625 -0.0727474 -0.11290632 0.3030381 -0.41144875 0.38639697 0.4404735 -0.3248702 0.107961416 -0.03553482 0.08206882 -0.062529355 -0.5202568 0.27033517 0.17997414 0.07530062 0.10788274 -0.10635584 -0.015475596 -0.008499716 0.12924396 0.16617234 -0.464665 0.21243031 -0.29205146 -0.036481578 0.103586845 -0.3247922 0.22235985 0.11145697 0.047502603 0.08555016 -0.48180887 -0.2547866 -0.3077365 0.15328658 -0.11931789 -0.3861189 -0.2800365 -0.51279426 -0.13483135 0.23339806 0.17008445 0.16832332 0.011459967 0.23748465 0.21822959 0.3331126 0.14946881 -0.3167039 0.29102644 -0.14955902 0.3304712 -0.089072384 -0.4467787 0.20414814 0.20084544 -0.5003593 -0.20922822 -0.44508827 0.16508935 -0.1914108 -0.10643771 0.29751045 0.2988345 -0.09556497 0.18394898 -0.21098712 0.084786296 0.20302695 0.06878203 -0.107825555 0.12327109 -0.27080497 0.035309914 -0.17588677 -0.1354087 0.012644409 -0.07422089 0.20057745 0.035687562 0.14665894 0.1822096 0.009264661 -0.0236489 0.09186944 -0.2037948 0.27062586 -0.07759549 0.123689204 -0.19566916 0.14001895
231 -0.52784544 0.02034098 -0.18892147 0.15674852 0.31463408 0.083243065 -0.29651368 -0.09713543 -0.43353984 0.41159305 0.3518829 0.242424 -0.3160648 0.24939941 -0.18700416 0.23436531 -0.0068111895 -0.4299613 0.003908312 0.4225189 -0.036914367 0.14808409 0.30838817 -0.2136204 -0.11711989 0.17235668 -0.44942477 0.22936885 -0.057558026 0.07342401 0.16616088 0.09821355 -0.032376897 -0.12642573 -0.07578232 -0.079546995 0.042270485 -0.039976835 -0.16351147 0.339852 0.06337179 -0.4193185 -0.053742867 0.08661668 -0.0960057 0.48930216 0.38142806 0.26365417 -0.028129159 0.2618013 -0.11881374 -0.092557594 -0.20002747 0.42697236 0.12538749 -0.50481904 0.0953683 0.5689664 0.014291779 0.053491965 -0.15017773 0.0020494885 -0.31110182 0.06034563 -0.07489221 -0.009385138 -0.14786525 0.4392864 0.042986207 -0.08770609 0.3602863 -0.3606474 0.1725775 -0.010783354 0.067788914 -0.5692934 -0.33056277 0.18937911 0.09990646 -0.43057656 0.13163614 0.06174219 0.2600416 0.12589581 0.11980395 -0.06588584 -0.31556818 0.009684156 -0.38298795 0.24055442 -0.34638813 0.1945141 0.1407973 -0.14439353 -0.034478594 0.1744731 -0.3657737 0.34696302 0.05262277 -0.039187375 0.055544317 -0.0024448375 -0.2956004 -0.08587674 0.057777733 0.15002613 -0.07968794 -0.014199808 -0.08274517 -0.039803836 0.172585 0.019794822 0.12711677 -0.29795927 -0.28919575 0.19130808 0.122408785 0.06101381 0.39027768 -0.23219638 0.20579901 0.025057245 0.505712 -0.038605433 0.22439982 -0.0059777005 -0.39111254 -0.34771973
393 -0.083731756 -0.0016137145 0.023862183 0.14954562 0.38680893 0.281287 -0.06302804 0.20352851 0.0850982 -0.06899828 0.20249665 -0.3088432 -0.09961406 0.29808104 0.25063103 0.21058033 0.12381387 -0.061976723 0.05000019 0.011541067 0.058809116 0.004335334 -0.11549492 -0.27094427 -0.08378798 -0.027334288 0.063226275 -0.18410555 -0.087198 0.104227334 0.39489022 0.20316991 -0.15003315 -0.24667579 -0.085185245 0.1133697 -0.08041783 -0.15443622 -0.028947812 -0.1437801 0.1317327 0.5742962 -0.1590476 -0.290382 -0.13681725 -0.022492645 0.026955301 0.08029083 -0.105070695 0.48595536 -0.1793097 0.16198495 0.20004891 -0.3543453 -0.2491561 0.03262113 -0.10182084 0.027101863 0.3795068 0.6746067 0.07506933 -0.072000146 -0.0775319 0.1208456 0.34881845 -0.059890434 -0.47894487 0.26305515 0.20140482 -0.24241602 -0.1054939 -0.46755788 -0.2897719 -0.02955265 0.26259643 0.004397019 -0.15978366 0.026173737 -0.15305988 0.32442275 -0.037455235 0.07112492 0.11966934 0.10650649 -0.07345554 0.2607626 -0.02630604 -0.24543479 -0.47336233 0.18991095 -0.3895471 0.35367495 -0.5086 0.20473076 -0.2678708 0.30641344 0.21752688 -0.18599962 -0.13490228 -0.048207104 -0.06821682 0.1963473 0.30121824 0.17063917 -0.2977205 -0.17177697 0.117320545 0.05726974 0.2096701 -0.205153 0.45239714 0.11661978 0.117027715 -0.050730728 0.04390558 -0.27327666 0.04468136 -0.1658277 0.13392013 -0.16309193 -0.2276866 -0.1262809 -0.4293931 0.049397957 0.0017467366 0.5611884 -0.12650095 -0.21508297
441 -0.27174303 0.13854264 -0.012279325 0.13382024 0.022191923 0.45403218 0.07644955 -0.07842621 -0.39142844 0.5116582 0.41164863 -0.06674796 0.07923821 -0.08202301 0.31770948 0.013490212 -0.34209532 -0.079427026 -0.22722156 -0.3458109 0.15208857 -0.3209168 -0.11099405 0.059783358 -0.17257755 0.24996763 -0.15531896 0.2071663 -0.0032622544 0.060802005 -0.16920902 -0.10357678 0.05528752 0.36106235 0.4898195 -0.20410585 -0.004593513 -0.02503575 -0.10957369 0.5140601 -0.05196622 0.075294234 0.043700114 -0.38749367 -0.014675432 0.00994709 -0.49697 -0.2983794 -0.18973358 -0.1564924 0.21041416 -0.11931478 -0.04054416 -0.08806295 -0.060431052 -0.2021962 0.31035158 0.28868547 -0.08851024 0.15231358 0.16527979 0.029514994 0.06813871 -0.13165987 -0.34488744 -0.011430395 0.05218671 -0.2716328 -0.3603296 -0.12573709 -0.3195572 0.10479714 -0.4740984 -0.31325164 -0.5364873 0.15043232 0.286923 0.40035844 -0.042826712 0.43420795 0.03274832 0.053407837 0.029609554 0.13620426 0.024955416 -0.028208246 -0.18615325 -0.16126765 -0.35972014 0.06856599 -0.49473077 0.11318915 0.11789019 0.019392932 0.00879436 0.053534452 0.1741065 -0.10121654 -0.040128633 -0.056732398 0.33894783 0.16218272 0.07765108 -0.03484492 -0.14498799 0.07956261 0.12977412 -0.03038775 -0.031868853 -0.4880879 -0.07063319 -0.11091047 0.18127853 -0.04359202 0.14766867 -0.06450146 -0.36647856 0.118778825 0.25317088 0.10402477 -0.27167886 -0.2385389 0.09682911 -0.26024812 0.3190054 0.19896035 0.12388626 -0.35870323
430 -0.082118146 -0.164807 0.25676 0.20891167 0.32293168 -0.13722314 0.22116143 0.23131442 -0.18834291 0.34751448 0.14843124 0.05740871 0.20444934 -0.13045323 -0.46133116 -0.16140454 -0.49847856 0.069448724 0.050730966 -0.04939877 0.04825848 0.15956539 0.06307632 -0.065902784 0.17675963 -0.011602157 -0.04359225 0.2573917 0.2211699 0.115443796 0.19270985 0.23432617 -0.13139208 -0.15186907 -0.18459338 -0.002260964 0.007850821 0.1829774 -0.1231167 0.24800247 0.13854438 0.10737202 0.0328037 -0.3887777 0.07812297 -0.04892515 0.0031617375 -0.053858627 0.060072415 0.35734782 0.7348114 0.092399746 -0.1204807 0.12230051 -0.00619019 0.017757144 -0.11229894 -0.16153975 0.12414074 0.099001065 -0.07838048 -0.29263946 0.088646695 -0.016864194 0.408853 0.06098341 0.1814101 -0.31197545 0.057086162 -0.07743685 -0.16282775 -0.5103435 -0.13400955 -0.0066338386 0.012352386 -0.24362062 0.29660788 0.11587787 0.10161912 -0.10334601 -0.38685086 0.12740658 -0.05464226 0.57472205 0.122432016 0.3056263 -0.10854121 -0.17799704 0.14401929 -0.022253804 -0.18562624 0.305084 -0.31474614 0.07070083 0.09091447 0.2729622 0.0542373 -0.13736424 -0.06690298 -0.397913 0.06388145 0.11394244 0.038336944 -0.087420724 -0.17326453 0.48281175 -0.07138832 0.17834803 0.08439669 0.5935972 0.40006286 -0.2123815 -0.16509958 -0.13719918 -0.19191544 0.088084884 0.0049978183 0.24342993 0.10483187 0.4176727 -0.19015492 0.07358933 0.09480082 0.07740675 -0.18046756 0.3157857 -0.28157902 -0.17114817
304 -0.2850394 -0.20163068 0.17472887 0.039140005 0.12667575 -0.16476418 -0.029086325 -0.1572349 -0.17198467 -0.2000243 0.31365192 0.044912353 0.09975814 0.06360984 -0.18744086 0.12685485 0.20033452 -0.112564996 -0.35384497 0.32058758 -0.23709661 -0.12909757 0.0007675463 -0.40116996 -0.13286775 0.21063215 -0.31063262 0.19934052 0.40913057 0.33381817 0.081275366 -0.020262152 -0.13375057 0.21084534 -0.12186537 -0.22031498 0.060338028 0.13472678 -0.5520151 0.08954042 -0.0075715077 -0.14304253 -0.07459892 0.0028456016 0.11430973 0.32995164 0.21556318 0.01483782 -0.23808071 -0.05225189 -0.19451305 -0.233999 -0.021141395 -0.120842695 -0.0115447 0.19779402 -0.18186031 -0.032320864 0.30408463 0.053711135 -0.021811046 0.24619925 -0.24106438 0.11772249 -0.11857357 -0.09433759 -0.0071585244 -0.043469016 0.20281233 -0.10675597 -0.064990066 -0.19763127 0.026315063 0.15452603 0.15948574 -0.24346839 -0.40020528 0.27285433 -0.20576519 -0.062819675 -0.06886051 0.1872635 0.2826782 0.5481437 0.0054617664 -0.092475325 -0.41353694 -0.22022428 -0.23218606 0.10096885 -0.39525962 0.10964199 -0.35087684 -0.10620734 0.33782387 -0.10059861 -0.36827722 -0.17846017 -0.018690556 -0.34573972 0.013425822 -0.15226272 -0.265399 -0.29766858 0.47167104 -0.009355406 -0.109263875 0.031100452 -0.18312156 0.24589236 0.1957702 0.21148719 0.6669378 -0.085194305 -0.29807264 0.18567306 -0.19403388 0.43946648 0.57009304 0.22146167 -0.3114331 0.08049008 0.5592747 -0.00069026474 0.5035173 0.2003111 -0.40289402 -0.15222678
468 0.24342085 0.22976281 -0.40774977 0.49075395 0.35072955 0.24478401 -0.32189226 -0.12766963 -0.14711785 0.14053035 0.11806372 -0.24196546 0.12227663 -0.08018276 -0.042758174 -0.11160809 0.14461735 0.6542491 -0.177017 0.03373976 0.25854868 -0.14387035 0.112876095 -0.31424516 0.16857588 0.011558842 0.10865038 -0.07522707 0.23429298 0.05395959 0.51299 0.20037721 0.022402566 -0.037899893 0.012135434 -0.017701572 0.007008583 -0.38092136 0.0130983945 0.15181534 -0.25010306 0.19654962 -0.08870557 -0.09554921 0.13458616 0.36101747 0.11188192 0.16870567 -0.23601243 0.04733758 0.33088383 -0.11597007 -0.029440505 0.10755123 -0.21573809 0.090362415 -0.1014401 0.23750421 0.017647816 0.5728303 0.30137837 -0.2025606 0.124387875 -0.36761272 0.47748983 -0.112445995 0.2720427 -0.044251226 -0.18170741 0.015337002 -0.16627479 -0.36909556 -0.018952847 -0.41538852 -0.3387051 -0.1615763 0.15312229 0.06507982 -0.11879144 0.094575375 0.056036215 0.06419422 0.31778398 0.31813726 0.29333177 -0.23684569 0.42285255 -0.18061866 0.3524296 0.016596401 -0.39400136 0.47371906 -0.05489374 -0.030318202 0.12870146 0.02783431 -0.14317447 -0.22416827 -0.26560107 0.32783085 0.010483576 -0.37039503 0.09538647 -0.2558058 0.22402123 0.1973582 0.048392642 -0.04089089 0.048960112 0.0342272 0.2370006 0.02149886 -0.02799172 0.15532869 0.19722718 0.041539017 0.17731951 -0.01707996 0.11184584 0.08013892 -0.04616117 0.10946957 0.38240075 0.19773732 -0.03445955 0.18950404 0.019979173 -0.42428595
323 -0.50677 0.09899199 -0.12669864 -0.15920866 0.27511916 0.13437326 -0.3370041 0.034787294 -0.17936835 0.089652985 0.11672291 0.17593049 0.14452338 0.112702124 0.14380422 0.18795626 -0.10772001 0.20814535 0.0032098882 -0.13525642 0.22180325 -0.03144613 0.047954045 -0.40836173 -0.28584635 0.026131889 -0.023954196 0.097559646 -0.5826278 -0.028346697 0.019438157 -0.17414287 0.10796342 -0.007199104 -0.19014016 0.25504145 0.04234094 0.11491141 0.22159344 -0.19569391 -0.42940453 -0.42934904 -0.3923121 0.02635662 -0.19571494 0.3870632 0.24958785 -0.3856348 -0.18967123 -0.000779386 0.07977409 0.14750132 -0.34644225 -0.09335911 -0.10831388 -0.31657046 0.29801518 0.15539578 -0.0042299866 0.34416416 0.18513666 0.20347391 0.040415507 -0.16626857 0.071659066 -0.24217069 0.058391877 0.29898295 -0.45533878 -0.3144566 0.10918184 -0.092763804 -0.3467002 -0.016561503 -0.19853637 -0.41983938 -0.027023429 -0.20692225 -0.039133567 -0.33777833 -0.18402998 0.0026544528 0.30924988 0.24762458 0.11501208 -0.31313375 0.0435267 -0.010134006 -0.16106337 0.114693806 -0.09531475 -0.049728345 0.206276 -0.10058571 0.008446331 0.14548299 0.09409303 -0.044002462 0.3470272 -0.02488212 -0.058964744 -0.36349517 0.06280207 -0.39970517 -0.16005857 -0.122193806 0.16988394 0.2866473 0.06693686 0.00871583 -0.28413764 0.01813135 -0.48570782 0.11419212 -0.23157965 0.030994289 0.11163202 0.31322318 -0.027952962 -0.07973386 -0.41566816 0.36033309 0.22745998 -0.10647234 -0.12569425 0.28502637 -0.20523089 -0.021309074
217 -0.5745169 -0.019669937 -0.19475608 -0.0358048 -0.016097227 0.62665606 -0.22739848 0.23319279 -0.27639973 0.27431512 0.046470698 0.19078095 -0.28601915 0.22481114 -0.22477037 0.19619104 -0.085533455 0.2916663 -0.06267663 0.17542556 0.11624511 -0.08559216 0.24549057 -0.31102896 -0.056645464 -0.06548305 0.13066763 -0.027401993 0.22447304 0.1315757 -0.08403352 0.086232305 -0.10143214 0.17329247 0.11932029 -0.11771886 -0.18203178 -0.022763781 -0.25132355 -0.023687521 0.052444804 0.24823909 -0.38765687 -0.3187869 -0.23450284 -0.0014130312 0.22260083 0.22953202 0.11372919 -0.008888457 -0.09052724 0.10789373 -0.27809545 0.24990897 -0.11411775 0.016132897 -0.12674199 0.13992813 -0.40414238 -0.17125955 -0.12571879 -0.08220685 0.12839921 -0.11997089 -0.1946342 -0.17606586 -0.24310033 0.16195871 -0.29363105 0.022722099 0.30622908 -0.19782881 -0.0988312 0.2123745 0.25409746 -0.13345923 0.19595447 0.10282648 -0.02553981 -0.08454878 -0.13614447 0.04959102 -0.25402257 0.19083264 0.11070174 0.091128774 -0.28651503 0.026547672 -0.052996855 0.022267057 0.07246638 -0.048511736 0.35523576 0.09014404 0.07187777 0.20540442 -0.08669392 0.04228424 -0.054883778 0.017767193 -0.13186795 -0.07513294 -0.24267061 0.24806596 0.1717907 0.083964795 -0.0154404305 -0.10667879 0.05147374 -0.11067041 -0.24563867 0.035218414 0.19052638 -0.07709817 -0.0865755 0.22481391 0.08851552 -0.42036214 0.30850565 0.16059923 -0.12785514 0.24100524 0.101296015 -0.15583776 0.43332154 -0.008287931 -0.02176603 0.013136594
424 0.20584482 -0.2655923 0.17175949 0.41540897 0.28347927 0.11904457 -0.14921507 -0.17728314 -0.69849557 0.79187036 0.4458198 0.82845306 -0.025413372 -0.1623824 0.13388085 0.13691644 -0.19617823 -0.29455334 -0.042164348 0.04252898 -0.028509244 -0.39591438 0.26222464 0.36418542 -0.01956308 -0.23103163 -0.29151684 0.18235405 0.1417036 0.12729546 0.2580258 -0.25040194 -0.29084688 0.13944116 0.14447936 -0.25733623 0.03654555 -0.22868481 -0.45217174 0.036577653 -0.083499 0.107796885 -0.14129454 -0.40191093 -0.15885091 0.11570037 -0.024480065 -0.27018014 -0.017054947 0.17060499 0.42032894 -0.21427146 0.12279363 -0.13786666 -0.07417438 -0.3026607 -0.08894066 0.04176053 -0.5550065 0.16010875 -0.16190733 0.15637904 -0.09490334 -0.35695243 -0.2688998 -0.47220185 0.2972429 -0.32864967 -0.093813196 -0.14671534 -0.40964535 0.13749178 -0.44693065 -0.4246305 -0.21798837 0.21801467 -0.18233062 0.02976504 -0.23128065 0.18510917 -0.17023377 0.10359306 -0.1104571 0.1364272 0.016415253 -0.35278848 -0.4910145 -0.123567685 0.05597111 -0.091138825 -0.6253654 0.16092834 0.11457691 0.3654647 0.08631554 0.13674004 -0.26760408 0.049796917 0.42718992 -0.3243181 0.22014187 0.036565673 0.1297818 -0.05092293 0.17026606 0.28908744 -0.048702933 -0.024011921 0.2910676 -0.33961374 -0.16481368 -0.024783378 0.10836665 0.32792112 -0.12588498 -0.08444736 -0.23071812 -0.14714329 0.070243515 -0.08186416 -0.030087015 0.11518121 0.07543357 -0.43877015 0.14486986 0.36422074 0.08884926 0.179135
461 -0.24190788 0.15035573 -0.2098577 0.28379026 0.17250471 0.104781516 0.22710906 -0.21887746 0.16154188 0.34782758 0.098898925 -0.059525095 -0.07975346 0.14381678 -0.51145554 0.15828127 -0.21353546 -0.08435125 -0.048680015 0.10524618 0.24630338 -0.22852328 0.38560727 -0.32607505 -0.25000802 -0.011718235 -0.14792705 0.45728537 0.317534 0.5540544 0.04586858 0.37269917 0.13863151 -0.23465759 -0.067086525 0.08157931 -0.2948518 -0.21038109 -0.21811761 -0.11892418 -0.11980585 0.2747746 0.049156934 -0.3418416 0.22686525 -0.29165474 -0.118873544 -0.4282784 -0.0340411 -0.10560685 0.41157755 -0.09768909 -0.011670996 0.12916282 -0.26820213 -0.17456312 -0.062183186 0.12623455 -0.15734974 0.19906645 -0.09691875 -0.24319951 0.14297241 0.2489321 0.019455256 0.0015965865 -0.32420316 0.048325244 -0.20503397 0.0926077 0.20767741 -0.0094809495 -0.3067232 -0.29124153 0.15849125 0.09758048 -0.053900708 -0.17040169 0.048445236 0.14518471 0.23259322 -0.29369003 -0.12989463 0.7307167 -0.3281085 0.32679442 -0.24420196 0.2346654 0.54357225 0.10791748 0.08563607 0.40226522 -0.50372636 0.22630563 0.39731693 -0.25090212 -0.15307511 -0.121903956 0.17996247 -0.10415948 -0.3027036 -0.059406985 -0.046587437 -0.55779487 -0.1971071 0.10003431 -0.093988664 0.055002075 0.110982575 -0.31393835 0.28434685 0.30224213 0.025891228 0.17001636 -0.36481383 0.05331792 0.065634325 0.17217258 0.265625 0.32560042 0.013130713 -0.13232955 -0.08333391 -0.33290768 0.16813767 -0.44458035 0.19764261 -0.03963636
264 0.32408038 -0.36326557 0.03668323 0.05013646 -0.10664999 -0.058388777 0.28272703 -0.21254964 0.1697571 0.28088096 0.01062283 0.15023136 0.04854647 0.0713614 -0.039015852 0.043120403 -0.16519415 0.31909248 -0.008062862 -0.258839 0.06919421 0.0724817 0.30397505 -0.010815116 -0.23367627 0.2870978 -0.39322528 0.10817986 -0.062481977 0.05155705 -0.03366257 -0.06552866 0.44203323 -0.036498234 -0.048935954 -0.19750936 0.07676876 0.17241785 -0.0007463367 -0.44549 -0.44111562 0.006004374 -0.18058994 0.018391142 -0.08810062 -0.37099633 0.24611205 0.5528606 0.09871009 0.16562198 0.23761354 0.11270057 -0.47875297 0.0710562 0.16383688 0.23811711 0.024933675 0.14461543 -0.13321126 0.3917933 -0.14998458 0.045324963 -0.22841653 -0.019729136 0.40472814 0.11520532 -0.12513226 -0.14604673 0.1671342 -0.044888135 -0.3964999 0.058575377 -0.5434031 -0.23933856 -0.09127759 0.076336496 -0.33560255 0.16296202 -0.0020495662 -0.101735026 0.059113458 -0.2824068 0.06975392 0.30626684 0.04086629 0.08469323 -0.10742296 -0.18006708 0.040411733 0.001500778 0.2930941 -0.21087627 0.13014597 -0.13300964 -0.27897942 0.10490607 -0.072697826 0.20766118 0.054640003 -0.38967612 -0.15531671 -0.1079836 -0.101635665 0.09190311 -0.084832266 0.38044864 0.14241396 0.3537576 0.0337511 0.038497075 0.056888506 -0.09752606 -0.24230379 0.06324999 0.025726924 0.13879994 -0.23918864 -0.017068546 0.29682073 0.1579945 -0.27048618 0.20395109 0.24390352 0.13062955 -0.17855473 0.20373614 -0.116992235 0.11157656
3 -0.04942313 -0.36746937 -0.48291034 -0.08974108 0.2193644 0.035507247 0.07345123 0.18499644 0.03353646 0.083271615 -0.063732326 -0.017015358 0.19017434 0.3561162 0.072969496 0.14725581 0.042219255 -0.27184808 -0.2907369 0.118526876 -0.15434588 -0.214107 0.10683014 -0.063609436 -0.10755189 -0.112712584 0.076795 -0.09193339 -0.116495825 -0.025477512 -0.034606032 -0.07086461 -0.00029582143 0.11050308 -0.17146406 -0.13562237 -0.05330833 -0.13877511 -0.22585616 0.15211804 -0.19439201 0.08245152 -0.038766075 -0.23619376 -0.25486153 0.032443058 -0.010628134 -0.081412345 -0.05118758 -0.46688688 -0.051881276 0.012299396 -0.07707242 0.06413755 -0.24249934 -0.07209021 0.085996285 -0.021396397 -0.1451381 0.35969582 0.022438353 -0.03120093 0.16226178 -0.034767576 0.22662628 -0.18073072 0.10915787 0.13662806 0.031402238 -0.24204868 0.13446191 -0.15896128 0.04618868 0.037540495 0.21527474 -0.19163688 0.01649012 0.17359653 0.18709975 -0.15729326 -0.040241204 -0.041093107 -0.10210349 -0.023113336 -0.06468555 -0.120187886 0.064768136 -0.30968037 -0.08932461 0.069030054 -0.06482421 0.449893 0.2927836 0.19945048 -0.3871208 0.13331684 -0.038355768 0.002666651 -0.15679863 -0.10444377 0.16150947 -0.40928623 0.116281606 -0.09717695 -0.2664573 0.3118256 -0.27529263 -0.17436351 -0.326534 -0.104030214 -0.15748934 -0.21070935 0.06978945 0.5408744 -0.20736167 0.17724508 -0.14329292 -0.032281443 0.25943732 0.3949219 -0.4097886 -0.24199012 0.006644842 0.028545693 -0.06568809 0.019403921 -0.084853135 0.004154814
435 -0.58372897 0.0571014 0.16785516 0.070535794 0.12010556 0.052459355 -0.2829848 0.022610273 -0.08102117 0.14967142 0.17151615 -0.12883557 0.20915312 0.25282064 0.14556433 0.07636552 -0.12016984 0.34550634 -0.0149871465 -0.3186037 0.30251762 0.25192985 0.14286615 -0.27936414 -0.03849254 -0.005408444 -0.18460828 -0.079161145 -0.46356592 -0.025452813 0.10915511 -0.14821137 -0.011406415 -0.27469516 -0.31878603 0.010908731 0.39665237 0.096530974 0.4030056 -0.32183397 -0.57070845 -0.30304563 -0.45579064 0.16877644 -0.14324398 -0.13064766 -0.079112194 -0.027414404 0.0671493 -0.14287044 0.030214727 0.07822004 -0.16453606 -0.048429605 -0.3131874 -0.24850862 0.16131757 0.19203092 0.02668188 0.2680355 0.07951668 0.025295556 0.033049606 0.02864862 0.40835577 -0.27269825 -0.069924645 0.41826433 -0.27715856 -0.22389592 -0.12906152 -0.24068394 -0.399333 -0.19049412 -0.19676584 -0.3069361 -0.3260401 -0.008572066 -0.2057089 0.0003115265 -0.19538212 0.03715324 0.58432764 0.40051317 0.29028246 -0.3608395 -0.041567147 -0.2449532 -0.09056207 0.05953507 -0.13614908 -0.18202616 0.02441331 -0.1604503 -0.015245113 -0.051647488 0.038349967 -0.3433411 0.058890205 0.12490303 0.041217495 -0.20065366 0.0043285387 -0.19281106 -0.058735173 0.23927948 -0.095143445 0.3291443 0.0072611393 -0.08138989 -0.42262706 -0.026485506 -0.5961059 0.10221055 -0.2260646 0.13780904 -0.17510583 0.07773871 -0.10688669 0.14204231 -0.42591253 0.2923888 0.45992213 -0.15827796 -0.17262715 -0.04789051 -0.20432402 -0.10133418
178 -0.086855225 0.17389885 -0.05410152 0.14871354 -0.02529072 0.08597689 0.13521484 -0.017689293 -0.036997557 0.41270977 0.23538764 0.06107357 -0.13133936 0.2931149 -0.027153138 0.106499135 0.4287212 -0.005993974 -0.13387336 0.060888566 -0.076836236 -0.10380184 -0.48920903 -0.2783514 -0.03413348 -0.07935535 -0.12002875 0.16333596 -0.026113894 -0.22294815 -0.36509112 0.33371663 -0.1367536 0.22594579 -0.10829623 -0.31466934 -0.08979305 0.3729567 0.20251893 0.28640756 0.34563702 -0.037716072 0.022778353 -0.18060943 -0.096279755 -0.07140497 0.037911966 0.49683633 -0.17556903 0.29278004 -0.024727117 0.27591282 0.09106158 -0.52906096 -0.3467237 -0.0029908489 0.13367836 0.19497801 -0.124571964 0.23338014 -0.17110021 -0.046020865 0.58567184 0.22685207 0.21586834 -0.089532726 0.10797296 0.2598685 -0.04127646 -0.1033441 -0.10441317 -0.1536151 -0.45576853 -0.51696736 0.07311129 -0.35320836 -0.12651843 0.17951018 -0.2367555 0.05713532 0.22159168 0.16018388 0.25603485 0.28673887 -0.17022279 0.24971868 -0.406632 -0.15133412 -0.070623815 -0.15292338 -0.038207415 0.04773653 0.40918252 0.21083796 0.14147699 -0.10268542 0.018824985 -0.45972422 0.30370384 -0.28477567 -0.28840664 0.05790765 0.082404114 0.13874815 0.102664106 0.19267797 0.3923109 0.0032538956 -0.0036823018 -0.05850014 0.5038384 0.30094165 0.09426757 0.07695436 -0.14301167 -0.32827133 0.19972137 -0.1340612 0.039836697 -0.08008257 0.4355717 -0.60591966 0.010756253 -0.13765666 -0.0052965498 0.17263328 -0.3554002 -0.059633274
181 -0.07894642 -0.55829924 -0.13768552 0.07046316 0.042439744 0.17223756 0.351755 -0.42706963 0.119690634 0.30066708 0.054436613 -0.06994496 0.0034537774 0.3395404 -0.044906076 0.1333402 0.23135997 0.10023469 -0.19794953 0.12419327 0.027300388 -0.1602999 -0.11131465 -0.3229313 -0.2849496 -0.2431914 -0.20751631 -0.22196302 0.001820482 0.02619625 -0.069141485 0.3145781 0.16323635 -0.06669247 -0.14649339 -0.25054106 -0.20852451 0.13406838 0.09685988 -0.10527286 0.0827922 0.092576414 -0.004400888 -0.052891724 0.0868736 -0.27345997 -0.061772738 0.05411458 -0.22882946 0.052789606 -0.16520157 -0.0931487 0.074044116 0.023036875 0.30799067 -0.1333514 0.15156423 -0.1700656 0.13317432 0.12691864 -0.23471148 -0.02750905 0.17674789 -0.4313844 0.20927463 -0.023338357 -0.023216896 0.13991031 -0.042694777 0.09840142 0.0638284 -0.22530879 -0.44247308 0.15129177 0.23473945 -0.34742913 -0.0296725 0.07715194 -0.36725202 0.12757295 -0.008199577 -0.03301916 -0.026716877 -0.23701274 -0.066988565 0.10614557 -0.044130404 -0.1369273 -0.119835906 -0.14215147 -0.19015971 0.15339406 -0.16210526 -0.21630919 0.2919248 0.2518118 -0.002792656 -0.13466837 0.2234921 -0.28063637 -0.065789364 0.11287767 0.015521713 -0.098929115 0.13924791 -0.007637895 -0.04452736 0.083023414 0.28753963 -0.07720863 0.2038266 -0.23077239 0.121656485 0.07454705 -0.16718301 -0.20858635 -0.17247634 0.25666228 0.44700107 0.19688188 -0.25312495 -0.2635416 -0.043163 -0.06104455 0.06734764 -0.26407725 0.2591261 0.20570894
336 -0.09393373 -0.3033101 0.120006636 0.17038192 0.0046194387 -0.19591321 0.27864122 0.19207291 -0.10192 -0.07817736 0.021728428 -0.20691366 -0.028634045 -0.034071364 0.33967635 0.016839007 -0.7088826 -0.07778064 -0.09530947 -0.12811501 0.34198964 -0.5675016 -0.27817297 -0.12634379 -0.1503389 0.00783814 0.022097193 0.46786785 -0.12946387 0.019143436 0.15308657 0.13446854 -0.055355996 0.30184317 -0.247814 -0.027807508 -0.07685265 0.020861069 -0.081429675 0.38791683 0.4531632 0.0017606339 0.19052327 0.06699184 0.5341011 -0.38871095 0.00686728 -0.34132123 0.012014202 -0.3233908 0.45413908 0.12345569 -0.0033213003 -0.14440666 0.03647943 -0.010714497 0.59854406 0.13157564 -0.13315336 0.121217206 -0.36518416 0.14933658 0.3746007 -0.36830017 -0.16606738 -0.079394326 -0.31533885 0.38934624 0.055110473 -0.07886138 0.25280678 -0.4587811 -0.15444139 -0.22275253 0.041087024 -0.019126862 -0.2653045 -0.18650696 -0.09048032 -0.159516 0.121643506 -0.18206948 0.038286205 0.09870292 0.12492949 -0.034768492 -0.01851407 -0.32634133 -0.11716997 -0.23377454 0.076102786 0.17536607 0.124487035 0.1231003 -0.36631018 -0.15121897 -0.32416904 0.0025726187 0.10410741 0.009037829 -0.311856 -0.41689286 0.057603143 -0.112538606 -0.01904111 0.41475856 0.16503404 -0.0914462 0.2390119 0.038989346 0.45839638 -0.0963359 0.28910244 0.028857775 0.2923813 0.041209284 -0.030164627 -0.070101745 0.14014697 -0.08080633 0.045499064 -0.1287601 -0.023453046 0.2602442 0.24062176 0.19563568 0.09113736 -0.14668481
498 0.06746956 0.3168163 0.07421794 0.29325393 0.066823035 0.25024584 -0.38498652 -0.29056776 0.03521849 -0.15779114 0.16832858 -0.4036648 -0.16647705 -0.068628274 -0.4772753 0.17460322 -0.24106364 0.21174642 0.12467294 -0.008465121 -0.039994214 -0.2961098 -0.12867521 0.3594361 -0.46155962 0.27692905 -0.02573172 -0.069752485 0.118298344 0.14345828 0.11667423 0.09172152 -0.1245566 0.24205233 -0.3955867 0.088988066 0.14553294 0.115647 -0.06459022 0.21292481 -0.18613797 0.018315447 0.2731517 -0.23109023 -0.0015015892 0.0046013864 -0.5939716 -0.5416349 -0.11409877 -0.11284945 0.4520213 0.23728022 -0.049967732 0.008287354 0.035636984 -0.09879224 0.3774958 0.15764597 0.28972507 0.020339325 -0.12893899 0.021572163 0.22182585 -0.3656054 0.3965094 0.11545282 0.19492395 -0.100855626 -0.094359234 0.0062383255 -0.3215165 -0.08235821 -0.20632951 -0.107265376 -0.36739713 0.13048698 -0.09538808 -0.29267347 -0.026098013 -0.0131306285 -0.24597707 0.08333106 -0.030806554 0.48916823 0.31185657 0.24729836 -0.23484363 0.13591285 0.029495351 0.30053657 -0.44670174 0.35145772 0.3386974 0.064428136 -0.08157228 -0.32122344 0.039152373 -0.019252304 0.20243041 -0.119227126 -0.5065042 -0.32021433 0.41364735 -0.29016516 0.07247742 0.14745183 0.1498947 -0.30542275 0.3420747 0.23974106 0.074986644 -0.12246407 0.18865035 -0.10984321 0.06785043 0.09204374 0.336496 0.22387849 0.5663612 0.013594732 -0.15193968 -0.040173374 -0.13317828 -0.45395407 0.01102587 -0.1035207 0.2403556 -0.52349645
491 -0.35123786 0.7833045 0.21000163 0.3507879 0.21994273 0.52905935 -0.17137477 -0.33821002 0.066765696 0.318839 0.24895252 0.21175696 -0.11383602 0.26728383 0.101788 0.0032730629 -0.35300234 0.07945265 0.036285475 -0.025353117 -0.29891744 -0.15317287 -0.16190253 0.0070550586 -0.31940827 0.4879251 -0.332454 -0.049196623 0.110607274 0.18485697 -0.22374082 0.02167041 -0.15317608 0.14518574 0.21125199 0.07875171 0.22932583 0.0987557 0.23135486 0.348618 -0.08357909 0.016858105 0.111635104 -0.34547472 0.058628317 -0.061867665 -0.34640652 -0.31672242 -0.20626278 -0.12288625 0.4692976 0.4712804 0.15096588 -0.067429475 -0.013541465 -0.025931368 0.17607173 0.32095113 0.020398894 0.04833446 0.2063279 -0.1044755 0.13117841 -0.030769235 0.14127596 0.043160744 -0.00038826533 -0.16771992 -0.21750422 0.031191487 0.013128466 0.27639142 -0.17542098 -0.21960087 -0.30564538 0.37890434 -0.026110157 0.12677167 -0.120578885 0.15650114 -0.26648235 -0.106788285 0.5912671 -0.066951856 -0.026054688 -0.13014536 -0.24231158 -0.1652385 -0.20232986 0.18193133 -0.48806253 0.3008233 0.26235518 0.0789847 0.073393606 -0.45294166 0.061191376 -0.27066007 -0.16290805 -0.05035708 -0.07919748 -0.05501746 0.46580726 0.13409045 -0.33239028 -0.08904517 0.417263 -0.21381679 -0.05048554 -0.25262803 0.046092942 -0.1844065 0.119599074 -0.025923055 0.34734946 0.22312635 -0.10963994 -0.10039032 0.660054 0.24790259 -0.35722148 -0.5488616 0.086864844 0.032631785 0.4533238 0.062109407 -0.29842153 -0.49827003
