749 128
149 0.19332032 -0.27846012 -0.40392312 -0.011747754 0.41740546 0.031528562 0.041505333 -0.12659876 -0.30738896 0.07644356 0.27051768 0.27104086 0.15528037 0.0072992947 -0.009113144 0.045685135 -0.2673967 -0.50070184 -0.021163326 0.00065283984 -0.10613195 0.0372155 -0.02327772 -0.12463401 -0.15809959 -0.032472353 -0.013677545 -0.1355393 0.070314966 0.06630047 -0.15992858 -0.017463787 0.18068273 -0.29683545 -0.24049997 0.101355515 0.042257454 -0.000121442936 -0.09315515 0.3261249 -0.28382057 0.06360272 0.21077317 -0.20443054 -0.13012998 0.24600123 -0.074886315 0.24108168 0.02969251 0.064914644 0.13375825 -0.28521633 -0.2068403 0.046255358 0.23842369 0.120802976 -0.04933323 -0.18598093 -0.20906487 0.0617321 -0.13967304 -0.14284697 -0.08829634 -0.072972074 0.030819222 -0.1661875 0.11071449 -0.027986722 0.1281441 -0.10512287 0.14757474 -0.26128262 -0.31024057 0.14512643 0.108906165 -0.134183 0.24176554 -0.20825568 -0.069288805 0.38973993 -0.43959185 -0.05737114 -0.112085395 0.054457143 0.077418484 -0.17083938 -0.32860827 0.099641316 0.34516934 0.01370946 -0.07984625 -0.04610601 0.29530874 0.67150337 -0.13569792 0.283016 0.24897338 -0.258229 -0.0051561953 0.44963887 0.0031855034 0.19187348 0.03148326 0.09709987 0.14667605 -0.009331866 -0.15679075 0.017344274 0.07403823 -0.029773522 0.23633629 -0.25761303 0.034614466 -0.029224364 0.0809477 -0.17080171 -0.23742507 -0.08376146 0.18662292 -0.052579086 -0.13214928 -0.36122638 -0.0546979 0.30994013 -0.44429535 -0.1441713 -0.060445055 -0.17039749
22 0.07742808 0.025186423 0.018179778 0.093138486 0.34640187 0.1516205 0.04849436 -0.13652143 0.01881401 -0.04016022 0.4585841 0.35023046 0.12204127 -0.2412681 0.13607857 0.11637078 -0.06293879 -0.058234774 0.19519053 -0.025992526 -0.2547349 -0.2827304 0.17304929 -0.4081911 0.28703144 0.34311616 0.13017967 0.03222916 -0.07063785 0.21669143 0.18818232 0.10401805 0.17186105 0.22953005 -0.31300798 0.19181466 0.05527998 0.26741233 0.19124554 0.18116274 -0.22868621 0.27956992 -0.3917265 0.3675232 0.13765769 -0.06569679 0.15048353 0.089675054 -0.24184392 0.3486047 0.24326752 -0.0927346 -0.09315911 0.06513435 0.07879594 0.5038264 -0.06416476 0.16788304 -0.16045457 -0.16473778 0.057122298 0.2048362 -0.15374066 -0.22014108 0.040888976 -0.014847299 0.00790061 -0.031071397 -0.12263146 0.00076760765 -0.027399443 0.07799234 -0.147913 -0.33621415 0.32708088 -0.28320208 0.08439446 0.04613345 0.3785884 0.2781978 -0.2627677 -0.20808497 -0.42315707 -0.22793305 0.25420433 0.048781656 -0.027014107 -0.15658657 0.12218705 0.21319862 -0.09063282 0.11402151 -0.62838835 0.4608058 -0.15750289 -0.024664879 -0.27070537 0.07501767 -0.05287731 0.23819464 0.093118526 -0.064507835 0.114242114 -0.041351136 -0.087587245 0.052244343 -0.43723735 0.056963105 0.16146383 0.08481683 -0.4220916 0.08352074 -0.025511652 -0.021763729 0.13140166 0.35543373 0.29645064 -0.047675148 -0.21738966 0.18190931 0.29526085 -0.278151 -0.20198922 -0.2023189 -0.086557515 -0.16183807 -0.15174937 0.2327436
122 0.14987656 0.07749909 -0.430501 0.09716196 0.15934625 -0.17518239 -0.06528036 -0.17044167 0.1342108 0.0045808367 0.17072588 -0.13327898 0.021903692 0.21613145 0.3127274 0.15679157 -0.05048704 -0.2156371 -0.19893225 0.33195606 0.11202491 0.042832315 -0.14388834 0.07677604 -0.025986714 -0.066139966 0.39339817 0.51610225 0.43472415 0.17175396 0.03429797 0.05982091 0.18202966 -0.06963756 -0.66222125 0.18293668 -0.15324563 0.067641795 0.09629855 -0.062501125 -0.039063025 -0.117607675 0.30702302 -0.10105087 -0.21116704 0.06459814 0.048025675 0.0520391 -0.14289227 0.24760304 -0.02780936 -0.25395024 -0.14602518 0.0640166 0.115494885 0.30821335 0.22110854 -0.20838779 -0.21357171 -0.055348925 -0.22302638 -0.011347012 -0.22745433 0.19808866 -0.06454521 -0.44578564 0.18576016 0.4465844 0.21503845 -0.010539364 0.047363136 -0.50328493 -0.2361479 -0.10185971 0.00980181 0.26511666 -0.010795537 -0.110713735 -0.09485671 0.09244875 -0.34584707 0.0035393727 -0.0544153 0.13438328 0.044397373 -0.10726674 0.05071423 -0.082929276 0.08860095 -0.06505224 -0.28115302 -0.26009652 0.25431332 0.6776389 -0.44402227 0.074757755 -0.014547085 -0.09425143 -0.037095558 0.13177887 0.034597464 0.4425279 -0.12050946 -0.0137258805 0.44200477 0.021367963 -0.025164902 0.28631404 -0.20355368 -0.19625254 -0.006571381 -0.12000889 -0.109365344 0.14409243 0.07033466 -0.01315824 -0.25892198 0.22624837 -0.19631247 -0.24076845 -0.2906745 -0.0841037 -0.22690499 0.28664795 -0.31068373 -0.27220744 0.18290193 0.03863065
738 0.049379062 -0.3344857 -0.22602245 0.1597436 -0.00929423 0.3133235 -0.12844485 -0.00048456644 -0.014284794 0.19380485 -0.081370175 0.55315477 -0.35179737 0.09226077 -0.1486959 0.09834248 -0.19867791 0.035800986 0.24256267 0.4355848 -0.39363047 -0.007961028 -0.16903901 -0.030851526 0.2704399 -0.33315462 0.23461081 -0.27874878 -0.05066616 -0.16515088 -0.14583053 0.00054120045 0.18199933 -0.035751775 -0.4833201 -0.012018575 -0.19752441 0.10185104 0.028479118 0.011174676 0.031518202 0.28664625 0.42022392 -0.32729912 -0.08571768 -0.078334086 -0.15570383 0.26246256 0.05528528 0.25241286 0.1363403 -0.10819617 -0.14266817 0.13779172 -0.11759371 0.15106831 0.38257354 0.33730268 0.4941945 0.083804645 -0.0023052238 0.2982395 -0.10019511 0.12879622 0.36958602 0.041982558 -0.1613868 0.16275749 0.032084752 -0.1725512 -0.0052492847 -0.1503409 -0.03804309 0.10814949 -0.021780238 -0.21167289 -0.054374613 -0.24970263 0.29015866 0.10834676 -0.20415062 0.44148389 0.124823436 -0.4022862 -0.13003187 0.20502205 -0.15564853 -0.04602912 -0.18257473 -0.114710316 -0.21243185 0.07256316 -0.0051194136 0.054370023 0.5789801 -0.013791195 0.5288008 0.19168778 0.1651789 0.08310056 0.11687438 -0.26118502 0.009528765 -0.2176693 0.011833271 -0.2903813 0.00076350593 0.042018436 0.16009785 -0.40590408 -0.1871914 0.027706612 -0.018847546 -0.015967956 -0.0037010326 -0.11728196 0.09808964 -0.17138802 -0.016300615 0.10356042 0.23778775 0.2067464 0.031452358 0.65912396 0.2128375 -0.46588078 -0.23233616 0.27922258
473 -0.2807349 -0.20538108 -0.21936691 0.2599676 0.34653443 -0.022669518 0.0364934 -0.035055097 -0.041060857 -0.10057493 -0.09580969 0.21077536 -0.0039327154 -0.24205135 0.09680068 -0.36673492 -0.33227098 0.09376521 0.15406474 0.11111322 -0.13511841 0.0960762 0.18543231 0.0702351 -0.17424634 0.048115194 0.25205562 0.008050456 -0.1338879 -0.29774782 0.09602149 0.28170016 0.013285169 -0.023282219 0.01341511 -0.023655947 -0.1798243 0.11291185 0.35072306 -0.2599287 0.040829886 0.48159888 0.009659652 -0.24514921 0.0058133085 -0.14604852 -0.24907938 0.19460891 -0.2069316 0.18912889 0.18890946 -0.27040005 -0.11301275 0.045907244 -0.41307315 -0.068332404 0.4099347 -0.53681684 0.068242945 -0.004679645 0.015442947 0.2199227 -0.25601846 0.2372725 0.09388848 -0.111111745 -0.38703167 0.11531698 -0.2211774 -0.34279615 -0.025950167 0.16864836 0.5722143 -0.1337944 0.15647446 0.055349894 0.11907344 -0.40859863 0.08603912 -0.12346204 0.038526546 0.026332803 0.04560539 -0.0034342888 0.37133044 0.025310261 0.048995968 -0.2607043 -0.19129533 0.06843381 -0.018710129 -0.30607143 -0.09079804 0.06273225 -0.1908373 0.019915583 0.058578376 -0.03182303 0.47052372 -0.22999819 0.18221433 0.07629301 0.09421363 -0.07329797 0.22534676 0.0302997 0.0489102 0.22712737 -0.04174041 0.162492 -0.17310883 -0.06846052 0.12255375 0.33496684 -0.1459807 -0.064777195 -0.5286764 -0.067713976 0.07055138 0.19302347 -0.28725886 -0.018680116 -0.20615526 -0.059855856 0.06097391 0.103391305 -0.27830192 -0.23392175
382 0.06264203 0.0100547 0.052235167 -0.123375945 0.016370265 -0.08336105 0.029789418 0.061805103 -0.11896995 -0.009150536 0.47738063 0.018424256 -0.2739085 -0.033778723 -0.382701 0.16939397 -0.13821769 0.07184903 0.13962658 0.42302063 -0.08908496 -0.2878372 -0.11184477 0.019277992 0.13285698 -0.044596672 -0.24571791 -0.63475394 -0.13785346 0.39102393 -0.14167088 0.10962949 0.49485326 0.25136873 0.17454858 -0.24866828 0.1687632 0.061183922 0.26833016 -0.01672792 0.13678631 -0.059064608 0.07765908 -0.43198484 0.4840516 -0.2222325 -0.32874078 -0.16590855 -0.34885308 0.7401143 -0.016788876 0.18812187 0.5418638 -0.13027836 0.2598902 -0.07279092 0.33141428 -0.057657417 -0.071199566 -0.11421644 0.0106791165 -0.1782192 -0.50077885 0.21593781 0.30049205 0.007953743 0.22249423 0.06453075 -0.3974189 -0.42453697 0.2764558 0.10665713 -0.02873798 -0.3672811 0.04254285 0.23148507 -0.045170043 0.162521 -0.3599963 -0.031814042 -0.11912438 0.2820345 0.19251229 -0.10245457 0.33513626 0.13525797 -0.24461915 -0.2957421 -0.022432173 -0.084166266 -0.2540365 -0.4576281 -0.07886699 0.3600799 -0.52610326 -0.070594095 0.08041824 0.17904751 0.26691326 -0.05965617 0.16294739 0.100066915 -0.11983625 0.05696038 -0.22069469 0.089058146 0.0007088353 -0.07085924 -0.19654968 -0.043714263 -0.20813471 -0.37664294 0.12798825 -0.14360292 0.08373811 0.04878583 -0.20032878 -0.048771553 -0.17016597 -0.11125178 -0.47109488 -0.4762315 -0.0545119 0.28071523 -0.33427668 0.05002887 -0.052567102 0.21310405
528 -0.24310501 -0.0647196 -0.07208662 0.09106522 0.31862473 0.1353886 0.13051622 -0.19394742 -0.1456951 0.15054327 0.14390635 -0.20107295 -0.47515786 -0.14600535 0.42280856 0.010500185 0.38795888 -0.11686595 -0.18487793 0.19619031 -0.42944378 0.12856905 -0.12638867 0.17052412 0.31155506 0.26706356 0.37308615 -0.058256775 0.19218357 0.23551747 -0.4211747 0.052783463 -0.06827165 -0.15565664 -0.19337039 0.39653623 0.33061278 0.27065912 -0.100058384 0.0547179 -0.12135254 0.40907237 -0.071177244 -0.023138588 0.013416482 0.041684765 -0.17009604 0.38666493 -0.31238237 -0.012939579 -0.00075344124 -0.13126047 -0.10189597 0.12676331 0.0141025465 0.6082985 -0.022256326 0.044456545 -0.09403129 -0.121207476 0.6159851 0.20830165 -0.28688028 0.32313395 -0.27458233 0.2841267 -0.03764556 0.21146323 -0.13283655 0.22590947 0.33270526 -0.109636076 0.069222845 0.40758565 0.11366398 0.14918886 0.12128404 -0.31972966 0.15944715 0.28907287 -0.1831613 0.0072826906 0.028866438 -0.14744402 0.33482754 0.09003211 0.14613001 0.008695187 -0.03917549 0.28775716 -0.081090316 -0.4012161 0.28131402 0.05960718 -0.143082 0.13028102 0.41450638 -0.2039009 0.23532923 0.21629412 -0.46762717 0.29506162 0.029188363 -0.17866287 -0.11686336 -0.106883824 -0.16278401 -0.08541748 0.3361219 0.1411561 0.1743355 0.17770232 -0.0039421436 -0.1633037 -0.2185677 0.14036758 0.29051343 0.09743323 0.042845275 -0.14794482 -0.014907147 -0.56659496 -0.040915735 0.09211914 -0.5017099 -0.54615575 0.49154428 0.3127377
638 0.12470456 -0.26091325 -0.26942694 -0.060248107 0.21009806 0.008930449 -0.31290954 -0.088881835 -0.2818218 0.096381254 0.24570222 0.26128623 0.10579368 -0.028452666 0.13170938 -0.0020420093 -0.34292072 -0.37356246 -0.15834963 -0.11614566 -0.24946564 0.2556508 -0.054784853 -0.096421584 -0.1418547 -0.16325428 -0.19779657 -0.14223842 -0.08939147 0.10007058 0.06918977 0.0019465163 0.236042 -0.23842725 -0.072734565 -0.14044213 0.060308013 0.09932388 0.05918679 0.4475645 -0.07305881 -0.013480458 0.17793997 -0.13951245 -0.022795204 0.1582313 0.27864376 0.28899637 -0.008867168 0.056616347 0.103990495 -0.2217288 -0.27440208 -0.08708264 0.13076429 0.013104469 0.013409276 -0.2798441 -0.19944477 -0.21746889 -0.20247842 -0.13911204 -0.03626023 -0.119531035 0.18458846 -0.21162961 -0.18014124 -0.15539883 0.19387762 -0.20908414 0.16443823 -0.08471617 -0.02286988 0.05069128 0.15648426 -0.13971487 0.28192618 0.018127015 -0.15544845 0.22843902 -0.252951 -0.102274485 0.038874213 -0.107435435 0.01889891 0.06685373 -0.17935048 0.06956882 0.3690442 -0.042871833 -0.108059525 -0.1702678 0.24845548 0.57230234 -0.0037153754 0.19042228 0.35345596 -0.12154915 -0.123973876 0.29364112 0.006651998 0.17458594 0.090979025 0.19123647 0.40340352 -5.1374904e-05 -0.16639088 0.040543597 0.42084238 -0.08200011 -0.018098215 -0.057768688 0.011979618 -0.07712857 0.08476367 -0.26294422 -0.07573541 0.036591336 0.15835246 -0.03544452 0.008179445 -0.5121474 -0.15087052 0.38592887 -0.53576094 -0.26084378 -0.12678316 -0.32367727
67 0.09704112 -0.3833311 0.005623183 0.26462725 0.0015651165 0.37123924 0.16069089 0.07525652 0.51166403 0.3456392 0.26900283 0.29940152 0.24120294 -0.1966703 0.12780468 -0.26052085 -0.086275965 -0.09789513 -0.4642398 0.5047655 -0.094957456 0.13488844 -0.2869614 -0.09576946 0.4478011 0.14619985 -0.078956336 -0.005431911 -0.16006505 -0.13805993 0.26047233 0.06978885 -0.19607075 -0.09843792 0.37413454 0.1353496 -0.10567227 -0.337894 0.59776044 0.24335031 0.09795014 0.36282325 -0.18648444 0.24346377 0.07769433 -0.26987523 0.2507961 0.24338283 -0.3581065 -0.09011556 -0.028328845 0.06660136 0.1077178 -0.0553295 -0.3375375 -0.019619575 0.1495715 0.5451678 0.11114973 0.019794652 0.047555715 -0.052851077 0.008138559 -0.038769543 0.049566943 0.27317813 -0.27158523 0.082071 -0.17496288 -0.040429007 0.32609296 -0.36297294 -0.16035649 -0.4126017 0.16383016 -0.19018859 0.058905657 -0.0065320046 -0.1306543 0.13677068 0.35261452 0.23111187 -0.07882193 0.25944477 0.20573387 -0.050787784 0.49538112 -0.066210285 0.00807678 0.08663586 0.0126374 0.3552208 0.3346277 0.026888615 0.13085146 0.028194927 -0.052671365 -0.21183059 0.19673495 0.14970016 0.17680925 0.014401561 -0.02534434 0.043226995 0.3541241 0.10391393 0.038512822 -0.14332156 -0.2835004 -0.28682932 0.06622653 -0.14901552 -0.1367863 -0.072029166 -0.011493277 0.10090775 -0.42239583 0.06748517 0.18104255 -0.1037833 0.15704362 0.21415924 0.05082844 -0.22588418 -0.4307161 -0.09407751 -0.08728486 -0.14214104
339 -0.06979997 -0.013581536 -0.12571293 -0.11810436 0.2511976 0.08627498 -0.31430152 0.022903988 0.13624667 0.18067929 -0.12812643 0.20379223 0.51646763 -0.113978565 -0.29126486 -0.015326221 -0.32078785 -0.26964274 0.07177126 0.43504524 -0.12334128 -0.32637966 0.27077523 -0.09269012 -0.13989142 0.24970499 0.15415858 -0.14171402 0.038419202 0.13310425 0.24548595 0.15724629 -0.10481843 -0.4249911 -0.3070399 -0.15310213 -0.04446725 -0.05743296 0.42036906 -0.033391517 -0.2957453 0.4407573 0.02738212 -0.02250015 -0.26803964 -0.093778335 -0.14541876 0.31319824 -0.06428591 -0.16912536 0.22291023 -0.39354104 -0.19390824 0.4844564 0.2888433 0.020040793 0.17923136 0.0353719 0.30431163 0.2558306 -0.4417061 0.10601189 -0.18268678 0.17108448 -0.24268346 -0.38767546 -0.06856019 -0.10956488 -0.47071746 -0.34732237 0.16546057 0.24732189 0.10718324 0.3839796 0.14095296 -0.1012272 0.1259405 -0.33121744 -0.12611847 0.09681651 -0.26639938 -0.12435998 -0.2776649 -0.20874828 -0.2994937 -0.23022124 -0.009405431 -0.08617129 0.097631596 0.15005735 -0.15746976 -0.116545446 -0.18700635 0.3752885 -0.26703498 0.19797835 0.34056714 -0.48863232 0.07112443 -0.2501645 0.20869598 -0.17211011 0.16587867 -0.1519174 0.278182 -0.17131267 0.2910523 0.0016443406 -0.10274171 0.26739445 0.29952624 -0.16050296 0.15232137 0.25299266 0.025883926 0.080877826 -0.20261316 0.09666045 -0.02125614 0.14646329 0.009773708 -0.46627235 0.091924064 0.29666957 -0.2963124 -0.110503495 -0.14597145 -0.09929946
634 0.031408027 0.1142837 -0.5466961 0.29426515 -0.18688744 -0.036700852 -0.61457944 -0.098959245 0.40104634 -0.17918919 0.015660005 0.24836974 0.17926759 0.12269952 -0.042122383 -0.075825855 0.39189735 -0.20177153 0.100455046 0.16683462 -0.4609855 0.49661028 -0.32069027 -0.20304929 -0.16528144 0.49265116 0.15994328 0.10321914 -0.1628214 -0.23787995 -0.15627338 -0.30442232 0.2824521 -0.33370122 0.36552644 0.08061968 -0.06890969 -0.14621538 0.24675979 -0.27887627 0.16348548 -0.41477782 -0.1639483 0.16282077 0.4063306 -0.11658723 -0.16322058 0.20667088 0.04577429 0.2819656 0.20521364 0.010223168 0.3566014 0.1750375 -0.08736925 0.1856626 -0.35942975 -0.021630693 0.11073165 -0.28577724 0.09844751 -0.023889005 -0.20093255 0.06270612 -0.023503995 -0.2022299 -0.287992 0.35647297 -0.46014416 -0.12985991 0.1858802 0.16553289 -0.12968121 -0.09046571 -0.4081389 0.13243996 0.13534321 -0.17785086 0.42986038 -0.2166527 -0.3631497 -0.25929326 -0.3123146 -0.45981145 0.15919329 -0.1977538 0.16999096 0.08413813 0.13273239 0.2912 -0.16923372 0.021583788 -0.48179144 0.09527542 -0.27249536 -0.1425876 0.46322832 -0.13621031 0.06215018 0.09186457 0.16869283 -0.38142014 0.19881564 0.024217896 0.01384449 -0.1473877 -0.2215024 0.054576367 -0.11995093 0.056021888 -0.09386197 -0.23236264 0.251681 -0.26141387 0.014525873 0.22498995 -0.1508322 -0.11908547 0.22093499 -0.18437031 0.52276963 -0.11210926 0.1817337 0.39886776 -0.06030121 0.15031779 0.25498417 0.020175258
110 0.011472508 0.18808115 0.03711414 0.19819607 0.41795743 -0.090913914 0.47475937 -0.0582192 -0.15903991 -0.1603297 0.25473258 -0.052114956 -0.018302927 0.20425117 -0.02555637 0.09289951 -0.039491806 -0.16245106 0.3076716 0.119467944 -0.10473726 0.36279383 -0.23549587 0.19453055 0.41279495 0.10735799 0.00714 -0.29894608 0.1434317 0.38169158 -0.07860972 -0.20793584 0.2058103 -0.19813159 0.08977697 0.03600521 -0.20907436 -0.08565032 -0.16208082 -0.0013191765 -0.09056464 -0.31639633 0.17493637 0.12461808 0.37257028 0.1277053 -0.102233276 -0.041985825 0.15022089 -0.04202402 0.0048669297 0.00832216 0.130803 0.31713915 -0.31808576 0.07339123 -0.136834 -0.09651892 0.0063111535 -0.15513979 0.18826912 0.11666111 -0.03809549 -0.13879962 0.041977964 0.116157256 -0.31097174 -0.24699253 0.03395809 0.01379724 0.07536012 -0.14341274 0.13036753 -0.25741422 -0.15999322 0.025647856 -0.27541795 0.04136641 0.30170494 -0.18394858 -0.08760497 0.09889354 -0.19461776 -0.04067795 0.12522087 0.10797543 0.46605456 -0.102115884 -0.33478484 0.33116236 -0.3738213 0.16334386 -0.06351083 0.019747403 0.24227227 -0.30846426 0.8002984 -0.48134416 0.022140427 -0.08921293 0.24649231 -0.04138644 0.14535241 -0.4204814 0.36218113 0.39097255 -0.31549472 0.135622 0.36878747 0.013003269 -0.13389876 -0.0037883543 -0.066928044 0.2552295 -0.06730795 -0.28313085 -0.14598289 0.20377024 -0.104559086 -0.35493252 -0.34619957 0.08403095 0.16596776 0.046152417 -0.07727276 -0.3465083 -0.5101259 -0.041783467
495 0.030668776 -0.16133574 -0.054049008 -0.051292647 -0.1590699 0.15575711 -0.044451762 -0.29743177 0.41352203 0.5011452 0.07341836 -0.20553842 -0.12176936 -0.04434854 -0.049817294 0.0765711 -0.38990992 -0.1540166 -0.21193333 -0.16047762 -0.10095618 -0.0078106048 -0.22037569 0.14284495 -0.07942705 0.35996377 0.08887328 -0.09987273 0.18790023 0.12668277 0.02427719 0.1703982 0.21464366 0.054917336 0.003429157 0.33022967 -0.21763286 -0.3270507 -0.011198345 0.062273737 0.050170884 0.231219 0.20768987 -0.23657699 0.340922 -0.39928493 0.11885163 0.17725326 -0.60674524 0.17815477 -0.26460153 -0.036599588 -0.004283878 -0.016467392 0.0509365 -0.3164415 -0.4429577 -0.1156001 -0.41339517 -0.16668494 -0.28818527 0.5163784 -0.17049298 -0.035731487 -0.12932672 0.098079346 -0.12307981 0.0540692 0.14543921 -0.25717804 -0.05360671 0.15757956 -0.07718418 -0.023250733 -0.022492634 -0.19226596 -0.05176337 -0.12452205 -0.018607453 -0.14791758 -0.27108407 -0.052592594 -0.19882186 -0.0710668 0.43741652 0.029184833 -0.097973354 -0.28533888 0.2962324 0.016223846 0.081030175 -0.20547347 -0.2885043 0.07789433 0.4107696 0.07317683 0.08234626 0.121355906 0.18125162 -0.35128337 0.051788148 -0.3650158 -0.11492013 -0.29519218 -0.26312926 0.1865563 -0.22421628 -0.12718965 0.035087153 0.26408637 0.39599466 0.30120215 -0.038141105 0.3529512 0.049921285 0.12171429 -0.10504385 0.17691287 -0.10196759 0.23765163 -0.1602237 -0.19462273 -0.19287784 0.1333069 0.3551891 -0.01809045 0.41183513 0.24890886
722 0.2802061 0.15528284 -0.07406042 0.16994004 0.005268359 0.19488178 -0.1727508 -0.39026585 -0.3246299 0.40363818 0.06241869 -0.33798683 -0.062148545 -0.055093843 0.5073813 -0.30459106 -0.19008966 0.022247083 -0.5415999 0.23971339 -0.22922684 0.35153833 -0.27102715 -0.30822757 -0.073265955 0.1184447 0.0463271 -0.14547434 0.27862024 -0.03629186 -0.1402046 0.25216317 -0.06364522 -0.5275822 0.06969741 0.26403546 0.21354064 -0.10980037 0.0930394 -0.20520021 -0.014202452 0.32715818 0.2591506 -0.6377549 -0.0030144877 0.13395283 -0.04435106 -0.26854715 -0.42488885 0.3212569 -0.2845359 0.07625628 0.12837815 0.03317773 -0.2724972 -0.14806195 -0.26078838 0.099035546 -0.2918973 0.334331 -0.24619658 0.24239884 -0.3365531 0.17093413 -0.24113265 0.115683116 0.17233026 0.2390458 0.18198033 -0.3538508 0.08551276 0.13850537 0.21026367 -0.21093833 -0.056062903 -0.5948502 0.064047284 0.078310795 0.18728592 -0.09781794 -0.27483097 -0.05009045 0.16314237 0.08638801 0.17984521 0.045264058 0.05701139 -0.08318608 -0.10575906 -0.24377581 -0.14180058 -0.007334333 -0.19008037 -0.025685696 0.19659638 0.11700957 -0.078818396 0.068389036 0.29634815 0.06563383 0.13768542 -0.12625325 0.16017774 -0.1364489 0.05555941 0.06666204 -0.13519727 0.255681 -0.13530116 -0.09027191 0.06490616 0.26142657 -0.040372215 -0.0010276892 0.08252658 -0.24937251 -0.07223246 -0.06475017 -0.18692097 -0.25783747 -0.55849826 0.030384347 -0.2616843 0.27124456 0.10958716 0.3849856 -0.34380883 0.19515397
745 0.07848022 -0.097631305 -0.04360852 0.28537965 0.58508205 0.19679154 -0.31944576 -0.20785934 -0.10617082 -0.008561593 0.10083615 -0.0760525 -0.05989147 -0.22061288 0.44372532 -0.056070395 -0.27499786 0.049499825 -0.001703066 0.041745216 0.11020169 -0.26105082 -0.18048073 0.23679376 -0.07591667 -0.11582628 0.12004744 0.014214168 -0.07188602 -0.055289 0.4040547 -0.47177377 -0.009972781 0.089949936 -0.041115128 0.44245666 -0.22461256 0.0028391385 0.1876253 -0.024679422 0.14151034 -0.16582434 -0.36457607 -0.01486358 0.030341923 -0.17604192 -0.20658833 0.02005068 -0.40201658 -0.035194203 0.45070717 -0.22699177 0.06526693 0.43068784 0.062135693 -0.16245857 -0.24242172 0.5861019 0.18403229 0.1511071 -0.0066606686 -0.019523444 0.29468787 -0.08772304 0.3720877 0.56037956 0.052794237 0.21398109 -0.2570675 -0.1804062 0.17515066 0.25393024 0.47817695 -0.069262855 -0.013195161 0.22440368 -0.08905431 -0.1104875 0.1441048 -0.051157262 -0.2395246 0.15950651 0.120110735 0.09279281 -0.1814483 0.018025594 0.22263509 0.04300757 -0.20420298 -0.059315123 -0.19832419 -0.13334419 -0.07464992 0.35672072 0.16596305 -0.050704062 0.20827411 0.067370266 -0.14230718 0.08276127 -0.23969314 0.21855971 -0.4782707 0.11647343 0.31515953 -0.2204024 -0.21926053 -0.50168467 0.024464134 0.3176365 -0.0569603 -0.13450265 0.0035985694 0.18449071 0.45461634 0.019341767 0.1941855 -0.43522942 -0.20068622 -0.15832861 -0.044688918 -0.11465014 0.04456262 0.34827876 0.051464576 -0.014529099 -0.1555325 0.037387896
619 -0.121698625 -0.17937274 -0.2420159 0.1771069 0.14215195 0.11623441 -0.10042297 0.25431308 -0.060764674 -0.34473598 -0.11601517 -0.09254093 -0.22871123 0.047735594 0.07962794 -0.04108315 -0.51369387 -0.0823606 -0.24690583 0.45878053 0.24410142 -0.06397722 -0.308357 -0.22185017 0.035820004 0.038945056 0.220569 0.23305653 0.058732584 -0.37357578 -0.29647005 -0.1917117 -0.0396385 -0.1553533 -0.3305348 0.261442 -0.29080278 -0.15179142 0.3565013 0.24798729 -0.40727243 -0.07282954 0.21280712 -0.15656461 0.4603652 0.30632854 -0.4568629 0.28596023 -0.36068264 0.45017153 -0.13695702 -0.20754088 0.10761668 -0.0012538581 -0.36513698 0.28494436 0.29839048 -0.2396401 0.1992881 0.09069426 0.22729687 0.031376164 -0.1256513 0.11211558 0.18061477 -0.5597656 -0.3021371 0.07842111 -0.17212999 -0.23330937 -0.13373274 0.13577303 0.06700732 -0.24528469 0.14822006 0.25933132 -0.25018114 -0.19560236 0.23499635 0.23154373 -0.2685667 0.03604875 -0.021711417 0.04550175 -0.03208044 -0.15399046 0.08730491 -0.13886414 -0.24833228 0.028502364 0.09795938 -0.035206385 0.26858142 0.10262284 -0.52124286 -0.4217763 -0.0067103375 0.049410768 -0.08509872 -0.15352467 0.2412856 0.10938772 0.18842083 -0.22338715 0.07330899 -0.36819425 -0.10211572 0.0763359 0.14057155 -0.17755535 0.033577975 -0.060349546 0.068718694 -0.074365176 -0.014755588 0.39521092 -0.38012365 0.014589965 -0.16858436 0.56899744 -0.17891851 -0.26219517 -0.23683996 0.013112982 0.009333483 -0.7020944 -0.31362352 -0.08576405
657 -0.24487507 -0.3109371 -0.021941677 0.30045396 0.26861 0.40975973 0.025101544 0.08612789 -0.06968762 0.35395467 0.0013141176 0.4001974 -0.13096978 -0.10169555 -0.06752474 -0.22436883 -0.3299983 0.15362743 0.24171816 0.052289113 -0.14033844 0.1986482 0.13498963 0.12040839 -0.20979282 -0.06771926 -0.092254326 -0.15852241 -0.026995461 -0.3682616 0.033211775 0.22640169 0.049026705 -0.034993503 -0.017292969 0.19911006 -0.13807291 0.1750775 0.27273133 -0.10060028 0.19808848 0.4865446 0.04105712 -0.009740188 0.2720802 0.09122611 -0.15938221 0.39225188 -0.27123898 0.3350846 0.30915427 0.02569097 0.1939232 0.049175538 -0.11920775 -0.01644286 0.035944406 -0.38066074 0.08675681 0.04679014 -0.25516972 0.36475283 -0.2114709 0.444093 0.27037385 0.06861157 -0.48814094 0.27542168 -0.025840698 0.21503577 -0.14833541 0.18742488 0.46273768 -0.0617881 -0.10679925 -0.07857946 0.013680619 -0.30232945 0.21191715 -0.03631135 -0.0036280013 0.29098856 0.24695623 -0.39365074 -0.019761382 0.1559748 0.17507187 -0.15274982 -0.16146159 0.24273288 -0.13843696 -0.29694167 -0.13805982 0.19289818 -0.20284054 0.15583187 0.16485396 0.09261357 -0.07401135 -0.073460005 0.51891637 0.3593638 0.10654469 0.15717721 0.32747704 -0.10933537 -0.11837961 0.34010726 -0.07518119 0.046122864 -0.0964049 0.13870192 0.10456146 0.09868894 -0.15543091 -0.14500403 -0.14383 -0.21492642 0.12475209 -0.11702559 -0.24478897 0.14443183 -0.22457328 -0.012236196 0.214804 -0.06146343 -0.24015497 -0.2897817
437 -0.11875647 0.18490654 -0.18902802 0.1042134 0.53830886 -0.15194686 -0.08382674 -0.32655406 0.05377046 0.19621366 0.18214506 0.5369579 -0.15627155 0.19316201 -0.1346681 -0.014577129 -0.2487786 -0.019871214 -0.16183044 0.15513453 -0.0379801 0.58255297 0.19149816 -0.05164953 -0.23971945 -0.22955856 0.010523217 0.025227845 -0.009573649 -0.2361917 -0.121304326 -0.024299534 0.32608426 0.038355906 0.11952176 0.3869602 0.11439451 0.40504608 0.12532684 0.2354068 -0.33103654 0.2598075 -0.3576971 0.10136002 0.011607999 -0.0836102 -0.24352102 0.5051215 0.23894165 0.75900257 0.0036760801 -0.31485274 0.5881826 -0.047837693 0.1800306 0.11156969 0.003225068 -0.3896546 0.09977773 -0.104133114 0.01887171 -0.02871087 0.005009246 0.20988278 -0.17830154 0.14321983 0.057816807 0.050482206 -0.40998384 0.18826476 0.14392398 0.01985095 0.04536042 0.033339072 -0.017769769 0.25483006 -0.08187709 -0.012993822 0.061542448 0.14088665 -0.402159 -0.23273307 -0.19545569 -0.16477954 -0.012073033 -0.12378858 0.013314392 0.07961967 0.13356718 0.11876516 0.028206851 0.5481916 0.07830463 0.34275168 -0.025211895 0.089449726 0.25082892 -0.17584746 0.04399088 -0.0012769399 -0.1264423 -0.522868 0.33596122 0.11550446 -0.21939765 0.16254105 0.050699037 -0.10482878 -0.2721109 0.07047245 0.013585526 -0.15779963 0.19094484 -0.2934848 0.28791788 0.041645642 -0.24780989 -0.056104448 -0.11493201 -0.6015691 -0.039174948 -0.11689746 -0.2508378 0.6173694 -0.13056606 0.11093431 0.18405727 -0.06788182
532 0.2971171 0.0749297 -0.16983546 0.24054629 0.25195906 0.15502481 -0.047930457 0.05928112 0.050041076 -0.21844116 0.009069967 0.03378201 0.018825958 0.10093233 -0.04585178 0.076377474 0.439465 0.049637467 0.38028428 0.011823747 0.11382161 -0.04232734 0.16407424 0.359596 -0.13989174 0.5013387 0.2753184 0.20875543 -0.099508144 -0.092673145 0.39795017 -0.14286515 0.14734682 0.27554205 -0.5402173 0.31146732 -0.14637725 -0.2994288 -0.28155228 -0.044710632 -0.038999546 0.11471874 0.04495842 0.3965231 0.014228683 -0.34828463 0.068663076 0.2640739 -0.49873373 0.17315346 0.52754873 -0.18045336 0.1215956 -0.09150208 0.34827858 0.14268826 0.11308011 -0.044950716 0.15286969 0.27284735 0.08082995 -0.18241613 -0.42225567 0.30916277 -0.24496855 -0.16383222 -0.29710755 -0.12718202 -0.3028391 -0.30486113 -0.2803599 -0.022352096 -0.09204921 -0.07030656 0.18251532 -0.5305569 0.17216086 -0.068953015 -0.09306185 0.056564495 -0.13700926 -0.45940852 -0.10142217 -0.41962165 0.014734972 -0.25868002 -0.0070315646 -0.028209405 0.053945765 0.12337785 -0.07231016 0.035409797 0.20145407 -0.09549479 0.20447896 -0.18101282 -0.15150425 -0.031067 0.31637168 0.097739875 0.2667434 0.0046028197 0.057014007 -0.20083185 -0.025980415 -0.01845086 0.148148 -0.008523899 0.15742743 0.13438305 -0.17970644 0.13834038 -0.27600688 -0.5680896 0.22068444 -0.05421158 0.07489414 0.108638726 -0.063091256 -0.13649866 -0.19843224 -0.34711128 -0.025119493 0.18849882 -0.59370416 0.17292625 -0.075393006 0.23322019
490 0.1882944 -0.037628356 -0.15528335 -0.23944362 0.3582072 -0.018191 -0.43529472 -0.052973393 -0.26234186 0.0031292979 0.16933978 0.1376006 0.13653255 -0.13167034 0.31794125 -0.03432609 -0.3524505 -0.3472721 -0.02963153 -0.074938454 -0.24065304 0.30308503 -0.059598833 -0.103832506 -0.120882854 -0.036752675 -0.07920126 -0.31611183 -0.17430682 0.16869536 0.05103418 0.04657692 0.23552763 -0.16583124 0.12988313 -0.06052435 0.07469193 -0.028098572 -0.07955558 0.3994979 -0.090606876 -0.019787492 0.21295658 -0.33550778 0.27056062 0.11834204 0.31865746 0.4172013 -0.11543885 0.1776272 -0.021587098 -0.13740897 -0.07267769 -0.13159022 0.28333402 -0.09120896 0.21911335 -0.03572516 -0.0828654 -0.2990692 -0.11530239 0.10937162 -0.26203567 -0.24062732 0.18325244 0.060941037 -0.12016654 -0.46331483 0.23821853 -0.22777711 -0.028406741 -0.07072537 -0.09398232 0.026466787 0.18031366 0.2099173 0.08478759 0.21534492 -0.34535152 0.057676297 -0.18210582 0.18094961 0.10946147 -0.1660421 0.08370088 0.13387083 -0.17920168 0.1323349 0.1993135 -0.080532044 -0.15720645 -0.16500948 0.09626354 0.43261313 -0.09840614 0.025320496 0.5839027 0.13056557 -0.0056900047 0.15986335 -0.14023443 0.056298055 -0.12782916 0.18211456 0.3310414 -0.10721983 -0.0056823795 0.004766956 0.3705165 -0.32233828 0.08378344 0.12599151 0.022502096 -0.1825811 -0.1491821 -0.36326644 0.072570436 0.023912359 0.11669492 0.14442477 0.09220264 -0.3774578 -0.21212523 0.40146175 -0.4725314 -0.13243648 0.07297753 -0.44285128
729 0.19428866 0.04345263 0.03387246 0.24253015 0.008435625 0.042621277 -0.02539593 -0.38569888 0.20608507 0.54944974 0.022224803 -0.39972723 0.0066801477 -0.105414934 -0.07877635 -3.664427e-07 -0.2906988 -0.1494205 -0.3111627 -0.17063807 -0.12185036 0.07019112 -0.21850216 0.02031005 -0.038629208 0.4149994 0.24910969 -0.25885397 0.26408818 0.019631948 -0.18581295 0.16402656 0.12539789 -0.18851998 0.14059113 0.10675858 0.07385106 -0.28795436 0.056577157 0.027641501 -0.2582976 0.33051723 0.30208454 -0.35707617 0.17029357 -0.2560072 -0.028100643 -0.039705124 -0.5104272 0.44084692 -0.38014272 -0.013863363 -0.02391167 -0.06691081 -0.24768323 -0.15752596 -0.06681098 -0.025207145 -0.22508974 -0.09040713 -0.44376436 0.15732911 -0.31262502 -0.23547202 -0.07861898 0.048946965 -0.026717244 0.0069915564 0.05099476 -0.47321218 0.025910262 0.0397872 0.10492505 -0.050828904 -0.06862138 -0.47530207 0.09602267 -0.080427125 0.04233559 -0.18000229 -0.17046566 0.10611293 -0.07381622 -0.11206034 0.5828873 0.29055056 0.06934016 -0.3091554 0.076143324 -0.09425161 -0.23795131 -0.12129063 -0.21127737 0.08690564 0.11663859 0.25560665 -0.00071978266 0.24241179 0.1649788 -0.32024696 0.09329949 -0.16571425 -0.14436375 -0.18299584 -0.38240424 0.15393314 -0.2874807 0.043382194 0.036314517 0.2515958 0.44589102 0.31838754 -0.30602294 0.19845067 -0.24292555 -0.16680081 -0.0061381157 -0.38737583 -0.094242685 0.18751532 -0.35837197 0.022297543 -0.2969287 0.37716126 0.28558463 0.1691788 0.0029728545 0.3302529
464 0.19958393 0.15363593 0.034865566 -0.20090233 0.03281802 0.07904352 -0.34072983 -0.5556847 -0.3928589 0.26868087 0.20940742 -0.23385522 -0.20862353 0.052556966 0.66581935 -0.14551997 0.009633078 -0.1731504 -0.35647798 0.32141298 -0.05727055 0.050824106 0.104332805 -0.1976307 -0.12927476 -0.0534559 0.0020194775 -0.006616707 -0.0007748831 -0.31836084 0.17115803 0.17547256 -0.2791129 -0.034697056 -0.105596155 0.35092837 -0.20423178 -0.15873016 0.20362589 -0.23813756 0.03511698 0.1877808 0.22496563 -0.6704034 -0.12628704 0.21063907 -0.17443752 -0.23527056 -0.29918876 0.28960338 0.20558222 -0.06349416 -0.009321496 -0.14226596 -0.4469576 -0.19700928 -0.09942223 -0.17745064 -0.3148126 0.07713805 -0.16268677 0.14289355 -0.39639202 -0.06943655 -0.2826887 0.05145318 -0.189745 0.42987654 -0.10558233 -0.235013 -0.072089925 -0.27724817 0.0422302 -0.01088609 0.014269779 -0.15349333 0.049308214 0.13775314 0.24003242 -0.072785325 0.12661894 0.16495164 0.11800601 0.010950395 0.20160148 -0.16296582 0.24238992 -0.10886801 -0.19439067 -0.0047094175 -0.2856944 -0.077778235 -0.12588106 -0.075665504 0.21598361 -0.04585437 -0.052463543 0.024308883 0.35717648 -0.24202651 -0.007547641 0.0769987 0.17432447 -0.08070215 0.32350567 0.024415245 0.08515866 0.23411135 -0.22798264 -0.044692025 0.014013429 -0.16397537 0.017775252 -0.12325813 0.011138845 0.05099106 -0.10149993 -0.03028706 -0.027967658 -0.10526092 -0.41725478 0.06852522 -0.38913926 0.29995874 -0.10143843 0.106239416 -0.26396254 0.13383426
736 -0.39333478 0.022884361 -0.10937399 0.07641823 0.26520458 0.17897974 -0.012885622 -0.44470525 -0.16818614 0.36612222 0.37107876 -0.2042073 -0.2491683 -0.1952448 0.3911507 0.29884434 0.43060222 -0.16545957 -0.17969322 0.21765244 -0.15672661 -0.18965152 0.20351306 0.21276656 0.37948775 0.3209811 0.3285903 -0.15969948 0.17082685 0.1471933 -0.12998794 0.011863005 0.032656457 -0.27368197 -0.16941851 0.22190963 0.41619018 -0.066267565 -0.018704662 0.10003405 -0.057418626 0.2463245 0.22096641 0.13628697 0.1762106 0.29560512 -0.18142197 0.47579756 -0.26427135 -0.19153082 -0.10147321 -0.32855013 -0.26925945 0.16067402 -0.23388137 0.46302763 -0.13635077 0.1627542 0.041198123 -0.10051458 0.5457024 0.22787152 -0.40297204 0.5381409 -0.45095402 0.09353676 -0.037461754 0.33445695 -0.12017773 0.09389257 0.3554913 0.13117461 0.116451696 0.37737226 -0.097379215 0.081854396 0.04758278 -0.23881769 0.044554375 0.17850278 -0.2989791 -0.040222775 0.13793778 -0.045888513 0.29634205 0.0147846555 -0.061073996 0.03354076 0.15800239 -0.017909102 -0.26072025 -0.15733086 0.013121904 -0.05813842 -0.29261604 0.24406335 0.6384148 -0.11671784 0.2600602 0.009805829 -0.346512 0.2821954 0.051646058 0.028707664 -0.2688904 -0.06054003 -0.3173834 -0.18574202 0.2384663 0.27136722 0.382856 0.18799189 -0.118202135 -0.05958515 0.08144716 0.1277532 0.3770152 0.14593938 0.3330005 0.13155647 -0.010277743 -0.2453493 -0.18716836 0.14753002 -0.4883477 -0.5312418 0.5274118 0.14850847
29 -0.093319386 0.07039604 -0.63565385 0.038077462 0.14422949 -0.11743221 -0.29632264 0.019869173 0.077709295 0.14221896 -0.15577206 0.45444795 0.04432304 0.14846136 -0.08299517 -0.27243456 0.09444073 -0.08479524 -0.22161739 0.09643585 -0.19534749 0.5777839 -0.08896002 -0.009729537 -0.10863986 0.24527697 -0.032616034 0.024979165 -0.087040536 -0.20035869 0.031303577 -0.037893463 0.14294595 -0.4231697 0.2901953 0.008145136 -0.15460159 0.18952945 0.1098167 0.1705882 0.002543447 -0.07402679 -0.32089445 0.25061935 0.27398568 0.04013653 -0.5331161 0.46491373 0.23621096 0.35875 0.1869739 -0.15907092 0.25113848 0.090752214 0.16772304 0.21270941 -0.121940345 -0.19390474 0.06692522 -0.37522805 0.1380328 -0.31675765 -0.22565012 0.30916145 -0.027367996 0.1452915 -0.16089155 0.272864 -0.34879833 -0.026693879 0.23704752 -0.044895597 -0.09340286 -0.2169181 -0.035494953 -0.14522536 0.03756396 0.020107308 0.23156123 -0.22703643 -0.62034285 -0.3061088 0.11603271 -0.2201381 0.12761226 -0.34832954 0.009345862 0.003969493 -0.18012646 0.22849077 -0.14888819 0.22690646 -0.21096766 0.16320358 0.029810077 -0.0036485228 0.35820293 -0.36690092 -0.090619944 -0.17418493 -0.017501526 -0.52620053 0.11766632 0.027369699 -0.082184434 0.07156674 0.045758594 -0.058938205 -0.09820034 0.12465974 0.07333846 -0.20504676 0.3495616 -0.12632465 0.022711413 0.014379642 -0.045775373 0.061021656 0.054110274 -0.4023341 0.4066651 -0.15054968 -0.10990647 0.49954635 0.2819238 0.13840777 0.41437775 -0.0074712434
393 0.13846223 -0.20685264 0.08895743 -0.15418574 0.24748665 -0.11270693 -0.34465742 -0.1770212 -0.08670015 0.079396434 0.03459222 -0.33130604 -0.36600262 0.049573395 0.11162233 0.27021354 -0.18200761 0.32676488 -0.04370466 0.30044723 -0.019396413 0.009554269 -0.647984 0.10046127 0.09899053 0.26928738 0.16475841 -0.054741856 -0.14973694 -0.23723437 0.25849962 -0.07034612 0.020326039 -0.29507053 0.10461443 0.26782826 0.11179283 -0.08904501 -0.23595051 0.34871635 -0.03143906 0.45261756 -0.07494041 0.07290679 0.14563563 -0.44522053 -0.13813017 -0.0864262 -0.45375997 -0.08723135 0.265841 -0.2785881 0.37494344 0.28054488 0.040645547 0.1648051 0.10997582 -0.09890295 -0.32747743 -0.33399057 -0.24285208 0.004025064 -0.19146517 -0.4067169 -0.3953849 -0.42159578 -0.052636936 0.108306885 0.088187054 -0.11061872 0.3615148 0.003985443 -0.031960435 0.12277906 -0.013062684 0.026949275 0.46581826 0.10005791 0.10349001 0.10618936 0.041814838 -0.21657906 -0.21281955 0.17995933 0.0959537 0.50339854 -0.13419214 -0.40639526 0.17474233 0.19653352 0.1685195 -0.287049 -0.058191296 -0.1177174 -0.17717575 0.124600366 0.25361377 -0.124594495 -0.038987532 0.024694312 0.062065285 -0.13352264 0.17865787 -0.4821634 0.046774857 0.12111922 -0.33063835 0.18212007 -0.02014729 -0.21777757 0.050870415 -0.27912867 -0.6331024 -0.012836647 -0.5357118 0.074429415 -0.2641551 -0.15068741 0.1624594 -0.2058055 -0.12165315 -0.15160377 -0.30058065 0.30287206 -0.012002382 -0.34408268 0.4620986 0.13554606
699 0.02406147 -0.28301066 -0.23424976 -0.25599205 -0.112848334 0.11843974 -0.22789335 -0.28802943 -0.05331902 0.07503632 0.28811756 -0.06385639 0.2552261 -0.08880037 0.27273256 0.33044195 0.0014535455 -0.15532027 -0.11949272 0.40846148 -0.020116346 -0.2718973 0.20816763 0.096162766 0.34931457 0.34023643 0.18331285 0.16514622 0.11879949 0.13715282 0.15987813 -0.18282011 0.17820336 -0.092221744 -0.23356284 0.049012564 -0.11711448 -0.18361193 0.21155013 0.36974132 -0.011788173 0.2873376 0.2569304 0.21239236 0.3182984 0.11421196 -0.047567576 0.5216679 -0.2272406 0.07071981 0.083048925 -0.49455953 0.040316176 0.2314018 -0.24023649 0.26401758 -0.34148538 0.08213795 0.06311802 -0.09436243 -0.10981525 0.21053764 -0.18050718 0.37694582 -0.16094758 -0.4434451 -0.10324807 0.22896607 -0.45038828 -0.06526848 0.41966656 0.67074525 0.10445178 0.32034883 -0.16513075 -0.26110932 -0.122855745 -0.16349661 -0.06869258 0.07062418 -0.2256233 0.14004311 -0.18369065 -0.16594245 0.059385214 -0.1805867 -0.01620456 -0.25838554 0.19085586 -0.103326164 -0.29950306 -0.111145556 -0.072796546 -0.39260414 0.03384208 0.14612232 0.18090422 0.0266014 0.07669428 -0.35170448 -0.17667344 -0.13428009 0.18475905 -0.01650999 -0.37037483 -0.13364106 -0.28541943 -0.18410377 0.13632588 0.60254794 0.31475934 0.49378893 -0.1193903 0.08190179 0.16322115 0.053675316 0.20838301 0.5846519 0.030279607 0.120684825 -0.16944592 -0.31227025 -0.059272297 0.08825247 -0.35830817 -0.29482943 0.4039955 0.053238694
424 0.3620964 0.04724115 -0.08907072 0.22206996 0.093986176 0.38068026 0.4304876 -0.042333495 0.32259032 0.39973652 0.44929567 0.11097575 0.24981976 -0.015726613 0.12917972 -0.1967782 0.10515907 -0.053504914 -0.41183394 0.14584939 -0.07000371 0.17021668 -0.25321424 0.21594521 0.3662659 0.04092666 0.10341048 0.04159459 -0.08434129 0.01830726 0.32154244 -0.041557584 -0.059897117 -0.07967306 0.11662912 0.37101898 -0.1993559 -0.2751491 0.45963296 0.23008701 0.02133712 0.27247673 -0.031386837 0.11481147 -0.05142066 -0.13496937 0.21339396 0.064466186 -0.57760674 -0.041764963 0.13316514 0.118301444 0.010957577 -0.43404824 -0.36577103 -0.030811677 0.47352698 0.20833594 0.21027972 0.10862429 0.016427131 -0.26292273 -0.18313424 -0.15869232 -0.1819943 0.08498101 -0.47301868 -0.022955004 -0.34473214 -0.023158485 0.11093811 -0.009909796 -0.13679469 -0.3783894 -0.17061326 -0.04893971 0.27950922 0.05003322 -0.21680093 0.074557126 0.07194618 0.0047026947 -0.20336662 0.47893295 0.12864174 0.04645295 0.45837125 -0.02436502 0.021032747 0.03541779 -0.07404723 0.21218076 -0.060446367 0.2020769 0.063372515 -0.07959182 0.059866395 -0.18218985 0.21559726 0.5182331 -0.09163818 -0.17312756 0.047700614 0.18731618 0.29204798 0.1215229 0.2334728 -0.054534502 -0.10763133 -0.2413441 0.15315175 -0.2632689 -0.05450596 -0.101192065 -0.002918138 0.09537802 -0.22097275 -0.058966994 0.12318904 0.07761511 0.17543265 0.07947134 -0.20694587 0.024155535 -0.42712602 0.16367768 -0.13066001 0.07519984
290 -0.023719676 -0.50303245 0.117212825 0.25813037 -0.060258508 0.21253192 -0.010128665 -0.06687708 -0.24893114 -0.0099840015 -0.020829158 0.121475145 0.22997999 -0.07066895 0.2541909 -0.21138635 -0.074898645 -0.01719983 -0.119817495 -0.058307745 0.16713437 -0.007439883 -0.4757696 -0.4108648 0.25182286 0.16226836 -0.12387287 -0.085483804 0.1999991 -0.019367507 -0.16514142 -0.14974868 0.06486001 0.32373935 -0.09746916 0.18990524 0.042981967 -0.0389992 0.19720402 -0.09880932 -0.065748535 0.028442606 0.16151556 -0.0551615 -0.14725824 -0.14550678 0.054272313 0.17950581 -0.09638845 0.09111158 -0.20180543 -0.029694026 0.12493502 0.055238597 0.3585973 0.15820915 0.12526731 0.3115514 0.48030174 0.09895461 -0.27227667 0.08531578 0.15719754 -0.23824179 -0.29629096 0.15310927 -0.12528093 0.09372977 0.019105446 0.00816854 0.28315556 -0.2957736 0.19133183 -0.80670667 -0.030480752 -0.12429086 0.009875707 -0.27882093 -0.031839516 0.53002465 -0.4261332 -0.32428685 0.35579956 -0.24946308 0.0945948 -0.049102366 0.070207305 0.09459677 0.041676342 0.1406234 -0.021584895 0.13739973 -0.07615582 -0.34110752 0.08760233 0.036819313 -0.029496659 -0.06976656 0.06707906 -0.14448723 -0.25706655 0.13128316 0.08260952 -0.039445687 0.45732296 -0.017309826 -0.12887448 -0.0316993 -0.22719887 0.1391182 0.08395524 -0.367315 -0.063106455 -0.02239778 -0.2357942 -0.057645746 -0.13249497 0.0120815905 -0.07797079 0.075932905 0.04906373 -0.37014246 -0.10086021 0.19987382 -0.3054262 -0.45158884 0.28841653 -0.12840478
240 -0.15397573 0.05019744 0.12147114 -0.08112278 0.15413482 0.09427005 0.19141772 -0.19845317 -0.016911106 -0.02660689 -0.15941778 0.4016817 -0.20708805 0.2680502 0.25588468 -0.0651711 -0.16423945 -0.45002457 -0.41322383 0.45233962 -0.19718173 0.17225617 -0.052634712 -0.22108509 0.17333975 0.1212513 -0.23957916 0.30506825 -0.24605137 0.09655132 0.25069952 0.2886379 0.21791367 0.1674793 -0.29586232 0.09874894 0.07694955 -0.0040255 0.15887941 -0.41967723 -0.23124242 -0.04614469 -0.40545082 -0.14274193 -0.0715898 -0.06528585 0.05284257 0.07151222 -0.13868329 -0.082915574 0.11750291 0.46306685 0.25657266 0.16320525 -0.22266786 0.27820057 -0.017113741 -0.12716796 0.13203408 0.33140218 0.060486197 0.3802012 -0.49788523 0.16661216 0.31212732 0.040351003 -0.25500655 0.26212722 -0.15651919 0.060697842 0.13842438 -0.1223559 0.05728141 -0.32473677 0.23284405 0.40594214 -0.004755391 0.06267189 -0.392605 0.0011708345 -0.029158907 -0.48212904 0.047730546 -0.29638925 0.12663497 -0.29131553 0.23386863 0.024338797 -0.46866545 -0.07597175 -0.0055973623 -0.12826274 -0.0071646967 -0.0072206804 -0.21253246 0.18593538 0.36574182 -0.18982235 -0.3825575 0.23619567 0.18882796 0.074712954 0.52562827 -0.21002237 -0.49658105 -0.022273213 -0.10282731 -0.16253912 0.07871507 -0.13204953 0.14853688 0.2540359 -0.16703239 0.13752317 0.12512878 0.14626022 -0.40937743 -0.33206004 -0.35249066 -0.06437486 0.03928985 -0.28063902 0.043265313 0.39903593 0.37176937 -0.2650158 0.23769674 0.1666377
516 0.11969413 0.20967485 -0.034815732 0.14185268 -0.11446465 0.39428595 0.3806617 -0.3649906 0.099709064 0.033860642 -0.22696462 -0.14755924 0.08287578 -0.034128353 -0.0044426937 -0.070596576 -0.4799181 0.28125322 0.14131165 -0.22467056 0.3236633 -0.14440429 0.13167898 -0.021153456 -0.041688725 0.5863091 0.25556138 -0.21309282 -0.017283624 0.35698944 0.43257928 0.2196522 0.0927057 0.38724068 -0.061297935 0.76807463 -0.0375838 -0.24346322 0.28956646 -0.06815195 0.10803128 -0.059139393 -0.10013184 0.12998965 0.25646034 -0.23540214 0.20629488 0.035446305 -0.55551434 -0.28648785 -0.37613565 0.02431984 0.12050455 0.117529996 -0.06452495 -0.24575545 -0.2754684 0.2602241 0.085308574 -0.47640467 0.26171264 0.3198376 0.0810089 -0.0027605663 -0.05864211 0.2804627 -0.0065921964 0.13373737 -0.3069289 -0.16266629 -0.1262242 -0.0068797376 -0.04031937 -0.05453126 0.11731019 0.21116263 -0.08536608 -0.09223487 -0.29607764 -0.041282263 -0.32040805 0.11515206 -0.26569197 -0.16375399 0.32153112 0.30001026 -0.014718847 0.36485192 0.26164207 -0.022574153 0.0031487215 -0.44964018 0.021643622 0.1861043 0.4158787 0.1182008 0.28347751 0.06809418 -0.36769998 -0.26869124 -0.045131963 0.106625244 0.5249784 -0.43079594 0.2055553 -0.028382026 -0.10884102 0.23503649 0.062122896 0.10240063 0.01447999 0.13523489 0.14312525 -0.18674397 0.07650848 0.15192099 -0.49753436 -0.25080043 -0.20099492 -0.11882366 0.33433554 0.07529829 -0.15298541 0.39704508 0.11944991 -0.27086452 0.17240626 0.10248372
614 -0.07451043 -0.2514192 -0.22240831 -0.2854966 -0.12527019 0.13105853 -0.3674807 -0.07710934 0.057136863 0.09122295 -0.025547534 -0.032330684 0.33754903 -0.27985284 -0.007962493 0.3072979 -0.22046036 -0.18847796 0.07456273 0.47443613 -0.0073436024 -0.11229882 0.18152155 -0.072475314 0.13518679 0.115391485 -0.05660229 0.010701848 0.20046602 0.3167071 0.1716719 -0.17860895 0.24447769 -0.1496764 -0.24127321 0.07338684 -0.08570554 -0.28711385 0.32509565 0.20422743 -0.08820392 0.31543338 0.051584553 -0.07007226 -0.029028518 -0.07976187 0.03182475 0.45862156 -0.11073703 -0.05946233 0.2153546 -0.486434 -0.21699852 0.40019804 -0.09838267 0.30694762 -0.15099247 0.22539276 0.10089658 -0.06094178 -0.49186927 0.48085603 -0.13944691 0.36889496 0.033691403 -0.40118974 -0.15687515 0.0004901568 -0.32787898 -0.027106918 0.28119913 0.6932616 0.30999509 0.30792364 -0.057085745 -0.084840015 0.11478424 -0.17285228 0.18179955 -0.05442428 -0.33174822 0.17404719 -0.15188016 0.103578 -0.02287798 -0.19462189 0.04254636 -0.16945013 0.25591698 0.18185557 -0.061759353 -0.048635453 -0.2834207 -0.081218615 -0.18822448 -0.019819403 0.11866842 -0.13808358 0.17960452 -0.2548161 0.050995365 -0.32072175 -0.011160318 -0.19991527 0.16557051 -0.04869371 0.081706345 -0.15961437 -0.14032651 0.23313896 0.35146794 0.2621896 0.0326034 0.22060874 0.125657 -0.14344901 0.01725757 0.44170567 -0.1521012 0.058794 -0.047402453 -0.33835512 0.19195351 0.18144873 -0.16405466 -0.23258217 0.17529972 0.031329725
723 0.29291952 0.21535814 -0.108493894 0.30896652 0.5243558 -0.122147195 0.082472414 -0.14181009 -0.07779076 0.18249561 0.20397498 0.021213783 -0.44456917 0.051129624 -0.33831975 0.10467433 -0.021651302 -0.29479203 -0.09146327 -0.037490677 0.21885207 0.050433427 0.15125532 -0.08865342 0.5363248 -0.13147876 -0.019048477 -0.13679719 -0.07457123 -0.091938816 0.1956761 -0.04760793 0.24777424 0.18434124 -0.19944474 0.23910838 0.4326079 -0.097182184 0.027485244 -0.19297521 -0.23698376 -0.37827796 0.40605357 0.3187203 0.4027809 -0.33231205 -0.11731288 -0.03692627 0.048601136 0.13136198 0.048072156 -0.31441855 -0.15559109 -0.064179406 0.27511007 -0.010943291 0.42268986 -0.19510211 0.34710568 0.043832865 -0.088016845 0.33107328 -0.7080974 0.0123363035 -0.13133916 0.10995983 -0.2503642 0.17656733 -0.4257361 -0.067752734 -0.05096802 0.3832248 -0.2358742 -0.1050439 0.24502467 -0.25024858 0.2727962 -0.1115293 -0.14451674 0.1618098 -0.00823008 -0.019155785 -0.022792427 -0.27162814 0.1486368 -0.022366494 0.19728495 0.23928623 0.047820143 -0.06134386 -0.05723616 -0.23519973 -0.4889855 -0.34421563 -0.006503024 -0.08626798 0.014406047 -0.0492653 0.26030672 -0.022858007 0.08014032 0.0064577246 -0.113692485 0.010680656 -0.10666103 -0.2860057 0.15158059 -0.24243417 0.057637006 -0.17041111 -0.026971642 0.0047175917 -0.21313992 -0.4278606 0.5159913 0.09678905 -0.0924588 0.09884937 -0.011410805 -0.28402087 -0.19246873 -0.08929608 0.032088228 -0.29003677 -0.357067 -0.09894389 0.054216113 -0.16353242
604 0.13528056 -0.06888342 0.1969734 0.34741527 -0.19277994 -0.018449375 -0.027742153 -0.13775362 -0.41668645 0.3419692 0.04455908 0.10916361 -0.058860634 -0.43426526 0.42168173 0.25737232 -0.043755062 -0.041851446 -0.7013462 0.103507325 0.03279841 0.21467094 -0.21493255 -0.40614873 0.10262406 -0.23019609 -0.1061276 -0.3375724 0.22450665 -0.22045572 0.10677112 0.17232569 0.11872094 -0.42596322 -0.23311734 0.27006853 0.073104724 -0.064132 -0.21538655 -0.48633242 0.050011236 -0.006962016 -0.027552534 -0.22666483 -0.015320727 0.17791243 -0.15668066 0.2669812 -0.19199601 0.434465 -0.15707485 0.120753236 0.3184583 0.20092839 0.12011317 -0.14687006 -0.12383073 -0.12045498 -0.1524647 0.3939707 -0.34083992 0.037567217 -0.23365398 0.44273216 -0.37869325 -0.08098624 0.24984325 -0.021718962 0.267849 -0.25112075 0.03067528 0.28313053 0.34696648 -0.035896584 -0.16006261 -0.44202703 0.26514494 0.039246254 0.091072574 0.03456869 -0.1973796 -0.018843694 0.11191312 0.026983017 0.07746844 0.13868645 0.07634972 -0.149542 -0.04023502 -0.034895018 -0.22864537 -0.439779 -0.19057481 0.42543074 -0.028717984 0.19394122 0.39271626 0.13696232 -0.07666428 0.24363716 0.26150647 -0.24606293 0.08398245 0.10845224 0.05898813 0.13330409 -0.02595149 0.1943729 0.01133882 -0.23728454 -0.18802382 0.48853248 0.36022353 -0.17074578 0.009994094 -0.13445508 -0.1487723 -0.13681062 -0.13823803 -0.33291033 -0.2709533 -0.07433212 -0.1836455 0.13720159 0.039512463 0.18560997 -0.2230843 0.10189502
498 -0.116757475 0.33534405 0.0057425927 -0.25166714 0.3709802 0.26125342 -0.23377497 -0.36326206 -0.4157274 0.18076718 0.05845147 -0.058733128 0.109415516 -0.22153789 0.66118306 0.29220557 -0.0010090662 -0.2420265 -0.43976572 0.22278117 -0.2589356 -0.20057364 0.11041861 -0.2895874 0.028364055 -0.02918231 -0.17147742 -0.2377729 -0.17374085 -0.29913154 0.18163139 -0.043808263 -0.23473813 0.058033045 -0.13356124 0.10331164 -0.1267955 -0.19055629 -0.20753108 -0.15354241 -0.06968276 0.0079084085 0.048531618 -0.043270968 0.27928662 0.25087568 -0.3736895 -0.2584778 -0.15319523 0.6495144 0.45368767 0.012663223 -0.17362288 0.19147727 -0.15576486 -0.040064245 -0.36082557 0.062122043 -0.0503214 -0.1970682 -0.05539784 0.19766358 -0.2650197 -0.36790666 0.04991567 0.1899076 -0.17408787 0.14722858 -0.006735095 -0.09899526 0.16872872 -0.1732405 0.14873755 -0.029528448 -0.006268514 0.026562821 -0.045105517 0.047231134 0.06675804 -0.1425147 0.01617319 0.31170052 0.18246822 0.36359322 -0.045019194 -0.40890405 0.35030478 0.023425017 -0.11451693 0.096584685 -0.028652873 -0.24380493 0.07243169 0.15240395 0.44972366 0.17455149 -0.11253249 0.057088718 0.20543316 -0.20348622 -0.13417332 0.09616871 -0.10088458 0.11154376 0.059371967 -0.2921549 0.36378962 0.19118118 0.10770731 -0.10639086 0.19579297 -0.42270947 0.14068505 -0.12056481 0.08282925 0.15697674 -0.16121203 0.11755491 -0.026228618 -0.20631953 -0.041669257 0.1791541 -0.41306153 0.49709624 -0.10637945 0.19085836 0.18462226 0.2265162
368 -0.15260457 0.061202805 -0.14704667 0.38282067 0.2853712 -0.29710427 0.022571845 -0.049304046 0.11550632 -0.055114746 0.3227277 -0.095136516 -0.46671358 0.2836923 -0.39874423 -0.037522122 0.10591213 0.2801479 -0.18471868 0.24192007 0.032754548 0.015258261 0.25789908 -0.33322 0.1257983 -0.16282848 -0.49095455 -0.7263253 -0.23084767 0.21819521 -0.09669325 0.18219869 0.583095 0.29747337 -0.28096744 0.080050915 0.51611596 0.12724797 0.3263283 -0.06799962 0.08544126 0.11650551 -0.2179917 -0.085320815 0.42270887 -0.024412991 -0.008439557 0.1132376 -0.19080234 0.72296345 0.047382046 -0.31589547 1.0935224 0.08931029 0.14623213 0.16802952 0.07047686 0.39684537 0.027429946 -0.18626069 -0.41440654 -0.2741117 -0.2875324 0.09064595 0.29975268 -0.078890875 -0.24109763 -0.072430536 -0.054270815 -0.36023784 0.15860341 -0.23078792 -0.1670187 0.027484767 -0.037015125 0.46034697 -0.08715594 0.15753746 0.02919157 -0.08808513 -0.15257981 -0.14796945 0.24069421 -0.0012067754 0.14300552 -0.2963867 0.13727374 -0.23649186 0.2845075 0.059422944 -0.2126267 0.06148923 0.28529736 0.0040881136 -0.46593073 -0.06451767 -0.0017384841 -0.019982561 0.2739674 -0.09968772 -0.12880367 -0.3451012 0.11352908 0.25497088 0.04819177 0.1835656 0.31141752 -0.24912417 -0.124946155 0.13140938 -0.24963811 -0.15180162 0.45475072 0.101947114 0.3675227 -0.1101807 -0.12095262 -0.28678915 -0.21291088 -0.1304706 -0.13952298 -0.21511522 0.05801545 0.68559253 -0.22180787 0.30848053 0.31587335 -0.07232603
434 0.056753404 -0.021288805 -0.21184747 -0.1858624 -0.22309437 -0.016230458 0.10402671 -0.15849689 -0.068786226 -0.2912817 0.26691288 -0.10101993 0.24137266 0.54872364 0.06054701 0.16351393 0.4373833 -0.24308176 -0.086656146 0.26011616 -0.18195194 0.07376757 0.2606693 -0.02989555 0.027153859 -0.12519513 -0.12966941 0.013422333 -0.31056035 -0.32469645 -0.021540942 0.06531285 -0.19396152 -0.36002472 -0.24480084 0.17592762 -0.21936952 0.30363002 0.43272644 0.1443388 -0.020759962 0.32798088 -0.06347755 -0.13592312 0.60343796 -0.7478875 -0.2948944 -0.19411705 -0.22857548 0.19975637 0.44742414 -0.040730163 0.4891281 0.66323715 -0.38595274 -0.3193959 0.23727667 -0.050001204 0.27868032 -0.19422027 -0.12341116 -0.30078 0.30790573 -0.19622062 -0.32458502 0.13617688 -0.12662344 -0.13334991 -0.11698363 0.12087007 0.03679001 -0.1978599 -0.16368492 -0.024389846 0.066737585 -0.13455412 0.0025859885 0.20883138 -0.02355741 0.06810317 -0.5719669 -0.24339218 -0.021576434 -0.16513385 0.1952817 -0.31158122 0.018062254 0.41115713 -0.03594393 -0.09804458 -0.17721722 -0.42189893 0.05797553 0.12720996 -0.076638475 -0.17853217 0.10254844 0.089865014 -0.24914937 0.019015305 0.034136444 0.02546307 -0.23968583 -0.1626507 0.039622813 -0.15678431 -0.22069344 0.24391472 -0.48274222 0.10074454 -0.34978908 0.80301076 -0.04570614 0.19158973 0.076578654 -0.029036568 -0.20368992 0.119978294 -0.3620842 0.34868193 0.14509213 0.06359588 -0.15460816 -0.14743628 -0.4259391 -0.030909764 -0.3361886 0.20125872
317 -0.6038721 0.25020352 -0.28160754 0.38260975 0.34189624 -0.08585186 0.10840061 0.081672326 -0.07589494 0.024856433 0.122405164 0.34520733 -0.41411448 -0.1911534 -0.54702747 0.012776229 -0.11860284 0.0146290315 -0.33057857 -0.15256423 -0.35115033 -0.0018583911 -0.11560442 -0.043834824 -0.42252398 0.3690651 0.26163086 -0.32688776 0.03186106 0.057218447 -0.009075644 -0.039641753 -0.17279266 0.012425059 -0.34948075 0.056618135 -0.34123945 0.18161377 0.3239937 0.09795778 -0.04861158 -0.36651194 -0.17220384 -0.104291156 0.35322475 -0.29707488 0.24260214 -0.041491028 -0.2700493 0.09346586 0.29807854 -0.41324896 0.18227379 0.525706 -0.047726236 0.26573288 0.18861784 0.13628587 0.05685284 -0.20139535 -0.2344862 0.5075321 -0.21836616 -0.20527834 -0.12353248 -0.22548999 0.44159514 0.06451406 -0.21546203 -0.3768924 0.053640194 0.05750714 0.1040633 -0.14815713 0.47122347 -0.21439648 0.13860542 0.2137389 0.44584146 0.21102175 -0.18242487 0.084332995 0.07234135 -0.08513116 -0.12587553 0.17948578 0.07077077 -0.24546435 0.22189596 -0.07087394 -0.25282827 0.3099326 0.17299247 -0.03317177 -0.015256815 0.1759129 0.4220989 0.18488064 0.0107245855 0.40090832 -0.15194224 -0.038978446 0.16192248 -0.13319813 -0.49324182 0.32620594 0.28738505 0.3129045 0.0122395 -0.09601249 -0.117513545 0.052247852 -0.19618833 0.15352163 -0.23559037 0.32851177 0.23762994 0.24921703 -0.30508387 -0.02123613 0.3876371 -0.27244887 -0.009044319 0.070549175 -0.36979192 -0.132634 -0.5601951 -0.23054759
459 -0.3698568 -0.038320724 -0.15151608 0.68669987 0.11114121 0.33429256 -0.0049996376 -0.36181957 -0.06780202 -0.14603595 0.0981285 0.17183398 0.043778114 -0.11389483 -0.13951273 0.102594286 0.14723368 0.017516244 -0.17151351 0.09685449 -0.0068782796 0.24105133 0.5364875 -0.3412606 -0.21638548 -0.17193119 -0.07799141 -0.121404655 -0.03992954 -0.30173331 0.32127935 0.1720607 -0.10777525 0.037543863 -0.07930885 -0.19267541 0.09602482 0.32753417 0.004373472 -0.11165647 -0.091061436 0.06245356 -0.41214207 0.30887777 0.24585322 -0.35233206 0.059391096 0.24087717 -0.18809076 -0.040585052 0.10364314 0.083204895 0.10792327 0.08473152 -0.11283865 -0.47245485 0.24255702 -0.07794073 -0.14813875 -0.3411662 -0.028868137 0.48134533 0.056048434 0.15114512 0.26465335 -0.25666672 -0.039763924 0.15196508 0.11286551 -0.15281078 0.05202359 0.051342357 0.25132155 -0.04377093 -0.115048006 0.091507755 0.53615135 -0.21640666 -0.16481385 0.022181882 -0.41288614 0.03764131 0.13193826 -0.3274453 0.14594135 -0.38781184 -0.17254937 0.1403661 -0.18246572 0.40615815 -0.06513363 -0.24484165 0.36495408 -0.02300311 0.17595994 0.12756541 -0.09284215 -0.045836754 0.17203288 -0.23212518 0.07926736 0.053001195 0.026945196 -0.35182878 0.34297457 0.05650813 -0.17666669 -0.12653007 -0.42710397 -0.3718187 -0.027163634 -0.14543918 -0.08268063 0.15967658 -0.14537755 0.034042254 0.10625067 -0.11573282 0.21002646 0.29707998 -0.27322227 -0.18420161 -0.22890505 -0.2068106 -0.10399073 -0.22194998 -0.31253994 0.29320547
612 -0.19416116 -0.27088216 0.25996664 0.009820242 -0.3954467 -0.07248353 -0.06706318 0.14285332 -0.33835685 0.40662798 -0.05551623 0.050335456 0.0101139555 -0.15331991 -0.0020996057 -0.000645306 -0.2328964 -0.27299428 -0.22790153 0.3253598 -0.11853897 0.6081604 -0.1171929 -0.06225675 -0.11682451 -0.16431159 -0.13385865 -0.21026935 0.104234986 -0.14769049 -0.21349101 -0.029337917 0.1532658 -0.035081074 -0.13409482 -0.005433072 0.16908355 0.31940356 0.030408282 -0.32909897 -0.068174876 0.11768611 0.03563997 0.4276496 0.49653408 0.31921002 -0.06723994 0.29711756 -0.40577328 -0.003672348 0.15387182 0.33327097 -0.14404178 -0.13043226 0.114326075 -0.008553268 -0.06311036 -0.3328005 0.046700303 -0.0036037741 0.101636715 0.31955528 -0.30157885 0.20399429 0.11787936 -0.034546785 -0.07926384 0.17334251 0.43706983 -0.06237096 0.08542308 -0.06285104 0.22458473 -0.3128686 0.074298695 -0.40308702 0.07552098 0.16129832 -0.015309756 0.040684547 -0.19562595 0.03820324 0.39314657 -0.35280627 -0.12747245 0.15531017 0.18175241 0.22511661 0.16096419 -0.10615506 -0.28747845 -0.070585065 0.08167429 0.7713292 -0.16807513 0.2842421 0.24427564 0.12560639 0.0033621471 -0.057294115 0.3134471 -0.09502086 0.1848548 0.5546136 0.53471386 0.20617701 -0.01879802 0.4021711 0.28759152 0.09323797 -0.3447464 0.15055194 0.263896 0.108166225 -0.18560901 -0.07924341 -0.22215326 0.042524364 0.14696738 -0.12659876 -0.006059901 -0.009305565 -0.031393986 0.40955874 -0.08689888 0.022263044 -0.122688524 -0.31990367
311 -0.44144514 -0.29190415 -0.020745754 0.13374996 0.14207208 0.2102531 0.32211652 0.15233207 -0.07377002 -0.107249536 0.11594263 -0.07350654 -0.2998423 0.22432078 -0.05235856 0.23564433 -0.20631392 -0.59983236 -0.3891802 0.14002106 -0.4357306 0.24947457 -0.1764457 0.09713854 0.019696759 0.52130497 0.030627914 -0.09223286 -0.07062653 0.036438227 0.2303198 0.45941517 -0.23718227 -0.4434004 -0.05200219 0.27823323 0.13737543 0.38565034 -0.076927066 -0.001764895 -0.3565004 -0.048612308 -0.29204032 0.34946492 0.066267125 0.0746376 -0.0348695 0.028959593 0.04141205 0.46795234 -0.15050252 0.06605469 -0.06669043 0.2943332 -0.010912894 -0.40949577 -0.5274146 0.3192166 -0.068284556 0.08224079 0.07552389 -0.16255206 -0.25636226 0.5102954 0.4238461 -0.10343318 -0.43928376 0.055527236 0.032950927 0.048390996 -0.15756595 -0.14322922 0.29360804 0.044853706 0.22695714 -0.1164679 0.029823778 0.59271413 -0.31761903 0.079874516 -0.16346078 0.049238946 0.014699889 -0.068688765 -0.08517108 -0.022554671 0.47398573 0.026943266 0.057678383 0.0015456849 -0.092947185 -0.1342659 0.051181592 -0.07099561 0.18666232 0.24994627 0.53679466 0.09986926 -0.22303745 0.30490246 0.4114808 -0.2531357 -0.08533258 0.004526666 0.44181007 -0.00515424 -0.12519872 -0.19621223 0.23846056 0.32188582 -0.3226089 -0.30091193 0.16621986 -0.10659724 -0.0031965398 0.3558478 -0.121393904 0.0033657553 -0.1411198 -0.4321811 0.2669475 -0.081999846 -0.09307653 0.26456636 0.31733423 -0.079678655 0.33403277 -0.096833065
327 -0.024392655 0.24163422 -0.36856267 0.3653446 0.111406915 0.2804847 0.014672057 0.054882698 -0.15844524 0.1393866 0.2580374 -0.14878045 -0.22083169 0.13848504 -0.114519686 -0.025963413 -0.4294403 -0.17060038 0.4407755 0.14105439 -0.1600377 -0.069500394 -0.5526261 -0.18669108 0.07516769 0.3648688 0.2127921 -0.3596662 0.19970688 0.37830675 -0.017086612 -0.5631496 -0.2802585 -0.1845891 -0.66617334 0.16225302 -0.07015052 0.43565178 -0.30684832 -0.028172504 -0.29056254 0.09007955 -0.13347003 -0.014728274 0.15613692 0.1737088 0.044071477 -0.14553449 0.23206656 -0.27005723 0.28026104 0.002874719 0.19895297 0.29368412 -0.48566926 -0.22575684 -0.2891376 -0.033647515 -0.048179206 -0.31531525 -0.17688891 0.24165455 0.008301517 0.31293678 0.022523385 0.1192364 -0.27367765 -0.14926264 -0.19049647 -0.025151175 0.11627279 0.13170335 -0.4576267 -0.025715768 0.14608555 -0.04651267 -0.14672302 0.1540346 0.06293834 0.1194006 -0.100271694 -0.100564644 0.46773595 -0.116295144 0.06327187 0.03704166 0.4755585 0.17399076 -0.3811469 -0.01526483 -0.20378815 -0.0035234496 -0.20487638 0.12461953 0.45247334 -0.1531897 0.86276686 0.20812309 -0.18482938 0.16370851 0.3024203 0.0748049 -0.19530056 0.5438218 0.5242425 0.496414 -0.36843088 -0.19590487 -0.27956003 -0.092051 0.03146683 -0.24153408 0.04771099 0.1529424 -0.0635881 0.4455381 0.008071361 0.20059085 -0.083182104 -0.40875518 -0.058678735 0.10501231 -0.15320526 0.44034913 0.02708362 -0.039713148 -0.27766857 0.20203903
508 0.18051088 0.26234022 -0.15970865 0.47817147 0.44222093 0.09320008 0.019233448 -0.10177686 0.04994895 0.048669774 -0.22299688 -0.120054156 -0.16986416 0.33499846 -0.20649064 0.06017224 0.01969053 -0.1602587 0.0839146 0.011653783 0.35011476 0.061124902 0.17328396 0.018580304 0.52062124 0.1455541 0.05438099 0.0022729945 -0.38303426 -0.065341696 0.36950317 -0.14395219 0.29651624 0.09119732 0.010747053 0.18852599 0.20350514 0.040561102 0.037534524 0.14405568 -0.13030237 -0.13730542 0.19642717 0.4268927 0.3828518 -0.42450413 0.14357097 0.14134173 -0.14763926 0.11419106 -0.08602669 0.015294342 -0.122115575 0.15928389 0.2910802 -0.1827347 0.377307 -0.15861931 0.20010157 0.09185324 0.03721596 0.2806684 -0.36979106 0.04253602 -0.00876731 0.21352875 -0.1981497 0.18582639 -0.48209906 0.05583784 -0.020414451 0.11464638 -0.35683763 -0.024722304 0.27652308 -0.2287961 0.20739108 -0.23641461 -0.23227867 -0.16519499 -0.13665496 0.027793983 -0.25531554 -0.41541973 -0.13760258 -0.06349155 -0.20005275 0.25434127 -0.014727538 0.09143389 -0.14195187 -0.24251711 0.025371036 -0.20676422 -0.047598373 0.323388 0.05547496 -0.10776848 0.334061 -0.0037029295 -0.13842925 0.04141304 0.15807214 -0.06957469 -0.0933115 -0.1212727 -0.037122816 0.15724398 0.009058446 -0.21968174 0.2537066 0.145993 0.009268751 -0.35896885 0.45936415 0.23398273 -0.14923836 0.0555077 -0.14133656 -0.00030780077 -0.27950117 -0.13462032 0.039011743 -0.25943604 -0.42396232 -0.1351694 0.045224443 0.38137028
576 0.15874657 -0.3691695 -0.032508686 0.43732575 0.2141675 -0.3937408 0.08454722 -0.06644823 0.12629825 0.23070996 0.1340339 -0.13678181 0.10397413 0.35644707 0.3608598 0.063770704 0.11008331 -0.09725208 -0.20280442 0.20111981 -0.13742468 0.008929744 0.006644537 0.09943266 -0.16760415 -0.14471526 -0.03991244 0.39646772 0.23376368 0.36747077 0.21916652 -0.28365365 0.022784444 -0.025726233 -0.44541132 0.18139231 -0.10292518 -0.12145213 -0.17329466 0.12059155 -0.05878482 -0.036521375 0.2270354 -0.16144474 -0.25408673 0.022136869 0.13408436 0.1048208 -0.34515396 0.38142744 0.011175532 -0.26019186 -0.05762608 0.04186125 0.19651325 0.18296029 0.28771904 0.031346917 0.25544575 0.0033569501 -0.1296228 0.118884616 0.07506162 0.08612284 -0.36298373 -0.192835 0.24432556 0.24517758 0.19986884 -0.039064802 -0.08777058 -0.2293275 -0.050646767 -0.06592558 0.11622629 0.06150346 -0.11967077 -0.10460304 -0.3973545 -0.028777149 -0.33082658 -0.045295645 -0.2242168 0.1234803 0.27985686 0.04056256 0.25886908 -0.09667879 -0.15443087 0.12442984 -0.088193856 -0.5310402 0.28348526 0.10922318 -0.28227362 0.24048296 -0.15904748 0.016064815 0.09926639 0.23287383 -0.34965634 0.21742542 -0.12421354 0.09202065 0.11568836 0.2596156 -0.36421394 0.10507423 -0.56931883 -0.2603723 -0.22428448 -0.44558752 -0.14688365 0.33104107 0.159118 0.26849988 -0.051140476 0.14416839 0.15496029 -0.47710833 -0.08270099 -0.028352665 -0.11510521 0.34933838 -0.11420309 -0.108437665 0.15366858 0.05792725
581 0.24949476 0.22134988 -0.016653739 0.55547315 0.55732906 -0.01525332 0.47425324 -0.07152756 -0.0134567 -0.3515491 0.16475183 -0.110670865 -0.002053111 0.5324444 0.09335533 0.36647502 0.09571017 -0.10900806 0.29606342 0.053556554 -0.20431338 0.29257637 -0.3468075 -0.23409796 -0.19277944 0.14359803 0.21053657 -0.13131149 -0.1263909 -0.10332859 0.24177541 -0.031294566 -0.04397081 0.024758015 -0.2380005 -0.092268854 0.09828322 0.103807345 0.3082955 0.06543812 -0.41111478 -0.1864349 0.024174096 0.3700145 -0.011838388 -0.09267182 -0.11183646 0.06350772 0.18557277 0.20528272 0.28133217 -0.08092972 0.3486927 -0.37270713 -0.47619122 0.12157637 -0.46734872 0.25716758 0.47368267 -0.08864586 -0.07355374 0.3879242 -0.41950408 -0.04474491 0.19000739 0.50187397 0.23325339 0.1614925 -0.3020678 -0.12144832 0.061117005 0.402867 -0.009218846 -0.07369895 0.1555976 0.0020047415 -0.19479771 -0.0926389 -0.00052172027 -0.24045613 -0.14964037 0.08551826 -0.0022124469 -0.2131903 0.33419368 0.052043125 0.11271415 0.20335594 0.14480993 0.6372202 0.51209295 0.06408606 0.10063905 0.3859185 -0.36951682 0.4414444 0.20130154 -0.41906127 -0.016831191 -0.577884 -0.23231195 0.014065934 -0.34128538 -0.18890895 0.11910291 -0.10449277 -0.017200377 0.030341873 0.17748095 -0.09394616 -0.040894452 0.06942268 -0.13455917 0.026903113 0.08553392 -0.027225442 -0.41187668 -0.06523724 -0.16376789 -0.05313179 -0.34539297 0.3225865 -0.6680152 0.12157441 -0.11070791 -0.13292073 -0.29856902 -0.23792845
439 0.025761021 -0.07381612 -0.061681904 0.36019808 0.0483559 0.02166579 0.042949993 -0.24111962 0.00012762826 0.39046413 -0.012458168 -0.42675823 0.024338847 0.16240537 -0.16238628 -0.027865795 -0.20208398 -0.04037411 -0.04219508 -0.24153766 0.049988378 0.101764396 -0.085240245 -0.09279119 -0.004600059 0.33194357 0.1339987 -0.011254443 0.023133624 0.04634633 -0.2090616 0.15019518 0.16374195 -0.11146004 0.09633412 0.17483985 0.13382155 0.010323681 0.15024602 0.16073407 -0.30315113 0.377995 0.121736035 -0.096232064 -0.037390295 -0.35533732 -0.2633671 0.19688062 -0.4560111 0.28795898 -0.3622701 -0.13670619 -0.0022662359 -0.09673937 -0.3516362 -0.046871115 -0.123184524 -0.20655492 -0.3435197 -0.09528112 -0.6373467 0.13121264 -0.32450294 -0.24352612 -0.22566175 -0.14259502 -0.055825315 0.31019586 0.051230364 -0.469225 -0.24069205 0.13856858 0.2898685 -0.07844329 -0.09552134 -0.34913713 0.32853642 -0.18697877 0.080312274 -0.0009932988 0.16761339 0.14877132 0.23149648 0.16079403 0.59377116 0.67971873 0.25740272 -0.39305145 -0.056160104 -0.03971498 -0.11589615 -0.29028895 -0.116361976 -0.057403974 0.11406145 0.10114113 0.05930598 0.19651029 0.12019094 -0.09720384 0.17056252 -0.15682387 -0.32782027 -0.32975623 -0.18021126 -0.020653347 -0.35587442 -0.05236701 0.0012321126 0.2106604 0.27404004 0.28264114 -0.31471664 0.050159372 -0.3295165 -0.2963093 -0.10063183 -0.28016156 -0.032633167 0.2730328 -0.31418467 -0.1010528 -0.50539726 0.40995303 0.24709721 0.0003626103 -0.162519 0.21808648
534 -0.14072773 0.07201438 -0.21353872 0.42968026 0.2976443 0.27753243 0.054541256 -0.05923673 0.03832361 -0.04110648 0.07137228 0.1984009 0.26355872 0.07272466 0.22701207 0.085164435 0.046910573 -0.1879434 -0.28562775 0.30996618 0.17608127 -0.34778443 -0.00362032 -0.16713746 0.6229082 -0.27006254 -0.27260193 -0.0089773135 -0.29745916 0.16057476 0.13839355 0.14186704 0.21590948 -0.04548036 0.33749765 0.24789023 0.18138899 0.12129569 -0.26228768 0.3100082 0.08301481 -0.029852124 -0.019585075 -0.3023427 0.01842836 0.028615251 -0.016413745 0.2732476 -0.4176437 -0.09646136 -0.14647487 -0.2135131 0.22206038 -0.09901968 -0.10559524 -0.05582894 -0.29562154 -0.13764632 0.44695845 -0.12738283 0.18099989 0.08561867 -0.22902162 0.026016938 -0.022164652 0.13072947 -0.25411278 -0.16944106 -0.15610655 -0.11857175 0.121548004 -0.22573029 0.3349891 -0.01190244 0.14798117 0.1580199 0.05577219 0.38402495 0.013243578 -0.34436452 -0.5799751 -0.37407953 0.27615693 0.0056141093 -0.435433 0.17166613 0.13510124 0.3874324 -0.054568343 -0.13907032 -0.08170808 -0.14812814 0.25580105 -0.23518094 -0.19762854 0.17517787 0.22592571 0.17659661 0.051009737 -0.2621043 -0.21354173 -0.09089128 -0.21189274 -0.1395046 -0.14562595 -0.29796928 0.007434098 -0.053075485 -0.16997819 -0.20952028 -0.19816695 -0.09478138 -0.20213026 0.26772216 0.1587783 0.31998524 0.15351364 -0.13981032 -0.1475595 -0.0057589505 0.07819099 -0.2548428 0.4103125 0.30908963 0.18018898 0.41134614 -0.2395746 0.08428519
536 0.31259727 -0.07971031 -0.013537328 0.21385327 0.18299556 0.1335575 0.38537893 -0.22815177 -0.0645785 0.42346054 0.33634585 0.07306849 0.014182726 0.2459282 -0.113025054 -0.24546719 0.072546914 -0.14263035 -0.29421744 0.025182668 0.02956992 0.14525908 -0.09955832 0.16221353 0.43481445 0.19151014 -0.05080913 0.080433 -0.31626418 0.0779899 0.32798284 -0.14350936 0.11322299 -0.01786579 -0.2504242 0.22086759 -0.36350095 -0.19232014 0.3741051 0.29972598 0.24213555 0.07063317 -0.012268524 0.19754414 -0.03213421 -0.081863634 0.019203829 -0.0871866 -0.3038085 -0.073025346 0.15507391 0.11766718 -0.06033152 -0.5301876 -0.040694423 0.010711942 0.3337998 0.25905317 0.18043372 -0.051744584 -0.28997117 -0.11802529 -0.2677522 -0.12212071 -0.20479277 -0.022399666 -0.4368709 -0.00024665112 -0.3667847 -0.023738189 0.13886158 0.19446556 0.01401692 -0.45273134 -0.04368206 -0.21863008 0.38231036 0.14291163 -0.23540218 0.27245685 -0.07264087 0.16249304 -0.47683913 0.19004351 -0.044993024 -0.032883894 0.53372663 0.052451115 -0.16536048 -0.08011559 0.047676522 -0.10949012 -0.19386552 0.042806942 -0.18944718 -0.08236876 -0.06750626 0.010293691 0.29450655 0.6105196 -0.2515187 -0.25814906 -0.15430926 0.061704222 0.23573788 -0.0014849419 0.15672074 -0.033138417 -0.08339553 -0.28256842 0.085839264 -0.29631487 0.19781251 0.12452097 0.27340215 0.25474805 -0.09108934 -0.15370063 0.2830286 0.14358822 0.05471677 0.07175547 -0.19160762 -0.020872083 -0.30523014 0.021542577 -0.028300837 -0.18647817
637 0.028270863 -0.15437591 -0.08594961 0.58896977 0.34847683 0.3463438 0.14017811 0.1919016 0.041994423 0.35795498 -0.14115249 -0.15733173 -0.12614235 0.12461691 0.32044557 -0.12148833 -0.1919318 0.084955074 -0.070783064 0.46627313 0.022798704 0.049853384 -0.13504516 0.12694068 -0.19440225 -0.09849308 0.16860929 -0.068701856 -0.2789618 -0.21086124 0.43110627 -0.27678135 0.116489924 0.28041553 0.09184557 0.27569252 -0.57109463 -0.35359892 0.55652565 0.24184683 -0.19655183 -0.07908071 -0.6543143 -0.10785058 0.23968989 0.22277945 0.0698239 -0.07480614 -0.28644827 -0.051630937 0.08851298 -0.022975812 -0.06435593 0.23745976 -0.0597102 -0.0428998 -0.11201803 0.42356122 -0.0043864804 -0.20494507 -0.016404308 -0.103953265 -0.21529885 -0.14097035 0.20957953 0.28925815 -0.55004275 0.035150938 -0.3685598 0.085254215 -0.034494143 0.38760167 0.41637954 0.1346792 0.028326886 0.18026786 0.21223113 0.03366871 0.05914897 0.059367664 0.15896136 0.094018914 0.31994814 -0.09144463 -0.038198438 -0.21633187 0.1451966 -0.13499922 -0.028670907 -0.03872054 -0.21893162 0.10680554 -0.21937771 0.4943973 0.22611894 -0.0045462507 0.18817422 -0.007465419 -0.48225296 -0.021116573 -0.29999772 0.24653725 -0.5302206 0.10915839 0.28239146 -0.44447133 -0.44177413 -0.049964383 -0.15749873 0.303282 -0.090192035 -0.1455518 0.08291695 0.0789237 0.1928147 0.17617543 0.2758903 -0.10893112 -0.10520231 -0.32987097 0.12907909 0.004252605 0.27905616 0.3626814 -0.16388209 -0.39684817 -0.072590895 0.11661247
747 0.09566214 0.17070803 0.29831517 0.22294818 0.5225946 -0.13465163 -0.12655935 -0.32069114 0.037748065 0.13377677 0.38004297 0.25949156 0.12644689 -0.007080577 0.1638937 0.018712394 -0.14217456 -0.013862791 0.19480322 -0.21016555 -0.18716061 -0.2776138 0.24622153 -0.24154581 0.367112 0.38231125 0.066891134 -0.0013477057 0.2500133 0.19011982 0.31639314 -0.06773364 0.038312826 0.07748678 -0.31432578 0.05127386 -0.016083824 0.03924728 0.2670349 0.07490178 -0.09880583 0.24186243 -0.12034927 0.35870817 0.18579282 0.03394337 -0.22193578 -0.18871395 -0.19181813 0.24208087 -0.013108611 -0.00942249 -0.14267866 -0.050516058 -0.06309904 0.21582049 0.051278226 0.27499124 -0.33336976 -0.13188803 -0.42465535 0.2716936 -0.30770153 -0.070086844 0.018512307 -0.2549172 -0.049444795 -0.090507865 -0.043618087 0.26935193 0.027122414 0.046246644 -0.11959492 -0.5101673 0.37635535 -0.17925118 0.12819475 0.071821846 0.3117281 0.19373547 -0.40172473 0.20716809 -0.42194876 -0.34699208 0.51887554 0.13008463 0.24440207 -0.13917674 -0.096998796 0.11601364 -0.12021905 -0.07112597 -0.5330861 0.26401496 -0.31468955 -0.03569164 -0.117207706 0.16898397 -0.20092092 0.23155567 -0.22382662 -0.095959954 0.03375827 -0.07649258 -0.11681185 -0.102939926 -0.17443936 0.059255227 -0.20875588 -0.092464946 -0.36185324 0.110772185 -0.016419794 0.2290296 0.095948465 0.41597024 0.37161458 0.012077007 -0.011272767 0.27212635 0.3733078 -0.24833654 -0.10106731 -0.0367403 -0.25159025 0.054443244 -0.28752846 -0.15121031
310 0.1984245 -0.37793884 -0.13236204 -0.053021584 0.44083846 -0.05522591 -0.41639838 -0.079053394 -0.37738314 -0.06110935 0.63312286 0.088943966 -0.0002070223 0.013176036 -0.17724027 0.32436833 -0.15022701 0.020859677 -0.6746018 -0.35096416 -0.1784666 -0.2471437 -0.13239184 -0.21371496 0.02379619 -0.017736064 0.4761484 -0.053869452 0.20103697 -0.36005345 -0.2554027 0.14826848 0.5291246 -0.4006372 0.18132943 -0.30416706 -0.122109614 -0.03691001 0.0081398655 -0.25890326 -0.062024847 -0.0839199 -0.21232204 0.0996487 0.041669685 -0.12585695 -0.076050624 0.22427328 -0.5971368 0.10116918 0.07877765 0.15274838 -0.013605627 0.25859147 0.37625694 0.19612803 0.024256542 -0.119918406 0.005246331 -0.19841418 0.2142063 0.37683186 -0.38068005 -0.13717495 0.0031977072 0.38649657 0.111532345 -0.33307388 0.038783837 -0.037196536 0.18703581 -0.4953691 0.21784543 -0.040283527 -0.081841476 0.2189383 0.05842445 0.123480186 -0.09965975 0.04990537 -0.42473084 0.2399406 0.30703995 -0.09805623 -0.13403577 0.2996526 0.5384529 -0.40237942 0.32643157 0.19305585 -0.42447808 0.033061333 0.007110701 -0.041446187 -0.09691001 0.005082925 0.67140293 0.17595226 0.354219 -0.15862662 -0.8110405 0.17297836 -0.05525964 0.1679528 0.6226737 -0.06504334 0.2764303 0.22943324 0.02385349 -0.051682662 0.19340311 0.72717893 -0.16147317 -0.2450859 0.058260694 0.28467286 -0.065595075 0.08023393 0.14273453 -0.18121931 0.27334085 -0.16678692 -0.4772294 -0.025545422 0.03432632 -0.116185874 -0.22958802 0.31866458
541 -0.15199329 0.19094162 -0.23895079 0.71025026 0.0972665 0.40091288 -0.04810747 -0.019461446 0.098559804 -0.007946629 0.0119770905 -0.05741171 0.17710485 -0.12945133 -0.16090634 0.027501967 0.16972636 -0.16096981 -0.14709869 -0.020433415 0.22688755 0.23517999 0.39149493 -0.27458867 0.16698845 -0.17768848 -0.17147249 -0.14555076 -0.41149288 0.21639198 0.22580512 0.32059994 -0.052615564 -0.03596383 -0.040503923 -0.17998299 0.25131524 0.39765656 -0.017009329 0.05044274 -0.10765066 -0.13479188 0.1319273 0.23394419 0.10649886 -0.31645784 -0.010220056 0.2705109 -0.08639993 0.061182845 -0.02639269 -0.21018834 0.114363946 0.2750262 -0.16886471 -0.22235453 0.23288162 0.0420574 -0.15913785 -0.2576002 0.058248382 0.35468617 -0.029656367 0.2596334 0.058816563 -0.3640768 0.041769728 0.15522997 -0.16657862 0.046692688 0.08747727 0.07295783 0.14928624 -0.35489303 -0.0432938 0.07800002 0.46709993 0.0106434375 0.03237772 -0.02944574 -0.42879415 0.22277978 0.05037774 -0.19047156 -0.067633234 -0.32835945 -0.13512167 0.32905465 -0.22452287 0.25446394 -0.040685717 0.19301409 0.328496 -0.024245394 0.25222787 0.2118577 0.3273042 -0.08648263 0.23128636 -0.25032738 -0.046252135 -0.051589925 -0.4231359 -0.016490566 0.09440605 0.007646032 -0.394529 0.13698222 -0.35034117 -0.35764772 -0.16259043 -0.037816223 -0.07525372 -0.06636112 -0.032919236 -0.010791808 0.04404737 -0.33244938 0.22756387 0.30329686 -0.23628546 -0.45190987 -0.13752918 -0.39845648 0.1310365 -0.20747381 -0.0558191 0.32151222
624 -0.1756596 -0.049937014 -0.04834585 -0.10812002 -0.16500054 0.043482136 0.13890179 0.09407449 -0.045090802 0.151371 0.19453114 -0.14444786 0.11460815 -0.2474837 -0.025359815 0.17353958 -0.3916797 0.030267017 0.0083260955 0.30930552 0.044247035 -0.2912981 0.015590844 0.005494199 0.03981464 -0.11858589 -0.17245515 -0.6324256 -0.16743383 0.041023407 0.08741071 0.08486523 0.32583746 0.1563503 0.039642822 -0.2211139 0.30989426 0.29473832 0.42046022 -0.19227786 0.30243897 -0.24819773 0.07153772 -0.4244169 0.272391 -0.20349509 -0.27658424 0.035861686 -0.5897474 0.5889822 0.10885625 0.20185934 0.8374664 -0.10032013 0.13489167 -0.0042948383 0.17531247 0.08229475 -0.29365772 0.18034388 -0.08693151 -0.18845095 -0.23029286 0.41614485 0.3113037 0.13987917 0.1039836 0.1460069 -0.17183268 -0.24694817 0.43993095 0.06881374 0.19542265 -0.26940536 0.056823447 0.32027042 -0.13537903 0.15930231 -0.10513518 0.17291613 -0.029033821 0.14989688 0.10636395 -0.30586362 0.47978425 -0.089425534 0.0071076984 -0.087555155 -0.32448563 0.1764382 -0.4217006 -0.51857847 -0.05318491 0.42607123 -0.47097522 0.014895 0.4252575 0.23704956 -0.058135673 0.27927402 0.15750408 0.13068673 -0.13604291 0.06757951 -0.33702394 -0.07987974 0.030645138 0.29778898 0.061329916 -0.18823572 -0.03984567 -0.24313067 0.12107829 -0.14291379 0.16114268 0.0486189 -0.39205202 -0.10836266 -0.11238716 -0.04968887 -0.4391499 -0.12285068 -0.273717 0.09814887 -0.2284892 0.19398983 -0.15603167 0.11842993
574 0.14411218 -0.08840706 0.033175897 -0.09108764 -0.02505167 0.24367288 0.18311368 -0.24332602 -0.26977912 -0.14417025 -0.08845487 -0.0014809563 -0.053878374 -0.1848613 0.3528429 -0.043228038 -0.12841712 0.3121835 0.03633078 -0.16214468 0.060626954 0.17222868 -0.34107155 0.051266234 0.15485527 0.10129132 0.34492108 -0.2645716 -0.17969503 0.33250272 -0.26985314 -0.1758916 0.11849816 0.33496928 0.023918474 0.3800448 -0.13966972 0.10834776 -0.06917622 -0.13918039 0.046060927 0.2927143 0.114298955 0.3165169 -0.006214156 -0.23491253 -0.5209483 -0.24407022 -0.38471738 -0.056227356 -0.31640825 -0.12856673 0.6106502 0.13683516 0.019456346 0.17223902 0.19325218 -0.21902394 0.08620583 0.08061399 -0.23720099 0.18503313 0.24376194 -0.15215659 -0.539374 0.1958089 -0.31604883 0.16643642 -0.16749948 -0.019279934 0.23280038 -0.2759323 0.16195975 -0.14313595 -0.15028632 0.35234204 -0.06175966 0.107167654 -0.32744718 0.037125334 -0.0325249 0.00070712273 -0.0030987149 0.2574931 0.016598025 -0.034180194 0.11968509 -0.021002512 0.34516037 0.3305211 0.09001425 -0.15302111 -0.30406547 -0.18394895 0.30504808 0.07741499 0.23006094 -0.34704673 -0.16370904 -0.5652566 -0.061157364 0.08176588 -0.10342453 -0.45438522 0.21766344 0.20291434 -0.30374292 -0.07153291 0.0052217916 -0.13623248 -0.19785811 0.016454084 0.027090967 -0.042295415 -0.46860886 -0.18558706 -0.29746413 -0.15129094 -0.22152674 -0.19314596 0.5302638 -0.19061229 0.021487627 0.5617588 -0.14970686 -0.6474821 -0.56132215 0.20919672
336 -0.11232141 0.15331918 -0.18964064 0.36742857 0.09857615 -0.02368044 0.24272095 0.10317322 0.178176 -0.39689726 0.13926658 0.22052218 0.024753483 0.28149387 0.40818176 0.12756734 -0.56921035 -0.3125417 -0.2824677 0.44285643 -0.30144048 -0.2128543 0.21204619 -0.14347053 0.03982652 0.22449428 -0.016834354 -0.1270742 -0.1489952 -0.44504094 0.14573509 0.07849441 -0.2699016 -0.020905564 0.028016172 0.17576025 0.24440409 -0.16870613 0.23112343 0.08445974 -0.3056615 -0.24912494 0.3920885 -0.025303738 0.030666426 0.2979104 -0.28527826 0.30187446 -0.36837384 0.20937857 0.10491675 -0.014126928 0.16709462 0.14608999 -0.035610083 0.33270752 0.2845996 0.032724615 -0.14372928 -0.061179694 0.10524114 0.13482611 -0.22190751 -0.05535951 0.020799907 -0.05773828 -0.33694965 0.51908386 -0.4154462 0.28448972 0.099088475 0.24041602 0.13833667 -0.25090426 0.25608367 0.24809396 -0.2891625 0.21329662 0.17016307 0.30873734 -0.49011314 0.16310476 0.15326056 0.116513975 0.13263644 0.082812704 -0.03862898 -0.3574362 -0.3379075 0.017736306 0.17168915 0.0033297644 0.41295654 -0.009432713 -0.5136023 -0.6537411 -0.022367187 0.36410448 -0.2937791 -0.557809 0.20571874 -0.07571541 0.1458524 -0.09252184 -0.24506739 -0.2907736 -0.046109658 0.0017080345 0.27078524 -0.18390419 0.30714136 0.34694806 -0.04829491 -0.18742307 0.21843418 0.5538079 -0.10065835 -0.0077064727 -0.02576619 0.13868585 -0.14634341 -0.41535354 -0.21013197 0.15469259 -0.14136074 -0.27411783 -0.45971444 0.009015254
43 -0.2397614 -0.07120725 -0.0965478 0.06347536 0.20667066 -0.021979861 -0.19768809 0.20078242 -0.1373086 -0.116149195 0.025885575 0.13341488 -0.17961453 -0.12938845 0.1804541 -0.15994416 -0.3709836 0.095989645 -0.011683003 0.33880764 0.0492435 0.07105673 -0.028005084 -0.17889974 -0.07232433 0.005843667 0.059825465 -0.028274063 0.0017292086 -0.33300453 -0.23708092 -0.031965133 0.14867547 -0.01966145 -0.43289572 -0.0005146839 -0.24808508 0.08081394 0.41569874 -0.116885096 0.044081584 0.07494084 0.029814545 -0.2884071 0.038380887 0.10824812 -0.40508893 0.2734166 -0.40512067 0.13239168 0.055563796 -0.095714904 -0.057315875 -0.01610007 -0.36959895 -0.0627745 0.2138892 -0.44452786 0.18727645 0.05029009 0.2002709 0.017606977 -0.21800281 0.27237982 0.42844805 -0.489669 -0.4201196 -0.036118183 -0.2845417 -0.42170915 -0.13961394 0.100985534 0.31058404 -0.2607716 0.2718884 0.0015706893 -0.120052695 -0.29268056 0.08900147 0.11003578 -0.013803226 -0.24967511 -0.160787 0.16322893 0.2393768 0.0018497407 0.18842912 -0.17374533 0.033967752 -0.17547609 0.09516049 -0.17353223 0.08838778 0.14371724 -0.2562051 -0.26004383 0.13139127 0.28543907 0.32156104 -0.11083712 0.0837594 0.0946924 0.13559 -0.056054607 0.057978407 -0.19510072 -0.033331465 0.16178551 -0.00206971 0.048366934 -0.20643911 -0.09872016 0.04447887 0.14458393 -0.19803008 -0.037868377 -0.4132163 0.108873345 -0.14966145 0.6747975 -0.23264126 -0.05982037 -0.21977466 0.013040402 0.045920454 -0.2224493 -0.31409976 -0.1447431
164 0.106571704 -0.47200298 0.014542723 -0.19230628 0.29715064 0.17782134 0.096217796 -0.122983895 0.12612891 -0.17743428 0.51662433 -0.36617318 0.009022981 -0.18588033 0.1996739 -0.095311046 -0.35330188 -0.1259711 -0.07262504 0.15724121 0.2879584 -0.09770395 -0.55341524 -0.2152201 0.31766707 -0.087996714 -0.21699953 0.23089212 -0.046457656 -0.21365304 0.24934897 -0.18993926 -0.05862914 0.12909305 -0.4307381 0.024896415 0.009204751 0.18010867 -0.04894222 0.03673462 0.23620735 -0.37774342 0.008110379 -0.19498551 0.38797566 -0.20768689 0.049340017 0.20354246 -0.15709163 0.17716892 0.12162426 0.27337438 -0.20441893 0.4980483 0.049781665 -0.058897004 0.05646658 0.5933833 0.23294376 -0.06571348 -0.33281124 0.038184468 0.24312516 0.1414557 0.041327607 0.24413872 -0.007097396 0.4401262 -0.1867411 0.12184302 0.37361923 0.14929101 -0.06216964 0.08581486 0.018550333 0.11902274 0.19124006 -0.39901152 0.11415045 0.086843304 0.048491992 -0.036407657 -0.062996656 0.047436897 -0.077899665 -0.038935907 0.062612474 -0.04859207 0.39315856 0.28559697 -0.13343662 -0.14150463 0.10266206 0.27024457 0.11126162 0.14822654 0.26171452 0.102578 0.09133151 0.052388385 0.007635531 0.14746201 -0.119936824 -0.119149275 0.27071142 0.021526592 -0.006890229 -0.36936852 -0.04594258 0.4594657 0.12464437 0.19073664 0.040657707 0.15257 0.12709244 -0.0065203775 -0.03130917 -0.73211694 0.07203177 -0.008706156 -0.44193155 -0.11254842 0.32578638 0.21767277 -0.18030189 -0.10706455 -0.2048989 -0.15209566
579 -0.13031475 0.11919087 -0.11038526 -0.27579328 0.32845128 -0.20850724 0.09273512 -0.20802987 -0.11846444 0.19092433 0.04413923 -0.29138246 0.13033728 0.23127548 0.5482571 -0.10861462 -0.27937895 -0.4506681 -0.1932155 -0.17030974 0.35792834 0.06337587 -0.03262862 0.24449827 0.11557593 0.05059141 0.6699625 -0.5718229 0.061943028 0.10070892 -0.0257461 0.007643711 0.04872536 0.16009697 -0.39033678 -0.48277456 -0.17646147 -0.27047426 -0.25189078 -0.14845541 0.09440321 -0.028919837 -0.1344506 0.05365407 -0.05873679 -0.057635624 0.06520774 -0.18036121 -0.3302916 -0.16622591 0.39645663 0.10961876 0.44844988 0.29557532 -0.12079305 -0.004456486 -0.1942417 0.08412197 0.4048068 -0.36944702 0.37869677 0.37907317 0.18619388 -0.1487706 -0.052074198 -0.15101162 0.0064404234 0.13954946 -0.5536581 0.010095047 -0.3558326 -0.17767948 0.03909889 0.15843323 -0.18175651 -0.30561835 0.11684356 -0.0001608792 -0.10369481 0.4603808 -0.50002843 -0.24955197 0.4274369 0.016925145 0.2250958 0.019565769 0.0237681 0.06744521 -0.091468245 0.24369133 -0.011234476 0.07338692 0.26001126 -0.15028416 0.24601312 0.33238828 0.06615914 -0.054954626 0.16952415 -0.2796801 0.15228046 -0.33894247 0.015534731 -0.20829117 0.5487755 0.18250118 -0.39970696 -0.2783902 -0.14761956 -0.29478928 -0.0056143883 -0.25242868 0.008264261 -0.30808014 -0.2946554 0.06439776 -0.17703572 0.09875443 -0.30749783 -0.17324823 0.3123597 -0.23126496 -0.2660908 0.006688014 -0.13835207 0.14706554 0.15216452 -0.029854506
97 -0.04933205 -0.28713477 -0.07241462 -0.23476183 0.2343792 0.1201961 -0.06863035 -0.18649311 -0.032789066 -0.10424259 0.18141948 0.1418081 -0.32807434 -0.057132915 0.42129856 -0.38650832 -0.22932345 -0.057748187 -0.039595928 -0.47561347 0.05215901 -0.44051582 -0.20990701 -0.023704095 0.008812839 0.12686194 -0.24815589 0.03551914 0.05827778 -0.11578609 0.24536912 -0.014272188 0.021274794 0.1449614 -0.014282565 0.26943064 -0.16954218 -0.16964947 0.42383948 0.08129862 0.07368787 -0.12784828 -0.055318587 0.19113578 0.0956353 -0.1711452 0.056073334 0.01159798 -0.5148272 -0.10575173 0.25975323 0.13629639 0.18661556 0.5648722 -0.119214565 -0.23409477 -0.41688776 0.25201213 0.25955608 0.25098428 0.31470308 0.16498455 0.15530339 0.036207415 0.1647533 0.2053743 0.22772671 0.21236658 0.33551982 -0.17281139 0.311354 -0.030043403 0.3109055 -0.3370876 -0.16381559 -0.20348582 -0.32038772 0.072745 -0.1446011 -0.011081476 -0.2621434 -0.13741848 0.1611214 -0.17225346 0.15674295 0.32288048 0.39165232 -0.0629784 0.14010093 -0.11184921 -0.1328207 -0.13354863 -0.17071825 0.2649387 -0.006633756 -0.15918924 -0.14620249 -0.17103074 0.04571753 -0.118826695 -0.2743754 -0.23259376 -0.55354583 0.30302507 -0.22499655 0.0721553 -0.102722585 -0.56516546 0.035770886 0.16080613 0.19980651 -0.2972446 -0.10604686 0.0011032703 0.3552519 0.012078018 -0.03524605 -0.21861489 -0.19973512 -0.13240726 -0.17937924 -0.13618895 -0.1237944 0.25521985 0.2666767 -0.11975394 -0.17396349 0.267102
673 0.18987343 -0.029932914 -0.14554022 0.11523375 -0.09930648 -0.28444684 -0.16513862 -0.19910403 0.16265024 -0.015316128 0.082969606 -0.108507544 0.0988692 -0.2293847 0.1077675 0.17390709 0.0129488595 0.44668 0.1885318 0.67854595 -0.22666134 0.10096706 0.00077241124 0.4284035 -0.01708641 -0.3313154 -0.18384334 0.29393184 0.24968217 0.3603776 0.07197462 -0.3517137 0.21030892 0.26490587 0.058823936 0.20964073 -0.12661098 -0.26779944 0.4377071 0.32786757 -0.059900567 0.5268702 -0.12134571 0.07277602 0.21260108 0.071403936 0.1324313 0.42310756 -0.2001684 0.1937887 -0.11781459 0.19606955 -0.23634379 0.38886914 -0.15410328 -0.091996215 0.0523862 0.29910582 0.097620435 0.09937299 -0.3564932 0.7187963 -0.37852076 -0.055594094 0.2842122 -0.10092672 -0.30623662 -0.07583017 -0.24230847 0.30168754 0.06530637 0.31573257 0.38176236 0.20286861 -0.36901468 -0.26236746 0.25457683 -0.30956075 0.31688902 0.0810881 -0.16472815 0.030540206 0.31877747 0.12997551 0.37355602 -0.21474648 0.06174147 -0.09816803 0.3612899 -0.07954141 -0.1871689 0.40943375 -0.12673187 0.015044623 -0.07343498 -0.09804233 0.47145298 -0.19772446 0.004570686 0.07232993 0.11581785 -0.008005265 -0.39106706 0.12666924 0.14585242 0.005398107 -0.097313896 -0.24474564 -0.0030409817 0.2550437 0.32112092 -0.24151792 0.36393178 -0.033132356 0.33506867 0.19016038 -0.017591204 -0.051619887 -0.39794362 -0.22945654 0.63052636 -0.27580038 -0.06502166 0.31971282 -0.14147063 -0.09745974 0.0049030287 -0.19947775
385 0.016265819 0.20879535 -0.17807938 0.12563777 0.062407725 0.28091055 0.103217065 -0.028299648 0.320111 -0.2061495 0.09583664 0.014542305 0.075582676 -0.021938447 0.27051842 -0.14028347 0.0146257905 -0.22341448 -0.17805208 0.05885994 0.083630644 -0.093701385 -0.050590884 -0.17775053 0.4736532 -0.21399428 -0.35076818 0.018678788 -0.08880495 0.06062522 0.0074263914 0.21988216 0.5101536 0.0024843453 0.2739531 0.39399454 0.27006653 0.17528628 -0.12731192 0.38181722 0.23138507 0.15262644 -0.21357249 -0.59983593 0.1843017 0.0066057527 -0.052617982 0.43639413 -0.1977799 0.09494318 -0.06089278 -0.4077159 0.3104186 0.011112035 -0.2790866 -0.12710439 0.0492111 -0.14796177 0.5597296 -0.00940056 -0.022273934 0.07340679 -0.10705984 -0.06272761 0.020512013 0.028494133 -0.47324038 -0.42932183 -0.16487327 -0.30452442 0.06611275 -0.21240447 0.19520922 -0.25425923 0.09684338 0.40158138 0.060773432 0.41132447 -0.21736634 -0.22146794 -0.47071645 -0.37042442 0.117845245 -0.11342313 -0.00037012214 0.19862741 0.05148872 0.13359028 0.09314809 -0.09952806 -0.18913393 -0.19174968 0.3076774 -0.090109564 -0.23786317 0.111236036 0.15021 0.044142913 0.006126695 0.030989243 -0.17147093 -0.08919841 -0.21615036 0.13061559 -0.00903949 -0.1810222 0.10575371 -0.09027253 -0.08461997 -0.23824225 -0.23867014 -0.1991212 -0.12836555 -0.0079890685 -0.12321663 -0.056636035 0.40759417 -0.25355247 0.0031455446 0.23459128 0.16337502 -0.16856126 0.16263758 0.2734047 -0.09090625 0.13623309 -0.1657316 0.015788894
405 0.015558581 -0.04960973 0.09749757 0.392131 0.20273887 -0.09169669 0.12523258 -0.29543316 -0.030787552 -0.14946625 0.070143074 -0.33503383 0.24282849 -0.28034046 0.14302641 0.15651259 -0.03074854 0.07888893 0.46354586 -0.058241732 0.005838012 0.006328739 -0.31518826 -0.27845618 0.24076395 0.015967308 -0.24748136 0.05114165 -0.39996698 -0.49335617 0.3861594 -0.30407202 0.17411251 0.34563246 -0.09664602 0.109069854 -0.13376635 0.008023808 0.35049367 -0.030201241 -0.21923424 0.16323437 0.12392743 -0.23362678 -0.17528722 -0.29590464 0.022496235 0.58778405 0.21949019 0.0902665 -0.1022019 0.06871255 0.47145483 -0.118681654 0.20210785 0.18360104 0.054218575 0.2320992 0.1489686 0.10527989 -0.36305118 -0.0026286368 -0.025752435 0.027369691 -0.22253889 -0.084957376 -0.13208407 0.19172391 -0.13198729 0.05328397 0.4110946 -0.18687786 0.27192464 -0.31580585 0.03619136 -0.2944754 0.020671438 0.014075926 0.09163736 0.5527939 -0.25219613 -0.3610725 0.45372236 -0.19165437 -0.10736366 0.24839082 0.25828618 0.39002275 0.07977741 -0.014738091 -0.20324998 0.21607366 -0.024440302 -0.108766794 0.06358923 -0.07538998 -0.038225286 -0.11461792 0.20627888 -0.2780237 -0.50970185 0.024376458 0.008034709 0.031197658 0.6046864 0.21758911 -0.042142753 -0.028536977 -0.21815617 0.0085861115 -0.151486 -0.39437187 0.0042053517 0.25549445 0.022417774 -0.037452318 -0.2767897 -0.14359003 -0.21119921 0.29652375 0.044901855 -0.51084256 -0.28081855 0.043376926 0.012828153 -0.4269855 0.13301785 -0.07668293
580 0.18588656 -0.111049816 -0.031963177 -0.2689029 0.27934143 0.08493459 0.05847447 -0.018090412 0.02834484 -0.3660364 -0.24684733 0.15043105 -0.06566574 0.37063742 -0.19753218 -0.048548453 0.09094116 0.2884583 -0.22494829 0.039779425 0.13272583 -0.119766146 -0.15299037 0.2592137 -0.11515384 0.8054246 0.03179835 -0.033770546 -0.24833812 -0.056299396 -0.003590174 -0.5656107 0.24849598 0.21361724 -0.32552817 0.07372766 -0.106208034 0.058353405 -0.29199317 0.43177623 0.02091826 0.27931312 -0.032922227 0.25495407 -0.14244519 -0.2517995 -0.2785824 0.19337817 -0.8473548 0.3205319 0.042339012 0.10259919 0.034118645 0.29844022 0.08761019 -0.19225499 0.029480165 0.26324233 -0.1859442 -0.3580282 0.00916721 -0.23247832 -0.20172358 -0.038280215 -0.69768816 -0.5025642 -0.006324769 -0.058565848 -0.28552756 0.12920961 0.05310486 -0.044011083 -0.09568304 -0.18522924 -0.04820981 -0.44175377 0.15488113 0.20482944 0.087892376 -0.026127743 0.12827727 -0.38031662 0.3003182 0.017605154 -0.045602653 -0.2765647 -0.16606283 -0.093809776 0.15495849 0.002555603 0.23648806 -0.2438891 -0.14551482 -0.22146459 0.13265152 0.19263227 -0.2007075 -0.013084856 0.3567457 0.0596879 0.15152602 -0.17657477 0.07625326 -0.21750332 0.20397276 -0.057158552 -0.09937086 0.36001393 0.045196626 -0.22260115 -0.21209511 0.16334917 -0.23477712 0.16519685 0.055702582 -0.36497208 -0.09476968 -0.17023115 -0.14442724 0.078180656 0.0033388424 -0.3308412 -0.053320486 0.21933256 -0.2904527 -0.052068077 -0.08555425 0.17775682
381 -0.21719801 0.007506013 -0.25627574 0.39349306 -0.035695296 0.15613829 0.2977426 -0.065844186 0.14747462 -0.19154726 0.008981578 0.116373554 -0.010476878 0.45090893 0.48213738 0.11833931 -0.16953033 -0.28982192 -0.11928489 0.2658707 -0.39497235 0.009145596 0.17150679 -0.20036943 0.055762965 0.23776136 0.04565368 -0.1395677 -0.097482294 -0.47149324 0.2583905 -0.07744814 -0.3697645 0.24734916 -0.014054226 0.21628131 0.111162275 -0.0318902 -0.008858016 0.058824375 -0.26977724 0.040352184 0.18173967 0.10976656 -0.06327249 0.16212283 -0.1052542 0.20122555 -0.37533855 0.43953466 0.13018893 0.31149608 -0.0008753676 0.07516222 -0.15871143 0.40130824 0.373125 0.01577446 -0.15202329 0.13490596 -0.026183048 0.32805446 -0.18385738 -0.1845033 0.23724827 0.17467605 -0.15370254 0.502091 -0.6126361 0.404841 0.3740408 0.048436534 0.3095462 -0.27806157 0.16093352 0.2251229 -0.4001273 0.19501615 -0.081268474 0.16367917 -0.23106341 -0.20330547 0.12161913 0.052476563 0.111726746 0.2749566 -0.26803368 -0.19974224 0.040104788 0.15460491 0.19536813 -0.08204805 0.34346303 0.0999983 -0.40713176 -0.64864534 -0.005153876 0.36696675 -0.30744246 -0.56769997 0.42568916 0.021779032 0.07797033 -0.04350142 -0.39517882 -0.04717568 -0.06848788 -0.014092631 0.31168935 -0.15010802 0.20489725 0.2247904 0.059091456 -0.067944646 0.16408639 0.39948526 -0.23891564 0.0058718403 -0.16953889 -0.25928095 0.040831596 -0.40965194 -0.5016392 0.0977556 -0.49207905 -0.21613397 -0.4606584 0.13559827
15 0.5525615 -0.101130925 -0.15245 -0.15228292 0.1588947 -0.072837494 -0.13573447 0.09325765 -0.29784817 0.07922658 -0.05940848 0.10797807 0.08384951 0.16346823 -0.07725513 -0.25508422 0.06425309 0.00502194 -0.06061095 -0.22389181 -0.4651109 0.07034095 0.18477471 0.06289215 0.56458044 0.38363057 -0.27399155 0.26595497 -0.25905588 0.16926005 0.099480286 0.09039278 -0.016656093 -0.0451943 -0.02055409 0.448511 -0.06717309 -0.13655761 0.031399447 -0.4983283 0.055866085 0.10730812 -0.22042084 0.16262226 0.16690324 -0.12329933 -0.16017865 0.0138906045 -0.3096737 0.1104836 0.4652523 0.3154148 0.30548197 0.19112276 0.19104023 0.19540113 -0.15786855 0.1511021 -0.011465343 0.14625236 0.13299079 0.17501776 -0.465223 0.2249829 -0.2173427 -0.073210105 -0.319966 -0.18113977 -0.38656855 -0.19402723 0.196559 0.5184403 -0.28781888 0.17635034 0.8450071 0.025534444 -0.26202533 0.20017846 0.029245911 0.22864893 -0.7017712 0.56125534 0.40109032 -0.13458815 0.119889215 0.11541392 -0.25801346 -0.45430732 -0.13522814 0.019867854 0.17289534 -0.24307056 0.47780782 0.14439379 -0.0816561 -0.13837177 0.06475458 -0.21659298 0.05995973 -0.73732644 0.42074278 -0.072324045 -0.04970849 0.05059577 0.06898843 -0.119695954 0.14881249 -0.4179216 -0.07952909 -0.016261792 -0.17547888 0.062915035 -0.41187564 -0.18638319 0.17139775 -0.047418267 0.21204124 0.38095507 0.20439276 0.1274065 -0.3367793 0.10169642 -0.1689992 0.22122096 -0.28205967 -0.14480795 -0.10857883 0.27674696
287 -0.18737644 -0.2831134 0.16846025 -0.01877054 0.60974026 0.0032629282 0.20400496 0.40089467 -0.056216966 -0.04210896 0.2502828 0.0059681553 0.16836895 0.29267856 0.27408788 -0.0072489707 -0.36065567 -0.21909617 -0.089692384 -0.250576 0.014388347 0.08521869 0.017489977 0.015159932 0.14040755 0.08351156 -0.19408317 -0.21574749 -0.04002326 0.3519418 0.024027325 0.011344999 0.29766446 -0.12676966 -0.21373546 0.05049893 -0.16945924 -0.32824835 0.2745842 0.02060945 -0.45035654 0.2097661 0.13253473 0.10239586 -0.26635975 -0.29156768 -0.571145 -0.090885125 0.11727321 -0.11147849 -0.092320055 0.21147253 0.19758101 0.010595888 0.22318798 0.29106814 -0.211129 0.20903037 0.22158653 -0.43919033 0.18113884 0.27217397 -0.07175729 0.03953717 0.41409504 0.013250921 0.0059541096 -0.12687388 0.07998212 0.27061993 0.23737852 0.28549734 -0.11882 0.10842023 0.19019438 -0.05421204 0.17202836 0.091844186 -0.14916791 0.26881233 -0.29678223 -0.034859665 0.13036728 0.23899993 0.30856806 0.14796942 0.22267553 0.34612224 -0.23736028 -0.16144876 -0.5338538 -0.44896355 -0.34915474 -0.18887329 0.044506676 0.028356504 0.042610023 -0.015433703 0.5272421 0.010838716 0.2548652 -0.29074872 -0.000329038 0.09246805 -0.41306284 0.22000746 -0.0135420915 0.093728065 0.1662559 0.19821303 -0.18784177 0.061617263 0.27654234 -0.01684735 0.002463513 0.5138804 0.10991721 -0.26053753 0.17543556 -0.39682814 -0.4950517 0.14449888 0.11389438 0.12814799 -0.57367593 0.13873333 0.039093062 0.22424373
586 -0.13313164 -0.11430302 -0.099529915 -0.12524922 0.6405603 -0.273065 0.14063485 0.39744657 0.020427538 -0.20654388 0.18733904 -0.004309038 0.33458397 0.09439725 0.32138127 -0.2496537 -0.24296077 -0.29419437 -0.04885123 -0.05718336 -0.022380125 0.029349308 0.1436184 0.15172775 0.1301771 0.21887821 -0.068468444 0.0025547286 -0.1289758 0.35773522 -0.13229063 0.032383252 0.3138478 -0.07114974 -0.4122632 0.19067869 -0.03032546 -0.40352285 0.26563513 -0.104210064 -0.13686106 0.32685792 0.15796596 0.13006967 -0.46073076 -0.26853055 -0.51478237 -0.2203025 0.199901 0.03225546 -0.15812252 0.26618576 0.19861715 0.13637991 0.23982964 0.0726878 -0.16958424 0.31913742 0.32340717 -0.54227585 0.17342015 0.44203705 -0.048625577 0.085911274 0.47809133 0.08950705 -0.053545162 -0.14791833 0.048234414 0.2534415 0.04747056 0.05261138 -0.12870967 0.30475876 0.20561971 -0.18819383 -0.08610052 0.11355026 -0.12336293 0.2093749 -0.4610027 -0.2835751 0.07830707 0.23417279 -0.012556462 0.20976277 0.15387176 0.15027344 -0.08042301 -0.2682677 -0.56868386 -0.29012522 -0.052391235 -0.048303716 0.050945263 0.06540109 0.005605242 0.06305135 0.25290853 -0.17029178 0.35329825 -0.20005764 -0.10719867 -0.007397365 -0.17153001 0.07293028 -0.12433168 0.28019357 -0.035180442 -0.18753675 -0.23495455 -0.08243499 0.26969975 -0.08898119 -0.18057145 0.48121774 -0.008317792 -0.576034 0.34522983 -0.055246934 -0.52764827 -0.15787192 -0.042010803 0.09149835 -0.38693345 0.10996426 0.12105881 -0.0712138
46 0.053383835 0.15524703 0.18790987 0.020897195 0.22786337 -0.42360863 -0.15252271 -0.057290066 -0.1322716 0.3627721 0.2761047 0.071675815 -0.038345475 -0.1625174 -0.23366362 0.46474168 0.039877944 0.015700921 -1.2065466e-05 0.1867973 -0.07751069 -0.36702016 -0.0748132 -0.15046208 0.18323275 0.07093121 -0.17254649 -0.4045567 0.09419239 0.3659495 -0.027933514 -0.09273879 0.13206924 0.19718035 0.2685962 -0.059643727 -0.00015361943 -0.19340628 -0.002599197 0.055294607 -0.0704328 0.019858893 0.3805655 -0.36659995 0.6850686 -0.45528555 -0.74814403 -0.061721228 -0.08526076 0.49256393 0.04773043 0.28392807 0.07293334 -0.346874 0.09109541 -0.049734265 0.006009225 -0.02448488 -0.12262243 -0.017692355 0.079418 0.1563358 -0.59795076 0.21344367 0.465053 -0.08692838 0.012043168 -0.14869106 -0.090784624 -0.121816576 0.26491526 0.11505406 -0.10775511 -0.30935702 0.2992434 -0.05024337 0.01920681 0.07528758 -0.30292147 0.13264684 -0.2618957 0.3509472 -0.10107093 -0.0080396375 0.23150174 -0.044525694 0.014478705 0.13994378 0.11350635 -0.16592956 -0.45768917 -0.32509157 -0.34559473 0.16557363 -0.3240499 0.20119199 -0.0015024329 0.06280736 0.17072652 -0.26200762 0.1126239 0.14266992 -0.042574104 -0.16373935 -0.33079597 -0.112200886 -0.07216893 -0.3154068 -0.122062825 -0.13655731 -0.09209594 -0.0836104 -0.07810443 -0.20114432 0.016064921 -0.10867349 0.25131062 -0.10268515 -0.10091931 -0.06820424 -0.095038936 -0.44309023 0.19733147 0.057181854 -0.14312689 0.27600193 -0.20403725 0.21696328
