439 128
20 0.061292347 0.13918057 0.06361509 0.08149409 0.027815834 -0.020113355 0.0076807598 0.1918252 0.17457941 -0.08671641 -0.029628167 -0.09889905 -0.032728184 -0.32193774 0.17242156 0.09043179 0.194054 0.176549 0.104545645 0.09823412 -0.26964453 -0.17879614 -0.18520577 0.056263506 0.019436505 0.09870268 0.033731006 -0.29130036 0.08287905 0.22518651 0.0011272181 -0.20775633 0.11448454 -0.071936004 -0.14454164 0.30331954 -0.09775416 0.07419555 0.23184617 0.27396598 -0.18095785 -0.060135845 -0.02402638 0.0327487 0.13553631 -0.12598105 0.03963914 0.14030081 -0.3738998 0.032993466 -0.097772636 -0.11632665 0.11010716 0.03991846 0.14336629 0.044006407 0.025347196 -0.21092226 0.13770431 0.09881663 -0.10228903 0.03259802 0.14603941 0.2640322 0.2567599 -0.09239034 0.10654476 0.21580908 0.029045181 0.016146125 0.013988306 -0.03904722 -0.15079156 0.03956756 0.037615165 0.06788469 0.0814144 -0.011276586 -0.08675366 0.0022701565 -0.05474888 -0.15348352 -0.21916108 0.121803865 -0.0164083 -0.14390849 -0.25642523 -0.08741319 0.043413203 -0.12512122 0.017307486 0.08945405 -0.17103319 -0.038376246 0.11900186 -0.09191804 -0.095798895 -0.03958772 -0.09171526 -0.04131181 -0.20104422 -0.010431677 -0.31461272 -0.10389365 -0.37695295 -0.21918693 -0.0072014043 -0.030057847 -0.06701322 -0.29421973 0.040617123 -0.3876345 -0.03227995 0.06910069 0.025858019 0.107558265 0.04633485 0.04134089 0.17077729 0.044749934 0.010733407 -0.03435504 -0.1744841 0.08193597 0.018036285 0.045756236 0.079076126 0.024553698
4171 -0.096370965 -0.0055690175 0.0948682 0.020089671 0.1708405 -0.07599599 -0.0152622955 0.27653205 0.09081505 -0.07626009 0.26446486 0.09262289 -0.2413046 -0.06742951 0.09686106 -0.06839827 0.19229554 -0.21995972 0.07683864 -0.079967014 -0.058722325 -0.30153748 0.09663332 -0.12897855 -0.1862108 -0.13655679 -0.07464418 0.20957528 0.09465364 -0.119586155 -0.07328635 -0.11353994 0.15593712 0.32468182 -0.086426266 -0.26927975 0.028844085 0.019291233 -0.08012553 0.19497825 0.09570241 0.0073298565 0.3408355 0.27323392 0.06537267 -0.14851223 -0.12336102 -0.013305413 -0.14192761 0.09455447 0.16666643 0.03567871 -0.019416958 -0.22598717 -0.052105848 -0.08525837 0.11119369 -0.3006237 0.23598024 0.15213625 -0.08189845 0.13885215 -0.135038 0.106776685 0.36859795 0.16690461 0.089816295 0.15811522 -0.017872803 0.1078555 0.05044305 -0.07768476 0.10858135 0.12973316 -0.06858569 -0.04987127 0.15693077 0.026845435 -0.033416063 0.17068814 -0.14804213 0.18904406 -0.19629966 0.0682201 0.1329345 -0.06806943 -0.20892926 -0.12572621 -0.15711749 -0.1513711 -0.04886007 0.2569246 -0.053785674 0.07130682 -0.1234438 -0.12079287 0.06613659 -0.088121675 -0.02960249 0.22785962 0.011479107 -0.1237402 -0.08846973 0.027461722 -0.16053826 -0.10036168 -0.2268754 0.0672488 -0.113895655 -0.17292537 0.31422666 -0.20200746 -0.29420924 -0.17271346 0.10792985 0.10519534 -0.02131973 -0.20404008 0.106470995 0.012300931 -0.008740006 -0.059282802 -0.27418327 0.31240967 -0.148734 0.082239866 0.20809081 -0.0016808574
3623 -0.07678996 -0.06273089 0.004730868 0.11592027 0.07894623 0.06783208 -0.079917945 0.09722128 0.27932456 0.15728149 0.116229855 -0.0067817788 -0.042902425 0.13615607 0.23814975 -0.059094995 0.051116735 -0.025292234 -0.078739166 -0.13441013 0.06860276 0.085940085 0.08539185 0.017124362 -0.11340199 0.09091083 0.041011203 -0.14499693 0.003100856 0.07067843 -0.040994108 -0.12320179 -0.0036282449 0.20445676 -0.02229101 0.2536465 0.1842372 -0.15164436 0.28172037 0.16998067 0.09015906 -0.15368363 0.14508916 0.073854424 -0.15477213 0.21854207 0.04363158 0.006051238 -0.012245073 -0.02615337 0.03723711 0.031097723 -0.07352656 0.06761865 -0.1222798 -0.08726279 0.2041973 -0.03506955 0.24532038 0.08569281 0.0891468 -0.06819908 0.0036921017 -0.08014558 0.17757584 -0.03950012 -0.08832242 0.04519565 0.10399582 0.10919266 0.14216821 0.21554819 0.024426406 -0.0069079963 -0.09194754 -0.15310346 -0.03960996 0.03389234 0.055946454 0.12130465 -0.12735833 0.0013644638 -0.19943237 -0.012399927 0.05204281 0.025232213 -0.18338765 -0.21856837 -0.012446375 -0.072854444 -0.17181616 0.09876875 -0.049350392 -0.07406563 -0.03634766 0.07673676 0.10229388 -0.014629119 -0.16672704 -0.20074932 0.029636322 -0.104477815 -0.078958064 -0.11714343 -0.03637343 0.08728922 -0.14772606 0.3561772 0.15469751 -0.18730123 0.33655125 -0.07034793 0.01843374 0.0375325 -0.072752394 0.082828425 0.020174257 -0.07635141 0.1577588 -0.14802338 -0.050949834 -0.22511813 -0.05045631 0.18205196 0.16705504 0.035731137 -0.061718795 -0.120500825
5135 -0.07041191 -0.008549521 -0.19223869 0.08733999 0.12855902 0.024634505 -0.087415874 0.16059662 -0.068185806 -0.14235419 0.14612247 -0.059917953 0.023807354 0.13131626 -0.034237795 -0.15251648 0.12242931 0.07647891 0.06299516 0.034785274 0.20677991 -0.26007175 -0.006615472 0.17414424 0.20401555 -0.016706107 -0.13392475 -0.23710486 0.10370601 -0.08220629 -0.005829702 -0.096554115 0.06459214 0.15993026 -0.19042747 0.18277586 0.27444223 0.06985334 -0.073023334 0.19403146 -0.082588606 -0.085620426 0.26552564 0.22451352 -0.06967896 -0.11259147 0.23748644 -0.113374226 -0.197778 0.066428326 0.13916028 -0.004918346 0.073540375 -0.15692486 0.08174752 -0.15944113 0.051789757 -0.26090235 -0.024861772 0.17579328 -0.083765335 -0.021711314 -0.06199416 -0.037682075 -0.17842546 0.074340805 0.10976453 0.1806173 0.08584149 0.12262151 0.12301964 0.0024999636 -0.025591567 -0.007309812 0.027166555 0.08224082 0.11240957 -0.019728335 -0.15901247 -0.013798176 -0.084596284 -0.22596212 -0.19385836 0.0482567 0.15333013 -0.01267494 -0.15987864 -0.033995435 -0.09261202 -0.3150979 -0.28679407 0.18348706 -0.24495476 0.12685071 0.09995736 -0.08471769 0.078547545 -0.20792401 -0.046009272 -0.0018598374 -0.011482035 -0.014926345 -0.36569104 -0.16320509 -0.10460306 -0.16365664 0.02008446 0.06614024 -0.067187265 -0.08183485 0.2781198 -0.093786515 0.15279688 0.0037506467 0.091059454 0.035250768 -0.026785396 -0.006994203 0.034534503 -0.22833781 0.009796577 0.11177241 -0.05266729 0.19218832 -0.08598586 0.043475542 0.13713205 -0.032880783
4854 -0.072786324 0.010464242 -0.14406715 0.1688927 -0.06008643 0.158659 -0.019568108 0.010126544 -0.031103004 -0.18070258 0.37045732 -0.15378298 0.103942074 0.050117854 0.17368054 0.15560721 0.13817613 -0.04560867 -0.15388218 -0.007091494 -0.014857567 0.043645818 -0.028694382 -0.013112776 0.16495752 -0.0011957457 0.041675285 0.18069221 0.18074474 0.18411762 -0.051006846 -0.022113426 0.21194792 0.077000685 -0.029379195 0.28474817 0.16686147 -0.19310658 0.27801478 0.22628397 0.19691214 -0.19829446 0.20031452 0.17630982 0.35052404 -0.05036804 -0.116984636 -0.0906273 -0.10769361 0.011248842 0.02403345 0.047012288 -0.021896895 -0.3111629 -0.11946828 -0.015282799 0.21431312 0.08020689 0.2011927 -0.011593965 0.09619606 0.07280606 -0.116105385 0.081166945 -0.008290944 -0.03915091 -0.06787651 0.061769202 0.026312696 -0.15825664 0.020475104 0.083044946 -0.13643537 -0.2046108 0.08004421 -0.10993123 -0.047347423 -0.23248573 0.013228828 0.02828038 -0.052743576 -0.021439934 0.020481648 0.06929484 -0.06715217 -0.15580945 -0.043742973 0.05161543 0.03978184 0.07443298 -0.13275044 0.15968838 -0.068142965 -0.056958586 -0.17533706 0.04856094 -0.11600206 -0.09097978 -0.19569637 0.029701075 0.07614539 0.04606435 -0.04323729 -0.13233566 0.020955816 0.19289204 -0.10951636 0.09274688 0.011924116 0.11406471 0.19333711 -0.1727104 0.008952197 -0.09633843 -0.044150665 0.17300618 0.16091397 0.04902729 0.10350557 0.071261056 0.022797605 -0.021726621 -0.06938988 0.03160743 0.029825484 0.27573058 -0.0473745 -0.021298261
3838 -0.12027182 0.024436293 0.1492976 0.00954326 0.046054844 0.22452354 -0.021513294 0.08214538 0.16164608 -0.17521077 0.068912275 -0.006422439 -0.098815314 -0.09672226 0.15626636 0.028832132 -0.052941218 0.019288033 -0.22080018 0.046142824 0.04440235 -0.35834414 -0.11546236 0.18651931 -0.20755938 -0.059772994 0.113671556 0.081635065 0.13375872 0.20182538 -0.05152372 -0.32833916 -0.05314109 0.062861666 0.0034363475 0.52926636 0.058021266 0.05445062 0.10219527 0.06390068 0.0021096459 -0.21406968 0.048799906 0.10644598 0.067152366 0.19941625 -0.1694323 -0.107987575 -0.23947662 0.050717175 -0.08762699 -0.10616776 -0.0023964462 -0.075848855 0.13459432 -0.1667252 0.13911302 -0.17082639 0.18162258 0.12628087 -0.101117894 0.098925784 0.0056240573 0.041947544 0.07594242 -0.08803874 -0.1554309 0.27877373 -0.1249718 -0.06979413 -0.037667055 0.06330471 0.010752201 0.0019771454 0.21990053 -0.16115555 0.05055656 -0.30665517 0.11762439 0.09452417 0.030838719 -0.0060303756 -0.015581469 -0.28786662 0.019039325 -0.063285165 -0.19879425 -0.11152846 -0.098352216 -0.06892747 -0.18708214 0.21206431 0.031369258 -0.13889061 0.22057596 -0.0338695 -0.04227865 -0.20448713 -0.105535805 0.17605993 0.0771972 -0.03629246 -0.055146053 -0.05555169 -0.16125534 -0.048827052 0.030998534 0.102755256 -0.058875807 -0.14003958 0.21061821 -0.083028674 0.05075198 -0.007651552 0.28429615 0.09319824 -0.056679163 -0.017886646 -0.063142665 0.13424663 0.007111147 -0.27345636 0.07233621 0.15223841 0.09625837 0.16256249 0.06966111 -0.0020220978
1494 0.121105984 0.056148414 -0.07118809 0.0668688 0.03415716 -0.018654281 -0.15258764 0.08724339 -0.071946554 0.0018782407 0.07417813 -0.059131276 0.12771554 -0.22336584 -0.08041713 -0.14591236 0.120714664 -0.0807127 -0.12482929 0.22590607 0.049580723 -0.20920055 -0.0035287153 -0.18268149 -0.0427511 0.28831849 0.11111777 0.09697798 0.2601606 0.004935513 -0.0929534 0.059107248 -0.017301155 0.0513029 -0.25488403 0.07921117 0.15067624 0.12972236 -0.05830702 0.34007302 -0.094739534 0.1835356 -0.0261388 -0.021286527 0.19681469 0.051978923 0.09303543 -0.028304502 -0.13816905 -0.10792321 -0.025784573 -0.23414268 -0.17314386 -0.1237941 -0.1000253 0.010821707 0.17879942 -0.25112823 0.22492968 0.16160825 0.16768388 0.096865214 -0.07363557 0.015368138 0.018487116 -0.103038944 0.17868437 -0.111721426 0.021206515 -0.27361357 0.2907665 0.14236182 -0.2509852 -0.19074339 -0.15695412 -0.36064526 0.12628193 0.18492769 -0.07291171 0.011959377 0.11750673 -0.04065988 0.0083115315 -0.042129114 0.12999313 0.10995486 0.014173607 0.10723015 0.03266389 -0.2552839 -0.34798175 -0.083367795 -0.19400857 -0.0105814515 0.06395704 0.078850225 -0.22778708 0.002064889 -0.22135372 0.02426192 -0.09413857 -0.15259407 0.06367942 0.05638999 0.24125552 -0.10243151 -0.08498507 -0.036696427 -0.1640141 -0.06566004 0.18332927 -0.059401147 -0.1215615 -0.053557646 -0.16952597 -0.0506614 0.08456391 -0.021596583 0.037531547 -0.15911815 0.072994225 0.06696043 0.16489482 -0.0931907 0.13434061 0.04102267 -0.25295132 0.015434334
1595 0.07050717 0.13990156 -0.03560477 0.21837561 -0.15317646 0.19625016 0.07934821 0.45656458 -0.05935347 0.116526514 0.17043723 -0.10393462 0.07013472 -0.06015944 0.028563626 -0.10224974 -0.043974664 0.14541604 -0.17608564 0.015802959 -0.016092865 -0.12661004 0.1862859 -0.050564382 0.053414814 0.10759361 0.03556354 -0.1393285 0.07646566 -0.23039043 -0.07874082 -0.0063355644 0.13853317 0.16036291 -0.06490019 -0.05479462 0.13410729 -0.017098678 -0.062165357 0.3108707 0.064225025 0.059503194 0.1881972 0.17003833 0.03223844 0.24714775 0.099597715 0.09295593 -0.2138848 0.035280954 -0.040477365 -0.073090754 0.16192983 0.106081165 -0.18476297 -0.0010587762 0.23242006 0.021750715 -0.1845446 -0.095196865 0.06454368 -0.11978759 -0.19048099 0.03618699 0.08241334 -0.096544154 -0.006963628 0.12400183 0.061280634 -0.047773834 -0.1347196 -0.05159288 0.10085373 -0.088358834 0.039933767 -0.2067274 0.07933143 -0.21990293 0.054271396 0.10288694 0.09756055 -0.1397736 0.053296573 0.061976984 -0.040874355 -0.033783786 -0.20703009 0.1667675 0.13191918 -0.11072288 -0.2077701 0.20727983 -0.14989832 -0.13582964 -0.08683968 0.17218648 0.09068174 -0.193769 -0.32251936 -0.03984881 0.04533075 0.040684782 -0.12121993 -0.05814872 -0.019902788 0.022599336 0.11356361 0.05741026 0.23453452 0.014203289 0.33447483 0.010280634 -0.04970534 -0.2365363 -0.07214292 -0.3922593 0.262825 -0.06985865 0.02073673 0.017699447 -0.12745416 -0.086396724 0.06930475 0.030298056 -0.11511961 0.077815525 -0.12885454 0.051833846
5 -0.15929642 -0.14804383 -0.32298774 0.026255293 0.38889298 0.21450979 0.016727014 0.15099573 0.0011759703 0.12752694 0.015978461 0.175128 -0.15186036 0.17038707 0.0028362344 -0.1289603 -0.13054286 -0.049765464 -0.16173099 0.2907897 -0.101822 -0.027131347 0.10750468 0.08152405 -0.29313198 0.15959644 0.022038478 -0.20012432 0.023574779 0.021771168 0.111694425 -0.19951762 0.040864095 0.010906068 -0.115017295 0.1771336 -0.13937904 -0.021444691 0.2789441 0.10089131 -0.008484073 -0.2821656 0.21335328 0.041982554 0.07914621 0.015271959 0.09078523 -0.05902427 -0.20855252 0.07580244 -0.16479313 0.031810593 -0.022766853 -0.2112587 -0.06327694 0.09813761 0.38239214 0.032213584 0.026971621 0.020419203 0.3138079 -0.037163563 -0.21031828 0.17879973 -0.0321662 -0.0112657705 -0.0059724 0.18478942 0.048811585 0.094430946 -0.18492536 0.20284712 -0.08802174 -0.20037173 0.021821355 -0.16936588 0.15241069 -0.089278385 -0.29585594 -0.11516231 0.03389824 -0.020105438 0.124933876 -0.020510131 0.26758417 -0.05891384 0.11534348 -0.3297878 -0.16236362 0.21070267 -0.24369316 0.19899659 -0.13742585 0.036063816 0.03343186 0.06467166 -0.072675206 -0.04857776 -0.20751493 -0.39798945 -0.14492483 -0.2289563 -0.004788756 -0.21021724 -0.13228288 -0.12712415 -0.17436634 0.07176549 0.15971935 -0.07836889 0.25108406 -0.08012732 0.26344895 -0.2468712 -0.24257809 -0.02511017 -0.0949681 -0.0495532 -0.123241894 0.11752822 -0.08389421 -0.18690977 -0.027419617 0.11750133 -0.12889369 -0.13589215 -0.20952748 -0.24877466
339 -0.08645235 0.12314441 -0.13490711 0.065557554 -0.031429943 0.16963592 -0.026674338 0.23607135 0.05264352 -0.13110353 0.17699471 -0.026829077 0.10678506 -0.27853844 0.013138276 -0.028050736 -0.21419609 -0.16559929 -0.36961153 0.09454216 -0.08820834 0.13031133 0.02707193 -0.0016961361 -0.15715344 -0.1059443 0.028498985 -0.4036689 0.11475208 -0.0029797459 0.010202561 -0.15473092 -0.12246235 0.10576813 -0.2907539 0.01947413 0.021318115 -0.09013964 -0.024591045 0.24679805 0.003286627 -0.43756646 -0.11768045 -0.06580388 0.027831871 0.029350257 -0.23374294 -0.2260047 -0.098269224 -0.013138033 0.16820587 0.20569448 -0.3338144 0.10172764 -0.37088907 -0.17726605 0.043980554 -0.39046857 0.07803664 -0.02631602 0.0018032525 -0.040935636 0.008955442 -0.17394836 0.15738887 -0.075479075 0.094819956 0.2818343 -0.091139525 0.08413758 -0.004409083 0.18278691 0.044288848 0.03571231 0.03560275 -0.015405163 0.07120596 -0.161575 0.1410885 0.10690641 -0.06383769 -0.078638636 -0.19589296 0.08032451 -0.041680038 -0.09973799 -0.014038219 -0.03508762 -0.16995297 -0.014025829 0.19944133 -0.10521654 -0.2934938 -0.0014313007 -0.06703984 -0.061020717 0.20844865 -0.040111832 -0.13485609 -0.050237004 -0.14938697 -0.13168308 0.03336529 0.031848963 0.10272102 0.0329442 -0.15226354 0.25103155 0.04511853 -0.28449678 0.32411563 -0.013985812 -0.12396074 -0.052030593 0.059047345 0.1284376 -0.0761385 0.0037172744 -0.009878974 0.08845324 0.074280255 0.09628514 -0.041462008 0.15811484 -0.039335612 0.010436203 -0.08100397 -0.09531514
16 -0.17422003 0.13860737 0.0500815 -0.023068395 0.101031736 0.20870106 -0.121179424 0.24514362 -0.015230107 -0.17650458 0.006554324 -0.1398179 -0.2902723 0.04907057 -0.08461319 0.21134701 0.11194442 -0.027298417 -0.2842713 0.33306256 0.0356282 0.014358753 0.047939382 0.14811678 0.01886504 0.12241832 0.32996526 0.01495225 0.06237761 -0.057958122 -0.1301472 -0.2743725 -0.1768497 -0.04907822 -0.22107626 0.32166693 0.023000525 0.011894451 0.18601514 0.19649535 0.035825346 -0.22338417 0.2943688 0.077658355 0.142918 -0.07560824 -0.32511878 0.011184508 -0.02378771 0.2192961 0.024932608 0.0030591693 -0.02887353 -0.11596295 -0.041517373 -0.22791703 -0.031236788 -0.048589084 0.2482049 0.27872866 0.14005461 0.26204064 -0.09353654 0.15537992 0.13618925 -0.18987353 0.020656068 0.21032234 -0.1429439 0.22337915 0.0506322 0.029654315 -0.15215099 -0.015650004 0.49320674 0.108136356 0.038453408 -0.22252698 -0.1417114 -0.08358808 0.052035946 0.06819697 -0.055783488 -0.03405454 0.021660866 -0.40208602 -0.30943787 -0.27934995 0.028890911 0.104338445 -0.11946535 0.017374294 -0.20196593 -0.5078804 -0.09257835 0.038759276 -0.019465687 -0.29280654 0.0723122 0.1523065 0.0475736 -0.12986627 -0.09288349 0.17709747 0.059198827 0.056620654 0.24189813 -0.12624878 0.12618154 -0.25658616 0.571049 -0.23148209 0.13795102 -0.11362685 -0.09988664 -0.19251344 0.028279558 0.059857044 0.19991198 0.20165765 -0.2181809 0.026111692 -0.016184343 0.07996843 0.48582035 0.32483158 -0.019308824 0.005550534
1049 0.026485465 -0.26308674 0.009350252 0.005385626 0.10708373 0.02964994 0.16766852 0.1615357 -0.21878996 -0.058837373 0.2231152 0.0011650408 -0.14676702 -0.20430078 0.18756157 -0.09584554 -0.10161754 0.34247574 0.0050727306 0.029563151 0.16788644 -0.080299236 -0.006578016 -0.21928228 -0.00849149 0.12909634 -0.022777429 0.08482728 0.0034455862 -0.17341398 -0.061345816 -0.12743212 0.18460488 0.12378502 -0.3196849 0.18400517 -0.0021705031 0.05477561 -0.17411451 0.19143751 0.1926119 -0.036552873 -0.06560848 0.23135677 0.24223594 -0.0011069747 -0.17865762 -0.008612879 -0.13942763 0.11112484 -0.012096091 -0.0080347145 0.24463798 -0.047576148 0.038630873 -0.09810941 0.20237237 -0.29081216 -0.018540647 0.17543168 0.08947623 0.10745498 0.06261651 0.06626063 -0.032402 0.2765673 -0.11001491 0.09009647 0.30676135 -0.05713766 0.34313232 0.13709216 -0.067295745 -0.09749605 0.029810464 0.041669384 0.19682793 -0.082258426 -0.19508108 0.118782565 0.07862296 -0.29294354 0.09118344 -0.088974126 0.18846634 -0.08099596 -0.004896383 -0.078773126 -0.18322144 0.14139844 0.20073853 -0.0029730224 0.42767698 -0.1803304 -0.089197785 0.05939484 -0.18537778 -0.27631474 0.106072895 0.23649058 -0.08163747 -0.16669229 -0.0071843453 0.0020841928 -0.01954993 0.12855925 -0.29954028 0.05264834 -0.28373343 0.05486669 0.23023227 -0.30853078 -0.13348766 0.099496335 -0.13426675 0.17438263 0.33416072 -0.06230381 -0.112802885 0.08314714 0.09207906 0.0701599 -0.031060586 0.005346498 0.024621855 0.058096077 -0.07922635 0.13811699
916 -0.033530194 -0.04210799 -0.14558542 0.2599288 0.0142079815 0.25670025 0.08369456 0.21910049 -0.0068857055 -0.103908956 0.03371011 0.107091576 0.11051565 -0.32683125 0.20283657 0.14883143 0.21969001 0.30564654 0.013030024 -0.04070873 -0.28612617 -0.13871667 0.0679839 -0.0077539645 0.055245023 -0.051268686 0.14062072 -0.32222673 -0.020037193 -0.03241531 0.059571497 -0.029873466 -0.046327285 -0.1631329 -0.13574629 0.16902642 0.05986948 0.026424453 0.24453393 0.08784998 -0.22643614 -0.23367025 0.06252253 0.15812285 0.37348557 0.061176304 0.019584632 0.09984689 -0.12112647 -0.09253465 -0.12008302 -0.15150361 0.250297 -0.0978096 0.09418363 -0.14147213 0.03785736 -0.38807097 0.08154716 0.29843873 -0.003255874 0.122269854 0.009381578 0.20734955 0.091412544 -0.14998937 0.097561225 -0.013763783 -0.0642743 -0.09634387 -0.020999474 0.17143568 -0.055590454 -0.19220972 -0.16088748 -0.18854573 -0.08207144 -0.17310166 -0.14776236 -0.014364206 0.023112256 0.09964458 0.06973895 -0.044930797 -0.15161823 -0.0072372444 -0.13449998 -0.072700456 0.072294354 0.11107265 0.314554 0.49981546 -0.30998936 0.06330771 -0.28402373 -0.052642513 -0.1659617 0.005300709 0.017796269 -0.011357143 -0.28378785 -0.06792892 -0.05142927 0.06538175 -0.103099026 -0.022574477 -0.16928945 0.09187788 0.037763458 -0.14353095 -0.048204686 -0.29167134 -0.12673996 0.1075722 -0.12271414 -0.15664153 -0.18324474 -0.25997934 0.14070357 0.214911 -0.23025459 -0.056042917 -0.24137655 0.12794192 0.22319153 -0.112051085 0.21602868 0.060666934
3300 -0.05377121 0.041170016 -0.062235083 -0.059626248 0.015872419 -0.10786814 -0.001743416 0.051292565 0.13201416 -0.19995424 0.110771865 -0.08645364 -0.19868214 0.049895484 -0.18533066 -0.014320898 -0.25701943 0.14002438 -0.005097872 -0.22892655 -0.21947128 -0.3224048 0.16224739 0.19739692 -0.21404155 0.095740646 -0.04174516 0.08919418 0.38528615 -0.28951147 0.16200608 0.013778991 0.074297175 0.22978368 -0.3371177 0.09868493 0.20453832 -0.18838741 0.030520977 -0.054243997 0.15333828 -0.15467063 0.1084315 0.30323568 -0.13863079 0.07363461 0.27163103 0.15364692 -0.091627754 0.04588571 0.0077852965 -0.14780873 -0.09823388 0.13903813 0.0040616062 0.2306964 0.18886887 -0.22413589 -0.015642218 0.12053151 -0.18583061 -0.03390916 0.113281265 -0.10761778 0.0208268 -0.13412352 0.048626944 0.06327394 0.057998527 0.061467584 0.16154628 0.093059 -0.29808602 0.20372672 -0.05935116 -0.10945023 0.14340816 0.19128445 0.13302213 -0.13203488 0.20732994 -0.14037384 -0.13229527 -0.18232176 0.116459385 0.0075326827 0.07333252 -0.09526034 0.13846813 -0.08768959 0.20453827 0.17775173 -0.10410466 0.013770921 -0.100405276 0.05980203 0.016667493 -0.4333374 -0.3035599 0.057627108 -0.16472313 -0.047245197 -0.017536119 -0.26777628 -0.041037515 -0.026804699 0.2980128 0.021794347 0.08680912 -0.13419864 0.08960544 -0.29445496 -0.13586602 -0.01001021 -0.09427359 -0.21862513 0.057392363 -0.13389628 0.15926203 0.079184026 0.016779473 -0.21819897 0.19902748 -0.032823138 0.19165982 0.26459393 -0.14557312 -0.09326372
4713 -0.06001589 0.22182511 -0.0071608773 -0.123386264 0.3573366 0.09469159 -0.24012008 0.21401967 -0.16564593 -0.15079437 0.03185295 -0.06871421 0.102941334 0.07931521 -0.091706276 0.13092722 -0.03008577 -0.17961083 -0.18144393 0.022887358 0.22828926 -0.018409416 0.021528091 -0.044314038 -0.063283294 -0.05122537 0.29295424 0.23172416 0.054646082 -0.30405903 0.05578317 -0.23026067 -0.015232662 -0.075481154 -0.18471752 0.12976317 -0.07948874 0.03610197 0.15160523 0.2919991 -0.203674 -0.115665354 0.32803825 0.09879369 0.048559006 0.06421157 -0.1252596 0.1282018 0.13271657 0.0937731 -0.033705913 -0.1531532 0.08235854 -0.04163773 -0.058177654 -0.19392705 0.22195522 -0.121893056 0.16187613 0.25989455 0.11812247 -0.032070603 -0.061151143 0.17218737 0.017721076 0.023454184 -0.10153439 0.33564076 0.1499085 0.17935772 0.25152248 -0.11877165 -0.10379866 0.13238281 0.09393001 0.12481057 0.23615071 -0.097040094 -0.027100002 -0.028817257 -0.08108513 -0.031224234 0.09516819 0.061512604 -0.16733144 0.19899355 0.06641649 -0.33441934 0.16153556 -0.17899415 -0.10684236 0.29172793 -0.2084978 -0.24772704 0.009441418 -0.09164548 -0.06799649 -0.35505855 -0.061580826 0.11337912 0.18886948 -0.42987308 -0.05415598 -0.0018917168 -0.055031225 0.22203554 -0.16057248 -0.043883525 0.17486726 -0.2410636 0.3829482 -0.05681068 -0.060290754 -0.10726364 0.07629356 -0.1113206 0.11920255 -0.0012792938 0.3061135 0.20927632 -0.2134672 -0.08099398 -0.009060161 -0.26372027 0.08990484 0.34024557 0.2908474 -0.20515789
3818 -0.051180504 0.2092951 -0.065484345 0.26412272 0.02198103 -0.16438937 0.06380502 0.13496391 0.22111434 0.07425947 -0.016692746 0.16322252 0.0035539528 -0.103731036 0.34462395 -0.04358918 -0.09712796 0.1957199 -0.10300467 0.40857816 0.120696336 -0.039279036 -0.19553685 0.031177519 0.044399556 0.07553487 -0.06454169 -0.05040295 -0.09875785 0.09739218 -0.007869035 -0.34429842 0.071281314 0.015373061 -0.27464214 -0.030661082 -0.030125493 -0.32501552 0.37038374 0.09831276 -0.2740122 -0.068709314 -0.01305383 0.0582898 0.39467448 -0.08853137 -0.13763565 0.34018525 -0.29101348 -0.055570222 -0.0033720608 -0.17997858 -0.030894008 0.14240716 -0.034764066 0.117481105 0.09818124 -0.33258292 0.13234201 -0.23938489 0.043229572 -0.047205113 -0.08218133 -0.19316725 0.08391891 -0.14177082 -0.109043606 0.32868832 -0.02094925 0.172058 0.19487062 0.077944934 -0.20977956 0.055668555 -0.02511938 -0.0049826666 -0.14782752 0.039828584 -0.14994042 -0.08971433 -0.064355016 -0.044326343 -0.09332755 0.14760214 -0.05921807 -0.25138146 0.0181345 -0.13371527 0.03708024 -0.27964008 0.1392836 0.44930962 -0.25151667 -0.023925114 -0.054687124 -0.0113003105 0.037262946 -0.01513816 0.20998755 0.108084515 -0.26538983 -0.038554117 -0.18081735 -0.18002997 -0.15806422 -0.132592 -0.016069889 0.32209572 -0.27797762 -0.14989859 0.030613435 -0.10118252 -0.13538066 0.010107792 -0.028948186 -0.15753855 -0.15056649 -0.14945845 0.19725412 -0.071344234 -0.116067514 -0.13639241 -0.010836838 0.07349293 0.11297751 -0.17437908 0.059282754 -0.047563244
5757 -0.11261303 0.14781635 -0.20134188 0.2222531 -0.020990001 0.084519506 0.071836084 0.14281979 -0.18914442 -0.30848005 0.15354313 -0.11724435 -0.06796703 -0.15045474 0.03821109 0.1573731 -0.2222835 0.12249824 -0.08741071 -0.06295473 0.18025698 -0.20180763 0.12230989 0.17454898 -0.38452038 -0.1174406 -0.2916676 0.13729437 0.27297798 -0.08122619 0.19203973 -0.17704463 -0.17862445 0.25389627 -0.3001017 -0.029911382 0.05563581 -0.006574704 0.13742955 0.14356516 0.12405625 -0.049325977 -0.10092784 0.30407006 -0.24913257 0.1341444 0.3449884 0.32701603 -0.42006058 -0.29329622 0.048769623 -0.018085187 0.22110762 -0.014770984 -0.113151096 0.18908153 0.20768979 -0.20865864 0.21903767 -0.08875227 -0.08061573 0.108086556 0.11134307 -0.017994864 0.032455422 -0.11778152 0.021721575 0.029766496 -0.15450661 0.18104461 -0.17190363 0.23818943 -0.14755857 0.07002051 0.08891921 -0.060956694 -0.041509315 0.17737123 0.23714636 0.15356913 0.16270888 -0.011771759 -0.035495054 -0.09988192 0.037681304 0.034268748 0.025078345 -0.31925082 0.10771303 -0.110446565 0.04022139 0.19857395 -0.09611877 -0.19677606 0.014140842 -0.061464943 0.14136894 -0.22493947 -0.036337227 -0.16340597 0.19065864 -0.12612855 0.19934386 -0.15349273 -0.024165254 -0.10486811 0.08616995 -0.17437103 -0.04227342 -0.3273153 0.07428113 -0.13400818 -0.30235636 0.05877252 -0.13081022 -0.06037702 0.044802386 -0.18978444 0.34448865 -0.010168866 -0.00518011 -0.26841134 0.08899143 -0.08790622 0.27776718 0.001805279 -0.15998875 -0.019266358
5020 -0.12691554 0.23056792 -0.16857643 0.11139321 -0.030650416 0.15193082 -0.024369368 0.16757122 -0.35992795 0.23784052 -0.042344335 0.103898115 0.030359402 -0.051938117 0.030756116 -0.13402769 -0.012051776 0.09258533 -0.16819328 0.12810116 -0.24273601 0.20617911 -0.13748671 -0.08360443 -0.21752723 -0.1324652 -0.012846781 0.15421346 0.16446434 -0.33225155 -0.21400659 -0.1234381 -0.037965294 0.030125013 -0.12610582 0.09257268 0.044861197 -0.031120101 0.029464642 0.40910336 0.36441675 0.13823034 0.22408774 -0.008482094 -0.051661264 0.03507332 -0.10134753 0.12989059 -0.3263391 0.27786097 0.15581712 0.0029084478 -0.026735377 0.05272145 -0.04717497 0.0256905 -0.15652886 -0.060167663 0.1690936 0.015950358 0.2682698 0.17077698 -0.04256336 0.012122983 0.13143057 -0.3567125 -0.25318098 -0.14242448 0.16137226 0.021975726 -0.021292023 0.35828096 -0.08917345 0.106066324 -0.17477025 0.08011477 -0.013097518 -0.058427073 0.15063459 -0.013390548 0.313927 -0.1109337 -0.013948691 -0.10444616 -0.07332625 0.31052962 -0.18472044 -0.052033246 0.020671818 0.003414052 0.21882577 0.14700207 -0.27496335 -0.095111705 0.08325865 -0.021821987 0.15007183 -0.11514899 0.31806183 -0.041012704 0.032806594 -0.031668566 -0.11640628 0.014031231 -0.26715893 0.09761289 -0.0011304223 0.06835872 0.19817385 -0.119711086 0.093494326 -0.08832016 0.052242097 0.004068523 0.24820171 -0.033044398 0.1322288 0.0056263185 0.047477804 0.013117721 0.19295657 -0.25266322 -0.20823646 -0.04814306 -0.14321345 0.016314346 0.013998402 0.15165211
1228 -0.32608467 0.15418072 -0.026943797 0.20558715 -0.09262748 -0.16728866 0.12468992 0.1601258 -0.02840183 -0.093500085 0.1397921 -0.06384738 -0.15063664 0.052752316 0.010619368 -0.07834613 0.19007349 0.14087628 0.040079053 0.14658293 -0.14594734 -0.026496463 -0.026755814 0.02730012 0.042308312 0.06978386 0.17890365 -0.5036628 0.0074208016 -0.0077693886 -0.08828746 -0.040729757 0.049674723 -0.0026469012 -0.18182051 0.19414687 0.10160612 -0.18299666 0.29126918 0.08936235 -0.31255546 0.15690358 0.079922564 0.28131273 0.013309467 -0.008419958 0.052073922 -0.023585023 -0.19551817 0.14994006 -0.05883445 -0.04570265 0.030216713 0.12311131 0.0866327 -0.3392853 0.19878499 -0.1786932 0.075119145 -0.049182594 0.0793856 0.12162925 0.11034373 0.05451962 0.17027171 -0.121470444 0.07880798 0.2618059 -0.024723807 -0.09992621 0.2888006 0.023843786 -0.12997906 -0.04293613 -0.25956544 -0.09960273 0.07312571 -0.28185195 -0.15518627 0.084333435 -0.14319181 0.014420015 -0.013118673 0.18164475 -0.07178947 -0.13450111 -0.1744567 -0.17957158 -0.039577674 -0.070145495 0.07374053 0.052639905 -0.072585054 -0.05877679 -0.012416766 -0.17917305 -0.0824419 -0.028400894 0.11211998 0.20022696 -0.21497822 -0.036108017 0.21688986 -0.1397819 -0.18395935 0.17035918 -0.0690114 0.21453047 -0.32376525 -0.37786284 0.031769644 -0.2751254 -0.26783887 -0.10047141 -0.017009689 -0.047458302 -0.17187023 -0.22856344 0.24214955 0.1531374 0.2101464 0.069643945 -0.22449608 0.094601676 -0.23663345 -0.049003962 0.16567115 -0.0070391214
4257 0.072005756 0.08983817 0.068739906 0.21558136 0.07120885 0.04236728 -0.15278853 0.105851606 0.08184986 -0.14255753 0.3110387 -0.06861384 0.11049748 -0.035135098 0.08860728 -0.06955038 -0.067218915 -0.31253904 -0.22464515 0.0069505638 0.05960873 0.19153698 -0.09596415 0.10578473 0.0022850437 0.075847074 0.10187076 -0.00093462266 0.13453174 0.04488312 -0.06369692 -0.115208134 0.08877303 -0.14314793 0.05630697 0.10445673 0.052772425 0.030370682 0.04228438 0.22327103 0.1882656 -0.3119438 -0.011435896 0.13606955 -0.10540946 -0.12659964 -0.07564271 -0.101864584 -0.44382694 0.05427109 0.031462315 -0.12355948 -0.08143349 0.13970551 0.026445298 -0.056929108 0.12130126 0.020873941 0.17113563 -0.15298952 -0.056126412 0.04161379 -0.028634096 0.14966646 -0.105729535 -0.16375035 -0.09788756 0.17889506 0.16542779 -0.28384125 0.07027309 0.16260374 -0.050420865 0.13980003 0.1573832 -0.13352318 -0.03413977 -0.16832006 -0.07779968 0.000126514 -0.23889625 0.09098526 0.14377691 0.10223904 0.12698373 -0.038728777 -0.11166805 -0.3178951 0.1294448 0.09969316 -0.17326447 0.112600535 -0.09161587 -0.19906719 -0.14009361 -0.21065868 -0.036149114 -0.0775652 -0.08448132 0.056823798 0.1782427 -0.26467922 0.017714115 -0.14177904 -0.14834353 0.00097630447 -0.07627724 0.13647242 0.16558856 -0.5560552 0.4226293 -0.12191683 -0.18108258 -0.0843773 0.1579066 0.08176231 -0.10809939 0.26713312 0.3330974 0.17551452 -0.08330773 0.14596708 -0.10828813 0.03873216 0.13946404 0.13605024 0.066245474 -0.12458788
1074 0.15382372 0.11681567 -0.047998093 -0.16939367 -0.09312987 -0.0027284657 -0.1893466 0.09462221 -0.312242 -0.1467217 0.105058596 -0.114192575 -0.2142441 0.048866197 -0.026392588 0.19264604 0.18269768 0.12308842 -0.03916519 0.21724276 0.22202663 -0.35099134 0.1699021 -0.007754984 -0.047391832 -0.33662468 0.06315158 -0.331163 0.038031675 0.023188278 0.10104975 0.057194583 0.25189346 0.12925139 -0.12930992 -0.14987598 -0.026228651 0.051303897 -0.013725182 0.24760376 0.22253288 -0.15789965 0.26076043 0.1979114 0.19532382 0.08351214 -0.16040543 0.09690105 -0.38083437 -0.014765736 0.15157944 -0.24629323 0.11055157 0.14055522 0.062059864 -0.013520895 0.3248155 -0.17553736 0.18705149 0.21914779 -0.12346475 -0.00159477 -0.09648763 0.0937459 0.19103457 0.21036392 -0.103948124 0.26307654 -0.025515994 0.26659855 0.11001401 0.12746179 -0.10185282 0.031828597 -0.19618484 -0.1723933 0.004998291 0.045624204 -0.10184797 0.10122035 -0.04746335 -0.16446842 -0.12319888 -0.031891283 -0.17681013 -0.04705706 -0.35341817 -0.018612985 0.034509588 -0.0036177922 -0.15782063 0.2220571 -0.11574028 0.077144906 0.02961973 -0.082109444 0.07929606 0.12270776 -0.06723868 0.03942972 -0.44162196 -0.0396089 -0.04595999 -0.092431284 -0.15264846 -0.036230568 0.08889463 0.028663453 -0.13365202 -0.38565636 0.03292171 -0.2451872 -0.014664328 -0.1822696 0.26670304 -0.023270909 -0.24663916 -0.07740541 -0.06255198 -0.16343468 -0.118762545 -0.112245254 -0.13104303 -0.12710656 -0.13801496 -0.014206828 -0.121407315 -0.12219565
4985 -0.029618626 0.05750183 -0.19207644 -0.08810106 -0.07711241 -0.038825963 -0.02416672 0.14338313 -0.110079475 0.094454385 0.18752487 -0.25311592 0.04107424 0.10392852 0.12583964 0.038109325 0.20435259 -0.041442372 -0.074709125 0.27252835 0.08706075 -0.13193008 0.23919244 -0.10548504 -0.10629752 -0.0717515 0.07450881 -0.19586562 0.07499999 -0.12368733 0.16823672 0.08681598 -0.03031462 0.08080235 -0.13407211 -0.05339092 0.089025326 0.07114199 -0.12768771 0.048214093 -0.036915958 -0.05449713 0.10939295 0.16826752 0.07470186 -0.039385818 -0.12242128 -0.14385004 -0.04576998 0.0052641914 0.15261863 -0.1897787 -0.048239868 0.037185863 -0.07986434 0.07160771 0.12922774 -0.36196023 0.061576057 0.09479343 0.122886494 0.07329215 0.0092094075 0.15712783 0.07427924 -0.03467847 -0.1012377 0.08483613 -0.015428374 0.12327153 -0.118708014 -0.019436501 -0.06906161 0.0005801227 0.026762148 0.037739124 0.07509444 -0.11062454 -0.103209674 -0.0023444344 -0.025575906 0.006508542 -0.07314198 0.16588262 0.090084665 -0.12231605 -0.3320224 0.061314687 -0.16895647 -0.12788433 0.025622912 0.28998733 -0.13533622 0.050099548 0.32457295 -0.114625685 0.0705579 -0.06379045 0.031151962 -0.11664344 -0.07134029 0.01869424 -0.11700487 -0.19518694 0.026395768 -0.10653942 0.09757967 0.1482629 -0.004935661 -0.29809713 0.13584365 -0.1446018 -0.009174735 -0.22180317 0.13780726 -0.09550936 -0.035216194 -0.10582931 0.01828651 -0.23393351 0.070424035 -0.04511972 -0.1689871 0.17354909 -0.010849193 -0.0063441484 0.16267493 0.06664732
813 0.055748686 -0.16914967 0.09898143 0.08440073 0.18021165 -0.025442325 -0.020726489 0.045830872 -0.06850064 -0.031036912 0.010573351 -0.019107798 -0.03198192 0.027379006 -0.009902548 0.087024815 0.0011229825 0.10739402 -0.13757268 0.06748299 -0.19250529 -0.16174804 -0.071157925 -0.023331419 -0.1757397 0.043851804 0.20452118 -0.3727294 0.06835474 0.09869524 0.06844364 -0.015146668 -0.06635113 -0.124298714 0.1289807 0.1920863 -0.057285856 -0.085433505 0.18121633 0.34365875 -0.04333913 -0.23945408 0.14449717 0.2766515 -0.18877207 -0.1518968 -0.09820143 0.14142898 0.008434649 -0.020911062 0.06229548 -0.124025196 -0.0020304937 -0.028226033 -0.028379386 0.16656521 0.24821357 -0.0033935076 0.13549484 -0.04467946 0.16187301 0.09662702 0.13234259 0.19073707 -0.1569436 -0.036674466 -0.060962573 0.26789016 0.017604863 -0.028655622 0.07899541 0.40337476 0.14242469 -0.23602769 0.16402738 -0.13483758 -0.25361714 -0.021437671 0.026420001 0.011946559 0.1408007 -0.11339638 -0.15220842 -0.046060383 -0.08693929 -0.07335962 -0.22562589 -0.036431696 0.016805518 0.11483776 0.080662094 -0.012590987 -0.067959376 -0.11339346 -0.023749381 -0.15658857 -0.07518821 -0.13646144 -0.10707473 -0.003792312 0.21008098 -0.2751093 -0.20561385 -0.35802358 -0.17771815 -0.0067676697 0.076645054 0.14151043 0.1846098 -0.21404377 0.11702824 -0.07450589 -0.0128236385 -0.07029423 0.1642954 0.05792017 -0.058979727 -0.043626852 0.38699758 0.051307257 0.10093799 -0.06158333 -0.10538809 0.27924404 -0.1260275 0.08654003 0.03984355 0.13069111
5463 -4.8314032e-05 -0.08787835 -0.10315563 0.060869493 -0.15361749 -0.09774532 0.08291082 0.2818904 -0.08475184 -0.14603491 0.04524005 -0.00041508084 0.028312296 0.021014221 0.1913774 0.083513826 0.15409249 0.086007796 -0.09812995 0.20748687 0.27027777 -0.20882884 -0.061416164 -0.1965368 -0.031898763 -0.047481444 0.11663953 0.10777606 0.2624374 -0.13540402 0.102404155 -0.08797057 -0.11043328 0.13286059 0.004377445 0.12343445 0.21329838 -0.24325973 -0.019848818 0.31250098 0.2656374 -0.20471083 0.09469549 0.094072185 0.091873184 0.116950795 -0.004221616 0.059328068 -0.19281541 -0.07624667 0.11729121 0.17905028 -0.09416588 -0.00921118 -0.05015702 0.089497745 0.29083842 -0.062267374 0.095553845 -0.031867187 0.15280469 0.022012217 -0.07597439 0.07688576 0.09026696 0.1248603 0.15694033 0.1354783 -0.21291046 -0.06114986 0.22237253 -0.034054585 -0.06759337 -0.11893705 -0.022871131 -0.15103243 -0.10911018 -0.21780378 -0.033825427 -0.13931936 0.15275528 -0.12647532 0.0041073114 0.016868306 -0.045041688 -0.049691606 0.08526282 -0.31586617 0.15961786 -0.14662836 -0.043348476 -0.08580809 0.026202658 0.025316887 0.01173612 0.14189194 -0.11616086 -0.058857296 -0.12007682 0.1301272 -0.049780197 -0.18526141 -0.26457015 -0.05615842 0.108729936 0.13730492 -0.118235566 -0.117481865 -0.05936261 0.26739967 0.27072597 0.054479107 -0.25207698 0.24148254 -0.10441862 0.01938356 0.06797318 0.14328936 0.026305411 0.034909297 -0.06328123 -0.058973905 0.10001955 0.14646856 -0.1583255 0.1762341 -0.1502172 0.106852084
3348 0.075963475 0.15919752 -0.075297676 -0.0017978663 0.0969799 0.09855355 0.026630865 0.20793447 -0.052275658 0.05161753 0.15625012 -0.0071983854 0.047500756 -0.001393438 -0.024361625 0.04415048 -0.0014679097 -0.016899807 -0.22486523 0.0055649616 0.21834119 -0.0766126 0.06736835 -0.11094871 0.009578852 -0.032485534 -0.019950725 -0.07885299 0.14321171 -0.006432761 -0.044262897 0.07411325 0.38536838 0.23366612 -0.10282948 0.0338705 0.14656231 -0.022031209 0.040957432 -0.11529668 0.15462883 0.0727574 0.17172453 0.084781036 0.22497891 0.17630966 0.1142724 -0.040334567 -0.18417251 0.11389011 -0.09249037 -0.149313 0.052975412 -0.07695761 -0.23755139 -0.09034536 0.21126872 -0.276328 0.09092673 0.23450363 -0.087233454 -0.011716554 0.043840583 0.099181764 0.04797893 0.009728527 -0.080065124 0.13818131 -0.07548437 0.077732444 0.025900131 0.09397664 -0.019876905 0.045797605 0.040072598 -0.05735823 0.08989983 -0.07462412 0.13657102 0.23588805 -0.017814538 0.0136553515 -0.21305731 -0.096157104 -0.08657952 -0.21071073 -0.12231881 -0.13141051 -0.020243397 -0.08863221 0.020870114 -0.016267246 -0.07768821 -0.16151282 -0.108979605 -0.112700075 0.1474664 -0.12024267 -0.27032387 0.08533783 -0.33380947 -0.09185931 -0.0054265484 -0.31603706 -0.10115663 -0.023416508 -0.036666937 0.06013593 -0.19118811 -0.28775623 0.32508337 -0.10274004 0.071486585 0.10618492 0.2566711 -0.052578345 -0.085410096 0.058586508 0.052399695 -0.25631264 0.0019534596 -0.05228296 -0.16876496 0.12651299 -0.3197871 0.26104206 -0.020700552 -0.075985305
3994 0.03211556 0.023931518 -0.2559142 0.2468066 0.054944806 -0.06121181 -0.27758235 -0.09236564 0.13928692 -0.07151078 -0.05324506 -0.29168773 -0.2879616 -0.0040717083 0.06768447 0.35211718 -0.08040235 0.106195614 -0.16146594 0.20080411 0.050221365 0.029113358 0.04970685 -0.34353742 -0.00874735 0.21889861 -0.07505378 -0.10247668 -0.07396059 0.25717944 -0.051569335 -0.06533724 0.22601278 0.11760592 -0.06372502 0.2642509 0.14867775 -0.08016884 0.06899766 0.60862136 -0.045105405 -0.07018576 0.20377038 0.36293927 0.2650258 0.23029692 0.21637414 -0.10334063 -0.024085166 0.11073937 0.104144715 -0.28319368 0.077245906 -0.17304674 -0.15567277 -0.12666641 0.063271195 -0.13822576 0.1393003 0.025269851 -0.009510404 0.0094048 0.27003187 -0.08212194 0.12654701 0.05939429 0.017700588 -0.21171053 0.017813308 0.20811686 -0.032783166 -0.11527243 0.08203972 0.23045163 -0.1541687 -0.17588016 -0.049494192 0.05285289 -0.032974947 0.18015327 0.25409117 0.1425214 -0.17898677 0.12767248 -0.0019563038 0.0037737817 0.14857969 -0.0124994395 -0.021012167 0.17394067 -0.29254666 -0.04380761 -0.024824608 -0.349776 -0.14329664 -0.24508068 0.14761351 -0.10957073 0.09675349 -0.16262496 -0.04424069 -0.07116951 -0.011413829 -0.21876009 -0.1740296 0.23500521 0.15886977 -0.14135692 -0.07980295 -0.3391455 0.29682985 -0.07369464 0.027470551 0.13393654 -0.14424212 -0.010302995 -0.05104597 -0.060469564 -0.025906181 0.036803763 -0.1448126 -0.03764639 -0.06499477 -0.0453879 0.18219651 0.33677483 -0.16075376 0.090718046
5785 -0.17932546 0.2627124 0.08417699 -0.0060799317 0.17950575 0.107756935 0.069334075 0.098347574 -0.22259319 -0.12976253 -0.064054854 -0.21868636 -0.35707814 -0.0110667 0.020589292 -0.05975836 0.20032126 0.04170183 -0.09063982 0.33346555 -0.095443636 0.07915584 0.11345366 -0.053396884 -0.074475504 -0.22731808 0.19546789 -0.057765346 0.15288718 -0.10439358 0.17004088 0.036885507 0.07426535 0.07020644 -0.15014416 0.07927078 0.11404037 0.085078485 0.067834795 0.2432667 0.013740949 -0.09075747 0.20303549 0.06210369 0.06097629 -0.08929121 0.047955554 -0.12823771 -0.12318434 0.016968552 -0.08139385 -0.22061485 -0.1638976 -0.24726054 -0.063463315 -0.2179232 0.2772051 -0.19585726 -0.048119914 0.14356011 0.12870754 0.16043988 0.019828094 -0.0257682 -0.058008023 -0.001726846 0.09829302 0.24779113 0.15289246 0.06172021 0.10604055 -0.16793461 -0.14266962 -0.1837793 0.09330755 0.026566392 0.015361673 0.055193655 0.0073833195 0.12934016 0.01787713 0.2137901 -0.026223438 -0.07914961 0.027062463 -0.24732812 -0.21511151 0.011865926 0.023802558 -0.07484784 -0.041184895 0.13743046 -0.1722627 -0.011909658 -0.15606964 -0.016363243 0.0361773 -0.14485875 0.14686811 0.033302568 -0.097558014 -0.12959486 -0.120756224 -0.124773465 0.02794155 0.11420795 -0.049183056 0.15527935 -0.0017488241 -0.31818187 0.20516893 -0.022983631 0.037910752 0.0485214 0.17479295 0.051258538 -0.18402457 -0.16355604 0.30104998 0.12548454 -0.0591708 0.13060358 -0.088086635 -0.020599727 0.0050376314 0.48821035 0.026186237 -0.04758576
3337 -0.20232087 0.20552891 0.05258781 0.042443335 0.08746185 -0.36963722 0.12661014 -0.033173684 0.032476343 0.13929914 0.0019186103 -0.027411235 -0.19104847 -0.3036221 0.17727248 -0.0913118 0.35810426 0.086007684 0.101147756 0.041913424 0.031589694 -0.07985961 -0.05432697 0.14311844 0.05588432 0.05344161 0.30784887 -0.2572525 -0.04311868 -0.0012044401 -0.075954966 0.052227564 -0.23096108 0.032607373 -0.18854773 0.042240426 -0.08125959 -0.01199892 0.1036028 0.120624594 -0.35551366 -0.31381297 0.038686946 0.2792358 0.13689098 0.10709336 0.20564826 0.006836915 -0.30514982 0.04219752 -0.0024935068 -0.032266058 0.15363708 -0.095095314 0.1740016 -0.1889071 0.073557764 -0.36428776 0.33023077 0.101710126 0.06242959 0.18906972 0.08424414 0.22940886 -0.058466397 -0.28204268 0.40708706 0.24603802 -0.056669686 -0.103502385 -0.30135384 0.18883109 -0.19977413 -0.07619844 -0.12572597 -0.04612931 0.03862587 0.07135335 -0.006482156 0.03984071 -0.09977877 -0.37480178 0.011745318 0.14187713 -0.050165664 -0.062134326 -0.01614978 0.029871441 0.039531585 -0.010977363 0.16547272 0.042007975 -0.09794812 -0.14829117 -0.025194986 0.03740779 0.13818148 -0.1748502 -0.009465102 0.22537753 -0.13171275 0.017395046 -0.3725921 0.0037838498 -0.42213154 -0.1328809 -0.21390454 0.21398172 -0.13473481 -0.07994495 0.23961328 -0.12906608 -0.07780144 0.026522955 -0.122666165 0.0091662165 0.24403368 -0.18227984 0.21662566 0.14914623 -0.045189206 -0.12137637 0.029193478 0.13766244 0.06579178 -0.07422996 0.0011792437 -0.14190532
4321 0.060128 0.092615046 -0.14242671 0.05279291 0.05384685 0.0020260182 -0.08435512 0.15226361 -0.067124374 0.06690376 0.23873125 -0.26679942 -0.20305744 0.06080138 -0.08903889 0.2575842 0.017134162 -0.09387975 -0.29554215 -0.061668165 -0.08788271 -0.12291794 0.061116595 -0.004945137 -0.1667908 -0.06178184 -0.13095509 0.20236687 0.16351326 0.04387933 -0.21514265 0.0735742 -0.06880603 0.1771631 -0.1839873 0.047514983 0.11787653 -0.100986786 0.09553192 0.31060597 -0.03242097 -0.16641457 0.16890098 0.06612321 0.074841395 0.2252676 0.07894096 0.18973215 -0.3920249 -0.35342094 0.03991722 0.13262376 0.11025418 0.08838607 0.07394285 0.1376864 0.14346668 -0.118977234 0.31757316 0.0974385 -0.07061292 0.045779306 -0.055511784 0.24737684 0.11738344 -0.0019589518 -0.20424432 -0.06491202 -0.1048128 -0.122038856 0.19588193 -0.013323449 -0.14716402 -0.10443291 0.21886234 -0.12261628 0.14050965 -0.0054422747 0.06271238 -0.052815456 0.027103567 0.00056238053 -0.109043755 -0.091038086 -0.18488374 -0.12429741 -0.036541786 -0.24764548 -0.0039927787 0.10447053 -0.062066417 0.09737885 0.11704766 -0.04647376 -0.29194617 0.023787651 0.009295874 -0.31494156 -0.08131383 -0.18766421 0.15567137 0.12144838 -0.17537785 -0.19820593 -0.055910237 -0.09099192 -0.24471433 -0.0015988173 -0.07715971 0.090747505 0.031917 0.08756068 0.02868015 0.11859224 0.18904439 -0.017188517 0.23952508 -0.023035511 0.28613105 -0.20462489 -0.019670265 0.10801841 -0.0054601524 0.16319251 0.35036886 0.14538313 -0.1849785 0.017517054
5345 -0.10158476 0.067596674 -0.1271485 -0.021602819 0.21852158 0.13850412 0.075512126 0.001064825 -0.11062502 0.18863963 0.22903918 0.2648263 -0.001386152 0.10771648 0.028678 0.0053943256 0.037578836 -0.038858652 -0.19609582 0.225099 -0.069944635 0.0005653169 -0.2365004 0.16203137 -0.114832334 -0.044871237 -0.115578294 -0.000257521 0.14394835 -0.08173376 -0.08383795 0.13585249 0.027390748 0.034716632 -0.18220827 0.0018107838 0.038451646 -0.021201478 0.003785357 0.23174596 -0.002345788 -0.16780378 0.038286936 0.09632726 0.036163 -0.20263532 0.061298825 -0.11628811 -0.17513 -0.07910071 0.010539015 0.08551836 -0.16716121 0.04981507 0.008969449 -0.33805075 -0.15655996 -0.12404976 0.25279278 0.18290599 0.43202412 0.040152792 -0.05302498 0.116055526 0.116525136 0.036330674 -0.10322616 0.329296 0.21758552 0.06537577 -0.046471436 0.18777879 -0.257973 0.13549952 -0.1268105 -0.027544824 -0.008815918 0.00069530564 -0.1894939 0.2579693 0.22675131 -0.108619325 0.008138084 0.037348967 -0.057238795 0.12860404 -0.33827844 0.084885895 0.32455721 0.203321 -0.019978167 0.123914115 -0.24445967 0.22260882 0.28986582 -0.19703141 0.33447304 -0.07341665 0.13197254 0.17530087 -0.12432951 0.12466925 0.08423012 -0.29140738 -0.14779477 0.11126193 0.026759055 0.22084083 -0.14559564 -0.03278784 0.16793928 -0.025522502 -0.08246545 0.4119066 0.1560055 -0.124643825 -0.10381642 -0.15461203 0.16289695 0.035521973 0.10441315 0.20839426 -0.15775248 0.34042254 -0.24925297 0.21581751 0.13201794 0.08853134
1198 0.088823006 -0.035032403 0.041412313 0.05656752 0.071184106 0.08617643 0.047399305 0.132449 -0.07320533 -0.21478768 0.40809247 -0.17349285 -0.048979867 0.018396307 -0.13380407 0.36216202 0.04647191 -0.13536029 -0.027531695 0.12246395 -0.09238181 0.042637456 0.15119201 0.20953935 -0.07921446 0.11652466 -0.12582803 -0.13612045 0.21187827 0.022674024 -0.04418946 0.01814442 0.28426027 0.28678668 -0.20085992 0.122721896 0.032238286 0.006928364 0.18320201 0.10001396 -0.20195271 -0.083220005 -0.0003096237 0.35612056 0.19090207 0.22285058 0.11009069 0.24614453 -0.3935754 -0.099305384 -0.071262114 0.08109626 -0.0743307 -0.014621543 0.061544687 -0.08509355 -0.03706283 -0.28909656 0.27688268 0.16175601 0.013720612 0.22733204 -0.21365735 0.08548881 0.042291086 -0.1702249 -0.22286934 0.13425031 0.05659683 -0.2800665 -0.08698624 0.066831686 -0.067182906 -0.009790726 -0.039989762 -0.0063531473 -0.011022785 0.13113467 -0.01962077 -0.11698152 -0.14865574 -0.02927798 0.15334198 0.077492535 0.048028667 -0.24982063 -0.010431451 -0.3651935 0.2317031 0.08899522 -0.043091 -0.021010373 -0.25600266 0.07640072 -0.19920771 0.027008757 0.010063118 -0.116602965 0.0041313786 -0.02529561 0.02707557 -0.15541992 -0.15109214 0.10036682 -0.07733779 -0.012884746 0.17019401 0.038579717 0.12710512 -0.1991639 0.19931254 -0.03468601 0.07622204 0.06493259 0.0120266 -0.035330534 0.111927286 -0.033428445 0.20871907 0.075274915 0.3120954 0.0318166 -0.20337777 0.04363673 0.09403802 -0.0798746 0.30000713 -0.0041349554
5789 -0.15777318 0.0053992607 -0.06422856 0.007039482 0.13302042 0.07424019 0.034588426 0.20848243 -0.19401172 -0.03348874 0.38321462 0.038674228 -0.22096199 0.015341256 0.11158023 -0.22367972 -0.14403753 -0.14810602 -0.14669892 0.32458624 -0.18675055 0.06313204 0.11653202 -0.018832525 0.045904413 -0.06950311 0.0763027 -0.24190675 -0.09229236 -0.12211465 0.15761612 0.03938821 -0.001113894 -0.24847694 -0.13509387 -0.09384081 0.19428878 -0.3732581 -0.05235888 0.21529998 0.16438206 0.20812751 -0.09862408 0.29081914 0.082443826 0.0901264 -0.085414566 -0.037285816 -0.15811977 0.13584082 -0.18725331 -0.007091773 -0.10127995 -0.18296841 0.37739435 -0.105681136 0.3195823 -0.35808173 0.051360533 0.030215235 0.1861428 0.10079782 -0.075533025 -0.034676045 0.3921378 -0.14764954 0.025121894 0.0534348 -0.13162853 -0.031660236 0.052930895 0.30342734 0.16050272 -0.0015389019 -0.2140291 -0.040567465 0.046036962 -0.14427136 0.04089641 0.10767192 0.19203444 -0.10443555 -0.15983243 -0.039550874 0.12975869 0.15014382 -0.29135358 0.115996875 0.04862423 -0.44806513 0.19176422 -0.017596329 0.06818795 -0.012753057 0.062628865 0.002247589 0.13211867 -0.07900147 0.10482654 0.19166493 0.0738254 0.1292985 -0.3469582 -0.13199738 -0.04370847 0.25839064 -0.3218319 -0.12353708 0.23065911 -0.14813285 -0.032371223 0.1745619 -0.10980992 0.14222144 0.03649211 -0.21369867 -0.19097085 -0.05128986 0.033059053 0.26269796 -0.10973676 0.06777923 -0.25615194 0.15736158 -0.019822571 0.08549785 0.3205029 -0.35161763
4449 0.11925712 -0.105780795 -0.21959504 0.064421125 0.0054927687 0.16935654 0.0005999323 0.0689706 -0.120292455 -0.341861 0.20071276 -0.058422495 -0.19579059 0.04254511 -0.07215316 0.4761197 0.15839271 0.10222817 -0.18155938 0.022681592 0.05396905 -0.117262825 -0.022371966 -0.0007708969 -0.11626354 -0.0008732884 -0.1271427 -0.1260095 0.26317173 -0.09046478 -0.17096314 -0.04344668 0.11904394 0.058088023 0.0071475073 0.028327238 0.107438594 0.037779495 0.13631038 0.3020491 -0.0012321885 -0.051588498 0.1816175 0.18764928 0.23284243 0.19457546 -0.038141686 -0.03684211 -0.1577527 -0.18140589 0.0038187825 -0.07262654 -0.17159054 0.14613976 -0.11645928 -0.031659395 0.13938169 -0.014184155 0.2384783 -0.018086841 -0.05362613 0.060977492 -0.038764853 0.09634081 0.2298505 -0.05295368 -0.2962193 0.09477227 -0.13911718 -0.19761854 -0.19333002 0.26604158 -0.2650236 0.15511516 0.24827723 0.052503362 0.07662758 -0.06352394 -0.1442685 0.32435426 -0.109304 -0.05371717 0.06316461 -0.11022322 0.20619506 0.07765407 -0.027180228 -0.2627408 0.31868938 0.2041284 0.03524657 0.08404907 -0.021017944 0.042390566 -0.0046591046 0.094410256 0.14759113 -0.0057186955 -0.09028797 -0.15533698 0.08904035 -0.23057286 -0.33305696 0.19855522 -0.16235426 -0.046439685 0.039952397 0.20273767 -0.030366683 -0.11320241 0.26494113 -0.095819406 0.1253529 0.01613204 0.13564602 0.07100227 -0.025053231 -0.032693077 0.0897373 0.17059964 0.08371504 -0.030144073 -0.12531312 -0.10243145 0.1282616 0.15224425 0.1358317 -0.06406695
3683 0.17925718 -0.20339972 0.033457868 -0.03771077 0.00077653874 0.034075648 -0.28002614 -0.013314247 0.15607351 0.013147571 0.27462116 -0.22703046 -0.19170375 0.12809578 -0.027256241 -0.14066699 -0.046773147 0.14493379 -0.1391503 -0.038064353 -0.02392855 0.05282839 -0.03390399 0.031199303 0.017270517 0.09716029 -0.18281072 -0.055012222 0.1788464 -0.18190788 0.19736497 0.050445635 0.1546255 0.17116053 -0.11427409 0.09517241 0.35517734 -0.15047306 0.07828901 0.10861305 0.16652673 0.19186394 0.07985532 0.11998449 -0.08468153 0.070828706 0.20507261 -0.002190775 0.025467206 0.13605684 -0.19560407 -0.120424986 -0.02887749 -0.029840676 -0.25019705 -0.25427052 0.21701518 -0.17733 0.2473529 -0.1552392 0.06756518 -0.07755513 -0.126111 0.020012109 0.110575825 -0.15164655 -0.18027069 0.34588432 -0.015196394 0.44132534 -0.055984553 0.107146315 0.028810883 0.17488952 -0.12443899 -0.28246063 0.013884604 0.024597235 -0.1331377 -0.15806583 0.23838238 -0.07972468 -0.025869865 0.008068998 -0.08155779 -0.11227467 -0.13776124 -0.18754052 0.015601734 -0.03862687 -0.104074486 0.050581917 -0.05141792 0.045783743 -0.11840734 0.085791714 0.043400537 -0.21255717 -0.1707027 0.034934957 -0.16315822 0.030593159 0.25582448 -0.39451802 -0.07312273 -0.09571648 -0.18760438 -0.010164232 0.24166127 -0.14936534 0.16178559 -0.2400699 0.014058836 0.3228438 0.036902 -0.092892535 0.34787053 0.1984578 -0.14715077 0.06160635 0.10913113 -0.19070356 -0.11352739 -0.045868702 0.118483454 0.054663405 -0.072768494 -0.096527316
56 0.16234727 0.29936817 0.030640146 -0.025775395 0.22628556 0.09104717 -0.030035073 0.17321052 -0.08738049 0.06133394 0.24733248 0.12810564 -0.10013366 -0.016447708 0.107701406 0.36196697 0.07854278 -0.06579788 0.019470274 0.004284655 -0.16336973 0.15665461 0.07736015 -0.04297703 -0.06424109 -0.1611632 -0.005913107 0.10031874 -0.123468064 -0.026676545 0.15415195 -0.09937883 -0.27259594 0.15840423 -0.025719784 -0.113253966 0.26458955 0.21381551 0.14852943 0.15133789 0.044995725 -0.22787169 0.23846483 0.13313153 -0.15068893 -0.1920208 -0.108902514 -0.11801786 -0.2857311 -0.0805351 0.19165052 0.013846719 -0.10466783 0.09683123 -0.2002127 -0.6192155 -0.024797965 -0.4376488 -0.08658703 0.16006118 0.04192962 0.04463803 -0.107475154 -0.2541106 0.07245336 -0.06397457 0.2689405 0.29093668 -0.14416441 0.1703998 0.17523558 -0.07676368 0.11627927 -0.14041485 -0.04608116 0.0087307645 0.18897545 -0.00477989 0.26636446 0.19819635 0.23255819 -0.24472293 -0.10978148 0.086775884 0.26473826 -0.02749782 -0.12223556 -0.16883796 -0.031409793 0.12977967 -0.11632999 0.12054314 -0.26951408 -0.23960704 0.22863473 0.06861101 -0.12133788 -0.056619678 -0.01821982 -0.015089668 0.101540625 -0.019001883 -0.13543269 -0.3184398 0.26849607 -0.012397606 0.08980239 -0.10795928 -0.11610347 -0.17734861 0.18728484 -0.21789719 -0.28124195 -0.0041625137 0.15412195 0.09026055 -0.16262488 -0.27407387 0.038625546 0.3059007 0.03859478 0.16619706 -0.11263741 0.10680709 -0.3185352 -0.08733945 0.07192638 -0.038432594
5473 0.18679103 -0.11643342 -0.28945732 -0.17229934 0.048832685 0.11264733 0.031745527 -0.102227986 0.08401589 0.033757973 0.10283794 -0.12683553 -0.1329571 -0.16687764 0.072382465 0.2888506 0.02550615 -0.07649783 -0.05729889 0.10552238 0.13739014 0.0326041 0.045334302 -0.14634229 0.103173524 -0.07500727 0.026149953 0.1139355 -0.017943755 0.07232574 0.1872674 -0.086328015 0.38226646 0.22115937 -0.010019479 0.018418392 0.06893667 0.03831205 0.1126347 0.2734997 0.32783687 -0.07375159 0.048965678 0.44482964 0.16065808 0.17130075 0.036677532 0.066828795 -0.17672765 -0.20761044 0.0327128 -0.115985334 -0.11874673 -0.07058206 -0.17554854 -0.10704573 -0.0065833847 -0.2234242 0.3895272 0.032053094 -0.10482748 0.23450549 -0.021433366 0.110056244 0.0050034844 -0.034690537 0.040428855 0.19241525 0.04788934 -0.036701318 0.059472952 0.044025656 0.011893697 0.026378889 -0.05375553 -0.22282428 -0.071157664 -0.28374976 -0.0031291475 0.12043153 0.00945476 -0.03943261 -0.044614635 -0.16470103 -0.068110466 -0.23896734 0.06562045 0.018394684 -0.033185307 0.029602462 -0.17889732 0.076814644 -0.2034418 0.078323886 -0.05069355 -0.09490244 0.12025716 -0.079592615 -0.06258553 0.022123294 -0.15047204 -0.026692461 -0.102511756 -0.025345217 -0.021800905 -0.21243231 0.026536213 0.22709732 0.16957006 -0.2865056 0.31965855 0.012718568 -0.037304353 -0.07969863 0.10918276 0.17894511 -0.15889059 -0.023995206 -0.023784569 -0.006494391 -0.18139067 -0.055642698 -0.24965633 -0.052454848 -0.0797999 0.21940908 0.0850127 0.009289585
335 -0.010664347 0.12589028 -0.22698282 0.08092696 0.2629836 -0.02112027 -0.19203459 0.07365177 -0.1970503 -0.036484938 0.1871306 -0.038264565 0.13690662 -0.08708472 -0.0831394 0.13813104 0.086459264 -0.03620746 -0.22042239 0.04634604 0.37932527 -0.10953989 0.27557912 0.02428923 0.15372 -0.23577023 -0.10851863 -0.14990298 0.063933894 0.0061829532 0.17063889 0.1007735 0.15504703 0.062363625 -0.10797897 -0.13958856 0.19742945 -0.014061645 -0.13920194 0.10460917 0.17518081 0.2394415 0.32814574 0.16170028 0.12995386 -0.015368434 0.0011528077 0.09684354 -0.28378263 0.049168408 -0.03361992 -0.31849137 0.12273724 0.070035525 -0.07050728 0.07606184 0.16461396 -0.35958463 0.11911262 0.16336857 0.06838222 -0.015597107 -0.06725829 -0.009255182 0.12652917 0.13894758 0.008135789 0.35091102 -0.14020516 0.10011897 0.06007781 0.18091834 -0.09638911 0.05062578 -0.056626756 -0.082189985 0.12994522 -0.16777603 0.12755741 0.17032938 0.07513503 -0.16629787 -0.05112058 -0.07704183 0.05758687 -0.3692714 -0.34020916 0.10899831 -0.17164879 0.09356784 0.04984603 0.19734387 -0.084180936 0.13437518 0.09432489 -0.14965688 0.0023698832 -0.28108788 -0.13831435 0.2114248 -0.36345097 0.00271653 0.0035215323 -0.2332507 -0.108567365 -0.4191714 0.01154139 -0.022160279 0.017964022 -0.3108556 0.115746655 -0.14631872 -0.046238434 -0.17932884 0.3206125 -0.13838369 -0.25185862 0.14283784 -0.10622037 -0.30943358 -0.09579278 0.06558409 -0.074959315 0.1203718 0.0038472163 0.29420373 -0.092937544 0.025749512
773 0.15519151 0.1737642 -0.22641015 0.0760671 0.16214892 -0.1490455 0.07881721 0.32339063 -0.16880749 -0.14170022 0.033730295 -0.32591736 0.05474552 0.03278606 -0.101295166 0.24936762 -0.018903205 0.116108984 -0.110609576 -0.16515458 0.3949359 -0.15939587 0.15179226 -0.0035205989 -0.29547662 -0.027591843 0.0038434821 0.02017087 0.14972033 0.0728908 0.29902697 0.079026096 0.19847743 0.116823494 -0.26040915 0.0025356861 0.10867349 0.009904355 0.076771274 0.2048337 0.2477179 0.03744835 0.23592514 0.18823437 0.05941771 0.0089260135 0.3036264 0.16690266 -0.2820172 -0.033535887 -0.10572605 0.21322924 0.056689706 0.15367365 0.15739132 0.23658006 0.09559631 -0.31757355 0.035759505 -0.052250016 -0.07143657 0.10232274 0.005106885 -0.08383971 -0.13991666 0.06665196 -0.17510603 0.020733478 -0.050014444 0.03455662 -0.17627034 0.2379374 -0.30448803 0.11796005 -0.030773165 0.012392905 -0.10477653 0.0122293355 0.122844264 0.021321766 -0.16960344 0.09206152 0.21200864 -0.11946018 0.1559261 -0.10351059 -0.121160366 0.0041258903 -0.12372177 -0.023000078 0.12470218 0.1929753 -0.070271246 -0.09862348 -0.13107723 0.05063972 0.44667855 -0.18514538 0.04198948 -0.23728094 -0.11861411 -0.03848521 -0.09732405 -0.32010216 -0.019830149 -0.0060074655 0.08622666 0.034802083 -0.09384532 -0.23575696 0.2537996 -0.19508317 -0.25926083 0.08637443 0.0059739603 0.061999537 -0.18202215 0.019696113 0.20107466 0.044652008 0.17082946 -0.106683426 -0.059575707 -0.16501363 0.15197077 0.15964788 0.038821865 -0.053931303
496 0.22649494 -0.12637666 -0.21661095 -0.14189574 -0.05143561 0.019642033 -0.0030302822 -0.049066443 -0.051528912 -0.04495616 0.2319964 0.01895973 -0.10350971 -0.15382579 -0.030074421 0.04906418 0.01931292 0.07074268 -0.12108251 0.27175453 0.13688971 -0.07073013 0.23395136 -0.11693902 -0.13491635 0.040694505 0.04123168 0.115214616 0.20057479 0.12400905 -0.03801577 0.017023148 -0.14717524 0.12867562 -0.0817516 0.11179743 0.033502173 -0.26194796 -0.055943392 0.4118573 0.030171202 -0.045145225 0.45957023 0.07640271 0.011037429 0.2239077 0.11317816 -0.108237185 -0.31933114 0.006535349 0.23933789 0.07974673 0.14072828 -0.22189008 -0.013774228 0.041135762 0.31279534 -0.06368402 0.10940085 0.05464978 -0.06300261 0.20057768 -0.18265992 0.27760598 0.0013952141 -0.03320856 -0.08025324 0.01666742 -0.16492043 -0.035176363 0.18360536 -0.25808775 -0.03956224 -0.061118037 0.11319729 -0.20969844 0.2730904 -0.14568451 0.07248061 0.037312716 -0.1228632 0.07567527 0.19248757 -0.13656683 0.01377215 -0.042904895 -0.09109273 -0.222874 0.14318426 -0.20545173 -0.17574447 -0.064099826 -0.16714035 -0.16384839 -0.26126242 0.10472464 -0.04383766 -0.009216381 -0.01675323 -0.22247775 0.07344214 -0.05736006 -0.10494805 -0.14804949 -0.05011583 -0.09887337 -0.14929813 -0.18282573 -0.11534341 -0.0048383116 0.039649572 0.035232738 -0.061836004 0.019152468 0.15394388 0.2751886 0.14134355 0.089918494 0.041696478 -0.046770893 0.18287681 -0.21225333 -0.17210616 0.05206066 0.35583198 0.077882245 0.018973077 0.009450902
1315 -0.08089759 -0.06699124 -0.034631338 0.11699976 0.30319744 0.056585506 -0.089900486 -0.07992529 -0.13921234 -0.061078854 -0.21780942 0.10006785 -0.23109977 -0.12777916 0.25233158 -0.03966569 -0.040557537 0.0005030047 -0.07168515 0.04040036 0.028484352 -0.10958902 0.06613993 0.0011190688 -0.26128605 0.12984028 0.056058038 0.052576378 0.08859503 0.08282273 0.10759768 0.14899103 0.17852688 0.08947484 -0.15763396 0.028770342 0.04021074 0.021730566 0.3217619 0.47826904 -0.050653517 0.070565976 0.13797107 0.11953234 0.017911138 -0.034997445 -0.033850476 -0.11719824 -0.2546224 0.18679443 -0.101569675 0.16111943 -0.030845102 -0.097423606 -0.15104033 -0.090572216 0.017677778 -0.36973286 0.19828235 0.23008274 -0.08919622 0.034009922 0.24891523 0.09874412 0.16770437 -0.038097285 -0.00049110263 0.11749026 0.10501733 -0.10314511 0.00456895 0.16165645 0.08963501 -0.021247545 -0.03355477 0.028756844 0.0982478 0.16140062 -0.11490393 -0.15244755 -0.09069993 0.09823718 0.06881975 -0.09576052 0.05880601 -0.07847437 0.18658046 0.09648633 -0.043372195 -0.045437913 0.010354335 0.12517476 0.16938114 -0.01503908 -0.116685286 -0.061164167 0.09450933 -0.117989086 0.055697877 0.006345307 -0.016173718 0.030804519 -0.06741082 -0.08371766 0.07414051 -0.0918381 0.12153113 -0.08293614 0.06523404 -0.1619328 0.10191889 -0.14414598 -0.007200117 0.1030204 -0.13105476 0.08604505 -0.07442581 -0.26380002 -0.07623908 0.17182307 -0.11302391 0.13838482 0.083108515 -0.019150231 0.111549206 0.39404282 -0.19169672 -0.17955305
2016 -0.07858214 -0.09021927 0.22544414 0.25182647 -0.07912433 -0.07729327 -0.186744 0.15639986 0.29259786 0.15989757 0.3760556 -0.12333821 -0.22775218 0.17463437 -0.08095671 -0.00058846106 -0.17708845 0.21676064 -0.14383619 -0.31545505 0.2751825 -0.09581649 0.12376775 0.4804406 -0.019159224 -0.14748791 -0.10219066 -0.06993215 0.19325832 -0.21345441 0.22321646 -0.007710668 0.12807745 0.16606744 -0.29800352 0.25985083 0.2787953 -0.010514699 0.25811812 0.01780761 -0.026277624 0.090558365 0.020910066 0.10454983 -0.00015795277 0.11882308 0.13790095 -0.052628238 -0.27588955 0.27785227 0.0018916233 0.08943227 -0.20957538 -0.030022372 -0.3933944 -0.07072809 0.41063416 -0.14472866 0.20878601 -0.19341923 -0.039021157 0.19583267 -0.024485452 0.02792348 -0.00078891206 -0.1441328 -0.20090699 0.32081938 0.068830654 0.07961667 -0.1305947 0.038972158 -0.17130038 0.16415535 -0.08603785 -0.016827213 -0.13817766 -0.1564661 0.117445536 0.061361287 0.37838173 -0.029742666 -0.04142102 -0.16647404 0.056053072 -0.037567843 0.14760472 -0.3431463 0.2361781 -0.22972392 0.045809146 0.059857607 -0.06758287 -0.09274539 -0.015843967 0.056795646 0.44705388 -0.31077212 -0.1485436 -0.036800835 -0.1172265 -0.07016758 0.27876613 -0.27408433 -0.18632522 -0.03353714 -0.030824183 -1.1193282e-05 0.24771878 -0.16201758 -0.18215936 -0.22797312 -0.11715762 -0.06892373 0.1282846 0.056552876 0.063118584 0.18641314 0.017330099 -0.21165381 -0.01768364 -0.13494287 -0.11590443 -0.24107826 0.073750064 0.045285743 -0.08445055 -0.036675815
817 0.025813092 -0.10148486 -0.018341757 0.15378049 -0.20388477 0.005560864 -0.065701045 0.20297378 0.16410495 -0.3733499 0.18287317 -0.021370888 -0.17883289 -0.016906623 0.20386845 0.08227403 -0.21912378 -0.042904716 -0.25265142 -0.028494362 -0.04733704 0.09453949 0.008020088 0.1754852 -0.16997416 -0.2124916 0.0689908 -0.14945914 0.087671235 0.09237963 0.0045125396 -0.10060664 -0.0970876 0.053913258 -0.38789573 0.07536828 0.09118534 -0.03512731 0.0039478256 0.15103601 0.121319816 0.105327524 0.08775147 -0.009471738 0.062065765 0.10868932 0.050285503 0.1107839 -0.1329661 0.20933057 -0.19011842 -0.067804396 -0.083065175 -0.02184372 -0.17272158 -0.008770427 0.22235447 -0.20057437 0.23091346 0.24382833 -0.019531403 0.17687695 -0.15416977 -0.025517153 0.0050793495 -0.074716546 -0.14570618 0.15152498 0.17999758 -0.20164984 -0.22445174 0.095950715 -0.08247074 0.14887074 0.060151044 -0.283477 -0.0556426 -0.21140525 0.07335713 0.20309988 -0.08352786 0.029766308 -0.05839761 0.09949834 0.064915806 -0.027108017 0.055463783 -0.22617176 0.17904224 -0.04521326 -0.18951972 0.020343373 -0.21751744 -0.124474004 0.025695235 0.0015376111 0.28864935 -0.15127034 -0.12961844 -0.030124541 -0.029979516 -0.27714074 -0.17003545 -0.23824827 -0.25623393 0.019147111 -0.11529739 0.14246595 -0.031012379 -0.06906408 -0.04972046 -0.092563346 0.021162476 -0.030539451 0.20523942 -0.17260379 -0.15517572 -0.07639559 0.25996265 0.0020336958 0.13092722 -0.08446079 -0.017741324 0.076672144 0.11973069 -0.08293896 0.0046571763 -0.0038770293
5390 -0.2725183 0.05694831 0.094085135 -0.023804462 0.11765828 0.17967664 -0.094655134 0.38649175 0.02974219 0.05483355 -0.008776189 -0.18382373 -0.15917179 -0.18892223 0.3474008 0.049439996 0.15755512 0.094879486 0.12421115 -0.1585444 -0.20060685 0.0715947 -0.16682066 0.36362213 -0.13884959 -0.08025703 0.07380932 -0.37106746 0.032825842 0.23599939 0.22119509 -0.043265585 0.057910573 0.040529657 -0.08709615 0.3954293 0.0052331267 -0.15814643 0.11568062 0.23028712 -0.34967408 -0.024702288 0.14299962 0.037860792 0.21596745 0.13674597 -0.13693368 0.26710728 -0.37926608 -0.20102753 -0.081898116 -0.17763051 0.018839093 -0.058924433 0.17406686 -0.1347803 0.22352481 -0.19120224 0.25355062 0.40107697 0.078693 0.19240226 0.0037772425 0.061402064 0.07474619 -0.2760948 -0.012704241 0.31149244 -0.014128604 0.13711672 0.17616537 0.10359689 -0.09194774 -0.045338124 0.21730985 0.057164345 -0.018387571 -0.09287283 0.032766543 -0.18779138 0.023947198 0.20409808 -0.11699052 0.04811402 -0.059111297 0.033685707 -0.15116115 -0.0071152914 0.15836594 0.031305708 0.13524675 0.26716626 -0.15012659 -0.14153834 0.03349679 -0.0010418915 -0.24475753 -0.043755446 0.19932848 0.16813712 0.08590862 -0.2554452 -0.019884638 -0.06425332 -0.22969842 -0.2016203 0.099570416 0.1363947 0.006969882 -0.028991917 0.23352686 -0.15168384 0.11979211 -0.27103135 -0.034828078 0.03864359 0.07525785 0.07364878 0.008349293 0.29340038 -0.070675984 -0.13792615 -0.026838545 -0.021391714 -0.020879524 0.14767063 0.02437305 0.07178785
3872 -0.15770748 -0.33458388 0.09456729 0.028721556 -0.2549747 0.05227292 -0.27460825 0.24914844 0.039860502 0.06523808 0.046941616 -0.124285035 -0.15228002 -0.03733087 0.11739919 -0.24635905 0.21614201 -0.3017546 -0.2537287 0.041183755 0.17610206 -0.15521587 -0.08287723 -0.029597897 -0.23786648 0.09641146 0.03364936 0.016267566 0.08429687 -0.15977287 0.042290583 0.21197636 0.3442141 -0.05595958 -0.18796493 0.22055526 0.2591285 -0.09181906 0.0674448 0.22126439 -0.24256855 -0.21340622 -0.076449364 0.31040382 -0.07329178 0.08481239 -0.08101383 0.01705453 0.106104694 -0.17002752 -0.0923622 0.040262822 0.05697516 -0.14812705 -0.03170307 0.02341609 0.14833036 -0.10349349 0.098230764 -0.003181592 0.20371944 0.103315696 -0.16561656 -0.13124934 0.25335395 -0.13375407 -0.25451186 0.057271462 0.24417637 0.04395259 0.14691028 0.107120626 -0.06333177 0.27012885 0.046643566 -0.19201039 -0.06778207 -0.1469372 0.13478209 0.038494654 0.03874029 -0.3431259 0.043541353 -0.18546763 -0.0020534003 -0.21891658 -0.067520395 -0.2785673 0.3410725 -0.00438908 0.12618776 0.10981574 -0.10039463 -0.25248477 -0.053218905 -0.2865974 -0.054324117 -0.027853506 -0.27116132 -0.28159586 0.11243793 0.054442298 -0.17395216 0.05878391 0.15546155 -0.5416759 0.08541319 -0.11656711 0.043428726 -0.25456032 0.2704009 -0.13503261 -0.087146334 -0.107000574 0.105351545 0.122707866 -0.45417857 0.16384189 0.08150267 -0.07358268 0.008873843 -0.20920934 -0.1375705 0.36381143 -0.12559217 0.19320637 0.24431096 0.0326097
5703 -0.049630295 0.064389564 -0.006035426 -0.108160086 0.29956052 0.0057353866 -0.1892019 0.18421827 -0.1455893 -0.1096024 0.112797424 -0.19475353 0.035234585 -0.16016872 -0.14559942 0.24178453 0.08952107 -0.008197478 -0.14824425 0.1459985 0.29829413 -0.29078296 0.3036185 -0.21854049 -0.10075398 -0.12770943 -0.0150219165 -0.055854887 0.05515992 -0.09294567 0.08165938 -0.116851404 0.4244983 0.053409763 -0.35562265 -0.16986392 0.12087764 -0.14011852 -0.2787207 -0.00722454 0.17984882 -0.14095674 0.20460843 0.14651111 0.06249531 -0.056242492 -0.2520323 0.19293223 -0.42408696 0.27106616 0.16708736 -0.063373335 0.06887139 -0.14736277 -0.050607212 -0.13514836 0.0631605 -0.09163922 0.06188392 0.20164452 0.055047277 0.16552754 -0.08362256 0.16235925 -0.041138265 0.12917492 0.020087404 0.23152177 0.057860125 0.06689337 -0.07104116 0.01542309 -0.24174187 0.1215634 -0.14957175 -0.0810546 0.038709097 0.08636809 -0.050647974 0.12981628 0.06861434 -0.26563868 -0.47013915 -0.22769928 -0.13961677 -0.037658896 -0.30577508 0.07762486 -0.19063847 0.08214803 -0.12104949 0.112642966 -0.10113059 0.14095683 -0.0053650932 -0.106413655 0.07911803 -0.13865845 -0.18885745 0.023217607 -0.29172972 -0.0053648115 -0.021186033 -0.2818874 -0.041538335 -0.17857766 -0.07208285 0.20555516 -0.09045004 -0.6821113 0.11155646 -0.08507428 -0.1607232 -0.10940365 0.15889563 -0.072807565 -0.087461986 0.250563 -0.20833111 0.019786036 -0.024521235 -0.083968386 0.012112814 -0.051972874 -0.23736341 0.19476052 0.109920755 0.09101556
4012 0.011754085 -0.1763444 0.1237289 -0.10842102 -0.10137369 0.02646509 -0.20596878 0.027570074 0.12706837 0.01676353 0.12470432 -0.21778211 0.18448 -0.015663257 0.22314955 0.20411457 0.20385063 0.19432144 -0.2507069 0.23808037 -0.03250575 -0.036951788 0.01715505 0.18177085 -0.15909156 0.07300442 -0.006073073 -0.4288628 -0.12679145 0.2810997 -0.048484977 -0.18658833 0.14996159 -0.28681985 -0.30125752 -0.13139606 -0.044878215 0.14049695 0.29140005 0.036123123 -0.013940664 -0.18857718 0.37048995 0.07652143 -0.22539307 0.073916875 0.23375694 -0.046345565 -0.26358658 0.087413676 0.0011068375 -0.11099695 -0.25690275 -0.079349704 0.031540252 -0.21003349 0.1050322 -0.20831266 0.048467275 0.02323771 -0.08139731 0.08076966 0.34911513 0.18159226 0.056384142 0.12456114 -0.20257962 0.21564661 0.028863976 -0.17111078 0.002135612 0.11275624 -0.04271801 -0.2160411 -0.060664177 -0.097122274 -0.11921616 -0.11924513 0.021734763 0.017423175 0.12540303 -0.030840883 -0.12544338 -0.2057559 -0.11821672 -0.030805768 -0.21786335 -0.10902255 0.018620765 0.06468643 0.0085397195 -0.010862616 -0.03716237 -0.14244914 0.01181225 -0.17824025 -0.11523166 -0.13646267 -0.16721332 0.054185912 0.055575788 -0.12867892 -0.2403704 -0.08415134 -0.08787853 -0.046319377 -0.17658117 0.1434142 0.07955219 -0.24785176 0.23640922 -0.115444794 0.09464071 0.15530436 0.21568245 0.21472384 -0.041207235 -0.02760987 0.16852883 -0.07175635 -0.1958663 -0.14083697 0.0032859722 0.19538762 -0.0007666352 0.11216551 0.12349003 -0.090837404
2727 -0.02260173 0.034651257 0.008091163 0.11177814 0.12727882 0.04133138 0.09302959 0.2970485 0.045346852 -0.011791975 -0.027490752 0.24420583 0.18478718 -0.21791562 0.21614169 0.21620661 0.114788875 -0.100309506 0.1628062 -0.074554086 -0.039346125 0.09979671 0.060668677 -0.010404596 0.014217118 0.14588544 0.08811246 -0.2584143 0.23179495 -0.05007901 0.10252987 -0.038019735 -0.09008762 -0.15100223 -0.21229833 0.09396049 -0.18710859 0.009286111 0.25762907 0.07571046 -0.3906292 -0.1409565 0.29845947 0.10920498 0.022555264 0.06315888 -0.0034653787 -0.0029018256 -0.20844899 0.0044983975 0.08986359 -0.24061051 0.0051959977 -0.23161888 0.13220197 -0.008868971 0.24193127 -0.21925934 0.43445295 -0.07324701 0.09391292 0.13726929 -0.16826947 -0.023867566 0.32499677 -0.13787247 0.2174855 0.34976092 0.15285563 0.113273166 0.123852916 -0.2075388 -0.25925592 -0.01972592 -0.25636974 -0.066730194 -0.19893332 -0.031156112 -0.45754412 0.033530675 -0.10215518 0.014284601 0.00010177747 0.04960723 -0.04569686 0.22544496 -0.10531956 -0.16735648 0.11444594 -0.12700708 0.16979806 0.08863718 -0.027774634 0.059931476 0.0833389 0.13594545 -0.1510629 -0.019799005 0.04192035 -0.041613784 -0.06727373 0.060275976 -0.30202264 -0.2631338 -0.16692534 0.1774865 -0.08127074 0.16558821 0.0002149034 -0.16088347 0.082202494 -0.2669412 -0.193698 -0.06151403 0.2065054 -0.029482549 -0.0862622 -0.119008794 0.00080416526 0.12792036 0.042561274 0.17467983 -0.017662201 0.010962978 0.028221713 0.0851456 -0.28108448 -0.023035228
3123 -0.027375802 -0.1729289 -0.29839832 0.034052465 -0.0029643707 -0.2967094 0.1880161 -0.05567364 0.12734462 -0.14367126 -0.19079156 -0.041380193 -0.16326725 0.034641754 -0.12618826 0.009542775 -0.15286794 0.32142425 -0.19836882 -0.1765911 0.20187354 -0.15665281 0.025689086 0.12523608 -0.23894021 0.3103928 -0.37859052 0.1489921 -0.057192154 -0.13055165 -0.073468536 -0.042355314 0.05529265 0.14323 -0.19413713 -0.23715915 -0.29755494 0.17401877 -0.13115579 0.0476053 0.2924747 0.02590321 0.18458141 0.24616915 0.16266626 -0.058256265 -0.297236 -0.0325893 -0.20286822 0.29496574 0.16189834 -0.022505635 0.041828938 -0.34851432 -0.36841103 0.010964815 0.049741913 -0.46729773 -0.12802422 0.10762715 0.2624017 -0.0081760865 0.15375566 -0.0791051 0.33240956 -0.30011353 0.107087485 0.34507513 -0.09758822 0.054155998 0.51243144 -0.001643602 -0.0052505233 -0.29186678 -0.04230828 -0.028104722 -0.115677044 0.004792901 -0.055234026 -0.13597149 -0.27307302 0.07285252 0.2382235 0.029557874 0.32311335 -0.053003326 -0.25147822 -0.1001374 0.05726451 0.1359643 0.20530745 0.015598967 -0.023271967 0.033412002 0.06403328 0.05072068 -0.0018824138 -0.1288638 0.020828472 -0.38781872 0.062284257 0.33594853 -0.11004528 -0.116099596 0.064588144 0.094005294 -0.059662044 -0.2721501 -0.10013635 -0.25600287 0.12311463 -0.08364303 -0.10823336 0.18691336 0.24026217 -0.0015708485 0.07608796 0.13634908 0.11399554 -0.010025995 -0.1030427 -0.11225837 0.15081002 -0.017206773 -0.10545447 0.0073452587 0.21072109 -0.114956014
4409 -0.20174372 0.017957915 -0.06001269 0.21824595 -0.07474663 0.03828609 0.054203514 0.11009434 0.10883352 0.08624356 0.16831397 -0.045307938 -0.118437186 0.1304879 0.15193443 0.23274942 -0.03823557 0.10755728 0.040811647 -0.2560079 -0.03295561 -0.07168891 0.1755755 0.06256585 -0.1836848 -0.0090003135 -0.17130218 0.05599366 0.2843217 -0.20601344 -0.05560448 -0.036864482 -0.20201996 0.08796232 -0.22027567 0.18304655 0.30476752 0.18975618 0.13743539 -0.04826906 0.26317096 -0.020710459 -0.08295727 0.18859549 -0.061324205 0.27716574 0.19012797 0.22928788 0.06798477 -0.16023557 0.037752833 -0.2256266 0.051888 0.12078292 0.06958067 0.0061292923 0.16897072 -0.06385121 0.3757291 0.006128298 -0.1699885 0.12177972 0.044615265 0.17916818 -0.0046866643 -0.17933077 0.014695988 0.07176799 -0.020650534 0.049796294 -0.08793236 0.011279182 -0.12033577 0.29875526 -0.00074183836 -0.037738703 -0.17948554 -0.098514296 0.31511953 -0.32688394 0.27617553 0.06472243 -0.11571202 -0.46951556 0.31901836 -0.32952937 0.0538164 -0.029743688 0.18050478 0.03801284 0.12841344 0.11594707 -0.042185087 0.0051769465 -0.17091885 0.1696797 0.39906457 -0.11145095 -0.039347786 -0.04869973 -0.034719102 -0.05139757 -0.0679511 -0.3118211 -0.067234635 0.24354298 0.08045829 0.116525516 -0.025849057 -0.40686777 0.32483432 -0.22750923 -0.3314923 -0.14832945 -0.06667554 -0.18148877 0.02007529 0.16533676 0.4010918 -0.12177681 0.035515852 -0.28585485 0.20430349 0.031826407 0.05214691 0.04501234 -0.0956516 -0.23250128
4572 0.08976625 0.10524218 -0.232806 0.30291593 -0.15859778 -0.2521884 -0.11725134 0.03692701 0.0022332054 0.012774868 -0.17061666 -0.10593904 -0.061854865 0.1333918 0.17815995 -0.020380635 0.02403906 -0.07833999 -0.10238578 -0.012253195 0.044721507 -0.138082 0.43850842 0.2267386 0.03474171 -0.26987758 -0.29467222 0.21996419 0.13080621 0.14155085 -0.027443405 -0.34607664 0.0073294817 -0.11787509 -0.26063398 0.27210957 -0.019537378 0.06056098 0.16007158 -0.03883601 0.3029158 0.16757952 -0.17242184 0.13359708 -0.0008310548 0.08660001 -0.21196733 -0.014856508 0.13576531 0.4302151 0.014187442 -0.13783313 0.02238764 -0.015974408 0.032356426 -0.3523011 0.33786088 -0.13881911 -0.25650096 0.08489424 0.18956737 0.34186953 -0.09852417 0.24904083 0.06197099 -0.03053075 -0.06958207 0.28192648 -0.062729254 -0.10847442 0.2841957 0.13261795 -0.03317001 -0.2658735 -0.0536765 -0.1701367 -0.18010072 0.3166412 -0.13709828 -0.10894748 0.07874827 -0.17949937 0.4019139 0.1004228 0.036116052 0.16729085 -0.14038455 0.014771282 -0.15408829 0.028298931 0.24831696 0.46247506 -0.11542312 -0.12661083 -0.16729026 -0.052006472 0.001315042 -0.15543355 -0.0039302344 -0.07447841 0.17989473 0.03667606 -0.25327104 -0.0695014 0.08229031 0.07131833 -0.07419313 0.017863886 0.05228686 -0.09547497 0.0844912 0.14725481 -0.09130265 0.094222285 0.052383643 -0.3183151 0.2223884 0.08006506 0.085270405 0.01576101 0.029187927 -0.09356644 -0.21986078 0.0030038634 -0.0018266777 0.0037220889 -0.12268999 -0.049367685
2889 0.043600686 -0.06839329 0.07988882 0.03176984 0.040002994 -0.035850294 0.17796718 0.1995125 0.013798631 0.06957831 0.022087457 0.04048342 0.12295504 -0.03638552 0.14893144 -0.08403498 0.07241839 0.027480716 -0.28160983 -0.038912117 -0.17965598 -0.14204152 -0.1929319 0.048709597 -0.14985028 -0.03057875 0.19686073 -0.26334608 0.013235248 0.40903333 0.10230917 -0.29923975 -0.17627957 -0.10421109 -0.28789172 0.16415438 0.018876184 -0.1389385 -0.07085956 0.14506693 -0.18412629 -0.0054313187 0.23004192 0.06903156 0.12110204 0.06654412 -0.15892176 0.14113022 -0.24011074 -0.11407732 -0.04836997 -0.108346544 0.0142070325 -0.016384738 0.10832269 -0.12834434 0.18867508 -0.47363433 0.33452824 0.013337443 0.1118185 0.26360738 0.12431785 0.1881627 0.18433002 -0.19684307 -0.103806585 0.4035025 -0.07600249 0.09056562 -0.0018990735 0.07555772 0.14684351 0.08135454 0.10184968 0.15898661 -0.06461774 -0.1063532 0.10124563 -0.19133201 0.0026106222 0.13096735 -0.3294501 -0.10694703 -0.20113494 0.027504 -0.21021341 0.17504556 0.1250724 0.19782032 -0.16629304 -0.07461911 -0.0815351 -0.2669773 -0.25812647 -0.040884264 -0.05105788 -0.110838465 -0.10174254 -0.16615234 0.16592969 -0.14047222 0.09925693 -0.111221306 -0.06820688 -0.26418948 0.08306548 0.1523032 0.011927058 -0.099117726 0.22553936 -0.37325475 0.38494432 0.09675848 -0.005054238 0.16878518 -0.114467576 -0.02701648 0.035668246 -0.06771407 -0.04218559 -0.30872703 -0.22108611 0.16230895 0.04472178 0.010541534 0.09499249 -0.07232097
2053 0.18329968 0.16216367 -0.03464208 0.09969351 -0.075623475 0.11324098 0.031917054 0.2929807 -0.08561287 0.18292508 0.15073557 -0.33598775 -0.16825937 -0.0029882237 0.39384338 -0.04090916 -0.087989874 -0.053185258 -0.11956292 0.026634013 -0.17680207 -0.066907085 0.04625836 0.27257946 -0.28285888 0.0037056587 0.25435233 0.12842418 0.25075364 -0.0361879 -0.030019538 0.027829219 0.10269243 -0.17281353 0.068990946 0.33846378 -0.14906397 -0.16484882 0.19537665 0.22705826 -0.24897835 0.1267011 0.09214121 0.08613568 0.07704977 0.060118906 -0.20494594 0.18539543 -0.36966798 -0.13697074 0.00744905 -0.3145446 -0.13128275 -0.09217547 -0.23298909 -0.19872732 -0.0370308 -0.11521936 0.22727957 0.2107962 0.11618535 0.1736004 -0.20873405 0.37232366 0.047678944 -0.10691611 0.14763783 0.34756908 -0.087807424 0.07339776 0.05198414 0.03265163 -0.13416795 -0.14836885 0.11520182 0.26552916 -0.18140553 -0.28167132 -0.019365039 -0.04897254 0.016914088 0.26774836 -0.099106394 0.018854704 -0.24549873 -0.16215228 -0.2979954 0.07444901 0.227138 0.23137929 -0.11858612 0.23288096 -0.09432455 -0.2047497 0.27066907 -0.03360603 -0.14419799 0.08435717 0.10096292 0.21296017 -0.069802895 -0.23055181 0.04121309 -0.04760228 -0.23886682 -0.20617454 0.015710488 -0.022817757 0.18601462 -0.15080597 0.4075856 -0.23371734 0.14828874 -0.07049817 0.01875315 -0.088299 -0.26958853 0.02246378 0.06640801 0.2337573 -0.0012345631 -0.14359131 0.030410614 0.03220427 0.20866652 0.28539956 0.39022413 -0.20796692
1674 0.1669537 0.04865616 0.26832342 0.17844957 -0.14897597 -0.14344834 -0.16866753 -0.17981055 -0.2248608 0.036921415 -0.09527025 -0.012016411 0.13617148 -0.044061787 0.06077287 -0.02046574 -0.03593341 -0.1192141 -0.35090023 0.13538183 -0.23378289 -0.07836254 0.2729107 0.11442522 -0.30621082 -0.13905242 0.24233171 -0.2694693 0.12814362 0.07010921 -0.03711211 -0.054448 0.052705873 -0.11092853 0.31347883 0.11229588 -0.0061651594 0.08113691 0.10813372 0.24921116 -0.19780956 0.09653297 0.16789208 0.21339864 0.27811742 -0.115170404 -0.22754462 0.13659066 -0.10923689 -0.031529665 0.21977374 -0.13765466 -0.15173164 0.15425003 0.311875 -0.09007384 -0.011890545 -0.21807767 0.23813908 0.29992196 0.27707464 0.07844235 -0.2496124 0.3250228 0.21974376 -0.23813102 -0.3977361 0.07388861 0.1815207 -0.13935716 -0.15343864 0.19201744 -0.20445079 0.30971745 0.08603007 0.22233678 -0.11008233 -0.08075771 0.0746571 0.22691853 -0.10149085 0.14672181 0.0070832777 -0.14841491 -0.0141954385 -0.48786545 -0.22902326 -0.15377635 0.56061035 -0.04124009 -0.12206645 0.32671 -0.2611526 -0.31071708 0.08429534 -0.12867731 -0.07628955 -0.23430006 -0.13473971 0.092838354 -0.008014215 0.13873248 -0.37219763 -0.17574292 0.07631492 -0.11248744 -0.08869755 0.07687906 0.21854064 -0.14841966 0.14499666 -0.13571614 -0.12911604 0.04299363 -0.32256675 -0.07002988 -0.0441303 -0.027055413 -0.11047984 0.25154987 -0.032532133 -0.19715175 -0.042626835 0.04462268 0.00031177985 -0.08533108 0.09702026 -0.015119832
1155 -0.04064723 0.080643356 -0.14027776 -0.078232646 0.12016565 0.008586423 0.009668704 0.00361502 -0.11279333 -0.28718615 0.106834285 -0.1397067 -0.03890626 0.028017135 -0.049435943 0.07741882 0.165068 -0.0021297827 -0.1714358 0.021403935 0.16066939 -0.24594742 0.06595918 -0.31171778 -0.041325036 -0.31447616 -0.11627726 -0.42091295 0.06776484 0.35730845 -0.04275243 0.014275763 0.057853326 0.3857885 -0.07263563 0.024482395 0.14146596 0.21755512 -0.19953328 0.08458094 0.052420538 0.02693689 0.04831467 0.32706657 0.1059321 -0.23426571 0.06556609 -0.06649899 -0.38013813 0.10157693 -0.08272941 -0.014484428 0.006534663 0.19276118 -0.04985277 0.105304495 0.169148 -0.17306368 0.009589471 0.028415564 -0.0126363095 -0.0022395987 -0.3308692 0.13373 0.025972912 0.13096064 -0.07469982 0.19158415 0.26919934 0.14220716 0.10127929 0.14064106 0.06593834 -0.077571794 0.12592608 0.08343667 0.0043560797 -0.008047969 0.06818738 -0.1378821 -0.027150638 -0.02873989 -0.17486098 -0.12214671 -0.075063154 0.06589959 -0.19602893 0.04476552 -0.1018987 0.021775695 0.11793273 0.26530945 -0.22751579 0.09197452 -0.070219465 -0.07203 0.15164568 -0.21795419 -0.39655012 0.2099292 -0.1537716 0.011400386 0.017937599 -0.1186265 -0.17170759 -0.058557212 0.06402046 -0.019136643 -0.0037092732 -0.6198078 0.2937542 -0.1531471 -0.17132305 -0.33461127 0.16266724 0.060061965 -0.29549572 0.18353222 0.031249467 -0.25204438 -0.07746179 -0.18479674 -0.05128142 0.27899918 -0.011481287 0.10768868 0.021334445 -0.11703208
1048 -0.09138727 -0.13092013 0.025592012 0.06366385 0.079356894 -0.11698467 -0.026358122 0.21476245 -0.055247672 0.11810201 0.17034248 -0.003193217 0.007141621 -0.20841625 0.4350198 0.16993257 0.076127514 -0.069310166 -0.059608363 0.12380169 -0.027901223 -0.02070883 0.12502705 0.005715673 0.024803957 0.0197197 0.09783637 -0.2331385 0.09256756 -0.023237772 0.005772245 -0.21014215 -0.10931613 8.062612e-06 -0.15309349 0.5584593 -0.021708252 0.021551626 0.21524112 0.25458503 -0.040662717 -0.26068354 0.13560595 0.034827083 0.18339597 0.13202672 -0.021908144 0.078989446 -0.060840525 0.058307238 -0.22382346 -0.20340502 0.025491666 -0.018975636 0.055082813 -0.18281218 -0.03705691 -0.23519261 0.1743304 0.047504194 -0.013494202 0.044664092 -0.22264877 0.25318274 0.20113954 -0.2668896 -0.0989894 0.32307768 0.035963584 0.022539647 0.06667097 -0.06702333 -0.14894477 0.24159536 0.0453753 0.104861006 0.04175013 -0.048128158 0.037213728 0.030481186 -0.14966331 0.0072941664 -0.24186121 0.05496689 -0.050689522 0.07951178 -0.18471548 -0.1459029 -0.122165754 0.12506463 0.11061366 0.17504926 -0.098031364 -0.113748476 0.19970337 -0.1736899 0.035979655 0.101083994 0.16557723 0.08984201 -0.21454434 -0.03558693 -0.1055343 -0.42821455 -0.07316662 0.23964223 0.023207236 0.066253744 -0.070150234 -0.08913819 0.14194019 -0.021847023 0.18061672 -0.061651632 -0.07322637 -0.088521376 -0.10296883 -0.017299721 0.21488808 0.27545473 -0.08378585 -0.09931846 -0.14806667 -0.111247644 -0.113047644 0.012696113 0.10810589 -0.07351736
4812 0.032357 0.11628969 -0.09878303 0.23414478 -0.00779074 0.24973013 0.105534986 0.025058107 0.09078285 -0.032332096 0.17648457 -0.12506379 0.16799599 -0.06740331 0.080224745 0.054417353 0.10108029 -0.03738699 -0.10446519 0.13614406 0.034419198 -0.19304267 0.1605808 0.10115763 0.036516417 0.16446248 0.029423114 -0.07064445 0.008482201 0.037757933 -0.116147794 -0.14445485 -0.17409761 0.15627913 -0.184403 0.33785552 0.07280818 -0.032411583 0.06671385 0.21520303 0.02046041 -0.05280151 0.22438355 0.21684586 0.094747156 0.15179814 -0.12721103 0.025873119 -0.035100304 0.12547773 0.23359951 0.05055646 -0.22015227 -0.13807967 0.0615538 -0.0006931304 0.071511805 0.10116751 0.35424438 0.22910847 -0.08677135 -0.14691855 0.24789035 0.09901334 -0.11054047 0.08392742 -0.12238811 -0.11358352 -0.1194679 -0.14175507 0.28460628 0.18578987 -0.11900557 -0.023620412 0.023664488 0.018811252 -0.12563498 -0.23487414 -0.028754126 -0.06746611 0.08719458 -0.024457078 -0.058559246 0.0021338891 -0.08262752 -0.034361746 -0.06484814 0.020134866 0.003122684 -0.0461137 0.011926806 -0.016820386 -0.20570967 -0.27015767 -0.080673255 -0.064984165 -0.0016369428 -0.14161456 -0.3791915 0.060586903 0.17163403 0.041943297 -0.04030724 0.24672885 0.05714102 0.07057266 -0.093106136 -0.026423866 -0.08210602 -0.12560302 0.14961877 -0.16496865 -0.02664173 0.06109534 0.0639229 -0.0031637922 0.15172298 0.25297132 0.20110959 0.18262143 -0.019491136 -0.1334188 -0.1845501 0.14767621 0.14857502 0.1645926 0.039715946 -0.020456713
6136 -0.020841967 -0.16206163 0.16044377 0.0028147274 0.20345443 0.16778305 0.09445817 0.22668613 -0.13777322 -0.25345922 0.15505825 0.026303893 -0.0011879636 -0.020763846 -0.016247699 0.18230192 0.078762956 0.31470588 -0.28678265 0.111657724 -0.3223716 -0.22017576 -0.22316551 0.09801529 -0.26615614 -0.15808588 -0.0068445113 -0.14132649 0.039071787 0.276268 -0.046752963 -0.4208824 -0.14404297 -0.1388728 -0.09072934 0.2354584 0.016264755 -0.039633483 0.12915201 0.29949817 -0.027588552 0.09024651 0.2523455 0.0017069719 -0.0057564955 0.058928177 -0.12116209 0.14413303 -0.09964331 -0.124346405 -0.14274666 -0.15932517 0.011001583 -0.038342874 -0.10548476 -0.03866806 0.25750846 -0.11261943 -0.11177947 -0.14790301 -0.02340264 0.1379508 0.033091385 0.2839725 0.032127302 -0.22203696 -0.03820133 0.08364793 -0.058336586 0.045958545 -0.10296991 0.32392398 0.09938594 0.02268027 0.12442527 -0.10175152 -0.009097722 0.102383696 -0.21635571 -0.050935112 0.03338561 -0.13352937 -0.19446298 -0.13219024 -0.14203846 0.08047352 -0.051420804 -0.11415076 0.16897139 0.17675644 0.063773476 -0.023441536 -0.193316 -0.1452471 -0.14128901 -0.08019886 0.11580664 -0.048295 -0.16155222 -0.14854258 -0.013016527 -0.07732538 -0.33167684 0.046993326 0.034928165 -0.19659892 -0.029550875 0.21062392 -0.015698282 -0.23137723 0.14434445 -0.41234142 0.10050454 -0.15878831 -0.005297851 0.013231732 -0.07797155 0.06818362 -0.046123367 0.24790624 0.03166543 -0.008355747 -0.10857706 0.10262536 -0.11989928 0.18925962 0.05661012 0.0035571307
3737 -0.11954139 -0.10638985 -0.2004665 -0.011861633 0.10413336 0.03114259 -0.32602224 0.0020395627 0.086842604 -0.18711695 0.064044714 0.11757944 -0.11169796 0.050783597 -0.09970148 0.10122155 0.09398655 -0.012409594 -0.06632614 0.15575753 0.14378463 -0.089312464 0.29459652 0.11907493 -0.25833195 -0.07741329 0.078973114 0.20219445 -0.10129345 0.14783742 -0.11716744 0.0018127951 0.22546431 0.04451122 -0.02554809 0.072159685 0.046497162 0.23660113 0.47218305 -0.13161564 0.27179155 -0.0020768116 0.056980606 0.051253214 0.09668336 -0.030705433 -0.025395948 -0.22698337 -0.045924444 0.14017105 0.19666769 -0.1761331 0.009220041 0.32816583 -0.114358276 0.27440205 0.01226179 -0.5698535 -0.22253643 0.047612313 0.2451681 -0.05568638 0.07607166 -0.04271766 0.011170729 -0.2999293 -0.12963136 0.41712525 -0.30001432 0.047263533 0.0720829 -0.2071282 -0.045051605 -0.46570784 -0.012939611 0.025066739 -0.32294488 0.060902003 -0.10422618 -0.20959565 0.013208545 0.013825138 0.13425705 0.303491 -0.0818739 0.21633989 -0.30173206 0.13441081 0.017297287 0.05720995 0.2155569 -0.16397603 0.14624213 -0.13345562 0.2822337 0.11734303 0.08569018 0.03977561 -0.11338712 0.0362261 0.0027010418 -0.001235968 -0.007870749 -0.16815981 0.19105193 -0.10508677 0.13139708 -0.10303162 0.13912547 -0.34262064 0.29898557 0.013717404 0.118727714 0.056214776 -0.045335017 -0.156891 0.05654073 -0.010027944 0.5351792 0.23356254 0.13110772 -0.20610496 -0.16689155 0.2551197 -0.047820676 -0.060431372 0.16685939 0.29158884
1628 -0.26170814 -0.37103683 -0.06539843 0.06869405 0.16558081 0.14633134 0.06602362 0.016478317 -0.09747239 -0.21870568 0.07644142 -0.101627104 -0.08493469 -0.13619016 0.31278253 -0.02003202 -0.012238676 0.0028784247 -0.31021088 0.03821663 0.10730913 -0.107710995 -0.15017603 -0.20384708 0.09591643 0.038696762 0.006791503 0.10622703 -0.0042638564 -0.019540764 0.17046168 -0.18280849 0.09113083 0.23312691 -0.23937233 0.3102933 0.15133719 0.016599033 0.07265584 0.17045733 0.039343663 -0.0674913 0.118117824 0.15215157 0.3262104 0.08585649 -0.16462888 0.14102712 -0.053158574 0.04877308 0.02135721 0.14425814 -0.06536606 0.0144892 -0.053975698 -0.08361888 0.16852319 0.023914121 -0.051119786 -0.06409663 0.035740618 0.09847439 -0.041971903 0.214214 -0.07466734 0.09179278 -0.004505841 0.0047945287 0.18497433 0.16440815 0.2328932 0.10128925 -0.04341425 -0.019453004 -0.25820845 -0.034430888 0.062028095 0.017021077 0.026276466 -0.15019493 0.058613822 0.087216824 -0.060338013 0.061964538 -0.042796675 -0.09375394 0.02964552 0.02466558 0.06356755 -0.06301032 -0.15130821 -0.017104506 -0.13459754 -0.2652788 -0.12949347 -0.008013812 -0.022194123 -0.10330472 -0.02656156 -0.02888738 -0.007778858 0.1923256 -0.1424086 0.05577811 -0.017197698 0.10069731 -0.040049337 0.010462959 0.24766159 0.04076875 0.23173682 -0.032229368 -0.14085802 -0.19021147 -0.0957611 0.012818475 0.20410366 -0.05567239 0.058219753 -0.21438947 0.1611519 0.053048167 -0.14158975 0.081165716 -0.08279769 0.22001785 -0.032017738 -0.12684429
2289 0.11636343 0.040463757 -0.08289331 0.10248279 0.14539334 0.14177331 0.18761621 0.26258728 -0.15981619 -0.101442635 -0.04299526 0.024209445 -0.09885529 -0.02403787 0.07638886 0.12145629 -0.163113 -0.1102251 -0.11224099 0.06071913 0.2408989 -0.077691115 0.045549482 0.08644859 -0.09725658 0.057666667 -0.10604838 -0.08663386 0.14150247 0.03719993 0.008905477 -0.14567225 0.089929104 0.11716018 -0.27902862 0.2852934 0.3207507 -0.11191657 0.17385589 0.29841986 0.1385895 -0.18568146 0.13980542 0.1353611 0.25121224 -0.07808273 -0.2102287 0.11083465 -0.23128797 0.03774113 0.1998992 -0.15355489 -0.11615998 -0.26871207 0.018496128 -0.116121925 -0.024314024 -0.10998326 0.086449906 0.07900131 0.31772763 0.016983764 0.20845789 0.17409143 0.107554585 0.37173367 0.12515785 -0.0887296 0.0805028 -0.20607823 0.27090725 0.06329831 -0.1659351 -0.107169114 0.3230936 -0.36063886 0.22066556 -0.23469272 0.07806428 -0.27347988 -0.04605442 -0.102602735 -0.14244173 -0.04466372 -0.08280492 -0.019508101 0.11327409 -0.17391202 0.08149231 -0.19212751 -0.13204664 -0.13616136 0.094079435 0.03993274 0.025873236 0.22221641 -0.12057684 -0.12180441 -0.15667675 0.35472247 0.18158421 0.019738816 -0.168986 -0.014090129 -0.054450426 0.0644157 -0.35458797 0.17096385 -0.17941296 0.27725497 0.16605595 0.10993006 -0.21589823 0.118134126 -0.09889959 0.17819238 0.071800664 0.19013922 0.19657353 -0.20009306 0.17877562 0.055008627 0.12703744 -0.080236256 -0.1046097 -0.024782686 -0.025370114 0.10217204
1984 -0.05111644 0.083254695 0.00659096 -0.21363375 0.1429604 0.1496951 -0.34737694 0.4970517 -0.058179017 -0.28596553 0.07208184 -0.24967225 -0.13039806 -0.010205853 -0.14787208 0.2615706 0.121804595 0.16951248 -0.19779712 0.44203636 0.2831728 0.13239193 0.06382517 0.3497459 -0.08006018 0.3376139 0.45460513 0.079937175 0.19107975 0.014050339 -0.021410082 -0.5297927 -0.37246454 -0.0656889 -0.10060898 0.48864764 0.07985794 -0.05622871 0.10393269 0.367896 0.20045222 -0.25240245 0.3899247 0.1867375 0.24076496 -0.15616776 -0.37986144 0.08625199 0.22630878 0.22346526 -0.0037765275 -0.16555797 -0.067396164 0.048116744 0.051745217 -0.20275468 0.096162036 -0.06320912 0.16157684 0.29292116 0.3440474 0.06860173 0.18996672 -0.114369154 0.19146308 -0.33099574 0.0058181803 -0.020204803 -0.025208287 0.36917904 0.010604631 0.13928999 -0.24488485 -0.060899742 0.3900964 0.077427335 -0.14454903 -0.3036801 -0.0578981 -0.11778455 -0.07098356 0.07603853 -0.14342706 -0.029051928 0.030378433 -0.13950475 -0.16636367 -0.4764018 -0.029405458 -0.12734176 -0.052710794 0.10405189 -0.12586126 -0.30199328 0.010419915 0.032046705 0.055995557 -0.4418937 0.19767907 0.19675726 0.088843174 -0.16353692 -0.06845858 0.16654173 0.00031445062 0.044045936 0.27076963 -0.20057409 0.07125187 -0.45154387 0.57384574 -0.18431443 0.15135786 -0.28503987 -0.18710501 -0.093545966 -0.008520272 -0.17559122 0.35260546 0.15381958 -0.22722141 0.19971068 -0.3368083 0.0014801462 0.5316693 0.40668193 -0.18226683 0.0502196
1520 -0.093006484 0.17383061 0.20704092 0.070310816 0.14229433 0.289198 -0.004228069 0.32248858 -0.19526547 0.03797271 0.049572464 -0.35570526 -0.09756672 0.16881496 0.21639459 -0.06001053 -0.020382518 -0.11874253 0.05064192 0.17633201 -0.16219775 -0.1776728 -0.17759776 0.10374659 -0.12525986 -0.03127938 0.33100906 -0.094474785 0.18649878 -0.06403773 0.16235244 -0.24593987 -0.07115396 -0.17984799 -0.07252236 0.24686278 0.043310888 -0.01108906 0.17606258 0.18766049 -0.12039574 -0.13956882 0.22278225 -0.0707595 0.0541416 -0.21277198 -0.12423794 0.1719141 -0.1139653 0.05321068 -0.052685913 -0.39676836 -0.104102224 -0.2578278 -0.101194814 -0.115058385 -0.009561778 -0.28075278 0.4663452 0.34164825 0.24769542 0.068518296 -0.159796 0.18856458 0.012947308 -0.12216837 -0.023021327 0.20466377 -0.14423798 0.025757387 -0.002491261 -0.029297657 -0.07031043 0.01752277 0.27991486 0.15402788 -0.12671484 -0.07703743 -0.007766534 0.10429254 -0.03335607 0.06326026 -0.019188536 0.034526292 -0.013686974 -0.030705584 -0.27939802 -0.16919287 -0.078649655 0.013327502 -0.10173668 0.27126855 -0.09627351 -0.36677068 0.04252863 0.15309618 -0.11091665 -0.23212364 0.3492594 0.018539434 0.025266502 -0.20860317 -0.06933701 -0.009248029 -0.1127816 0.07692909 0.0881904 0.0829622 -0.074638456 -0.28749317 0.33821118 -0.18412052 0.044152047 -0.22046664 0.11253198 -0.20548548 -0.030824332 0.1233362 0.3226094 0.12231175 -0.20385918 -0.21815845 -0.16579446 0.022664597 0.197159 0.2109445 -0.041401353 -0.09803772
978 -0.2892776 0.037571073 -0.064123385 -0.04101182 0.23873398 0.060239874 -0.16450706 0.392613 -0.003933956 -0.10089277 0.17369376 -0.19810674 -0.1897536 -0.0021212797 -0.104606636 0.38474253 0.082460254 -0.08667645 -0.1763558 0.37321806 0.20921394 0.13655151 0.00077847013 0.35492894 0.004142188 0.16610144 0.35796472 0.08134466 0.16023768 -0.19253466 -0.06638314 -0.43992317 -0.269864 0.020912344 -0.16019467 0.34324288 0.070139006 0.101909965 0.21176082 0.08015659 0.10043833 -0.34655377 0.18507086 0.099881224 0.26891738 -0.051045034 -0.2688385 0.054428518 0.13836366 0.21921067 0.097789906 -0.15943344 0.07461889 -0.16841003 0.16174267 -0.15765426 0.036218174 -0.114429854 0.17607312 0.23011205 0.50340164 0.03381667 0.03649278 0.036501434 0.08686123 -0.21426104 0.17487697 0.055458017 -0.00047072055 0.36198837 0.09482065 -0.02158388 -0.24657235 -0.07335603 0.28906938 -0.007396894 -0.2536102 -0.12729923 -0.14171019 -0.15218796 -0.06679057 0.10506116 -0.13778853 -0.015252703 -0.030558733 -0.26283664 -0.17384408 -0.34965682 -0.060840063 -0.18194206 -0.22904645 0.076273315 -0.13492171 -0.44978404 -0.050655864 0.08951554 0.04289045 -0.48471516 -0.0061994605 0.2692738 0.026384637 -0.14654766 -0.101859696 0.19359635 -0.15461318 0.10251904 0.09811907 -0.34834972 0.07600539 -0.42754915 0.6194784 -0.16201638 0.104345664 -0.20131308 -0.25393167 -0.25464013 -0.07718471 -0.20129284 0.28237915 0.10044885 -0.3046771 0.16770963 -0.26108006 -0.0046644723 0.47437748 0.47496915 -0.2335498 -0.07068072
3307 -0.44779792 0.14037411 -0.25506514 0.069961786 -0.05737512 0.056934897 -0.030336624 -0.010590297 -0.085467726 -0.08638762 -0.009315946 -0.27984753 -0.33149913 -0.21562344 0.09818571 0.1172444 0.47928122 -0.093142316 -0.47956917 -0.08862556 0.04436728 -0.1921884 0.27104568 -0.026245931 -0.017194156 0.0063269325 0.089145996 -0.022302099 -0.07436053 0.08757181 -0.015845347 -0.07068017 0.04398298 0.007908018 0.0017258613 -0.06133781 -0.18538354 0.29021463 0.11948056 0.049690906 -0.3376057 -0.013655518 -0.15315111 0.06682921 -0.1809414 -0.017963775 -0.057574596 0.061103955 0.14341569 0.07522754 0.22717251 -0.18943764 0.2919807 0.33427474 -0.07551319 0.07555498 0.31607342 -0.36733803 -0.0023886045 0.4374547 0.0357715 -0.10131392 -0.18694484 0.16133575 0.19116527 0.038923014 0.064979345 0.09835076 -0.34971535 -0.27763808 0.3258921 -0.09915372 -0.36330763 -0.022476299 0.13043402 -0.17430635 -0.030972484 -0.22174814 -0.14254202 -0.32973406 -0.05128819 -0.003604873 0.10949398 0.21992902 0.13634574 0.2903542 -0.12019669 0.092510015 -0.12504166 -0.19384024 -0.17393143 0.13502048 0.11963586 -0.55724746 0.042283434 0.34449998 -0.047240783 -0.15447378 -0.017058374 -0.25186098 -0.08040773 -0.117667064 0.0543188 -0.096903056 -0.011157777 -0.032886133 -0.06334758 0.13620357 0.46836072 -0.06597935 -0.16811322 -0.23396629 0.270822 0.14513113 -0.016572513 -0.33864367 0.025369449 0.09346798 0.36584917 0.14363104 0.15089788 -0.09840115 -0.29179057 -0.09002859 -0.1405283 0.34782505 0.015963752 0.18887845
5119 -0.05437917 0.10680124 -0.256201 0.058899783 -0.14667879 0.019150637 0.25198922 0.21167578 0.028629532 -0.096417986 0.024979932 0.030509593 -0.043957446 -0.098532505 -0.03555424 0.21220155 -0.23992759 0.18614262 -0.19845638 0.025320558 0.13227136 0.08417047 0.008810237 0.11485605 -0.33542895 -0.28612962 0.014135271 -0.058813334 0.15378627 -0.053785123 -0.16812806 -0.11115238 0.04799313 -0.04042116 0.15176447 -0.008758005 0.08007321 -0.049266294 -0.027308676 0.3732545 -0.03949068 0.05293805 0.041435685 0.31567204 -0.18319263 0.2568206 0.12337978 -0.00019940698 -0.23750623 -0.06471472 -0.14456458 0.19309668 0.11437202 0.30169752 0.09163101 0.03193311 0.17531042 -0.4463401 0.21416767 0.17569877 -0.10849271 0.13387461 -0.18893902 0.14227986 -0.10994758 -0.017977279 -0.17775671 0.029801758 0.007363485 0.05831761 0.0033956473 0.3356719 -0.16367689 0.17847943 0.23036854 0.096873544 -0.12747058 0.079953246 0.15745325 0.10763966 0.005758649 0.0011395301 -0.073203124 0.036960095 0.24706152 -0.43337354 -0.14223105 -0.044416547 0.2724451 -0.010617115 0.13908711 0.11781483 -0.2725342 -0.063368246 0.01723793 0.048187647 0.14889543 -0.15933223 -0.19862872 0.03858003 0.07323892 0.10335481 -0.11041937 0.017357877 -0.06516355 0.045748167 0.0014042965 0.013606133 0.13078186 -0.112357154 0.20923632 -0.013467587 -0.34701273 -0.0015613157 -0.19583018 0.21246305 -0.10541756 0.1665774 0.32069105 -0.14703022 0.31218052 -0.09026866 -0.20676142 -0.17860578 0.08036429 0.10596067 0.033603363 0.020016273
3886 0.2381923 0.065523505 -0.05251006 0.2049601 0.102921076 -0.39213285 -0.092349246 -0.14365312 -0.034164503 -0.24774635 -0.29114842 0.028987305 -0.13101962 -0.049118903 0.20787762 -0.13854396 -0.28494847 0.31173712 -0.07959542 0.18342887 0.41438523 -0.05918517 -0.033921544 -0.25118333 -0.10690032 0.27320114 -0.047139127 -0.03233392 -0.0079569295 -0.3429154 0.093219824 0.21461302 -0.12864324 -0.10722039 -0.32005098 0.25557664 -0.021163298 -0.08031564 -0.061809126 0.36770278 0.25738665 0.039509118 0.082313515 0.3076632 0.2845913 0.09470127 -0.050177153 0.12938698 -0.15839618 0.03349671 0.2502421 0.023925055 -0.087042645 -0.15747476 0.006398895 -0.10085902 -0.059226714 -0.19742441 -0.13520667 -0.04859038 -0.03827997 0.050501693 -0.03933968 0.04584444 0.14108893 -0.010721963 0.04995232 -0.07173321 0.075950414 -0.08649135 0.5022873 -0.022790859 -0.12569311 -0.48618883 -0.12937023 0.19598426 0.13685402 0.21756846 -0.05191838 0.058187537 0.066368006 0.16940163 0.03000402 -0.2561567 0.101216495 -0.011828264 -0.052445564 -0.18444395 0.021257998 -0.1313534 -0.039176553 -0.010103333 0.078309186 0.018685967 0.010570317 0.08680088 -0.07780822 -0.10581534 0.08613887 -0.010664968 -0.07990404 -0.05366197 0.0706066 0.22347409 0.15421367 -0.122960195 -0.21787219 0.0019000614 0.0044208122 -0.060161214 0.17434278 -0.2799338 0.06183217 0.07611732 0.082920186 -0.1760031 0.5493611 0.054252546 -0.041715693 0.08432644 0.16674052 0.03116344 -0.07599299 0.3548397 -0.19665636 0.09087655 0.019312177 0.06510358
