1500 128
692 0.13281192 0.074650176 0.15861605 -0.06327141 -0.2698653 -0.045105346 0.03223508 0.1360688 -0.04638158 -0.41657478 -0.05762281 0.17361921 0.060220554 -0.016771596 0.10668234 -0.3036001 -0.17096056 -0.2951066 -0.016099738 -0.047524627 0.32580787 -0.3451633 -0.17689441 -0.16990829 -0.11009411 0.23652722 -0.41650733 0.18393558 0.0053008315 0.007313354 -0.22140194 -0.34882885 0.3746363 -0.12032768 -0.14834724 -0.2221778 0.096178494 0.23613207 -0.28400108 -0.06044725 0.23800823 0.14023763 0.08123369 -0.060715523 -0.038252555 -0.058866173 -0.16992465 -0.027813418 -0.17603981 -0.22154434 0.08942893 -0.0129268095 -0.0686821 -0.09134773 0.25028914 0.4422987 0.22767188 0.38262987 -0.3202389 0.23262267 -0.32973024 0.024892272 0.03195319 -0.022151908 -0.23793606 0.07135433 0.10615927 -0.09915722 0.13312863 0.15683337 0.21061733 -0.03235562 -0.32697448 -0.28690863 0.428907 -0.3111926 0.019975362 0.23101744 0.08516887 0.15459275 -0.024815792 0.024987614 0.3635818 -0.19060981 -0.13411722 0.03709928 -0.19740646 -0.029712891 0.0058765006 -0.113207154 0.08788339 0.27793312 -0.026199957 0.21629 0.13604966 -0.20104395 0.15209132 -0.016690103 0.0395729 0.57432127 0.2995414 0.31448355 0.2911033 0.38458443 -0.020460218 -0.28513685 0.07354359 0.04131168 0.4735023 -0.20645148 -0.2648272 -0.2426072 -0.21302488 0.04746635 0.2582519 -0.20336556 0.18333429 -0.4889337 -0.3849614 0.3180723 0.100334086 0.15885928 -0.23172928 0.1684934 0.19153388 0.09086819 -0.11559512 0.21393137
399 0.1179365 0.276802 0.14625011 -0.25707436 -0.19276969 -0.219167 0.16179828 -0.15796918 0.1463821 0.05787294 0.13162008 -0.09466895 0.17076331 0.42152056 -0.14768592 0.14272813 -0.012031661 0.20670415 0.2537014 -0.09004612 -0.039372887 -0.1236972 0.0517304 -0.014408478 -0.16698149 -0.42982975 -0.18337126 0.15008248 0.34039214 0.13191827 0.058044743 -0.25481126 0.14389758 -0.28511527 0.14971167 0.040189333 0.029549008 0.0846871 -0.056243904 -0.06239303 -0.047295153 -0.103743054 -0.022755768 -0.17414461 -0.048005108 -0.13718522 -0.19236082 0.10157548 -0.20072983 0.41942257 0.36712125 0.09117898 0.08898617 -0.1315285 -0.33048832 0.11412065 -0.34785038 0.26066986 -0.44799316 -0.091863014 -0.28674942 -0.25370756 0.30885583 0.101709835 0.24826257 -0.14270508 -0.6255311 -0.2762575 0.22218142 -0.2866972 -0.15161768 0.41384 0.31193465 -0.076774344 -0.10670819 0.120880686 -0.38780445 0.06512638 -0.091960475 0.19960375 -0.059370138 0.6598545 -0.055774264 -0.04749063 0.017105905 0.07410734 0.38350162 0.06665835 0.15291183 0.15060094 -0.08248124 0.13989337 0.29459423 0.22753628 0.15995204 0.18152535 0.057659294 -0.21210398 -0.3305399 0.5119064 0.19935298 0.20055838 0.10237103 -0.11827116 -0.3243 -0.24017435 -0.34405774 0.1602344 -0.024095418 -0.16780391 -0.1455962 -0.05544133 -0.06324616 -0.1172332 0.052528244 -0.16932072 0.0680365 0.102855586 0.12360596 0.28685912 0.32102153 -0.12312947 -0.37427402 -0.0071112895 0.09473939 0.43161312 -0.2330558 0.30497494
1488 0.13647942 -0.24533889 0.2978995 -0.04091341 -0.191115 -0.20588808 -0.30552053 -0.31941047 0.42592555 0.17608333 0.0015257691 0.0967932 -0.11767836 0.10405689 0.09404056 0.6462527 0.1743966 0.4987442 0.081436925 0.36109957 0.025764504 -0.15012644 -0.36015368 0.07886896 0.3087639 0.43242493 -0.041655406 -0.08268135 0.10710012 -0.10789633 -0.00062043866 -0.2300808 -0.3065119 -0.19840525 -0.023134053 -0.38077185 -0.38493377 0.022008043 -0.1787817 0.21767296 0.04476301 -0.23975484 -0.07160843 -0.023137879 0.14092676 0.01063288 -0.4342946 -0.16849309 0.050353397 0.03799759 -0.26799163 0.0066943653 0.45124093 -0.23509902 -0.22207522 0.2702497 0.14612192 0.3880421 0.053539637 0.050812494 -0.055790816 -0.25245762 -0.04428986 0.113810115 0.17318888 0.37757206 -0.1726564 0.1783662 0.27466798 0.022351244 0.17616227 0.38855508 -0.23380458 0.036559496 -0.06066932 -0.24681039 -0.3871549 0.08178594 -0.14845599 0.0034866354 -0.0755906 0.13513237 0.22065149 -0.011146822 -0.023096561 0.28959617 -0.18949844 0.449079 -0.16373587 0.19195826 -0.114932075 0.024976693 -0.009948079 0.38920742 0.25082347 -0.03179537 0.36401883 -0.15833871 -0.14078619 -0.21752071 -0.042634316 0.19579847 -0.021314349 -0.039010204 0.07803351 0.0046421844 0.07493401 -0.14285323 -0.05237259 -0.15756497 -0.003774807 -0.30961663 -0.13207716 -0.035625163 -0.015594455 -0.29906178 0.048146185 -0.07531062 -0.059336774 -0.14746307 0.10627175 0.46352643 -0.1687935 0.02851484 -0.05199051 0.18109712 0.051815856 -0.12135097
1413 0.33428046 0.27934757 -0.3890301 -0.37937364 0.05105016 0.20834407 -0.4703247 0.14634089 -0.058480874 -0.09772394 -0.17816389 0.09499227 -0.31347302 0.16787785 -0.07782662 0.08537792 0.10748001 -0.013803846 -0.008452023 -0.08630992 0.12617491 -0.12423373 -0.34218472 0.071624696 0.047099855 0.06738055 0.15179558 0.11195517 0.16854303 -0.039559904 -0.006302147 0.27174836 -0.1847634 0.18128285 -0.46215698 -0.2194597 -0.17873032 -0.1590366 0.11321978 0.025418302 0.25114903 0.15932754 -0.16480614 -0.08187938 -0.032945678 -0.05993082 0.12068696 0.4102195 -0.4106982 0.030042447 -0.20671494 0.16165257 -0.3483575 0.051800985 0.001789276 0.37935883 0.1103827 -0.12690273 -0.2990498 0.19057414 0.14728913 -0.29876727 0.087855965 0.009433025 0.0046637836 0.10181639 -0.23357081 -0.09528099 0.22038338 -0.16953368 -0.3609279 -0.19047303 -0.11231614 0.26285544 0.17565934 -0.40485865 -0.32325584 -0.36831018 -0.32437432 -0.48519826 0.060342863 0.024000747 0.14082013 -0.047567558 0.3737287 0.25639883 -0.05125319 -0.113726094 0.23792824 0.31529766 -0.23152909 -0.14407729 -0.06851827 0.22769031 -0.18682846 -0.20193733 -0.24816617 -0.18562505 -0.1960904 0.21967553 0.311254 0.1883834 -0.12811908 -0.16953078 -0.03252852 0.18077868 -0.35974437 0.14835553 0.17101578 -0.34192935 -0.13607736 -0.063306205 0.2449184 -0.35102254 -0.419795 0.3508895 -0.14377657 0.07882799 0.42110923 0.053323153 -0.3761652 0.03684428 -0.38302746 -0.04302168 -0.31938633 -0.22663385 0.07339132 -0.054923434
592 0.20577475 -0.19326478 0.1038504 -0.23183161 0.07314172 0.30776024 -0.33439597 0.35943463 -0.19831003 -0.03211844 0.0734903 0.0002056034 -0.11244003 0.22189277 0.13756727 -0.15214491 -0.0018388504 0.16495009 0.15093529 0.19012724 -0.06881506 -0.22233506 -0.025296861 -0.07373462 -0.108464375 -0.4394792 -0.44739223 0.069282256 -0.27358073 0.08813965 -0.071532324 0.3746148 0.18704 -0.27881867 -0.020956386 -0.03943821 -0.3692981 -0.08322997 -0.42251122 0.114900544 -0.15851624 0.19295289 0.23790328 0.20234753 -0.3350604 -0.09793792 -0.34307933 -0.3341086 0.3698368 -0.19882877 0.12869063 -0.08588134 -0.33024323 -0.056375813 0.18456776 -0.3470809 -0.15907054 0.06924643 -0.2804618 -0.09600627 -0.21279718 0.24493016 -0.10861468 -0.026737904 0.21471898 -0.015513088 0.2014365 0.4697124 0.03721448 -0.039049983 -0.051653687 -0.4067508 0.08743638 0.02975255 0.2523147 0.062431764 -0.061608575 0.6143937 0.13555315 0.22613238 -0.24225625 -0.06584564 0.25316936 -0.36697063 0.097087696 0.26486397 0.38070834 -0.24880363 0.05169474 0.14638035 -0.27889535 0.41129836 -0.030773198 0.07809649 0.29752663 -0.1656161 0.011248395 0.06214337 -0.050315615 0.6596009 0.35501263 0.20812845 0.14845352 0.06738288 0.21618703 0.3688419 -0.13124694 0.12663968 0.068658024 -0.3752126 0.033636425 -0.13174379 0.14709997 0.045069423 0.13261396 0.19562277 -0.2249951 -0.31208423 -0.35451683 0.22332121 0.072150685 -0.06829925 -0.45418826 0.28826028 0.16453724 -0.27794692 -0.0069166496 0.16251004
1032 0.17965351 -0.1378231 -0.25323606 -0.24734195 -0.38012278 -0.20031229 0.12160074 0.008522751 -0.026066981 0.30890113 -0.31098458 0.02591304 -0.56646997 0.19372676 -0.38761342 0.1834809 -0.06838268 0.18856497 -0.09137748 0.04215863 -0.26415324 -0.14388713 0.29963356 0.5320412 0.49464792 -0.124961294 -0.18354282 0.41827515 -0.06571326 -0.15473346 -0.22360039 -0.17594565 0.17161158 -0.0113421725 0.014187002 0.17350951 -0.08852214 0.28851485 0.07776437 -0.107293956 -0.052965377 0.18982118 0.35435438 0.19505666 0.07605089 0.09734243 -0.35441303 -0.2006552 0.3397245 -0.26094806 0.15105987 0.08921546 -0.07428559 -0.23035122 -0.29739508 0.05488717 -0.075897545 0.50882864 -0.15662663 0.17665756 -0.5233641 -0.18628222 -0.0829052 -0.20452815 -0.1263204 0.17953344 -0.11503953 -0.078437194 -0.0063184765 0.03694961 0.11530891 0.13390228 -0.020373205 0.084579825 -0.19893005 0.022934342 -0.34574822 -0.24385498 -0.0058149146 0.0009650908 -0.43231136 0.35302278 0.17714204 0.16710994 0.20272952 -0.37098876 -0.18951146 -0.23629515 -0.12504482 -0.044805598 0.15838341 -0.014657114 -0.15680903 0.0013587888 0.050122514 -0.102656424 -0.106363975 0.19004561 -0.2687987 0.04822206 0.14151487 0.25811166 -0.12670088 -0.12728252 0.14285485 0.59058535 -0.27654916 -0.46213946 -0.030205766 -0.07054114 -0.135523 -0.33622298 -0.085944586 0.073371455 -0.4418507 -0.2791845 0.041914195 0.1463412 -0.05037238 -0.023645418 -0.3425273 -0.37203193 -0.009827278 0.13703327 0.20645075 0.037257608 0.1389624 0.1725556
458 0.013700255 0.03034527 0.023478124 -0.030340169 0.4450676 -0.030682156 -0.13707319 0.19926086 0.027763654 0.3600075 0.060561378 0.12232714 0.0654124 0.17311312 -0.05587911 0.015082366 -0.038980395 -0.3243694 0.36132413 -0.39289045 0.045420926 0.13878796 0.11219948 -0.3680086 0.08848983 -0.21085896 -0.30851424 0.095384486 0.27237982 -0.114632614 -0.55872285 -0.23157148 -0.0065114554 0.12320644 0.20067048 -0.3513066 -0.23237167 0.03759282 -0.10269619 -0.30108488 -0.14935867 0.1744133 0.06538183 0.32279074 -0.025473692 0.21582103 -0.37810943 0.3596134 0.09977083 -0.08557493 0.22590588 0.064845845 -0.19112837 -0.07528691 0.4186336 0.10776408 0.18184248 -0.016781516 -0.14782071 0.19403034 -0.3350788 0.053621 0.18451549 -0.055959944 0.14111742 -0.091993615 -0.2768074 0.35111406 -0.057828113 0.2405174 0.39013073 0.049885277 0.1374717 -0.18870158 -0.23262684 -0.024673194 0.44342238 0.035962444 0.060831852 0.12832299 -0.53967345 -0.0048613492 -0.23444393 -0.25770664 0.28186625 0.20107067 -0.024305338 0.19033062 -0.11508265 0.064660795 -0.30456296 -0.20627904 0.52892 -0.16155347 0.075921364 -0.24458073 0.21781392 -0.14451627 -0.11071086 -0.077703394 0.17397581 0.35898426 -0.0869655 0.16778855 -0.38530144 0.0058424124 -0.18877856 0.37033522 -0.3360541 -0.14745566 0.20885241 0.22036138 -0.1496839 -0.077697955 -0.55327064 -0.046378393 -0.08652724 0.042009693 0.15875703 -0.37727517 0.059459005 0.12062207 0.074979916 0.06585818 -0.05855262 0.31807312 -0.40049955 0.056274615
331 0.051643025 0.11746934 0.28337455 -0.06364711 -0.16747175 -0.257117 -0.37692547 -0.21854942 0.15276316 -0.1662495 0.11460545 0.5300054 0.031789433 0.48248696 0.23033638 0.027924083 0.06998865 0.20465046 0.1221911 0.27535444 -0.05382513 -0.2500671 0.12297427 0.002388619 -0.22251655 -0.0127868 -0.25442022 0.082102045 0.2783043 0.53678954 -0.29902798 0.05553175 -0.120818675 -0.16421856 0.015552207 -0.042384036 -0.028729884 -0.23264736 -0.21391682 -0.12483711 0.21263896 0.097342394 0.028932296 0.12321752 0.12969343 -0.4285551 -0.4361911 -0.043486554 0.035145074 0.16236949 0.43329594 0.19976357 -0.53433126 -0.008366206 -0.108280614 0.20060013 -0.23646027 0.3213684 -0.22733606 -0.3037779 0.08402812 -0.03629233 0.060584452 -0.019133743 0.15535204 0.18222268 0.19790167 -0.16857189 -0.2747962 -0.047963772 0.058194403 0.14679956 -0.2992861 -0.25408092 -0.12680058 -0.21770479 -0.16139503 -0.20685978 -0.023360185 -0.09123122 0.14805563 -0.19347428 -0.094444886 0.13792118 -0.46693334 -0.4520717 0.22257009 0.05432149 -0.10700375 -0.102780566 -0.2680631 -0.21472386 0.025606876 -0.07464643 0.3802824 -0.2821164 -0.11224431 0.19123144 -0.03202253 -0.00017137497 -0.3259214 -0.27054325 -0.044494882 0.14534613 -0.19326644 0.16649273 -0.7096803 -0.0330845 0.3016836 0.33605602 -0.06341715 -0.13626643 0.05919082 -0.2624931 -0.57416886 -0.15522505 -0.15368448 -0.069372885 0.18266696 -0.20127206 -0.40424737 -0.054285206 0.14060639 0.12024138 -0.07692085 -0.26390803 -0.29550627 -0.031625096
871 0.60073423 0.15209767 0.2410179 -0.14631681 0.24445419 0.04151241 0.114151515 0.11394227 -0.2688895 0.28923413 -0.22950494 0.12466241 -0.17168158 0.045594223 0.36722347 -0.23116611 0.20962961 -0.2890678 0.4975525 -0.0029495219 -0.30089247 -0.73443246 -0.022757981 -0.11601162 0.24608631 -0.305426 -0.2609877 0.1734827 -0.06326845 0.08264186 0.30604452 0.1774504 0.1652517 0.3150883 0.21552432 -0.09247406 0.18456686 -0.056246284 -0.1593616 0.15918648 0.027750602 -0.09979902 0.25175646 -0.2373111 0.18461467 -0.33369988 0.033174045 0.075811006 -0.33022273 0.12984192 -0.1833673 0.43261072 0.11304632 0.11101674 0.21261221 0.22516192 0.081638925 0.25711384 -0.15960419 0.09764814 -0.21898992 -0.011897909 0.07899357 0.34372267 -0.10684822 -0.13454561 -0.47934708 -0.13075352 0.10549909 -0.10319618 0.09148111 -0.05688113 -0.12384252 -0.13555115 -0.21013048 0.076868035 -0.067468725 0.2724543 -0.21561386 -0.024135258 -0.12688863 -0.09264821 0.18048874 -0.1767187 0.042282663 -0.05107427 0.1868761 -0.2643653 -0.052214347 0.40697917 0.05694007 -0.2205604 -0.00040429074 0.2455286 0.39344 -0.2541981 -0.20014574 0.3166177 0.14410108 0.05956814 -0.10439605 -0.13351847 -0.17470779 -0.12988985 -0.2806666 0.19605592 0.10743866 -0.17438467 -0.009623827 0.12603642 -0.18484744 -0.17393841 0.14289045 0.46197325 0.26295447 -0.3388382 0.50290495 -0.11446387 0.29776248 0.2596882 -0.13561374 0.16263705 0.12107458 0.35173362 0.3805299 0.013138659 0.12539326 0.50204843
150 0.21304876 0.28867817 0.10578121 -0.27806178 -0.04214749 -0.016094642 0.05185214 0.20321085 0.30089265 -0.06832916 -0.22707993 0.0165914 -0.024150373 0.043093562 0.37665373 0.08417752 0.06657141 -0.25904903 -0.042132657 0.40507063 0.124873556 0.09799656 0.19706227 0.1984907 0.07748334 0.055446267 0.056243047 0.05276936 -0.1541558 0.034390338 -0.35717517 0.09913759 -0.028269703 0.22724162 0.29741758 0.006303782 0.12328839 -0.8543935 0.3208509 0.006182277 0.2781741 0.23847975 -0.36565623 -0.20140217 -0.14876233 -0.3300945 -0.7854854 0.44297343 0.1619548 0.14129858 0.11277656 -0.05630456 -0.22741053 -0.13340333 -0.6506436 0.20835133 0.09934223 0.062230367 -0.1368092 0.058952466 0.011772898 0.12439191 0.12338222 0.0033907893 0.13841428 -0.032522973 0.005602616 0.2544792 0.41408977 0.22110914 0.21671434 0.03387867 0.23048073 -0.22860476 -0.005191131 0.10289185 0.019886743 -0.10450151 -0.41707444 0.15478455 -0.17497845 -0.08875064 0.24279934 -0.18850093 -0.19330554 -0.11585011 0.09665913 0.14531454 -0.09997485 -0.12774777 0.033539053 0.29918548 -0.33965355 -0.14563726 -0.026453435 -0.4161913 -0.16586192 0.2008615 0.41551593 -0.026362663 0.3215097 -0.20075904 -0.004604917 -0.03303897 0.11639019 0.032869644 -0.26386875 0.059750427 0.25084686 -0.15650053 0.102385126 -0.02461003 -0.3895909 0.111215256 -0.0290579 -0.25431046 0.2620435 -0.1531121 -0.040310737 0.079696216 0.03301183 -0.28659 -0.4134536 0.1948069 -0.30703348 0.121793926 -0.10699866 0.1351764
1256 0.069536135 -0.20492029 0.25038472 -0.06441113 -0.122308426 0.0743369 0.13490577 -0.056905832 -0.1970558 -0.081739426 0.11830923 0.20463963 0.25974062 0.42973047 -0.19513106 -0.023147315 0.03743772 -0.19066323 0.014453679 -0.16309875 -0.034684896 0.10713572 -0.026011607 -0.15839083 0.24578074 -0.1037173 -0.190688 -0.054339774 -0.15989427 0.085867964 -0.20271343 0.21478428 -0.110772625 0.2557518 0.4657691 -0.22587872 -0.12527941 -0.098984405 -0.096048035 -0.068644404 -0.11435738 0.25960356 0.12541969 -0.02974272 -0.20721011 0.12201575 -0.5702517 -0.116910785 -0.2556614 0.2381092 0.123113655 -0.07608868 -0.46396822 0.16270956 -0.0428335 0.46792918 -0.20216791 0.5506163 -0.49630272 0.02239849 -0.4110513 -0.0066073397 0.18236502 -0.033490047 0.15720905 0.10069597 -0.015534113 -0.20333855 -0.346702 0.25678363 -0.06388176 -0.2892157 -0.40593803 -0.001416471 0.18252645 -0.37882137 0.04076889 -0.099424824 0.16801094 0.23904489 0.022559054 0.2731181 0.44240254 0.10010211 -0.044720218 0.43068403 -0.0017415818 0.14391465 -0.045911953 0.09135017 -0.042563323 0.043737877 -0.32690153 0.09218601 -0.09500485 0.3452995 -0.21129309 0.08654161 -0.027361883 -0.060449816 0.45430934 -0.06137449 0.22612585 -0.4515334 0.1395823 -0.15141557 0.13736567 -0.08141442 0.025117697 -0.057421215 -0.121753626 0.31152666 -0.7084762 0.018109072 0.13514158 0.2639842 0.21288714 -0.1388446 0.24123867 0.13730815 0.018051254 -0.0439796 -0.014530087 0.1447668 0.14772756 0.45323953 0.3214205 -0.43411478
425 0.09673656 0.28029078 -0.12109218 -0.2750061 0.25858778 0.14798471 0.17089996 0.09868015 0.3907199 -0.23235615 -0.12124588 -0.27427426 0.36219043 0.13966963 0.035118528 -0.27841285 -0.12008068 0.31240866 0.15577455 -0.0605776 -0.020024683 -0.18850414 0.004271961 0.05945709 0.13552052 -0.33405176 -0.053800236 0.33455357 0.062767185 0.527094 0.38034803 -0.06966746 0.1660314 -0.039812684 0.1989823 0.0084285 0.18593839 -0.013000484 0.06369707 0.13198127 -0.10577261 0.0929285 0.12552765 -0.15852366 0.049844235 -0.13377231 -0.098273225 -0.272098 -0.09694847 -0.17440027 -0.23729843 0.4174496 -0.022566352 -0.13199644 -0.1449222 0.111858115 -0.32714283 0.24485917 -0.7573388 -0.1505428 -0.2292305 -0.08764649 -0.11205076 -0.04835281 -0.06648607 0.031746026 -0.30795658 0.29763228 0.17014307 -0.24008237 -0.18976785 0.00014385485 -0.028363356 0.021724928 0.25528738 0.10728483 -0.59111613 -0.5422705 0.07541156 -0.18336338 0.034477778 -0.030964961 -0.4778585 0.006953273 -0.14937907 0.24943712 0.059829913 -0.1797128 0.46489155 0.12416882 0.036374886 -0.0018261997 -0.017903706 0.11592439 0.06592724 -0.028305631 -0.2767478 -0.19075193 -0.0166395 0.05400684 0.049721576 -0.070596635 -0.4218081 -0.1426721 0.023493912 -0.04690384 -0.24980243 0.25586239 -0.10994474 0.11375159 -0.38484922 -0.3171205 -0.17179225 -0.16152173 -0.025451848 -0.08300952 -0.39451692 -0.23243943 -0.14287442 0.22874488 -0.030040879 0.27360836 -0.08468025 0.21274047 -0.06935343 0.4127253 0.08373588 0.33790013
634 -0.05423951 -0.124577865 -0.04261418 -0.07306478 -0.47003424 0.08196064 -0.48826492 0.020185731 -0.007312335 -0.07739637 -0.54732746 0.22282018 0.045628678 -0.19494222 -0.076420546 -0.3972347 0.3723112 0.07018512 0.034787506 0.4325313 0.49579024 -0.16777574 0.27568352 -0.57007194 0.6373815 0.11190068 -0.0097010145 -0.13406329 -0.04583825 -0.25284994 -0.65166265 0.32051775 -0.04775595 0.046082225 0.27240196 0.24342827 -0.07116514 0.07945573 -0.11406913 -0.4283056 -0.24334522 0.22933298 -0.038679264 0.37519324 -0.3509092 -0.043754693 -0.24687307 -0.30645403 -0.4890197 0.2898581 0.37468922 -0.03023538 -0.17901117 0.45848256 0.094262086 0.24865322 -0.2688709 -0.19998708 -0.21169844 -0.13031328 -0.4631027 -0.1618235 -0.004891683 0.0544536 -0.30338147 0.100308016 -0.25022805 -0.06556667 0.002527655 -0.016101955 -0.16571555 0.24442828 -0.36452866 0.030910451 0.024491716 -0.054614402 -0.23794656 -0.19031715 0.13529228 0.034000166 -0.28448784 -0.077974275 -0.041157965 0.038563874 -0.22468309 0.37550443 0.16993153 0.28646883 0.2510222 -0.2202103 -0.1111426 0.13911563 0.19937511 0.31272092 -0.101601824 -0.015028276 0.31038076 0.05291029 0.06782062 -0.33766395 -0.058743898 0.16369078 0.18545213 0.020148927 0.0019728974 0.2075615 0.18140785 0.4420822 -0.061460853 -0.09493897 -0.11537864 -0.17928259 0.025566543 -0.22570874 0.15855613 -0.14634858 0.45249155 0.0029401379 -0.1391237 0.08581095 -0.076170474 0.11653008 -0.14505823 -0.21401498 -0.16124368 0.23120014 0.026744526 0.05103516
74 -0.052365974 0.18336262 -0.28695554 0.22566853 -0.30824825 0.12137443 0.34956062 0.012340474 -0.08127807 0.030563667 0.053220686 0.17826861 0.2312095 -0.0019351923 0.008897482 -0.2203274 0.026043996 0.05715741 -0.43730873 -0.42130506 -0.49018738 -0.43956882 -0.009360282 -0.35772324 0.08791301 0.29835942 0.17739302 -0.011015917 -0.16395944 0.40337318 0.18472931 -0.2291678 0.07112897 0.5228055 -0.05515762 -0.040789865 -0.18707103 -0.02252255 -0.30275422 0.30388805 0.08075145 -0.14061226 0.1486825 0.18616784 0.49696442 -0.17312178 -0.47166026 0.14217293 0.024811506 -0.09551263 0.097776055 0.10727782 -0.0538841 0.06837048 -0.107680716 0.34764206 -0.28522506 -0.053015847 -0.10975479 -0.26705945 -0.17482969 -0.057146426 0.62764597 0.30569008 -0.19465367 0.12736766 -0.18707424 0.20623866 0.17219104 -0.14201899 0.28740907 0.31745857 -0.18164821 -0.061234713 0.009661717 0.10568014 0.07956116 0.23563433 0.11354543 0.3654881 -0.3391153 -0.11770295 -0.23732933 0.18559879 0.080191486 0.34526372 -0.11210912 -0.01365849 0.065589435 -0.20859753 0.007873728 0.011233866 -0.107953556 0.2266161 0.10599643 0.3328848 0.39092794 -0.13013622 0.2891715 0.12370614 0.22296497 0.021856109 0.21282727 0.3503306 0.011814289 0.01106251 -0.412415 0.05077643 0.015673364 0.16297531 0.03456613 0.25386304 -0.026877273 -0.016423052 -0.23908779 -0.02143042 -0.038395166 0.33212066 0.033887263 0.00232556 -0.13714685 -0.19762607 -0.07455283 -0.14235654 -0.51224595 -0.1628187 0.31255314 -0.2061948
308 0.16892964 0.09824482 -0.04108911 -0.060745534 -0.21595849 0.21546766 0.10977072 0.14832005 0.35911208 -0.22663805 -0.14699163 -0.257831 0.23482482 0.055420533 -0.3732184 -0.29889467 -0.2153419 -0.21571366 0.044691674 0.49738532 0.16002329 -0.02870113 -0.18736008 -0.40632212 0.123452984 -0.3314685 -0.006536819 0.3242931 -0.03011918 -0.05923031 0.08294427 -0.15379767 0.23455796 0.48153216 -0.0029533172 -0.5825586 -0.15811758 -0.08787701 -0.25420633 0.00797004 -0.20237838 0.5163753 -0.29781324 -0.11371693 -0.15887094 -0.56911314 -0.19754697 -0.26423833 0.18200065 -0.28000143 -0.039244153 0.24389201 -0.18419284 -0.057935625 0.19388528 -0.16355881 -0.3815662 0.06936126 -0.42379898 -0.18240964 -0.10224328 0.07603489 0.019599771 -0.018351434 0.23602806 -0.14614752 -0.009257299 -0.114066154 0.15069449 0.085469864 0.20246997 -0.11904675 0.33598912 0.12579669 0.007301633 0.112579644 -0.037196673 -0.51663554 0.07661 -0.28573617 0.18878728 0.3202699 -0.17125788 0.24235842 -0.060283102 0.1285951 0.11167209 0.28424433 0.24318232 0.4058701 -0.188254 -0.19862741 0.098357014 0.19920167 -0.1384857 -0.3342245 0.0695047 0.025663821 -0.16904871 -0.2484389 0.12150909 0.09938681 -0.19483328 0.052407086 0.11355452 0.010237917 -0.056296587 0.043129295 0.53303844 -0.10912461 0.32608423 -0.33971223 -0.375232 0.38882065 0.21585847 -0.20568238 -0.3363692 0.14631504 -0.17633474 -0.19715373 -0.15118694 -0.2023274 -0.033764064 -0.177468 0.16875565 0.036421373 0.27142012 0.52596945
1161 0.2494594 -0.33267498 0.22440591 -0.06530151 -0.08963134 0.11081519 -0.2579552 -0.093218 0.28599444 -0.11628321 -0.34573376 0.005204072 -0.47755942 0.036104843 -0.14584365 -0.3664082 -0.08205285 -0.2790901 0.0817136 0.47615147 0.07471056 0.18921018 -0.07567405 -0.14741266 0.007115717 -0.16123308 0.24659875 -0.04287594 0.19480342 0.24822769 -0.07896426 -0.43653092 -0.11950361 0.39270034 -0.33361876 -0.38581118 -0.17720757 0.12340836 0.0037506672 -0.14960599 -0.15372477 -0.100407 -0.022687448 -0.0368508 -0.2398833 -0.41300908 -0.064586446 0.16381907 0.010897673 -0.24395762 -0.16990781 0.15028162 -0.1618493 -0.2966013 0.12099719 -0.16258885 -0.04366023 -0.12960626 -0.14243273 0.012153452 -0.13417684 0.084504694 0.02295051 0.3899033 -0.0798275 0.11735018 -0.12224723 0.034678172 0.2442957 -0.054937605 0.4629912 -0.2636465 0.11582806 0.15639643 0.053903397 -0.087465666 -0.18390685 0.23527315 0.016999481 -0.24923293 0.027750734 -0.21893099 0.037531357 0.19842616 0.083404474 -0.13043997 0.38571927 0.26700008 0.2796654 0.2169884 0.12510462 -0.1726625 0.10727346 0.08479062 -0.26493007 -0.06463277 -0.048050154 0.17927124 0.0133524295 0.27910993 0.6504143 0.26565644 -0.22779647 0.28210256 -0.0033568288 -0.08232316 -0.36831233 -0.020620689 0.60674614 -0.0205633 0.25539887 -0.4997324 -0.30582595 0.5059431 0.2767873 -0.031485293 -0.22838967 0.03542501 -0.19018607 -0.010067915 0.010131515 0.119915135 -0.14695303 0.069527656 0.23587264 -0.0040593934 0.27224922 0.39641538
1360 0.20656282 0.068989016 0.35633722 -0.09355691 -0.11253618 0.07207183 -0.38178402 -0.08987916 -0.001975642 -0.3721661 -0.025656331 0.06362096 -0.2641841 0.6974518 -0.2664307 -0.19673024 0.10034709 -0.027564662 0.30030456 0.01973761 0.04253538 0.0015528456 0.05606733 -0.5142199 -0.055435643 -0.007725732 -0.1713869 0.19662441 0.20555721 0.061657716 -0.18423083 -0.17069952 -0.06759748 -0.2837934 -0.19117256 -0.2193333 -0.257499 -0.27227485 -0.017133659 -0.10909308 -0.18550971 0.23875888 -0.18710612 0.12999468 0.16591889 0.0884808 0.07604159 0.11039358 -0.104499 0.3490126 0.17240678 -0.1369657 -0.64352447 -0.010069631 0.059506077 0.0139285475 -0.19807227 0.19044395 -0.34575182 -0.108723626 0.12713598 0.02359597 0.20131335 0.42248413 -0.26982182 0.05978312 0.54032713 0.24426287 -0.11119626 -0.15687998 -0.091145724 0.1471311 -0.059583027 -0.32428613 -0.06469273 -0.29861838 -0.007339796 -0.012037986 0.07902696 0.27103874 -0.53017604 -0.05556171 -0.26271337 0.10581276 0.20970175 0.07721286 -0.05555581 -0.15791667 0.36287498 -0.04408481 -0.21708287 0.051218525 0.0268452 0.64277244 0.33926883 -0.44469938 0.196101 -0.32761896 0.12274473 -0.032953404 -0.13873842 -0.030029826 -0.20819664 0.0018077445 0.0025241594 0.16016108 0.0113749895 0.2191255 -0.48056042 -0.031774163 0.026135882 -0.04046733 -0.3404835 -0.13908489 0.09792203 0.06635875 0.21850702 0.048578635 0.03596227 -0.32413548 0.112931445 -0.19574834 0.15095596 -0.22587214 0.30743963 -0.033897348 -0.23552185 0.11540414
1210 0.00973708 -0.034347534 0.17116103 -0.1440851 -0.23483819 0.29613504 0.10190171 0.16956455 -0.28757876 -0.15559867 -0.22701906 -0.14425826 0.32596573 -0.024359532 0.12387147 0.018853154 0.10648465 0.23205005 -0.38079375 0.08196723 -0.24223441 0.017554305 0.035442915 -0.11826113 -0.10992595 0.03462831 0.09381033 -0.19647862 0.21078658 0.5861956 -0.1617661 0.1364321 -0.04217182 0.16583534 0.06583667 0.11819165 -0.3443048 0.1607298 -0.25275648 -0.22069176 -0.22332951 0.103210025 0.09407058 0.03197388 0.3534947 -0.031655144 -0.41785303 0.013927248 -0.09573936 -0.252371 -0.054575082 -0.036790907 0.15296687 -0.18715265 0.060376868 0.38350004 -0.13626608 0.31126064 0.19445905 -0.19042341 -0.017327078 -0.08143698 0.17300753 0.08510452 0.24022768 -0.08601266 0.088744596 0.5159305 0.22093275 0.1424942 -0.5249984 0.18709715 -0.2624074 -0.060057066 -0.36384824 0.184617 0.0087567195 -0.038814627 0.053208753 0.21432503 -0.39242083 0.1132565 0.22462079 -0.17861336 -0.14129907 0.2533403 0.27725226 0.20040731 -0.23627381 0.24339359 -0.08034804 -0.11151748 -0.07861571 0.41813213 0.14861932 0.076523535 0.44945365 -0.17950998 -0.29378653 -0.14122055 -0.1736554 0.16772838 -0.08906131 0.12175682 -0.49320722 0.28146002 0.099400125 -0.090877846 0.3522692 0.026294652 -0.36275232 -0.33859295 0.2351075 0.2605036 -0.3275581 0.24879918 0.00016153388 0.48726305 -0.06069041 0.16695492 -0.10600173 -0.43671677 -0.11625249 0.06940705 -0.03837772 0.0401433 -0.020204274 -0.35749343
919 0.22616816 -0.092591755 -0.10680957 -0.17227693 -0.051272154 -0.05452296 -0.59932315 0.20658574 0.16043821 -0.04192217 -0.12901787 0.18802275 0.14220074 -0.26430234 -0.191683 -0.39212722 0.24459088 0.3080823 -0.028551267 0.33847 0.43061382 -0.12423244 0.22455294 -0.27667034 0.3100611 0.21206847 0.3983791 0.13229194 -0.36161602 -0.16616748 -0.13996719 0.06518082 -0.06154622 0.114035964 -0.12625511 0.168946 -0.10433427 -0.056215815 0.07868608 0.09387707 -0.016159855 -0.055835396 -0.107650235 0.6576059 -0.22850348 0.14541121 -0.5556351 -0.036386326 -0.14447075 0.40885088 -0.118892774 0.27458647 -0.14949629 0.04073064 0.14166842 0.2565026 -0.29338825 -0.43716112 -0.20440602 0.17823097 -0.30434766 0.24866915 0.30792952 -0.15424919 0.097204745 0.28546998 -0.397614 0.20261788 -0.052012924 0.07671103 -0.3406701 0.037516095 -0.13795248 0.25937894 -0.012796049 -0.18712711 0.059904277 -0.48240754 -0.2952696 0.3263924 -0.054481152 -0.07230846 0.00085414445 -0.41674638 -0.1536178 0.2150594 -0.13425444 -0.16155867 0.062497053 -0.28341484 -0.0017913496 0.098997094 0.3906672 0.22436102 -0.1116363 0.123466805 0.16607565 -0.1289701 -0.115295686 -0.13519716 0.3728337 -0.016809084 0.19600162 0.0646896 0.013494832 0.15271766 0.053497348 0.3092941 -0.03168795 -0.22650312 -0.31870866 -0.32635188 0.22966748 -0.19947156 -0.030139811 -0.3239349 0.39983267 -0.024473634 -0.22668448 -0.21899095 -0.09413673 0.14046457 -0.1406337 0.05720061 0.16192806 0.30151612 -0.16279724 0.26241007
613 0.09718019 0.16649479 -0.06576027 -0.26009703 0.29442346 0.07365075 0.14769939 0.07365086 -0.006118117 0.09196311 0.1851544 -0.1195102 0.1198023 0.41682047 0.035377964 0.13416252 0.3303321 -0.037551492 0.052138787 -0.31046024 0.18255325 0.2891012 -0.3788943 -0.34711528 0.15082277 -0.17398527 -0.29314366 0.06498311 0.2278288 -0.058303364 -0.3735694 -0.027055519 0.2563541 -0.01591081 0.22702616 -0.07861029 -0.18905984 -0.1806445 -0.19943266 -0.23549931 0.044120383 0.18662468 -0.005482041 0.4421444 -0.04256833 0.045470234 -0.6655071 0.061940894 -0.05633574 -0.33289635 0.027691605 0.4433781 0.15444162 -0.116002016 0.14762302 0.2161932 -0.067140564 -0.1678368 -0.13936757 0.1471089 -0.5722737 -0.21828745 -0.14714167 0.21487011 0.30058146 0.0157338 -0.28708366 0.16955037 0.048711833 0.30886298 -0.20052795 0.09907595 0.007848824 -0.09612131 -0.20261641 0.05930804 0.24442175 0.32387593 0.016771069 -0.18093978 -0.39129943 0.21083963 -0.2762597 0.3225064 0.4079399 -0.011677595 0.5689116 0.22801763 0.029046578 0.06671528 -0.28365943 -0.18046555 0.2909335 0.07910908 0.16250889 -0.16618194 -0.16431165 -0.3682603 0.32257903 -0.07218474 0.29273105 -0.074827015 -0.31196028 0.29782763 -0.36822024 0.2592202 0.17054924 0.51872396 0.25223407 -0.2230732 -0.00951863 0.3681006 0.124266095 0.08373586 -0.16617367 0.22157976 -0.45292976 0.057219446 -0.14090219 -0.30268234 -0.14116302 -0.14190221 0.14666145 -0.21429105 0.13295217 -0.30184388 -0.2515291 0.066615716
539 -0.008414736 -0.32657215 0.40235385 -0.112120494 0.3757638 -0.095945776 -0.16686143 0.060335476 -0.34082744 -0.13672015 -0.072365314 -0.24172069 -0.11817059 -0.07946145 -0.04137893 -0.17095816 0.096384585 -0.3250549 -0.4942863 -0.07410985 -0.45466492 0.09970427 -0.059674583 0.061080545 0.38473943 0.13949162 -0.4854988 -0.06795051 0.45320946 0.1907865 -0.35878646 -0.18064281 0.50238925 0.064026 0.09428327 -0.17754005 0.16752158 0.31537822 0.46845976 0.034457672 0.27696475 0.19198745 0.20018908 0.3086329 0.023904912 0.068208896 0.058380853 -0.24083982 -0.15774216 -0.25857663 0.3228339 -0.088966675 -0.18163922 0.034548942 0.022186719 0.4267818 -0.28432503 0.05630532 -0.20259798 0.059867628 0.0447607 0.52213335 -0.02531853 0.56023026 0.042963255 -0.10831292 -0.31040448 0.21467674 0.3801644 0.40872872 0.60683084 -0.25439742 -0.20103237 0.17519979 -0.108260356 -0.061654188 -0.3240857 -0.2280722 -0.08880146 -0.026309893 -0.04548209 -0.05622539 -0.025080426 0.025277216 0.20919187 0.148012 0.010996382 -0.18673532 0.032182924 0.21404214 -0.39868703 -0.07560569 0.26385117 0.16047277 -0.3177391 0.17805067 0.031351577 0.012599444 -0.10968566 -0.22557178 -0.20071727 -0.17575127 0.5051922 0.024609502 -0.06920114 0.077367686 -0.098853566 0.14594571 0.012346071 -0.036455795 0.25983444 0.17018636 0.30471814 0.03932578 -0.29590482 -0.2479344 0.29590604 0.08139929 -0.1501333 0.036948107 -0.099610545 -0.08991404 0.026839342 0.120210834 -0.06872038 -0.10003287 -0.21463385 -0.11382141
1316 0.10654631 -0.26106778 -0.013488747 -0.24807358 0.40073636 0.034536857 0.0071219825 0.04671293 0.04492889 0.3092914 -0.044418797 0.13044532 -0.0066144615 0.517337 -0.12606253 -0.14046149 0.28343174 -0.041194465 0.16562814 0.2733887 -0.046243623 -0.017775925 -0.04787891 -0.27852997 -0.22367425 0.2278621 -0.19043382 0.08415036 0.42381608 -0.13944164 -0.3000694 0.36559862 0.10063392 0.08058515 0.22188644 0.07384769 -0.33672124 -0.15038851 -0.29468855 -0.17051639 -0.31297523 0.2522494 0.07656949 -0.12817042 0.25950956 0.27856928 0.23242347 -0.24736007 -0.27397344 -0.07987583 0.03736392 0.07460171 0.07347191 -0.056135412 0.019981971 0.0582107 -0.18859689 0.11630557 -0.022601414 -0.1621005 -0.17163505 0.15720661 0.15073517 0.080590375 -0.37752277 0.07241676 -0.30449256 0.3772182 0.13710694 -0.017129395 0.11292572 0.21100104 -0.13006207 -0.10607958 0.100549705 -0.15196149 -0.24450698 0.15947773 -0.055839736 0.110083684 0.12991448 0.24411266 -0.06590759 -0.54491794 -0.5149413 0.13124336 0.11793028 -0.6590042 0.14810908 -0.26532778 0.12645127 -0.065817714 -0.58479124 -0.16422562 -0.20172788 0.17936122 0.001052574 -0.49722928 0.38386452 -0.15094422 -0.06701713 -0.0046900506 -0.09509163 0.12326576 0.024280287 0.4228506 -0.14222573 0.019247618 0.3774798 0.35903293 -0.33223027 0.098662056 -0.06752417 0.28737733 -0.39782205 0.107024014 -0.45324075 -0.0011007417 0.079245135 0.118991174 -0.41384426 0.03666158 -0.49520355 -0.37612608 0.1599538 0.18528822 0.07046641 0.20611888
330 0.2629687 0.2664948 -0.11405307 -0.20099734 0.19527864 0.2100863 -0.25724745 0.09883427 -0.3034033 0.029967533 -0.069449596 0.10057998 -0.24122362 0.35185525 -0.24179 0.17847149 0.19887955 -0.031780325 0.010322834 -0.00449063 -0.0990444 -0.5524376 -0.26716003 -0.08274657 0.27346414 -0.19675975 -0.04638077 -0.23033656 0.29085022 0.15039238 -0.053631164 0.65222013 0.111799344 0.27180308 -0.21369833 -0.046972636 -0.32263383 -0.26593927 0.046712525 0.06568419 0.23650035 -0.14180323 -0.32933056 -0.31752038 -0.16521929 -0.293563 0.11350793 0.1244111 -0.4068952 0.00082516967 -0.106891364 0.21388493 0.06525313 0.08125399 -0.10688595 0.09064311 0.17009309 -0.21961673 -0.5125588 0.28977704 -0.24654517 -0.0137514295 -0.039130777 0.3220131 0.038360827 -0.22408079 -0.18800826 -0.51173514 -0.19822247 -0.25475523 0.21466185 0.25456443 -0.16030636 -0.29275677 -0.18382323 -0.36534896 -0.1761678 -0.26210052 -0.1871279 -0.12003424 -0.26582918 0.013672299 0.040911727 -0.18378215 0.3125507 -0.32224804 -0.076968044 0.08665048 0.08632433 0.24274386 -0.33522135 -0.03226628 0.07316502 0.31728393 0.10631131 -0.004959498 -0.24442765 0.09974974 -0.11289223 -0.0073901447 -0.041265957 0.34982193 0.05389726 -0.205523 -0.1279446 0.13466673 -0.025376286 0.57925355 -0.07939907 -0.09141477 -0.121020295 -0.30438378 0.18488596 0.28727162 -0.2585612 0.353068 -0.3465593 0.30781952 0.34652668 0.55263764 -0.20490587 -0.13862301 -0.39979196 -0.019713515 -0.23000325 0.11556458 -0.19494753 0.06046437
1390 0.05405885 0.0025693015 0.2326595 -0.05667356 -0.26600406 0.062937565 0.24765064 -0.22626252 0.19370952 0.08008787 -0.023605512 -0.1191869 -0.06425806 0.13650392 -0.045819305 -0.017176678 0.030815462 0.2858857 0.33385143 0.00097406027 -0.18458016 0.027500048 -0.23475054 0.20794316 -0.3628269 -0.049831674 -0.2560224 0.6788166 0.41837075 -0.07469068 -0.017183322 -0.17482936 0.13868682 -0.039840654 -0.23537883 -0.07425247 -0.064926825 0.27680767 -0.096878454 0.4750627 -0.47898433 0.23239426 0.13861653 -0.24527133 -0.008750694 -0.3776969 0.011621261 0.24326819 -0.20627762 0.034237742 0.26828605 -0.19763309 0.18040422 -0.036533162 -0.3945821 0.033011753 0.077559076 0.06276435 -0.5796365 0.11402038 -0.16645256 -0.33356813 0.19879158 0.055811103 0.12162914 0.14933787 -0.7656859 0.058121704 0.41081622 0.16767503 -0.23144706 0.14408548 0.31209818 -0.17639913 -0.06353296 0.18990865 -0.41041663 0.045401577 0.23167436 -0.17311898 -0.13494651 0.24247116 0.124558315 -0.009969837 0.22891119 0.026294881 0.14864634 -0.3367343 0.38282895 -0.13494766 -0.02428017 0.07946258 0.23575105 0.3333558 0.39585155 0.42032534 0.097821444 -0.096467786 -0.46397525 0.16032857 0.08642362 -0.001961242 0.45940438 0.05027754 -0.29135555 -0.2913552 -0.24415301 -0.0015710715 0.017240973 -0.11068746 -0.034041077 -0.12852241 -0.058577422 0.16392559 -0.027277313 0.052177474 0.22051282 0.14090273 0.058684424 0.035558376 0.00727143 -0.082159765 -0.24678743 -0.17649738 0.1607909 0.3160529 -0.12861449 0.008856292
1382 -0.009929782 -0.016858984 0.15740886 -0.08154545 -0.3978006 0.23613302 -0.03759779 0.14725484 -0.21275805 0.07243556 -0.20704104 -0.15804482 0.21826799 -0.08332979 0.11919932 -0.03801869 0.0111853955 0.5766074 -0.10238574 0.39190087 -0.3089075 -0.02039677 0.13574679 0.0817802 -0.5033863 -0.42634237 0.23405011 -0.06615703 0.16168752 0.14565168 0.08244713 -0.15946417 -0.04815081 0.27758145 0.25771362 0.13827908 -0.15942599 0.011062467 -0.02064048 -0.0074784136 -0.2247831 -0.11407679 0.18753509 -0.011088396 0.27816918 -0.36890885 -0.19157526 0.108911656 -0.13025111 -0.33773166 -0.0035114428 -0.31042862 -0.43457353 -0.05948186 -0.3193315 0.45112616 -0.13719779 0.1736803 0.00704322 -0.28043675 -0.28487694 -0.17295967 0.06226493 0.25953236 0.15090479 0.007550978 0.10151607 0.3882664 -0.0679846 0.04709467 -0.14242077 0.39748606 -0.6264969 -0.004786289 -0.016729256 -0.024451606 -0.19379072 -0.08306076 0.3870754 0.2875096 -0.076501586 0.11326972 0.35041004 -0.054835822 -0.32997486 -0.101298705 0.042930245 0.12522149 -0.06786564 0.45153916 -0.3319173 -0.15295362 0.12195903 0.3900193 0.20549653 0.17742804 0.02181607 -0.12584507 -0.210768 -0.07225708 0.0044799587 0.06538771 -0.23564576 0.33970875 -0.26577997 0.043767784 0.05784974 -0.088792324 0.103544675 -0.14341687 0.19345836 -0.2376565 0.28247747 0.26084936 -0.26797393 0.08163354 0.21716657 -0.04680439 0.55548114 -0.0036550418 -0.20037231 -0.07962072 -0.1229789 -0.16703968 0.036800314 -0.18020093 0.19108419 -0.18626298
78 -0.37003118 0.05759924 -0.46073577 0.066631906 -0.23371576 0.26156613 0.19928296 0.22232614 0.7273146 0.03211391 0.1769366 -0.032442294 -0.19772546 0.34854892 -0.29579523 0.05159425 -0.24044044 -0.33235326 -0.12697974 0.16173375 0.07793312 0.15474232 -0.060369313 0.32361308 0.24854445 -0.14042477 0.29371467 -0.034584694 -0.04057308 0.25278002 0.070426166 0.12254496 0.551882 0.21918274 -0.007344433 0.21279733 -0.19111232 0.19196135 0.102946244 -0.03678205 0.21733545 -0.073693015 0.31979468 0.17933568 -0.18693939 -0.1359211 -0.12278932 0.0768331 0.08632729 -0.109057516 0.17932385 0.3306549 -0.2520855 0.052322377 -0.014209066 0.12485977 0.14084916 0.20442359 -0.42891273 0.4191437 -0.3156427 0.14884757 -0.48920676 0.0436365 -0.70738184 0.13857014 -0.13129178 0.08774309 0.4276995 -0.34764084 0.028205905 0.17249131 -0.15018371 0.11845598 -0.07525311 -0.11834013 -0.21660039 0.061184466 0.15851572 0.34740624 0.1273162 0.24243811 0.14386125 0.0060862307 0.26311764 0.20853652 0.21655552 0.08258642 0.2929344 0.14816368 -0.34717944 -0.36013103 -0.00903812 0.48465666 -0.16071983 -0.012015169 0.012154882 0.0900264 -0.13096605 -0.15857159 -0.24807021 0.16222736 0.26793793 0.012171799 -0.055742357 0.2768974 -0.032836143 -0.093717024 -0.043074626 0.16752887 0.10708497 0.03741055 -0.050083194 0.17202115 0.020762142 -0.09909855 -0.5653803 -0.06575467 0.039511003 -0.16007672 -0.008225056 -0.3249327 0.033808935 0.09178755 -0.0128605375 -0.034864634 0.09224075 0.28992277
781 0.0019085426 0.18862069 -0.03911139 0.025757037 -0.59938794 0.43929988 -0.36253294 -0.278151 -0.0661408 0.19028464 -0.23290618 0.08642696 -0.25252375 0.37073255 -0.41095456 -0.027674416 -0.41418943 0.23593764 -0.24354175 0.36991194 -0.109829016 0.4140674 -0.2713087 0.009427313 -0.20715176 -0.12426314 0.028117027 0.30160323 -0.15801986 -0.17046136 -0.3130167 0.048910495 -0.51932657 0.4674604 0.17022248 0.07106789 -0.13938178 0.16640043 0.29372206 -0.17324078 -0.13576221 0.14860727 0.07086068 -0.30948174 -0.22407229 0.09787854 -0.14331384 0.18352516 -0.06774685 -0.2666331 -0.051982906 0.06930483 0.31456015 0.2907588 0.33173496 0.24316086 -0.4481168 -0.08362011 -0.12756188 -0.13388807 -0.072603785 -0.003837077 -0.23494546 0.17785458 -0.23321724 -0.042728595 -0.05492826 -0.09014493 0.06398529 -0.11703026 0.33880448 -0.28012908 0.06822126 -0.084760405 -0.21854027 0.20733921 -0.1972166 0.06648221 -0.18974312 -0.22735316 0.0457927 -0.25883123 0.008831727 -0.2740304 0.2515818 0.04854651 0.10618839 0.13245228 0.016102536 -0.015634548 -0.2733385 -0.14918506 0.15080546 0.78765357 0.29537278 0.15327278 0.32321286 -0.27119344 0.20575303 0.13671096 0.045564108 -0.34362668 -0.23237376 0.11035741 0.40540707 -0.21294165 -0.26788917 0.21554744 0.36704674 0.061719734 -0.01123494 0.15136218 -0.13616396 0.48048276 0.04416857 -0.05436934 0.050615855 0.0020982965 -0.1857697 0.18110584 -0.19453391 0.026567604 -0.03312308 0.13716553 0.1997503 -0.08802182 -0.25249705 0.537621
705 -0.12937984 0.22221532 0.13318151 -0.12919354 0.041349284 0.1308028 -0.43098733 -0.089893304 0.15443134 0.10555592 -0.52459794 0.25686085 -0.20446794 0.16988225 -0.05585219 -0.30794293 -0.34327924 0.006465054 0.11408467 -0.18988737 -0.010001061 -0.101445824 0.03630267 0.092098646 -0.48631713 0.11461453 -0.33944654 0.27793646 0.036529712 -0.17636967 0.31688926 -0.1440917 0.15187372 -0.041238397 -0.26971635 0.3610021 0.25986165 -0.31876934 0.08534911 -0.39833698 -0.3352132 -0.17552662 0.46923542 0.15791117 0.31227738 -0.5208892 -0.26313815 0.097542234 -0.26223612 -0.61250037 -0.20135094 0.39575306 -0.01922686 -0.12535173 -0.22629426 0.3207697 -0.029916836 0.07863546 0.015072254 -0.0054503186 -0.0046082665 0.17367125 0.075956106 0.17428583 0.17270423 0.056377955 0.25066423 0.077049695 -0.030467553 0.13611405 0.12917899 0.015056519 -0.30397686 -0.07849586 0.2514165 0.09258757 -0.08317718 0.17939056 0.22394471 0.3391586 0.0035334101 0.07711722 0.09330191 -0.408392 0.52231795 0.14106174 -0.012619674 0.19432741 -0.36174908 -0.04763017 0.07137856 0.022532118 -0.15368664 0.11740781 0.13351718 -0.27933824 -0.085251555 0.15460259 -0.1311358 0.02645788 0.034906264 0.15309922 0.42240018 -0.23959497 -0.13630094 0.23863226 -0.1067573 0.5572492 0.11890987 0.007200659 0.19887295 -0.31119773 -0.123188615 -0.20743744 -0.18815048 0.108389005 0.0035277728 -0.29683664 -0.090858534 -0.11849774 0.069456376 -0.248176 -0.05850305 -0.1846439 -0.22333355 0.05677519 0.1167288 0.071020745
1219 -0.18471713 -0.25415647 -0.09393545 0.28781527 0.032339606 0.1651458 -0.27133262 0.12290778 -0.031980205 0.19865526 -0.19457482 0.27516073 -0.030730678 0.22201718 0.01793799 0.3196319 0.064574204 -0.45185694 -0.09207903 0.18950173 -0.03888154 -0.030018572 0.00089196657 -0.28093883 -0.17140622 0.19831125 -0.0027787602 0.026886879 0.41587958 -0.020192554 -0.42413417 0.3605812 0.63298696 0.18180211 0.28855306 -0.21151572 -0.2868518 -0.08595943 -0.18699932 0.30392405 0.06425194 0.25594023 -0.14034083 -0.38290095 0.35639325 0.20624611 0.1302637 0.15126507 0.059125185 0.047816146 -0.20389323 0.029988853 0.3177773 0.049796317 -0.18685937 0.3966881 -0.12514879 0.43439308 0.15953259 0.028590558 0.26137677 0.12167788 0.038218737 0.049806 -0.092155516 0.37261894 0.1702745 -0.116539866 0.057745583 0.011235772 -0.30424416 0.09170454 -0.026938524 -0.04882781 0.107635304 -0.024841538 0.08360308 -0.12735419 -0.53951365 0.01982837 0.05971434 0.008302757 0.31768748 -0.19022644 -0.07738765 0.13711117 0.039928906 -0.36688206 0.22151743 -0.19607988 0.135284 -0.11026034 -0.15635426 0.19988535 0.00011841652 0.17375225 0.19567665 -0.14932819 0.02636621 -0.15646878 0.31274042 -0.053335566 0.46692538 -0.3153527 0.26021826 0.3699493 -0.21848045 0.21837229 0.10332778 0.10374916 0.009140636 -0.28814745 -0.34090763 0.22362383 -0.30849206 0.42457542 -0.08510197 0.46326217 0.11421868 -0.026053078 0.02410786 0.13700181 -0.24487725 -0.19671233 0.5772774 0.11527614 -0.078638285 0.48069766
693 0.13870844 -0.21322946 0.04322332 -0.15685639 -0.16505462 0.18878017 0.25879636 0.17878088 -0.3903183 -0.32973275 -0.12951083 -0.08671838 0.32008773 0.28495494 -0.36226818 0.055432614 0.09530967 0.2613289 -0.26389593 -0.11427801 -0.25468314 0.037764117 -0.32543844 -0.18375504 -0.080882184 -0.302647 -0.25241297 -0.26569876 0.08829242 -0.01646291 -0.237725 0.34427214 0.23518983 0.120463245 -0.10388078 -0.16572306 -0.40783602 0.114464805 -0.3224673 -0.32573253 -0.26763362 -0.18393183 -0.20270002 0.26593786 0.17724623 0.36287692 -0.71673787 -0.035297666 -0.29196614 -0.5459305 -0.035141267 -0.07555747 0.0012931374 -0.09599747 0.22591016 0.28261817 -0.16232465 -0.056537304 -0.13324234 -0.07942478 0.03998444 -0.16633292 0.009482917 0.041324496 0.13564016 0.097504 -0.47283956 0.58229774 0.24127333 0.4066247 -0.2882837 -0.14695303 -0.15481359 0.36192295 -0.19966632 0.17425801 0.027415302 0.08263435 -0.056135733 -0.16569349 -0.6537933 0.007466132 0.14826003 0.08494586 0.084695846 0.35050035 0.16134141 0.21264666 -0.06334291 0.19973321 0.18785398 -0.05470362 0.08126503 0.4381044 0.27145204 -0.2509284 0.45150757 -0.050726846 -0.0323551 0.105381094 -0.12967339 -0.09214919 -0.35940793 0.028345076 -0.084726684 0.44874373 -0.026832575 0.17974386 0.13930403 -0.100240275 -0.2753879 0.23779428 0.383313 0.12804522 -0.3821532 0.0882958 -0.032028504 0.08406818 -0.01605825 -0.0003110719 -0.46688712 -0.38326737 -0.063587114 0.052422702 -0.26363826 -0.44141448 -0.15690453 -0.016475216
965 0.09092504 -0.24650776 -0.075454384 -0.109648034 0.012689518 -0.15873839 0.10559753 0.051069073 -0.41415125 -0.16319382 0.3992974 0.0046962965 0.09028061 0.09418799 -0.015648648 -0.28244814 -0.20783274 -0.22083263 -0.28317967 0.18698426 -0.13878298 -0.023033742 -0.16957918 -0.29298973 0.018697355 0.056646872 -0.29157376 0.064191945 -0.22421983 -0.13000034 -0.03866448 0.2611727 0.13512486 0.35222253 0.26716238 -0.31476203 -0.21221162 0.07264262 -0.4033003 -0.21024531 -0.038512412 0.16606358 0.09872002 -0.028522633 -0.25897485 -0.15012312 -0.21582831 -0.15793857 0.13012052 -0.08500289 0.10118417 -0.09554567 -0.49794653 0.020216731 0.17465551 0.086706564 -0.102220155 -0.094985045 -0.29299113 0.16796933 -0.43378353 0.28375483 0.08059282 -0.13595115 -0.009122836 -0.00023434056 0.12610543 -0.14750093 -0.09495786 0.2891582 0.018758591 -0.30042168 -0.28869018 -0.28612596 0.35024315 -0.10185053 0.06961023 0.05351207 0.2577121 0.009793647 -0.27361977 0.25081533 0.37260672 -0.22703083 0.059214875 0.08761822 0.009894116 -0.012479296 0.14485613 -0.02304943 0.16575369 0.314703 0.14204066 0.28776437 0.41046304 -0.15308058 -0.05927946 -0.0040342454 0.05895484 0.5865303 0.3220299 0.09538643 0.5585635 -0.088885345 0.24122725 0.043442693 -0.053154554 -0.35550922 0.40800142 -0.52144545 -0.23666275 -0.18955925 -0.39379805 -0.18665026 0.10522578 -0.036991183 -0.20791125 -0.34848335 -0.041212015 -0.04046504 0.16214226 0.2254218 -0.4455649 -0.06517183 0.4652009 -0.013324008 0.16758743 -0.046972718
154 -0.05751994 -0.1500552 0.11889315 -0.26193628 0.53698033 -0.022114389 -0.50512224 0.16112337 -0.07869398 -0.17194696 0.103446886 0.47419417 -0.05811753 -0.0793774 0.036130108 -0.16394222 0.09126472 0.17332946 -0.00296873 0.18171369 0.1202617 0.27700987 0.10429248 0.12736964 -0.06661259 0.20307401 0.272714 0.22803198 -0.060753394 0.11746335 -0.19778734 0.118072435 0.23138699 0.11454176 0.065688916 0.030478638 -0.39212295 0.08061368 0.14416863 0.10193267 0.27370274 0.29017842 0.23380853 0.35118887 -0.23471653 0.1110945 0.037452456 0.113511324 -0.28373122 0.38048336 -0.06617973 0.11640608 -0.23510545 -0.11132691 -0.12493763 0.30287874 -0.45825052 -0.23070244 0.16685365 0.061222225 -0.14644371 0.052797917 0.1639639 -0.29099432 0.08066701 0.12292732 -0.48356527 -0.24230756 0.022335587 -0.08097181 0.054502405 -0.0018767129 -0.36949757 0.17756525 -0.11165171 0.15138805 -0.38407955 -0.32337967 -0.14945818 -0.06700215 0.20424289 0.027007556 0.07221062 -0.35964042 0.26575416 0.39256075 0.025874276 0.107397266 0.4270352 0.101856716 0.26335984 -0.033297222 0.13983656 0.06669992 0.09064765 -0.12629727 0.014428801 -0.23854315 0.39667425 0.123512894 0.39635223 0.28619474 0.25086072 0.13761169 0.090489045 0.20739566 0.3978408 -0.24349648 0.21286917 -0.08655656 -0.47895452 -0.016164813 -0.3725548 -0.09940083 0.09355521 -0.006042646 0.23381653 -0.09448681 -0.42301902 -0.3067231 -0.41030756 -0.30435237 -0.14249843 0.1768891 0.25816384 0.12961651 0.13555089 -0.205431
1470 0.6676008 -0.16032878 0.35094675 -0.17161743 -0.33504924 -0.49758548 -0.3937288 0.10183924 0.15724275 0.19269481 0.059788264 -0.09572856 0.024256028 0.1875556 0.10094539 0.37540135 -0.27512652 0.24141763 0.06351955 0.4812478 0.007521618 0.035673313 -0.0039166724 -0.47706738 -0.063338 0.479777 -0.5811086 0.16860358 -0.24261272 0.15415633 -0.00691738 -0.5858235 0.104882084 -0.058421314 -0.12776315 -0.18813609 -0.17019159 0.05642512 -0.62514526 0.18066978 0.24053547 -0.00037165385 0.04041979 0.000702665 0.16239533 0.1548778 -0.097112134 0.17359938 -0.03476514 -0.1859245 0.33965564 0.22234538 -0.13723068 -0.16321553 -0.40445217 0.1526681 0.26170662 0.34856534 0.13458851 -0.13975504 0.044891343 -0.23089416 -0.46571407 -0.18541941 0.026035609 0.16790463 -0.38870126 -0.37897024 0.1562243 -0.23047048 0.46444952 -0.15294173 -0.016991764 -0.008084012 -0.051524807 0.03000427 0.055108577 0.08716263 -0.109878935 0.24065891 -0.12548634 -0.23813435 -0.04762412 -0.4706354 0.21910116 -0.057988044 -0.19952177 0.48009858 0.20784143 0.3963799 0.0688465 0.088523634 -0.45260462 0.5735779 -0.052035414 0.29559806 -0.035751157 -0.12383275 0.19953857 0.17444794 -0.008273722 0.033910427 0.0055426257 0.46420205 -0.43695244 -0.1633433 -0.0757725 -0.01776217 0.026354114 -0.19936742 -0.11789798 -0.29209352 -0.40860376 0.026046377 -0.14521559 -0.4442465 -0.00079553376 -0.05095034 -0.025653886 0.13037407 0.22274849 0.14127095 0.15608811 -0.08822374 -0.09301277 -0.19163787 0.021823213 -0.12962113
769 -0.057992816 0.19661145 -0.16406175 -0.43444705 -0.17514828 -0.044755682 -0.656288 0.14643167 0.22495525 0.17813261 -0.5289842 0.17492616 -0.48144796 0.08011236 -0.3341734 -0.30638695 0.58741564 -0.050361596 0.030729704 0.14501905 0.21844855 0.21925469 0.013932328 0.14545524 0.10052281 0.17602956 -0.09543596 -0.033475116 0.16919073 -0.19939804 -0.029812673 0.18308352 -0.43665153 0.21068208 -0.07121886 -0.1710881 -0.14192301 -0.05068991 -0.2457708 0.15494564 0.20192075 0.01859443 -0.13036744 0.3524375 0.03472502 -0.47088617 -0.47317362 0.5186648 -0.057495218 -0.00010722422 -0.19112124 -0.13240777 -0.37794057 0.00024919497 -0.57211584 0.23802896 0.3948318 0.016516786 0.05927019 0.21022749 0.08574838 -0.06509597 0.5080358 -0.047352202 0.21084777 0.062226515 -0.13046417 0.31235576 0.14866966 -0.011472369 0.22544798 -0.14987211 0.12522365 0.19684389 0.2178014 -0.27285713 -0.34308547 -0.14199945 -0.23562162 -0.1910339 -0.033750508 0.20053051 -0.08964336 -0.11373096 0.25533068 -0.087173365 0.21807605 -0.27167192 -0.10639334 -0.14548108 0.045645203 -0.2716336 -0.22571486 0.44036743 -0.03450016 -0.0066369185 -0.19036888 -0.109373055 0.12290829 0.10018618 -0.11909567 0.0074512498 0.11348483 -0.14718062 0.319839 0.2121595 -0.30388668 -0.036257964 -0.06669048 -0.2503231 -0.25784618 -0.32737574 0.16040441 -0.16428055 -0.043571062 0.07349278 -0.111386 -0.26788312 0.22143288 0.14687133 -0.08696786 -0.05674997 -0.22663619 0.4278543 -0.52670825 -0.13116238 -0.0041990336 0.08893033
415 0.10428462 0.4326178 0.46091405 -0.075222604 -0.106654376 -0.14057766 0.43184453 0.033863362 -0.14891994 0.33047846 -0.11096166 0.12674278 -0.45048177 -0.005231844 0.12769614 -0.14367336 0.28068006 -0.17551625 0.45849434 -0.072232224 -0.2028198 -0.7018923 -0.42796996 -0.2495466 -0.13750874 -0.25702965 -0.50794864 0.21952336 0.072514966 0.04945382 0.27889678 0.22565377 0.41809016 0.0079486985 0.0035368884 0.23031476 -0.056044895 -0.25516856 -0.05421346 0.056371775 -0.1403415 0.0648248 -0.04134548 -0.3593247 -0.09113258 -0.1780262 0.1380824 0.18599443 -0.21307515 0.023787832 0.35130158 0.6113056 -0.07322802 -0.0970906 -0.19640236 0.23601748 0.282874 0.12134482 -0.34146544 0.1399318 -0.28393963 -0.2676187 0.17844993 0.2988716 0.08367717 0.17686112 -0.52358663 -0.3678921 0.22722207 -0.29337904 -0.025967304 0.017168162 -0.09862955 -0.18161535 -0.53432876 -0.16535267 -0.27424264 -0.010588619 -0.30170423 0.06798801 -0.033440527 0.08493376 0.29752362 -0.0929473 0.17548148 -0.22999279 0.29762536 -0.55472845 -0.022434033 0.4942949 -0.062394902 -0.04088647 0.36801744 0.07910856 0.38732612 0.01398788 0.08965939 0.11438478 -0.09470263 -0.016026534 -0.08364016 0.0540953 0.11397422 -0.23295046 -0.13952705 -0.22455238 -0.16011232 0.08141261 -0.08473744 0.035931025 -0.015102117 -0.3088467 0.21692584 0.4029054 0.17694493 -0.34563494 0.28051674 -0.025636612 0.35050863 0.2891422 -0.1607932 -0.17453359 -0.29047963 0.3625759 0.45077452 0.24287787 0.062427644 0.16432017
89 0.020423561 -0.13899171 -0.15637529 0.116610125 0.38024685 -0.18917961 -0.31440228 0.026935544 0.07044641 -0.054798182 -0.011604585 -0.35601476 -0.16247402 0.0751511 0.3010407 -0.3007148 0.029696647 0.16329716 0.6262771 -0.11908124 0.14422294 -0.09841079 -0.16323742 -0.22426377 -0.18394941 0.35917205 -0.024812782 0.16680212 0.12942298 -0.021340221 -0.36302736 -0.31046167 0.38949385 -0.22170524 -0.039467227 -0.06626129 -0.2843535 0.08041018 -0.07897519 -0.27013645 -0.2750398 -0.012644236 -0.19547799 0.21230881 -0.103705786 0.10631843 -0.02266453 0.08521706 0.31740293 -0.16291693 0.5105913 -0.025914324 0.075044036 0.09213459 0.038871553 0.42911607 0.14446753 0.24809846 -0.6023345 0.008434919 -0.2656847 -0.21534447 0.29977173 0.22495037 -0.046903823 0.009074697 -0.28203377 0.24086416 -0.37084374 0.038854882 0.32883534 -0.31773478 -0.39836857 -0.10455408 -0.18472116 0.24073534 0.5920895 0.1261375 -0.17208384 -0.013351362 -0.17986141 0.07902417 -0.31534743 0.28394926 0.09901092 0.10562548 -0.16739726 0.08177803 -0.05080774 -0.23846819 0.030031664 0.19796161 -0.04160127 0.5138173 0.22360858 -0.037392195 0.09178859 0.03609562 -0.1276214 0.16319355 0.05281158 0.39828515 -0.1884553 0.16334555 -0.07580996 0.029919632 0.20561819 -0.17506921 -0.17463905 -0.2151628 0.111664034 -0.048407093 0.06287392 0.06414154 0.09068413 -0.40454492 0.35968718 0.31814355 0.027968574 0.31756127 -0.106882885 0.10343612 -0.15975852 -0.031076415 -0.07322279 0.04664537 0.0819291 0.18541147
387 -0.0045834896 0.026872765 -0.12281818 0.050399035 0.25531408 0.22686385 0.1178115 -0.11027349 0.42619804 0.45187345 0.27325827 0.07285483 -0.08684908 -0.04112158 0.3530976 -0.26917547 0.018398276 0.030974722 -0.07654683 -0.10504153 0.14393057 0.010848888 -0.03514247 -0.3200716 -0.12592025 0.3067681 -0.24682888 0.08837393 0.119850956 0.10189481 -0.1954094 0.13300163 -0.07358111 -0.02626638 0.027047012 0.16383933 0.3939168 0.38894105 -0.0076562394 0.24589661 -0.1004164 0.2629882 0.17586923 0.21834788 -0.107032955 -0.6421245 0.27212197 0.08953704 0.21896902 0.10703436 -0.05972276 -0.1637935 0.040880103 -0.10035975 -0.11303619 0.064414 -0.5383974 0.349549 -0.41091272 -0.21898082 -0.096253425 -0.36872855 -0.049565606 -0.06947277 0.54919153 -0.12091704 -0.3285049 0.26939806 0.01919017 0.28992498 -0.009459842 0.048752837 -0.217764 -0.016210139 -0.11144721 -0.1484567 0.020056212 -0.02843934 -0.041443467 -0.37018618 0.07379875 0.0019185 0.07888631 0.0873718 -0.1357762 0.42311025 -0.19255935 -0.2062052 0.2489454 0.08116534 -0.112784125 -0.27304086 0.095750205 0.23786226 0.41580576 0.10825304 -0.32216433 0.13640362 -0.09069251 -0.22749946 -0.13910624 -0.2622119 -0.026928866 -0.0699683 -0.35932633 0.13565575 -0.4874195 0.11141846 -0.087467596 0.004190469 -0.13264382 -0.39079067 -0.14072764 0.046303637 -0.073546074 0.2635684 -0.2642439 0.35683316 -0.35091934 0.36669096 -0.10422834 0.28846222 -0.4799999 0.039677072 -0.11891855 0.08202098 -0.29292157 0.13323922
577 0.19417833 0.16311789 -0.41016537 -0.28634727 0.089700796 -0.06953141 -0.25868964 -0.019690173 -0.4943922 0.09223216 -0.11646892 -0.07447037 0.12497426 0.08286482 0.15829293 0.1518755 0.11711448 -0.04864486 0.44586003 0.1144586 -0.2067981 0.010506718 0.18194984 0.2342992 0.26021662 0.4302523 -0.23533021 -0.0013218267 0.14744216 0.2953207 0.13449834 -0.24569938 0.19080913 0.17003788 -0.294652 -0.28529534 0.22277187 -0.36722243 -0.20331877 -0.2701894 0.31518495 0.028074633 -0.09480357 0.0820194 -0.10958219 0.05115535 -0.049472257 -0.28229192 -0.1261836 0.15145634 0.35472172 -0.12935291 -0.31434172 0.026104627 -0.2889853 0.03414668 0.1165251 0.31333178 -0.0063556815 0.022521786 0.14432646 0.00086430856 -0.055632576 0.35330865 -0.09050935 -0.16003375 -0.12717877 0.29598105 0.1692699 -0.1990454 -0.17986102 0.008354217 -0.12856609 -0.123462714 -0.117292956 -0.5648602 -0.5097205 0.36737657 0.15812351 0.2389389 -0.46477404 0.29154128 -0.390503 -0.12073126 0.060011197 0.20257653 -0.10437785 0.6658032 0.03990215 -0.03861014 -0.439173 -0.2645269 0.43970212 0.28287926 0.21191166 0.3702462 0.12831722 0.036045488 -0.24022469 0.16696478 0.3230893 -0.0433053 -0.2556493 -0.042342626 0.14069793 -0.12287882 0.036495954 -0.20018749 -0.2312766 -0.20062791 0.2782552 -0.028176442 -0.12530674 0.42941958 0.28424156 0.10507199 -0.093663804 -0.2046981 -0.21978013 -0.32226646 -0.010651354 0.3756932 -0.035728063 -0.39446494 0.24116902 0.039742254 0.04941675 0.33536136
993 0.36941326 -0.13923986 -0.065232076 -0.054071173 0.0872655 -0.030505754 -0.17017572 -0.10207589 0.33341032 0.07777525 -0.19563575 0.18147385 0.038677655 0.28374946 0.21046622 -0.23292635 0.20798331 0.12700292 -0.17663695 0.30659577 0.1402809 0.019152315 -0.04945697 -0.4026937 0.29821882 0.24649109 -0.11782958 0.0052782777 0.1525386 -0.18396822 0.14571273 0.09976551 -0.18595734 0.19989522 -0.21278992 0.040586464 -0.039408308 -0.02347855 0.14035247 -0.024983458 0.13441585 -0.03823137 -0.37073457 0.20637013 0.046174552 -0.15544322 -0.13010123 0.081720844 0.19141352 -0.050727304 0.030996053 0.29165557 -0.1301798 0.38272622 -0.13585544 -0.19086984 -0.5933635 -0.2108642 0.017479567 0.09672297 -0.5502535 0.12870945 0.18233582 -0.037102018 -0.20955738 0.33370388 -0.23977013 0.54742503 0.0127702365 0.13482703 0.11212302 0.16973814 0.1537241 0.21671468 -0.030755792 -0.2283655 -0.33452424 -0.22807975 -0.3239697 0.14498942 0.23530346 0.25244728 0.19720402 -0.64997196 -0.25944388 0.11900679 -0.04328016 0.15819521 -0.4474081 -0.43332657 -0.05270084 -0.24118723 -0.33682048 0.35290724 0.08681229 0.16838822 0.043248508 0.14282782 0.03634094 0.15689117 0.49569857 -0.108507805 0.31314963 0.03705107 -0.11301287 -0.01884437 0.18488565 -0.13438983 0.06503608 -0.45958683 -0.28458077 -0.4157351 0.3019061 -0.19434257 -0.38886556 0.04641334 0.28302327 -0.39928448 -0.3211817 0.09511069 -0.2034146 0.29510406 0.15232979 -0.05856189 0.09026237 0.38398764 0.032114644 0.17981768
340 0.41726494 -0.20071109 0.2795201 0.061840393 -0.27194747 -0.2729881 -0.112611145 0.027034122 0.15514444 -0.32871753 0.15480547 0.04155322 0.097135544 -0.117281325 0.051067263 -0.06800434 -0.24660599 -0.10620122 0.23116654 -0.15864944 -0.1139872 -0.33089978 0.23942928 -0.023426 -0.1989412 -0.11199523 -0.38622135 0.1553904 0.25558668 -0.18674777 -0.046154805 -0.076209 0.3682594 -0.24395536 -0.23130825 -0.5776966 0.027684852 -0.075081326 -0.15029134 -0.28566608 0.4824423 0.23605011 -0.14641467 -0.057948798 -0.07833507 0.013371513 -0.17291427 0.5150742 0.024866516 -0.009373173 0.5180666 -0.18669367 0.22017205 -0.12510554 0.14576511 0.42890745 -0.11979181 0.15146682 -0.09052443 0.12432216 -0.37387693 0.06549924 0.25352132 0.08627743 -0.06458445 0.41242057 0.0016446878 0.02253419 -0.15426664 0.12740405 0.5833947 -0.0028363215 -0.23651542 0.5600425 0.21655999 -0.036418173 0.20606285 0.048739135 0.09913803 0.20235138 0.01679306 -0.07096087 0.057186365 -0.1952283 -0.02884202 0.25563344 -0.4585246 0.106001556 0.24838315 -0.039251696 -0.08512986 0.06301112 0.0021053846 0.18097588 0.12806098 0.046688385 0.21535774 -0.26758742 -0.11706146 0.113815054 -0.3195942 0.17709792 -0.108751796 0.24599707 -0.13847454 -0.18314256 -0.10505405 0.041738275 0.29362887 0.09722906 -0.33546504 0.37825376 -0.33202463 0.23475595 0.28933793 -0.11693533 -0.12839767 -0.030470861 -0.36997786 0.09290507 0.009472723 0.18171157 -0.15769292 -0.038423903 0.020047782 0.038399816 0.017578151 0.0866564
1060 -0.12079493 0.4282926 0.27768242 -0.029392244 0.4053271 -0.0017525417 -0.034844883 -0.1305498 0.31966415 0.10989394 0.01626354 0.29959533 0.06240046 0.25534692 0.080818236 -0.14465557 0.17030726 0.15089934 0.14153339 0.114925615 0.2993254 -0.20898089 -0.04030831 -0.22858654 -0.29000556 0.1594561 0.24896614 0.14232472 0.20697679 0.30010888 -0.023382826 0.07753624 0.11723365 -0.27783987 0.21419536 0.38149312 -0.006523754 -0.056498468 -0.23289943 0.001132616 -0.024390152 0.23638411 0.0044302843 0.024803758 -0.15732203 -0.01762095 -0.24168177 -0.4230145 -0.05592089 -0.1357992 0.5864174 -0.3679919 0.057921525 -0.053659525 0.121618696 0.5898261 -0.014947185 0.055658367 0.092498764 0.32834515 -0.11697119 0.34983873 0.0014428127 -0.011843944 -0.2666889 0.077198505 -0.17740072 0.13078564 -0.09333652 -0.26389104 -0.16652745 -0.32703188 0.03537399 0.017191077 0.6496374 -0.18026496 0.011460877 0.14793701 0.11623814 0.05169534 -0.3722379 0.08204613 -0.22863983 0.032354284 -0.07832112 0.2279244 -0.1293348 -0.29517397 0.120230295 0.03705042 0.23022796 -0.17571723 0.48735896 0.37517098 0.0008423142 0.34146154 -0.38154855 0.14891352 -0.024773376 0.22079298 0.16389248 0.11344815 -0.3631436 0.086464986 0.08637659 0.10388295 0.19526798 -0.07507549 0.27704597 -0.001573038 0.226365 -0.05341206 0.15345614 0.21254279 0.05668217 0.122706875 0.17408547 -0.11970783 0.2565343 -0.1145979 -0.73479295 -0.46165815 -0.31582364 0.45353574 0.35145858 -0.22860853 -0.22843982 0.08369386
1305 0.22951439 -0.16826479 0.29760814 -0.004336526 0.03285529 -0.041275833 -0.343846 -0.06828638 0.4596962 0.0048413207 0.25266775 -0.026541004 -0.11226784 -0.20233922 0.073919274 -0.055866 -0.109882005 0.15413596 0.117354944 -0.13621943 -0.021872057 -0.6762154 0.16842867 0.19349135 -0.19848868 -0.302297 0.39732078 -0.1419155 0.22490875 -0.11476167 0.18985671 -0.025907552 0.04908939 -0.021239607 -0.23625556 -0.57940185 -0.09968246 -0.06731951 -0.11913602 -0.07668896 0.3947733 0.31057242 -0.054973837 0.04017255 0.000929191 -0.05895627 -0.06739339 0.36676064 0.011644882 0.18035968 0.405717 -0.038615268 0.47529563 0.016328108 0.32431296 0.46028185 -0.024947401 0.18711303 0.17837372 0.23122814 0.0058492403 0.04157756 0.2813881 0.15829556 -0.29545015 0.08766907 0.26244235 0.3190684 -0.060865823 0.08221554 0.06134201 0.07116617 -0.417737 0.2761663 0.1253951 -0.06694985 -0.44726035 0.13180266 -0.045490094 -0.09307258 -0.24671863 0.08267614 -0.11991637 -0.06878982 0.28088054 -0.13427943 -0.338595 0.18069375 0.38650596 0.38828012 0.3741214 0.0812087 -0.15227905 -0.14028607 0.09319196 -0.14366585 0.020813929 -0.2311328 -0.07090123 0.15487893 0.20926665 -0.0012239385 0.008019733 0.08074724 -0.31593657 -0.09585328 -0.41655967 0.17514259 0.2680908 -0.054308344 -0.26055944 0.34073022 -0.10777704 0.07636866 -0.16562255 0.4737641 -0.0010169196 -0.08139833 -0.4669746 0.18404223 -0.071828574 -0.0855776 -0.03171715 -0.04079854 -0.24163379 0.005042821 0.37279612 0.4038686
409 0.20843478 -0.08484638 -0.33481786 0.15191184 -0.29872528 -0.09752063 0.1579138 0.08004523 -0.206118 0.07457908 0.15469849 0.13079065 0.34859368 -0.055832356 -0.09079426 0.062202338 -0.18859576 -0.22687787 -0.017326005 0.13749427 0.14412163 0.28870803 0.19039921 0.18163799 0.052093565 0.0016171834 0.3339708 0.3914644 -0.10440004 0.14956127 0.052605446 -0.014263966 0.191968 -0.18286124 0.27742848 0.23744246 -0.16820394 -0.062168557 0.30437085 0.04113836 -0.21950272 0.041469496 0.11434103 -0.01256839 -0.058790777 -0.49360096 -0.6021378 -0.1446199 -0.052771542 -0.26623324 0.15658113 0.27381316 -0.10685636 -0.1418823 0.030719224 0.07518391 0.21935564 0.03550868 -0.09323709 0.13832216 -0.26483244 0.22877158 -0.1472477 0.45613855 0.06273655 -0.2402465 -0.16659704 0.50202787 0.371772 -0.08672953 0.64596355 -0.16055007 -0.0059146034 -0.15304074 -0.06767125 -0.42468116 -0.4153531 -0.14969243 -0.49300978 0.021232763 0.5160335 0.036704108 -0.115021214 0.298813 -0.19164824 0.3354699 -0.31088373 0.05991154 0.39963344 0.15879671 0.17848168 -0.30716926 -0.07466724 0.20929919 0.0018788205 0.09686838 -0.063943036 -0.4449156 0.11515733 -0.11652531 0.18184936 -0.10968994 -0.48712975 0.014191149 0.028421964 -0.13789004 0.08420131 0.13453057 -0.197606 -0.13174258 -0.004011662 -0.015889328 0.061042953 -0.1293527 -0.29959983 0.14977665 -0.20684169 0.2902423 0.07962439 0.17962585 0.12997608 -0.10299273 0.016992051 -0.011779743 0.27486366 -0.30944753 0.10032406 0.42334467
645 0.00044233995 -0.0006787206 -0.045141093 0.10298715 -0.15472504 0.09656633 0.40639883 0.38956925 -0.103284724 -0.0703844 -0.19747397 0.19481203 0.012014896 -0.079632536 -0.36167735 0.28995767 0.0090186605 0.0053768563 -0.44038534 -0.30509034 -0.23701414 -0.09594265 -0.42064807 -0.20804262 0.087058015 -0.036128853 -0.47367963 0.21269062 0.31371683 0.022853408 -0.14447464 -0.20629308 0.09359117 0.53457 0.091027476 -0.29873845 -0.16370521 0.0516728 -0.07464925 0.09774445 -0.18749645 0.10933747 0.037813783 0.39132458 0.16097759 0.21537757 -0.5298939 -0.10856988 -0.29050285 -0.13244258 0.25529826 -0.19420892 -0.051571243 0.08209406 0.037346523 0.47383857 -0.20844279 -0.09601967 -0.2880614 0.04759852 0.0320981 -0.049859475 0.55941933 0.16159873 -0.11520556 -0.03154739 -0.5611202 0.3905708 0.21732262 0.093388684 0.33258748 -0.2529218 -0.076725714 0.33524686 -0.12863065 -0.17957811 -0.0060374723 0.23528636 0.25448883 0.2598203 -0.35069588 -0.08456071 0.27609205 0.1849145 0.09718775 0.37327507 -0.14138111 -0.04296287 -0.2266064 -0.034335226 -0.12185962 0.05129847 0.14000168 -0.05036658 0.20243765 0.12850074 0.06471336 0.0067337127 0.13722807 -0.40025982 0.10560799 -0.082627356 0.29698926 0.35629183 -0.3342201 0.23334533 -0.27343044 0.115858406 -0.30139282 0.27149355 0.053693965 0.24752171 0.11183876 -0.13206366 -0.14343867 0.09399945 -0.054060508 -0.0030717568 -0.2104782 -0.18780726 -0.095986255 -0.24672113 -0.11488387 0.08905072 -0.28691337 0.07044519 -0.14365602 -0.34045503
1143 -0.15304045 -0.09649219 0.003464168 -0.10370375 0.23783842 -0.25432506 -0.028711746 0.07368318 -0.102300525 0.29801792 0.0012901023 0.07252113 -0.19143648 0.18129182 0.06832094 0.0057578566 0.021168798 -0.24108954 0.2111687 0.2230381 -0.029634828 -0.18590334 0.11333647 -0.17761081 -0.18865964 0.08360069 0.29900056 -0.024722576 0.20251782 -0.08024537 -0.34895724 0.2692669 0.016423937 0.25926903 0.15981098 0.34003055 -0.20129865 0.0073161563 -0.16688454 -0.035219677 -0.32889053 0.11883391 -0.18294305 0.029231688 0.08615171 -0.005246014 0.03144137 -0.26990464 -0.5975069 -0.037566934 0.12044351 -0.065914646 0.23897009 0.15642421 -0.032831304 -0.14579168 -0.05753546 0.4226424 0.00043453003 -0.34919584 -0.14242633 0.15963134 0.15399171 -0.1076252 -0.2614918 -0.2679426 -0.30915257 0.3624545 0.025424082 -0.24830008 0.4325637 -0.015680203 0.00051811564 -0.3883888 -0.0012182597 -0.6089837 -0.12336962 0.030023398 -0.09253307 -0.09838733 0.20927183 0.30757648 0.17566237 -0.3600284 -0.2299895 0.3439351 -0.10572701 -0.4966556 0.1936516 0.04956116 0.42004502 -0.08443309 -0.37662748 0.29580602 -0.059932843 0.063951254 -0.08408975 -0.3835447 0.18055643 -0.17338651 -0.2675791 -0.45690975 -0.119588375 0.37820387 -0.11277621 0.2986718 -0.171995 0.08888857 0.36126357 0.09872018 0.056536563 -0.016475659 -0.11822495 0.085296944 -0.03493548 0.3433665 -0.14783718 -0.4899827 0.2891415 0.14085187 -0.26228324 0.2881204 -0.22563507 -0.21940021 -0.08619681 -0.094341464 0.19361034 -0.054954324
349 0.17850265 0.24477296 -0.43873662 -0.23608685 -0.18691678 0.32601586 -0.030264413 0.133685 0.21274494 0.15775697 -0.042438854 0.18790513 0.19112471 0.10969517 0.009565457 -0.021518359 -0.18531515 0.19674434 -0.109057866 -0.109801315 0.12913166 -0.20562762 -0.12623426 -0.018747985 -0.015662478 -0.47221616 0.065001324 -0.062240813 0.07288752 0.18396947 0.18897001 0.005617876 -0.1974734 -0.06742479 -0.1773294 -0.17751394 0.09815177 -0.29228693 -0.1314383 0.25973397 0.27196395 -0.12511075 0.010371356 -0.22958106 0.22060648 0.059669614 0.33612588 -0.12740771 -0.0001706198 0.23968397 -0.049864665 0.49781686 -0.48508602 0.04242378 0.17370075 0.25089562 0.018963391 0.05631959 -0.12136007 0.06829922 0.19021562 -0.021994805 0.15302037 0.05576965 -0.110734485 0.12870775 -0.561408 0.08874511 0.08539114 0.044002887 0.034221638 -0.25507012 -0.37517685 -0.05503205 0.43749854 -0.21337247 -0.31157845 -0.41660663 -0.090840325 -0.46358263 0.1681592 0.3441253 -0.035978265 -0.3151028 0.34361207 0.17333657 0.012906251 -0.0045774435 0.18408208 0.24122457 -0.259705 0.013640818 -0.2064043 0.14117207 -0.2581038 0.03658037 -0.16806738 -0.5129204 0.051292077 -0.10218469 0.15810803 -0.025646377 -0.22823694 -0.06722631 -0.06704789 0.45310926 -0.32331303 0.031714864 0.39642867 -0.14628665 0.08087008 -0.20107988 0.093383975 -0.2105606 -0.3892718 0.107302874 -0.13965096 -0.14092031 0.1542982 0.17173849 -0.25778073 0.2027632 -0.57776004 0.1528577 -0.40558767 0.19421318 -0.25399327 -0.11361166
1039 0.12882711 -0.2847004 -0.09571421 0.07600602 0.08675542 -0.09378573 -0.38657016 -0.03933628 -0.62433773 0.14902513 -0.15108682 -0.3478679 0.04330415 -0.22717121 -0.090107895 0.251761 0.09503568 -0.29058918 -0.26590112 0.2800846 0.44540578 -0.0729268 -0.060342968 -0.18695536 -0.16212273 -0.160629 -0.368291 0.022944853 0.17735508 -0.09228709 -0.20005466 0.3740851 0.39376643 0.17508285 0.2083108 -0.2779279 -0.24059257 0.2547483 -0.146076 0.010172591 0.30177706 0.08124015 -0.35476238 -0.25810552 0.07901499 -0.15089318 -0.08051052 0.024597725 -0.014037937 -0.33212423 0.36228573 0.44580948 -0.31244805 0.18064465 0.11169433 0.24752173 0.16889584 0.33144888 -0.27086377 0.1334495 -0.18903586 0.18344694 0.022448638 -0.2699497 0.12222706 -0.05750551 -0.07172773 -0.16372162 -0.07348612 0.17060305 -0.30812782 0.2344686 -0.39346185 -0.17574449 0.11425879 -0.11127693 0.25449476 0.13944602 -0.10577038 -0.09703047 -0.6547693 -0.1019447 -0.1701846 -0.14199872 -0.312527 -0.022963922 -0.101215005 -0.17233649 -0.17166774 -0.121451735 0.32364985 -0.07474274 0.08795146 0.5099371 0.031648465 0.0795302 0.32046455 -0.15332429 0.115037516 0.04275085 0.074068785 -0.441396 0.24929409 -0.33033177 0.07294374 -0.16005468 -0.14714351 0.109912895 0.04342283 -0.20550093 0.25730795 -0.56226677 -0.43972436 -0.3584141 0.0011094301 0.50581634 0.1342075 0.35169294 -0.25915754 -0.2852306 0.25748807 0.064251095 -0.64385027 0.3300558 0.45034307 0.15304048 -0.042144284 -0.29692048
668 0.04860153 0.08992 -0.037279863 -0.0889729 0.3501775 0.61184794 -0.25519753 0.3085011 0.09360441 -0.0754299 0.5283814 0.016458461 0.07627719 0.21632959 -0.016742667 -0.14450756 0.3904104 0.25003374 -0.24766125 0.12613997 -0.41556317 0.20856592 -0.1892479 -0.13353029 -0.03460179 -0.065143995 -0.35202497 0.021359019 0.04401968 -0.028078806 -0.094457015 -0.10098833 -0.11875605 0.15928103 -0.069575876 0.37960017 -0.066475995 -0.29079786 0.4422127 0.0472586 0.2649059 0.13029563 -0.036360696 -0.18776405 0.038751677 -0.34604776 -0.38130525 0.180041 -0.1169907 0.06554638 0.12115075 -0.18886265 0.2877072 -0.1266136 0.23818263 0.14841406 0.11082828 -0.022098698 -0.6175276 0.12589195 -0.121393085 -0.11840279 -0.12808996 0.031498063 -0.110003315 0.09024715 -0.0893026 -0.04685806 -0.2892142 -0.3192712 0.2848732 0.10862961 -0.09962642 -0.03492452 -0.38074908 -0.24921742 -0.27232167 0.293465 -0.092030674 0.09396988 0.0068760635 -0.15805197 -0.26133332 -0.2624934 -0.010180185 -0.4903921 0.15202016 0.28108892 0.19656065 -0.06799817 0.23360796 0.16654508 -0.13268448 0.35824794 0.2992325 0.039155643 -0.11997901 0.23273113 0.26788583 -0.060734365 0.08827091 0.44696668 0.19186558 -0.23772962 0.098533385 -0.10376199 -0.46392202 0.16465944 0.52213347 0.17863812 -0.23545885 -0.12776428 -0.2092333 -0.07989088 0.062043183 0.06369131 0.027161421 0.14299402 -0.029190985 -0.058125917 -0.28061637 -0.040074933 0.0045696525 -0.34401476 0.26675203 -0.34252656 -0.22238223 -0.10001578
273 0.054152034 0.116460696 -0.31222856 -0.11342042 0.15326834 0.20391025 -0.2756249 0.16641316 0.103701524 -0.26097745 -0.018184435 0.033135217 0.23240031 -0.28206566 0.23321503 0.82178855 0.054324236 0.3688226 -0.0008270496 0.2743873 0.13346334 -0.24713156 0.023691542 0.036125917 0.3000016 0.14480022 0.33819523 0.04657742 0.10672478 -0.26003525 -0.17906924 0.072473414 0.42463708 -0.181852 0.39770314 -0.13335471 0.09715964 -0.07016775 -0.12986636 -0.3054638 -0.05461291 -0.13193329 0.22762948 -0.12733659 -0.15370704 -0.6553163 -0.23273347 0.101243265 -0.012301309 0.12659226 0.15471826 0.4981486 0.007659023 0.1614434 -0.26179937 -0.4193743 -0.1269555 0.14271708 -0.30448043 -0.20368779 -0.24926671 0.6608252 -0.090671174 0.18147606 -0.2788248 -0.25764078 -0.14089903 0.4943418 -0.15419783 0.23868747 -0.05596739 -0.027049022 -0.22720334 0.15576346 -0.31537968 -0.2814533 0.09737043 -0.14944154 0.30573595 -0.079355955 -0.049075413 -0.30005243 -0.01636184 0.31651896 0.20669447 0.2974907 0.08355835 -0.07093108 -0.11412037 -0.12913765 0.33016434 -0.07072648 -0.013627403 0.2600725 0.2940818 -0.09674393 0.04274195 0.29581842 0.26222667 -0.017081883 -0.12260261 0.06553423 0.2318732 0.06286487 -0.116105184 -0.18887153 -0.09978536 0.12351434 0.044938423 -0.28921163 -0.3423776 0.18167812 -0.020503525 0.22046858 0.14848685 -0.17183176 0.30368134 0.063041866 -0.34940952 -0.008344611 -0.025102908 -0.051089488 -0.4115058 -0.1547168 -0.070204265 -0.163649 -0.29409766 -0.18078515
754 0.031087626 -0.0505381 -0.084532954 0.09046403 0.013980499 -0.16257559 -0.10804027 -0.103788234 0.016647445 0.24208914 -0.058200214 0.5556518 -0.100103274 0.2773099 0.4498026 -0.06300417 -0.41451356 0.26514104 0.108519144 -0.044460792 0.1421672 -0.09982854 -0.12956005 0.06618267 -0.31280655 0.24701579 -0.19986464 0.14548285 -0.072665304 0.31888056 -0.48155838 0.038024582 -0.06254985 -0.35582227 0.27999917 0.042501096 -0.10077142 -0.11771814 -0.13466166 0.25583258 0.39474952 0.07365599 0.0974667 0.20741364 0.10728285 -0.86012775 -0.204397 -0.19229338 -0.03371226 0.124115095 0.29596207 0.36898777 -0.24895544 0.0257801 -0.03724872 -0.101710476 -0.13410275 0.30250096 -0.09571514 -0.38182393 -0.08284037 -0.23389019 -0.058915295 -0.16290018 0.013962182 0.4740166 0.08575982 -0.0128993755 -0.09114155 0.13515164 -0.058927566 -0.006506349 -0.20819677 -0.32272604 -0.0074401093 -0.2680095 -0.08576802 -0.23507437 -0.0746456 -0.012202383 -0.0020000355 -0.4531387 0.14034544 0.24512285 -0.25440702 -0.05075584 0.11663005 0.31137937 -0.21550658 -0.05483236 -0.33122203 -0.45723093 0.39967287 -0.057502035 0.210107 -0.017803835 0.08315507 -0.20388585 0.011056477 -0.143824 -0.13297556 -0.42584422 0.2911131 0.031884093 -0.2988831 0.27444416 -0.8268354 0.2341035 0.078331515 0.41772988 -0.33581755 -0.05333272 0.2478066 -0.41372555 -0.29025167 0.12065105 -0.07652352 0.253393 0.3457313 -0.15000416 -0.31738815 0.17521867 0.022807797 0.054725263 0.025803823 -0.2801754 0.054480895 0.12758754
479 0.093219385 -0.18591622 -0.112388514 0.44213697 -0.10737699 -0.54113203 -0.13185112 0.35673168 -0.39076722 -0.4210401 0.39833346 -0.29383263 -0.00634714 0.17012593 -0.20987128 0.48618346 0.33215776 0.13909383 -0.04504672 0.07955028 -0.031517006 -0.12914698 0.2182937 0.18944408 0.29858142 0.035626378 -0.1511699 -0.13820925 -0.4327794 0.2874842 -0.43282825 0.25688738 0.31571543 -0.06702772 0.03878357 0.274962 -0.39109355 -0.21864769 -0.36866742 -0.32572654 0.24244621 -0.09320213 -0.102234095 -0.03113578 0.18754172 -0.42121536 0.0811529 -0.003628954 -0.37661037 0.106835626 -0.2076874 0.3877467 0.07141272 -0.18567522 -0.0016705751 -0.36203673 0.03844633 0.13933535 0.026995217 0.11662967 -0.12005145 0.09759337 0.17386027 0.106313355 8.4868385e-05 -0.028853016 -0.3564188 0.5340821 0.15767486 0.16499159 -0.10155111 0.024389002 -0.020806337 -0.08942398 -0.16611643 0.4007744 -0.496659 0.19670057 -0.18759388 -0.33063564 0.19094346 0.033464506 0.12309995 0.12294127 0.2578426 -0.03667856 -0.3048324 -0.22385707 0.012030502 0.0475088 0.03251657 -0.25928447 0.19747095 0.68865275 -0.052381538 0.043547846 -0.19142911 0.3351154 0.1018311 -0.43223456 -0.10207906 -0.27450415 -0.16864623 0.14789648 -0.38059855 0.00020980774 -0.11859386 0.102476425 0.25481725 0.12919798 -0.15216254 -0.04460409 -0.21781895 0.26192522 -0.092918344 -0.011270204 -0.020241877 -0.43771335 -0.0068833623 -0.14647625 0.113192335 0.08464259 -0.38022867 0.04583988 0.051820703 0.20371856 -0.00636173 -0.06706487
1187 -0.15653263 -0.0064926194 0.3241218 -0.00867201 0.29157668 0.23841059 -0.45288724 0.3023239 0.1266541 0.22749569 -0.3124008 0.2016561 -0.20416899 0.28725305 0.046893686 0.007337761 -0.29181245 -0.30362135 -0.2011114 0.14824465 -0.19442901 0.19551161 0.11746613 -0.0464331 -0.09438716 0.22448686 0.117476724 -0.07375484 0.13332364 0.23525311 -0.0043756114 -0.08422562 0.30115014 0.2511085 -0.30732855 0.06420852 -0.5451962 0.1454838 -0.19151701 -0.010551418 0.53671956 0.22382389 0.27949822 0.051156852 0.054314643 -0.19667089 0.061805904 -0.053068258 -0.40362036 0.23642874 -0.060773246 0.24525897 -0.46837795 -0.0050359378 -0.045710802 0.47211245 -0.13657197 -0.22319807 -0.17353824 0.21665865 -0.08381247 0.048272897 0.09822033 -0.22729978 0.19627479 0.034463476 -0.26994509 0.26166224 -0.0065878537 -0.123185426 -0.12163902 0.16140959 -0.12869266 -0.1456364 -0.00834956 0.11859881 -0.034727965 -0.119047135 -0.3075508 -0.2783815 -0.07582086 0.03216768 0.23965213 -0.33186358 0.2947242 0.3000658 0.086199254 -0.087351486 0.2722733 -0.0443596 0.35849175 -0.08084734 -0.12654953 0.033554196 0.06454905 0.050061975 0.101317324 0.17305511 -0.01746892 0.014474692 -0.013433775 -0.0456054 0.31064713 0.19447672 -0.021946315 0.41251704 0.53820187 -0.39002833 0.31604832 0.36254746 -0.20923181 0.44805238 -0.0826197 -0.0041447976 0.06885648 -0.13133018 -0.04089782 -0.028996656 -0.005927403 -0.41767037 -0.17670162 -0.14611185 -0.2568877 0.18075086 0.36389595 0.3648972 0.13459064 -0.088717684
709 -0.20181575 -0.14061373 -0.18776275 -0.1400328 0.41413593 0.3811538 -0.14484897 0.3911599 0.45906875 -0.04022069 -0.3094549 0.57008994 0.06255244 0.412447 0.25053835 -0.05284871 -0.55864143 -0.11403736 0.012935494 -0.22096898 -0.053579606 0.16686982 0.09058525 0.40373746 -0.4636092 0.1519735 -0.049290635 -0.25970802 -0.18308757 -0.022345448 0.1698377 -0.1807365 0.2113061 -0.11527279 -0.035742637 0.5449078 -0.02785797 -0.303811 0.06973622 -0.32054684 -0.11089066 0.15946364 0.29020262 -0.18706168 -0.032626506 -0.3189182 -0.4391737 -0.011095689 -0.20576264 -0.43680194 -0.095515355 0.24172992 -0.23608023 0.3631023 0.35711762 0.13194188 0.11224131 0.33397397 0.099331215 0.19243787 0.28331193 0.19837499 0.15876478 0.19773081 -0.029219061 0.2597062 -0.27280408 -0.030116292 0.14176555 -0.040062428 0.21885292 0.46244812 -0.22693066 0.28864685 0.37828425 0.25923485 -0.339442 -0.043325774 0.2618599 0.20938618 0.0076282024 0.5017947 0.12121206 -0.13980108 0.16046692 0.23487347 -0.30986142 0.36237 -0.052676685 0.32294887 0.031979088 -0.41278934 -0.08163122 0.1717439 0.21424967 0.06292846 0.12059476 -0.19229855 0.24128488 0.07000101 0.13356186 0.07305863 0.3235483 -0.060121357 0.045168355 -0.26432216 -0.124431275 0.10169482 -0.052264534 0.2777881 0.15604568 -0.56774265 -0.2194596 -0.3156789 0.04768545 0.08723094 0.12607981 0.14279276 -0.3853573 -0.03703814 0.2454969 -0.16053966 -0.16307323 -0.32232898 0.22635376 -0.2821619 -0.27534497 0.42749998
955 0.01939569 -0.19001251 0.33834043 -0.06783421 0.110977806 0.08867591 -0.22916585 -0.16941659 0.22694774 0.01703418 0.07747014 0.08619903 0.1204316 -0.09769776 -0.09060741 -0.1798536 -0.27756876 -0.3143768 0.28496614 -0.32544306 -0.16362786 0.057265803 -0.15958697 -0.14120625 -0.12427275 0.13505155 0.15813906 0.052321434 0.31978095 -0.2140017 0.42997456 -0.07062334 0.1583394 -0.24085325 0.071578465 -0.2713787 -0.3160897 0.47365177 -0.18217376 -0.19332124 -0.09791651 0.013187012 -0.24892767 0.09653564 -0.13618566 -0.3346364 0.2140424 0.06719117 -0.48820296 0.20360453 -0.057640117 0.21027799 0.128206 0.11984131 -0.0071935393 0.035357665 -0.16629046 -0.113428876 -0.22437479 0.2373648 -0.38889208 0.31764928 0.1797221 -0.47570348 0.07465458 0.45697856 0.029354576 0.83730507 -0.030733332 0.024651246 -0.22981966 -0.039787088 -0.06055858 -0.3941366 -0.04851624 0.15682067 -0.15098809 0.10283162 -0.27453148 -0.36905152 -0.59184575 -0.26865503 0.023864407 -0.07035435 0.3086035 -0.19444494 -0.07600198 -0.10205521 0.01784752 0.011577172 0.116914 -0.07871675 -0.051771726 0.48886818 -0.2659655 0.38411024 0.14242075 0.13006707 -0.1613317 -0.22310406 0.27218196 -0.19042772 0.33026794 0.13150783 -0.09897193 -0.070963934 -0.10689424 -0.022574548 0.4009002 0.38280174 -0.025611257 -0.12423317 -0.10114438 0.095237404 -0.1438162 -0.23397374 0.091344506 -0.067247085 0.30625454 -0.4090919 0.013128075 -0.10236788 -0.068838306 0.01780493 0.092067525 -0.22227037 0.26152492 -0.11481265
854 0.42221275 -0.3239604 -0.19736303 0.24762282 0.34229425 -0.06673101 -0.061434772 0.030687844 0.24979621 0.15586281 -0.30683568 0.3721334 -0.39100793 0.23739792 0.11913813 0.04901158 0.062559105 0.13894343 -0.18876581 -0.26394218 0.0109498715 -0.084507294 -0.14225465 0.20015624 0.010344106 -0.13726264 -0.046137974 -0.17249611 -0.033722147 -0.1568445 -0.3004201 -0.33891794 0.1891645 -0.0549182 -0.14979485 0.25109324 0.06851306 0.26905173 -0.066371284 -0.13813135 0.23821835 -0.2165157 0.063946635 -0.46071303 0.2938127 -0.071797594 -0.2012584 0.316836 -0.18744734 0.20623673 0.24032058 -0.14826433 -0.44540283 0.24461067 0.026210435 0.4137463 -0.34863025 -0.01391162 -0.266763 0.14441395 -0.25890684 -0.008127421 -0.11883292 -0.42740974 0.13127342 -0.45248204 0.001847795 0.10930962 0.3174405 -0.40076467 -0.098506086 -0.0122543145 0.2705716 -0.46725363 0.23504962 -0.08151737 0.1282078 -0.06720263 0.19979686 0.19149841 0.24409337 0.06310029 0.06088607 0.31410986 0.2123897 0.34563717 0.36041453 0.16892327 -0.18178102 0.014392305 0.26425704 -0.25951877 0.44244352 0.2625971 -0.23536985 0.24320403 0.12425841 0.107915066 0.03722124 0.36873296 0.1700565 0.19305405 -0.21750744 0.3105726 0.2638085 0.3151513 -0.23214793 0.36235312 0.38046664 -0.10928377 0.1569014 -0.26163954 -0.19064698 -0.10100054 -0.1591726 -0.2178034 0.053680446 -0.305675 -0.34220946 0.32205358 -0.016429106 -0.48202223 -0.093151964 0.060660727 0.052160222 -0.109783135 -0.041804556 0.34540004
1362 0.21234418 0.1591532 -0.18472147 0.039538383 -0.31666377 -0.18008015 -0.1809134 0.051188458 0.038021646 -0.19884226 -0.0054931506 0.14837506 -0.15083158 0.2685458 0.16119173 0.15169086 -0.045507066 0.17740205 0.28050393 0.15075646 -0.060084913 -0.09606882 0.020844912 0.12890035 -0.13356332 -0.15827362 0.21242279 -0.09050188 0.4711386 0.16914494 0.39570865 -0.25505084 -0.07676232 -0.060587794 -0.13790426 0.39108428 -0.14176144 -0.025882876 -0.4504506 0.0025522993 0.018189987 0.0016510764 -0.03230141 -0.04800424 0.26346776 0.03386611 -0.11006849 0.23719874 -0.04500449 0.12678869 -0.052767534 -0.028996704 -0.26954246 -0.13251074 -0.33637986 0.20445547 -0.12796146 0.4312555 -0.35796914 0.31227365 -0.4706948 0.04498375 0.17190464 -0.26261005 -0.1302294 -0.09735697 0.035149965 0.36857578 0.21131869 -0.23081657 -0.12988083 0.40009636 -0.4845287 0.3378887 -0.097360365 -0.25769082 -0.22723429 0.12608393 -0.3316718 0.05277403 0.14280124 -0.009743576 -0.09746079 0.010970235 0.07850264 -0.011273635 -0.11394714 0.1202005 -0.32389352 0.67914534 -0.21188012 -0.30117762 0.38778797 0.5365744 0.21475928 0.11393329 0.25367507 -0.2745423 -0.16379857 -0.3419614 -0.22878875 -0.1316266 0.49608094 0.30552992 0.2536186 0.29976138 0.6485991 -0.043521844 0.04536724 0.08712479 0.14329341 0.17747024 0.13529192 0.39023003 0.23369241 -0.013978378 0.23095112 -0.00052320183 0.2782322 -0.27398765 0.3275867 0.3764112 -0.31683874 0.008018282 -0.09041205 -0.021887332 -0.031429995 -0.10474481
342 0.017070217 -0.20165278 0.18284525 -0.38732913 0.26591113 -0.12280011 -0.2319523 0.2728973 0.15291786 -0.23448506 -0.5697191 0.014301125 0.026463576 0.14854003 -0.09253196 -0.20549402 -0.21085526 0.53641516 -0.31530216 0.2272557 0.052860804 -0.3628307 -0.055914227 -0.013507919 -0.036577597 0.0005098689 0.25033826 -0.10642279 0.11406577 -0.13085549 0.057780165 0.073941454 0.21372987 0.16859852 0.2538178 -0.1259579 0.029744558 0.06011313 -0.060387924 0.125693 0.21458517 0.08441394 0.06889051 0.7626587 0.3112211 0.29879248 -0.22592169 0.40443245 0.5017349 0.0037178972 0.24567014 0.25765845 -0.115988135 0.026759133 0.20629686 -0.1473381 0.044626474 0.113481276 -0.26930216 -0.0033437097 -0.42416343 -0.0982412 0.34080502 0.017252993 0.050726585 -0.131434 -0.044962164 0.25532866 -0.03194729 -0.36037117 0.09211608 -0.2739904 -0.31928775 -0.28795475 0.23052472 -0.2562545 -0.42642385 -0.03929216 -0.47302437 -0.008094844 0.09646158 -0.068053246 -0.06740197 -0.07606517 -0.10182523 -0.28710672 0.01895311 0.3612194 0.11906118 -0.38217717 -0.21041267 -0.2840074 0.33546874 0.12953413 0.3361359 -0.018945418 -0.18138947 0.12800087 0.08013506 -0.34557605 -0.29777813 0.18289115 -0.04228954 -0.38672206 -0.17735472 -0.36231896 -0.1493267 -0.028670525 0.16494922 0.16114758 0.29349875 0.045914344 -0.011808809 0.08992515 -0.22980838 -0.18198481 0.02147209 0.12162182 -0.32240576 0.010287808 0.049657617 0.32945794 0.024907466 0.012888072 0.18336074 0.2910143 -0.002501054 0.0319518
323 -0.019902917 -0.406688 0.0042346097 -0.12811893 0.33694175 -0.26941216 0.02420757 0.021875462 -0.095866434 0.07569261 -0.17453726 -0.23180512 -0.22584923 -0.26555172 0.07466864 0.1463197 -0.15131335 0.6222516 0.030843562 0.1281995 -0.08421333 -0.14203754 0.18467547 0.23271957 0.44523433 -0.25083315 -0.12616321 -0.19549961 -0.23495047 -0.14413042 0.13268088 0.100394085 0.23384067 0.20739004 -0.22030519 0.009137277 -0.06665127 0.18246914 0.08552517 -0.08148134 -0.020217104 0.40546718 0.12643494 0.33939642 0.1513383 -0.12381861 -0.25196108 0.098523065 0.28364503 -0.028580958 0.26120907 0.543391 0.08269574 -0.6214963 0.29519427 0.14390767 -0.26267755 0.31595218 -0.18042631 0.049086135 -0.47489265 0.48027298 0.3299326 0.54193354 0.098179534 0.15848544 0.12153577 0.067337565 0.062729456 -0.410192 -0.34452313 -0.18417433 0.17617764 -0.2050266 -0.20474838 0.21214262 -0.15758343 0.14782749 0.019236874 0.079347566 0.09969303 -0.15908054 0.26064432 0.45695677 -0.014703297 -0.026454937 -0.074262716 -0.009092107 0.060945436 0.054153 -0.41412795 -0.023051944 0.4035152 0.29592836 -0.078532666 -0.25641218 0.037218213 0.106061146 0.42226484 -0.03808994 -0.22002083 -0.30463183 0.19437607 -0.16443191 0.28029662 0.020244947 0.25754076 -0.12651457 0.16301431 0.4694194 0.2067707 -0.17934379 -0.2965202 0.072713904 -0.3069397 0.2674158 -0.050841574 -0.14165212 0.15934022 -0.11800683 0.08591632 0.1007641 -0.34592098 -0.083594166 -0.16900133 0.04049105 -0.3049798 0.15949918
280 -0.11278675 0.035234753 0.19743666 -0.13766871 -0.11955982 0.24508144 0.21950914 0.019031193 0.08187932 -0.21940862 -0.09617252 -0.10551212 0.0953923 0.5070137 0.17518134 -0.18088771 0.31468347 0.35760915 0.32904938 0.073487565 -0.16532774 -0.091693856 0.20722787 0.19386506 -0.14136183 -0.21323988 0.2464413 -0.07968583 -0.27486706 0.08538264 0.10112507 0.25499493 0.16758217 0.40005264 0.21235432 0.22391744 0.064310506 -0.0877555 0.16226983 -0.07824069 -0.3358033 0.13762936 -0.074421 -0.1512027 0.34967375 -0.16655637 -0.119805664 0.08888578 -0.1358989 -0.31579897 0.27712983 -0.10626116 0.06876865 -0.03613738 -0.47302964 0.08344503 -0.060591884 0.086425066 -0.46626335 0.13745046 0.0013212101 0.56003624 -0.5157491 -0.25924385 -0.06583767 -0.119574316 -0.087894104 0.115626946 0.03232217 0.4170432 -0.03373756 -0.17943819 -0.009865544 -0.15849885 0.21859942 0.020672044 -0.58527064 -0.037991017 0.08579966 0.043240566 0.05331541 -0.009112878 0.06072339 0.28645504 0.1322625 -0.10216216 -0.09544915 -0.0020859917 0.4019011 -0.16363302 -0.51415455 0.0884891 -0.24881612 0.24493907 0.22048165 -0.22983189 -0.14880349 -0.40910608 0.22875229 0.09175505 -0.089210145 -0.0041703507 -0.19182786 0.33826306 -0.13044249 -0.17906629 -0.121952 0.2741834 -0.20038879 -0.13980228 -0.046563905 -0.28889552 0.00928983 0.56920296 -0.36347538 -0.42381796 -0.040759172 -0.29968345 -0.07898741 -0.07918135 -0.27609032 0.065109394 -0.5230749 -0.14123908 0.11220156 0.4269465 0.41675764 0.09125182
824 -0.11852863 -0.113441944 0.25404325 -0.23498559 -0.25601777 0.2552736 -0.16827251 0.068079576 -0.26898363 0.25726902 -0.15749119 0.046298776 0.069376476 0.05480081 0.08637592 -0.043687757 0.03509424 0.5579535 0.045055654 0.38068423 -0.11956075 0.36132616 0.055103227 0.43008205 -0.16949761 -0.25059903 0.23126021 0.13111345 0.04069217 -0.13985601 -0.053789157 -0.0396663 -0.3941375 0.25207606 0.037050646 0.14296119 -0.08192083 0.0987849 0.0044458634 0.002031088 -0.12789631 0.106801465 0.07614267 -0.29924583 0.3363134 -0.10326242 -0.18203177 0.17407782 0.07693691 -0.58831394 0.274548 0.1117906 -0.29564196 0.1899831 -0.19651084 0.4223271 -0.19636132 0.18356714 -0.30615407 -0.10278515 -0.15604657 0.3847649 -0.13421507 0.1865146 0.16183001 -0.1388964 0.13620612 -0.00032445102 -0.065785825 0.21489276 -0.14610009 -0.01833743 -0.068765886 -0.108277865 0.022439033 0.10061743 -0.25914174 -0.16351622 0.19268505 0.2643205 0.13362826 0.028615938 0.1449749 0.30352545 0.19706677 -0.09120734 -0.19170937 -0.15744671 0.2687367 -0.095965885 -0.63639593 -0.08272532 -0.1262778 0.24869432 0.3197237 0.011127204 -0.13210705 -0.5728568 0.2770066 0.07680274 -0.0130202975 -0.25485113 -0.1476102 0.15843205 0.11263638 -0.0010461463 -0.18461402 -0.2744737 0.063634716 -0.41703364 0.19565308 -0.1306853 0.271588 0.55713904 -0.045017112 -0.29948127 0.42887 -0.21117546 0.22182538 0.2397246 -0.21206255 0.107906885 -0.3811199 -0.1589229 -0.0906315 0.11849557 -0.016282042 0.09244866
582 0.055404034 -0.5546826 -0.26325995 -0.05635394 -0.022059288 -0.211916 -0.061218895 -0.4263744 -0.15322807 0.023400836 -0.29116616 -0.14142641 -0.27186304 0.049250096 -0.3634426 -0.031055935 -0.24283323 -0.4156389 -0.027543863 0.38821754 0.013931449 0.46630216 0.08404567 0.12314077 0.192574 -0.22104104 -0.018898917 0.3348974 0.051154945 0.3418441 -0.05398011 -0.48282123 -0.13769409 -0.073917694 -0.31800586 -0.10097304 0.031585306 0.04430322 0.17303886 -0.11469576 0.0315917 -0.09343668 -0.037373655 0.16053398 -0.117858626 -0.19804892 -0.22751787 0.028361013 -0.012911127 -0.107241996 0.39746287 -0.1371847 -0.23335576 -0.41261366 -0.16259333 -0.12819898 0.1841363 -0.081415795 -0.1675623 0.058586195 -0.14122757 0.016246231 -0.14940538 0.51028275 -0.2746235 0.10505778 -0.17985377 0.22197746 0.59599495 -0.20010442 0.2250167 -0.04826625 -0.19691196 -0.05750737 -0.042610805 -0.117113605 -0.17640737 0.18155383 0.040799193 -0.07997991 -0.18532613 0.2539057 -0.16429083 0.01382675 0.20752846 -0.11836996 0.21813087 0.46465212 0.38130394 -0.069434024 0.25538167 -0.35262015 -0.044107854 -0.06905205 0.02560891 0.11561386 0.11320443 0.080902286 -0.20543414 0.3699147 0.47752616 0.1671763 -0.38837382 0.15617444 -0.07179081 0.22421837 -0.027614696 0.014327186 0.13351735 0.20651944 -0.0694219 -0.33654663 -0.024758115 0.5805133 -0.073587656 0.043183252 -0.23020044 -0.043284677 -0.07710614 -0.057765637 0.045860704 -0.13146938 -0.37753996 0.11097588 0.12623647 -0.24971683 0.15502118 0.30067563
472 -0.47898442 -0.1975036 -0.36474255 0.065154664 -0.105247416 0.55458784 0.031565566 0.42225876 0.43684486 -0.08170734 0.23736912 0.06114736 0.20398529 -0.2545704 -0.035747655 0.017666956 -0.25700015 -0.48443803 -0.07826554 -0.19592197 -0.058600817 0.0014346126 -0.033072647 0.25092295 0.5331885 0.1418123 -0.00779384 -0.098583706 0.14107122 -0.029953662 -0.3391292 0.22709928 0.37372142 0.036518965 0.010777549 0.2637711 -0.008289775 -0.112668015 0.21474497 0.05889195 -0.06288738 -0.13206817 0.13680579 0.37403035 -0.12018977 0.3358385 0.043069426 0.13009742 0.013629581 -0.3061805 0.17446278 0.6110627 0.06817253 0.08813126 -0.15579098 0.32847032 -0.100869946 0.06624711 -0.12593994 0.31124064 -0.4114051 -0.24618217 0.27032855 0.17421897 -0.2778729 0.010800285 -0.018165378 -0.0014788114 0.20957944 -0.45665583 -0.11515408 0.07374097 0.1925954 -0.061760847 0.056240674 -0.33511257 -0.36217132 0.16748278 0.2948075 -0.0396538 -0.2947222 0.1337353 0.0039770263 -0.11539905 0.009407933 0.17082651 0.23910119 0.410942 0.3691429 0.24290976 -0.1256636 -0.23993966 0.45083365 0.5689374 0.1346043 -0.24889769 0.15779811 -0.07079339 -0.09243961 0.14465044 -0.08833773 -0.2005197 0.33156145 0.23831011 -0.13142745 -0.037228283 -0.121080674 -0.20218231 -0.054227997 0.2272265 0.2931232 0.07734204 0.08789921 0.27416512 -0.24967702 -0.030649982 -0.07601562 -0.18760888 -0.06927794 -0.022498367 0.20333034 0.18305378 0.0054706316 -0.2079599 0.12000762 -0.00753352 0.1476732 0.2570009
1073 0.017649822 -0.3094085 -0.12701665 -0.020597022 -0.1096489 -0.13869083 0.112384796 0.17275696 -0.11001018 0.11844747 0.40303195 0.13705619 0.42837554 0.059201397 -0.1275304 0.6627331 0.015212929 0.01936355 0.13652603 0.049341917 0.22565581 0.30655083 0.20554112 -0.05294589 0.123858735 0.4297645 0.092278436 0.1454469 0.010744774 -0.21386787 -0.23182897 -0.288156 0.5160723 -0.058495816 0.14591919 0.3746212 -0.34363604 0.09949155 0.13117523 0.026871232 -0.009667324 0.13614935 0.16805497 -0.18258698 -0.0981545 -0.5648866 -0.48056927 -0.16192168 0.07816169 -0.10706744 -0.25780115 0.2527196 -0.024108227 -0.100014076 -0.0804127 -0.007830457 0.0059965947 -0.21402285 -0.23116738 0.28095448 -0.24148217 0.13818005 0.069661744 0.42719305 -0.19655776 -0.49681428 -0.13856262 0.59561056 -0.21600382 -0.0008077244 0.25955996 -0.08968575 -0.25864628 0.20796372 -0.17499572 -0.29176432 -0.50170976 0.105869286 -0.036786936 0.19737205 0.2092797 -0.06285058 -0.04704803 0.41758317 -0.07912378 0.3054111 -0.043920554 -0.21278408 -0.20726952 0.060264558 0.10713002 -0.05193787 -0.20020539 0.3004975 0.013114763 0.20744433 -0.19270591 -0.20675494 -0.17744614 0.15095009 -0.18956761 -0.3152129 -0.29085547 -0.38728005 -0.09063521 0.019762576 -0.09453824 0.35838026 0.29608968 -0.18720262 0.17472748 0.26297712 -0.3154989 -0.0899993 -0.27094793 -0.3254662 -0.018851189 0.27579933 0.14853524 0.39031604 0.03181091 0.02079624 0.17061156 -0.18515019 0.07994737 -0.16973783 -0.17650299 0.34505373
516 -0.17370573 0.044947185 0.15546991 -0.022533037 0.16296107 -0.029350162 0.14205539 0.3914941 0.12976682 0.3422401 0.075732455 0.17479381 -0.037034564 0.20936505 0.25902793 0.020574298 0.273892 -0.14365429 0.07573755 -0.072822355 -0.11771161 -0.0094040735 0.45394626 -0.032893423 0.24805684 -0.14740375 -0.29874444 -0.14346674 -0.07233159 -0.053723227 -0.15993787 -0.04727286 -0.00017791042 0.12633422 -0.07643598 -0.40698466 -0.3545303 -0.13657762 0.16713391 -0.115168266 0.042174134 0.23788919 -0.16762465 0.11603254 0.18731229 -0.044959188 -0.2813766 0.1287212 -0.3085001 0.19399296 0.43646058 -0.23105654 -0.087847665 0.014972661 -0.031198297 0.42508894 0.31453103 0.066388756 -0.28880194 0.28838855 -0.12032014 0.57715374 -0.058781903 -0.25200665 -0.15375021 0.120708086 0.10221981 0.7071391 0.18538606 0.023535846 -0.23340325 0.17188571 0.05876244 -0.5312258 -0.37359798 -0.006664209 0.123786174 -0.013249216 -0.0645713 0.18653153 -0.14760584 0.09507256 -0.054810297 -0.22762412 -0.09751642 0.28328127 -0.11371776 0.30905846 0.014305152 -0.13474743 -0.39778918 0.047837835 0.633007 -0.05695702 0.2008844 0.076085836 0.04381309 0.06191432 0.16840947 0.34429163 0.0648813 -0.03666533 -0.32221103 0.25276023 -0.006483173 -0.036100887 -0.4030833 -0.078595646 -0.074689575 0.12629835 0.11996851 -0.030683385 -0.1086652 0.20012327 -0.3731108 -0.1769854 -0.4320251 0.5309825 0.15842097 -0.36856258 0.025482543 0.5328116 0.031900916 -0.06941155 -0.42642102 0.08767123 -0.2673256 0.17180973
139 -0.09532479 0.32607257 0.004385087 0.1382364 0.024590125 0.090698905 -0.2494489 -0.47442994 0.19609758 -0.026123744 -0.071658395 -0.14178796 0.21807869 -0.14761917 0.032617725 -0.28851238 0.20266455 0.23262297 0.23742515 0.13280879 0.6515242 -0.6125028 0.15907018 -0.26657683 -0.40934172 0.21268785 -0.10887733 0.17194152 0.16117762 0.25310785 -0.1756074 0.23097438 0.10342023 0.016914729 0.30129856 0.25959647 -0.24934089 -0.20995755 -0.3506523 -0.025630504 0.16865125 -0.07983475 0.1641647 0.046598118 -0.27578163 -0.24449101 -0.1507936 -0.033907324 -0.25391528 -0.28119305 0.27479565 -0.1882763 0.10604866 0.036391094 0.45348606 0.49670818 0.03245003 0.11682938 -0.0041552437 0.067342825 -0.32738632 0.42849186 0.18198428 -0.05162003 -0.12436953 0.13735716 -0.15836878 -0.09585094 0.05565925 -0.21281877 -0.017784294 -0.19480906 -0.42564017 -0.064743415 0.44879958 -0.2063999 0.18889347 0.3389436 0.044717655 -0.035715684 -0.3475867 -0.0020536592 -0.034674853 0.5213008 0.011804815 0.343058 -0.29096422 0.16073997 -0.044918858 -0.34675482 0.13262188 -0.12806049 0.13071637 0.37035468 -0.053827498 0.21430922 -0.19814816 0.03809482 -0.1563477 0.0420011 -0.29016247 0.111505054 0.1388632 -0.017284546 0.021036703 0.042941377 -0.07360508 -0.2598587 0.44769666 -0.051306438 -0.021737704 -0.05872445 0.069657415 0.2710962 0.022318095 0.5305938 0.45020208 0.14559172 0.2200156 -0.08225833 -0.08168743 -0.255467 -0.14938004 0.3143226 0.3350977 0.10879784 -0.32707903 0.4042383
551 0.37459657 -0.2483605 -0.22632223 -0.1267647 0.38384095 -0.010657571 -0.43542826 0.09976695 -0.03108034 0.085996576 0.122345954 0.09172594 -0.18322538 -0.18423264 -0.13637322 0.079133525 -0.039879568 0.12446395 0.23882023 0.076985 0.31486163 -0.38695174 -0.16947466 0.5011801 -0.16048583 0.055674665 -0.07414562 0.12716506 -0.062027276 0.17475767 -0.24466236 0.11596848 0.56975377 -0.021165894 0.25081193 0.22567034 -0.09191184 0.15504435 0.07197601 -0.264187 -0.4494437 -0.04711563 -0.18900901 0.3218565 0.09842705 0.093518704 0.12519704 -0.1464248 0.42594755 -0.26762432 0.7673467 -0.12027218 0.28210226 0.047045447 -0.31526485 0.097153395 0.12997237 0.23988971 -0.23482603 0.13175282 0.04503192 0.26631474 0.44031855 -0.31169105 0.24972257 0.341604 -0.37543482 0.35029384 0.11042325 -0.5474548 0.08711828 -0.12608966 0.06302221 -0.07466665 0.22222643 -0.3242074 0.46369758 0.46367598 0.0760057 0.030115688 -0.3788173 -0.18022566 -0.09442953 0.35001287 0.11777414 0.13827573 0.058456957 0.0063181752 0.07120498 0.2660202 0.20086522 0.13503252 0.007852192 0.14159359 0.17326875 0.016192937 0.0105597135 -0.28354186 -0.123347946 0.239653 0.08115086 -0.43564752 0.09057635 -0.08595834 0.44071436 0.50088626 0.3206003 0.22088595 0.34448707 0.063345455 -0.122654594 -0.42026702 -0.2428646 0.11639889 0.13899665 -0.16084829 0.2655475 0.16161332 -0.019364972 -0.013343396 -0.32914343 0.21295662 -0.28205305 0.22024499 0.016574783 0.37162247 0.12693432 -0.1486345
996 0.1645989 -0.24735755 -0.22733031 0.07460732 0.29894271 0.09205983 -0.4048096 0.2990738 -0.031023651 -0.19187145 0.44339377 0.36295164 -0.013122987 -0.18044576 -0.053193025 -0.0073152483 0.09276978 0.19731948 0.08053783 0.042415217 -0.15410617 0.15994677 -0.06989767 -0.08138173 -0.3574614 -0.010802271 -0.19692954 0.12278223 -0.10842989 0.17251268 -0.25406414 -0.11467385 0.13612978 0.58300745 0.08976848 0.2419038 0.13485473 -0.06138533 0.06298315 0.0013972137 0.39700788 0.18541394 -0.027972158 0.06357333 -0.42229757 -0.33149028 -0.110042304 0.19297983 -0.11201598 0.4097058 -0.05368369 -0.0038752754 0.10013663 0.19157612 0.054858405 0.11981172 -0.42728668 -0.1335648 -0.3010025 0.1843668 -0.24562982 0.31812873 0.08960894 -0.29751727 -0.31387618 0.112600915 0.0149338795 -0.20969608 -0.28444064 0.15665776 0.097844124 0.13250135 -0.061207138 -0.018378563 -0.49601617 -0.23317857 -0.45267713 0.1193394 0.08481928 -0.19663627 0.02145806 0.33519128 0.015102838 -0.061994623 0.2194532 0.06824399 0.12594737 0.11739408 0.14340563 -0.059673578 0.4008697 -0.055329245 0.037567645 0.4660201 0.26041946 0.08082471 0.1663033 -0.31064448 0.27499503 0.26627994 0.41059142 0.34822434 0.12808043 -0.23275894 0.064898334 -0.32924223 -0.08503538 -0.3777696 0.38520828 -0.10853321 -0.15903984 -0.10386612 -0.14562233 -0.35212824 0.09419221 -0.05780772 -0.059897207 -0.072234385 0.013903044 -0.12519327 -0.30752486 -0.10290659 -0.14165118 -0.36664382 0.12641431 -0.22048765 -0.28671008 -0.50740737
